tree
version=v3
num_class=1
num_tree_per_iteration=1
label_index=0
max_feature_idx=219
objective=lambdarank
feature_names=Column_0 Column_1 Column_2 Column_3 Column_4 Column_5 Column_6 Column_7 Column_8 Column_9 Column_10 Column_11 Column_12 Column_13 Column_14 Column_15 Column_16 Column_17 Column_18 Column_19 Column_20 Column_21 Column_22 Column_23 Column_24 Column_25 Column_26 Column_27 Column_28 Column_29 Column_30 Column_31 Column_32 Column_33 Column_34 Column_35 Column_36 Column_37 Column_38 Column_39 Column_40 Column_41 Column_42 Column_43 Column_44 Column_45 Column_46 Column_47 Column_48 Column_49 Column_50 Column_51 Column_52 Column_53 Column_54 Column_55 Column_56 Column_57 Column_58 Column_59 Column_60 Column_61 Column_62 Column_63 Column_64 Column_65 Column_66 Column_67 Column_68 Column_69 Column_70 Column_71 Column_72 Column_73 Column_74 Column_75 Column_76 Column_77 Column_78 Column_79 Column_80 Column_81 Column_82 Column_83 Column_84 Column_85 Column_86 Column_87 Column_88 Column_89 Column_90 Column_91 Column_92 Column_93 Column_94 Column_95 Column_96 Column_97 Column_98 Column_99 Column_100 Column_101 Column_102 Column_103 Column_104 Column_105 Column_106 Column_107 Column_108 Column_109 Column_110 Column_111 Column_112 Column_113 Column_114 Column_115 Column_116 Column_117 Column_118 Column_119 Column_120 Column_121 Column_122 Column_123 Column_124 Column_125 Column_126 Column_127 Column_128 Column_129 Column_130 Column_131 Column_132 Column_133 Column_134 Column_135 Column_136 Column_137 Column_138 Column_139 Column_140 Column_141 Column_142 Column_143 Column_144 Column_145 Column_146 Column_147 Column_148 Column_149 Column_150 Column_151 Column_152 Column_153 Column_154 Column_155 Column_156 Column_157 Column_158 Column_159 Column_160 Column_161 Column_162 Column_163 Column_164 Column_165 Column_166 Column_167 Column_168 Column_169 Column_170 Column_171 Column_172 Column_173 Column_174 Column_175 Column_176 Column_177 Column_178 Column_179 Column_180 Column_181 Column_182 Column_183 Column_184 Column_185 Column_186 Column_187 Column_188 Column_189 Column_190 Column_191 Column_192 Column_193 Column_194 Column_195 Column_196 Column_197 Column_198 Column_199 Column_200 Column_201 Column_202 Column_203 Column_204 Column_205 Column_206 Column_207 Column_208 Column_209 Column_210 Column_211 Column_212 Column_213 Column_214 Column_215 Column_216 Column_217 Column_218 Column_219
feature_infos=[1:3.4028234663852886e+38] [0:353642] [0:2] [0:98563] [0:141] [0:29690] [0:10] [500:913] [0.50001901388168335:0.89942401647567749] [1:223] [1:13] [0:42] [0:20905] [0:13] [0:2588.087158203125] [0:0.44487801194190979] [0:0.44487801194190979] [0:0.44487801194190979] [0:339174] [0:339174] none [0:3] [0:16] [0:1] [0:1] [0:7] [0:30] [0:7] [0:2.6096858978271484] [0:0.42510500550270081] [0:0.42510500550270081] [0:0.42510500550270081] [0:717] [0:717] [0:1] [0:3] [0:16] [0:1] [0:1] [0:6] [0:15] [0:6] [0:1.5579119920730591] [0:0.42510500550270081] [0:0.42510500550270081] [0:0.42510500550270081] [0:199] [0:199] none [0:3] [0:16] [0:1] [0:1] [0:4] [0:8] [0:4] [0:0.61244601011276245] [0:0.41962400078773499] [0:0.41962400078773499] [0:0.41962400078773499] [0:17] [0:17] none [0:3] [0:16] [0:1] [0:1] [0:4] [0:39] [0:4] [0:1.7509390115737915] [0:0.37298399209976196] [0:0.37298399209976196] [0:0.37298399209976196] [0:959] [0:959] [0:1] [0:3] [0:16] [0:1] [0:1] none none none none none none none none none none none none none none [0:4] [0:4] [0:4] [0:0.40214100480079651] [0:0.32457301020622253] [0:0.32457301020622253] [0:0.32457301020622253] [0:49] [0:49] [0:1] [0:3] [0:16] [0:1] [0:1] [0:7] [0:160] [0:6] [0:7.2383131980895996] [0:0.42510500550270081] [0:0.42510500550270081] [0:0.42510500550270081] [0:8393] [0:8393] [0:1] [0:3] [0:16] [0:1] [0:1] [1:20.5] [1:14225] [1:13] [0.00021399999968707561:647.20751953125] [0.00021399999968707561:0.44487801194190979] [0.00021399999968707561:0.44487801194190979] [0.00021399999968707561:0.44487801194190979] [1:339174] [1:339174] [0:1] [1:3] [0:16] [0:1] [0.31428572535514832:1] [1:51] [1:20911] [1:25] [0.00021399999968707561:2588.830078125] [0.00021399999968707561:2.1390419006347656] [0.00021399999968707561:2.1390419006347656] [0.00021399999968707561:2.1390419006347656] [1:339174] [1:339174] [0:2] [1:18] [0:112] [0:7] [1:7] [1:42] [1:20905] [1:13] [0.00021399999968707561:2588.087158203125] [0.00021399999968707561:0.44487801194190979] [0.00021399999968707561:0.44487801194190979] [0.00021399999968707561:0.44487801194190979] [1:339174] [1:339174] [0:1] [1:3] [0:16] [0:1] [0.3333333432674408:1] [1:7] [1:14225] [1:13] [0.00021399999968707561:192.94474792480469] [5.4000000091036782e-05:0.44487801194190979] [0.00021399999968707561:0.44487801194190979] [0.00021399999968707561:0.44487801194190979] [1:339174] [0:339174] none [1:3] [0:16] [0:1] [0.10000000149011612:1] [1:20911] [0.00021399999968707561:0.44487801194190979] [1:20911] [0.00021399999968707561:0.44487801194190979] [1:20911] [1:20911] [0.00021399999968707561:0.44487801194190979] [5.4000000091036782e-05:0.44487801194190979] [0:220] [0:7] [3:202] [1:16] [0:3] [0:20] [1:3.4028234663852886e+38] [0:2077] [500018:892886] [0:1] none [0:20] [2:25] [0:2] [0:316] none [0:1] none none [2:6] [0:60] [0:5560] [0:399] [0:29688] [0:28150] [0:100] [0:1] [0:1] [0:100] [0:1] [0:1] none [0:1447]
tree_sizes=7119 7062 7147 7155 7130 7143 7170 7146 7157 7158 7139 7185 7168 7187 7151 7182 7152 7172 7171 7150 7162 7193 7182 7131 7181 7151 7189 7180 7170 7156 7149 7153 7161 7162 7140 7060 7168 7136 7155 7083 7137 7128 7165 7137 7117 7053 7161 7048 7111 7064 7091 7099 7070 7073 7121 7092 7104 7051 7060 7138 7142 7036 7060 7058 7074 7074 7090 7123 7118

Tree=0
num_leaves=64
num_cat=0
split_feature=195 212 31 172 5 0 189 0 193 150 139 193 210 203 27 138 189 188 195 206 27 6 0 0 212 193 189 5 138 189 187 0 27 184 53 184 195 195 195 210 189 210 135 27 6 6 210 210 59 27 139 6 17 195 180 3 210 211 123 206 212 189 179
split_gain=45130.6 10271.4 3756.04 3750.75 2928.41 2430.1 1849.02 2007.85 1251.28 1216.44 925.455 891.251 690.229 626.817 610.666 562.098 491.099 460.22 455.178 367.8 365.252 328.738 321.093 318.877 293.15 252.323 248.822 212.246 265.399 198.368 196.017 191.759 188.51 188.443 186.566 186.274 179.536 170.768 157.755 153.811 153.171 147.511 138.521 138.348 174.528 134.364 152.666 133.419 131.461 143.11 130.29 121.031 119.862 119.451 206.053 111.321 109.354 107.744 107.635 106.018 104.072 99.3895 95.7618
threshold=548261.50000000012 1.0000000180025095e-35 0.012074000202119352 7.5000000000000009 21.500000000000004 97562.000000000015 9.5000000000000018 97562.000000000015 1200.0000000000002 2.5357142686843877 2.5000000000000004 1692.0000000000002 14.500000000000002 1.0000000180025095e-35 1.5000000000000002 5.5000000000000009 7.5000000000000009 4.5000000000000009 518320.50000000006 3.5000000000000004 1.5000000000000002 1.5000000000000002 56666.500000000007 5.0000000000000009 1.0000000180025095e-35 56867.000000000007 10.500000000000002 87.500000000000014 3.5000000000000004 10.500000000000002 8.5000000000000018 9304.5000000000018 1.5000000000000002 1.5000000000000002 1.5000000000000002 2.5000000000000004 527008.50000000012 602762.50000000012 520754.50000000006 48.500000000000007 8.5000000000000018 1.0000000180025095e-35 0.22500000149011615 1.5000000000000002 1.0000000180025095e-35 1.0000000180025095e-35 1.0000000180025095e-35 13.500000000000002 0.010899499990046026 1.5000000000000002 1.5000000000000002 1.0000000180025095e-35 0.060895498842000968 533144.50000000012 0.027451249770820144 1.0000000180025095e-35 15.500000000000002 16.500000000000004 1.5357142686843874 3.5000000000000004 93.500000000000014 9.5000000000000018 2.5357142686843877
decision_type=2 2 2 2 2 2 2 2 2 2 2 2 2 2 2 2 2 2 2 2 2 2 2 2 2 2 2 2 2 2 2 2 2 2 2 2 2 2 2 2 2 2 2 2 2 2 2 2 2 2 2 2 2 2 2 2 2 2 2 2 2 2 2
left_child=2 4 11 6 10 31 21 41 47 20 50 12 23 19 30 37 24 18 -13 25 27 22 -3 -1 -7 -11 -17 28 -6 48 45 -4 -24 -16 53 -18 -14 -10 -25 -28 -27 -8 -15 44 -43 46 -9 -5 49 55 -2 56 -38 -19 -55 -12 -33 59 -37 -30 -40 -22 -49
right_child=1 3 5 8 9 16 7 14 15 13 29 17 36 42 33 26 35 34 -20 -21 61 -23 32 38 -26 40 39 -29 57 -31 -32 51 -34 -35 -36 58 52 -39 60 -41 -42 43 -44 -45 -46 -47 -48 62 -50 -51 -52 -53 -54 54 -56 -57 -58 -59 -60 -61 -62 -63 -64
leaf_value=-0.88466541330299264 -0.68367539586784243 1.0009797318858356 0.82188499374008239 0.93904010251765779 -0.98459599959228583 -0.53347492765279536 1.0080253741528111 0.3801229382006367 -0.70166736189785039 0.49782855169329848 0.39749531403146732 -0.86440389223011838 -0.97402742497748895 -0.16595616466620017 -0.037099628825412199 0.37037791968766731 -0.84430167251774679 -1.0639778268117757 0.23392442309700681 0.54699973260214996 0.098977941519496945 1.0374246732332348 0.43277647400910346 -0.27785417572426452 0.45849895104204041 -0.11903375330585692 0.098355000772252843 -1.0052525519707145 -0.42074682802255692 -0.00060345258606780733 -0.33747128323908215 0.53423342391649586 0.82684482326766562 0.55448700646602256 0.84200550698984378 -0.56931269311110388 0.67175759483561936 -0.071633391241133881 0.68508495553759263 -0.57328587040129764 -0.78261869803151607 0.088517481506234161 0.70883572568140008 0.90315531622624756 0.78506515932386323 0.53725648660295433 -0.25552771134812097 -0.23122588424637372 0.74878205521846031 0.62146862014497395 -0.10228677202102636 0.7019219045536309 -0.55135417180055679 -0.51131221939295624 -0.98341014219411083 -0.25769042617187754 -0.34522256475094987 -0.92854559336122311 0.31374040878987225 0.32603934656460898 -0.27206867906177862 -0.48699159551398213 0.60257355723409445
leaf_weight=89.804659209213241 200.97977734697997 1416.9020976505426 508.08161207581338 367.91663624861849 427.8663613001554 175.87124667027092 1448.5673216949722 179.69095105783572 584.43059390073631 72.294400188438885 217.18288579268119 333.91641319498012 578.99098148340727 67.198592465079855 196.96788965959058 470.43794701508341 992.69027114454093 6749.1640312517702 178.85910025232442 130.76490838537575 186.12937687166414 6220.8979644848796 740.79915395490207 107.5757367924034 192.73708311024893 146.24818576958205 224.15129626901671 835.1972187411593 546.02562864231732 201.7942096662664 543.56779862399526 69.866572449715477 758.24707471816146 1064.2376459773141 16.546345980495971 110.9409990449094 27.454645816487755 171.84238962029212 210.42340118359243 198.41320761857423 403.91228115254489 184.87572441341763 331.54828458937118 659.16155005660494 278.01373616995625 170.28420048328553 332.33182271896476 56.074817444670771 775.11036416931165 500.73138547159033 291.63315255848283 119.18916419831294 249.36404189756104 327.31197852114428 2227.4675237119968 126.77413456968497 116.27363675388074 114.11476874312939 69.173867992492887 65.74614840290451 42.076794467882792 171.84166342466051 175.86852253400502
leaf_count=2244 15091 49459 38975 13610 46500 14848 47218 26958 229173 4417 6467 59768 183536 4098 37097 72115 283080 1756536 17108 4396 8807 142338 103681 40596 29380 9868 50142 90594 42304 9992 173536 11033 46516 128632 679 35623 3290 34238 22804 72377 45835 58402 9148 43475 29236 19566 93083 13924 11567 10419 13166 14715 88238 62767 614333 7210 47252 10630 9390 2822 15569 14005 20497
internal_value=0 0.486051 -0.801698 0.71046 -0.14874 -0.164178 0.816083 0.546567 0.0438611 -0.469442 0.336133 -0.936473 -0.505193 -0.0018559 0.190678 -0.206058 -0.574175 -0.993739 -0.481301 -0.300044 -0.698952 0.965274 0.811346 0.0519531 -0.0147939 -0.477991 0.0924283 -0.791937 -0.637519 0.518841 -0.0885633 0.612766 0.632104 0.462096 -1.02193 -0.749986 -0.798072 -0.558509 0.28555 -0.217011 -0.606219 0.890891 0.561412 0.739671 0.506868 0.109732 -0.0324504 0.730998 0.583553 0.431934 -0.339486 0.264784 -0.430047 -1.02525 -0.922926 0.15601 -0.0151242 -0.432937 -0.230172 -0.340491 0.525584 -0.182313 0.400994
internal_weight=0 22256.8 13493.8 16443.7 5813.09 2354.82 14194.5 5057.7 2249.14 3498.89 2314.21 11139 1305.69 1151.97 2487.08 1649.28 1541.41 9833.27 512.776 753.22 2346.92 9136.85 2915.95 449.881 368.608 622.455 893.002 1988.95 1153.75 1821.59 1225.87 813.411 1499.05 1261.21 9320.49 1172.81 855.81 756.273 360.076 422.565 550.16 2570.62 398.747 1122.05 462.889 682.307 512.023 599.86 1619.8 844.688 492.613 305.329 276.819 9303.94 2554.78 343.957 186.14 725.887 180.115 611.772 252.5 357.971 231.943
internal_count=5224373 1872609 3351764 1505273 367336 484296 999197 657203 506076 293424 73912 2867468 356277 77762 478872 458045 372321 2511191 76876 64516 215662 341994 199656 81213 44228 60120 194634 192850 102256 45655 313143 111975 150197 165729 2434315 328093 275064 263411 78969 122519 55703 178331 13246 131113 87638 139607 120041 48031 35663 24096 28257 73000 91528 2433636 677100 13677 58285 55756 45013 45126 38373 22812 34421
shrinkage=0.555587


Tree=1
num_leaves=64
num_cat=0
split_feature=150 3 193 193 139 123 193 195 212 73 26 5 27 212 189 195 189 211 189 210 31 193 4 211 193 5 0 0 187 195 201 193 27 140 207 3 4 184 3 125 208 0 0 6 0 32 190 6 0 193 193 9 38 136 211 137 8 125 207 7 189 210 8
split_gain=12383 6009.99 3592.47 2858.81 1917.69 1716.21 1468.91 1304.3 973.224 953.232 678.878 662.81 520.828 492.018 415.312 410.053 318.731 408.034 318.403 323.889 316.442 302.982 297.775 296.908 286.954 281.215 260.243 258.985 253.157 248.833 257.659 242.69 217.738 205.414 194.388 190.474 189.185 189.06 187.933 186.196 180.621 173.542 172.082 166.956 205.021 156.47 149.797 144.823 143.763 155.77 143.063 142.047 151.395 141.597 141.305 136.774 133.8 132.275 128.922 128.5 126.76 124.971 123.329
threshold=2.5357142686843877 7.5000000000000009 208.00000000000003 296.50000000000006 4.5000000000000009 1.3095238208770754 19433.000000000004 570311.50000000012 82.500000000000014 0.06358750164508821 2.5000000000000004 93.500000000000014 1.5000000000000002 73.500000000000014 6.5000000000000009 536214.50000000012 5.5000000000000009 1.0000000180025095e-35 6.5000000000000009 1.0000000180025095e-35 0.045779500156641013 35888.000000000007 45.500000000000007 3.5000000000000004 25846.500000000004 43.500000000000007 9642849.0000000019 9642849.0000000019 12.500000000000002 538314.50000000012 46.500000000000007 17510.000000000004 1.5000000000000002 1.4431064724922182 1.0000000180025095e-35 3.5000000000000004 45.500000000000007 6.5000000000000009 35.500000000000007 1.5857142806053164 1.5000000000000002 9073923.0000000019 10158574.000000002 2.5000000000000004 9642849.0000000019 2.5000000000000004 1.5000000000000002 1.0000000180025095e-35 2805623.0000000005 17510.000000000004 8.0000000000000018 111.50000000000001 0.6904762089252473 0.60912698507308971 6.5000000000000009 5.5000000000000009 0.51662200689315807 1.3666666746139529 1.0000000180025095e-35 604.50000000000011 5.5000000000000009 3.5000000000000004 0.52260950207710277
decision_type=2 2 2 2 2 2 2 2 2 2 2 2 2 2 2 2 2 2 2 2 2 2 2 2 2 2 2 2 2 2 2 2 2 2 2 2 2 2 2 2 2 2 2 2 2 2 2 2 2 2 2 2 2 2 2 2 2 2 2 2 2 2 2
left_child=2 3 8 13 14 7 38 25 15 12 18 23 26 32 54 -1 41 -18 -6 -20 -15 35 -21 34 33 39 -8 55 58 -10 -31 60 -2 -16 51 -13 -19 -24 50 -4 -17 48 46 -25 -45 -22 -14 -42 49 -9 -3 62 -53 -40 -5 59 -41 -52 -12 -11 -27 -26 -7
right_child=1 6 5 4 10 11 9 16 29 27 28 21 42 20 24 40 17 36 19 22 45 -23 37 43 61 31 -28 -29 -30 30 -32 -33 -34 -35 -36 -37 -38 -39 53 56 47 -43 -44 44 -46 -47 -48 -49 -50 -51 57 52 -54 -55 -56 -57 -58 -59 -60 -61 -62 -63 -64
leaf_value=-0.15240805218969619 0.31822838859334379 0.84535816931225483 -0.58589003064130496 0.054056137549380892 0.18914061468529567 -0.53696245398052889 0.02078159056988111 0.26698656766821005 -0.65118110258668038 0.28842437306723118 0.36881305978142159 -0.29122445847248868 0.56873292817670562 -0.57713761366921357 -0.51875998492343733 0.48440441349676394 -0.1107876846394909 -0.67133180019353722 0.10921384548446239 -0.52816161133198569 0.38211138050792282 -0.52667204188232408 -0.25543163926012952 -0.30286791571140315 -0.34817070519553578 -0.1414190212162674 -0.55629072200692342 0.33139164846405705 0.021246837888519426 -0.50172290450831891 0.11497537621857616 -0.69745575572910301 0.60718539921260217 -0.15145369496746622 -0.19585941973320575 0.13987599952470894 -0.36261100663034207 0.041536313813877374 0.45899955669417858 -0.70582954660737485 -0.37223563587725617 -0.26610732987027935 0.1118650308256304 0.19826049549094485 -0.37292008151703798 0.025434247170447941 -0.0641184279195018 0.27974873270448064 0.5060006806551457 -0.19830527661729852 0.36454309786933464 -0.16205300997549291 0.3206766861351138 0.87968930540595658 -0.33784588824042255 0.7985562087243524 -0.20635114628929704 0.6906802443367519 -0.081296664197798046 0.66727094547831844 -0.53059120785772351 -0.70855489671143734 0.21778956963781079
leaf_weight=466.98351142999672 1177.226351175821 704.96151643438498 1001.2288953184452 821.6396306002589 1382.9697015477614 69.049694906336299 1032.8659859001164 372.64573054504581 323.74909458741968 422.81132663358585 2656.4440533877132 1342.4354142849988 909.74074568101059 164.00482255010138 816.18760485764869 2340.0213704399939 1777.3448125313598 829.36399676141082 1420.3984312710381 705.06883882633156 914.66485830119927 1549.7393799319088 1476.1474512117311 1577.527160365973 389.04126851118781 287.98904691331427 314.73123448648039 992.412785985136 1092.4155918889992 311.05885190363915 638.15494737056724 4669.6795669438025 2545.5256642532768 1107.9720327665564 799.97448124363655 413.90336475617005 2345.6004149774899 1199.4162326720834 268.69777752904702 191.17895013186899 123.3237729759021 722.14596082969729 584.9012710785064 563.18925108695294 295.89417408146983 649.05699668942543 132.23404418010614 714.18074262186201 203.11392590910691 549.72784012486227 699.64940093868063 865.04980551392509 261.0652059798449 3053.3443345381529 434.0039876713563 1230.0517858648673 1234.9131703953135 850.50370044442752 212.10738686630066 797.89388655126095 2510.0059751223289 1255.6682571381425 2077.2165528901933
leaf_count=84024 12153 2255 228688 9724 14357 13223 10482 3030 69938 1710 47873 218446 4626 6580 56840 16970 98267 67355 41924 34191 10295 371162 95620 169688 27654 38303 14068 8395 50553 13348 15619 1702721 17010 34331 98178 27277 167920 40603 1743 52376 7965 41293 11780 19000 25802 10923 3081 15198 2217 6593 5034 36157 3144 9202 5646 3052 192099 4741 10356 2302 571354 124077 113837
internal_value=0 0.240932 -0.248501 0.05758 -0.0678588 -0.329404 0.553072 -0.437793 0.187641 0.371824 0.0692733 -0.145038 0.141448 0.402092 -0.35622 0.333716 -0.250464 -0.323935 -0.0457508 -0.113413 0.157061 -0.34762 -0.206951 -0.0421417 -0.452909 -0.566527 -0.113994 0.570841 0.248853 -0.230574 -0.0871176 -0.619926 0.51581 -0.307257 0.0496445 -0.18963 -0.443255 -0.122305 0.761634 -0.402244 0.405159 -0.0535361 0.353039 -0.195546 0.00152872 0.234065 0.48842 0.183743 0.0828559 -0.0103239 0.637849 0.109661 -0.0501427 0.845663 -0.0814019 0.667804 -0.27331 0.543481 0.335531 0.536051 -0.490535 -0.623309 0.193508
internal_weight=0 32414.8 31427.5 20420 14969.5 26510 11994.8 16694.9 4917.47 6417.64 10145 9815.04 2974.47 5450.48 4824.51 3644.51 6799.94 4952.31 6184 4801.03 1727.73 3306.08 3380.63 6508.97 3568.87 9895 1347.6 3443.17 3960.97 1272.96 949.214 7467.67 3722.75 1924.16 4072.36 1756.34 3174.96 2675.56 5577.16 2427.32 3177.53 1847.63 1626.88 2436.61 859.083 1563.72 1041.97 837.505 1125.49 922.374 2255.11 3272.38 1126.12 3322.04 1255.64 2450.76 1426.09 1550.15 2868.55 1220.71 2798 1644.71 2146.27
internal_count=5224373 733181 4491192 650710 593749 4268130 82471 3172216 223062 59496 335477 1095914 44037 56961 258272 124157 386675 333542 226695 212338 27798 616885 170414 479029 242902 2785541 24550 15459 108782 98905 28967 2312378 29163 91171 264539 245723 235275 136223 22975 473163 40133 53133 19487 214490 44802 21218 7707 23163 11840 9623 12030 166361 39301 10945 15370 7064 244475 9775 58229 4012 609657 151731 127060
shrinkage=0.555587


Tree=2
num_leaves=64
num_cat=0
split_feature=184 189 172 189 193 172 138 210 24 3 4 4 187 210 140 190 212 189 207 138 8 207 32 191 189 124 3 24 0 2 212 43 58 124 195 47 138 215 212 40 6 6 210 6 2 210 68 211 206 206 125 6 210 189 134 12 125 28 211 125 10 137 6
split_gain=6884.03 2433.02 1744.43 1269.46 799.748 776.638 495.292 472.051 331.243 299.237 281.629 247.305 244.181 227.102 210.551 201.614 182.702 178.662 161.855 158.2 153.472 144.781 139.232 133.351 118.846 118.801 111.017 110.1 109.992 109.932 109.677 106.667 102.151 100.434 98.1815 94.2457 92.3921 91.2987 88.8366 78.2829 86.114 76.2778 75.9865 93.8912 73.265 71.5779 69.0259 67.4763 64.8163 63.0108 61.8857 59.8784 94.8326 59.7418 59.2841 58.8013 58.4018 57.0133 56.9343 56.8475 56.8043 55.5559 55.1848
threshold=2.5000000000000004 8.5000000000000018 9.5000000000000018 7.5000000000000009 9195.0000000000018 1.5000000000000002 23.500000000000004 1.0000000180025095e-35 0.84523808956146251 1.0000000180025095e-35 50.000000000000007 50.000000000000007 11.500000000000002 54.500000000000007 0.24009499698877337 1.5000000000000002 2.5000000000000004 11.500000000000002 1.0000000180025095e-35 10.500000000000002 0.54382950067520153 1.0000000180025095e-35 3.5000000000000004 1.5000000000000002 9.5000000000000018 9.5500001907348651 137.50000000000003 0.84523808956146251 1405.0000000000002 1.5000000000000002 1.0000000180025095e-35 0.0059625001158565291 0.071114502847194686 4.0714285373687753 532278.50000000012 5.5000000000000009 71.500000000000014 89.500000000000014 86.500000000000014 1.5000000000000002 1.0000000180025095e-35 1.0000000180025095e-35 2.5000000000000004 1.0000000180025095e-35 1.5000000000000002 1.0000000180025095e-35 1.5000000000000002 6.5000000000000009 3.5000000000000004 2.5000000000000004 1.3666666746139529 1.0000000180025095e-35 11.500000000000002 4.5000000000000009 15.775000095367433 6.5000000000000009 2.2916666269302373 0.06278149783611299 5.5000000000000009 2.8166666030883794 2.5000000000000004 1.5000000000000002 1.0000000180025095e-35
decision_type=2 2 2 2 2 2 2 2 2 2 2 2 2 2 2 2 2 2 2 2 2 2 2 2 2 2 2 2 2 2 2 2 2 2 2 2 2 2 2 2 2 2 2 2 2 2 2 2 2 2 2 2 2 2 2 2 2 2 2 2 2 2 2
left_child=2 5 3 8 6 9 29 21 54 33 30 16 18 14 61 34 -11 27 23 53 -16 25 36 37 60 -5 -18 -9 -14 32 -7 46 -3 58 -10 -17 51 45 -31 -29 -41 47 -32 -44 -24 -6 -13 49 -20 -21 -36 52 -8 -12 -1 -39 -30 -38 -2 -26 -22 -4 -47
right_child=1 4 13 7 12 10 22 17 15 11 19 31 28 -15 20 35 26 -19 48 41 24 -23 44 -25 59 -27 -28 39 56 38 42 -33 -34 -35 50 -37 57 55 -40 40 -42 -43 43 -45 -46 62 -48 -49 -50 -51 -52 -53 -54 -55 -56 -57 -58 -59 -60 -61 -62 -63 -64
leaf_value=0.37736243408252318 0.19106692279356202 0.096066107130257761 -0.55260048810969087 -0.12662310070295035 0.099045106693624541 -0.40013633816793859 0.22664332909158152 -0.024449242039081349 -0.38525289359107801 -0.073319724507778045 0.23124535361399665 0.35842805628967961 0.28678336895521683 -0.54809536577097773 -0.52832033170460768 -0.38802304594630721 0.29444823445301216 -0.4748491113420647 -0.33264914140725671 -0.5664696186450402 -0.17379315592006925 -0.32347223473927766 0.18913541652744303 -0.46393834472559886 -0.42135106641797104 0.1080025055955136 0.55833932912951001 -0.36950417821052722 -0.45586544483701158 -0.013628166655646997 0.18978338203467959 0.59644620134098791 -0.2960620309664812 0.32355744186628943 -0.06048711469590929 0.047950949294540697 0.19726589572182604 -0.13733145220428344 -0.24323853162874348 -0.30574752640997788 0.16021826276687509 0.34074648345301256 -0.36506915131170847 0.021870976482740861 -0.12644337352494361 -0.34930754358441868 0.59631609481640213 -0.18230635472876475 0.18472286420175896 0.24654824407140341 0.16947671456460014 0.3249184727931736 -0.085255488455243847 -0.0069555502386253257 0.13222887395216326 0.14817724443409655 -0.18876436000270322 0.4522812355420624 -0.10171520961701223 -0.13327891990937127 0.085768821974455511 -0.35951593429052975 -0.01275121444670224
leaf_weight=1245.1660044695745 883.79388524196111 1671.2012412953009 1449.8640889694625 1647.7328792753724 296.72473535449535 216.44402779288703 991.91831933489448 494.30939381855751 127.06460622344639 321.74235279086133 481.96806950536484 1325.2101969150572 75.908181722512381 3636.1997657790662 502.18508310056495 488.41090906078898 1651.9508403309192 2176.7269421712117 938.86008177615531 30.439102150790859 572.44046742223873 648.31020489408547 440.8905351786525 201.98073647631827 641.99665138670025 1118.2384258389793 700.87179147622737 1758.5834494361261 1180.5874984875618 971.54207715289158 548.97617233623987 2924.0515945686639 233.74757068871986 2344.6161787319543 465.78094966676872 222.90707949311764 370.99264979158761 274.82046666762471 1119.450487525115 312.04167184797552 201.46820749307517 2463.0571568753585 246.89583919852066 896.25981320886149 468.26886167029807 423.36593166061357 525.92702613694564 150.24355546652805 81.210640555684222 883.41883805971156 1609.1757362123972 762.92174149532366 431.94385335810512 997.99975268301932 403.13081855863493 1173.2916013823306 321.49594441558293 1000.1579880826175 266.94013932691814 315.30403684900375 477.22756938175007 673.72568431920081 233.23548207435306
leaf_count=21384 16186 46810 593443 83861 14771 46864 11853 35223 35223 8586 17979 12490 2619 1608455 127991 50270 9379 447610 140102 2701 79576 74532 10011 26224 113895 42177 2731 266219 205623 32859 9675 13421 13906 36015 24119 9067 13590 33399 87288 24260 7724 47945 23249 33034 21932 58499 2005 12057 6144 20054 47447 14032 23749 47922 23015 67675 28415 9802 9589 32383 30545 185037 19732
internal_value=0 0.1646 -0.244906 -0.117366 -0.0118615 0.299602 0.0935122 -0.246035 0.118368 0.391694 0.153854 0.454619 -0.183309 -0.444167 -0.362595 0.0057549 0.31936 -0.355773 -0.10387 0.223074 -0.253631 -0.0871571 0.220633 -0.0303688 -0.184898 -0.0317677 0.373058 -0.262079 -0.365722 -0.0485973 -0.0277445 0.530377 0.0479499 0.257579 0.0888239 -0.251401 0.270216 0.00609793 -0.136554 -0.313777 -0.122933 0.287044 0.0198889 -0.0616994 0.0265944 -0.127417 0.426014 0.16274 -0.29146 0.219468 0.117855 0.199322 0.132025 0.0706172 0.317409 0.0939938 -0.398697 0.383282 0.123149 -0.326469 -0.0557843 -0.491343 -0.229757
internal_weight=0 31525.3 21188 12919 13664.5 17860.8 8463.04 8357.41 4561.64 10945.1 6915.7 7449.75 5201.48 8268.94 4632.74 2913.34 2674.56 4943.13 3623.49 5007.13 2509.15 3414.28 4467.09 2603.42 2006.97 2765.97 2352.82 2766.4 1577.99 3995.94 1908.58 4775.19 1904.95 3495.35 2202.02 711.318 3557.93 2401.44 2090.99 2272.09 513.51 3527.16 1692.13 1143.16 909.159 953.326 1851.14 1064.1 1020.07 913.858 2074.96 2186.78 1423.86 1479.97 1648.3 1448.11 1502.08 1371.15 1150.73 957.301 1049.67 2123.59 656.601
internal_count=5224373 1260917 3963456 1192131 889035 371882 285832 981606 210525 110402 261480 48612 603203 2771325 1162870 166126 20696 781036 366546 148658 384390 200570 104969 220300 256399 126038 12110 333426 236657 180863 112822 27916 60716 61790 106789 59337 73026 194076 120147 298203 31984 82757 65958 56283 31943 93002 14495 34812 146246 22755 71566 49634 35602 65901 44399 101074 234038 23392 25775 146278 110121 778480 78231
shrinkage=0.555587


Tree=3
num_leaves=64
num_cat=0
split_feature=172 6 195 193 0 0 184 189 31 176 206 215 32 4 193 25 27 38 3 23 2 0 207 189 189 138 6 210 4 206 5 212 207 5 195 123 4 172 44 193 207 123 125 189 2 208 212 138 125 7 187 5 125 195 210 211 195 125 206 195 206 210 189
split_gain=3846.4 1968.11 856.126 749.047 423.558 361.965 360.464 250.7 223.921 219.611 217.244 197.232 188.058 150.529 145.307 139.546 136.741 120.983 120.966 120.477 117.01 109.22 102.302 100.983 97.7284 85.0736 80.1511 81.229 79.6978 77.2797 81.2153 75.3896 72.5363 72.1131 71.2634 67.8587 67.6751 62.0687 61.4441 61.2513 61.0818 60.5858 57.5201 54.3171 52.3487 52.2359 52.1619 52.1547 51.6599 51.3684 51.0194 50.1712 47.7707 56.1863 46.1888 46.0201 45.8236 51.0995 45.4523 43.8953 42.749 42.4302 41.9319
threshold=4.5000000000000009 2.5000000000000004 539424.50000000012 1623.5000000000002 10158574.000000002 6068.5000000000009 1.5000000000000002 12.500000000000002 0.048466999083757407 4.5000000000000009 2.5000000000000004 94.500000000000014 5.5000000000000009 54.500000000000007 1159.5000000000002 1.5000000000000002 2.5000000000000004 0.77500000596046459 76.500000000000014 1.0000000180025095e-35 1.0000000180025095e-35 7.0000000000000009 1.0000000180025095e-35 10.500000000000002 4.5000000000000009 4.5000000000000009 1.0000000180025095e-35 1.0000000180025095e-35 27.500000000000004 2.5000000000000004 92.500000000000014 1.5000000000000002 1.0000000180025095e-35 106.50000000000001 538585.50000000012 1.464285731315613 50.000000000000007 401.50000000000006 0.035929998382925994 21784.500000000004 1.0000000180025095e-35 1.2250000238418581 1.5857142806053164 7.5000000000000009 1.0000000180025095e-35 164.50000000000003 98.500000000000014 77.500000000000014 1.8166666626930239 662.50000000000011 5.5000000000000009 127.50000000000001 1.4142857193946841 621061.50000000012 1.5000000000000002 15.500000000000002 525022.50000000012 3.2916666269302373 2.5000000000000004 564404.50000000012 3.5000000000000004 6.5000000000000009 4.5000000000000009
decision_type=2 2 2 2 2 2 2 2 2 2 2 2 2 2 2 2 2 2 2 2 2 2 2 2 2 2 2 2 2 2 2 2 2 2 2 2 2 2 2 2 2 2 2 2 2 2 2 2 2 2 2 2 2 2 2 2 2 2 2 2 2 2 2
left_child=1 3 14 8 9 21 19 10 20 15 28 22 23 17 41 18 26 33 49 34 47 -4 29 42 -11 -13 27 -12 -8 -7 52 -28 60 -6 -5 -16 45 -23 -20 -32 46 -2 -10 -22 -19 -29 -25 -1 -21 -3 -34 58 53 -31 -38 -33 -37 -58 -27 -26 -9 -42 -41
right_child=2 4 5 6 13 11 7 32 12 24 16 25 -14 -15 35 -17 -18 44 38 48 43 37 -24 40 59 51 31 36 -30 30 39 55 50 -35 -36 56 54 -39 -40 62 61 -43 -44 -45 -46 -47 -48 -49 -50 -51 -52 -53 -54 -55 -56 -57 57 -59 -60 -61 -62 -63 -64
leaf_value=0.0089166446619701589 -0.34844009865477082 0.21448435898714716 0.41028845765189542 -0.40171697890552721 -0.02133535696090182 -0.55891424118374911 -0.11271920498041624 -0.15208889402730941 0.15380413796561931 0.27640766977936621 0.072713449514060016 -0.26438122530312536 -0.23891416994075584 -0.79114937203658253 -0.53614870415038796 0.48213322009810528 0.21341190692439427 0.1050026052832396 0.3178612374554996 -0.44438458409879733 0.032190592876384053 0.052342655737175461 -0.43691363291871971 0.16324544217497028 -0.19346452377378073 -0.43825072740509408 -0.11566364007552986 -0.32710562126556636 -0.53561645591782914 -0.37691092852588787 -0.1747879983105721 0.17886207216738154 -0.10491796869504784 -0.50097810036033019 -0.047883081163349037 -0.48656276407210841 -0.59650574050955651 -0.37744209023995345 0.50753229781368903 -0.092981218383590691 0.019649975987754472 -0.056176780642639347 0.29037449769575907 -0.27115058079585813 0.38323611210004688 0.32864593261589864 -0.09046016880768501 0.27000136489359949 -0.24900020217475824 0.3954153319155933 -0.44085035711997889 -0.25215431189929688 -0.062091723327077998 -0.035880574265627838 -0.036735370192492678 -0.043433101248068755 -0.37410592969938977 -0.0091745022177275749 0.025724711345662801 0.1314100270829878 0.23299707371728393 -0.46367517512345119 -0.49985921003096523
leaf_weight=860.40712873527809 643.15180950204012 2299.6283314926732 260.00367804247071 217.95472176130716 534.65044341013345 207.47857572133944 284.00725706682715 1388.5569367437383 1428.3227036638709 557.18919489658947 1142.349649629763 621.78861563929786 327.28904683644942 64.640671728979214 2725.0200505882094 2734.6208419572795 1224.3253002501224 576.35766132542631 922.45829364189922 879.58573392311882 254.1600577367426 1390.7471072432127 994.4020233112642 2130.8343068547838 306.26413612569741 67.909216869215015 453.70211890156497 509.12816653766276 266.75903490962082 409.95078746352374 470.88102656388946 1517.9118817717535 194.68137777675292 118.13673395328806 906.28965634497581 543.23313106368369 46.864796049922006 112.08227405201615 1230.4343278787564 91.627172464715841 150.37588100304129 331.93925049970858 2854.2145471095573 643.68208764136216 327.25053458507318 40.478071822602942 283.4206555216806 325.53231282082561 795.49128445725 613.61172954534413 492.80880417469234 267.05352833925645 1091.7709831986722 234.3849243957884 1563.6749694800637 354.63219251768169 375.10721401653427 173.09502712440735 1617.7950574161368 221.02706568108988 95.077783318480215 89.397059019451262 532.91570662607228
leaf_count=33799 196433 37284 3365 65658 35441 57381 16392 145533 22452 17133 47015 166108 16053 6989 1641494 16205 25106 18527 9386 203349 8461 39306 286906 31925 36585 10155 26434 58321 23887 129125 68641 36598 24124 31552 71117 276227 2664 11303 5227 22055 3222 59471 26094 68920 5710 1770 10496 5231 108616 5172 87760 46755 111491 19499 125337 15355 178565 31719 138569 5510 4423 7009 175963
internal_value=0 0.103358 -0.253075 0.00787367 0.300775 -0.145871 -0.0817967 -0.0305246 0.126578 0.348423 0.0181582 -0.205544 0.172635 0.0396055 -0.440358 0.380991 0.045138 0.0741087 0.326396 -0.257171 -0.0339705 0.0778107 -0.282231 0.192053 0.114161 -0.0854022 0.00853626 -0.0471065 -0.317546 -0.231616 -0.207634 0.0875304 -0.196539 -0.108138 -0.11648 -0.489263 -0.110471 0.0202889 0.426263 -0.32609 0.1069 -0.248948 0.244825 -0.185281 0.205768 -0.27881 0.133462 0.0805826 -0.351597 0.252594 -0.345722 -0.0284125 -0.132892 -0.252857 -0.053024 0.136763 -0.372202 -0.258879 0.00703329 -0.0572854 -0.127411 -0.160553 -0.440166
internal_weight=0 32228.2 13162.3 21721.9 10506.3 8370.79 12374.3 9574.96 9347.64 8885.23 7403.83 6607.96 7263.85 1621.04 4791.55 7800.75 6853.07 1556.4 5066.13 2799.32 2083.78 1762.83 4033.41 6936.57 1084.48 2574.55 5628.74 3302.5 550.766 3039.01 2831.53 2326.25 2171.12 652.787 1124.24 3816.46 2160.15 1502.83 2152.89 1095.42 2654.03 975.091 4282.54 897.842 903.608 549.606 2414.25 1185.94 1675.08 2913.24 687.49 1952.76 1736.11 644.336 1610.54 1872.54 1091.44 548.202 1685.7 527.291 1483.63 239.773 624.543
internal_count=5224373 1553842 3670531 1323121 230721 1286622 1089459 640719 233662 132502 378879 1232648 117251 98219 2383909 73274 338600 91230 57069 448740 116411 53974 871061 101198 59228 361587 313494 235107 40279 584155 526774 78387 261840 66993 136775 2128005 188092 50609 14613 266659 52652 255904 48546 77381 24237 60091 42421 39030 311965 42456 111884 195479 260115 148624 128001 51953 486511 210284 148724 42095 149956 10231 198018
shrinkage=0.555587


Tree=4
num_leaves=64
num_cat=0
split_feature=195 3 137 193 189 210 12 193 138 134 198 193 189 212 190 189 187 6 195 212 116 206 210 195 153 148 193 3 182 0 80 2 47 5 210 4 16 195 3 215 203 4 27 187 211 187 207 138 30 10 46 46 6 139 207 27 198 125 210 6 206 7 114
split_gain=2234.83 1169.59 646.588 501.269 297.14 244.659 201.831 194.089 184.067 156.598 142.408 133.018 131.604 129.166 160.186 126.262 124.075 110.405 107.964 91.9971 90.6673 89.5274 85.8202 82.1762 71.5622 69.7745 63.0204 62.075 61.2437 59.4487 63.309 56.154 54.8022 54.3018 53.4285 51.9503 50.8589 52.1505 48.5452 47.8286 47.3381 63.8116 45.9945 45.9499 46.6396 45.9018 45.0347 44.2957 44.1989 44.586 42.8371 40.9211 40.7236 40.2368 39.436 37.9408 37.6358 37.2581 36.9769 36.9481 36.3408 35.8066 35.4984
threshold=555642.50000000012 20.500000000000004 4.5000000000000009 2930.5000000000005 7.5000000000000009 15.500000000000002 10.500000000000002 88909.500000000015 8.5000000000000018 11.550000190734865 2.5000000000000004 142.50000000000003 9.5000000000000018 1.5000000000000002 1.5000000000000002 7.5000000000000009 16.500000000000004 1.5000000000000002 523560.50000000006 1.0000000180025095e-35 19.500000000000004 3.5000000000000004 1.0000000180025095e-35 526514.50000000012 2.5000000000000004 47.500000000000007 95.500000000000014 516.50000000000011 0.071852497756481185 7.0000000000000009 0.63333335518836986 1.5000000000000002 6.5000000000000009 96.500000000000014 57.500000000000007 54.500000000000007 0.03673099912703038 532915.50000000012 3998.0000000000005 89.500000000000014 1.0000000180025095e-35 26.000000000000004 1.5000000000000002 12.500000000000002 7.5000000000000009 9.5000000000000018 1.0000000180025095e-35 22.500000000000004 0.18574649840593341 1.5000000000000002 4.5000000000000009 5.5000000000000009 1.0000000180025095e-35 9.5000000000000018 1.0000000180025095e-35 1.5000000000000002 1.0000000180025095e-35 2.4142857789993291 26.500000000000004 1.0000000180025095e-35 2.5000000000000004 626.50000000000011 0.025811499916017059
decision_type=2 2 2 2 2 2 2 2 2 2 2 2 2 2 2 2 2 2 2 2 2 2 2 2 2 2 2 2 2 2 2 2 2 2 2 2 2 2 2 2 2 2 2 2 2 2 2 2 2 2 2 2 2 2 2 2 2 2 2 2 2 2 2
left_child=2 3 5 6 13 11 15 27 48 38 16 -1 18 35 54 50 25 22 -7 21 45 56 53 -13 -25 39 -11 29 52 -3 42 -12 -17 -26 -24 43 37 -28 59 -10 41 -21 -31 44 60 -19 62 -16 49 61 -2 -48 -20 -8 -15 -42 -9 -30 -51 -4 -5 -6 -27
right_child=1 7 9 4 8 12 17 19 10 26 31 23 -14 14 47 32 -18 20 28 40 -22 -23 34 24 33 46 36 -29 57 30 -32 -33 -34 -35 -36 -37 -38 -39 -40 -41 55 -43 -44 -45 -46 -47 51 -49 -50 58 -52 -53 -54 -55 -56 -57 -58 -59 -60 -61 -62 -63 -64
leaf_value=0.037396430051647347 0.080041036762414183 0.48194801758036232 0.005586393988059565 -0.41484549560773487 -0.49479896015459013 -0.4992068377882215 0.11819285729775375 -0.3623836732651638 -0.11785413564776734 0.10356307907702689 0.25827414836632701 -0.38895693887716581 -0.48853813910916277 0.2092540474693044 -0.14743061471343066 -0.13977435450943135 -0.3766112548664049 0.32192576233724807 -0.37404943033456639 0.20766649707233423 -0.052679565771795223 0.37849217170651361 -0.189140450577609 -0.31092873168405527 0.013062917944338392 0.021963639012078821 -0.33389904137973264 0.5652459758140056 -0.33610383500872659 0.15880135296619272 0.47037220471418761 0.015056344396642779 0.025059288139437676 -0.31867228396334996 0.065236009854119092 -0.60124079271670849 -0.29561160638298339 -0.015257563891017846 0.85828593268518993 0.028784411206893245 0.18519105737931474 -0.62018051944725627 0.35225212209525852 -0.2732231815632522 -0.25128112096256522 0.15874685873085934 -0.14334720545548674 0.08453144630543194 -0.092532506820732566 -0.094685016350111409 0.29263787536001612 -0.60555059354067708 0.080629793053520707 0.26440737289273109 -0.13979313169340535 0.36329891505608775 0.14438492770242892 -0.11466327101893711 -0.33614650684523445 0.24188914154021138 0.06511293508107846 -0.27306153928056187 -0.19948416982936037
leaf_weight=639.10173760872294 920.95641414887268 847.58833903132654 308.49176313586577 51.468671772428934 433.02338633499858 592.48622411059478 2059.3040427995875 204.1480013959972 1147.253384640464 405.82482413723483 443.88094248874404 829.97949089777194 2228.4493407188484 2342.902993059728 687.22349970064533 1341.0130386892351 482.45228844633857 2035.8158284349192 77.769156404294336 76.107238746524672 279.75909108582709 95.37732029682229 385.2509123175696 640.42785362905488 648.50388831266901 312.87122585440375 195.02753200681946 527.08354348156718 923.75684033564539 811.6436835883469 541.57596731645754 862.1438922623056 1162.1770482654611 199.06688535594731 753.11904436058103 56.810071445164795 466.20368057093401 847.60699365979963 31.995263020842685 1709.8962454821813 955.20186589429068 46.180902633219375 712.33153916546144 254.53703478810894 207.61401949621722 720.41639772671624 105.66784575372367 403.21307909520692 414.11920848803857 451.91136502798327 428.76103694638005 134.24371321922808 278.7532839839032 809.26729724736651 104.36554496356985 601.77084691698838 58.113275408755726 314.34794534817775 345.38845073769699 604.44601543333556 903.90785516073811 467.48178467974867 781.75702921228367
leaf_count=34118 17596 4140 28806 5777 187256 523335 26285 39789 118049 12045 24837 357767 1507764 46902 42235 81846 78868 23247 22135 2641 5811 6473 18180 252946 68256 23673 57384 3455 442542 16134 2771 68356 42009 52264 34525 8695 102370 85571 113 119436 19075 4426 4534 15672 24345 15089 12082 11844 40369 46536 4236 18605 39163 5806 5400 4408 3350 84909 66278 15474 41862 69665 74843
internal_value=0 0.0776554 -0.22371 0.0247869 -0.0484295 -0.310691 0.112842 0.309318 -0.114272 0.000543676 -0.0644762 -0.187015 -0.393515 0.057875 0.115453 0.0106076 -0.109796 0.168771 -0.296697 0.173397 0.248686 -0.0824566 0.108221 -0.248889 -0.170762 -0.0790863 -0.0907934 0.389794 -0.221454 0.358049 0.307207 0.0977192 -0.0632457 -0.0648509 -0.0208509 -0.0802848 -0.143068 -0.0748603 0.185615 -0.0300965 0.227887 -0.104962 0.249223 -0.0594065 -0.0126097 0.279275 -0.18397 -0.0616575 -0.255275 -0.29497 0.147576 -0.401975 -0.0185506 0.159442 0.194369 0.25403 -0.250091 -0.279881 -0.199286 0.16204 0.0392563 -0.379688 -0.136189
internal_weight=0 29477.1 10232.2 24000 13104.1 7372.64 10895.8 5477.12 8092.09 2859.6 5980.17 2957.08 4415.56 5012.04 3537.71 3852.91 4674.14 7042.93 2187.11 2036.9 3035.99 357.639 4006.94 2317.98 1488 4191.69 1914.66 3440.22 1594.63 2913.14 2065.55 1306.02 2503.19 847.571 1138.37 1474.34 1508.84 1042.63 944.933 2857.15 1679.26 122.288 1523.98 1417.53 1162.99 2756.23 1334.54 1090.44 2111.92 1697.8 1349.72 239.912 356.522 2868.57 2447.27 1556.97 262.261 1238.1 797.3 912.938 955.377 900.505 1094.63
internal_count=5224373 1537411 3686962 1426215 1151585 3385199 274630 111196 948853 301763 538749 765351 2619848 202732 106381 145687 445556 128943 1112084 80162 44147 49612 84796 731233 373466 366688 257370 31034 588749 27579 23439 93193 123855 120520 52705 96351 245325 142955 44393 237485 30550 7067 20668 87656 71984 38336 129203 54079 410104 369735 21832 30687 61298 32091 52302 23483 43139 527451 112814 44280 47639 256921 98516
shrinkage=0.555587


Tree=5
num_leaves=64
num_cat=0
split_feature=184 195 6 189 210 23 172 211 41 172 5 6 206 193 189 206 193 26 3 210 138 187 207 123 211 123 193 6 25 3 123 193 217 187 201 73 193 5 2 41 210 6 192 7 172 206 211 148 0 140 199 46 172 134 0 149 5 0 210 0 0 4 207
split_gain=1437.54 586.672 470.624 284.356 218.994 202.989 162.006 150.539 140.759 112.906 105.644 99.3192 97.4072 96.7219 93.1761 81.3887 75.7652 75.7193 73.9822 71.77 68.3557 66.225 58.54 57.6946 56.8147 56.0993 54.4413 65.5891 49.7229 48.5425 48.0242 45.7063 43.0137 42.2339 40.1284 39.4219 38.893 47.4548 36.339 34.5062 34.2555 41.74 33.8804 33.6806 33.7201 31.9876 31.3481 31.2889 31.4145 31.022 30.4573 29.7247 29.4018 29.0876 29.7081 28.8416 28.5896 28.3375 27.7456 28.6731 25.3792 25.2197 25.0682
threshold=3.5000000000000004 534978.50000000012 1.5000000000000002 10.500000000000002 1.0000000180025095e-35 1.0000000180025095e-35 1.5000000000000002 6.5000000000000009 1.5000000000000002 488.50000000000006 181.50000000000003 3.5000000000000004 2.5000000000000004 95.500000000000014 12.500000000000002 3.5000000000000004 14488.000000000002 1.5000000000000002 3.5000000000000004 1.5000000000000002 28.500000000000004 20.500000000000004 1.0000000180025095e-35 1.0833333134651186 19.500000000000004 1.0833333134651186 56867.000000000007 1.0000000180025095e-35 1.5000000000000002 12.500000000000002 1.0833333134651186 1472.5000000000002 1.0000000180025095e-35 8.5000000000000018 311.50000000000006 0.033536501228809364 16105.500000000002 58.500000000000007 1.0000000180025095e-35 1.5000000000000002 26.500000000000004 1.0000000180025095e-35 7.5000000000000009 566.50000000000011 480.50000000000006 2.5000000000000004 6.5000000000000009 49.500000000000007 1026720.5000000001 0.54515650868415844 4.5000000000000009 7.5000000000000009 25.500000000000004 14.366666316986086 16123.500000000002 1.5000000000000002 50.500000000000007 1001576.5000000001 43.500000000000007 858085.50000000012 9642849.0000000019 50.000000000000007 1.0000000180025095e-35
decision_type=2 2 2 2 2 2 2 2 2 2 2 2 2 2 2 2 2 2 2 2 2 2 2 2 2 2 2 2 2 2 2 2 2 2 2 2 2 2 2 2 2 2 2 2 2 2 2 2 2 2 2 2 2 2 2 2 2 2 2 2 2 2 2
left_child=1 10 4 5 25 16 11 12 15 21 13 24 -7 50 19 22 18 40 -3 42 33 29 36 43 28 49 27 -9 57 39 56 -13 -33 45 61 -32 51 -38 52 46 -14 -42 -6 -15 -45 -21 -8 -10 -49 -2 -1 -5 -31 54 -12 -29 -18 -4 -26 -60 -43 -16 -63
right_child=2 3 6 8 14 7 9 26 47 -11 53 31 17 23 34 -17 30 -19 -20 20 -22 -23 -24 -25 58 -27 -28 55 -30 38 35 32 -34 -35 -36 -37 37 -39 -40 -41 41 60 -44 44 -46 -47 -48 48 -50 -51 -52 -53 -54 -55 -56 -57 -58 -59 59 -61 -62 62 -64
leaf_value=-0.11576019399157658 -0.32374611189543451 0.090078575555997048 0.20284388526349412 -0.23195536318901375 -0.90712400567907003 -0.42079442436991094 0.10359086968638327 -0.36469404098558744 0.072622841727044626 -0.41929617445708522 -0.051657749758546437 0.44402812692616911 -0.020603108697186616 -0.45509631287255414 -0.47386433871078792 0.087776222876692594 -0.0054781298777742127 0.087124533210187566 0.34710325485032001 -0.43448729561466992 0.079252939430869446 -0.24189581399225302 -0.39573992180712964 -0.18826316528980619 -0.14448984020634853 0.1412986514309969 -0.34508834739115768 -0.099707184638142377 0.28872195587165406 0.13873429466746495 0.062224832774399511 0.21661382382204264 0.47322876774367528 -0.22834488178425233 0.12938051131954434 0.39158468826164272 -0.15799966787825662 -0.43522339722278808 0.2739504054748515 0.20007012133738206 -0.28603577397931679 0.04540034794606182 0.20902951405051584 -0.053378305294600477 -0.39328377620611799 -0.0089540890709437267 -0.042798714314213733 -0.040778982048717612 -0.33264631049282778 0.029423716691058571 0.30679903725892677 -0.047692289802939984 -0.28311168422143651 -0.54090776326895573 -0.46538885603030838 0.1908206200676556 -0.21903549604318218 0.056092841393187119 0.167883510918343 -0.1650265979743788 -0.26093453001248729 -0.16957367943627877 -0.38776395883475678
leaf_weight=108.68619377736422 80.37200312618279 896.52499888255625 1350.4540263734225 664.06514199184585 41.717336269219231 182.23890022436626 1074.0355233788287 274.52545361029797 534.54538486151068 126.27164892207747 83.77051211043954 798.80127548999735 1657.9197562691961 752.58397554653311 147.25239462404352 200.71550119935091 622.50322153281195 1635.8042926416747 562.62652661950597 57.919425754655094 1120.8081909763314 155.28738840804817 894.08701111453593 745.71311547631194 172.70341219166949 2601.4606168018709 661.41141382694377 524.78400927433904 1713.5709144752327 578.54047128028287 842.07472522859825 931.18662559679433 257.34934439652716 529.08135691246389 88.211145463264984 129.41632841258252 329.30559911501496 452.51228829707725 931.37235036904804 554.07217659093294 406.5830633798596 310.44573359008064 10.509513315642833 155.49615104288341 214.1807071316116 931.220954894844 779.07399965377954 477.79412070450053 149.43387444633117 1714.4059063783752 102.12883535410947 455.67038369004149 55.930625271630561 758.60596316692727 148.61306875292303 132.0064863137959 280.77976988272349 580.87140734519198 461.84973479949986 96.55471682332427 114.18736083784825 640.02374608647824 217.86764342972765
leaf_count=31038 13079 35998 22968 130982 2848 43040 38951 64961 40377 40068 50262 4576 139900 752595 55129 33669 39225 59559 9014 9121 66678 21115 390451 365297 6610 62129 216142 53603 23534 19468 36011 10805 1776 72223 11379 1586 84292 236996 20878 16638 109542 33915 730 76842 184778 82994 58453 26868 24351 80612 8067 43903 15863 611142 261860 3315 49907 17071 9451 7172 31041 85810 65715
internal_value=0 -0.11988 0.104976 -0.0696634 0.00482768 -0.015336 0.182138 -0.0772591 -0.190307 0.0982094 -0.338949 0.238254 -0.0232921 -0.267786 -0.0931436 -0.253958 0.0942468 -0.00573051 0.189183 -0.0375792 -0.0248156 0.114038 -0.278493 -0.308046 0.191478 0.0891687 -0.223201 -0.136638 0.219831 0.12795 0.0203569 0.341252 0.272178 -0.101643 -0.229914 0.1061 -0.223365 -0.318455 0.204094 0.0784196 -0.0667528 -0.158802 -0.682522 -0.387639 -0.25031 -0.0338713 0.0420466 -0.0261431 -0.110315 0.0136084 0.0889476 -0.15697 0.101547 -0.488225 -0.316246 -0.0413148 -0.0718611 0.158707 0.050128 0.110319 -0.0369756 -0.261445 -0.224985
internal_weight=0 16461.7 18798.8 13392 8180.85 9233.83 10617.9 5899.91 4158.13 4254.58 3069.78 6363.34 4307.18 2078.79 3784.61 2996.36 3333.93 4124.94 1459.15 2691.26 2639.03 4128.31 2795.64 1867.97 4376 4396.24 1592.73 931.316 3644.9 3973.03 1874.77 1987.34 1188.54 1518.22 1093.35 971.491 1901.55 781.818 1565.84 2407.18 2489.14 831.216 52.2268 1122.26 369.677 989.14 1853.11 1161.77 627.228 1794.78 210.815 1119.74 634.471 990.99 232.384 656.79 903.283 1931.33 731.108 558.404 424.633 1005.14 857.891
internal_count=5224373 4280529 943844 1938648 608447 926759 335397 755018 1011889 231434 2341881 103963 416997 1418617 452627 920293 171741 373957 45012 234594 231016 191366 886624 1379512 86806 155820 338021 121879 63573 170251 126729 17157 12581 164338 218033 37597 496173 321288 56209 114042 314398 174498 3578 1014215 261620 92115 97404 91596 51219 93691 39105 174885 35331 923264 312122 56918 89132 40039 23233 16623 64956 206654 151525
shrinkage=0.555587


Tree=6
num_leaves=64
num_cat=0
split_feature=38 3 195 184 32 193 187 193 134 207 215 219 18 73 198 5 0 4 193 189 0 195 208 193 36 3 125 194 0 2 189 144 191 183 184 6 187 189 208 212 198 201 0 4 32 0 53 187 187 212 114 182 9 198 5 212 201 6 6 183 193 3 4
split_gain=950.7 402.05 397.74 245.055 173.897 119.807 114.197 98.3292 86.8761 80.4809 75.5299 65.2071 64.8874 64.5669 60.3355 59.5468 61.6671 57.6227 57.1776 54.7535 53.5056 52.0521 54.5179 50.4972 47.3831 46.5234 48.5493 44.5992 43.4351 42.7533 42.7096 40.9152 39.0431 38.4246 38.1473 37.7579 35.107 34.39 34.2349 34.0869 32.3522 31.7618 41.0708 31.4179 31.1702 30.8802 30.6282 30.5248 30.2464 29.0741 28.7667 28.6327 27.3611 25.7368 24.6608 24.6069 24.4211 23.6686 23.6174 23.4577 23.4551 23.2514 22.9208
threshold=0.6904762089252473 3.5000000000000004 526270.50000000012 1.5000000000000002 3.5000000000000004 113823.50000000001 5.5000000000000009 2322.5000000000005 1.0000000180025095e-35 1.0000000180025095e-35 89.500000000000014 1.0000000180025095e-35 209.50000000000003 0.020715499296784404 1.0000000180025095e-35 60.500000000000007 10158574.000000002 45.500000000000007 26203.000000000004 10.500000000000002 9642849.0000000019 510136.50000000006 1.0000000180025095e-35 17510.000000000004 1.0000000180025095e-35 60.500000000000007 1.3666666746139529 1.0000000180025095e-35 6068.5000000000009 1.5000000000000002 14.500000000000002 62.500000000000007 1.5000000000000002 19.500000000000004 10.500000000000002 1.0000000180025095e-35 3.5000000000000004 4.5000000000000009 7.5000000000000009 74.500000000000014 1.0000000180025095e-35 202.50000000000003 246266.00000000003 54.500000000000007 18.500000000000004 8389030.5000000019 1.5000000000000002 5.5000000000000009 18.500000000000004 95.500000000000014 0.038547500967979438 0.088789001107215895 132.50000000000003 5.5000000000000009 66.500000000000014 1.5000000000000002 311.50000000000006 5.5000000000000009 1.0000000180025095e-35 67.500000000000014 2522.5000000000005 1973.0000000000002 50.000000000000007
decision_type=2 2 2 2 2 2 2 2 2 2 2 2 2 2 2 2 2 2 2 2 2 2 2 2 2 2 2 2 2 2 2 2 2 2 2 2 2 2 2 2 2 2 2 2 2 2 2 2 2 2 2 2 2 2 2 2 2 2 2 2 2 2 2
left_child=2 4 21 7 8 17 12 25 18 10 13 14 20 45 19 31 35 37 36 43 34 61 51 44 -10 26 47 28 -20 32 59 41 40 -22 46 -17 -2 -3 -11 -31 60 -9 -43 55 -6 58 -5 -4 -37 -28 62 -23 -35 -47 56 -7 -38 -24 -8 -19 -12 -1 -30
right_child=1 5 3 6 23 11 9 15 24 38 29 -13 -14 -15 -16 16 -18 30 27 -21 33 22 57 -25 -26 -27 49 -29 50 39 -32 -33 -34 52 -36 48 54 -39 -40 -41 -42 42 -44 -45 -46 53 -48 -49 -50 -51 -52 -53 -54 -55 -56 -57 -58 -59 -60 -61 -62 -63 -64
leaf_value=-0.53529989077257367 0.19178017013262472 0.35313859839488532 -0.033217967432586232 0.094334528765986914 -0.0070833949945303277 -0.062315862178759319 -0.20563577362002791 -0.21462220786216885 0.22566990821198463 -0.12279905735871417 0.11466928133503446 0.40923238091780167 -0.1106597773817118 0.192445033931714 0.20446628998229566 -0.30047555995304998 -0.48575190462300866 0.32522943749221328 0.23760035380023403 -0.47090177923727017 0.050643928790457884 -0.32281640251171706 -0.40441139924258024 -0.19769587980856351 0.087596483990560595 0.35418189382896081 0.01976673102970641 0.30511440798190237 -0.23481706640872105 0.049086829191739657 0.0232060753111544 -0.24188412576590926 -0.18425286341060376 -0.092777787287865995 0.30112601557071655 -0.06067161128560674 -0.013780720815793525 0.10101929582426603 -0.36568111842340822 -0.13720349762764278 0.2034835523662358 -0.37687854281025801 0.0091066445638983695 -0.52258980145018485 -0.31059783944725977 -0.4066841120325837 0.40585478064882308 -0.3308021399269887 -0.52309757258041467 -0.16898108952070229 -0.25900648206692001 -0.039633102277552047 -0.54596585875670423 0.49779904573008005 0.079481938743453731 0.11437954160992025 -0.41824676071702793 0.42529050607864105 -0.053333484661795549 0.50200793889515694 -0.027824258228792299 0.64270347193353505 -0.0059557591346176214
leaf_weight=422.68939523813447 538.84978036159555 221.79052812792361 163.61429062957359 1846.1137561379833 1274.0184361316474 380.4498045479304 654.35032731035358 407.3675272325363 1280.0408645341631 418.66496823433022 718.53297662700811 211.34904448485759 500.29694082906644 174.11829574855074 771.58554382864531 817.21068816110801 363.57102643112853 2110.8018325699068 103.25152814063767 70.419722766415816 366.23222366665914 177.87641367630135 697.53048671133001 960.12396051260794 1914.9122842174802 82.914211332861669 1155.5355248689548 87.348467823525425 187.41300944655268 502.22588586754682 134.86098363421479 821.31068791770895 177.46181402658681 107.29396415002157 390.0082881167109 445.91000606806688 916.25635653982863 676.06155658864145 313.10552176523856 765.02298204087492 541.33292932706445 94.475582468183347 856.88388994758316 30.359291090982879 113.77156092301902 199.64126736518801 102.84877669901471 304.26191251803402 48.400075132799884 322.13779396936116 393.87029945200811 289.73043392041723 66.678687980904215 10.20736782593667 1517.7022480794585 674.77599222970821 48.519443096301984 10.77686438776959 604.74573296641779 260.27283358985733 707.84990581668399 5.2361078413014175 483.73501134390608
leaf_count=478206 10959 1932 19329 118561 82536 22832 127064 71791 32220 85377 16771 2398 100644 4285 12583 486876 290568 22445 3801 16144 40269 88599 1023994 190669 61511 5705 74165 1733 30877 23810 5257 308313 27714 9778 9526 146875 32858 8902 142276 103830 31225 17674 114699 3635 14850 80145 1746 56788 40291 56408 47818 129667 7933 455 47942 11294 2061 6937 62223 1942 96107 2070 46480
internal_value=0 0.0996818 -0.0919509 -0.0639225 0.0321557 0.219315 -0.00712554 -0.152413 0.0736007 -0.0545127 -0.0295858 0.116273 0.0740238 -0.127453 0.0841514 -0.204513 -0.283285 0.284066 0.0218219 0.00384625 0.106115 -0.354967 -0.294588 -0.0997371 0.142915 -0.0533964 -0.0707664 -0.0778261 -0.106458 0.0175364 0.327336 -0.143986 0.0653339 -0.051483 0.142514 -0.227159 0.0632341 0.163299 -0.226722 -0.0633744 0.0878433 -0.0848092 -0.029224 0.0346422 -0.0319656 -0.165371 0.110774 -0.226738 -0.10595 -0.0213809 -0.139813 -0.147355 -0.266472 -0.362689 0.0353317 0.050674 -0.0341217 -0.391788 -0.132485 0.344634 0.0439561 -0.520886 -0.0698635
internal_weight=0 15362.5 16654.2 15050.3 9819.81 5542.73 9166.73 5883.59 7471.9 5787.26 5055.49 2138.94 3379.47 1643.06 1927.59 3855.13 1675.09 3403.79 4276.95 1156 2879.18 1603.84 1175.91 2347.91 3194.95 2028.46 1945.55 1255.62 1168.27 3412.43 2505.94 2180.04 2145.18 540.205 2338.97 1311.52 3021.33 897.852 731.77 1267.25 1967.72 1358.73 951.359 1085.59 1387.79 1468.94 1948.96 467.876 494.31 1477.67 1065.02 467.607 173.973 209.849 2482.48 1055.23 964.776 708.307 1259.1 2371.07 1426.38 427.926 671.148
internal_count=5224373 715679 4508694 2779221 606315 109364 1089739 1689482 318260 801282 573629 68886 288457 274172 66488 1477087 964610 40478 224529 53905 187813 1729473 1249197 288055 93731 212395 206690 130709 128976 299457 29644 512477 171817 57980 129833 674042 93820 10834 227653 127640 144103 204164 132373 37761 97386 269887 120307 76117 187166 130573 125175 218266 17711 80600 82861 34126 34919 1030931 189287 24387 112878 480276 77357
shrinkage=0.555587


Tree=7
num_leaves=64
num_cat=0
split_feature=149 195 3 151 123 193 0 189 138 206 2 193 5 154 5 17 195 187 125 193 55 191 3 184 187 193 192 2 6 199 212 187 0 132 42 0 6 0 212 0 43 207 3 150 2 187 201 192 2 212 120 207 46 5 139 189 123 0 203 3 5 13 159
split_gain=620.936 271.512 239.395 173.878 156.01 91.069 85.4038 72.8474 67.0911 65.7669 60.917 56.2883 86.4729 54.9102 53.4779 52.4173 63.9337 46.3796 41.2985 41.0889 39.6504 38.4195 36.6531 34.0311 33.9689 33.8358 31.8786 39.8652 31.611 31.5568 29.9859 29.9432 29.6048 32.1936 28.4523 28.398 28.2819 28.1676 33.4229 27.287 25.9232 25.8274 24.7921 24.3832 24.3408 27.1693 23.4173 22.8934 25.5033 39.9428 22.4463 22.4383 22.4371 22.4739 22.2275 21.9583 21.7252 21.6197 20.7349 19.5051 19.1928 18.6172 17.9618
threshold=1.5000000000000002 563122.50000000012 27.500000000000004 1.5000000000000002 1.0833333134651186 11357.000000000002 10031.000000000002 6.5000000000000009 43.500000000000007 2.5000000000000004 1.5000000000000002 20478.000000000004 80.500000000000014 0.38935950398445135 81.500000000000014 0.098044998943805708 585715.00000000012 6.5000000000000009 1.3666666746139529 2178.5000000000005 1.5000000000000002 1.5000000000000002 11.500000000000002 15.500000000000002 12.500000000000002 40498.000000000007 1.5000000000000002 1.5000000000000002 1.0000000180025095e-35 5.5000000000000009 99.500000000000014 4.5000000000000009 10158574.000000002 0.29166667163372045 0.063720498234033598 2772.0000000000005 4.5000000000000009 2030211.0000000002 87.500000000000014 10158574.000000002 0.019604000262916092 1.0000000180025095e-35 5.5000000000000009 1.4722222089767458 1.0000000180025095e-35 13.500000000000002 202.50000000000003 1.5000000000000002 1.5000000000000002 1.5000000000000002 1.0000000180025095e-35 1.0000000180025095e-35 7.5000000000000009 1.0000000180025095e-35 6.5000000000000009 5.5000000000000009 1.7749999761581423 1463529.5000000002 1.0000000180025095e-35 5.5000000000000009 232.50000000000003 2.5000000000000004 342.50000000000006
decision_type=2 2 2 2 2 2 2 2 2 2 2 2 2 2 2 2 2 2 2 2 2 2 2 2 2 2 2 2 2 2 2 2 2 2 2 2 2 2 2 2 2 2 2 2 2 2 2 2 2 2 2 2 2 2 2 2 2 2 2 2 2 2 2
left_child=1 3 4 5 7 10 23 25 17 55 -1 22 37 -9 30 26 18 28 -17 36 29 24 44 54 52 40 -11 -28 -6 34 -7 -12 -10 -34 -21 -16 56 -13 -39 -14 58 50 -29 61 -5 -46 -40 -18 49 -49 -19 57 53 -15 59 -8 -4 -32 -2 -3 -20 -24 -51
right_child=2 6 19 11 8 14 9 13 32 15 31 12 39 21 35 16 47 41 60 20 -22 -23 43 -25 -26 -27 27 42 -30 -31 51 -33 33 -35 -36 -37 -38 38 46 -41 -42 -43 -44 -45 45 -47 -48 48 -50 62 -52 -53 -54 -55 -56 -57 -58 -59 -60 -61 -62 -63 -64
leaf_value=-0.044267791932352307 -0.15458843194554817 -0.02761501203859618 0.20117748436601257 0.01507187501610349 0.064194959465579279 -0.34393716199861629 -0.054334853344977778 -0.2012953451949912 0.2048022382317341 -0.15311920489722955 -0.061527175283848962 -0.21298850266763653 -0.24860901996738305 -0.47945057104041322 0.1550778891926316 -0.29331038585046626 -0.16257345444105159 -0.026977059471717819 -0.075387925019089308 0.13627791542070322 0.38569956418119944 -0.27725158010158557 0.21817951485996109 0.32942613664646808 -0.15771934245275626 -0.012656923947274608 0.14633983639922638 -0.092827386262562678 0.22048448451954974 0.0056861925583267907 -0.29570534821549826 -0.30861157361439068 0.025110352702988503 -0.92908269985733183 0.32997372467621011 -0.44565287346225446 0.47608199303544785 -0.15782248076185085 -0.10812378573762312 -0.51802370535088738 0.19447915767091306 -0.13065581293424594 0.29557712182612056 0.25807958264437003 -0.068589835140346694 -0.33742770295830765 0.14844020670043667 -0.092720460177225836 -0.064098038140190147 0.16548830472674114 0.085175717068141352 -0.3684377006708342 0.10189780081430852 -0.012348096967739371 0.14403246594635769 -0.42486413050232502 0.4347214976000881 -0.019181054329306939 0.28422666302946931 0.17132699698576997 -0.37276817328305678 -0.39459638430265237 -0.048034206622890409
leaf_weight=861.86383094431085 131.27482757047073 701.60700015815019 453.86530588521509 1071.8357197624459 810.91880105540622 464.54414763534817 68.856184753983143 737.77456974189045 2014.5717673573545 198.37871061646774 195.4974458529573 272.45344604538309 424.78319515882845 32.446148219591123 25.022199207657422 417.51890356190688 230.69795743321174 906.86306615889589 1202.4366457822689 764.38430375261032 257.0140134136509 183.44550571013406 26.582498271136046 179.91871415328933 428.78466502156789 740.65976444793523 1018.3558420820809 429.37441771552267 787.30796068043492 357.79063002082148 120.22401771943601 671.1066316034719 141.33153466210933 11.827866565436123 337.42342910024672 830.4504562646747 283.74861107727338 293.95711948408552 153.7361168267621 159.65832019582149 720.66593189137348 305.86538245354495 57.524465906773912 220.8418249854285 801.40285998449235 135.68486491445219 384.34556455534903 338.38597518604047 676.3011445898378 756.20989155949428 1403.1340422109479 117.39895833601054 629.72713835127252 1584.3194170690567 774.69461538449104 174.44543530950705 168.63321038783761 318.44281118659046 44.508070100011537 194.24050847587205 70.943772779337451 36.072217718178763 144.9140750650331
leaf_count=242022 3928 22339 4320 149381 30043 357563 9263 158750 42038 18107 81750 76073 284622 2346 18078 130733 21392 45069 115703 14948 2456 24006 8175 2195 71022 30751 51053 39948 14010 11553 87337 379812 9788 428 4812 1315400 2119 76139 35776 172183 10386 34820 1483 6971 187312 45914 58841 34831 57089 36599 57058 125350 55263 109862 10211 37595 1316 142603 558 4652 12794 15220 10214
internal_value=0 -0.078015 0.083398 -0.152458 0.0491645 -0.24086 -0.00404869 -0.0219378 0.107474 -0.0372844 -0.148856 -0.0724229 -0.149387 -0.0661618 -0.325625 -0.0248706 -0.0608756 0.0666173 -0.141675 0.235002 0.184476 -0.0312867 -0.01572 0.0998426 -0.0144207 0.075216 0.0562302 0.0838205 0.141185 0.149044 -0.239746 -0.252872 0.1869 -0.048578 0.195596 -0.428082 0.330708 -0.0579386 -0.00716702 -0.322208 0.147818 0.0210582 -0.0469395 0.171292 -0.0421108 -0.107516 0.0751369 0.00277325 0.022684 0.0700339 0.0411466 -0.152703 0.0129304 -0.0217222 0.0751163 -0.320002 0.264444 -0.0949672 -0.0434808 0.0155202 -0.0919559 -0.134614 0.131151
internal_weight=0 15220.7 14238.3 7585.9 11615.4 3604.55 7634.8 5233.61 6381.82 5784.34 1728.47 3981.35 1688.93 3596.5 1876.08 5541.04 3837.41 4214.09 1690.9 2622.86 1716.61 2858.72 2292.42 1850.46 2675.28 1637.11 1703.63 1505.25 1598.23 1459.6 1020.61 866.604 2167.73 153.159 1101.81 855.473 906.247 1104.49 832.039 584.442 896.449 2615.86 486.899 283.497 2008.92 937.088 538.082 2146.51 1915.81 1239.51 2310 556.066 2246.49 1616.77 1670.54 243.302 622.499 438.667 175.783 895.848 1273.38 62.6547 901.124
internal_count=5224373 4482723 741650 3866522 700126 2749915 616201 466872 233254 576804 703584 1116607 703634 421249 2046331 529946 419355 181000 259230 41524 33769 262499 412973 39397 238493 45623 110591 92484 44053 31313 712853 461562 52254 10216 19760 1333478 7755 246829 170756 456805 14872 136947 41431 30366 382607 233226 94617 160125 138733 81644 102127 355290 167471 112208 37202 46858 5636 229940 4486 26991 128497 23395 46813
shrinkage=0.555587


Tree=8
num_leaves=64
num_cat=0
split_feature=38 195 3 189 55 184 193 198 193 210 125 187 212 154 2 189 219 32 206 192 4 208 211 176 5 5 4 9 193 192 193 198 187 172 189 190 201 187 1 42 125 144 39 208 3 5 1 2 1 192 193 131 47 116 201 7 150 5 5 207 47 42 4
split_gain=373.473 188.014 163.608 139.666 96.2113 90.7114 80.9367 74.8573 69.8094 68.1224 57.5176 55.986 54.3306 53.9095 49.3415 48.1667 46.835 46.7709 46.6926 41.0332 40.0617 39.4078 49.0466 36.9297 34.6555 31.6364 30.3486 28.866 27.6233 28.7324 27.3415 25.598 25.332 24.8959 23.8094 23.6234 28.3304 27.0988 23.6178 24.1132 23.444 23.3564 22.8931 22.1443 24.3245 22.038 22.3256 27.7083 21.947 21.4804 21.5438 21.3412 21.307 21.1006 21.0025 20.6531 19.7728 19.6527 19.0622 18.9773 18.6509 18.1571 18.0159
threshold=0.77500000596046459 521002.50000000006 4.5000000000000009 12.500000000000002 1.5000000000000002 5.5000000000000009 1125.5000000000002 2.5000000000000004 95.500000000000014 118.50000000000001 2.1833333969116215 8.5000000000000018 1.5000000000000002 0.32196798920631414 1.5000000000000002 5.5000000000000009 1.0000000180025095e-35 1.5000000000000002 3.5000000000000004 2.5000000000000004 50.000000000000007 33.500000000000007 25.500000000000004 3.5000000000000004 117.50000000000001 72.500000000000014 50.000000000000007 27.500000000000004 924.50000000000011 11.500000000000002 13.500000000000002 2.5000000000000004 13.500000000000002 657.50000000000011 22.500000000000004 2.5000000000000004 262.50000000000006 3.5000000000000004 580.50000000000011 0.06517099961638452 1.2250000238418581 202.50000000000003 1.5000000000000002 1.0000000180025095e-35 1.0000000180025095e-35 126.50000000000001 1960.5000000000002 1.5000000000000002 101642.00000000001 1.5000000000000002 40498.000000000007 154.55000305175784 10.500000000000002 14.500000000000002 244.50000000000003 564.50000000000011 3.2916666269302373 1.0000000180025095e-35 435.50000000000006 1.0000000180025095e-35 7.5000000000000009 0.071160499006509795 54.500000000000007
decision_type=2 2 2 2 2 2 2 2 2 2 2 2 2 2 2 2 2 2 2 2 2 2 2 2 2 2 2 2 2 2 2 2 2 2 2 2 2 2 2 2 2 2 2 2 2 2 2 2 2 2 2 2 2 2 2 2 2 2 2 2 2 2 2
left_child=1 23 6 4 5 7 25 8 56 13 11 31 18 -5 21 -6 17 19 20 -4 -10 22 35 51 27 -2 -27 41 -28 -30 -7 59 40 49 52 -14 37 -37 -13 -40 -19 62 -21 44 48 46 47 -9 55 50 -32 -1 -15 61 -20 -25 -3 -48 -51 -8 -39 -47 -22
right_child=2 3 16 9 15 30 10 45 12 -11 -12 38 14 34 -16 -17 -18 32 54 42 24 -23 -24 43 -26 26 28 -29 29 -31 33 -33 -34 -35 -36 36 -38 60 39 -41 -42 -43 -44 -45 -46 53 57 -49 -50 58 -52 -53 -54 -55 -56 -57 -58 -59 -60 -61 -62 -63 -64
leaf_value=0.35819334739671493 0.021725096992610767 0.033319163016294506 -0.070578280857985898 -0.24874710574609149 0.31394162828886057 0.27125183430055244 0.00019221070386339997 0.14777807251793998 -0.46001634346495685 -0.37021554753642821 0.086179609945956748 -0.19670875095365917 -0.017478397323177297 -0.085231110870228874 -0.17684934840272379 0.053566355574481458 0.32671054955217499 0.033949662351951751 0.11515862277294327 0.18756699816982964 0.010696954640615564 0.11354331842153666 -0.35449242902680289 -0.31311618442439276 -0.46720102510339412 -0.059665571397236959 0.13435247099829314 -0.26755952602621791 0.50150818858162705 -0.042389148251617235 0.08352254114439002 0.11718154933547341 -0.07258274747027299 -0.41614295692749814 -0.31536347590386993 0.25471779077892331 -0.38452073770061196 -0.24266862796372687 -0.19268136995630195 5.7305944038923783e-05 0.18056408288300285 -0.32652925202650673 0.34320844570236836 -0.48652376395537256 -0.60456044830182543 -0.091150794847113151 -0.099156294190399327 -0.01513012451191427 -0.71742081577448469 0.095290494413529811 -0.31917508255239463 -0.1822302885067825 0.067877892284718661 -0.44948054306688973 -0.2725490313383005 0.030518447184235881 0.40565328853602783 0.39536521353946164 -0.29656169352121986 -0.15444115084082721 0.12682397820595823 0.27072288838354297 -0.73064852823486393
leaf_weight=28.987670813191727 1271.802407664577 908.64430931339211 166.98190945486613 721.75976850437951 355.2472014817904 199.61786093226942 1489.1466573980701 522.6279901759043 220.93449801103657 396.32664472207034 1238.0678587949515 801.14499986731335 1816.9461134338458 1211.8968747742285 1112.2184645500251 573.10439338289143 456.68389400250453 724.92059706788905 181.56961169073691 1567.9265363825816 380.42432291328976 442.33517363759074 170.08566573393273 110.04264469024929 129.9091901975537 228.17920223861438 1781.8634186727795 413.50541185934412 125.78617659132578 39.362727142637596 78.445979922267611 498.43575545610111 316.38386144520791 34.10368470866274 111.57265470505126 62.681768814137513 125.57353585831061 180.48161574138817 303.27361179343552 590.47979461564046 628.55360120704427 87.533720171010941 358.39498641283717 328.14092020137014 56.527319668396672 273.30331173812829 32.286434513189306 840.67355422873072 22.821518688658216 1430.0054539112714 85.926869366305596 101.65299479475752 365.07627385931028 42.815373716623981 56.564920385058826 105.98487961435649 46.267471199505962 107.06665316148883 39.375937483078815 293.21912244949499 55.025419026681448 50.746117231061362 10.395097316505597
leaf_count=31125 28961 35104 3788 479534 5628 2982 97085 66716 187157 367720 48707 142587 299865 253483 366296 25064 5127 23824 43822 23671 69327 101790 109706 94282 128255 4613 42632 58789 2202 1327 3654 35518 20159 13133 36841 8040 46969 59240 66776 79241 11632 60398 4640 703603 53795 96555 2098 135585 11249 68985 16254 347630 45519 7145 19747 34782 393 12636 6132 45787 6892 2151 10025
internal_value=0 -0.0607492 0.0689869 -0.046063 -0.0179892 -0.0336654 0.0252794 -0.058638 -0.0872033 -0.156757 -0.0183915 -0.0509558 -0.111498 -0.121658 -0.0775873 0.153203 0.158692 0.138302 -0.202305 0.193622 -0.245491 -0.0388925 -0.0668616 -0.330909 -0.199105 0.091334 0.132033 -0.160054 0.154499 0.371872 0.0769325 0.0058789 0.0689526 0.0536753 -0.0673341 -0.0450284 -0.163153 -0.0699306 -0.127437 -0.0653439 0.102037 -0.0671222 0.216524 -0.387185 -0.276828 0.0391674 0.0689729 0.0473215 -0.199265 0.0634825 -0.12699 -0.0623165 -0.0497857 -0.0829143 0.0230651 -0.144526 0.0513595 0.280791 0.0847898 -0.0252467 -0.156338 -0.0344814 -0.00902151
internal_weight=0 14627.2 12880.6 13873.1 11066.4 10138.1 8660.76 8270.62 6401.1 2806.63 5213.77 3975.7 5446.18 2410.31 3965.35 928.352 4219.85 3763.16 1480.84 2093.3 1242.7 2853.13 2410.79 754.158 1021.77 3446.99 2175.19 891.859 1947.01 165.149 1867.48 2280.8 1669.86 1667.86 1688.55 2240.71 423.762 298.189 1694.9 893.753 1353.47 478.353 1926.32 623.517 295.376 1869.52 1502.65 1363.3 238.849 1633.75 164.373 130.641 1576.97 366.865 238.135 216.028 954.912 139.353 1469.38 1782.37 235.507 324.049 390.819
internal_count=5224373 4536096 688277 3259630 2076533 2045841 595436 1934701 1611815 1183097 515701 466994 1576318 815377 998798 30692 92841 87714 577520 32099 513951 632502 530712 1276466 326794 79735 50774 198539 46161 3529 111140 178390 55615 108158 335843 421006 121141 74172 288604 146017 35456 139750 28311 897711 194108 322886 217035 202301 140313 95025 19908 378755 299002 105851 63569 129064 35497 14734 75117 142872 66132 98706 79352
shrinkage=0.555587


Tree=9
num_leaves=64
num_cat=0
split_feature=134 6 212 195 210 139 189 191 0 207 50 2 192 215 193 212 66 211 130 0 7 1 3 198 191 1 215 53 189 193 0 40 191 58 0 5 215 193 206 4 208 140 207 192 201 0 123 198 126 0 193 201 206 213 123 17 172 189 212 193 211 191 12
split_gain=280.981 225.222 116.977 115.168 106.855 85.1528 77.7702 89.1559 70.667 51.0919 48.104 47.4911 53.7626 45.03 43.6637 42.2451 40.7555 37.8611 36.7478 34.6707 33.3768 34.1464 32.3633 31.8344 30.6886 42.5507 30.0233 29.7108 29.7034 27.9818 27.8324 27.4 27.2642 25.0868 24.5544 23.9683 23.3223 23.2619 23.0003 58.0622 22.6088 22.5723 22.5178 21.9868 38.317 21.924 21.8136 21.7016 23.9275 20.8657 20.465 20.1387 19.3017 21.4359 18.9053 29.6188 18.9496 18.8251 18.6002 26.9817 18.4282 18.2125 31.9758
threshold=15.816666603088381 1.0000000180025095e-35 1.0000000180025095e-35 537542.50000000012 1.0000000180025095e-35 2.5000000000000004 4.5000000000000009 1.5000000000000002 1001576.5000000001 1.0000000180025095e-35 15.500000000000002 1.5000000000000002 2.5000000000000004 97.500000000000014 1912.5000000000002 1.5000000000000002 0.77500000596046459 5.5000000000000009 95.708332061767592 3152.5000000000005 554.50000000000011 19824.500000000004 51.500000000000007 1.5000000000000002 2.5000000000000004 603.50000000000011 90.500000000000014 1.5000000000000002 11.500000000000002 4.5000000000000009 1463529.5000000002 1.5000000000000002 1.0000000180025095e-35 0.0071250000037252912 10158574.000000002 369.50000000000006 84.500000000000014 52636.000000000007 2.5000000000000004 40.000000000000007 10.500000000000002 0.62255901098251354 1.5000000000000002 11.500000000000002 278.50000000000006 12889431.500000002 2.2678571939468388 1.5000000000000002 0.3939503282308579 1022.5000000000001 208.00000000000003 248.50000000000003 3.5000000000000004 1.0000000180025095e-35 1.3095238208770754 0.22500050067901614 47.500000000000007 15.500000000000002 1.5000000000000002 1693.5000000000002 26.500000000000004 2.5000000000000004 40.500000000000007
decision_type=2 2 2 2 2 2 2 2 2 2 2 2 2 2 2 2 2 2 2 2 2 2 2 2 2 2 2 2 2 2 2 2 2 2 2 2 2 2 2 2 2 2 2 2 2 2 2 2 2 2 2 2 2 2 2 2 2 2 2 2 2 2 2
left_child=1 4 18 9 38 -6 10 8 16 20 -4 12 61 14 19 -14 22 30 32 49 46 26 31 60 25 -9 -22 58 -18 -24 -10 36 52 47 -32 -25 -8 -27 39 -1 -17 -21 -42 44 -38 -36 -2 -13 -49 -5 -45 -34 -3 -54 55 56 -40 -33 -12 -60 -16 -7 -63
right_child=3 2 6 13 5 11 7 24 17 -11 27 33 15 -15 23 40 28 -19 -20 41 21 -23 29 35 -26 37 -28 -29 -30 -31 34 57 51 -35 45 -37 43 -39 54 -41 42 -43 -44 50 -46 -47 -48 48 -50 -51 -52 -53 53 -55 -56 -57 -58 -59 59 -61 -62 62 -64
leaf_value=0.14195448700386218 -0.30876706965870465 -0.056508375713117322 0.36149557078480632 -0.062872080880271047 -0.30468608640806039 -0.24879523734837439 -0.017440714397770399 -0.48299151446129401 -0.19765153585223386 -0.43862298010279105 -0.093919500100480224 -0.31001187050147788 -0.13314816949674099 0.037643110097628017 -0.16079372884700249 -0.0062572333831004282 0.047921486590794926 -0.14643937454103639 -0.3971836793197504 -0.086934723094701974 -0.23207053444502243 -0.36691983963382541 -0.49222034660194008 -0.037450090517990572 0.24191620792865115 0.0077443812947096844 0.042164390467609225 0.32979520436007509 -0.26457334816210093 0.2917412568008978 0.17740516878911983 0.20925202770240184 -0.1357987315816776 0.012267483892559175 -0.39904870032172041 -0.56375861868482047 0.24574933196628776 -0.44444694345118668 -0.028319245227580468 -0.48926410471975301 0.16997647738462734 0.07429342610300782 -0.23037050529772474 -0.059451264589830646 0.041009427166187495 0.062227846115230086 0.18586876890760101 -0.22420658371254606 -0.030699801903865152 -0.3387841146902601 0.1174789743996428 -0.56705815974200968 0.4090490325925441 -0.031495013989724305 0.069406844946773627 0.11644838599337544 -0.27961856983029421 0.055092255727282206 0.37383838088819238 0.12405458058579803 -0.39955417127874321 0.21623194572432242 -0.54480197338102798
leaf_weight=91.784187311194728 519.52904073339869 527.01748957837276 425.20882058679126 226.76836549663858 538.93332985107099 336.72942416523983 520.70321395875044 132.55364805046199 111.18834477195435 290.91793016080396 106.61987712260043 304.96995979183851 368.84511618564215 1210.5084622320192 1513.3491178183342 532.85319030443361 817.22719273379698 504.42037350758346 111.93944089901242 374.70972925073238 178.65102580482545 121.59714761451664 14.453428975619827 999.75485659184164 47.307834993838924 173.64273412235423 397.2404948796547 266.62542564049363 106.07864952985983 508.18771672679981 404.07472821031308 1298.9324657783593 112.84751232670408 245.93358909716108 47.447103731045218 27.442309213662611 702.65450031584555 44.017780183054498 1301.2830599704876 88.214725417327827 679.77738218466152 941.56742420154205 46.321880182182213 339.61518694080678 471.48715344711422 96.478124857775583 29.060128498338827 431.11250551061937 363.60851508046881 134.95581997788031 497.26613488665043 47.490159211408013 64.940460216773033 71.773873252421083 2278.4316397961315 458.71960619783067 99.721709680711683 301.21146616478723 145.8433075089938 1575.8294587507535 106.82855579047828 69.612133158401775 22.566415332104498
leaf_count=5619 686472 88713 4845 6011 659150 56379 85032 22822 15473 464236 10616 82198 70192 111344 310582 73278 19124 147291 259743 33105 190993 87117 2294 167607 5635 12779 191041 2589 11599 38706 31537 24112 16890 36429 6543 9515 52435 18982 107619 32814 81438 32959 21751 24400 50714 6864 9635 123682 49615 10683 63407 27349 3701 10130 127039 22051 92107 12281 5732 107472 68235 10267 3400
internal_value=0 0.0354244 0.0890377 -0.0944323 -0.0333502 -0.0994967 0.10721 0.0775905 0.0926675 -0.22898 0.191117 -0.0669944 -0.0139003 -0.0570761 -0.0835844 0.032209 0.118648 -0.0318738 -0.0984951 -0.0134692 -0.180036 -0.0993946 0.1398 -0.128026 -0.178095 -0.234831 -0.0429078 0.156535 0.0120189 0.270061 0.0557933 0.123324 -0.0579221 -0.148146 0.107217 -0.0515108 0.0873549 -0.0837029 0.027023 -0.167396 0.080655 0.028396 0.144436 0.114489 0.163534 -0.0898389 -0.282565 -0.18402 -0.135671 -0.165812 0.0456788 -0.263533 -0.00825271 0.177767 0.0354797 -0.00608598 -0.0462064 0.180233 0.131268 0.145214 -0.176537 -0.188895 0.0299217
internal_weight=0 18854.5 10595.1 7072.88 8259.42 3941.26 9659.07 7138.95 6741.43 1537 2520.13 3402.33 2056.71 5535.88 4325.38 1627.8 5577.82 1163.61 936.009 1678 1246.08 697.489 4654.51 2647.37 397.522 350.214 575.892 2094.92 923.306 522.641 659.188 4131.87 824.069 1345.62 548 1027.2 2531.73 217.661 4318.15 179.999 1258.95 1316.28 726.099 2011.02 1174.14 143.925 548.589 1099.69 794.721 361.724 836.881 160.338 663.732 136.714 4138.16 1859.72 1401 1600.14 1828.29 1721.67 1620.18 428.908 92.1785
internal_count=5224373 2844838 1189810 2379535 1655028 1267779 783284 652030 591812 1629494 131254 608629 316705 750041 638697 246659 384104 207708 406526 82758 1165258 469151 353381 555939 60218 54583 382034 126409 30723 41000 60417 312381 146783 291924 44944 177122 275988 31761 387249 38433 176467 66064 103189 190956 103149 13407 696107 255495 173297 16694 87807 44239 102544 13831 348816 221777 199726 36393 123820 113204 378817 70046 13667
shrinkage=0.555587


Tree=10
num_leaves=64
num_cat=0
split_feature=176 3 195 123 206 0 5 195 153 4 172 191 193 6 4 192 8 4 4 210 207 0 210 189 126 3 191 113 4 211 187 1 0 172 0 2 193 189 198 206 193 189 189 189 45 201 0 213 4 193 1 6 71 192 193 0 198 201 138 5 3 0 3
split_gain=211.403 122.373 80.0867 77.5619 61.5729 54.698 49.7449 46.5365 42.0213 39.1023 37.5552 29.8717 29.6282 28.6693 29.9909 28.2164 27.0799 26.4286 67.8663 31.2095 26.9107 26.3862 25.7324 24.8727 24.8695 23.8554 23.2537 22.4313 22.2947 22.4549 21.9155 21.9044 21.4004 20.5194 20.065 18.5388 31.0058 28.8223 25.543 19.3338 18.0499 17.8854 17.3156 17.134 17.0903 16.7242 16.6628 18.5097 16.6455 16.6065 18.0948 19.5287 16.4876 16.4164 16.1878 15.9796 15.8586 15.7894 17.1217 15.0725 14.7523 38.53 14.7392
threshold=5.5000000000000009 13.500000000000002 574558.50000000012 1.3666666746139529 2.5000000000000004 1001576.5000000001 290.50000000000006 578218.50000000012 3.5000000000000004 54.500000000000007 51.500000000000007 1.5000000000000002 51670.000000000007 2.5000000000000004 50.000000000000007 1.5000000000000002 0.52461948990821849 45.500000000000007 26.000000000000004 1.0000000180025095e-35 1.0000000180025095e-35 1786059.5000000002 64.500000000000014 8.5000000000000018 0.15872750431299212 1057.5000000000002 1.5000000000000002 0.03637450002133847 50.000000000000007 57.500000000000007 11.500000000000002 99.500000000000014 9304.5000000000018 6.5000000000000009 10924113.000000002 1.5000000000000002 163.00000000000003 11.500000000000002 1.5000000000000002 3.5000000000000004 6462.5000000000009 13.500000000000002 12.500000000000002 19.500000000000004 0.076270997524261488 271.50000000000006 8389030.5000000019 1.0000000180025095e-35 54.500000000000007 17028.000000000004 1182.5000000000002 1.0000000180025095e-35 0.013631000183522703 1.0000000180025095e-35 176.00000000000003 2639281.0000000005 1.5000000000000002 311.50000000000006 51.500000000000007 21.500000000000004 1.0000000180025095e-35 9642849.0000000019 3998.0000000000005
decision_type=2 2 2 2 2 2 2 2 2 2 2 2 2 2 2 2 2 2 2 2 2 2 2 2 2 2 2 2 2 2 2 2 2 2 2 2 2 2 2 2 2 2 2 2 2 2 2 2 2 2 2 2 2 2 2 2 2 2 2 2 2 2 2
left_child=1 3 4 7 -2 13 8 12 30 17 11 21 -1 22 25 23 -10 18 19 -9 26 -7 -3 -5 -18 -15 42 41 31 46 49 -23 -14 40 -25 38 44 54 -17 -39 -8 -4 -19 -22 -37 -28 -30 -48 62 50 51 -6 -34 -13 -38 -51 -47 58 -56 -41 -57 -62 -16
right_child=2 5 27 15 6 10 33 9 16 -11 -12 53 32 14 48 35 24 20 -20 -21 43 28 -24 34 -26 -27 45 -29 29 -31 -32 -33 52 -35 -36 36 37 39 -40 59 -42 -43 -44 -45 -46 56 47 -49 -50 55 -52 -53 -54 -55 57 60 -58 -59 -60 -61 61 -63 -64
leaf_value=-0.072844662463637799 -0.40788359721935136 -0.54632994990539274 0.075341651127965967 0.03390531472987212 -0.20258572337949746 -0.10000944517960735 -0.035658191466707616 0.056765515098932427 -0.39118703049168801 -0.52428206447712378 -0.33714498337957188 -0.021075444741648651 0.14593489050576552 0.081850686036660528 0.24492300747791276 0.064861375655727985 -0.11251245475641673 0.070091987372045292 -0.54775856116003485 -0.12735141405083161 -0.060204140313612944 0.20130265307795039 0.11021941296555506 -0.095476653087628427 0.021104057029351503 0.36095980829905522 0.052642868858892619 -0.068994848637363174 0.26916306416240171 -0.46900009477218707 -0.2161514910157212 -0.13546799305576038 -0.3332436363163529 -0.4513372662635326 -0.44050563630156125 0.042914913256794023 -0.6281108910344515 -0.12261175263791006 0.17926482743235292 -0.319898060978618 -0.36378130350005716 -0.094067758868410747 -0.028192464854681229 -0.38368686948578057 0.23091949366062328 -0.42813310249190928 0.46145066788384642 0.063006326368336793 -0.32931478587410123 -0.24680616652794463 0.010689263675968886 -0.0031917221936601601 0.17217907011629924 -0.49293536273121097 0.021226212609786538 -0.035397706950419952 0.056765909256396643 -0.21819584249351182 0.16358652038516733 0.36283074543158045 0.19736225500920113 -0.39509235731326142 0.63907069930015048
leaf_weight=870.9813254078656 207.63786825451371 30.881782392193145 1319.373703065814 361.23008383034301 387.62685527960866 201.02519793408032 114.18060664949942 538.44667311444573 61.321573531638478 45.229103213102462 77.230007362257538 47.89791088538027 36.433639731835342 802.96590888462049 1200.3546728770445 2588.840056923897 599.50720028705018 2424.9732665183892 87.640366423644082 601.82241264447111 572.23062830089566 91.006474764519453 45.688757615852865 186.3065078816619 1520.5912361835585 107.13640536738069 69.063561395587385 704.37355518364348 356.36052653524689 16.715473755395465 687.3676658842046 172.84196427303948 321.55244683664671 154.71300079807835 72.185992476608021 288.41183904950321 10.944995189116524 642.60266502886805 785.11269153069043 12.80711765322121 94.644960097296462 225.20117609044792 716.89252747740647 55.43973948313851 309.32424073750735 77.885170255831326 40.053536623267632 354.65069354869104 15.259673617637644 375.0546725239833 586.20174330093744 249.02502026864784 21.23887353570899 43.363893457142012 860.33196740841231 370.76013948892245 28.414857318552095 64.213743155438351 374.20861335481072 45.240252323090658 46.658086505881442 123.76192856729398 30.018528676298956
leaf_count=402430 183981 4988 56378 29644 129077 7521 28450 21218 55682 12917 243735 5147 16033 70404 56049 239454 152729 125666 23828 111621 97279 3214 4045 36505 184147 5415 7261 47671 7551 4004 444167 20379 548377 361835 26838 15108 1312 149341 54146 1508 76189 26702 85081 20473 4784 13248 2109 20741 2907 270567 168525 39877 1428 10179 105770 201501 2305 6877 15307 6156 18139 127809 644
internal_value=0 0.0353077 -0.0753398 0.0102343 -0.111019 0.1255 -0.0995435 -0.0330047 -0.0851379 -0.00993759 0.0394574 0.0614263 -0.129281 0.179506 0.191373 0.0525988 -0.0272069 -0.00544036 -0.0766209 -0.0404095 0.0167156 0.0841342 -0.154575 -0.0602506 -0.0166791 0.114707 0.0366763 0.0131713 0.120017 0.167896 -0.129848 -0.0193092 -0.2589 -0.297986 -0.191829 0.0642897 0.0291111 -0.00392062 0.0914829 -0.0948734 -0.184372 0.0506415 0.047666 -0.0887761 0.140206 -0.160219 0.182071 0.103439 0.247387 -0.102116 -0.0597426 -0.124593 -0.301928 -0.245284 0.0447364 -0.15867 -0.298516 0.0504067 0.0643779 0.212199 -0.0975884 -0.232888 0.254539
internal_weight=0 16703.5 7828 13070 5579.05 3633.45 5371.41 6468.24 5007.88 5218.04 1401.15 1323.92 1250.21 2232.31 2155.74 6601.76 2181.42 5172.81 1227.91 1140.27 3944.9 1232.65 76.5705 619.723 2120.1 910.102 3317.23 2248.95 1031.63 767.78 2826.46 263.848 379.225 363.539 258.493 5982.04 2608.09 2010.35 3373.95 700.65 208.826 1544.57 3141.87 627.67 597.736 175.364 751.065 394.704 1245.63 2139.09 1222.85 636.652 342.791 91.2618 1309.7 916.235 106.3 1298.75 1234.54 58.0474 541.18 170.42 1230.37
internal_count=5224373 2650947 2573426 2181915 2442675 469032 2258694 1489165 1792220 520897 324580 80845 968268 144452 135419 692750 392558 507980 156667 132839 351313 65519 9033 92987 336876 75819 233561 130751 57998 34405 1399662 23593 565838 466474 63343 599763 306163 286271 293600 157005 104639 83080 210747 117752 19892 22814 30401 22850 59600 955495 337479 168954 549805 15326 129266 618016 15553 127954 121077 7664 347449 145948 56693
shrinkage=0.555587


Tree=11
num_leaves=64
num_cat=0
split_feature=184 6 207 192 4 201 115 5 0 191 173 187 206 193 5 187 24 139 42 4 210 208 187 211 207 46 26 189 2 115 192 208 212 201 201 189 193 28 5 4 201 215 193 0 201 3 26 60 212 201 129 189 5 5 19 193 68 0 0 0 211 198 193
split_gain=152.644 100.395 66.8809 46.0636 41.7495 39.6306 42.1909 42.6085 36.3907 45.1927 35.6335 35.4925 34.415 32.5745 30.6908 30.4286 33.7398 29.0927 28.1006 25.6301 35.5365 29.9481 29.898 24.9476 24.8007 28.7219 24.7745 24.5151 24.3869 23.7072 23.6976 23.3669 22.1743 21.7475 34.1744 21.1158 20.9589 20.0304 19.8624 23.0721 19.5421 19.1174 18.6691 25.1824 18.4976 18.4687 18.1967 17.8612 17.5631 17.3737 17.3305 16.9945 16.88 16.2317 16.2237 15.9543 15.823 15.5455 15.4032 16.5431 15.2318 15.1599 15.0006
threshold=1.5000000000000002 1.0000000180025095e-35 1.0000000180025095e-35 5.5000000000000009 54.500000000000007 255.50000000000003 0.0013114999746903779 4.5000000000000009 87384.500000000015 1.5000000000000002 75.500000000000014 10.500000000000002 2.5000000000000004 1732.0000000000002 10.500000000000002 26.500000000000004 0.77500000596046459 3.5000000000000004 0.015535499900579454 50.000000000000007 1.0000000180025095e-35 31.500000000000004 5.5000000000000009 22.500000000000004 1.0000000180025095e-35 6.5000000000000009 3.5000000000000004 4.5000000000000009 1.5000000000000002 0.10592149943113328 12.500000000000002 1.0000000180025095e-35 4.5000000000000009 202.50000000000003 37.500000000000007 6.5000000000000009 53680.000000000007 0.0383835006505251 73.500000000000014 50.000000000000007 311.50000000000006 94.500000000000014 220.50000000000003 3152.5000000000005 50.000000000000007 1.0000000180025095e-35 4.5000000000000009 1.5000000000000002 97.500000000000014 254.50000000000003 0.060231650248169906 11.500000000000002 33.500000000000007 129.50000000000003 7.5000000000000009 57.500000000000007 1.5000000000000002 1786059.5000000002 10158574.000000002 13719492.500000002 31.500000000000004 4.5000000000000009 24888.500000000004
decision_type=2 2 2 2 2 2 2 2 2 2 2 2 2 2 2 2 2 2 2 2 2 2 2 2 2 2 2 2 2 2 2 2 2 2 2 2 2 2 2 2 2 2 2 2 2 2 2 2 2 2 2 2 2 2 2 2 2 2 2 2 2 2 2
left_child=2 5 12 23 10 6 17 54 37 28 11 26 -1 38 -12 16 18 53 29 20 -18 22 40 49 30 -26 45 32 41 -14 33 -4 -22 34 -15 -25 -11 -7 44 -40 61 -10 43 -24 -9 -5 52 -30 -36 58 -45 -35 57 -2 -8 -46 -13 -44 -3 -60 -37 -21 -51
right_child=1 3 31 4 -6 8 7 13 9 36 14 56 15 24 -16 -17 19 -19 -20 21 27 -23 42 35 25 -27 -28 -29 47 -31 -32 -33 -34 51 48 60 -38 -39 39 -41 -42 -43 46 50 55 -47 -48 -49 -50 62 -52 -53 -54 -55 -56 -57 -58 -59 59 -61 -62 -63 -64
leaf_value=-0.313549440525137 0.014201913760413515 0.11893910041308453 -0.11925671238954111 0.062793692415796673 -0.40040328315295959 -0.16419730580597697 -0.081982720233454487 0.0081102854576741868 -0.10955622827012065 -0.19405346588485861 -0.5124057167495637 0.013054257536949542 0.023620317986288917 0.0064224954931528973 -0.020523377330072836 -0.37896868039892229 0.048070865222757164 0.10741009419852778 0.22591217936673663 0.01295613635429823 -0.43112695062778922 0.11044762329344363 -0.22578203780827388 -0.00063101444840818032 -0.11441100055164244 -0.60602134176358025 0.25822562648955738 -0.41070440153099996 -0.25396400988786277 -0.48515559098943978 -0.18294583723359722 -0.31452145247298735 0.30295855621542667 0.14515262048341915 -0.097125211575790557 -0.45403921254257612 -0.5562085957260543 0.0226638392351543 -0.38621122806608088 0.086993763494028972 -0.40253528081837597 0.056458056281646553 -0.21275651502496504 -0.10482648752262314 0.28256921584530742 0.13497987607593231 0.21703401245860177 0.033238522521257585 -0.55558997854475933 0.021718252676518616 0.14673303687865463 -0.091066964395671773 -0.19507569316143294 -0.19049407786138203 -0.67888524489002366 -0.23336936360087657 0.21821821355143092 0.014576569998187419 -0.25196486556924758 0.032995348379607534 -0.13580731060873999 0.33363684504319852 -0.12077010569902584
leaf_weight=156.21348079968539 733.23296712163824 693.95622393830968 322.59040153992032 1691.942169929654 54.405404366091716 210.00706624835016 20.848378487108675 546.4115339681257 526.39180598738892 96.016714351940664 44.457168305885318 1592.4403403894012 435.75827139669855 223.55672916526117 328.32547269903756 84.103239196052527 118.96263032713918 1555.0022978813445 236.0173796040026 861.21880342630811 20.942410307108929 331.7628165373817 129.82041809268355 188.02552360680946 96.149305569848082 59.314264009869078 372.47959690804419 197.71058837951031 364.28197831337604 30.231720975880307 359.83309848315776 457.39808514201991 32.279139858426191 300.26830954989941 42.66071353160396 76.885583008843355 101.43983278211431 1129.1888604894409 32.846027851963299 1003.313771532057 33.444291786250801 360.9170052649871 138.3892837311281 130.20231392540893 20.445647790125804 3095.9115399889693 42.548490823512111 81.860858257470795 65.231377546231954 569.45697815547942 241.01656927652607 136.86246187990741 899.33646243101396 142.87908975128335 43.138668609498836 194.47386884001844 125.1549866477917 282.16459262933245 73.681505580624673 429.21229368120038 117.19207774162086 48.043114642219621 380.41695365426062
leaf_count=185396 187468 30526 212798 66356 20697 59119 1693 11974 139732 14841 17410 118617 63359 34922 163028 87598 49228 159874 16909 259421 75682 242197 35205 41094 27587 19864 5301 357712 166601 3654 52350 674126 26927 20104 6466 27157 54952 58885 1124 32646 36758 56054 49363 15781 335 104075 3258 11770 12646 25819 25170 24917 680381 118670 5444 10467 2007 51478 5427 38170 39770 11625 64388
internal_value=0 0.0239454 -0.0836944 0.0621039 0.0844763 -0.0204807 0.00682147 -0.035665 -0.0735274 -0.13204 0.0881146 0.0971822 -0.0573916 -0.0263466 -0.0791841 -0.0480726 -0.041462 0.06179 0.0697213 -0.0637126 -0.202035 -0.0474075 -0.06607 -0.0025242 -0.0939379 -0.301976 0.120208 -0.320605 -0.0953063 -0.0093872 -0.0652761 -0.233763 0.0140996 -0.0101856 -0.117513 -0.133323 -0.380104 -0.00663894 0.0219312 0.0719933 0.0145586 -0.0420291 -0.106859 -0.0151578 -0.0462025 0.109471 -0.140582 -0.201266 -0.374312 0.0207572 0.0585004 0.071194 -0.15211 -0.0191805 -0.484401 -0.184287 0.0280038 -0.0602306 0.0652842 -0.00875561 -0.261878 0.0299001 -0.0353472
internal_weight=0 18280.5 5230.15 9833.94 7305.12 8446.57 5576.47 3145.35 2870.1 1530.91 7250.71 6877.93 4450.17 3081.37 372.783 4293.95 4209.85 2431.11 702.007 3507.84 369.895 3137.95 2806.18 2528.83 1283.88 155.464 5160.33 250.932 1333.45 465.99 1128.41 779.988 53.2216 768.58 331.449 382.103 197.457 1339.2 1797.49 1036.16 942.706 887.309 1863.48 501.039 761.331 4787.85 1362.44 446.143 107.892 2146.72 371.219 437.131 1319.89 876.112 63.987 214.92 1717.6 420.554 1196.85 502.894 194.078 909.262 949.874
internal_count=5224373 2060347 3164026 769842 497491 1290505 728551 262539 561954 443950 476794 296356 2277102 255402 180438 2091706 2004108 466012 83922 1920186 509549 1410637 1168440 272351 198856 47451 175732 460321 374157 67013 151405 886924 102609 99055 54034 108021 69793 118004 56546 33770 307804 195786 860636 76156 22776 170431 784480 178371 19112 164330 40951 45021 781222 306138 7137 10802 120624 100841 74123 43597 66927 271046 90207
shrinkage=0.555587


Tree=12
num_leaves=64
num_cat=0
split_feature=134 173 143 3 189 206 40 195 206 207 201 4 4 191 9 173 43 53 189 47 210 0 0 0 208 193 0 0 164 47 0 212 3 207 1 31 215 187 122 138 110 41 6 47 193 26 187 208 41 3 9 188 173 173 189 194 193 123 43 131 189 0 5
split_gain=132.903 68.7452 60.9789 35.5762 32.7704 34.5421 31.8641 29.9895 28.6365 36.4937 28.5833 25.5936 33.584 24.9934 21.6656 21.6508 21.2427 24.4932 20.8836 33.1852 25.082 25.0746 37.8057 35.1659 23.1201 20.8759 19.7595 29.2495 18.5983 20.3062 18.5183 16.9922 22.9978 16.8748 16.7414 17.8331 16.1833 15.8856 15.8486 15.3188 15.1383 14.9067 14.7789 15.9628 14.877 14.7569 19.4571 14.8299 14.6369 14.4946 14.0142 13.893 13.7878 13.4999 13.4395 13.2662 13.1378 13.0913 13.0021 12.9622 12.8744 21.6943 21.0076
threshold=11.816666603088381 1.5000000000000002 0.1141679994761944 71.500000000000014 6.5000000000000009 3.5000000000000004 2.5000000000000004 511426.50000000006 3.5000000000000004 1.0000000180025095e-35 254.50000000000003 45.500000000000007 26.000000000000004 1.5000000000000002 9.5000000000000018 22.500000000000004 0.013028499670326711 1.5000000000000002 6.5000000000000009 6.5000000000000009 10.500000000000002 9642849.0000000019 2132413.0000000005 1001576.5000000001 50.500000000000007 72786.500000000015 264550.00000000006 104317.00000000001 0.77500000596046459 3.5000000000000004 21080479.000000004 1.5000000000000002 1.0000000180025095e-35 1.0000000180025095e-35 1371.5000000000002 0.11685649678111078 91.500000000000014 26.500000000000004 0.18333333730697635 61.500000000000007 2.5000000000000004 1.5000000000000002 1.0000000180025095e-35 5.5000000000000009 17756.500000000004 2.5000000000000004 3.5000000000000004 19.500000000000004 1.5000000000000002 48.500000000000007 133.50000000000003 5.5000000000000009 17.500000000000004 112.50000000000001 4.5000000000000009 1.0000000180025095e-35 15196.000000000002 2.2678571939468388 0.042190499603748328 1072.3333129882815 11.500000000000002 4206849.5000000009 70.500000000000014
decision_type=2 2 2 2 2 2 2 2 2 2 2 2 2 2 2 2 2 2 2 2 2 2 2 2 2 2 2 2 2 2 2 2 2 2 2 2 2 2 2 2 2 2 2 2 2 2 2 2 2 2 2 2 2 2 2 2 2 2 2 2 2 2 2
left_child=1 3 7 11 16 10 8 -2 9 18 14 12 -1 37 15 -6 17 31 21 20 -20 22 23 26 50 34 27 54 -11 -30 -31 32 -3 45 35 -15 -17 48 39 -8 -10 -5 -22 44 -44 46 -13 -48 -12 -29 -21 -16 -23 -34 -4 -28 -26 -9 -18 -7 -52 62 -62
right_child=2 4 6 41 5 59 38 57 40 28 13 33 -14 25 51 36 58 -19 19 24 42 52 -24 -25 56 -27 55 49 29 30 -32 -33 53 -35 -36 -37 -38 -39 -40 -41 -42 -43 43 -45 -46 -47 47 -49 -50 -51 60 -53 -54 -55 -56 -57 -58 -59 -60 -61 61 -63 -64
leaf_value=0.013257796523349803 -0.48605527077160338 0.096481421615317767 0.23095605251514165 0.15864185368098158 0.082979904371334956 0.16934432046910627 0.098336115848184386 -0.16771084735421246 0.16757271212493022 0.20148765030941548 -0.093894745076303521 0.14770592942110616 -0.39566480612597599 -0.42833036115539591 -0.72293140462918637 -0.1649193080415868 0.39605047272481042 0.23396088000181947 -0.045041062554296019 0.075597080571399008 -0.21777900616088533 -0.05284761669443476 0.24573098421150769 -0.24442205571328526 0.4118671957624413 -0.53053118212055816 0.062595532238565676 -0.092951081038665381 -0.13517814396343175 -0.27551415232905002 -0.72720605888161827 0.036612862345810147 -0.13439373495257265 -0.015555314027734244 0.031074087184478027 -0.021350260960453449 0.029081574495565719 -0.50612121150862965 0.034380230843740991 0.46775097230760682 -0.27035396933213951 0.38732829343024838 -0.06800662600959459 0.063528426260326024 -0.27669281490019237 0.14156761836417628 0.01188217151325377 0.11940125338815925 0.026914153747783727 -0.53132885373989636 0.0029239728471822483 -0.050229618809507777 -0.32093993837934731 -0.4851927953595549 0.019400492762656107 0.46131605261013731 -0.08839623213753918 0.050504126667770523 0.1202015212361706 -0.32888109908423663 -0.2407264079448922 -0.48289320627164734 0.0077340594963503885
leaf_weight=1321.5150347086831 88.021399186143981 133.52713622575595 120.03208871920003 604.87499626509361 1084.5477626017177 321.91018453445747 88.387108649485981 967.23140843019064 253.82266865069732 36.45415036386396 1065.1636055205595 718.37455542048838 65.0462883726575 91.987619297276979 9.5360078822777705 229.73270205774799 59.890101294250599 156.60851133770484 1092.5767996965214 370.52040195547579 655.64883096646452 539.80391803522184 255.66715433441823 147.56357850203949 61.955721656613036 61.791033680517558 47.760755805941585 60.078620341509463 393.39186181833975 158.32446592170612 34.040888974090137 1240.7246253318742 241.41141742962606 502.62720795881251 83.766395653978634 52.033170970218634 314.33976540935208 24.910557819104724 492.33997259225089 56.992003310405835 26.953082963038014 102.96056402340218 272.47945481531207 144.99257818718502 172.01466710250912 1282.7910871028839 1456.6888523428486 543.80563203895531 436.39839885694073 38.012162665174628 655.90541785899995 1523.7484424983486 66.511209154871722 39.3873605766683 406.93457065037853 55.91300822983203 21.943649070353445 93.024932486330499 442.07124415745261 16.968384443502259 161.44314281678976 45.068642492327456 300.67937386184684
leaf_count=70454 306544 22629 4530 10687 165211 50969 7679 992034 40141 8059 585305 18313 8780 29265 790 355404 1230 2658 119547 57748 271691 42654 11985 13715 5623 96886 7780 5357 228699 83726 16004 198246 61013 54692 14657 4607 238262 23661 29953 2976 4461 1406 40149 12906 104238 29077 73891 26999 29685 2737 63695 164014 37370 169298 17995 1405 8361 22507 11196 14530 31196 34974 52119
internal_value=0 0.0326928 -0.0554954 0.0742198 -0.00321908 -0.0272371 -0.0366162 -0.174435 -0.048081 -0.0557994 -0.0389212 0.0600788 -0.00592556 -0.0944725 -0.00701519 0.0376084 0.0519757 0.0239532 -0.041838 -0.0641448 -0.106477 0.00891849 0.0577548 0.00291103 -0.00296479 -0.244118 0.0529945 0.0157354 -0.183552 -0.207515 -0.355445 0.00408128 -0.0933366 0.080397 -0.166423 -0.281293 -0.0528346 -0.0660842 0.0819741 0.243155 0.125534 0.191906 -0.160385 -0.0965492 -0.148766 0.092449 0.0692743 0.0411097 -0.0587841 -0.262831 -0.018501 -0.0544134 -0.0822567 -0.1836 0.0675885 0.277632 0.281025 -0.148565 0.153114 0.144397 -0.0484772 -0.11495 -0.0790659
internal_weight=0 14229.1 8382.49 6598.68 7630.45 5316.83 7234.21 1148.28 6596.49 6315.72 4977.96 5890.85 1386.56 1816.05 3161.9 1628.62 2313.62 1811.66 5693.51 3955.23 2337.71 1738.28 1131.96 876.295 1617.52 289.578 728.731 625.057 622.211 585.757 192.365 1655.05 414.326 4504.29 227.787 144.021 544.072 1526.47 637.719 145.379 280.776 707.836 1245.14 589.487 444.494 4001.66 2718.87 2000.49 1501.56 98.0908 1533.62 1533.28 606.315 280.799 526.967 103.674 83.8994 1060.26 501.961 338.879 1163.1 507.191 462.123
internal_count=5224373 2533815 2690558 294299 2239516 1773246 1369473 1321085 1328865 1284263 1707747 282206 79234 784066 923681 758877 466270 453844 947775 802247 548531 145528 65504 53519 253716 145415 39804 30619 336488 328429 99730 451186 252940 202972 48529 33872 593666 638651 40608 10655 44602 12093 428984 157293 144387 148280 119203 100890 614990 8094 239732 164804 80024 230311 22525 9185 13984 1014541 12426 65499 181984 118289 83315
shrinkage=0.555587


Tree=13
num_leaves=64
num_cat=0
split_feature=184 123 11 195 4 193 198 4 123 189 0 211 183 206 198 187 212 189 2 187 189 124 193 3 6 210 215 142 206 114 0 203 0 60 18 169 0 155 195 203 43 0 1 207 9 207 11 201 201 1 5 3 42 201 192 155 206 192 190 189 136 58 215
split_gain=94.0129 69.0567 55.2125 46.4071 36.1163 27.4982 37.9916 23.0156 22.4122 22.1983 21.8396 21.2996 21.164 20.4635 19.8149 20.7758 18.3982 17.1517 17.0849 17.0686 17.04 16.2616 16.0275 15.6218 15.4889 26.0172 17.0805 15.4295 15.0387 15.3459 14.9837 15.0888 14.6109 14.4816 14.337 15.3672 14.2412 13.9013 13.7631 13.6918 14.1404 13.53 13.7006 13.5245 13.1906 12.9855 12.9294 12.6654 14.8416 12.4422 12.3652 12.3224 12.2493 11.7449 14.6921 11.4886 11.3995 12.1038 11.3513 11.1395 14.1407 11.0723 10.9439
