tree
version=v3
num_class=1
num_tree_per_iteration=1
label_index=0
max_feature_idx=223
objective=binary sigmoid:1
feature_names=Column_0 Column_1 Column_2 Column_3 Column_4 Column_5 Column_6 Column_7 Column_8 Column_9 Column_10 Column_11 Column_12 Column_13 Column_14 Column_15 Column_16 Column_17 Column_18 Column_19 Column_20 Column_21 Column_22 Column_23 Column_24 Column_25 Column_26 Column_27 Column_28 Column_29 Column_30 Column_31 Column_32 Column_33 Column_34 Column_35 Column_36 Column_37 Column_38 Column_39 Column_40 Column_41 Column_42 Column_43 Column_44 Column_45 Column_46 Column_47 Column_48 Column_49 Column_50 Column_51 Column_52 Column_53 Column_54 Column_55 Column_56 Column_57 Column_58 Column_59 Column_60 Column_61 Column_62 Column_63 Column_64 Column_65 Column_66 Column_67 Column_68 Column_69 Column_70 Column_71 Column_72 Column_73 Column_74 Column_75 Column_76 Column_77 Column_78 Column_79 Column_80 Column_81 Column_82 Column_83 Column_84 Column_85 Column_86 Column_87 Column_88 Column_89 Column_90 Column_91 Column_92 Column_93 Column_94 Column_95 Column_96 Column_97 Column_98 Column_99 Column_100 Column_101 Column_102 Column_103 Column_104 Column_105 Column_106 Column_107 Column_108 Column_109 Column_110 Column_111 Column_112 Column_113 Column_114 Column_115 Column_116 Column_117 Column_118 Column_119 Column_120 Column_121 Column_122 Column_123 Column_124 Column_125 Column_126 Column_127 Column_128 Column_129 Column_130 Column_131 Column_132 Column_133 Column_134 Column_135 Column_136 Column_137 Column_138 Column_139 Column_140 Column_141 Column_142 Column_143 Column_144 Column_145 Column_146 Column_147 Column_148 Column_149 Column_150 Column_151 Column_152 Column_153 Column_154 Column_155 Column_156 Column_157 Column_158 Column_159 Column_160 Column_161 Column_162 Column_163 Column_164 Column_165 Column_166 Column_167 Column_168 Column_169 Column_170 Column_171 Column_172 Column_173 Column_174 Column_175 Column_176 Column_177 Column_178 Column_179 Column_180 Column_181 Column_182 Column_183 Column_184 Column_185 Column_186 Column_187 Column_188 Column_189 Column_190 Column_191 Column_192 Column_193 Column_194 Column_195 Column_196 Column_197 Column_198 Column_199 Column_200 Column_201 Column_202 Column_203 Column_204 Column_205 Column_206 Column_207 Column_208 Column_209 Column_210 Column_211 Column_212 Column_213 Column_214 Column_215 Column_216 Column_217 Column_218 Column_219 Column_220 Column_221 Column_222 Column_223
feature_infos=[1:3.4028234663852886e+38] [0:271267] [0:2] [0:177949] [0:141] [0:29690] [0:9] [508:861] [0.50031602382659912:0.87444800138473511] [1:223] [1:9] [0:8] [0:58214] [0:9] [0:510.96185302734375] [0:0.44487801194190979] [0:0.44487801194190979] [0:0.44487801194190979] [0:751811] [0:751811] [0:1] [0:3] [0:16] [0:1] [0:1] [0:7] [0:54] [0:7] [0:3.6723120212554932] [0:0.40233799815177917] [0:0.40233799815177917] [0:0.40233799815177917] [0:920] [0:920] [0:1] [0:3] [0:16] [0:1] [0:1] [0:6] [0:13] [0:6] [0:0.79615402221679688] [0:0.40233799815177917] [0:0.40233799815177917] [0:0.40233799815177917] [0:86] [0:86] none [0:3] [0:16] [0:1] [0:1] [0:6] [0:8] [0:6] [0:0.57813602685928345] [0:0.40233799815177917] [0:0.40233799815177917] [0:0.40233799815177917] [0:17] [0:17] [0:1] [0:2] [0:16] [0:1] [0:1] [0:4] [0:80] [0:4] [0:11.898479461669922] [0:0.35846701264381409] [0:0.35846701264381409] [0:0.35846701264381409] [0:682] [0:682] [0:1] [0:2] [0:16] [0:1] [0:1] none none none none none none none none none none none [16:16] none none [0:4] [0:4] [0:4] [0:0.37730899453163147] [0:0.36747300624847412] [0:0.36747300624847412] [0:0.36747300624847412] [0:37] [0:37] [0:1] [0:2] [0:16] [0:1] [0:1] [0:7] [0:131] [0:7] [0:8.9034099578857422] [0:0.38528299331665039] [0:0.38528299331665039] [0:0.38528299331665039] [0:4031] [0:4031] [0:1] [0:3] [0:16] [0:1] [0:1] [1:7] [1:19405.333984375] [1:9] [0.0065135997720062733:172.79824829101562] [0.00035099999513477087:0.44487801194190979] [0.004081999883055687:0.44487801194190979] [0.0057274000719189644:0.44487801194190979] [1:751811] [1:751811] [0:1] [1:3] [0:16] [0:1] [0.30000001192092896:1] [1:24] [1:58216] [1:24] [0.018439000472426414:511.20938110351562] [0.00076800002716481686:2.3295578956604004] [0.0093040000647306442:2.3295578956604004] [0.018439000472426414:2.3295578956604004] [1:751811] [1:751811] [0:2] [1:12] [0:112] [0:7] [1:7] [1:8] [1:58214] [1:9] [0.014701999723911285:510.96185302734375] [0.00076800002716481686:0.44487801194190979] [0.0093040000647306442:0.44487801194190979] [0.014701999723911285:0.44487801194190979] [1:751811] [1:751811] [0:1] [1:3] [0:16] [0:1] [0.3333333432674408:1] [1:7] [1:14753] [1:9] [0.00076800002716481686:172.79824829101562] [3.600000127335079e-05:0.44487801194190979] [0.00076800002716481686:0.44487801194190979] [0.00076800002716481686:0.44487801194190979] [1:751811] [0:751811] [0:1] [1:3] [0:16] [0:1] [0.1111111119389534:1] [1:19405.333984375] [0.0054867500439286232:0.44487801194190979] [1:58216] [0.018439000472426414:0.44487801194190979] [1:57495] [1:2261] [0.0093040000647306442:0.44487801194190979] [3.600000127335079e-05:0.44487801194190979] [0:244] [0:7] [3:188] [1:18] [0:3] [0:20] [1:3.4028234663852886e+38] [0:608] [500146:878952] [0:1] none [0:18] [2:29] [0:2] [0:316] none [0:1] none none [2:7] [0:60] [0:5560] [0:2767] [0:29688] [0:24039] [0:100] [0:1] [0:1] [0:100] [0:1] [0:1] none [0:159] [-12.426191329956055:9.7815151214599609] [0:1] [0:437] [6:439]
tree_sizes=3132 2851 3738 2641 3618 3512 2527 2529 2187 3421

Tree=0
num_leaves=28
num_cat=0
split_feature=222 221 222 222 221 222 221 222 222 221 169 193 43 221 189 5 0 222 222 221 223 220 27 220 168 223 31
split_gain=6.22508e+06 84775.1 36473.3 23912.4 11472.8 10916.8 9498.23 4166.22 3985.42 3351.47 3343.6 3150.24 2301.26 1804.45 1723.01 1489.5 776.011 710.524 700.174 681.024 747.986 423.264 286.029 78.8347 51.5294 41.5787 33.3781
threshold=30.500000000000004 0.58977833390235912 14.500000000000002 22.500000000000004 0.63302642107009899 52.500000000000007 0.64037165045738231 40.500000000000007 34.500000000000007 0.64800357818603527 0.0087624997831881064 4888.5000000000009 0.034406499937176711 0.53023186326026928 9.5000000000000018 65.500000000000014 38257.500000000007 8.5000000000000018 16.500000000000004 0.49771311879158026 210.50000000000003 0.43463151156902319 1.5000000000000002 1.6333539485931399 0.26693049073219305 126.50000000000001 0.081054497510194792
decision_type=2 2 2 2 2 2 2 2 2 2 2 2 2 2 2 2 2 2 2 2 2 2 2 2 2 2 2
left_child=2 5 17 9 11 8 7 -3 -2 -4 -8 -5 -12 16 -9 -15 -10 23 -11 25 -21 -19 -22 -1 -18 -7 -24
right_child=1 6 3 4 -6 19 10 14 13 18 12 -13 -14 15 -16 -17 24 21 -20 20 22 -23 26 -25 -26 -27 -28
leaf_value=2.5518396296432853 -0.515315321416427 -0.03264195680352211 1.9791200262296784 1.1960066293929963 1.7956695688163717 -1.9415366021881835 1.1578773519693679 -0.79540371194629822 -1.3272954025589447 2.4426256194658968 -0.48635511611884485 0.2126975888173277 0.62429936463071822 -0.73041321504233014 -1.8870065319791016 -1.747844705754527 -2.1279639098967342 2.4684446915427447 2.277566135437044 -1.41088722932711 -2.1693568861224639 2.5394342124959346 -1.9736549529307221 2.5680172453526575 -1.8229201376532735 -2.2031602293970405 -1.6367824783809026
leaf_weight=113748.3967070505 980.71668353676796 989.16660889238119 7650.3064603731036 1414.5273244902492 5445.8535950705409 576.65150464698672 1142.8362470194697 735.38348427042365 538.18746722117066 12242.497482605278 947.79087756946683 1970.2406155131757 957.44142127037048 824.89144779741764 787.32996272668242 705.1904990375042 1532.2474075593054 30515.55715450272 13871.266973540187 568.11349444463849 2803.2591418363154 74176.057419266552 684.07604928314686 396681.01688072085 606.29397578164935 69651.897189531475 540.06389858201146
leaf_count=18277 11685 10034 18199 7626 16759 9635 6339 9673 8131 7229 11335 17982 7305 10581 13680 11837 27723 15279 16967 8679 51874 16540 12141 29477 10131 1293023 8871
internal_value=2.00374 -2.00786 2.52567 2.07814 1.3457 -2.13909 -0.118732 -0.840043 -1.43401 2.2698 0.476824 0.622674 0.0700072 -1.64733 -1.36223 -1.20172 -1.90068 2.55665 2.35507 -2.18793 -1.98632 2.51877 -2.06657 2.56442 -2.04325 -2.20107 -1.8281
internal_weight=0 85571.5 657716 42594.7 8830.62 80011.6 5559.95 2511.88 5187.53 33764.1 3048.07 3384.77 1905.23 4206.81 1522.71 1530.08 2676.73 615121 26113.8 74824.1 4595.51 104692 4027.4 510429 2138.54 70228.5 1224.14
internal_count=1687012 1522677 164335 84762 42367 1464311 58366 33387 80088 42395 24979 25608 18640 68403 23353 22418 45985 79573 24196 1384223 81565 31819 72886 47754 37854 1302658 21012
is_linear=0
shrinkage=1


Tree=1
num_leaves=25
num_cat=0
split_feature=222 221 222 221 220 222 220 182 114 222 7 180 222 198 223 168 19 220 222 222 222 221 55 222
split_gain=257185 19670.8 3591.08 1762.36 1872 1577.21 1542.33 1491.56 1299.99 1107.59 1041.88 966.717 883.195 748.877 650.177 558.4 546.007 290.272 285.503 243.593 227.469 129.441 89.9614 33.5946
threshold=18.500000000000004 0.53827449679374706 10.500000000000002 0.71143856644630443 -3.3889304399490352 66.500000000000014 -0.26315966248512263 0.17149050533771518 0.015147500205785038 62.500000000000007 637.50000000000011 0.022174875251948837 26.500000000000004 2.5000000000000004 347.50000000000006 0.066332001239061369 9.5000000000000018 0.96638813614845287 12.500000000000002 34.500000000000007 32.500000000000007 0.60712867975234996 1.5000000000000002 4.5000000000000009
decision_type=2 2 2 2 2 2 2 2 2 2 2 2 2 2 2 2 2 2 2 2 2 2 2 2
left_child=2 5 17 4 -3 8 14 9 10 11 13 -6 -13 15 -4 -2 -11 -1 -8 -10 -17 -18 -7 -19
right_child=1 3 6 -5 7 22 18 -9 19 16 -12 12 -14 -15 -16 20 21 23 -20 -21 -22 -23 -24 -25
leaf_value=0.49081707340792791 -0.18093402460256058 0.31931272692037727 0.13880802899587191 0.14273109992996397 0.069954606714161482 -0.55464084672326808 0.48455978854250364 0.12609529464925828 -0.92492580794014345 -0.13597287513814632 0.079904282075805147 -0.08506292596635262 -0.32333274565111919 -0.049476973953261165 0.35241776298896665 -0.82566841233665911 -0.55875462347451443 0.53488936119306174 0.40047120105363015 -0.55641278272422445 -0.49311860480875147 -0.85096156815868795 -0.3376121652663866 0.52114998723068817
leaf_weight=56077.972543612123 1317.8048931136727 2177.9136760756373 7109.1211684681475 7840.560271538794 3391.3140640817583 59603.960667721927 18470.459559671581 3792.8045732863247 715.17127220332623 690.12407778576016 1904.0858814865351 6757.6480414234102 9294.6811483800411 1584.4623735286295 7272.4519110321999 726.29989535361528 1227.7925369106233 210959.21589550003 24173.776214320213 1450.4596534967422 2198.7776312343776 653.18187628313899 554.09260583296418 87132.500070456415
leaf_count=18258 15266 10085 12360 15566 11741 1286813 6883 14206 5331 6942 15160 19115 61642 16933 6276 4912 20994 21949 16892 26756 36978 6775 11022 18157
internal_value=0 -0.368061 0.505774 -0.0666005 -0.125356 -0.522184 0.38912 -0.163 -0.336432 -0.212944 -0.239913 -0.171927 -0.223216 -0.344928 0.247038 -0.454546 -0.521921 0.524548 0.436965 -0.679569 -0.576767 -0.6619 -0.552693 0.530884
internal_weight=0 105881 411195 35826 27985.5 70055.1 57025.8 25807.5 9897.06 22014.7 7731.43 19443.6 16052.3 5827.34 14381.6 4242.88 2571.1 354170 42644.2 2165.63 2925.08 1880.97 60158.1 298092
internal_count=1687012 1586237 100775 167066 151500 1419171 42411 141415 121336 127209 89249 92498 80757 74089 18636 57156 34711 58364 23775 32087 41890 27769 1297835 40106
is_linear=0
shrinkage=0.5


Tree=2
num_leaves=33
num_cat=0
split_feature=222 222 222 221 222 220 221 220 29 30 8 222 201 47 126 143 166 8 29 220 190 195 143 10 208 135 28 220 222 221 7 155
split_gain=141875 18855.2 2730.18 1693.06 1099.04 936.362 846.297 844.057 756.062 742.158 828.403 725.576 709.693 747.937 758.899 716.311 707.398 699.588 835.411 445.632 436.158 637.562 597.718 379.987 367.004 275.805 269.763 72.6869 60.5203 59.1025 37.7736 9.81018
threshold=16.500000000000004 62.500000000000007 10.500000000000002 0.57907065749168407 22.500000000000004 1.6333539485931399 0.49771311879158026 1.0000000180025095e-35 0.02185699995607138 0.045558501034975059 0.58450350165367138 20.500000000000004 207.50000000000003 6.5000000000000009 0.21241449564695361 0.11462099850177766 2.5000000000000004 0.58503198623657238 0.068404000252485289 0.96638813614845287 2.5000000000000004 548076.50000000012 0.21017350256443026 2.5000000000000004 8.5000000000000018 1.0000000180025095e-35 0.1253360062837601 -3.640437006950378 4.5000000000000009 0.58977833390235912 676.50000000000011 0.022175499238073829
decision_type=2 2 2 2 2 2 2 2 2 2 2 2 2 2 2 2 2 2 2 2 2 2 2 2 2 2 2 2 2 2 2 2
left_child=2 3 19 4 -2 8 30 -4 20 25 -11 -10 23 15 -15 -14 -17 -13 -19 -1 21 -5 -23 24 -6 -8 -12 -25 -21 31 -3 -27
right_child=1 6 7 5 12 -7 9 -9 11 10 26 17 13 14 -16 16 -18 18 -20 28 -22 22 -24 27 -26 29 -28 -29 -30 -31 -32 -33
leaf_value=0.44912631446990597 -0.59655568896526689 -0.53089995591708572 0.23403282433084679 0.29578189684648759 -0.4189792265661097 0.27043520810784338 -0.11494067433613632 0.40229700521669631 0.080092700077714768 0.44170481523520067 -0.53779073028975299 -0.37296513972306206 -0.49828707584855236 0.49324822327968265 -0.10276297249241928 -0.19023829412966559 0.21483839757976958 0.052426058220839761 -0.29330168250660127 0.51685696987645069 -0.057654367414048523 -0.12220410742199994 0.19133588984229039 -0.41529706161183322 -0.011370766360264638 -0.40241232440217833 -0.038106159274343486 -0.67994123880940172 0.49514523223622714 -0.70181185375711896 -0.31412006451412317 -0.53423856426876037
leaf_weight=36361.259184807539 1471.9066803306341 36730.283151602373 10897.964129270986 3789.793204439804 1047.9478827994317 3434.7126122843474 465.30633659102023 24343.881022570655 4583.2042609229684 592.3960578776896 553.10414138250053 2785.8872773386538 1169.9617230258882 1076.217691520229 1046.8177919220179 3429.6628427188843 1566.5635365359485 4598.4549420326948 2807.6850663982332 131202.94598731026 4173.2660929039121 3041.7553717195988 3029.6698652133346 606.48370659723878 1200.2994319852442 493.06721242889762 554.9505622703582 623.36767678521574 54898.096808731556 564.3545509967953 271.52481631748378 848.66638361662626
leaf_count=18258 6788 1266814 14636 8383 13921 5229 7649 17175 8874 8063 10576 15766 17540 7871 12158 38964 13647 16672 13057 21949 14670 11789 7056 9765 12167 13081 7878 8859 18157 7679 8348 23573
internal_value=0 -0.259908 0.479941 -0.0380739 -0.188646 0.0236571 -0.505486 0.350351 -0.00566152 -0.287491 -0.0334954 -0.0847004 -0.137358 -0.0573768 0.197974 -0.145785 -0.0626228 -0.1591 -0.0782395 0.500456 0.0773353 0.134767 0.0337609 -0.327098 -0.202719 -0.468339 -0.290291 -0.551963 0.510469 -0.553015 -0.529392 -0.488097
internal_weight=0 86557.3 257704 45483.7 13239.2 32244.4 41073.7 35241.8 28809.7 4071.85 1700.45 14775.2 11767.3 8289.22 2123.04 6166.19 4996.23 10192 7406.14 222462 14034.5 9861.22 6071.43 3478.1 2248.25 2371.39 1108.05 1229.85 186101 1906.09 37001.8 1341.73
internal_count=1687012 1596837 90175 243176 141680 101496 1353661 31811 96267 78499 26517 54369 134892 90180 20029 70151 52611 45495 29729 58364 41898 27228 18845 44712 26088 51982 18454 18624 40106 44333 1275162 36654
is_linear=0
shrinkage=0.5


Tree=3
num_leaves=23
num_cat=0
split_feature=222 222 222 221 223 221 5 2 215 0 220 221 207 193 220 223 220 131 33 222 29 220
split_gain=79796.2 14314.4 3541.8 1379.08 1031.21 749.453 762.585 940.246 895.275 716.206 665.507 483.561 534.644 439.586 729.174 371.331 683.627 247.549 140.179 102.793 25.5651 7.15376
threshold=16.500000000000004 74.500000000000014 10.500000000000002 0.44847498834133154 331.50000000000006 0.76340755820274364 342.50000000000006 1.5000000000000002 72.500000000000014 3323639.0000000005 0.96638813614845287 0.53023186326026928 1.0000000180025095e-35 2975.0000000000005 -3.430791854858398 170.50000000000003 -5.3940634727478018 24.10000038146973 2.5000000000000004 4.5000000000000009 0.035111499950289733 -2.2504079341888423
decision_type=2 2 2 2 2 2 2 2 2 2 2 2 2 2 2 2 2 2 2 2 2 2
left_child=2 3 10 15 -4 6 7 13 -9 -10 -1 21 18 17 -15 16 -2 -5 -13 -12 -17 -3
right_child=1 11 4 5 -6 -7 -8 8 9 -11 19 12 -14 14 -16 20 -18 -19 -20 -21 -22 -23
leaf_value=0.40173297213236042 -0.6202411334360437 -0.51893473680966784 0.11863942463439726 0.24886571397330989 0.34002894121708044 0.20249532412857582 0.26328736203029629 0.22922934356336189 -0.23786792422628494 0.074856018928566276 0.50429627634412066 -0.25488512792185081 0.22334527908915822 0.23875758151809737 -0.059424628688594244 -0.58617411344692916 0.021724700831963026 0.041750582200321136 -0.64185490324017758 0.46989889670310819 -0.39148563909583245 -0.42322168812611188
leaf_weight=23999.08031730447 620.12782739475369 22229.82992227003 7456.5418041450903 2789.8052297011018 18251.58403724432 4072.6758771166205 2196.2440182492137 1457.7610962241888 10535.204782558605 2199.3648095307872 81039.331056134775 596.31535397283733 462.00787938851863 2380.2626824928448 14717.846777883358 1026.4049357259646 1225.7682708958164 3073.3352065263316 433.32523705251515 34637.499074482359 339.87245809007436 552.66833697631955
leaf_count=18258 13985 1234680 14231 8311 17580 6234 9847 7053 75686 11436 21949 14247 6876 18834 82211 32326 15380 14040 10096 18157 9912 25683
internal_value=0 -0.187208 0.446767 -0.0250621 0.275934 -0.00160618 -0.0228077 -0.0398016 -0.141002 -0.183622 0.478188 -0.498592 -0.219239 0.0226204 -0.0177363 -0.341188 -0.192362 0.140817 -0.420748 0.494023 -0.540004 -0.516748
internal_weight=0 70908.8 165384 46634.7 25708.1 43422.5 39349.8 37153.6 14192.3 12734.6 139676 24274.1 1491.65 22961.2 17098.1 3212.17 1845.9 5863.14 1029.64 115677 1366.28 22782.5
internal_count=1687012 1596837 90175 305255 31811 233652 227418 217571 94175 87122 58364 1291582 31219 123396 101045 71603 29365 22351 24343 40106 42238 1260363
is_linear=0
shrinkage=0.5


Tree=4
num_leaves=32
num_cat=0
split_feature=222 222 220 222 221 184 221 4 168 221 168 210 126 223 7 220 222 212 222 173 152 125 113 221 220 220 127 222 222 220 222
split_gain=47173 10333.7 2644.76 985.242 852.862 925.506 648.6 581.359 1317.89 578.857 573.396 623.172 530.437 489.009 717.399 662.679 714.782 709.458 477.621 462.845 277.036 271.992 246.941 179.847 128.031 103.025 83.4986 171.48 24.3215 19.1101 45.5079
threshold=14.500000000000002 74.500000000000014 1.0000000180025095e-35 8.5000000000000018 0.48444807529449468 9.5000000000000018 0.74929156899452221 52.500000000000007 0.16677249968051913 0.53023186326026928 0.46793000400066381 1.0000000180025095e-35 0.15273950248956683 198.50000000000003 610.50000000000011 -3.1603385210037227 26.500000000000004 92.500000000000014 24.500000000000004 5.5000000000000009 3.5000000000000004 1.7321428656578066 0.0197315001860261 0.70085343718528759 1.9088555574417116 1.6333539485931399 0.24905250221490863 30.500000000000004 2.5000000000000004 -2.2504079341888423 96.500000000000014
decision_type=2 2 2 2 2 2 2 2 2 2 2 2 2 2 2 2 2 2 2 2 2 2 2 2 2 2 2 2 2 2 2
left_child=2 4 6 24 5 10 -1 8 18 29 11 20 -11 14 19 -15 23 -18 -6 -9 -2 -20 -14 -17 -4 -5 27 -13 -26 -3 -31
right_child=1 9 3 25 7 -7 -8 13 -10 12 -12 26 22 15 -16 16 17 -19 21 -21 -22 -23 -24 -25 28 -27 -28 -29 -30 30 -32
leaf_value=0.089152110620540043 0.25241611437407058 -0.51113635910366639 0.43869702518005627 0.30035864607278645 -0.13952501633453565 0.50563816096266057 0.3199936955979189 -0.37591815592175859 0.15017265697338794 0.33707760906434953 0.059629997386550726 -0.90233767395632536 -0.57411034487391732 0.31364054845246286 0.10923655938589173 0.059981410243360227 0.086945424970925098 -0.15518373917963749 -0.64714291402136426 -0.046251144123475474 -0.31014865422828958 -0.26642077256219804 -0.031377453695678917 0.16355854181140478 0.50000401989522258 0.38219046868403833 -0.34133345939520432 -0.50681408877673195 0.47436855716143178 -0.11346611781443616 -0.50489115822395503
leaf_weight=6116.6777154374868 413.69359720312059 13632.572269904427 17734.171605912969 8170.9733835374936 2391.8464797483757 393.02964479383081 6147.5875480789691 2157.5662652794272 2746.6210182933137 381.09982738271356 861.5523305637762 386.12493577413261 549.44224968552589 2414.4294051760808 2895.928155018948 9420.7033809060231 5298.0292921327055 7023.7446506414562 1068.0987157784402 2147.9363391464576 460.59294957108796 901.68335536774248 358.46325419843197 7745.9819182055071 33523.298331038095 8458.6504077725112 462.38679701182991 1292.9171558534727 23438.316167138517 142.56280934158713 232.8793614031747
leaf_count=12440 7860 1234680 13855 10561 7141 5851 7138 13018 10810 7850 13416 3184 16435 15244 11501 21380 32613 58065 13502 10404 11622 7968 6934 12586 12015 8620 6445 53247 14944 9359 16324
internal_value=0 -0.117808 0.423576 0.45288 -0.00865796 -0.222476 0.205112 0.011036 -0.120403 -0.477823 -0.29708 -0.399979 -0.153801 0.0350057 -0.0825 0.0616246 0.0408865 -0.0508316 -0.291477 -0.21216 -0.0405277 -0.474432 -0.363184 0.106894 0.477487 0.342167 -0.545315 -0.599655 0.48951 -0.507423 -0.364385
internal_weight=0 65779.9 103590 91325.4 50482.9 4270.3 12264.3 46212.6 7108.25 15297 3877.27 3015.72 1289.01 39104.3 7201.43 31902.9 29488.5 12321.8 4361.63 4305.5 874.287 1969.78 907.906 17166.7 74695.8 16629.6 2141.43 1679.04 56961.6 14008 375.442
internal_count=1687012 1607439 79573 59995 315857 101625 19578 214232 39421 1291582 95774 82358 31219 174811 34923 139888 124644 90678 28611 23422 19482 21470 23369 33966 40814 19181 62876 56431 26959 1260363 25683
is_linear=0
shrinkage=0.5


Tree=5
num_leaves=31
num_cat=0
split_feature=222 222 220 221 222 114 122 220 215 222 8 57 221 193 5 183 145 179 215 135 201 208 220 157 183 222 222 220 220 221
split_gain=27536 7226.76 1924.3 1000.42 704.159 504.239 756.001 598.582 728.587 567.228 534.375 479.943 512.177 437.211 827.385 661.379 480.32 454.203 426.386 316.16 303.991 400.913 346.394 296.809 158.898 127.839 111.057 94.016 88.1467 32.9938
threshold=12.500000000000002 102.50000000000001 0.13387650996446612 0.55501669645309459 6.5000000000000009 0.02389750070869923 0.36666667461395269 -1.8051320910453794 75.500000000000014 56.500000000000007 0.58019849658012401 0.0038669999921694402 0.64037165045738231 9838.5000000000018 49.500000000000007 6.5000000000000009 448.50000000000006 18.083333015441898 95.500000000000014 1.0000000180025095e-35 234.50000000000003 6.5000000000000009 0.60196742415428173 0.11652449890971185 46.500000000000007 30.500000000000004 22.500000000000004 1.9088555574417116 2.5778042078018193 0.51515260338783275
decision_type=2 2 2 2 2 2 2 2 2 2 2 2 2 2 2 2 2 2 2 2 2 2 2 2 2 2 2 2 2 2
left_child=2 3 -1 5 28 6 7 8 25 -10 -9 13 -13 16 15 -15 20 18 -16 -7 22 -22 -5 -17 26 -2 -21 -6 -4 -28
right_child=1 -3 4 11 27 19 -8 10 9 -11 -12 12 -14 14 17 23 -18 -19 -20 24 21 -23 -24 -25 -26 -27 29 -29 -30 -31
leaf_value=0.18145358093533559 -0.89510838067351695 -0.50987288801626329 0.43307588603736624 -0.051152182704803428 0.29597457777453962 0.055094489877506474 0.61315159464351221 0.41695087872512415 -0.023362894941231289 -0.38361633373378828 -0.084594158353867022 0.27106776161720875 0.040154879242253076 -0.13542396568277301 -0.36795180941723576 0.034405046443108593 -0.13073210597437734 0.010479180365705389 -0.058695245140863696 -0.19746327425053142 0.29615109686766278 0.048589334054677434 0.16411936457721879 0.25467113637031386 -0.07423757652935023 -0.46581351954445294 -0.46715073722441092 0.38073871131530473 0.48535871044854795 -0.65808267665697584
leaf_weight=8758.9372279476374 268.58993004076183 7975.4022955531254 13688.734683751129 4917.3295997995883 7241.5544594628736 394.19147762190551 375.58213974628597 883.23779985774308 4266.3223981708288 1478.3840872035362 1314.1422697850503 3886.461481702514 6383.5795643404126 3353.90557399299 3326.7015507910401 3241.9381474289112 2754.4513243674301 2133.8909240835346 1713.8174970275722 289.53653025347739 3388.1287991870195 3226.2028190284036 3003.6595938345417 2957.7514993413351 283.71643747435883 683.70975247537717 688.24681625142694 6988.4184039775282 27187.716657769401 596.4747626632452
leaf_count=15896 2119 1149555 14495 20928 11310 8496 5607 8134 48818 121624 14905 15984 16358 14934 21327 11487 12570 8612 7695 1049 8484 11368 6359 7870 7201 34552 38526 9243 18026 13480
internal_value=0 -0.0646725 0.399743 -0.000996704 0.434384 -0.132292 -0.0803094 -0.109943 -0.184414 -0.116605 0.115657 0.0330944 0.127834 0.00440349 -0.0531292 0.0429802 0.0602403 -0.181526 -0.263404 -0.344895 0.0966374 0.175859 0.0301027 0.139978 -0.431369 -0.590205 -0.493809 0.337818 0.467926 -0.558221
internal_weight=0 63785.4 63865.4 55810 55106.4 11522.1 9269.97 8894.39 6697.01 5744.71 2197.38 44287.8 10270 34017.8 16728 9553.6 17289.8 7174.41 5040.52 2252.17 14535.3 6614.33 7920.99 6199.69 1857.97 952.3 1574.26 14230 40876.5 1284.72
internal_count=1687012 1618042 68970 468487 53074 304511 235759 230152 207113 170442 23039 163976 32342 131634 71925 34291 59709 37634 29022 68752 47139 19852 27287 19357 60256 36671 53055 20553 32521 52006
is_linear=0
shrinkage=0.5


Tree=6
num_leaves=22
num_cat=0
split_feature=222 222 221 220 223 172 170 201 113 140 0 222 170 148 5 131 5 180 187 222 0
split_gain=15731.1 5063.69 1314.47 759.547 670.176 578.551 588.677 526.88 510.597 494.257 497.133 443.329 433.322 379.969 601.57 353.065 304.543 269.762 230.922 119.126 10.0268
threshold=8.5000000000000018 102.50000000000001 0.71143856644630443 1.3812369704246523 267.50000000000006 504.50000000000006 0.0072114998474717149 226.50000000000003 0.02142949961125851 0.1638860031962395 1088.0000000000002 14.500000000000002 0.0046020001173019418 37.500000000000007 21.500000000000004 7.9166667461395273 59.500000000000007 0.061811000108718879 6.5000000000000009 2.5000000000000004 40804.500000000007
decision_type=2 2 2 2 2 2 2 2 2 2 2 2 2 2 2 2 2 2 2 2 2
left_child=3 2 5 -1 -4 6 12 17 9 16 -11 -6 -2 15 -15 -10 -8 -7 -9 -5 -21
right_child=1 -3 4 19 11 7 8 18 13 10 -12 -13 -14 14 -16 -17 -18 -19 -20 20 -22
leaf_value=0.27506720937472401 -0.68058166592792713 -0.50625968285992407 -0.030926746961194358 0.47932531545227181 0.26451725280461225 0.23573826011015314 -0.50789404948732531 -0.83047599768847002 -0.24509930379780154 0.3302846946776003 0.030861692581093805 0.093476520305142613 -0.10500850807555498 0.17659054321285605 -0.29653414783747722 0.037880923449337897 -0.014288738391057536 -0.2928413587995094 -0.3205543458263922 0.42764968396933561 0.38562789219753074
leaf_weight=8823.4759282048326 546.99149632221088 4862.7015854683705 4961.956082587596 13734.326466758968 7727.5197861194611 470.29672424634919 658.18100456893444 438.70481114648283 1378.3662520018406 1466.935530359624 26218.543741715373 7576.0738421883434 850.95930234272964 818.77853592275642 3574.3958080839366 5464.0802236341406 619.35095957200974 492.49390345509164 506.3794179414399 5633.577440971043 5647.5188989082817
leaf_count=16068 12941 1149555 13734 13255 13095 7523 15049 16064 11915 5632 233382 15771 11430 4779 46320 41468 13249 12153 15198 9349 9082
internal_value=0 -0.0144224 0.0230365 0.402097 0.128239 -0.025901 -0.013476 -0.295195 -0.00230785 0.0327135 0.0468375 0.180042 -0.33243 -0.0928512 -0.207669 -0.0186907 -0.27098 -0.0315341 -0.560557 0.446781 0.406886
internal_weight=0 68632.7 63770 33838.9 20265.5 43504.5 41596.6 1907.87 40198.6 28963 27685.5 15303.6 1397.95 11235.6 4393.17 6842.45 1277.53 962.791 945.084 25015.4 11281.1
internal_count=1687012 1639258 489703 47754 42600 447103 396165 50938 371794 267312 239014 28866 24371 104482 51099 53383 28298 19676 31262 31686 18431
is_linear=0
shrinkage=0.5


Tree=7
num_leaves=22
num_cat=0
split_feature=222 222 220 223 222 222 5 198 11 7 141 220 187 16 222 56 19 220 131 223 220
split_gain=8981.8 3142.18 1019.15 602.739 1131.08 844.488 1033.85 878.296 870.307 878.737 715.921 438.691 434.124 409.982 327.201 323.539 272.046 318.763 235.753 216.137 45.021
threshold=6.5000000000000009 102.50000000000001 1.9088555574417116 156.50000000000003 22.500000000000004 36.500000000000007 28.500000000000004 1.5000000000000002 2.5000000000000004 602.50000000000011 0.024939000606536869 1.9088555574417116 10.500000000000002 0.075525499880313887 14.500000000000002 0.037593500688672073 504.50000000000006 -2.3114992380142207 230.12500000000003 317.50000000000006 3.6258703470230107
decision_type=2 2 2 2 2 2 2 2 2 2 2 2 2 2 2 2 2 2 2 2 2
left_child=11 2 3 4 -2 14 8 15 9 -7 -9 -1 13 18 19 -8 17 -16 -6 -5 -13
right_child=1 -3 -4 5 12 6 7 10 -10 -11 -12 20 -14 -15 16 -17 -18 -19 -20 -21 -22
leaf_value=0.27835232349912148 -0.38192016942570595 -0.5035781711837376 0.20744997288618522 0.029930576047106087 -0.5919842975346935 -0.30414191468068941 -0.43287421073605908 -0.67030032688366059 0.59041238649507255 0.36013018868671492 0.044568733808404946 0.40254531433451762 0.33150286287715586 0.11166660376971585 0.15978527079097082 -0.05530133497106602 -0.098625588184138246 0.01636182735586161 -0.056131974452102627 0.17483495591901183 0.46915702820325905
leaf_weight=6307.076048291754 2775.5010998430662 2960.9887707477901 6720.1939978499431 4062.5205898790155 442.24986800714396 1178.8779356938321 3263.9057360055158 390.01582320069429 804.50896378920879 860.57323783671018 3385.5381805076031 5465.8437428988982 986.54079341050237 1236.1795203380752 4722.7259239060804 709.50203946582042 3946.4935502756853 21938.536557233892 408.20421190257184 7288.9304967636708 7387.6651652201544
leaf_count=14116 11634 1149555 15581 10980 9639 35814 128753 17802 3423 11917 90653 12297 13236 17539 17522 12596 15082 63803 9555 14784 10731
internal_value=0 0.000105423 0.023055 0.00178459 -0.150418 0.0187812 -0.107274 -0.202068 0.149954 -0.0223649 -0.0285145 0.387669 0.0576961 -0.0703389 0.0506766 -0.366215 0.023666 0.0418811 -0.338384 0.123241 0.441071
internal_weight=0 68082 65121 58400.8 5848.68 52552.1 10592.9 7748.96 2843.96 2039.45 3775.55 19160.6 3073.17 2086.63 41959.2 3973.41 30607.8 26661.3 850.454 11351.5 12853.5
internal_count=1687012 1649868 500313 484732 61603 423129 300958 249804 51154 47731 108455 37144 49969 36733 122171 141349 96407 81325 19194 25764 23028
is_linear=0
shrinkage=0.5


Tree=8
num_leaves=19
num_cat=0
split_feature=221 222 222 220 207 221 193 157 129 142 43 1 190 142 8 220 220 220
split_gain=5046.22 1815.53 615.825 441.082 436.964 375.013 372.235 281.984 496.426 494.986 490.786 324.492 319.639 270.951 188.343 283.229 136.889 108.751
threshold=0.81800684332847606 102.50000000000001 4.5000000000000009 2.224414706230164 3.5000000000000004 0.40291929244995123 1851.5000000000002 0.073876000940799727 0.054517958313226707 0.14086650311946872 0.016611999832093719 515.50000000000011 1.5000000000000002 0.17965800315141681 0.54619750380516063 -5.2197062969207755 -2.9227799177169795 3.0208947658538823
decision_type=2 2 2 2 2 2 2 2 2 2 2 2 2 2 2 2 2 2
left_child=1 3 17 4 5 6 -1 10 9 -9 12 -10 -7 -6 15 -8 -16 -2
right_child=2 -3 -4 -5 13 7 14 8 11 -11 -12 -13 -14 -15 16 -17 -18 -19
leaf_value=0.50042838736007067 0.33641062761904167 -0.50134591458630939 0.19334740141390996 0.17572185992358733 0.035376900019183553 0.11109397459538035 -0.45945250141981991 -0.29727359771919382 -0.061100360633328556 0.084273605809622787 0.26419289288176462 0.029839908190294299 -0.1410356302591026 0.41598237808608163 -0.60276269916918612 0.63685246747405577 0 0.45262351481524865
leaf_weight=127.66515131975757 3978.8608579881256 1801.887514302507 6120.7072908317205 3678.0193465945777 930.54440739681013 2712.4625515359803 143.99667454021983 2906.7688836341258 15504.644156514551 1185.9239874180639 2527.5664888030151 26683.287762116815 2340.6516770878225 979.35485050524585 664.57748395396629 99.330832446459681 114.12647871975787 4887.7653576964512
leaf_count=9816 11114 1149555 16593 11146 12443 15920 17848 30236 103428 7842 12681 180490 20717 7259 61416 4648 2611 11249
internal_value=0 -0.0067583 0.316294 0.00790019 -0.0028917 -0.0111069 -0.29369 -0.00501824 -0.0197128 -0.185982 0.0842956 -0.00351091 -0.0051022 0.232137 -0.395899 0 -0.515899 0.400821
internal_weight=0 62400.8 14987.3 60598.9 56920.9 55011 1149.7 53861.3 46280.6 4092.69 7580.68 42187.9 5053.11 1909.9 1022.03 243.328 778.704 8866.63
internal_count=1687012 1648056 38956 498501 487355 467653 96339 371314 321996 38078 49318 283918 36637 19702 86523 22496 64027 22363
is_linear=0
shrinkage=0.5


Tree=9
num_leaves=30
num_cat=0
split_feature=222 222 221 223 211 142 158 145 221 208 142 28 123 1 183 222 187 222 182 195 140 195 223 58 222 7 19 43 126
split_gain=2786.39 1119.79 460.284 339.227 309.279 518.287 583.228 410.622 494.139 370.819 358.702 499.887 352.469 346.891 343.978 365.789 335.144 437.233 656.348 300.935 729.021 417.2 261.066 247.751 244.181 216.804 210.734 192.24 89.9613
threshold=4.5000000000000009 102.50000000000001 0.77964812517166149 302.50000000000006 1.5000000000000002 0.08718499913811685 14.500000000000002 35.500000000000007 0.56423333287239086 10.500000000000002 0.16668400168418887 0.14147000014781955 1.3095238208770754 351.50000000000006 8.5000000000000018 28.500000000000004 15.500000000000002 24.500000000000004 0.13086649775505069 533586.50000000012 0.33768700063228613 547308.50000000012 333.50000000000006 0.078889500349760069 20.500000000000004 578.50000000000011 31.500000000000004 0.011698000133037569 0.31622250378131872
decision_type=2 2 2 2 2 2 2 2 2 2 2 2 2 2 2 2 2 2 2 2 2 2 2 2 2 2 2 2 2
left_child=22 2 4 -4 5 6 -2 8 23 -10 14 13 25 -12 15 -7 19 -18 -19 20 -9 -21 -1 28 -14 -8 -13 -16 -6
right_child=1 -3 3 -5 7 10 12 16 9 -11 11 26 24 -15 27 -17 17 18 -20 21 -22 -23 -24 -25 -26 -27 -28 -29 -30
leaf_value=0.19641527600261138 0.13528894330201632 -0.49917586027634375 -0.024105839857431123 0.1760216716871611 -0.76468904521777725 0.13252816003745813 -0.62319310732317468 0.012366872149843914 -0.24868332810870059 0.0021473604579624102 -0.2663152351733617 0.038212627399336126 0.08010234669392706 -0.0033239581482236154 0.15228523901539959 0.45563165392794919 0.0094859081096693512 -0.85542572473428435 -0.0056077716260985299 0.18720501037235104 -0.76282234970724139 -0.0057235212370892454 0.39962948501538365 -0.024132415073951925 -0.27267809040846586 -0.18146592232145556 0.25678179777227034 -0.071241907902477059 -0.41019886927801447
leaf_weight=2491.0696406558272 1578.9248118439573 1096.4742560010636 3100.0313857847359 6516.9278106570709 408.22148413659306 2148.1004374766489 725.70994497847278 1055.00531838194 2301.3737730829744 4030.4778447992867 1694.7325270837173 2310.8919947925024 932.26124409155454 4910.6294282668969 2160.6396524166921 1523.5275725735701 1088.3485484923003 486.39543592429254 439.69091664266307 3371.4028624910861 421.38403146603378 16439.328602269117 4705.0804457847844 268.90127544570714 1012.9419549453887 487.53761304513318 2176.8946704537375 1712.8253525802284 421.68133739061886
leaf_count=11913 10698 1149555 10798 17911 20784 4653 20667 30089 11766 15638 14826 12430 2104 36101 12010 19364 2757 16152 7984 36314 16208 125679 14620 3768 20853 6278 8907 13239 12946
internal_value=0 0.00171838 0.0103856 0.111199 -0.00747765 0.0357983 -0.111623 -0.0404919 -0.14286 -0.0885507 0.0734308 0.0159232 -0.236006 -0.0712596 0.157581 0.267433 -0.00771797 -0.20271 -0.455273 0.0105953 -0.206926 0.0269593 0.329708 -0.453014 -0.102071 -0.448219 0.144909 0.0526697 -0.588326
internal_weight=0 64821.3 63724.8 9616.96 54107.8 23375.6 4737.38 30732.2 7430.66 6331.85 18638.2 11093.1 3158.45 6605.36 7545.09 3671.63 23301.6 2014.43 926.086 21287.1 1476.39 19810.7 7196.15 1098.8 1945.2 1213.25 4487.79 3873.47 829.903
internal_count=1687012 1660479 510924 28709 482215 182130 60600 300085 64902 27404 121530 72264 49902 50927 49266 24017 235183 26893 24136 208290 46297 161993 26533 37498 22957 26945 21337 25249 33730
is_linear=0
shrinkage=0.5


end of trees

feature_importances:
Column_222=57
Column_220=32
Column_221=27
Column_223=11
Column_5=6
Column_7=5
Column_0=4
Column_8=4
Column_142=4
Column_168=4
Column_193=4
Column_19=3
Column_29=3
Column_43=3
Column_126=3
Column_131=3
Column_183=3
Column_187=3
Column_195=3
Column_201=3
Column_208=3
Column_215=3
Column_1=2
Column_28=2
Column_113=2
Column_114=2
Column_135=2
Column_140=2
Column_143=2
Column_145=2
Column_157=2
Column_170=2
Column_180=2
Column_182=2
Column_190=2
Column_198=2
Column_207=2
Column_2=1
Column_4=1
Column_10=1
Column_11=1
Column_16=1
Column_27=1
Column_30=1
Column_31=1
Column_33=1
Column_47=1
Column_55=1
Column_56=1
Column_57=1
Column_58=1
Column_122=1
Column_123=1
Column_125=1
Column_127=1
Column_129=1
Column_141=1
Column_148=1
Column_152=1
Column_155=1
Column_158=1
Column_166=1
Column_169=1
Column_172=1
Column_173=1
Column_179=1
Column_184=1
Column_189=1
Column_210=1
Column_211=1
Column_212=1

parameters:
[boosting: gbdt]
[objective: binary]
[metric: binary_logloss]
[tree_learner: serial]
[device_type: cpu]
[data: ]
[valid: ]
[num_iterations: 10]
[learning_rate: 0.5]
[num_leaves: 64]
[num_threads: 0]
[deterministic: 0]
[force_col_wise: 0]
[force_row_wise: 0]
[histogram_pool_size: -1]
[max_depth: 8]
[min_data_in_leaf: 9170]
[min_sum_hessian_in_leaf: 55.3]
[bagging_fraction: 1]
[pos_bagging_fraction: 1]
[neg_bagging_fraction: 1]
[bagging_freq: 0]
[bagging_seed: 3]
[feature_fraction: 1]
[feature_fraction_bynode: 1]
[feature_fraction_seed: 2]
[extra_trees: 0]
[extra_seed: 6]
[early_stopping_round: 5]
[first_metric_only: 0]
[max_delta_step: 0]
[lambda_l1: 6]
[lambda_l2: 0.2]
[linear_lambda: 0]
[min_gain_to_split: 2.4]
[drop_rate: 0.1]
[max_drop: 50]
[skip_drop: 0.5]
[xgboost_dart_mode: 0]
[uniform_drop: 0]
[drop_seed: 4]
[top_rate: 0.2]
[other_rate: 0.1]
[min_data_per_group: 100]
[max_cat_threshold: 32]
[cat_l2: 10]
[cat_smooth: 10]
[max_cat_to_onehot: 4]
[top_k: 20]
[monotone_constraints: ]
[monotone_constraints_method: basic]
[monotone_penalty: 0]
[feature_contri: ]
[forcedsplits_filename: ]
[refit_decay_rate: 0.9]
[cegb_tradeoff: 1]
[cegb_penalty_split: 0]
[cegb_penalty_feature_lazy: ]
[cegb_penalty_feature_coupled: ]
[path_smooth: 0]
[interaction_constraints: ]
[verbosity: -1]
[saved_feature_importance_type: 0]
[linear_tree: 0]
[max_bin: 255]
[max_bin_by_feature: ]
[min_data_in_bin: 3]
[bin_construct_sample_cnt: 200000]
[data_random_seed: 1]
[is_enable_sparse: 1]
[enable_bundle: 1]
[use_missing: 1]
[zero_as_missing: 0]
[feature_pre_filter: 0]
[pre_partition: 0]
[two_round: 0]
[header: 0]
[label_column: ]
[weight_column: ]
[group_column: ]
[ignore_column: ]
[categorical_feature: ]
[forcedbins_filename: ]
[precise_float_parser: 0]
[objective_seed: 5]
[num_class: 1]
[is_unbalance: 0]
[scale_pos_weight: 1]
[sigmoid: 1]
[boost_from_average: 1]
[reg_sqrt: 0]
[alpha: 0.9]
[fair_c: 1]
[poisson_max_delta_step: 0.7]
[tweedie_variance_power: 1.5]
[lambdarank_truncation_level: 30]
[lambdarank_norm: 1]
[label_gain: ]
[eval_at: 10]
[multi_error_top_k: 1]
[auc_mu_weights: ]
[num_machines: 1]
[local_listen_port: 12400]
[time_out: 120]
[machine_list_filename: ]
[machines: ]
[gpu_platform_id: -1]
[gpu_device_id: -1]
[gpu_use_dp: 0]
[num_gpu: 1]

end of parameters

pandas_categorical:null
