tree
version=v3
num_class=1
num_tree_per_iteration=1
label_index=0
max_feature_idx=223
objective=binary sigmoid:1
feature_names=Column_0 Column_1 Column_2 Column_3 Column_4 Column_5 Column_6 Column_7 Column_8 Column_9 Column_10 Column_11 Column_12 Column_13 Column_14 Column_15 Column_16 Column_17 Column_18 Column_19 Column_20 Column_21 Column_22 Column_23 Column_24 Column_25 Column_26 Column_27 Column_28 Column_29 Column_30 Column_31 Column_32 Column_33 Column_34 Column_35 Column_36 Column_37 Column_38 Column_39 Column_40 Column_41 Column_42 Column_43 Column_44 Column_45 Column_46 Column_47 Column_48 Column_49 Column_50 Column_51 Column_52 Column_53 Column_54 Column_55 Column_56 Column_57 Column_58 Column_59 Column_60 Column_61 Column_62 Column_63 Column_64 Column_65 Column_66 Column_67 Column_68 Column_69 Column_70 Column_71 Column_72 Column_73 Column_74 Column_75 Column_76 Column_77 Column_78 Column_79 Column_80 Column_81 Column_82 Column_83 Column_84 Column_85 Column_86 Column_87 Column_88 Column_89 Column_90 Column_91 Column_92 Column_93 Column_94 Column_95 Column_96 Column_97 Column_98 Column_99 Column_100 Column_101 Column_102 Column_103 Column_104 Column_105 Column_106 Column_107 Column_108 Column_109 Column_110 Column_111 Column_112 Column_113 Column_114 Column_115 Column_116 Column_117 Column_118 Column_119 Column_120 Column_121 Column_122 Column_123 Column_124 Column_125 Column_126 Column_127 Column_128 Column_129 Column_130 Column_131 Column_132 Column_133 Column_134 Column_135 Column_136 Column_137 Column_138 Column_139 Column_140 Column_141 Column_142 Column_143 Column_144 Column_145 Column_146 Column_147 Column_148 Column_149 Column_150 Column_151 Column_152 Column_153 Column_154 Column_155 Column_156 Column_157 Column_158 Column_159 Column_160 Column_161 Column_162 Column_163 Column_164 Column_165 Column_166 Column_167 Column_168 Column_169 Column_170 Column_171 Column_172 Column_173 Column_174 Column_175 Column_176 Column_177 Column_178 Column_179 Column_180 Column_181 Column_182 Column_183 Column_184 Column_185 Column_186 Column_187 Column_188 Column_189 Column_190 Column_191 Column_192 Column_193 Column_194 Column_195 Column_196 Column_197 Column_198 Column_199 Column_200 Column_201 Column_202 Column_203 Column_204 Column_205 Column_206 Column_207 Column_208 Column_209 Column_210 Column_211 Column_212 Column_213 Column_214 Column_215 Column_216 Column_217 Column_218 Column_219 Column_220 Column_221 Column_222 Column_223
feature_infos=[1:3.4028234663852886e+38] [0:271267] [0:2] [0:177949] [0:141] [0:29690] [0:9] [508:861] [0.50031602382659912:0.87444800138473511] [1:223] [1:9] [0:8] [0:58214] [0:9] [0:510.96185302734375] [0:0.44487801194190979] [0:0.44487801194190979] [0:0.44487801194190979] [0:751811] [0:751811] [0:1] [0:3] [0:16] [0:1] [0:1] [0:7] [0:54] [0:7] [0:3.6723120212554932] [0:0.40233799815177917] [0:0.40233799815177917] [0:0.40233799815177917] [0:920] [0:920] [0:1] [0:3] [0:16] [0:1] [0:1] [0:6] [0:13] [0:6] [0:0.79615402221679688] [0:0.40233799815177917] [0:0.40233799815177917] [0:0.40233799815177917] [0:86] [0:86] none [0:3] [0:16] [0:1] [0:1] [0:6] [0:8] [0:6] [0:0.57813602685928345] [0:0.40233799815177917] [0:0.40233799815177917] [0:0.40233799815177917] [0:17] [0:17] [0:1] [0:2] [0:16] [0:1] [0:1] [0:4] [0:80] [0:4] [0:11.898479461669922] [0:0.35846701264381409] [0:0.35846701264381409] [0:0.35846701264381409] [0:682] [0:682] [0:1] [0:2] [0:16] [0:1] [0:1] none none none none none none none none none none none [16:16] none none [0:4] [0:4] [0:4] [0:0.37730899453163147] [0:0.36747300624847412] [0:0.36747300624847412] [0:0.36747300624847412] [0:37] [0:37] [0:1] [0:2] [0:16] [0:1] [0:1] [0:7] [0:131] [0:7] [0:8.9034099578857422] [0:0.38528299331665039] [0:0.38528299331665039] [0:0.38528299331665039] [0:4031] [0:4031] [0:1] [0:3] [0:16] [0:1] [0:1] [1:7] [1:19405.333984375] [1:9] [0.0065135997720062733:172.79824829101562] [0.00035099999513477087:0.44487801194190979] [0.004081999883055687:0.44487801194190979] [0.0057274000719189644:0.44487801194190979] [1:751811] [1:751811] [0:1] [1:3] [0:16] [0:1] [0.30000001192092896:1] [1:24] [1:58216] [1:24] [0.018439000472426414:511.20938110351562] [0.00076800002716481686:2.3295578956604004] [0.0093040000647306442:2.3295578956604004] [0.018439000472426414:2.3295578956604004] [1:751811] [1:751811] [0:2] [1:12] [0:112] [0:7] [1:7] [1:8] [1:58214] [1:9] [0.014701999723911285:510.96185302734375] [0.00076800002716481686:0.44487801194190979] [0.0093040000647306442:0.44487801194190979] [0.014701999723911285:0.44487801194190979] [1:751811] [1:751811] [0:1] [1:3] [0:16] [0:1] [0.3333333432674408:1] [1:7] [1:14753] [1:9] [0.00076800002716481686:172.79824829101562] [3.600000127335079e-05:0.44487801194190979] [0.00076800002716481686:0.44487801194190979] [0.00076800002716481686:0.44487801194190979] [1:751811] [0:751811] [0:1] [1:3] [0:16] [0:1] [0.1111111119389534:1] [1:19405.333984375] [0.0054867500439286232:0.44487801194190979] [1:58216] [0.018439000472426414:0.44487801194190979] [1:57495] [1:2261] [0.0093040000647306442:0.44487801194190979] [3.600000127335079e-05:0.44487801194190979] [0:244] [0:7] [3:188] [1:18] [0:3] [0:20] [1:3.4028234663852886e+38] [0:608] [500146:878952] [0:1] none [0:18] [2:29] [0:2] [0:316] none [0:1] none none [2:7] [0:60] [0:5560] [0:2767] [0:29688] [0:24039] [0:100] [0:1] [0:1] [0:100] [0:1] [0:1] none [0:159] [-10.044095993041992:7.8806352615356445] [0:1] [0:437] [6:439]
tree_sizes=5165 6016 5915 4598 5377 5075 4507 4711 5269 2535

Tree=0
num_leaves=47
num_cat=0
split_feature=221 222 222 221 221 222 222 221 3 222 22 221 17 9 137 220 221 139 145 222 223 123 222 184 8 211 222 179 221 148 221 220 221 19 18 222 195 222 222 124 220 136 42 220 221 222
split_gain=5.53298e+06 197389 186480 35100.8 27809.3 27744.4 20944 14164.3 11521.6 11006.8 11479.1 7845.41 7211.44 6451.82 6210.57 5684.81 4687.36 3648.54 3602.3 3486.63 3291.9 3287.71 3120.44 4123.24 2274.48 2184.3 2048.36 1992.52 1837.48 1566.37 1499.57 3588.11 1255.16 1052.73 2552.07 580.843 537.316 514.317 481.887 419.434 416.641 358.898 352.429 205.877 60.8941 21.6827
threshold=0.50457534193992626 30.500000000000004 74.500000000000014 0.33438426256179815 0.58830016851425182 24.500000000000004 16.500000000000004 0.44964528083801275 31.500000000000004 68.500000000000014 13.500000000000002 0.42587602138519293 0.079243000596761717 129.50000000000003 1.5000000000000002 -3.941174983978271 0.65064710378646862 2.5000000000000004 473.50000000000006 58.500000000000007 190.50000000000003 1.1547619104385378 38.500000000000007 2.5000000000000004 0.62144950032234203 37.500000000000007 10.500000000000002 4.0714285373687753 0.63472813367843639 23.500000000000004 0.25920681655406957 -6.3660218715667716 0.58260565996170055 16.500000000000004 8.5000000000000018 44.500000000000007 515927.50000000006 20.500000000000004 22.500000000000004 4.3666667938232431 1.0000000180025095e-35 0.44722221791744238 0.022491499781608585 0.91879668831825267 0.81557425856590282 4.5000000000000009
decision_type=2 2 2 2 2 2 2 2 2 2 2 2 2 2 2 2 2 2 2 2 2 2 2 2 2 2 2 2 2 2 2 2 2 2 2 2 2 2 2 2 2 2 2 2 2 2
left_child=2 6 5 30 9 -1 26 12 11 17 21 25 -7 27 -13 35 32 -3 -10 28 -17 -11 -19 -24 29 33 43 -9 -6 -16 41 -32 -8 34 -5 -14 -35 -18 -34 -37 -28 -4 -30 44 -2 -45
right_child=1 4 3 8 19 7 16 13 18 10 -12 14 15 -15 24 20 37 22 -20 -21 -22 -23 23 -25 -26 -27 40 -29 42 -31 31 -33 38 36 -36 39 -38 -39 -40 -41 -42 -43 -44 45 -46 -47
leaf_value=1.8910162594480657 2.471017234753885 1.7145173131185056 -0.59922920479829767 -0.84570605680165567 1.7417673686323567 0.75325748295261197 1.928723754051616 1.2327282003639704 0.58860654577807603 0.47793936482899912 1.1428054159483392 0.58351381138689495 -0.15110927071432467 0.072995631157672491 -0.84531760718327709 0.75200727702310299 2.3672792018934938 1.564332237501997 -0.37999024467487308 1.4905052559913767 -0.17084471306814031 -0.59637696883281555 1.3164046681168529 0.61025234575673748 0.28900055744921938 -0.14291394464137852 2.3892653675294513 0.70926420679648117 2.1064502389700346 -0.31724958218633992 -0.1396960698861105 -0.99098060081745309 2.2195825943004501 -0.37098740734378888 0.087441630986238028 -0.443853702308175 -0.93793538603351623 2.267931738615331 2.0650529448297767 -0.95558158771635027 2.4505669761851867 -1.1204000699717143 1.9530542647678171 2.5025812144352382 2.4911912053666336 2.4948936873337852
leaf_weight=1681.6202719248831 45639.588601619005 2422.6774524264038 511.05924326553941 1243.1407731100917 4188.5828495398164 1235.8360391072929 4896.6396836228669 2297.9433356150985 1531.6249079108238 728.42539057508111 2246.1832929812372 974.19597285613418 574.33350784704089 1178.031773943454 1475.7112365625799 907.74515528231859 13672.848604373634 2083.079658024013 746.94534953311086 2786.1193185821176 1167.969270542264 819.81913942843676 2645.9100713171065 1700.0926258675754 583.71747705712914 777.8456765525043 20920.710971310735 1579.5280441716313 3834.7474118731916 2421.8623082414269 763.33833998441696 11978.859124172479 5131.2064245566726 489.65300420671701 656.68773432075977 957.62193834409118 7086.3512652739882 12359.474825609475 4737.68781561777 936.27022839337587 43273.121779110283 34486.851457569748 3556.3231723681092 320599.89937390387 52094.129938367754 123853.92146481201
leaf_count=5772 12458 10745 8947 23368 17938 12154 15848 16305 16491 8322 17132 10513 8426 16006 27720 8684 11173 10979 12159 15853 17486 14305 17549 18032 7268 11589 14775 15853 8639 38203 11394 233335 8364 7967 8956 15541 135982 16854 11789 17880 15810 695862 11063 20879 8246 16398
internal_value=2.1117 2.43505 -0.674113 -0.910007 1.50821 0.565879 2.47374 0.360702 -0.488987 1.1298 0.630371 -0.596902 -0.0151731 0.793468 -0.244732 -0.221012 2.23091 1.34523 0.262685 1.84182 0.225091 -0.103094 1.20702 1.0375 -0.421336 -0.782114 2.49007 1.01657 1.92687 -0.523302 -1.06814 -0.941571 2.0735 -0.832446 -0.533952 -0.588131 -0.90419 2.32024 2.14524 -0.709628 2.43065 -1.11346 2.0323 2.4971 2.48182 2.50045
internal_weight=0 674191 78244.7 65727.8 27012 12516.9 647179 10835.3 17987.7 12646.2 3794.43 15709.2 5779.78 5055.5 5455.49 4543.94 40797.9 8851.76 2278.57 14365.8 2075.71 1548.24 6429.08 4346 4481.29 10253.7 606381 3877.47 11579.7 3897.57 47740.1 12742.2 14765.5 9475.83 1899.83 2468.23 7576 26032.3 9868.89 1893.89 64193.8 34997.9 7391.07 542188 97733.7 444454
internal_count=1687012 303151 1383861 1249754 150557 134107 152594 128335 300216 97064 39759 271566 80171 48164 83704 68017 64028 57305 28650 53493 26170 22627 46560 35581 73191 187862 88566 32158 37640 65923 949538 244729 36001 176273 32324 41847 143949 28027 20153 33421 30585 704809 19702 57981 20704 37277
shrinkage=1


Tree=1
num_leaves=54
num_cat=0
split_feature=222 222 222 221 221 59 208 221 195 153 223 222 223 18 208 176 198 221 223 220 145 1 189 210 221 171 33 16 190 223 18 190 208 221 222 220 222 220 126 184 140 223 220 0 158 5 221 221 3 223 220 144 5
split_gain=552729 16624.2 15623.1 5064.06 3397.68 3021.86 2195.76 2094.43 1883.82 2997.95 1840.26 1501.92 1199.42 1082.9 1040.05 1391.88 882.502 1141.25 869.294 884.486 737.649 710.614 705.812 698.118 1308.87 1028.7 1843.55 1755.5 1722.3 506.539 504.535 627.627 509.751 471.783 351.014 336.669 316.105 268.589 188.462 182.885 350.878 163.032 116.256 108.818 98.3493 44.4653 191.304 33.4278 99.4229 30.442 21.9672 20.8625 8.30234
threshold=26.500000000000004 130.50000000000003 14.500000000000002 0.56651413440704357 0.66825550794601452 0.073222998529672637 2.5000000000000004 0.32823070883750921 543733.50000000012 2.5000000000000004 232.50000000000003 8.5000000000000018 211.50000000000003 3.5000000000000004 11.500000000000002 1.5000000000000002 2.5000000000000004 0.62051582336425792 425.50000000000006 -1.9257093071937559 331.50000000000006 606.50000000000011 9.5000000000000018 59.500000000000007 0.23822265118360522 0.058464000001549728 4.5000000000000009 0.054515000432729728 1.5000000000000002 375.50000000000006 313.50000000000006 1.5000000000000002 22.500000000000004 0.42587602138519293 158.50000000000003 -0.57902619242668141 18.500000000000004 -4.4647815227508536 0.10541075095534326 1.5000000000000002 0.26890400052070623 163.50000000000003 1.3276799321174624 671856.50000000012 5.5000000000000009 210.50000000000003 0.28677923977375036 0.25920681655406957 53.500000000000007 309.50000000000006 -3.8181171417236324 107.50000000000001 76.500000000000014
decision_type=2 2 2 2 2 2 2 2 2 2 2 2 2 2 2 2 2 2 2 2 2 2 2 2 2 2 2 2 2 2 2 2 2 2 2 2 2 2 2 2 2 2 2 2 2 2 2 2 2 2 2 2 2
left_child=2 3 11 5 10 6 18 37 9 -9 -4 42 -5 -10 16 -16 17 -14 19 22 21 -20 -2 33 41 26 27 28 -26 -13 39 32 -32 44 -33 -12 -6 38 -8 40 -27 -25 49 -35 -3 47 -47 -46 -49 -1 -41 -28 -43
right_child=1 23 4 12 36 -7 7 8 13 -11 35 29 14 -15 15 -17 -18 -19 20 -21 -22 -23 -24 24 25 30 51 -29 -30 -31 31 34 -34 43 -36 -37 -38 -39 -40 50 -42 52 -44 -45 45 46 -48 48 -50 -51 -52 -53 -54
leaf_value=0.35043102941202658 -0.51526602060590276 -0.36951803424831053 -0.15860384452097584 -0.29582256443348248 0.260749641000045 -0.01159899579473956 -0.30407515817497882 -0.010274908172727115 -0.5109407330522705 -0.31273983166737773 0.039499675851815547 0.26733394566524232 -0.38160732535770886 -0.27180119420950588 -0.15178842435420667 0.089069025354277062 -0.018667128614475195 -0.11229273128536232 -0.57646085412487857 -0.090800133904889432 -0.71232231501605692 -0.31767740966105062 -0.3238323100574827 -0.3016799023616889 -0.04264327406220679 -0.4970493024904028 -0.52532578218721926 0.10945981164282675 -0.45813153017953878 0.33450525110711971 -0.060824923062818906 -0.25711270117088536 -0.3710240064782459 -0.72017358199572501 -0.49390994027748691 0.14840287932471319 0.18264457775609094 -0.25994801273727824 -0.47841493053423179 -0.50161030368736426 -0.28075179090135505 -0.40960107401930207 0.37544330499683432 -0.54749591284545451 -0.4636451743912971 -0.46727063990622114 -0.28070759962953856 -0.48418669591030877 -0.60596941706153984 0.36756036677602888 -0.59185790697552398 -0.4281437548945094 -0.46521927187313239
leaf_weight=40250.045118778944 3537.6867650225759 1540.0340866595507 4640.3678282536566 3853.7172218151391 15074.564806941897 4499.1987154968083 1000.5960085615516 9112.8002467341721 2602.6116869524121 7186.0575605742633 6859.998613409698 19995.058862604201 3326.4358153454959 23602.781359713525 5082.418958183378 6942.2690506093204 3752.8100956380367 4656.0834467671812 2551.8781539797783 1439.0038107521832 1675.2647932581604 2835.0760050863028 7711.9685846157372 909.5338843613863 2170.2793062627316 2655.1226766481996 2041.2979103624821 1988.6057166010141 2825.8869103640318 48732.159589745104 1418.1065937578678 1137.0678247958422 1221.3096932321787 1142.0512387380004 2888.7646787315607 7182.5803425721824 11571.632751390338 1079.2821400016546 6238.8376000076532 2653.2014282420278 1545.4249566867948 1480.3989064022899 281835.74325687811 1380.8167935013771 18215.590291492641 3773.5532529130578 944.49930341541767 13103.526546262205 1162.2615518048406 42539.05864007771 1229.5446622148156 983.9707192927599 35265.848243698478
leaf_count=12740 27613 14084 14602 15170 11238 15381 8269 36245 17695 42036 13946 15265 15763 128873 16692 12928 9352 13502 19235 4942 15030 16555 50629 8508 13916 25419 19448 9960 25051 16554 9373 8806 10705 9980 28419 10054 13742 8197 59423 25925 12033 15129 28717 10798 191159 39297 7540 123904 10813 6297 11285 9068 369707
internal_value=0 -0.342887 0.342342 -0.242998 0.146734 -0.290152 -0.307882 -0.2692 -0.237587 -0.143829 0.032162 0.362796 -0.114687 -0.29577 -0.0851415 -0.0126151 -0.159242 -0.225018 -0.407175 -0.351429 -0.506564 -0.441277 -0.384518 -0.441778 -0.417947 -0.354803 -0.267271 -0.167692 -0.278368 0.315023 -0.413912 -0.340682 -0.205735 -0.477694 -0.428122 0.0953844 0.226964 -0.430127 -0.454932 -0.473673 -0.418589 -0.459332 0.371788 -0.628412 -0.467704 -0.47164 -0.430846 -0.477402 -0.49457 0.359289 -0.531815 -0.49553 -0.463118
internal_weight=0 206363 478681 102687 45329.1 75073 70573.8 50823 42504.3 16298.9 18682.9 433352 27613.7 26205.4 23760 12024.7 11735.3 7982.52 19750.9 12688.7 7062.22 5386.95 11249.7 103677 62414.4 24758.6 10010 6984.77 4996.17 68727.2 14748.5 6665.25 2639.42 41262.3 4025.83 14042.6 26646.2 8318.72 7239.43 8083.29 4200.55 37655.8 364625 2522.87 38739.5 37199.4 4718.05 32481.4 14265.8 82789.1 3882.75 3025.27 36746.2
internal_count=1687012 1543857 143155 533530 63582 450123 434742 300738 224849 78281 38602 79573 83407 146568 68237 29620 38617 29265 134004 83184 50820 35790 78242 1010327 602752 209408 77443 48927 38967 31819 131965 57303 20078 407575 37225 24000 24980 75889 67692 74662 37452 393344 47754 20778 386797 372713 46837 325876 134717 19037 37210 28516 384836
shrinkage=0.35


Tree=2
num_leaves=53
num_cat=0
split_feature=222 221 222 222 222 208 220 193 153 187 211 183 6 223 221 176 223 221 221 220 6 19 168 0 4 0 222 16 187 138 1 221 222 201 113 193 0 57 136 7 210 187 220 143 154 220 154 8 172 223 16 156
split_gain=336596 23698.5 10221.4 4402.21 2309.22 2218.69 1914.71 1622 2103.66 1517.36 1472.82 1423.28 1403.29 2169.97 1497.94 1158.77 1121.55 1096.55 1068.49 1815.29 1537.43 1415.44 1010.92 941.607 933.371 925.727 919.744 907.529 742.878 636.054 590.646 586.776 567.221 666.051 498.602 1685.43 444.366 438.641 407.604 369.869 365.813 268.023 231.715 182.802 486.682 177.957 124.84 116.99 123.116 104.26 103.327 6.06462
threshold=22.500000000000004 0.40955607593059545 12.500000000000002 40.500000000000007 160.50000000000003 11.500000000000002 -1.4089563488960264 35156.500000000007 2.5000000000000004 8.5000000000000018 5.5000000000000009 50.500000000000007 1.5000000000000002 403.50000000000006 0.46919476985931402 3.5000000000000004 100.50000000000001 0.67724689841270458 0.31437873840332037 -5.6789424419403067 1.0000000180025095e-35 11.500000000000002 0.13226500153541568 128978.50000000001 52.500000000000007 22827.500000000004 8.5000000000000018 0.050319500267505653 7.5000000000000009 33.500000000000007 613.50000000000011 0.67724689841270458 64.500000000000014 244.50000000000003 0.019204000011086467 4616.5000000000009 106793.50000000001 0.024773499928414825 0.43874999880790716 634.50000000000011 15.500000000000002 7.5000000000000009 0.91879668831825267 0.056010499596595771 0.13528300076723102 1.1030156612396242 0.10855150222778322 0.61693900823593151 3483.5000000000005 419.50000000000006 0.056709000840783126 0.082306500524282469
decision_type=2 2 2 2 2 2 2 2 2 2 2 2 2 2 2 2 2 2 2 2 2 2 2 2 2 2 2 2 2 2 2 2 2 2 2 2 2 2 2 2 2 2 2 2 2 2 2 2 2 2 2 2
left_child=2 4 26 17 16 11 -4 9 15 32 -11 12 13 27 -14 22 -2 24 39 -20 37 -22 -9 -12 -3 -15 45 -5 -16 36 -10 -8 -7 -34 38 -36 -26 -21 -6 46 -38 -37 -28 44 -40 -1 -18 48 -45 -33 -48 -43
right_child=1 3 6 5 34 7 31 8 30 10 23 -13 14 25 28 -17 18 -19 19 20 21 -23 -24 -25 29 -27 42 -29 -30 -31 -32 49 33 -35 35 41 40 -39 43 -41 -42 51 -44 47 -46 -47 50 -49 -50 -51 -52 -53
leaf_value=0.34061895507934298 -0.01450423992677553 -0.19893895055292335 0.009422257782974567 -0.32898679029099714 -0.14869821545925521 -0.064057937402211412 0.13325331619592048 -0.3982037266586424 -0.28549672102292245 -0.39969643220053924 -0.19911069549483185 -0.53694493974007018 -0.35057857786904906 -0.17190733653129034 0.06991022494680478 0.076897431551290404 -0.25149864373197089 0.093303303324226705 0.10202276543467532 -0.39411729732382644 0.1330634374247259 -0.23840791429309191 -0.083125164047992056 0.068460218148449825 -0.090683417279351364 -0.4516315257523415 0.27352035394560131 -0.089362707555429147 -0.15596506466140742 -0.14838958978600728 -0.60359221718342826 0.20797667975754897 -0.004800029556279911 0.22017465471871556 0.11785407021348296 -0.20772564983875158 -0.04636606249239475 -0.14179704832178935 -0.43698779016139438 -0.16213804217379776 0.077352178728479867 -0.44161114478749619 0.32809235243543539 -0.42536152327857918 -0.081443747364866537 0.36483433842387875 -0.45157057185167726 -0.29548665651657308 -0.36102429783972551 0.25610215725181407 -0.37732806899934779 -0.36290051937626827
leaf_weight=51063.273850429803 1735.0629587545991 4443.7095946893096 7602.9270917139947 2731.2331303022802 753.2928257137537 3397.003106649965 10353.782861340791 2105.071451228112 1353.6474651545286 2161.0743580497801 3216.8937475942075 1876.6955132447183 2409.891626752913 1840.7048368677497 3944.8909733407199 2527.9169586114585 791.15046252310276 8258.0865938663483 1605.7078088447452 9871.035677857697 1510.2158484496176 7188.1266517676413 3105.3050059489906 3200.2184890024364 4405.2554418891668 7510.511483579874 18738.954725610092 6756.2813029885292 3235.3428596183658 4025.368579801172 1654.1578165590763 11529.491243869066 3070.6384712792933 3349.2295666486025 972.05718856304884 901.03924390673637 4298.8136162050068 961.21579714119434 1279.9969120919704 922.71709263324738 9055.7053015567362 3056.1289632171392 22118.741822643206 50848.806976407766 773.05531190335751 212663.60192714632 4574.86572605744 1128.0384586751461 4753.1424497365952 12798.017723042518 7218.5286960229278 747.06252738088369
leaf_count=16799 9546 16687 16398 15985 6335 10641 15144 14280 7327 13441 15838 14029 16679 9320 10225 8140 8227 14073 9673 98395 6339 53254 13448 10287 13019 56569 12872 27766 13905 13298 13329 11925 12352 9442 6838 9550 11837 6283 16647 9012 19357 38589 8344 670418 7846 30955 55797 13620 61821 9531 86666 8914
internal_value=0 -0.244093 0.330139 -0.117329 -0.361265 -0.175037 0.168757 -0.105927 -0.213953 -0.0426551 -0.150177 -0.241387 -0.221666 -0.27721 -0.112226 -0.116859 -0.290283 -0.0177851 -0.304036 -0.254437 -0.283866 -0.173641 -0.211186 -0.0654705 -0.0528482 -0.396959 0.352532 -0.158756 -0.0316741 -0.0229032 -0.462176 0.203624 0.0511601 0.112414 -0.400793 -0.299477 0.00549074 -0.372016 -0.410381 -0.381318 0.0373872 -0.386152 0.303166 -0.413683 -0.30483 0.360163 -0.397131 -0.417546 -0.419947 0.233445 -0.406569 -0.427422
internal_weight=0 195525 346869 93933.6 101591 59446.7 42284.2 29141.2 10746.1 18395.1 8578.19 30305.6 28428.9 18838.7 9590.13 7738.29 36378.6 34486.9 34643.6 21136.3 19530.6 8698.34 5210.38 6417.11 26228.9 9351.22 304585 9487.51 7180.23 21785.1 3007.81 34681.3 9816.87 6419.87 65212.6 5676.29 17759.8 10832.3 59536.3 13507.3 13354.5 4704.23 40857.7 58783 2053.05 263727 12584.5 56730 55601.9 24327.5 11793.4 3803.19
internal_count=1687012 1565044 121968 381274 1183770 293003 52998 128525 56524 72001 39566 164478 150449 109640 40809 35868 343192 88271 333646 173944 164271 59593 27728 26125 74198 65889 68970 43751 24130 57511 20656 36600 32435 21794 840578 63891 44213 104678 776687 159702 31194 57053 21216 770352 24493 47754 150690 745859 732239 21456 142463 47503
shrinkage=0.35


Tree=3
num_leaves=41
num_cat=0
split_feature=222 221 222 222 221 210 170 223 223 222 220 220 221 0 171 194 190 144 129 117 17 220 29 28 220 130 220 0 208 201 221 136 0 221 223 220 223 222 222 0
split_gain=210930 23819 5968.42 3050.42 2958.59 2517.74 2059.39 1363.73 1334.73 1243.68 1245.37 1425.91 1039.91 1025.71 1716.16 1011.07 934.477 1378.7 1082 647.074 623.065 1090.48 550.221 1163.49 550.172 494.223 481.916 478.017 458.052 447.654 395.161 389.146 233.777 171.771 165.849 142.104 486.546 99.1942 5.35682 3.22235
threshold=18.500000000000004 0.40955607593059545 10.500000000000002 40.500000000000007 0.25920681655406957 1110.5000000000002 0.0080450000241398829 272.50000000000006 155.50000000000003 148.50000000000003 -3.8486778736114498 -3.5460399389266963 0.67724689841270458 559371.50000000012 0.042623499408364303 1.0000000180025095e-35 1.5000000000000002 2356.5000000000005 0.037515167146921165 9.5000000000000018 0.08759199827909471 -2.7013458013534541 0.02148350048810244 0.031391499564051635 0.73170393705368053 46.708333969116218 -4.3484094142913809 106793.50000000001 11.500000000000002 237.50000000000003 0.70716342329978954 0.43874999880790716 438217.50000000006 0.81557425856590282 401.50000000000006 -5.3501110076904288 241.50000000000003 4.5000000000000009 74.500000000000014 14347.000000000002
decision_type=2 2 2 2 2 2 2 2 2 2 2 2 2 2 2 2 2 2 2 2 2 2 2 2 2 2 2 2 2 2 2 2 2 2 2 2 2 2 2 2
left_child=2 4 24 12 26 8 -5 -4 -6 10 13 -12 19 -8 -15 -13 17 18 -10 20 28 -22 29 -24 33 32 31 -23 -3 -18 -9 -2 -11 -1 -14 38 -37 -26 -33 -40
right_child=1 3 7 6 5 -7 9 30 16 25 11 15 34 14 -16 -17 22 -19 -20 -21 21 27 23 -25 37 -27 -28 -29 -30 -31 -32 35 -34 -35 -36 36 -38 -39 39 -41
leaf_value=0.27854830292500532 -0.13095350821566515 -0.012141771449635857 0.077536356971512441 -0.44811862551787468 -0.023929972995401692 0.29274377958605063 0.15848235257546139 0.1786970667150998 0 -0.55172527154279194 -0.36780548754335562 -0.11506747178953572 0.046669963089650164 0.17241593886374654 -0.33719802190435222 0.04205830837264269 -0.42051261900374592 0.2162692160872047 -0.27585077480970654 -0.16411441671543464 -0.21844770100990402 -0.10542269750505481 0.06977530887004664 -0.30811476051094855 0.35951805871061315 -0.13219902247367132 -0.044607036221808817 0.030086731218935084 0.14197402160329464 -0.29875913474694432 0.26404061953373337 -0.46610134075227316 -0.3000377659643646 0.33026450812877856 0.12803683468469537 -0.046902808786410635 -0.39727606214391159 0.33949215896136636 -0.35454286839158422 -0.39661143826003237
leaf_weight=17221.557266460732 754.48325961455703 4636.8102473802865 9223.4219483099878 2164.0801220759749 2732.056811966002 1022.8717718198895 4214.7828356958926 10867.262395955622 2037.8781412281096 929.4614343047142 2471.5078563429415 38633.379930991679 5622.4342088717967 1486.1645136401057 1753.2418419420719 5742.6718256287277 7848.8064383231103 862.3449366427958 12330.154885593802 3675.5536358915269 3571.1414582543075 4307.1257173791528 1211.4847340062261 5402.9207395687699 123215.35712246969 1197.9659115672112 529.60246144607663 12195.056950006634 4764.0399399101734 7572.7780458517373 18292.369455615059 659.80637427419424 1055.9923934713006 16998.162462161854 7037.5403821878135 678.87761434912682 1836.2669863514602 50860.763222608715 1823.9351211190224 33922.898511279374
leaf_count=12013 6898 11798 16643 16565 18353 4105 14940 12880 15977 10000 16892 176492 10924 6938 13430 17237 108272 6506 141611 12851 14519 12920 10395 68103 21687 9901 5021 27536 7934 96391 12888 7274 10608 6930 10346 8131 33279 17734 32838 621252
internal_value=0 -0.170871 0.322224 -0.0611223 -0.313318 -0.246966 -0.113284 0.195223 -0.260869 -0.100587 -0.0880448 -0.109197 0.00676613 0.0446206 -0.10299 -0.094689 -0.278181 -0.210953 -0.236827 -0.0257814 -0.00842909 -0.0433048 -0.324471 -0.238625 0.34561 -0.313192 -0.380908 -0.0052054 0.0658199 -0.361029 0.232355 -0.385342 -0.420516 0.304362 0.0920969 -0.390198 -0.303875 0.353693 -0.396044 -0.394596
internal_weight=0 186686 246679 105459 81227.2 41021.3 59649.2 38383.1 39998.4 57485.2 54301.7 46847.6 45809.7 7454.19 3239.41 44376.1 37266.4 15230.4 14368 33149.7 29474.2 20073.3 22036 6614.41 208296 3183.42 40205.9 16502.2 9400.85 15421.6 29159.6 39676.3 1985.45 34219.7 12660 38921.8 2515.14 174076 36406.6 35746.8
internal_count=1687012 1586237 100775 401831 1184406 469713 293003 42411 465608 276438 245929 210621 108828 35308 20368 193729 447255 164094 157588 87558 74707 54975 283161 78498 58364 30509 714693 40456 19732 204663 25768 709672 20608 18943 21270 702774 41410 39421 661364 654090
shrinkage=0.35


Tree=4
num_leaves=48
num_cat=0
split_feature=222 222 222 221 221 220 210 140 221 223 154 19 195 223 156 180 31 125 182 127 222 16 5 223 222 207 199 32 7 143 130 126 222 193 112 220 222 210 4 145 223 221 1 189 0 5 222
split_gain=135558 19467.5 4363.81 3165.58 1824.73 1477.15 1396.92 1446.53 1283.77 1252.82 1164.07 1037.72 1001.7 1187.53 977.202 1101.11 911.771 1027.41 906.521 836.497 831.816 843.609 743.63 682.569 662.976 632.08 621.484 1629.01 966.408 575.115 443.316 428.355 420.342 415.37 1834.26 335.463 208.084 269.259 194.859 137.189 116.593 91.1211 93.6195 43.4295 41.9125 29.7375 22.8132
threshold=16.500000000000004 130.50000000000003 8.5000000000000018 0.47935406863689428 0.30423779785633093 -5.758150339126586 50.500000000000007 1.2756490111351015 0.64230337738990795 253.50000000000003 0.78551900386810314 1037.5000000000002 546956.50000000012 400.50000000000006 0.038306999951601035 0.024564916267991069 0.046653000637888915 2.1833333969116215 0.089959997683763518 0.025287625379860405 82.500000000000014 0.028806000016629699 210.50000000000003 302.50000000000006 54.500000000000007 1.0000000180025095e-35 3.5000000000000004 2.5000000000000004 670.50000000000011 0.29472151398658758 3.5499999523162846 0.10541075095534326 12.500000000000002 4741.5000000000009 0.010749000124633314 1.1030156612396242 24.500000000000004 47.500000000000007 108.00000000000001 69.500000000000014 159.50000000000003 0.42587602138519293 1140.5000000000002 11.500000000000002 14347.000000000002 33.500000000000007 2.5000000000000004
decision_type=2 2 2 2 2 2 2 2 2 2 2 2 2 2 2 2 2 2 2 2 2 2 2 2 2 2 2 2 2 2 2 2 2 2 2 2 2 2 2 2 2 2 2 2 2 2 2
left_child=2 3 35 5 29 31 22 10 11 -4 16 12 13 -5 20 -16 17 -8 24 -15 21 -7 30 -10 -14 -20 27 -17 -28 33 -6 -2 -11 34 39 -1 -25 -38 40 -3 -35 42 -32 -22 -42 -33 -37
right_child=1 4 9 8 6 14 7 -9 23 32 -12 -13 18 19 15 26 -18 -19 25 -21 43 -23 -24 36 -26 -27 28 -29 -30 -31 41 45 -34 38 -36 46 37 -39 -40 -41 44 -43 -44 -45 -46 -47 -48
leaf_value=0.3059559335217078 -0.07112670657194281 -0.19467783430257873 0.093546667450646007 -0.1104786784633161 -0.077525570043848219 0.041666782586914822 -0.0090932165657168877 -0.45762942959129976 -0.036520110796281036 0.27520803425418655 0.24326983309797531 -0.21656211302897624 -0.090918387060007058 0.015926600876767595 0.21321429553255034 -0.11740490253502688 -0.43884264720048255 -0.36630742566824154 -0.059840348726493381 0.22037864478517377 -0.49283792011847188 -0.31871985743941067 0.024586124536029184 0.12634341599698501 -0.32631401753860739 0.046089159273205171 -0.15104986391703679 0.29018253984393971 0.070325946371978518 -0.0054710509275477208 -0.40933429473741451 -0.30711737850602039 0.19063570187857443 -0.1732658904083991 0.21122927076480319 0.35596841222228237 -0.005865185258689655 0.1076673872221727 -0.12349348188519596 -0.38807630145669847 -0.27798777900701532 -0.49664122033582536 -0.28050442656533631 -0.35749752493663967 -0.38250893605217418 -0.42553577650099628 0.34225727823575092
leaf_weight=27858.077525062487 587.3939962554723 596.76452639326453 8911.9838813263923 3801.5912828240544 584.91365579515696 1551.1533609293401 5239.4285218752921 1388.3865792639554 7467.2101318258792 19213.59631087631 1212.8942110277712 3775.5049785319716 4205.6296725049615 4870.4112075082958 1429.3438087776303 4064.539051214233 979.44726670905948 1210.5131058767438 26007.550612669438 4972.8100984375924 1067.8538512755185 1605.5805042870343 629.79466954618692 9146.6618550494313 2276.7625225074589 9365.6423444487154 20843.015175126493 1695.6091937050223 2715.5666131712496 588.77800350636244 3071.9147112295032 560.86001072451472 11994.158292112872 390.61008305847645 826.8692163862288 62204.932596232742 4882.1360734198242 5301.9955680761486 407.19831125065684 3321.5399655401707 712.85323014110327 1210.5238362941891 1148.6311260797083 796.54686472937465 27178.263905178756 2319.9481922034174 47254.636593549512
leaf_count=16799 7153 12360 15717 13725 7443 7069 53821 20008 18363 13352 9534 16733 13620 14731 6552 30315 15902 18859 85596 8584 13583 12063 7233 13383 14589 26500 181789 8031 11504 10696 54759 8352 13352 7903 7164 13046 11496 9136 7807 76146 15641 15486 18668 10632 650897 43011 17909
internal_value=0 -0.122028 0.311471 -0.0479645 -0.305016 -0.13035 -0.209724 -0.126816 -0.0103789 0.209732 -0.0730859 -0.0391355 -0.0270035 0.055262 -0.109077 -0.0855662 -0.125184 -0.0767871 -0.0538708 0.119496 -0.252326 -0.141401 -0.334284 0.053154 -0.174175 -0.0317382 -0.100249 0.00249674 -0.12544 -0.35161 -0.372137 -0.348461 0.24282 -0.357648 -0.259511 0.341169 0.0878888 0.0531009 -0.37374 -0.359542 -0.377242 -0.403371 -0.3753 -0.437762 -0.379983 -0.404025 0.350091
internal_weight=0 176011 177437 125311 50699.3 39237.4 16676.4 10030.7 86073.9 40119.7 8642.28 59275.9 55500.4 13644.8 35769.2 30748.1 7429.39 6449.94 41855.6 9843.22 5021.13 3156.73 6645.78 26798 6482.39 35373.2 29318.7 5760.15 23558.6 34022.9 6015.98 3468.2 31207.8 33434.1 4745.17 137318 19330.8 10184.1 28688.9 3918.3 28281.7 5431.07 4220.55 1864.4 27891.1 2880.81 109460
internal_count=1687012 1596837 90175 586510 1010327 340054 221713 118124 246456 42421 98116 194078 177345 37040 281538 238191 88582 72680 140305 23315 43347 19132 103589 52378 28209 112096 231639 38346 193293 788614 96356 58516 26704 777918 95670 47754 34015 20632 682248 88506 674441 88913 73427 24215 666538 51363 30955
shrinkage=0.35


Tree=5
num_leaves=45
num_cat=0
split_feature=222 221 222 221 183 222 221 38 28 201 142 42 114 193 221 220 210 222 7 210 171 9 210 5 112 129 16 222 220 190 4 189 156 223 220 29 14 220 46 129 222 172 0 168
split_gain=87381.8 15402.6 3290.95 2966.3 2085.37 1428.08 1754.72 1180.3 2319.29 1306.15 1140.17 1086.39 990.714 967.169 954.247 827.596 729.309 703.368 910.887 1183.42 700.915 696.335 684.585 683.421 569.871 541.799 506.42 459.436 446.256 387.283 371.704 360.423 357.418 351.526 692.709 137.931 177.261 121.511 120.158 63.6124 38.5462 25.5605 115.049 25.3106
threshold=14.500000000000002 0.30423779785633093 8.5000000000000018 0.5613311529159547 56.500000000000007 160.50000000000003 0.31036852300167089 0.6904762089252473 0.14147000014781955 230.50000000000003 0.052301499992609031 0.17344649881124499 0.064095500856637969 120959.00000000001 0.74631580710411083 1.0000000180025095e-35 211.50000000000003 220.50000000000003 551.50000000000011 199.50000000000003 0.046796999871730811 133.50000000000003 59.500000000000007 52.500000000000007 0.082086499780416503 0.085815999656915679 0.050809999927878387 168.50000000000003 1.1030156612396242 2.5000000000000004 52.500000000000007 11.500000000000002 0.031562499701976783 151.50000000000003 -5.5541627407073966 0.046321500092744834 0.28407749533653265 -3.4378916025161739 9.5000000000000018 0.16379349678754809 2.5000000000000004 4625.5000000000009 81856.500000000015 0.13136800378561023
decision_type=2 2 2 2 2 2 2 2 2 2 2 2 2 2 2 2 2 2 2 2 2 2 2 2 2 2 2 2 2 2 2 2 2 2 2 2 2 2 2 2 2 2 2 2
left_child=2 11 28 4 5 7 -7 9 24 10 -3 17 -11 -10 16 -4 21 18 19 26 22 30 -8 -23 -9 32 43 -22 -1 -25 -5 -32 -6 34 -20 41 -37 -34 39 -35 -30 -19 -43 -2
right_child=1 3 15 14 25 6 20 8 13 12 -12 -13 -14 -15 -16 -17 -18 35 33 -21 27 23 -24 29 -26 -27 -28 -29 40 -31 31 -33 37 38 -36 36 -38 -39 -40 -41 -42 42 -44 -45
leaf_value=0.28476974130518207 -0.3896226832161806 -0.29007518424485823 0.099335664321253944 -0.074868276998794239 -0.23354904297923529 0.31577063542095712 -0.35246000427655055 -0.25165398570358238 0.075999764183063145 0.0059267185483598932 -0.057916367157443617 0.26962404553637737 0.26247255024680921 -0.16559855345888971 0.13601029973117326 0.23364072698501051 0.14378470635992599 -0.37513234112547889 -0.38960433580237486 0.24312314450255559 -0.075233072821405761 -0.18367148497608307 0.0051857376896072014 0.032728606176982658 -0.51437647528347286 -0.10235708747940427 -0.0059051524735519063 -0.40224118816348237 0.35166199753456073 -0.10524515975175543 0.0054514320333117761 0.085143083276815801 -0.40467045884876041 -0.3718158463658548 0.12322785580161098 -0.014537824419726082 -0.36930869362152452 -0.60316557772944279 -0.13439833043885091 -0.29263322849054968 0.33271488806113281 -0.097713002447221017 -0.3682106352392111 -0.24931939242586895
leaf_weight=20836.105808576569 1025.8175023123622 2965.2225238699466 8231.8839526064694 4223.7020894186571 1096.4983966369182 699.70840024761856 1020.2493677195162 3803.1718942634761 4771.0731686148793 27465.110376961529 20604.835592716932 380.78658868931234 1970.1923985052854 3515.6805053949356 8009.5558441039175 18228.437513504177 4339.5143384644762 15603.540598435327 640.69877913035452 916.22796951048076 639.42532192915678 4443.1304188324139 1781.6764157451689 6506.7440181961283 1423.4725770670921 1039.358206326142 812.13241420127451 3543.3403036575764 44275.514777776785 4018.5590403527021 18257.925744762644 11274.291561649181 1116.9819686617702 5066.5070628523827 628.76391701959074 341.33358104154468 367.12328730896115 804.07318585179746 382.77249122038484 2324.9792285058647 34089.149629040621 284.67534317076206 837.90150278434157 364.7029085829854
leaf_count=16799 26087 27625 13926 11871 10404 10659 20592 32982 18129 163378 129442 2213 6877 22442 11496 17893 7569 519554 13716 11030 10235 15579 19541 15032 15745 8822 16886 72327 13046 12419 43665 23088 14963 144774 5029 8954 10234 8723 7784 61699 17909 8550 27885 9439
internal_value=0 -0.0833174 0.301902 -0.0343292 -0.0794444 -0.066034 -0.20889 -0.0494804 -0.141815 -0.025888 -0.0872887 -0.310877 0.0232266 -0.0263405 0.0234549 0.191969 0.00641333 -0.318478 -0.253021 -0.088805 -0.262011 -0.00580556 -0.125027 -0.0686481 -0.324231 -0.323668 -0.228079 -0.352924 0.331189 -0.0198169 0.0220165 0.0359511 -0.398822 -0.309324 -0.134993 -0.3639 -0.202992 -0.490853 -0.337389 -0.347498 0.343478 -0.370507 -0.302401 -0.355762
internal_weight=0 169311 125661 139333 78260.1 74203.2 7684.4 66518.8 13513.4 53005.4 23570.1 29978 29435.3 8286.75 61073.4 26460.3 53063.9 29597.2 12162.6 3118.88 6984.69 48724.4 2801.93 14968.4 5226.64 4056.91 2202.65 4182.77 99200.8 10525.3 33755.9 29532.2 3017.55 9043.72 1269.46 17434.6 708.457 1921.06 7774.26 7391.49 78364.7 16726.1 1122.58 1390.52
internal_count=1687012 1607439 79573 733605 592886 549974 133354 416620 89298 327322 157067 873834 170255 40571 140719 31819 129223 871621 296444 63442 122695 121654 40133 43030 48727 42912 52412 82562 47754 27451 78624 66753 34090 233002 18745 575177 19188 23686 214257 206473 30955 555989 36435 35526
shrinkage=0.35


Tree=6
num_leaves=40
num_cat=0
split_feature=222 221 222 222 183 170 5 195 123 199 145 222 129 223 220 222 0 223 212 193 14 210 112 207 210 221 1 195 210 220 221 220 222 24 38 222 198 187 157
split_gain=57863.4 11526.7 2270.31 2152.46 1673.06 1440.47 1275.34 1611.93 1920.94 1298.2 1070.31 985.968 931.836 891.023 869.146 857.853 824.726 924.063 762.584 840.252 796.93 746.021 713.162 663.437 570.305 564.602 517.618 499.099 365.225 229.26 188.655 182.585 181.767 156.658 154.523 193.071 127.942 467.461 97.0116
threshold=12.500000000000002 0.30423779785633093 56.500000000000007 6.5000000000000009 74.500000000000014 0.0057129999622702607 51.500000000000007 550610.50000000012 1.3095238208770754 5.5000000000000009 101.50000000000001 220.50000000000003 0.10384900122880937 327.50000000000006 0.41218625009059912 216.50000000000003 116146.50000000001 152.50000000000003 99.500000000000014 58587.500000000007 0.29937349259853369 141.50000000000003 0.059196500107645995 1.5000000000000002 5.5000000000000009 0.52075135707855236 223.50000000000003 511555.50000000006 32.500000000000007 1.555083751678467 0.46255415678024298 -4.8828375339508048 18.500000000000004 0.55000001192092907 0.46428571641445165 50.500000000000007 3.5000000000000004 5.5000000000000009 0.090256500989198699
decision_type=2 2 2 2 2 2 2 2 2 2 2 2 2 2 2 2 2 2 2 2 2 2 2 2 2 2 2 2 2 2 2 2 2 2 2 2 2 2 2
left_child=3 11 14 29 5 -4 10 8 -8 -9 12 15 -7 -5 16 18 22 -18 34 20 21 -20 25 24 -19 -3 -12 -21 -27 -1 38 -29 -16 -13 35 -2 -35 -38 -6
right_child=1 2 4 13 30 6 7 9 -10 -11 26 33 -14 -15 32 -17 17 23 19 27 -22 -23 -24 -25 -26 28 -28 31 -30 -31 -32 -33 -34 36 -36 -37 37 -39 -40
leaf_value=0.29309395858648496 -0.06659203295458993 -0.14360818400493791 -0.4353420270422112 0.10538089514211962 -0.41831328399034551 -0.17399808932171748 0.11574015761322602 -0.044039426381336469 -0.11441823324205375 -0.26253123596159411 -0.011911226522577584 -0.040817821291263066 0.050336676830107292 0.25054849726498141 0.13332259279411279 0.24947544140022726 -0.1388553950948499 -0.054353517830904759 -0.039726558339312011 0.065059019395995663 -0.34873479093096227 0.43346452152635029 -0.18388728897386417 0.14731102341503513 0.04506582043483915 -0.065346124052585927 -0.30149789522913312 -0.37025408319342923 0.059638716373087618 0.34277988912063501 -0.57401386437722535 -0.11302653199951618 0.054934694498760879 -0.36763207331223557 -0.13992367006667986 -0.3727216983487851 0.20889500960222543 -0.36215679422467217 -0.19335828799579594
leaf_weight=16591.851139103528 289.73766388185322 3702.4946599770337 1234.4804498162121 7361.1865288452245 583.7866865741089 4659.8107368135825 14560.900582633913 13911.366306848824 6376.9439053889364 4386.7735363766551 907.73001294955611 210.21503067202866 4388.9578020041808 18032.285469725262 7382.5188257079571 474.85077627561986 3878.538734620437 9117.5529104704037 1021.695404805243 477.41789219900966 511.06768686324358 663.72820361889899 4367.5746586788446 6000.2637531943619 31186.694945849478 4591.2538768034428 4974.5251950882375 1924.1297082230449 7563.7759144436568 46228.319085065275 616.81012333929539 447.04970235936344 7365.924726344645 11537.206217395142 516.99546502716839 3882.7948307152838 221.99258008599281 712.36901945248246 500.22508268337697
leaf_count=14758 2604 17698 17816 14132 11607 44782 104961 105653 71737 45256 7405 7748 29704 17694 10854 10387 15371 29380 24673 12368 15024 8980 16668 12693 80051 12749 64363 67899 15902 22386 6779 8855 14303 527319 12898 134533 8749 31832 8441
internal_value=0 -0.0561891 -0.019077 0.294896 -0.073073 -0.0625035 -0.0539098 -0.0207149 0.045538 -0.0966116 -0.14096 -0.286657 -0.0650389 0.208585 0.0171124 -0.204988 0.000899266 0.0249727 -0.22753 -0.132158 0.0297607 0.146711 -0.0587286 0.0387561 0.0225239 -0.0240666 -0.257196 -0.25738 0.0122673 0.329725 -0.414386 -0.323066 0.0943471 -0.352091 -0.329346 -0.352068 -0.357162 -0.223929 -0.31835
internal_weight=0 165150 142259 88213.6 57102.3 55401.5 54167 39236 20937.8 18298.1 14931 22891.3 9048.77 25393.5 85156.6 10209.5 70408.1 50183.1 9734.62 5045.09 2196.49 1685.42 20225.1 46304.5 40304.2 15857.5 5882.26 2848.6 12155 62820.2 1700.82 2371.18 14748.4 12681.8 4689.53 4172.53 12471.6 934.362 1084.01
internal_count=1687012 1618042 744173 68970 518504 491677 473861 327607 176698 150909 146254 873869 74486 31826 225669 298221 200512 137495 287834 137799 48677 33653 63017 122124 109431 46349 71768 89122 28651 37144 26827 76754 25157 575648 150035 137137 567900 40581 20048
shrinkage=0.35


Tree=7
num_leaves=42
num_cat=0
split_feature=222 222 221 221 220 210 220 155 180 8 195 136 222 8 3 2 5 1 142 2 123 189 192 222 179 222 157 212 47 168 223 223 140 187 0 130 220 171 223 190 220
split_gain=38286.3 8713.52 1762.88 1445.15 1427.34 1393.39 933.11 881.529 1839.02 1136.82 870.505 782.8 1018.96 696.97 705.636 661.751 1145.75 1087.81 837.054 890.73 588.27 579.45 471.855 447.79 403.772 395.939 368.669 347.392 258.482 207.47 626.05 186.212 183.339 81.5885 78.0349 169.975 66.8255 53.9388 53.2992 30.9708 13.4174
threshold=10.500000000000002 148.50000000000003 0.68657270073890697 0.23822265118360522 0.41218625009059912 59.500000000000007 -5.8336596488952628 0.026633000001311306 0.021202366799116138 0.55470147728919994 529115.50000000012 0.52857145667076122 80.500000000000014 0.61301448941230785 32.500000000000007 1.5000000000000002 15.500000000000002 2756.5000000000005 0.042953999713063247 1.0000000180025095e-35 1.1833333373069765 15.500000000000002 17.500000000000004 16.500000000000004 6.7750000953674325 4.5000000000000009 0.077204499393701567 52.500000000000007 5.5000000000000009 0.052748499438166625 418.50000000000006 173.50000000000003 0.12443649768829347 2.5000000000000004 14347.000000000002 1925.5000000000002 1.8201550245285036 0.007181999972090126 412.50000000000006 3.5000000000000004 3.0631083250045781
decision_type=2 2 2 2 2 2 2 2 2 2 2 2 2 2 2 2 2 2 2 2 2 2 2 2 2 2 2 2 2 2 2 2 2 2 2 2 2 2 2 2 2
left_child=4 2 6 31 -1 29 21 8 -7 10 -10 12 20 14 22 18 24 -18 27 -20 -8 32 -9 38 -17 40 -14 -13 -25 30 -5 -3 -2 -31 35 -33 -27 -32 -4 -34 -6
right_child=1 3 23 5 25 7 11 13 9 -11 -12 15 26 -15 -16 16 17 -19 19 -21 -22 -23 -24 28 -26 36 -28 -29 -30 33 37 34 39 -35 -36 -37 -38 -39 -40 -41 -42
leaf_value=0.16592251158719473 -0.055533632532011185 0.026496449797146777 0.10431925645207651 0.13722095747739049 0.3249320171063384 -0.4069022621364996 0.035615825532295427 -0.3525353483676687 0.1596975593845375 -0.20804948675024873 0.6499012241100347 -0.023784000118956237 -0.1653684586439344 0.26419331257971168 0.032544827091753208 -0.37259312735597949 -0.011691075752006567 -0.2464558352770837 0.0093174714657319434 0.15416608829559963 -0.17543727197511491 0.051670552618340505 -0.013430567111209503 -0.0065036127506985699 -0.10693141913905718 0.24432094418268674 -0.51162466809826168 -0.24991030331676509 0.091355955182715554 -0.18588977970438281 -0.18930806242817297 -0.35030495591387006 -0.40245151551043667 -0.38368760815989933 -0.36177926571233238 0.067734506058496347 0.29197899555018969 -0.38494142563216044 0.15304973285961954 -0.23255779924951675 0.34616833310210859
leaf_weight=9576.0718114315532 269.5277907634154 150.76937306765467 5959.6192034082487 457.4129481036216 15696.596436223481 781.83026395365596 3564.3315460858867 2756.1583675891161 1298.1354403477162 618.58628537878394 684.16100758686662 1473.9482133788988 673.15764128789306 401.66454806830734 1083.1742131179199 1603.9789485381916 36604.115112625062 2582.9537056339905 53628.618007529527 5756.2220254633576 2934.82739376463 636.26602575927973 628.95469892956316 7603.0171205066144 1297.3889809083194 8085.4291760399938 943.32151038292795 1968.0881869411096 5799.0870309770107 346.30938377510756 297.4794260924682 327.39980674814433 1330.6342472126707 2932.4972151834518 8423.5549956774339 171.21312302816659 9132.8175991135649 899.77576283551753 6037.7668437175453 252.60271022468805 17892.519359303173
leaf_count=15753 5628 6721 10160 11734 13832 21278 12081 78201 20272 14323 6523 8480 7500 6386 15364 13921 182947 20725 265377 16219 14229 16095 15517 17083 7706 10443 14782 16710 10081 12133 9950 18663 50428 107475 540255 8266 9423 28749 8562 8124 8913
internal_value=0 -0.0356933 -0.00353088 -0.239153 0.290494 -0.16475 -0.0219002 -0.0763591 0.0604175 0.202409 0.331731 -0.0172064 -0.121895 -0.171682 -0.211672 -0.00908222 -0.04305 -0.0272588 0.0136468 0.0234073 -0.0595083 -0.233591 -0.290246 0.0799242 -0.255045 0.313907 -0.370076 -0.153886 0.0357337 -0.311879 -0.206539 -0.346846 -0.332333 -0.363853 -0.353377 -0.204364 0.269829 -0.339422 0.12908 -0.377795 0.336378
internal_weight=0 163179 140919 22259.1 60383.4 13186.1 115520 8252.66 3382.71 2600.88 1982.3 113031 8115.64 4869.95 4468.29 104915 42088.4 39187.1 62826.9 59384.8 6499.16 2489.03 3385.11 25399.5 2901.37 50807.4 1616.48 3442.04 13402.1 4933.47 1654.67 9072.94 1852.76 3278.81 8922.17 498.613 17218.2 1197.26 11997.4 1583.24 33589.1
internal_count=1687012 1628648 706838 921810 58364 347905 660952 177864 62396 41118 26795 580677 48592 115468 109082 532085 225299 203672 306786 281596 26310 80275 93718 45886 21627 42611 22282 25190 27164 170041 50433 573905 64180 119608 567184 26929 19866 38699 18722 58552 22745
shrinkage=0.35


Tree=8
num_leaves=47
num_cat=0
split_feature=222 222 220 221 220 210 208 212 180 38 223 221 187 187 222 168 210 220 193 7 16 187 183 222 7 184 18 8 215 221 221 168 222 198 223 172 165 113 187 0 0 157 220 220 5 168
split_gain=25080.7 5775.79 1543.95 1213.48 1190.07 1076.62 1041.62 1316.19 1091.67 811.432 1415.68 1311.73 1260.92 1570.57 1053.72 1185.81 888.6 793.214 883.28 750.136 733.417 794.586 676.973 599.275 557.789 554.618 548.923 492.457 488.42 399.581 372.41 502.892 521.63 345.764 469.23 311.938 268.76 221.04 201.994 149.536 96.4022 197.701 84.875 81.997 81.4547 62.2567
threshold=10.500000000000002 160.50000000000003 0.26368011534214025 0.23822265118360522 -0.4709684550762176 59.500000000000007 23.500000000000004 88.500000000000014 0.036550167948007591 0.6904762089252473 347.50000000000006 0.45286023616790777 9.5000000000000018 14.500000000000002 64.500000000000014 0.13994649797677997 4.5000000000000009 -5.7830059528350821 359.50000000000006 551.50000000000011 0.045444998890161521 7.5000000000000009 17.500000000000004 6.5000000000000009 636.50000000000011 4.5000000000000009 4.5000000000000009 0.55383050441741954 98.500000000000014 0.39658032357692724 0.79685083031654369 0.083289500325918212 24.500000000000004 2.5000000000000004 429.50000000000006 4.5000000000000009 1.5000000000000002 0.029939999803900722 14.500000000000002 84085.500000000015 14347.000000000002 0.078582499176263823 -1.9843500852584837 2.128136515617371 4.5000000000000009 0.0082550002261996287
decision_type=2 2 2 2 2 2 2 2 2 2 2 2 2 2 2 2 2 2 2 2 2 2 2 2 2 2 2 2 2 2 2 2 2 2 2 2 2 2 2 2 2 2 2 2 2 2
left_child=2 4 -1 40 9 37 7 8 -7 10 17 12 22 -14 26 35 27 28 -19 -20 -9 -22 -12 43 -17 -18 -11 -13 45 38 31 32 -6 34 -28 42 39 44 -8 -33 41 -3 -16 -4 -5 -2
right_child=1 3 23 5 30 6 29 20 -10 14 11 16 13 -15 15 24 25 18 19 -21 21 -23 -24 -25 -26 -27 33 -29 -30 -31 -32 36 -34 -35 -36 -37 -38 -39 -40 -41 -42 -43 -44 -45 -46 -47
leaf_value=0.11975562115516633 -0.15097693321748762 0.14975584616057749 0.29109994905488901 -0.11969169023424214 0.047190583525621721 0.46115533189267904 -0.39600682013129485 -0.4007799242854298 -0.11309825496580017 -0.17366844208721521 -0.10396200130276927 0.080193552595649087 0.16743276329849999 -0.24219901721523338 -0.39351768324860475 0.12164124022465359 0.1177977011541598 -0.29930673711538575 0.16300735222728263 -0.048233045825954321 -0.39073020276702009 0.14912452965581524 -0.39323127599981933 0.2116021927307675 -0.19319514821225667 -0.029472716465896238 0.015541186740320062 -0.10346402017552998 0.15136117629252058 0.030419638899599664 0.14529021043526436 0.056991401863932471 -0.10823252639641305 0.097492300993507086 -0.15310282055438851 -0.21792174062246822 0.011811645265671938 -0.088992144012459362 -0.091422874242557919 0.13595770543073787 -0.35780489911809171 -0.34512414704030447 -0.57555084207082263 0.3336179288215308 -0.3733093678970737 -0.37669688131566353
leaf_weight=7220.1557471714914 215.55676775891334 143.04237502347678 9900.4695502179675 198.84572412772104 5973.9202621993609 1172.5644435938448 1396.6486736275256 808.42356300214306 606.88082967232913 2885.3344660084695 7303.3119278168306 2802.8119957707822 4572.3625784395263 1519.2957198191434 1009.8784351106733 1223.6543227341026 23651.064928559121 1609.7643507160246 2193.7260790583678 31221.537056611385 449.19155806303024 1230.7774940938689 1149.4929505027831 8156.2787740896456 1548.6215692041442 3585.4352273242548 6333.2681308491156 4882.168439976871 268.95796350669116 447.63293344993144 4688.9944010647014 5146.0117639624514 4724.5013183522969 3064.4746564151719 2948.9557170718908 993.03283312078565 5826.856139534153 474.99566607736051 356.65132966544479 7236.9128279332072 5880.4202157305554 265.54905570019037 703.39839130593464 20236.281317560235 2455.9686527336016 1432.3059602994472
leaf_count=14380 6939 8661 13507 10146 11752 11557 48238 24545 17547 12120 91393 9448 43660 23651 18444 9675 64030 10620 11852 181161 15312 25272 20144 13024 12659 13996 17898 21300 8783 5386 6945 10818 15187 8183 14113 15118 13804 17070 10851 11609 531574 17678 8516 17453 122023 68970
internal_value=0 -0.0263232 0.268817 -0.226309 -0.00371918 -0.147482 -0.0654306 0.035111 0.264658 -0.0217577 -0.00681815 0.0318713 -0.0563539 0.0647861 -0.0839729 -0.215562 0.0686729 -0.0586691 -0.0465734 -0.0342749 -0.128631 0.00253178 -0.143849 0.296844 -0.0536248 0.0983411 -0.036436 -0.0362314 -0.277631 -0.260636 0.0537305 0.0387802 -0.021305 -0.00412675 -0.0379267 -0.380128 0.0741745 -0.31589 -0.335779 0.103346 -0.345989 -0.167956 -0.471638 0.319791 -0.355414 -0.349142
internal_weight=0 156603 45513.2 15887.6 140716 9598.58 6468.77 4267.84 1779.45 107118 86407.8 49465.9 14544.5 6091.66 20710.6 5478.59 34921.5 36941.8 35025 33415.3 2488.39 1679.97 8452.8 38293 2772.28 27236.5 15232 7684.98 1916.82 2200.93 33597.2 28908.2 10698.4 12346.7 9282.22 2706.31 18209.8 3129.81 1753.3 12382.9 6289.01 408.591 1713.28 30136.8 2654.81 1647.86
internal_count=1687012 1628648 58364 865860 762788 307947 158708 94233 29104 692673 575947 287622 178848 67311 116726 64412 108774 288325 203633 193013 65129 40584 111537 43984 22334 78026 52314 30748 84692 64475 70115 63170 26939 40194 32011 42078 36231 149239 59089 22427 557913 26339 26960 30960 132169 75909
shrinkage=0.35


Tree=9
num_leaves=22
num_cat=0
split_feature=222 221 221 220 223 170 129 173 195 183 222 189 136 222 190 222 222 222 198 144 220
split_gain=16490.6 3947.48 1158.18 930.744 899.673 801.149 735.617 724.618 1302.96 735.682 657.096 567.129 560.337 427.778 306.176 228.646 214.081 141.855 77.9214 350.259 28.0243
threshold=8.5000000000000018 0.25920681655406957 0.74631580710411083 0.73170393705368053 157.50000000000003 0.0053824998904019603 0.028337500058114532 4496.0000000000009 511243.50000000006 75.500000000000014 148.50000000000003 10.500000000000002 0.43874999880790716 54.500000000000007 2.5000000000000004 4.5000000000000009 74.500000000000014 12.500000000000002 3.5000000000000004 1599.5000000000002 3.0631083250045781
decision_type=2 2 2 2 2 2 2 2 2 2 2 2 2 2 2 2 2 2 2 2 2
left_child=3 4 5 -1 11 6 -3 8 -7 10 -10 -2 -6 -11 -9 20 -14 -4 -18 -20 -5
right_child=1 2 17 15 12 7 -8 14 9 13 -12 -13 16 -15 -16 -17 18 -19 19 -21 -22
leaf_value=0.14778584532633324 0.26695624202385021 -0.48744172917977469 0.13579384007811385 0.30179604367505009 0.13527011487414611 0.26941660150442792 -0.079964012945983848 -0.41065697561941028 0.00024886014847876916 -0.085561430328315397 -0.10332508978320154 -0.23887810157235642 0.18633413125274764 -0.34390899396431984 -0.081612868579587508 0.24277593707679312 -0.3571922363327007 0.062816046409917808 -0.34743337129170143 0.36393359484125398 0.33765351807280941
leaf_weight=6389.6558770469856 577.0005109529011 785.64867263520136 5745.2061738194898 7822.4279590302613 314.61541406530887 2052.6089002629742 1776.031583965756 748.36272320849821 116171.13327348139 2717.2198645733297 8011.1251581492834 497.23122977977619 85.273388945031911 1118.5766475684941 678.34607726009563 6731.0361887889449 5527.9966122689657 7954.276103392709 389.10443349601701 98.512044539675117 9152.1904815337621
leaf_count=13391 13371 14893 10468 12774 6179 16885 16443 12600 544713 10008 247449 18241 2168 26265 9778 12676 629115 14954 38747 6981 8913
internal_value=0 -0.0158562 -0.00327194 0.267186 -0.26361 -0.0131914 -0.206771 -0.00939411 -0.00665071 -0.0111079 -0.00642437 0.0311032 -0.313218 -0.161932 -0.256805 0.299232 -0.336791 0.0936152 -0.344746 -0.196491 0.321386
internal_weight=0 155248 147759 30095.3 7489.73 134059 2561.68 131497 130071 128018 124182 1074.23 6415.5 3835.8 1426.71 23705.7 6100.89 13699.5 6015.61 487.616 16974.6
internal_count=1687012 1639258 924456 47754 714802 899034 31336 867698 845320 828435 792162 31612 683190 36273 22378 34363 677011 25422 674843 45728 21687
shrinkage=0.35


end of trees

feature_importances:
Column_222=67
Column_221=47
Column_220=39
Column_223=27
Column_0=14
Column_210=14
Column_187=9
Column_5=8
Column_195=7
Column_16=6
Column_168=6
Column_190=6
Column_193=6
Column_208=6
Column_1=5
Column_7=5
Column_8=5
Column_129=5
Column_136=5
Column_183=5
Column_189=5
Column_18=4
Column_145=4
Column_171=4
Column_198=4
Column_3=3
Column_4=3
Column_19=3
Column_38=3
Column_112=3
Column_123=3
Column_130=3
Column_140=3
Column_144=3
Column_154=3
Column_156=3
Column_157=3
Column_170=3
Column_172=3
Column_180=3
Column_184=3
Column_201=3
Column_212=3
Column_2=2
Column_6=2
Column_9=2
Column_14=2
Column_17=2
Column_28=2
Column_29=2
Column_42=2
Column_113=2
Column_126=2
Column_142=2
Column_143=2
Column_153=2
Column_176=2
Column_179=2
Column_199=2
Column_207=2
Column_211=2
Column_22=1
Column_24=1
Column_31=1
Column_32=1
Column_33=1
Column_46=1
Column_47=1
Column_57=1
Column_59=1
Column_114=1
Column_117=1
Column_124=1
Column_125=1
Column_127=1
Column_137=1
Column_138=1
Column_139=1
Column_148=1
Column_155=1
Column_158=1
Column_165=1
Column_173=1
Column_182=1
Column_192=1
Column_194=1
Column_215=1

parameters:
[boosting: gbdt]
[objective: binary]
[metric: binary_logloss]
[tree_learner: serial]
[device_type: cpu]
[data: ]
[valid: ]
[num_iterations: 10]
[learning_rate: 0.35]
[num_leaves: 64]
[num_threads: 0]
[force_col_wise: 0]
[force_row_wise: 0]
[histogram_pool_size: -1]
[max_depth: 8]
[min_data_in_leaf: 9220]
[min_sum_hessian_in_leaf: 7]
[bagging_fraction: 1]
[pos_bagging_fraction: 1]
[neg_bagging_fraction: 1]
[bagging_freq: 0]
[bagging_seed: 3]
[feature_fraction: 1]
[feature_fraction_bynode: 1]
[feature_fraction_seed: 2]
[extra_trees: 0]
[extra_seed: 6]
[early_stopping_round: 10]
[first_metric_only: 0]
[max_delta_step: 0]
[lambda_l1: 5.2]
[lambda_l2: 8]
[min_gain_to_split: 2.2]
[drop_rate: 0.1]
[max_drop: 50]
[skip_drop: 0.5]
[xgboost_dart_mode: 0]
[uniform_drop: 0]
[drop_seed: 4]
[top_rate: 0.2]
[other_rate: 0.1]
[min_data_per_group: 100]
[max_cat_threshold: 32]
[cat_l2: 10]
[cat_smooth: 10]
[max_cat_to_onehot: 4]
[top_k: 20]
[monotone_constraints: ]
[monotone_constraints_method: basic]
[monotone_penalty: 0]
[feature_contri: ]
[forcedsplits_filename: ]
[refit_decay_rate: 0.9]
[cegb_tradeoff: 1]
[cegb_penalty_split: 0]
[cegb_penalty_feature_lazy: ]
[cegb_penalty_feature_coupled: ]
[path_smooth: 0]
[interaction_constraints: ]
[verbosity: -1]
[saved_feature_importance_type: 0]
[max_bin: 255]
[max_bin_by_feature: ]
[min_data_in_bin: 3]
[bin_construct_sample_cnt: 200000]
[data_random_seed: 1]
[is_enable_sparse: 1]
[enable_bundle: 1]
[use_missing: 1]
[zero_as_missing: 0]
[feature_pre_filter: 0]
[pre_partition: 0]
[two_round: 0]
[header: 0]
[label_column: ]
[weight_column: ]
[group_column: ]
[ignore_column: ]
[categorical_feature: ]
[forcedbins_filename: ]
[objective_seed: 5]
[num_class: 1]
[is_unbalance: 0]
[scale_pos_weight: 1]
[sigmoid: 1]
[boost_from_average: 1]
[reg_sqrt: 0]
[alpha: 0.9]
[fair_c: 1]
[poisson_max_delta_step: 0.7]
[tweedie_variance_power: 1.5]
[lambdarank_truncation_level: 20]
[lambdarank_norm: 1]
[label_gain: ]
[eval_at: 10]
[multi_error_top_k: 1]
[auc_mu_weights: ]
[num_machines: 1]
[local_listen_port: 12400]
[time_out: 120]
[machine_list_filename: ]
[machines: ]
[gpu_platform_id: -1]
[gpu_device_id: -1]
[gpu_use_dp: 0]

end of parameters

pandas_categorical:null
