tree
version=v3
num_class=1
num_tree_per_iteration=1
label_index=0
max_feature_idx=223
objective=binary sigmoid:1
feature_names=Column_0 Column_1 Column_2 Column_3 Column_4 Column_5 Column_6 Column_7 Column_8 Column_9 Column_10 Column_11 Column_12 Column_13 Column_14 Column_15 Column_16 Column_17 Column_18 Column_19 Column_20 Column_21 Column_22 Column_23 Column_24 Column_25 Column_26 Column_27 Column_28 Column_29 Column_30 Column_31 Column_32 Column_33 Column_34 Column_35 Column_36 Column_37 Column_38 Column_39 Column_40 Column_41 Column_42 Column_43 Column_44 Column_45 Column_46 Column_47 Column_48 Column_49 Column_50 Column_51 Column_52 Column_53 Column_54 Column_55 Column_56 Column_57 Column_58 Column_59 Column_60 Column_61 Column_62 Column_63 Column_64 Column_65 Column_66 Column_67 Column_68 Column_69 Column_70 Column_71 Column_72 Column_73 Column_74 Column_75 Column_76 Column_77 Column_78 Column_79 Column_80 Column_81 Column_82 Column_83 Column_84 Column_85 Column_86 Column_87 Column_88 Column_89 Column_90 Column_91 Column_92 Column_93 Column_94 Column_95 Column_96 Column_97 Column_98 Column_99 Column_100 Column_101 Column_102 Column_103 Column_104 Column_105 Column_106 Column_107 Column_108 Column_109 Column_110 Column_111 Column_112 Column_113 Column_114 Column_115 Column_116 Column_117 Column_118 Column_119 Column_120 Column_121 Column_122 Column_123 Column_124 Column_125 Column_126 Column_127 Column_128 Column_129 Column_130 Column_131 Column_132 Column_133 Column_134 Column_135 Column_136 Column_137 Column_138 Column_139 Column_140 Column_141 Column_142 Column_143 Column_144 Column_145 Column_146 Column_147 Column_148 Column_149 Column_150 Column_151 Column_152 Column_153 Column_154 Column_155 Column_156 Column_157 Column_158 Column_159 Column_160 Column_161 Column_162 Column_163 Column_164 Column_165 Column_166 Column_167 Column_168 Column_169 Column_170 Column_171 Column_172 Column_173 Column_174 Column_175 Column_176 Column_177 Column_178 Column_179 Column_180 Column_181 Column_182 Column_183 Column_184 Column_185 Column_186 Column_187 Column_188 Column_189 Column_190 Column_191 Column_192 Column_193 Column_194 Column_195 Column_196 Column_197 Column_198 Column_199 Column_200 Column_201 Column_202 Column_203 Column_204 Column_205 Column_206 Column_207 Column_208 Column_209 Column_210 Column_211 Column_212 Column_213 Column_214 Column_215 Column_216 Column_217 Column_218 Column_219 Column_220 Column_221 Column_222 Column_223
feature_infos=[1:3.4028234663852886e+38] [0:271267] [0:2] [0:177949] [0:141] [0:29690] [0:9] [508:861] [0.50031602382659912:0.87444800138473511] [1:223] [1:9] [0:8] [0:58214] [0:9] [0:510.96185302734375] [0:0.44487801194190979] [0:0.44487801194190979] [0:0.44487801194190979] [0:751811] [0:751811] [0:1] [0:3] [0:16] [0:1] [0:1] [0:7] [0:54] [0:7] [0:3.6723120212554932] [0:0.40233799815177917] [0:0.40233799815177917] [0:0.40233799815177917] [0:920] [0:920] [0:1] [0:3] [0:16] [0:1] [0:1] [0:6] [0:13] [0:6] [0:0.79615402221679688] [0:0.40233799815177917] [0:0.40233799815177917] [0:0.40233799815177917] [0:86] [0:86] none [0:3] [0:16] [0:1] [0:1] [0:6] [0:8] [0:6] [0:0.57813602685928345] [0:0.40233799815177917] [0:0.40233799815177917] [0:0.40233799815177917] [0:17] [0:17] [0:1] [0:2] [0:16] [0:1] [0:1] [0:4] [0:80] [0:4] [0:11.898479461669922] [0:0.35846701264381409] [0:0.35846701264381409] [0:0.35846701264381409] [0:682] [0:682] [0:1] [0:2] [0:16] [0:1] [0:1] none none none none none none none none none none none [16:16] none none [0:4] [0:4] [0:4] [0:0.37730899453163147] [0:0.36747300624847412] [0:0.36747300624847412] [0:0.36747300624847412] [0:37] [0:37] [0:1] [0:2] [0:16] [0:1] [0:1] [0:7] [0:131] [0:7] [0:8.9034099578857422] [0:0.38528299331665039] [0:0.38528299331665039] [0:0.38528299331665039] [0:4031] [0:4031] [0:1] [0:3] [0:16] [0:1] [0:1] [1:7] [1:19405.333984375] [1:9] [0.0065135997720062733:172.79824829101562] [0.00035099999513477087:0.44487801194190979] [0.004081999883055687:0.44487801194190979] [0.0057274000719189644:0.44487801194190979] [1:751811] [1:751811] [0:1] [1:3] [0:16] [0:1] [0.30000001192092896:1] [1:24] [1:58216] [1:24] [0.018439000472426414:511.20938110351562] [0.00076800002716481686:2.3295578956604004] [0.0093040000647306442:2.3295578956604004] [0.018439000472426414:2.3295578956604004] [1:751811] [1:751811] [0:2] [1:12] [0:112] [0:7] [1:7] [1:8] [1:58214] [1:9] [0.014701999723911285:510.96185302734375] [0.00076800002716481686:0.44487801194190979] [0.0093040000647306442:0.44487801194190979] [0.014701999723911285:0.44487801194190979] [1:751811] [1:751811] [0:1] [1:3] [0:16] [0:1] [0.3333333432674408:1] [1:7] [1:14753] [1:9] [0.00076800002716481686:172.79824829101562] [3.600000127335079e-05:0.44487801194190979] [0.00076800002716481686:0.44487801194190979] [0.00076800002716481686:0.44487801194190979] [1:751811] [0:751811] [0:1] [1:3] [0:16] [0:1] [0.1111111119389534:1] [1:19405.333984375] [0.0054867500439286232:0.44487801194190979] [1:58216] [0.018439000472426414:0.44487801194190979] [1:57495] [1:2261] [0.0093040000647306442:0.44487801194190979] [3.600000127335079e-05:0.44487801194190979] [0:244] [0:7] [3:188] [1:18] [0:3] [0:20] [1:3.4028234663852886e+38] [0:608] [500146:878952] [0:1] none [0:18] [2:29] [0:2] [0:316] none [0:1] none none [2:7] [0:60] [0:5560] [0:2767] [0:29688] [0:24039] [0:100] [0:1] [0:1] [0:100] [0:1] [0:1] none [0:159] [-12.928014755249023:9.3964004516601562] [0:1] [0:437] [6:439]
tree_sizes=3438 3481 3494 2916 3691 3373 2861 2810 2523 2522

Tree=0
num_leaves=31
num_cat=0
split_feature=222 222 221 222 221 222 221 222 221 220 222 221 45 142 222 159 221 143 184 193 220 221 223 221 220 221 221 222 220 222
split_gain=6.15158e+06 72019.2 53731.4 32896.6 14322.3 6530.22 6245.19 5691.78 3505.42 2389.78 2354.1 2066.96 2010.16 1900.45 1585.32 1580.31 1426.62 1251.34 1308.39 1062 969.231 531.433 408.561 382.808 378.302 285.596 136.861 134.15 66.6467 60.1146
threshold=34.500000000000007 18.500000000000004 0.63283807039260875 26.500000000000004 0.63283807039260875 46.500000000000007 0.58583396673202526 52.500000000000007 0.54420831799507152 -1.4880885481834409 12.500000000000002 0.70031121373176586 0.056469000875949867 0.1778720021247864 22.500000000000004 32.500000000000007 0.70031121373176586 0.35670301318168646 2.5000000000000004 19552.000000000004 -0.94431456923484791 0.56180498003959667 352.50000000000006 0.55304288864135753 1.0000000180025095e-35 0.68124189972877514 0.76485183835029613 14.500000000000002 0.8420829474925996 8.5000000000000018
decision_type=2 2 2 2 2 2 2 2 2 2 2 2 2 2 2 2 2 2 2 2 2 2 2 2 2 2 2 2 2 2
left_child=1 10 7 6 8 -4 9 13 19 -3 24 -6 -7 23 25 -10 -16 18 -15 -5 22 -9 -12 -2 26 -8 -1 -22 -29 -26
right_child=2 3 5 4 11 12 14 21 15 -11 20 -13 -14 17 16 -17 -18 -19 -20 -21 27 -23 -24 -25 29 -27 -28 28 -30 -31
leaf_value=2.4679489127635539 -2.0730117541428745 0.79944074127233367 0.82648326138252992 -0.31377066435668621 0.91947820927151569 -1.5928955070471755 2.0975732192455996 -2.149171610120856 0.77321496606640983 1.7802705267434353 2.1979274406715357 1.7763333888194106 0.010289369058782638 -1.3297085494764882 1.5944044154321082 -0.24649710247462919 2.1334890381555978 -1.6216363444517532 -0.18039582189486647 -1.5166325777794263 2.496114085729503 -1.7265410892635831 2.3955450552099684 -1.4459944585444979 2.5484319557834847 2.2654647560274221 2.5231033274360879 2.4055076571637897 2.4668928114824311 2.5287545059377101
leaf_weight=22227.603760428727 1824.072640568018 1379.270609524101 1668.8832313865423 446.58196496963501 1371.2692357562482 471.35806946456432 4460.3560484312475 74983.963428895921 764.82012471929193 1149.5712911747396 5385.9938613735139 1472.2943537123501 434.49787827953696 598.5399417579174 2554.2720597609878 901.97314047440886 2336.2171634845436 1048.2785084061325 632.54609320312738 554.6157688871026 21755.935118295252 1775.9359662607312 5370.5790432170033 980.72717885300517 459355.63632045686 6204.4205311760306 32524.3381761536 11273.086785394698 11682.539389975369 63955.331669244915
leaf_count=9602 32585 9408 11287 5034 8808 7747 8256 1367747 5364 3571 7994 4541 4384 9012 9712 9873 3951 16910 6799 8733 7253 29697 3660 15336 39925 7482 6540 7665 5233 12903
internal_value=1.98417 2.50035 -2.03351 1.64284 0.574483 0.226192 1.96917 -2.10435 -0.256498 1.24168 2.5323 1.35989 -0.854137 -1.56132 2.08756 0.210499 1.85245 -1.17098 -0.761555 -1.00826 2.43336 -2.13987 2.29718 -1.86643 2.54178 2.19573 2.50086 2.46597 2.43707 2.54604
internal_weight=0 657127 84418.8 23595.7 5511.55 2574.74 18084.1 81844.1 2667.99 2528.84 633531 2843.56 905.856 5084.16 15555.3 1666.79 4890.49 2279.36 1231.09 1001.2 55468.1 76759.9 10756.6 2804.8 578063 10664.8 54751.9 44711.6 22955.6 523311
internal_count=1687012 185508 1501504 84733 42353 23418 42380 1478086 29004 12979 100775 13349 12131 80642 29401 15237 13663 32721 15811 13767 31805 1397444 11654 47921 68970 15738 16142 20151 12898 52828
is_linear=0
shrinkage=1


Tree=1
num_leaves=31
num_cat=0
split_feature=222 221 222 221 59 222 222 223 30 220 145 182 210 201 211 210 221 210 222 222 154 139 0 7 212 220 126 143 220 221
split_gain=272531 15239.3 5104.68 1502.1 1609.6 1517.55 1391.89 1351.99 1256.08 956.95 886.151 804.106 646.644 602.002 560.391 488.452 340.14 338.479 285.551 271.684 250.049 246.712 146.576 137.97 96.1542 35.5748 35.0694 22.3365 15.5324 12.7738
threshold=20.500000000000004 0.54020690917968761 14.500000000000002 0.75016680359840404 0.073812998831272139 64.500000000000014 44.500000000000007 240.50000000000003 0.02389750070869923 -0.40440876781940455 164.50000000000003 0.19477350264787677 8.5000000000000018 233.50000000000003 7.5000000000000009 64.500000000000014 0.72291365265846264 42.500000000000007 8.5000000000000018 16.500000000000004 0.54198399186134349 4.5000000000000009 66626.500000000015 704.50000000000011 88.500000000000014 1.0458977818489077 7.7719676494598398 0.11315950006246568 1.5197777152061465 0.62589418888092052
decision_type=2 2 2 2 2 2 2 2 2 2 2 2 2 2 2 2 2 2 2 2 2 2 2 2 2 2 2 2 2 2
left_child=2 6 9 4 5 8 11 -4 10 16 14 17 20 -14 -3 -12 -1 21 28 -9 -10 -2 -19 26 -21 -20 -8 -7 -11 -29
right_child=1 3 7 -5 -6 27 23 19 12 18 15 -13 13 -15 -16 -17 -18 22 25 24 -22 -23 -24 -25 -26 -27 -28 29 -30 -31
leaf_value=0.35677774564923687 -0.12418896837581231 0.0089543746417718711 0.067782989919392259 0.218154566605824 0.21903477848858111 -0.41705695173454371 -0.55768732703855617 0.41013254658051718 0.027154515490197807 0.51962498989434636 -0.36623928153331364 0.03589018275936004 -0.45687931457054221 -0.19835585283354776 0.357959699381865 0.02798093230445577 0.47129064028504486 -0.34984059542700191 0.46958919687053885 0.34592094531098716 -0.20906300201350697 -0.51144959463178452 -0.70146578354925648 -0.18930850407873279 0.25212984630830115 0.50282918123466258 -0.32770989700695774 -0.57302298022968312 0.53428888103029237 -0.75987831460753608
leaf_weight=10660.508640166372 1238.2228042036295 3200.3571823388338 5311.8659006804228 3094.12675460428 2657.8284707590938 369.27097909525037 66261.592901274562 10314.420936990529 2328.1084260195494 58296.231936939061 1855.4172245599329 1436.7920487076044 4254.0166458487511 4978.9086055159569 1806.1381144709885 1329.3246571421623 19038.363397430629 535.58015059307218 20025.164486322552 5818.004526771605 2108.3767948634923 641.11517545580864 997.47583810985088 296.85809563472867 6422.9688735827804 37718.386679079384 283.50843124464154 1420.1902952902019 240196.3076098524 388.13847737759352
leaf_count=9306 10584 12793 11099 5032 9366 6045 1365018 6900 8893 12545 12652 8794 26377 25883 5231 6274 7700 4860 8827 5516 10172 6982 11975 4616 8284 11859 5615 24120 29336 4358
internal_value=0 -0.411514 0.502791 -0.110747 -0.149057 -0.189967 -0.536416 0.295676 -0.149958 0.51773 0.00446377 -0.275566 -0.242693 -0.318169 0.135966 -0.20097 0.430422 -0.407483 0.524988 0.349144 -0.0845088 -0.25992 -0.583592 -0.555249 0.29721 0.491436 -0.556804 -0.587791 0.531452 -0.618541
internal_weight=0 101481 413802 29790.2 26696.1 24038.2 71691.1 27867.3 21860.6 385935 8191.24 4849.19 13669.4 9232.93 5006.5 3184.74 29698.9 3412.39 356236 22555.4 4436.49 1879.34 1533.06 66842 12241 57743.6 66545.1 2177.6 298493 1808.33
internal_count=1687012 1575640 111372 157196 152164 142798 1418444 31799 108275 79573 36950 43195 71325 52260 18024 18926 17006 34401 62567 20700 19065 17566 16835 1375249 13800 20686 1370633 34523 41881 28478
is_linear=0
shrinkage=0.5


Tree=2
num_leaves=31
num_cat=0
split_feature=222 222 222 223 221 220 7 143 15 14 221 222 3 223 135 195 221 223 193 221 222 210 126 220 201 220 189 222 131 223
split_gain=147689 14780.5 6238.05 1478.71 1339.79 825.717 783.669 751.663 751.499 951.263 715.698 689.246 683.42 524.959 642.072 546.103 345.942 273.155 248.317 194.364 191.818 175.008 418.431 134.303 128.07 67.8303 48.3076 64.6837 38.5854 35.0816
threshold=20.500000000000004 64.500000000000014 12.500000000000002 204.50000000000003 0.51038187742233287 -0.13878714293241498 633.50000000000011 0.31948249042034155 0.0018470000359229746 0.10856999829411508 0.71188858151435863 16.500000000000004 22.500000000000004 256.50000000000006 0.15476191043853763 535791.50000000012 0.68124189972877514 208.50000000000003 53132.500000000007 0.67247429490089428 6.5000000000000009 1.0000000180025095e-35 0.1958425045013428 0.46383497118949896 29.000000000000004 -0.40440876781940455 15.500000000000002 30.500000000000004 1.9166666865348818 399.50000000000006
decision_type=2 2 2 2 2 2 2 2 2 2 2 2 2 2 2 2 2 2 2 2 2 2 2 2 2 2 2 2 2 2
left_child=2 4 5 16 6 17 21 -8 -6 -10 25 23 13 14 -11 -15 -4 -1 -9 -13 -7 22 -2 -5 -23 28 27 -26 -3 -22
right_child=1 10 3 11 8 20 7 18 9 12 -12 19 -14 15 -16 -17 -18 -19 -20 -21 29 24 -24 -25 26 -27 -28 -29 -30 -31
leaf_value=0.32747041446441411 0.068599075697989731 -0.25104421257492726 -0.10321484199681003 0.31560405424683036 -0.41946770957513413 0.51399365976965017 0.43434350348902206 -0.02109667117203709 0.33969340661106628 0.1718132286687932 0.40947916126945993 0.11996736864122276 -0.36262122360621729 0.29572821165955254 -0.22478610740549246 -0.010346209876562162 0.15165034654345416 0.44701164898973328 -0.54382976584628784 0.26243475365287616 0.44829902129945315 -0.23278784796278446 -0.55913665702230531 0.40776634780716081 -0.85896174927905466 -0.22967211705193932 -0.36434235960849021 -0.55723376199416608 -0.53322513331283683 0.48643851711317343
leaf_weight=8315.5894619375467 474.31264963932335 191.36021795682609 2678.8159457203001 7520.6288742106408 1251.7317220941186 162753.95335200615 559.48382104933262 457.29861357435584 1674.4854787755758 1246.1709778681397 193.33205355703831 4086.1258105561137 1611.4730174914002 1585.5762615222484 5302.9132497068495 16788.460211412981 2620.5642383284867 12983.965219710022 474.81380365230143 6304.0133093371987 13392.858076516539 366.87499791383743 565.028275558725 10572.500430164859 313.29064688459039 245.90814753808081 345.98114479146898 1388.0933514740318 40752.589824991301 34981.571841502562
leaf_count=8876 7540 5609 7442 7654 8382 32867 3938 4666 5818 5744 549 7490 10426 6602 30773 77727 4584 5999 7248 7698 8395 7311 10970 7534 2981 4483 6699 35567 1332607 12833
internal_value=0 -0.324496 0.46657 0.265476 -0.0821783 0.495772 -0.322869 -0.017333 -0.0415737 -0.0245557 -0.525814 0.310594 -0.0477787 -0.0271605 -0.148658 0.0160048 0.0222001 0.40066 -0.29369 0.206892 0.505333 -0.45344 -0.271154 0.369823 -0.529201 -0.530375 -0.57939 -0.618974 -0.532046 0.476035
internal_weight=0 75789.2 266211 33782.6 34406 232428 4945.18 1491.6 29460.8 28209.1 41383.2 28483.3 26534.6 24923.1 6549.08 18374 5299.38 21299.6 932.112 10390.1 211128 3453.58 1039.34 18093.1 2414.24 41189.9 2047.37 1701.38 40944 48374.4
internal_count=1687012 1575640 111372 42402 232392 68970 86920 15852 145472 137090 1343248 30376 131272 120846 36517 84329 12026 14875 11914 15188 54095 71068 18510 15188 52558 1342699 45247 38548 1338216 21228
is_linear=0
shrinkage=0.5


Tree=3
num_leaves=26
num_cat=0
split_feature=222 222 222 220 223 208 222 3 183 1 1 220 220 223 144 192 220 208 223 0 222 222 41 208 223
split_gain=81552.4 16063.3 3000.42 1565.68 946.723 912.505 949.967 687.205 688.108 751.7 732.585 640.749 453.979 348.822 282.238 252.681 224.506 207.96 192.195 132.576 108.768 67.2689 67.1707 63.0692 24.1469
threshold=16.500000000000004 64.500000000000014 10.500000000000002 0.46383497118949896 223.50000000000003 124.50000000000001 24.500000000000004 28.500000000000004 13.500000000000002 181.50000000000003 2939.5000000000005 0.30321414768695837 -0.6306549310684203 198.50000000000003 67.500000000000014 12.500000000000002 1.0000000180025095e-35 4.5000000000000009 213.50000000000003 1389418.0000000002 4.5000000000000009 12.500000000000002 2.5000000000000004 19.500000000000004 401.50000000000006
decision_type=2 2 2 2 2 2 2 2 2 2 2 2 2 2 2 2 2 2 2 2 2 2 2 2 2
left_child=2 3 11 5 -4 6 13 8 9 -8 -10 18 22 -2 19 -9 -6 -5 -1 -15 -13 -18 -3 -19 -22
right_child=1 12 4 17 16 -7 7 15 10 -11 -12 20 -14 14 -16 -17 21 23 -20 -21 24 -23 -24 -25 -26
leaf_value=0.32222452914632993 -0.10808954150697928 -0.51828379639049793 0.095694500502352953 0.25184195915084473 0.25635829328983017 0.43194633055762421 -0.3992308785884866 -0.76628199281395848 -0.32971303501829369 -0.011204745669813365 0.10088135326608037 0.503948431279026 0 0.062018970174549909 -0.043147596182112051 -0.2266422185809413 0.41462081876567053 0.045088959947619016 0.43411618151024872 0.20268630644598126 0.44049966244944744 0.34023839654391846 -0.095061301838182136 0.15626355199806122 0.47890473309679199
leaf_weight=7170.0151503467932 3552.0017187800258 25243.752010658383 4932.0001928554848 4160.7076460253447 6081.433897444047 903.69391192682087 1395.2270496021956 572.39834778569639 5469.4677147343755 11452.576893648133 1186.5961568392813 81825.51072618179 431.60023648105562 3525.4152208119631 3433.3960218392313 397.6818323507905 6659.5928497137502 2700.7688826061785 9882.4682518495247 3376.4688268527389 10588.594080767594 8472.9960229489952 118.86944145150483 2641.4152989462018 27151.337443828583
leaf_count=8411 10702 1332080 10127 7104 7700 3368 13401 9917 55274 104305 11227 23424 6714 7449 8780 4686 5168 6681 5461 5316 8366 8816 4454 5379 12702
internal_value=0 -0.193607 0.449925 -0.0124209 0.29422 -0.0610377 -0.0742122 -0.142686 -0.121875 -0.0538597 -0.252393 0.479677 -0.507822 0.0265131 0.0731639 -0.55266 0.340151 0.167516 0.387465 0.131512 0.492769 0.373426 -0.516472 0.100879 0.468327
internal_weight=0 70562 162764 44767.8 26146 35264.9 34361.2 20473.9 19503.9 12847.8 6656.06 136618 25794.2 13887.3 10335.3 970.08 21214 9502.89 17052.5 6901.88 119565 15132.6 25362.6 5342.18 37739.9
internal_count=1687012 1596837 90175 253589 31811 234425 231057 198810 184207 117706 66501 58364 1343248 32247 21545 14603 21684 19164 13872 12765 44492 13984 1336534 12060 21068
is_linear=0
shrinkage=0.5


Tree=4
num_leaves=33
num_cat=0
split_feature=222 222 220 221 222 221 193 201 222 223 144 211 130 221 1 208 2 125 184 220 195 0 223 221 134 58 183 222 3 220 220 220
split_gain=46041.4 12209.9 2265.84 1116.52 818.741 747.776 685.744 644.266 549.624 495.704 494.88 476.387 467.417 441.574 431.025 430.954 406.734 401.911 457.734 392.65 511.365 304.04 253.022 369.656 249.814 197.947 172.338 105.35 102.359 87.6546 38.3806 8.90943
threshold=14.500000000000002 64.500000000000014 -0.13878714293241498 0.56654646992683422 8.5000000000000018 0.70031121373176586 12182.000000000002 38.500000000000007 36.500000000000007 157.50000000000003 36.500000000000007 8.5000000000000018 147.12500000000003 0.71188858151435863 752.50000000000011 13.500000000000002 1.0000000180025095e-35 2.8999999761581425 1.5000000000000002 -0.13878714293241498 603348.50000000012 4623311.5000000009 183.50000000000003 0.44390606880187994 10.550000190734865 0.095651999115943923 6.5000000000000009 4.5000000000000009 1470.0000000000002 1.5197777152061465 1.7908193469047549 2.466583371162415
decision_type=2 2 2 2 2 2 2 2 2 2 2 2 2 2 2 2 2 2 2 2 2 2 2 2 2 2 2 2 2 2 2 2
left_child=2 3 5 6 27 -1 7 -2 10 -5 -8 14 16 25 -9 -13 17 18 -11 20 -18 -12 23 -10 -21 28 -16 31 -3 -6 -29 -4
right_child=1 13 4 9 29 -7 8 11 22 12 21 15 -14 -15 26 -17 19 -19 -20 24 -22 -23 -24 -25 -26 -27 -28 30 -30 -31 -32 -33
leaf_value=0.048028920473447381 0.47180726362862663 -0.510030677227298 0.47203897919151927 -0.18599548244451561 0.31164390443463819 0.30954337220864886 -0.40395154019780039 -0.0070098109552654162 -0.51524277269853491 -0.068765980882823846 -0.16245919087003907 0.45651255591987822 -0.14914199032443318 0.25736730401615748 -0.24127340666181812 -0.095429131754641738 -0.1464081254738438 0.29963134074409109 0.13806256408390075 0.030504308148527375 0.16343519399373105 0.18329886715239532 -0.56432597455998024 0.16822476546519938 0.22206904750852305 0 -0.68458513719490055 0.40942782147464346 0.040046208495428656 0.3912748832885859 0.46520082482467379 0.49901225832781992
leaf_weight=3910.005020821467 648.82483912538737 15615.62330403924 15092.268567861058 2101.8927623722702 7995.4146256530657 9374.1609855899587 1102.8456294871867 1152.8317628512159 417.45241853222251 3338.5933779422194 1377.6296795159578 642.51508355420083 2408.1654766462743 183.15276332199574 500.52954880148172 751.22618124354631 5335.8215804845095 2854.5167041597888 12975.189018873498 5308.6102801272646 1756.5518921390176 1164.914301937446 1477.0581277702004 352.63119748048484 2537.1413082787767 197.62565049063414 463.14522728417069 7539.2647573128343 71.933519086800516 8050.9035380547866 12041.739170080051 36781.953537141904
leaf_count=8575 4625 1326420 9779 8672 10498 11187 8650 11119 14419 13489 9209 5285 11030 549 7211 9859 25175 6581 34739 13979 6291 5901 46098 7817 4944 10656 9098 7376 5623 8644 8927 14587
internal_value=0 -0.114219 0.426103 0.0105058 0.455365 0.232916 -0.13777 0.0169055 -0.247398 0.0492141 -0.12565 -0.0671523 0.0628909 -0.492005 -0.216965 0.157788 0.0779992 0.126211 0.0955067 0.015863 -0.0690696 -0.00258599 -0.44209 -0.199416 0.0930771 -0.501003 -0.462196 0.47848 -0.507264 0.352008 0.444099 0.491314
internal_weight=0 64736.4 100786 48668.1 87501.5 13284.2 10051.6 4159.07 5892.53 38616.5 3645.39 3510.25 36514.6 16068.3 2116.51 1393.74 34106.4 19168.3 16313.8 14938.1 7092.37 2542.54 2247.14 770.084 7845.75 15885.2 963.675 71455.2 15687.6 16046.3 19581 51874.2
internal_count=1687012 1607439 79573 264191 59811 19762 139291 47197 92094 124900 23760 42572 116228 1343248 27428 15144 105198 54809 48228 50389 31466 15110 68334 22236 18923 1342699 16309 40669 1332043 19142 16303 24366
is_linear=0
shrinkage=0.5


Tree=5
num_leaves=30
num_cat=0
split_feature=222 222 220 221 207 183 222 4 117 215 59 222 222 223 222 211 145 58 1 223 223 223 172 113 220 220 0 0 0
split_gain=26555.3 8397.39 1753.85 894.958 839.082 736.835 604.283 585.932 682.423 642.685 616.362 674.454 561.314 732.637 475.105 345.094 274.302 260.974 292.644 250.119 182.913 177.244 175.363 143.556 57.5631 43.5758 24.3502 16.7553 64.9249
threshold=12.500000000000002 70.500000000000014 0.46383497118949896 0.66329920291900646 4.5000000000000009 88.500000000000014 18.500000000000004 52.500000000000007 2.5000000000000004 71.500000000000014 0.053710000589489944 40.500000000000007 6.5000000000000009 263.50000000000006 6.5000000000000009 1.5000000000000002 211.50000000000003 0.081397499889135375 965.50000000000011 272.50000000000006 434.50000000000006 392.50000000000006 3.5000000000000004 0.074866998940706267 1.5197777152061465 2.9469895362854008 84085.500000000015 641.00000000000011 463.00000000000006
decision_type=2 2 2 2 2 2 2 2 2 2 2 2 2 2 2 2 2 2 2 2 2 2 2 2 2 2 2 2 2
left_child=2 3 12 4 5 7 21 8 9 -2 11 -9 -1 -14 25 -12 19 27 -19 -8 -21 -5 -7 -10 -16 26 -4 28 -3
right_child=1 17 14 6 -6 22 16 10 23 -11 15 -13 13 -15 24 -17 -18 18 -20 20 -22 -23 -24 -25 -26 -27 -28 -29 -30
leaf_value=0.35104456029073233 -0.56831848367781823 -0.45275698715729584 0.46886023150213796 0.090786334452217246 0.48544716105799779 -0.80534489369665363 -0.08314403406107683 0.0059062789527318691 -0.75497978007814959 -0.015321118434795401 0.39701476706947586 -0.23144535599582516 -0.057471227526686527 0.2745506202933547 0.30221588519471315 0.036917880120640491 -0.11943236957336067 -0.51820689943119347 0.48880739519276029 0.1632966776136604 0.007444923284351381 0.22249207944630836 -0.28098230861758849 -0.34050855154115622 0.38331546115006426 0.48904437680817719 0.41415390241230121 -0.50721526353795932 0.15350803373214916
leaf_weight=5460.884043417871 619.35954872705042 136.87384783150628 8834.0184637159109 4234.0035921232775 721.69029807578772 358.54779749223962 2496.8297903342173 15391.014412278309 526.88768568122759 3306.2686309302226 1319.5759829697199 3698.9591135419905 2853.3004770856351 3911.891716285143 4170.1539801028557 1384.2208909904584 2925.1771433083341 132.83505782112479 138.21395366080105 4510.4686944410205 3311.8771698279306 6975.6469550933689 356.30225431034341 454.68170734634623 7911.6441023913212 22319.899198994506 6248.3840926541016 9195.5530877104029 47.679562022909522
leaf_count=6596 10060 19050 9075 8876 5062 6231 7863 64877 8080 32064 4365 102364 8482 5521 6740 7623 9617 7973 3909 9183 8733 10876 5488 4503 11083 14549 6924 1274751 6494
internal_value=0 -0.0608821 0.401914 0.0177548 -0.0429622 -0.0571509 0.087751 -0.0435015 -0.199459 -0.104535 -0.00815848 -0.0399862 0.231473 0.134107 0.443906 0.21467 0.0151257 -0.489382 0 0.0536771 0.0978406 0.173168 -0.555419 -0.571254 0.355853 0.472165 0.446683 -0.503346 -0.278168
internal_weight=0 62242.7 61710.2 52591.5 28137.5 27415.8 24454 26701 4907.2 3925.63 21793.8 19090 12226.1 6765.19 49484.1 2703.8 13244.4 9651.16 271.049 10319.2 7822.35 11209.7 714.85 981.569 12081.8 37402.3 15082.4 9380.11 184.553
internal_count=1687012 1618042 68970 305865 250717 245655 55148 233936 54707 42124 179229 167241 20599 14003 48371 11988 35396 1312177 11882 25779 17916 19752 11719 12583 17823 30548 15999 1300295 25544
is_linear=0
shrinkage=0.5


Tree=6
num_leaves=25
num_cat=0
split_feature=222 221 220 57 221 222 145 223 220 199 201 222 222 16 222 184 168 222 169 159 223 223 220 193
split_gain=15455.1 5369.28 1223.65 759.25 663.259 472.992 521.204 387.166 331.547 324.532 434.067 838.637 449.733 294.781 276.38 197.383 159.681 147.278 157.603 125.382 51.3978 23.6631 17.005 4.83244
threshold=10.500000000000002 0.44390606880187994 0.8420829474925996 0.23735000193119052 0.76485183835029613 64.500000000000014 5.5000000000000009 187.50000000000003 1.7908193469047549 7.5000000000000009 234.50000000000003 30.500000000000004 48.500000000000007 0.19020749628543857 4.5000000000000009 4.5000000000000009 0.0016414999845437708 18.500000000000004 0.30281850695610052 3.5000000000000004 413.50000000000006 72.500000000000014 2.9469895362854008 5175.5000000000009
decision_type=2 2 2 2 2 2 2 2 2 2 2 2 2 2 2 2 2 2 2 2 2 2 2 2
left_child=2 3 7 16 5 8 -7 -1 9 10 11 -3 -12 19 22 -6 -2 -18 21 -8 -16 -19 -4 -23
right_child=1 4 14 -5 15 6 13 -9 -10 -11 12 -13 -14 -15 20 -17 17 18 -20 -21 -22 23 -24 -25
leaf_value=0.081267159655390733 0.25086214098876136 -0.0031115142491186924 0.4351673228385744 0.476340457915927 0.072360112170666124 1.1705865036783212 0.19633394250868166 0.29615579240676487 0.18849677674791837 0.18721767321093929 0.02139347699083113 -0.23150851684576806 0.32842125873279759 0.59012297694678806 0.29794052661878423 0.23782446162330625 -1.1187314995526307 -0.1960639237195502 -0.033005746574600238 -0.51620747416010682 0.38672523724973457 -0.42755302317743887 0.48235153230757283 -0.51530981122421604
leaf_weight=3311.7017611991614 61.829245187574998 15791.105759817641 6440.6882906449027 202.05536052305251 3461.3257049331442 45.998802972957492 54.278356015216559 5999.9700839931611 2408.3297075610608 2147.5794532797299 18458.717880378943 5397.4996111458167 1269.9671734250151 59.75977790588513 3094.1888298112899 3962.1865419964306 97.062667602673173 118.34508977853693 208.21267392858863 925.91536745126359 6405.3061513039283 1090.7295810976066 12329.207498115487 4847.577000569785
leaf_count=9090 6424 44236 9667 2882 7796 3149 1251 9397 4913 9179 70637 72606 25691 6121 7468 6730 670 3086 4941 151937 10570 196499 12172 1009900
internal_value=0 -0.0294868 0.378553 -0.453985 0.0226166 0.00039961 -0.32429 0.220255 0.00829177 -0.00174109 -0.0117824 -0.0615295 0.0414723 -0.403016 0.430486 0.161322 -0.484403 -0.492435 -0.480618 -0.471816 0.358477 -0.495359 0.466559 -0.500436
internal_weight=0 60608.5 37581.1 6625.81 53982.7 46559.2 1085.95 9311.67 45473.2 43064.9 40917.3 21188.6 19728.7 1039.95 28269.4 7423.51 6423.76 6361.93 6264.86 980.194 9499.49 6056.65 18769.9 5938.31
internal_count=1687012 1628648 58364 1224402 404246 389720 162458 18487 227262 222349 213170 116842 96328 159309 39877 14526 1221520 1215096 1214426 153188 18038 1209485 21839 1206399
is_linear=0
shrinkage=0.5


Tree=7
num_leaves=25
num_cat=0
split_feature=222 222 220 220 3 223 173 144 222 136 210 11 198 14 221 222 201 39 222 211 3 0 0 149
split_gain=8979.68 3369.31 749.533 471.735 426.365 362.791 419.789 380.069 406.404 489.554 418.053 295.358 364.138 280.319 272.636 174.772 142.396 122.614 118.018 110.678 100.58 31.5072 47.7682 22.752
threshold=8.5000000000000018 78.500000000000014 1.5197777152061465 1.0458977818489077 23.500000000000004 126.50000000000001 9.5000000000000018 1821.5000000000002 38.500000000000007 0.57738095521926891 26.500000000000004 1.5000000000000002 2.5000000000000004 0.4709600061178208 0.79623040556907665 18.500000000000004 230.50000000000003 2.5000000000000004 2.5000000000000004 6.5000000000000009 1.0000000180025095e-35 641.00000000000011 260.50000000000006 2.5000000000000004
decision_type=2 2 2 2 2 2 2 2 2 2 2 2 2 2 2 2 2 2 2 2 2 2 2 2
left_child=2 3 14 4 5 6 -2 8 10 -10 -7 12 13 19 -1 20 -8 21 -4 -6 -5 22 -3 -20
right_child=1 17 18 15 11 7 16 -9 9 -11 -12 -13 -14 -15 -16 -17 -18 -19 23 -21 -22 -23 -24 -25
leaf_value=0.096508288269039205 -0.46357785894854781 -0.45328966525842707 0.46696411131941534 0.21559962318488626 -0.91115760145577251 0.085465926060032574 0.13372259015720045 0.35073334239059994 -0.57452686280067511 -0.06397579836015424 -0.0231816609257703 0.041708751969966741 0 -0.20127641731275689 0.29750712768574672 0.016044904272672522 -0.18793649020226169 0.25264634788480195 0.3224209519273204 -0.43886952002974183 0.085400127921529095 -0.5005418694295376 0.15964061607374935 0.39954221878984519
leaf_weight=2634.8683617822826 847.55332879617345 53.543424962321296 8042.0834103251109 3898.1509470317978 328.86877562804148 17958.115553686162 726.78432504297234 834.32274024782237 508.25174774089828 5518.71892698179 17376.35604417487 867.92220812430605 645.89658710209187 575.52850556699559 5066.0788408613298 2949.0125770228915 634.11703127878718 44.895177595317364 2607.0822846959345 311.43432120187208 2601.7363820839673 3465.9417664448265 47.088625456206501 4072.8419801718555
leaf_count=7260 8354 15504 12587 9211 6797 51990 6194 8290 23075 149715 61184 6685 5084 4480 11158 7799 7000 2942 6863 5303 7028 1243520 9103 9886
internal_value=0 -0.0133855 0.3572 0.016472 -0.00390428 0.0078269 -0.189175 0.0182579 0.0113936 -0.108385 0.031945 -0.19543 -0.307529 -0.467751 0.229378 0.118394 -0.0138449 -0.481049 0.423648 -0.6959 0.164208 -0.491862 -0.144725 0.37043
internal_weight=0 60194.2 22423 56582.8 47133.9 44404.2 2208.45 42195.8 41361.4 6026.97 35334.5 2729.65 1861.73 1215.83 7700.95 9448.9 1360.9 3611.47 14722 640.303 6499.89 3566.57 100.632 6679.92
internal_count=1687012 1639258 47754 368189 344151 315802 21548 294254 285964 172790 113174 28349 21664 16580 18418 24038 13194 1271069 29336 12100 16239 1268127 24607 16749
is_linear=0
shrinkage=0.5


Tree=8
num_leaves=22
num_cat=0
split_feature=222 222 221 223 223 208 157 171 16 201 207 22 14 154 1 222 212 222 149 206 220
split_gain=4927.28 2029.07 476.382 424.026 292.248 276.098 295.071 680.145 335.996 325.942 322.841 314.197 303.839 301.665 255.385 327.78 201.902 141.842 104.852 62.1747 34.6691
threshold=6.5000000000000009 88.500000000000014 0.76485183835029613 211.50000000000003 305.50000000000006 97.500000000000014 0.07167499884963037 0.032370500266551978 0.0771320015192032 234.50000000000003 4.5000000000000009 11.500000000000002 0.28407749533653265 0.11253499984741212 358.50000000000006 20.500000000000004 86.500000000000014 2.5000000000000004 2.5000000000000004 3.5000000000000004 2.0969768762588505
decision_type=2 2 2 2 2 2 2 2 2 2 2 2 2 2 2 2 2 2 2 2 2
left_child=3 2 5 -1 -4 6 11 8 9 -8 13 14 16 -9 -2 -16 -13 -5 -6 -3 -19
right_child=1 19 4 17 18 -7 7 10 -10 -11 -12 12 -14 -15 15 -17 -18 20 -20 -21 -22
leaf_value=0.16376742077474069 0.18154769465003831 -0.50061899584871183 -0.0085356090184427018 0.44778076900957403 0.12191110667489165 0.21571826533269661 -0.15663090014474584 0.22263223865783072 0.15750891618573554 -0.46916089753466755 0.30751865184499283 0.17650827521322068 0.31408887636989746 -0.020628975402176147 0.045374043432831621 -0.42623525985824162 -0.18808320752826069 0.26675763239243627 0.25350912259485964 -0.0039184246676852788 0.36563330156095708
leaf_weight=2788.3912750415038 741.92000460519921 2025.3482177063124 3173.1028511223849 5143.8645164052723 4036.407250096323 1363.6021451613051 2461.4409860118176 1312.4634325614898 515.1266858309391 1309.830023960094 800.82084486389067 861.82877285126597 2009.0519378292956 34896.029100725369 759.91465527424589 682.92507706413744 661.93317163817119 2199.379775423673 2636.8647713724058 79.849437542608939 2667.4462616344681
leaf_count=11076 3924 1174686 9900 11172 9984 8747 27898 9828 4777 18472 6311 5317 11151 285641 1881 11377 8164 6141 6368 45442 8755
internal_value=0 -0.00228314 0.0151278 0.339121 0.11534 -0.00521381 -0.0117355 -0.0265459 -0.214901 -0.266944 -0.00459023 0.0944992 0.186724 -0.0116628 -0.0531859 -0.176668 0.0156728 0.387429 0.1747 -0.48353 0.32223
internal_weight=0 60328.5 58223.3 12799.1 9846.37 48376.9 47013.3 41295.7 4286.4 3771.27 37009.3 5717.57 3532.81 36208.5 2184.76 1442.84 1523.76 10010.7 6673.27 2105.2 4866.83
internal_count=1687012 1649868 429740 37144 26252 403488 394741 352927 51147 46370 301780 41814 24632 295469 17182 13258 13481 26068 16352 1220128 14896
is_linear=0
shrinkage=0.5


Tree=9
num_leaves=22
num_cat=0
split_feature=222 222 193 6 31 221 223 208 46 126 193 223 222 220 7 223 220 141 2 0 220
split_gain=2657.18 1241.96 378.055 410.398 302.974 249.655 431.828 373.513 413.84 298.669 335.007 276.534 279.906 470.413 273.222 245.91 199.04 194.828 153.848 136.697 17.1874
threshold=4.5000000000000009 102.50000000000001 136.00000000000003 4.5000000000000009 0.045893499627709396 0.49681851267814642 196.50000000000003 183.50000000000003 14.500000000000002 0.12686200439929965 1568.5000000000002 156.50000000000003 16.500000000000004 -2.6779814958572383 603.50000000000011 323.50000000000006 2.466583371162415 0.10613049939274789 1.5000000000000002 94992.000000000015 4.5495917797088632
decision_type=2 2 2 2 2 2 2 2 2 2 2 2 2 2 2 2 2 2 2 2 2
left_child=16 2 4 5 17 6 9 8 -8 -4 -11 14 15 -14 -7 -13 19 18 -2 -1 -18
right_child=1 -3 3 -5 -6 11 7 -9 -10 10 -12 12 13 -15 -16 -17 20 -19 -20 -21 -22
leaf_value=0.33924774194685181 0.20666711184912229 -0.4955209859284036 0.52629757593905524 -0.38872232601846296 0.22927910818723232 -0.24654568777661004 -0.55682790926136916 0.48626073536225695 0.80466492794781552 0.46560250665819147 -0.14886830883472571 -0.004453301644418481 0.13905056125417467 -0.030259408582517491 0.0011942871104637552 0.1277202023582816 0.36340551079623323 -0.19905513223149907 -0.059341156057253805 0.12356217621364728 0.45916447486379269
leaf_weight=1563.9389653077815 1214.3810307793319 1211.793579219433 232.60219987068558 661.08997924654977 3445.4524780701031 1917.7217029308667 943.30383175698807 100.78489338664804 49.677529613079969 246.3354641518672 1626.7297093699453 5387.9878213169286 4900.5514276936883 24933.957100267697 2569.1605183657375 9868.4951153253205 1988.9299303106382 795.20048807543935 944.3008904994349 1538.5987815384287 1774.1741537475027
leaf_count=6150 6228 1149555 8800 9585 11133 10442 127493 1224 3246 3543 63273 16666 55294 139115 10362 27541 9103 6704 10275 5796 5484
internal_value=0 0.00369304 0.0139326 0.000105522 0.128693 0.00510629 -0.129964 -0.383484 -0.47875 0.00111733 -0.0643972 0.0139149 0.0257627 -0.00229884 -0.104188 0.0808368 0.331651 0.00985349 0.0889203 0.234063 0.410446
internal_weight=0 61049.5 59837.7 53438.4 6399.33 52777.3 3199.43 1093.77 992.981 2105.67 1873.07 49577.9 45091 29834.5 4486.88 15256.5 6865.64 2953.88 2158.68 3102.54 3763.1
internal_count=1687012 1660479 510924 476584 34340 466999 207579 131963 130739 75616 66816 259420 238616 194409 20804 44207 26533 23207 16503 11946 14587
is_linear=0
shrinkage=0.5


end of trees

feature_importances:
Column_222=56
Column_220=31
Column_221=28
Column_223=25
Column_0=9
Column_193=6
Column_201=6
Column_208=6
Column_1=5
Column_3=5
Column_210=5
Column_211=4
Column_7=3
Column_14=3
Column_126=3
Column_143=3
Column_144=3
Column_145=3
Column_183=3
Column_184=3
Column_2=2
Column_16=2
Column_58=2
Column_59=2
Column_149=2
Column_154=2
Column_159=2
Column_195=2
Column_207=2
Column_212=2
Column_4=1
Column_6=1
Column_11=1
Column_15=1
Column_22=1
Column_30=1
Column_31=1
Column_39=1
Column_41=1
Column_45=1
Column_46=1
Column_57=1
Column_113=1
Column_117=1
Column_125=1
Column_130=1
Column_131=1
Column_134=1
Column_135=1
Column_136=1
Column_139=1
Column_141=1
Column_142=1
Column_157=1
Column_168=1
Column_169=1
Column_171=1
Column_172=1
Column_173=1
Column_182=1
Column_189=1
Column_192=1
Column_198=1
Column_199=1
Column_206=1
Column_215=1

parameters:
[boosting: gbdt]
[objective: binary]
[metric: binary_logloss]
[tree_learner: serial]
[device_type: cpu]
[data: ]
[valid: ]
[num_iterations: 10]
[learning_rate: 0.5]
[num_leaves: 64]
[num_threads: 0]
[deterministic: 0]
[force_col_wise: 0]
[force_row_wise: 0]
[histogram_pool_size: -1]
[max_depth: 8]
[min_data_in_leaf: 5810]
[min_sum_hessian_in_leaf: 40]
[bagging_fraction: 1]
[pos_bagging_fraction: 1]
[neg_bagging_fraction: 1]
[bagging_freq: 0]
[bagging_seed: 3]
[feature_fraction: 1]
[feature_fraction_bynode: 1]
[feature_fraction_seed: 2]
[extra_trees: 0]
[extra_seed: 6]
[early_stopping_round: 5]
[first_metric_only: 0]
[max_delta_step: 0]
[lambda_l1: 7]
[lambda_l2: 8.8]
[linear_lambda: 0]
[min_gain_to_split: 3.2]
[drop_rate: 0.1]
[max_drop: 50]
[skip_drop: 0.5]
[xgboost_dart_mode: 0]
[uniform_drop: 0]
[drop_seed: 4]
[top_rate: 0.2]
[other_rate: 0.1]
[min_data_per_group: 100]
[max_cat_threshold: 32]
[cat_l2: 10]
[cat_smooth: 10]
[max_cat_to_onehot: 4]
[top_k: 20]
[monotone_constraints: ]
[monotone_constraints_method: basic]
[monotone_penalty: 0]
[feature_contri: ]
[forcedsplits_filename: ]
[refit_decay_rate: 0.9]
[cegb_tradeoff: 1]
[cegb_penalty_split: 0]
[cegb_penalty_feature_lazy: ]
[cegb_penalty_feature_coupled: ]
[path_smooth: 0]
[interaction_constraints: ]
[verbosity: -1]
[saved_feature_importance_type: 0]
[linear_tree: 0]
[max_bin: 255]
[max_bin_by_feature: ]
[min_data_in_bin: 3]
[bin_construct_sample_cnt: 200000]
[data_random_seed: 1]
[is_enable_sparse: 1]
[enable_bundle: 1]
[use_missing: 1]
[zero_as_missing: 0]
[feature_pre_filter: 0]
[pre_partition: 0]
[two_round: 0]
[header: 0]
[label_column: ]
[weight_column: ]
[group_column: ]
[ignore_column: ]
[categorical_feature: ]
[forcedbins_filename: ]
[precise_float_parser: 0]
[objective_seed: 5]
[num_class: 1]
[is_unbalance: 0]
[scale_pos_weight: 1]
[sigmoid: 1]
[boost_from_average: 1]
[reg_sqrt: 0]
[alpha: 0.9]
[fair_c: 1]
[poisson_max_delta_step: 0.7]
[tweedie_variance_power: 1.5]
[lambdarank_truncation_level: 30]
[lambdarank_norm: 1]
[label_gain: ]
[eval_at: 10]
[multi_error_top_k: 1]
[auc_mu_weights: ]
[num_machines: 1]
[local_listen_port: 12400]
[time_out: 120]
[machine_list_filename: ]
[machines: ]
[gpu_platform_id: -1]
[gpu_device_id: -1]
[gpu_use_dp: 0]
[num_gpu: 1]

end of parameters

pandas_categorical:null
