tree
version=v3
num_class=1
num_tree_per_iteration=1
label_index=0
max_feature_idx=223
objective=binary sigmoid:1
feature_names=Column_0 Column_1 Column_2 Column_3 Column_4 Column_5 Column_6 Column_7 Column_8 Column_9 Column_10 Column_11 Column_12 Column_13 Column_14 Column_15 Column_16 Column_17 Column_18 Column_19 Column_20 Column_21 Column_22 Column_23 Column_24 Column_25 Column_26 Column_27 Column_28 Column_29 Column_30 Column_31 Column_32 Column_33 Column_34 Column_35 Column_36 Column_37 Column_38 Column_39 Column_40 Column_41 Column_42 Column_43 Column_44 Column_45 Column_46 Column_47 Column_48 Column_49 Column_50 Column_51 Column_52 Column_53 Column_54 Column_55 Column_56 Column_57 Column_58 Column_59 Column_60 Column_61 Column_62 Column_63 Column_64 Column_65 Column_66 Column_67 Column_68 Column_69 Column_70 Column_71 Column_72 Column_73 Column_74 Column_75 Column_76 Column_77 Column_78 Column_79 Column_80 Column_81 Column_82 Column_83 Column_84 Column_85 Column_86 Column_87 Column_88 Column_89 Column_90 Column_91 Column_92 Column_93 Column_94 Column_95 Column_96 Column_97 Column_98 Column_99 Column_100 Column_101 Column_102 Column_103 Column_104 Column_105 Column_106 Column_107 Column_108 Column_109 Column_110 Column_111 Column_112 Column_113 Column_114 Column_115 Column_116 Column_117 Column_118 Column_119 Column_120 Column_121 Column_122 Column_123 Column_124 Column_125 Column_126 Column_127 Column_128 Column_129 Column_130 Column_131 Column_132 Column_133 Column_134 Column_135 Column_136 Column_137 Column_138 Column_139 Column_140 Column_141 Column_142 Column_143 Column_144 Column_145 Column_146 Column_147 Column_148 Column_149 Column_150 Column_151 Column_152 Column_153 Column_154 Column_155 Column_156 Column_157 Column_158 Column_159 Column_160 Column_161 Column_162 Column_163 Column_164 Column_165 Column_166 Column_167 Column_168 Column_169 Column_170 Column_171 Column_172 Column_173 Column_174 Column_175 Column_176 Column_177 Column_178 Column_179 Column_180 Column_181 Column_182 Column_183 Column_184 Column_185 Column_186 Column_187 Column_188 Column_189 Column_190 Column_191 Column_192 Column_193 Column_194 Column_195 Column_196 Column_197 Column_198 Column_199 Column_200 Column_201 Column_202 Column_203 Column_204 Column_205 Column_206 Column_207 Column_208 Column_209 Column_210 Column_211 Column_212 Column_213 Column_214 Column_215 Column_216 Column_217 Column_218 Column_219 Column_220 Column_221 Column_222 Column_223
feature_infos=[1:3.4028234663852886e+38] [0:271267] [0:2] [0:177949] [0:141] [0:29690] [0:9] [508:861] [0.50031602382659912:0.87444800138473511] [1:223] [1:9] [0:8] [0:58214] [0:9] [0:510.96185302734375] [0:0.44487801194190979] [0:0.44487801194190979] [0:0.44487801194190979] [0:751811] [0:751811] [0:1] [0:3] [0:16] [0:1] [0:1] [0:7] [0:54] [0:7] [0:3.6723120212554932] [0:0.40233799815177917] [0:0.40233799815177917] [0:0.40233799815177917] [0:920] [0:920] [0:1] [0:3] [0:16] [0:1] [0:1] [0:6] [0:13] [0:6] [0:0.79615402221679688] [0:0.40233799815177917] [0:0.40233799815177917] [0:0.40233799815177917] [0:86] [0:86] none [0:3] [0:16] [0:1] [0:1] [0:6] [0:8] [0:6] [0:0.57813602685928345] [0:0.40233799815177917] [0:0.40233799815177917] [0:0.40233799815177917] [0:17] [0:17] [0:1] [0:2] [0:16] [0:1] [0:1] [0:4] [0:80] [0:4] [0:11.898479461669922] [0:0.35846701264381409] [0:0.35846701264381409] [0:0.35846701264381409] [0:682] [0:682] [0:1] [0:2] [0:16] [0:1] [0:1] none none none none none none none none none none none [16:16] none none [0:4] [0:4] [0:4] [0:0.37730899453163147] [0:0.36747300624847412] [0:0.36747300624847412] [0:0.36747300624847412] [0:37] [0:37] [0:1] [0:2] [0:16] [0:1] [0:1] [0:7] [0:131] [0:7] [0:8.9034099578857422] [0:0.38528299331665039] [0:0.38528299331665039] [0:0.38528299331665039] [0:4031] [0:4031] [0:1] [0:3] [0:16] [0:1] [0:1] [1:7] [1:19405.333984375] [1:9] [0.0065135997720062733:172.79824829101562] [0.00035099999513477087:0.44487801194190979] [0.004081999883055687:0.44487801194190979] [0.0057274000719189644:0.44487801194190979] [1:751811] [1:751811] [0:1] [1:3] [0:16] [0:1] [0.30000001192092896:1] [1:24] [1:58216] [1:24] [0.018439000472426414:511.20938110351562] [0.00076800002716481686:2.3295578956604004] [0.0093040000647306442:2.3295578956604004] [0.018439000472426414:2.3295578956604004] [1:751811] [1:751811] [0:2] [1:12] [0:112] [0:7] [1:7] [1:8] [1:58214] [1:9] [0.014701999723911285:510.96185302734375] [0.00076800002716481686:0.44487801194190979] [0.0093040000647306442:0.44487801194190979] [0.014701999723911285:0.44487801194190979] [1:751811] [1:751811] [0:1] [1:3] [0:16] [0:1] [0.3333333432674408:1] [1:7] [1:14753] [1:9] [0.00076800002716481686:172.79824829101562] [3.600000127335079e-05:0.44487801194190979] [0.00076800002716481686:0.44487801194190979] [0.00076800002716481686:0.44487801194190979] [1:751811] [0:751811] [0:1] [1:3] [0:16] [0:1] [0.1111111119389534:1] [1:19405.333984375] [0.0054867500439286232:0.44487801194190979] [1:58216] [0.018439000472426414:0.44487801194190979] [1:57495] [1:2261] [0.0093040000647306442:0.44487801194190979] [3.600000127335079e-05:0.44487801194190979] [0:244] [0:7] [3:188] [1:18] [0:3] [0:20] [1:3.4028234663852886e+38] [0:608] [500146:878952] [0:1] none [0:18] [2:29] [0:2] [0:316] none [0:1] none none [2:7] [0:60] [0:5560] [0:2767] [0:29688] [0:24039] [0:100] [0:1] [0:1] [0:100] [0:1] [0:1] none [0:159] [-7.2776966094970703:6.0720911026000977] [0:1] [0:438] [6:439]
tree_sizes=3229 3923 3928 3070 3830 2860 3750 2851 4394

Tree=0
num_leaves=29
num_cat=0
split_feature=222 221 222 221 222 222 221 222 222 138 45 1 221 222 222 221 8 183 223 221 221 223 189 43 220 221 223 222
split_gain=6.00557e+06 84317.1 67492.5 29004.8 18890.9 11644.1 8271.47 6989.8 6259.79 4087.1 3831.24 3686.49 3421.84 3354.88 2469.27 1812.12 1786.54 1897.33 1546.21 4719.76 1048.28 1026.41 547.107 358.43 240.395 229.077 58.568 15.7217
threshold=36.500000000000007 0.48604096472263342 18.500000000000004 0.56949651241302501 44.500000000000007 24.500000000000004 0.60981908440589916 26.500000000000004 70.500000000000014 7.5000000000000009 0.030842499807477001 522.50000000000011 0.68020921945571911 70.500000000000014 10.500000000000002 0.49491937458515173 0.56281349062919628 9.5000000000000018 180.50000000000003 0.40023499727249151 0.66988620162010204 274.50000000000006 10.500000000000002 0.03325100056827069 0.70776656270027172 0.70263043045997631 265.50000000000006 4.5000000000000009
decision_type=2 2 2 2 2 2 2 2 2 2 2 2 2 2 2 2 2 2 2 2 2 2 2 2 2 2 2 2
left_child=2 8 14 5 10 -4 9 20 18 -6 -3 -7 22 16 24 -13 -11 -18 19 -2 -5 -16 -9 -20 26 -23 -1 -26
right_child=1 4 3 7 6 11 -8 12 -10 13 -12 15 -14 -15 21 -17 17 -19 23 -21 -22 25 -24 -25 27 -27 -28 -29
leaf_value=2.6221469935694426 -2.6219525501343606 0.63241310300128162 1.5762932000845356 2.0650025402719252 -1.0714675478083224 -1.0914705961667712 -0.46848272324950768 0.84889788876678351 -3.0307998133534824 -0.89311914176763363 -0.76486756034687486 -0.28122663555776661 1.9946790480661429 -2.9147406622639753 2.4344982672944209 0.72160575607501598 -1.2446368558424057 -2.7096243941987197 -2.7691166282328874 -0.70812402673685249 2.3544797574568803 2.5494821711222544 1.3399867480131755 -2.1807913699684578 2.6816059808189023 2.6235095426999955 2.6587525194014923 2.6703435645780553
leaf_weight=38079.009639121592 1280.0700775161386 1943.824444334954 2619.8713271766901 7962.8671486452222 1337.545544501394 967.06463049724698 1641.9044620171189 1713.2051060125232 68216.785662200302 672.36176717281342 1142.6043989881873 1177.8744756951928 2711.8270169012249 1978.9140259809792 17849.371764924377 1568.2497026845813 616.76885223761201 955.90878307446837 2902.9311922490597 798.96465934440494 10445.204277005047 25068.70144039765 1706.2700366042554 1143.072446629405 325755.44912427664 44342.029109861702 42694.021555010229 133994.58530307934
leaf_count=12072 21417 13011 9539 16602 16372 11809 16916 10298 1263626 7896 12838 11296 6226 36095 16747 10050 7925 16763 51321 8639 11939 13243 7557 18102 22036 12421 6190 18066
internal_value=2.00374 -2.75394 2.6151 1.74911 -1.13998 0.604979 -1.673 2.04455 -2.97702 -2.02498 0.109769 -0.0777755 1.49014 -2.32134 2.6577 0.286331 -1.78501 -2.15177 -2.37308 -1.89799 2.22947 2.56371 1.09153 -2.61021 2.67286 2.59686 2.64158 2.67834
internal_weight=0 84631.7 658656 30872.4 10289.8 6333.06 7203.4 24539.4 74341.8 5561.5 3086.43 3713.19 6131.3 4223.95 627783 2746.12 2245.04 1572.68 6125.04 2079.03 18408.1 87260.1 3419.48 4046 540523 69410.7 80773 459750
internal_count=1687012 1490921 196091 95316 127816 42694 101967 52622 1363105 85051 25849 33155 24081 68679 100775 21346 32584 24688 99479 30056 28541 42411 17855 69423 58364 25664 18262 40102
is_linear=0
shrinkage=1


Tree=1
num_leaves=35
num_cat=0
split_feature=222 222 222 207 193 138 206 2 122 221 223 3 195 208 220 4 142 198 47 222 221 172 1 222 220 220 221 195 148 222 182 222 16 220
split_gain=108283 20384.8 6047.08 2973.28 2945.67 2444.68 2095.14 1897.18 1793.63 2544.44 1546.37 1462.33 1331 1256.92 1461.05 1244.86 1132.14 1054.54 1031.49 872.998 1043.51 776.122 743.46 698.596 668.047 648.77 505.773 2987.81 492.062 198.333 150.561 124.371 59.7986 7.50268
threshold=20.500000000000004 82.500000000000014 12.500000000000002 2.5000000000000004 16038.000000000002 12.500000000000002 3.5000000000000004 1.5000000000000002 0.18333333730697635 0.66006752848625194 247.50000000000003 1255.5000000000002 542764.00000000012 45.500000000000007 0.10127433389425279 52.500000000000007 0.062755998224020018 2.5000000000000004 7.5000000000000009 38.500000000000007 0.56949651241302501 6.5000000000000009 494.50000000000006 16.500000000000004 0.43585814535617834 -0.597713142633438 0.38180252909660345 527242.50000000012 68.500000000000014 6.5000000000000009 0.1821824982762337 6.5000000000000009 0.032735498622059829 -2.650710821151733
decision_type=2 2 2 2 2 2 2 2 2 2 2 2 2 2 2 2 2 2 2 2 2 2 2 2 2 2 2 2 2 2 2 2 2 2
left_child=2 3 24 4 5 7 8 19 12 25 -4 26 16 14 18 -14 -6 21 -7 -2 -21 -9 -5 -12 29 -10 33 -28 30 -1 32 -26 -29 -3
right_child=1 11 10 22 6 13 -8 17 9 -11 23 -13 15 -15 -16 -17 -18 -19 -20 20 -22 -23 -24 -25 31 -27 27 28 -30 -31 -32 -33 -34 -35
leaf_value=0.59016872738604609 0.37786002698018101 -0.62755985939095582 0.13887890306691725 0.84085477478311266 -0.12313633634189018 -0.48021382734804702 0.44739659779853419 -0.58009964201616715 -0.56659910730503593 0.069311944457403629 0.49266388647426218 0.78959322467096138 -0.56949189488197749 0.45202348424112038 0.17155055895227869 -0.051110465477807725 0.64169243763386918 0.34395286405086761 0.026794115404541678 0.44027190732172744 1.185736229991694 0.091674566972729715 0.29090503180208876 0.30380428039353352 0.63341041250554386 -1.1532114511587919 1.5422265539711464 -0.41660533742526185 0.25768383042148157 0.50735956269095472 -0.12028224603387849 0.60099071801290049 -0.65885055203638698 -0.49490132920890456
leaf_weight=21106.396360130981 3805.0563629623502 24505.267584787682 8318.3454547673464 1851.9032573048025 1239.9839071109891 3938.6085272021592 1950.6176285371184 1084.8285834025592 4620.9636170640588 2548.4426626451313 21401.715976987034 271.36300227232277 2135.9141668193042 1638.4170286376029 3945.8297487739474 7604.0231261067092 1565.0507481191307 2628.1371172070503 2263.1617179233581 1345.3570887260139 1409.2149472888559 1415.7346074022353 1745.8105206061155 10721.920649465173 228491.84185966104 813.74581200070679 261.50120935216546 548.57757966965437 258.63879936933517 23414.106071636081 249.07652139291167 60860.213574254885 2800.078519564122 482.02535093389452
leaf_count=6443 7656 1084628 15314 7742 15574 35228 8630 9461 55778 6329 13544 6862 24433 5678 9677 50796 13142 12174 13050 15918 2488 11368 12668 13544 30701 7211 8036 19009 4986 13966 6862 17860 99114 21142
internal_value=0 -0.183867 0.589424 0.0508762 0.00965913 0.158346 -0.145497 0.352724 -0.202081 -0.424346 0.370042 -0.579836 -0.0602899 -0.0342809 -0.113287 -0.165349 0.30313 0.0785873 -0.294928 0.566381 0.824408 -0.199425 0.575681 0.429781 0.615983 -0.656133 -0.59286 -0.395155 -0.529477 0.546754 -0.587144 0.626614 -0.620796 -0.62523
internal_weight=0 78927.3 374315 49550.8 45953.1 23474.3 22478.7 11688.3 20528.1 7983.15 40442 29376.5 12545 11786 10147.6 9739.94 2805.03 5128.7 6201.77 6559.63 2754.57 2500.56 3597.71 32123.6 333873 5434.71 29105.2 4117.87 3856.37 44520.5 3597.73 289352 3348.66 24987.3
internal_count=1687012 1575640 111372 325001 304591 122698 181893 59065 173263 69318 42402 1250639 103945 63633 57955 75229 28716 33003 48278 26062 18406 20829 20410 27088 68970 62989 1243777 138007 129971 20409 124985 48561 118123 1105770
is_linear=0
shrinkage=0.6


Tree=2
num_leaves=35
num_cat=0
split_feature=222 221 222 47 5 222 195 207 221 112 211 16 220 215 220 221 220 33 223 8 215 5 223 220 136 222 222 220 215 222 222 173 16 222
split_gain=66307.1 13497.2 2912.75 2826.39 1698.86 1603.7 1536.48 1273.41 1675.9 1106.27 1077.26 979.975 884.675 728.349 683.461 679.862 647.202 639.668 458.601 464.393 450.324 342.122 181.623 98.8238 81.674 414.844 79.5585 67.4666 32.1992 362.197 190.252 31.1734 28.3443 8.15991
threshold=16.500000000000004 0.36193576455116278 10.500000000000002 8.5000000000000018 6.5000000000000009 110.50000000000001 547308.50000000012 3.5000000000000004 0.66988620162010204 0.044353000819683082 28.500000000000004 0.078766498714685454 -0.099681001156568513 77.500000000000014 -1.059203505516052 0.54191631078720104 0.70776656270027172 2.5000000000000004 72.500000000000014 0.68930751085281383 98.500000000000014 67.500000000000014 263.50000000000006 -0.67237588763236988 0.50999999046325695 74.500000000000014 4.5000000000000009 1.0228146910667422 98.500000000000014 52.500000000000007 36.500000000000007 4.5000000000000009 0.11595550179481508 50.500000000000007
decision_type=2 2 2 2 2 2 2 2 2 2 2 2 2 2 2 2 2 2 2 2 2 2 2 2 2 2 2 2 2 2 2 2 2 2
left_child=2 18 16 4 13 6 10 8 -8 17 11 -6 -4 -3 15 31 22 -5 -2 24 -15 -19 -1 32 25 -20 -18 -14 30 -30 -26 -11 -7 -32
right_child=1 3 12 9 5 23 7 -9 -10 14 -12 -13 27 20 -16 -17 26 21 19 -21 -22 -23 -24 -25 28 -27 -28 -29 29 -31 33 -33 -34 -35
leaf_value=0.45136814268130804 0.13866277010163597 -0.04734724281083514 0.23150325416561032 0.65521967260963776 0.053723182999636972 -0.65300487396036766 -0.16416937398199347 0.44251063459094492 0.12730857537429863 -0.87433482088851355 0.67677964313260286 0.57848216753616422 0.41768399807015322 -0.94427369737430655 0.22387892349124264 0.10394198831129159 0.61241410007904817 0.06384344519937496 0.34381384546002836 0.46612594320899353 -0.35766987842121711 0.4157364791209156 0.54989099428823007 -0.11564143621539413 -1.1210085973287858 -0.60900811061925453 0.57940701554727947 0.48875716808003106 0.33664869257529079 -0.61464235628675723 -0.41251549485583394 -0.54403230429507432 -0.32324586352609369 -0.61544352657229917
leaf_weight=13660.25164267607 307.4018470896408 1004.1789823807776 9260.6991308294237 3004.4032413121313 7732.3138570785522 1352.0559499450028 21414.443761780392 1857.8265843642876 10608.184007007629 340.90533236041665 1583.5049897916615 1533.6502451132983 11098.615532627329 1061.4834101516753 2955.4863821929321 752.53835801966488 105262.81656141952 1543.9126475611702 196.37473078258336 140.97087862435728 898.63862383551896 2904.8015930689871 15083.285361085087 170.77325261943042 287.40584003739059 835.04608652647585 44490.45229466632 11025.347047585994 154.50391013175249 1282.9574990011752 203.49173411913216 316.52543018199503 157.16637413203716 12875.90098576434
leaf_count=12003 3897 5945 13926 11746 56996 75705 176926 8078 23680 10393 6949 7330 10223 12374 8537 3135 22036 10665 4033 3628 7658 14581 6259 3006 2367 64751 18066 7662 1231 94484 5768 7876 6890 958208
internal_value=0 -0.0924507 0.556999 0.0367114 -0.0263381 0.00176044 0.0234677 -0.0394014 -0.0675227 0.300211 0.219947 0.141192 0.388032 -0.46623 0.0595254 -0.28259 0.586679 0.440665 -0.577812 -0.591811 -0.678657 0.294464 0.503268 -0.572591 -0.601574 -0.424083 0.60265 0.453349 -0.613579 -0.509559 -0.624327 -0.725854 -0.62187 -0.612685
internal_weight=0 77476.8 209881 61192.8 49374.2 46409.9 44729.9 33880.5 32022.6 11818.6 10849.5 9265.96 31384.7 2964.3 4365.46 1409.97 178497 7453.12 16284.1 15976.7 1960.12 4448.71 28743.5 1680 15835.7 1031.42 149753 22124 14804.3 1437.46 13366.8 657.431 1509.22 13079.4
internal_count=1687012 1596837 90175 458470 391537 365560 279959 208684 200606 66933 71275 64326 31811 25977 29941 21404 58364 36992 1138367 1134470 20032 25246 18262 85601 1130842 68784 40102 17885 1062058 95715 966343 18269 82595 963976
is_linear=0
shrinkage=0.6


Tree=3
num_leaves=27
num_cat=0
split_feature=222 221 220 221 206 198 208 2 183 117 222 17 134 195 135 223 220 199 222 215 187 220 220 7 0 222
split_gain=40885.1 7352.34 2310.97 1210.06 1108.74 1115.42 1319.82 1443.19 1430.48 1176.54 933.72 921.82 897.354 799.753 633.687 626.952 594.181 567.767 503.425 520.128 468.66 146.525 98.083 31.507 23.4733 21.0757
threshold=14.500000000000002 0.35914473235607153 1.0000000180025095e-35 0.74227938055992138 3.5000000000000004 2.5000000000000004 19.500000000000004 1.0000000180025095e-35 20.500000000000004 13.500000000000002 8.5000000000000018 0.21575700491666797 5.3666667938232431 545403.50000000012 1.0000000180025095e-35 228.50000000000003 0.10127433389425279 4.5000000000000009 64.500000000000014 92.500000000000014 7.5000000000000009 1.4064263701438906 1.2063820362091067 674.50000000000011 54.000000000000007 2.5000000000000004
decision_type=2 2 2 2 2 2 2 2 2 2 2 2 2 2 2 2 2 2 2 2 2 2 2 2 2 2
left_child=2 18 15 4 5 6 8 13 11 14 21 -3 -10 -8 -7 -1 -9 -6 19 -2 -16 -4 -12 24 -20 -23
right_child=1 3 10 -5 17 9 7 16 12 -11 22 -13 -14 -15 20 -17 -18 -19 23 -21 -22 25 -24 -25 -26 -27
leaf_value=0.14956013606041332 -0.55990830440221706 -0.1312074010858737 0.52943173838180102 0.25285234776208193 0.51976560825883844 0.46838377786205326 0.5230789484217313 -0.43541165180484359 -0.074897906206706125 -0.43681514492733553 0.38290153918831271 0.27337914494605769 -0.60284576627741271 0.10340029817974486 0.23180190480326565 0.4041586227194186 0.11306565880897557 0.078868032386019471 -0.23960196028959216 0.17524027331417491 -0.014410878489555174 0.60258601823635904 0.47410169181376483 -0.11286819231192838 -0.60402823474685874 0.5743418099299612
leaf_weight=6248.4145844429731 698.7202315358445 18511.013027393725 19592.766015790403 7386.8580502169207 2016.6839227811433 2094.6027906569652 2220.2388900807127 2178.7040760740638 1718.1279965704307 1271.5498142228462 9443.5503296749666 2267.2126664007083 3647.0066458638757 6258.6681404155679 5528.511960785836 8013.5234221378341 1040.9896110258996 2229.4528903472237 99.433957242872566 669.39918709360063 5558.9073848270345 39748.963125348091 9162.1398774329573 64.748917300719768 8003.0533508248627 27164.568477489986
leaf_count=12161 16589 177947 13678 11604 6193 9259 13766 33950 13410 13348 10918 12204 50992 42980 30281 7563 2801 12122 11732 12302 44786 12192 8205 3683 1087490 14856
internal_value=0 -0.0487163 0.520146 0.0245701 -0.00523154 -0.0292315 -0.0834244 0.0839058 -0.158404 0.112447 0.550934 -0.0868656 -0.434549 0.213908 0.16581 0.292913 -0.257383 0.289344 -0.540028 -0.199123 0.108181 0.57729 0.428097 -0.596617 -0.600068 0.591214
internal_weight=0 73463.9 119374 63928.5 56541.7 52295.5 37842 11698.6 26143.4 14453.6 105112 20778.2 5365.13 8478.91 13182 14261.9 3219.69 4246.14 9535.36 1368.12 11087.4 86506.3 18605.7 8167.24 8102.49 66913.5
internal_count=1687012 1607439 79573 475643 464039 445724 348050 93497 254553 97674 59849 190151 64402 56746 84326 19724 36751 18315 1131796 28891 75067 40726 19123 1102905 1099222 27048
is_linear=0
shrinkage=0.6


Tree=4
num_leaves=34
num_cat=0
split_feature=222 222 220 47 209 190 199 189 193 3 176 221 25 144 221 221 220 3 223 0 220 190 192 114 221 123 148 222 215 123 223 220 222
split_gain=23817.5 4347.49 1940 1124.05 997.973 842.063 910.288 795.44 881.265 756.697 817.82 629.975 1076.95 631.106 627.447 605.523 923.975 890.974 639.705 599.763 564.268 558.18 1009.39 624.138 544.857 526.69 462.983 458.403 447.625 117.86 67.5503 262.407 47.2211
threshold=12.500000000000002 84.500000000000014 0.70776656270027172 6.5000000000000009 1.0000000180025095e-35 2.5000000000000004 5.5000000000000009 8.5000000000000018 428.00000000000006 3.5000000000000004 3.5000000000000004 0.65080079436302196 1.0000000180025095e-35 23.500000000000004 0.74227938055992138 0.38180252909660345 -3.727313637733459 1026.0000000000002 185.50000000000003 116146.50000000001 -0.67237588763236988 1.5000000000000002 3.5000000000000004 0.034153500571846969 0.53148251771926891 1.0714285969734194 79.500000000000014 6.5000000000000009 91.500000000000014 2.4500000476837163 178.50000000000003 -3.5047898292541499 2.5000000000000004
decision_type=2 2 2 2 2 2 2 2 2 2 2 2 2 2 2 2 2 2 2 2 2 2 2 2 2 2 2 2 2 2 2 2 2
left_child=2 3 14 4 5 6 21 -7 -9 10 -8 12 -5 -14 -1 30 -17 18 -18 28 -10 23 -23 -2 -21 -11 29 32 -15 -20 31 -3 -4
right_child=1 15 27 11 -6 7 9 8 20 25 -12 -13 13 19 -16 16 17 -19 26 24 -22 22 -24 -25 -26 -27 -28 -29 -30 -31 -32 -33 -34
leaf_value=0.14197186739893899 0.21332472475855699 -0.52372111477834571 0.58599707250511879 0.57869467057721835 0.42064393485285051 -0.57859996205452635 0.10768688019899347 -0.54330816729593723 -0.16780438949658014 -0.728660410001846 -0.34566828107348552 0.2723689955218383 -0.33045545071111165 0.075461256467469429 0.38964998778696974 0.98954594921826522 0.59961723273812151 0.98858260402171094 -0.64882203053509058 -0.092292565275087154 0.15918123777199825 0.2662807204261769 -0.1746223781088824 -0.074184114942004706 0.29305016245735871 -0.15227381555814387 0.3281724578880621 0.43075558025380095 -0.39246806594703137 -0.066361668584200006 -0.60438676706679306 1.0459717411037128 0.53779471397807732
leaf_weight=6017.3294736216776 11236.969820498955 227.36418289132416 24435.043122802395 1282.5803326000459 1781.4018470214214 1551.9499111385085 4175.1077026387211 1450.1826877060812 4665.8129372794647 1179.0374098871835 2170.0843892840203 8764.3572365567088 1752.6836997356731 1445.5570601150393 9696.3473385935649 201.13364105368964 194.6258874789346 166.09758198959753 1812.2072312873788 1922.8283355736639 3191.140227658907 2635.0902548485901 6375.5564212372992 3565.4143859625328 4136.0069709590171 1135.6199234339874 203.421503291931 11740.760920615401 1473.6041606005747 146.86149540310726 4331.9644807688892 39.108157323440537 15440.690316176973
leaf_count=12340 53010 55430 14086 4230 7334 15076 23449 11280 49637 12410 19080 14685 16339 8481 12235 2459 5325 626 114565 28025 9206 12095 44674 17934 12996 6476 3687 15425 11172 6492 1047640 4229 14884
internal_value=0 -0.0141641 0.480218 0.0345556 -0.0185787 -0.0367539 0.0115456 -0.181355 -0.114491 -0.154874 -0.0471331 0.150022 0.060448 -0.00154772 0.295067 -0.452567 -0.226091 -0.326225 -0.422343 0.0625515 -0.034641 0.0722012 -0.0452966 0.143893 0.170353 -0.448173 -0.516989 0.536491 -0.16018 -0.606848 -0.585684 -0.265122 0.567485
internal_weight=0 73213.8 67330.2 65891 45113.4 43332 32472.9 10859.1 9307.14 8659.85 6345.19 20777.6 12013.3 10730.7 15713.7 7322.78 2724.35 2523.21 2357.12 8978 7856.95 23813 9010.65 14802.4 6058.84 2314.66 2162.49 51616.5 2919.16 1959.07 4598.44 266.472 39875.7
internal_count=1687012 1618042 68970 377589 281661 274327 189128 85199 70123 61415 42529 95928 81243 77013 24575 1240453 133154 130695 130069 60674 58843 127713 56769 70944 41021 18886 124744 44395 19653 121057 1107299 59659 28970
is_linear=0
shrinkage=0.6


Tree=5
num_leaves=25
num_cat=0
split_feature=222 222 220 138 220 8 193 221 144 5 220 215 157 221 179 46 215 42 222 221 222 17 201 220
split_gain=13432.3 2593.86 1324.43 943.061 900.397 798.652 1092.04 930.963 794.946 947.939 614.557 511.905 460.803 417.291 362.408 354.417 318.922 215.015 216.643 201.069 129.838 83.1388 130.54 46.1915
threshold=8.5000000000000018 98.500000000000014 0.70776656270027172 153.50000000000003 1.0228146910667422 0.54433849453926098 486.50000000000006 0.61718866229057323 10.500000000000002 6.5000000000000009 -0.99611312150955189 97.500000000000014 0.058806501328945167 0.51706627011299144 3.5357142686843877 11.500000000000002 71.500000000000014 0.092349000275135054 14.500000000000002 0.52655133605003368 2.5000000000000004 0.22208250313997271 42.000000000000007 2.1860108375549321
decision_type=2 2 2 2 2 2 2 2 2 2 2 2 2 2 2 2 2 2 2 2 2 2 2 2
left_child=4 2 3 5 -1 11 7 14 10 -10 -8 12 -2 15 -7 21 -17 18 -4 -14 -6 -3 -23 -22
right_child=1 13 17 -5 20 6 8 -9 9 -11 -12 -13 19 -15 -16 16 -18 -19 -20 -21 23 22 -24 -25
leaf_value=0.30226807268004713 -0.18420788071517885 -0.61077573455349354 0.24568133222947128 -0.46376735900661276 0.57083432297500625 -0.34205271572363499 -0.49923648077694627 -0.056139661175403074 -0.37164609944102539 0.062850481316535908 -0.054915496319877077 0.55167096141240379 0.097226732593838266 0.084355954395863672 -0.86178903522774319 0.72989267444759887 -0.57050186047690432 0.29436281172283169 0.052060011287056722 0.47577363914808307 0.43778677130310895 0.64589837322978083 -0.55376128228153987 0.5236083674924451
leaf_weight=8610.9835425796919 1153.677446550224 3037.1569401839515 3924.9944837517105 1530.6382228528382 13295.419948624214 1047.9948112296406 1711.0666986102005 2795.3710189796984 1880.9183569431771 42258.613852519426 3277.4146734187379 1415.4960982027696 1039.0808534717653 431.43589751038235 954.25621760007925 141.23636632261332 118.46602031413931 5720.4014118718915 4519.4192159734666 1025.5432765653823 5882.5331323402934 46.056059892755002 78.793623737525195 5309.8263124264777
leaf_count=15990 10585 1096065 8018 17105 13370 10353 22253 8581 15973 297653 12007 10898 20768 12505 12727 3935 33269 10409 10722 1559 10955 4652 19221 7439
internal_value=0 0.0141504 0.0391061 0.000150094 0.470237 0.012369 -0.00813545 -0.281205 0.0185097 0.0442259 -0.208278 0.251249 0.11749 -0.465383 -0.592965 -0.535496 0.127304 0.204107 0.142483 0.287395 0.529103 -0.590909 -0.0814506 0.479005
internal_weight=0 78108 74254.9 60090.1 33098.8 58559.4 53925.6 4797.62 49128 44139.5 4988.48 4633.8 3218.3 3853.14 2002.25 3421.71 259.702 14164.8 8444.41 2064.62 24487.8 3162.01 124.85 11192.4
internal_count=1687012 1639258 469611 440462 47754 423357 379547 31661 347886 313626 34260 43810 32912 1169647 23080 1157142 37204 29149 18740 22327 31764 1119938 23873 18394
is_linear=0
shrinkage=0.6


Tree=6
num_leaves=33
num_cat=0
split_feature=222 4 221 222 222 112 171 223 222 38 190 173 210 126 154 220 210 222 212 211 191 220 220 46 16 221 114 6 222 141 221 220
split_gain=7056.78 1983.09 1603.61 1031.6 1210.8 942.643 799.005 688.72 1083.26 1053.83 961.887 942.458 751.329 610.039 527.718 526.512 496.281 405.011 395.121 384.539 289.593 844.399 220.671 220.21 352.805 219.732 383.107 85.7792 64.2687 47.6584 33.1563 10.761
threshold=6.5000000000000009 54.500000000000007 0.46147614717483526 22.500000000000004 68.500000000000014 0.029595499858260158 0.0098480000160634535 310.50000000000006 22.500000000000004 0.77500000596046459 2.5000000000000004 5.5000000000000009 159.50000000000003 0.12003700062632562 0.28420700132846838 1.4064263701438906 4.5000000000000009 26.500000000000004 80.500000000000014 3.5000000000000004 1.5000000000000002 -2.8406420946121211 -1.287821292877197 10.500000000000002 0.029768499545753006 0.71458780765533458 0.020715499296784404 1.0000000180025095e-35 2.5000000000000004 0.0099570001475512999 0.34084910154342657 -5.0701460838317862
decision_type=2 2 2 2 2 2 2 2 2 2 2 2 2 2 2 2 2 2 2 2 2 2 2 2 2 2 2 2 2 2 2 2
left_child=15 2 3 -2 5 13 -4 11 25 12 -11 14 -10 -5 -8 -1 -15 -3 -16 22 23 -22 -13 29 -25 26 -9 -27 -17 -6 31 -19
right_child=1 17 6 4 20 -7 7 8 9 10 -12 19 -14 16 18 28 -18 30 -20 -21 21 -23 -24 24 -26 27 -28 -29 -30 -31 -32 -33
leaf_value=0.28925009081265479 -1.0398413108814599 -2.1492567210813811 -0.31929888197686868 0.49829023792265792 -0.32117036810213201 -0.69113386740730176 -0.40944672968931939 0.22315285238974805 0.043742426644287805 -0.38800648802479748 0.040397454453176392 -0.082327179559456676 0.42390890971106587 0.28936151079500749 -0.24067055269429344 0.55016060284469104 -0.17629194838743012 -0.0018861568294621027 -0.00038003729067309227 0.28688582533266815 -0.59490822562952128 1.2670998151655632 0.16299699438642473 0.68272111564836591 -0.600416871891429 0.32385491285196416 0.0040175017166295124 0.21292530876635876 0.44983730235029556 -0.61545460719935208 -0.96181363455331736 -0.555846078980617
leaf_weight=5873.7803533027181 511.87312147859484 132.90268086548895 2010.6441045652027 1064.7501617976232 285.65662089531543 606.16158676950727 1930.4229197986424 7636.351044222014 10635.778564455919 3721.879134427174 3797.8164010696928 2862.9002258680994 2271.3655718911905 1246.2171680852771 3489.5954370712861 7066.7653970853426 2398.9154874272645 31.713276012684219 8417.9025867777527 3493.5656371604418 254.01308103342308 125.93511201092042 2429.7959239595803 130.96835005778121 169.53349403751781 4454.3156597195193 4641.3884139682632 6545.5768232210539 4435.9897523286054 2211.3128288028529 209.93009589996655 38.541817098623142
leaf_count=13934 3002 1344 14351 10827 113947 19916 10722 13034 77383 33094 23891 13748 11475 17043 17973 12192 39976 17128 36699 10910 127879 7186 6310 7855 41551 7513 11389 13915 11018 922445 6473 10889
internal_value=0 0.0140511 0.0211376 -0.216714 -0.166074 0.0086766 0.0525357 0.0638759 0.10787 0.00688982 -0.171436 -0.0209997 0.111019 0.100092 -0.118661 0.436962 -0.0161478 -1.2872 -0.0711094 0.132487 -0.458721 0.0258592 0.0298581 -0.52539 -0.0300801 0.196344 0.140571 0.258242 0.511964 -0.583722 -0.831391 -0.360749
internal_weight=0 77757.7 77344.6 9005.34 8493.46 5316.04 68339.3 66328.7 43704.5 20426.8 7519.7 22624.2 12907.1 4709.88 13837.9 17376.5 3645.13 413.088 11907.5 8786.26 3177.42 379.948 5292.7 2797.47 300.502 23277.6 12277.7 10999.9 11502.8 2496.97 280.185 70.2551
internal_count=1687012 1649868 1614034 1311627 1308625 87762 302407 288056 191694 145843 56985 96362 88858 67846 65394 37144 57019 35834 54672 30968 1220863 135065 20058 1085798 49406 45851 24423 21428 23210 1036392 34490 28017
is_linear=0
shrinkage=0.6


Tree=7
num_leaves=25
num_cat=0
split_feature=222 220 220 19 1 4 210 5 18 220 5 201 114 172 125 135 169 8 43 220 124 113 222 4
split_gain=3376.99 1008.47 802.136 657.107 664.101 679.879 1596.37 908.256 551.941 481.875 713.396 413.898 468.96 413.578 363.81 321.742 612.222 454.439 282.229 239.75 190.508 82.558 70.5392 20.2987
threshold=4.5000000000000009 -4.6516494750976554 1.6198124885559084 504.50000000000006 7040.0000000000009 52.500000000000007 1.5000000000000002 80.500000000000014 22.500000000000004 -2.0281057357788081 212.50000000000003 274.00000000000006 0.043040499091148383 1.5000000000000002 2.7083333730697636 1.0000000180025095e-35 0.020725999958813194 0.55055350065231334 0.019204000011086467 1.6198124885559084 4.7750000953674325 0.036422500386834152 36.500000000000007 83.000000000000014
decision_type=2 2 2 2 2 2 2 2 2 2 2 2 2 2 2 2 2 2 2 2 2 2 2 2
left_child=19 21 3 4 5 6 8 -8 -3 10 -7 12 15 -11 18 17 -17 -5 20 -1 -13 22 -2 -24
right_child=1 2 -4 11 -6 9 7 -9 -10 13 -12 14 -14 -15 -16 16 -18 -19 -20 -21 -22 -23 23 -25
leaf_value=0.28004811887029119 -1.0590948827102427 -0.087049395948984518 0.24671304156118967 0.59169235582289093 0.4503026533973663 -0.048005933986260289 -0.54814966695101608 -0.078377267790658248 0.41143778475669013 -0.01168654591780313 -0.89329963596512008 -0.47383232773957346 -0.51110964365420308 0.11491565172367085 0.0035839216160842295 -0.33982628107522833 0.061801043029812652 -0.11174249430735764 -0.21858727877798995 0.49011131008807185 -1.0658442903483263 0.24721861566803502 -0.57534435566974673 0
leaf_weight=3238.4396696496988 141.01902867667377 1340.8592247767665 5409.7036212839885 664.83484075427987 1323.2501432836289 7068.2114330320328 2967.7843824683223 2987.2891220754536 1941.3649885179766 13692.027953291632 373.30085722068907 465.90551164990757 779.56975759085617 28640.169186994463 649.07942117674975 2123.9839501935639 3785.4492505021917 638.30583010372357 638.61553175421432 5409.6761042989674 395.16384667952661 31.516014559369069 703.22160523303319 31.836955955252051
leaf_count=9809 1401 10385 15563 9809 10246 308363 72317 56658 11048 68312 39171 31516 12172 128505 12643 43912 90887 9225 7645 16724 20755 10959 670387 18600
internal_value=0 0.0166054 0.0241819 0.00704262 0.030834 0.0213368 -0.128026 -0.313264 0.207212 0.049122 -0.0914726 -0.134178 -0.0707836 0.0739091 -0.367862 -0.0224272 -0.0823115 0.246221 -0.529734 0.412011 -0.754241 -0.609844 -0.645189 -0.554027
internal_weight=0 76792.5 75884.9 70475.2 60334.3 59011 9237.3 5955.07 3282.22 49773.7 7441.51 10140.9 7992.14 42332.2 2148.76 7212.57 5909.43 1303.14 1499.68 8648.12 861.069 907.594 876.078 735.059
internal_count=1687012 1660479 959132 943569 705005 694759 150408 128975 21433 544351 347534 238564 166005 196817 72559 153833 134799 19034 59916 26533 52271 701347 690388 688987
is_linear=0
shrinkage=0.6


Tree=8
num_leaves=39
num_cat=0
split_feature=221 170 109 17 201 2 0 208 176 192 215 212 192 1 222 18 168 201 208 189 144 47 122 129 193 179 143 31 199 221 116 32 223 222 155 155 195 223
split_gain=1547.76 648.881 543.021 585.824 545.991 575.383 593.262 687.008 525.408 502.118 460.581 458.126 572.741 471.084 395.144 386.302 369.971 348.154 336.869 333.183 380.596 357.558 410.478 366.566 329.42 279.276 270.78 250.882 248.826 430.653 237.202 232.987 218.059 170.267 168.967 163.652 112.461 68.8301
threshold=0.81168553233146679 0.0038974999915808444 1.5000000000000002 0.078134499490261092 254.50000000000003 1.0000000180025095e-35 1088.0000000000002 34.500000000000007 4.5000000000000009 12.500000000000002 79.500000000000014 36.500000000000007 2.5000000000000004 344.50000000000006 2.5000000000000004 758.50000000000011 0.24470350146293643 233.50000000000003 3.5000000000000004 17.500000000000004 37.500000000000007 4.5000000000000009 0.77500000596046459 0.05708791688084603 428.00000000000006 17.071428298950199 0.16033250093460086 0.075497500598430647 4.5000000000000009 0.65080079436302196 5.5000000000000009 1.5000000000000002 367.50000000000006 32.500000000000007 0.018853000365197662 0.016863499768078331 523056.50000000006 153.50000000000003
decision_type=2 2 2 2 2 2 2 2 2 2 2 2 2 2 2 2 2 2 2 2 2 2 2 2 2 2 2 2 2 2 2 2 2 2 2 2 2 2
left_child=1 34 3 19 8 11 -7 -8 10 24 16 12 -6 -13 -2 -12 -5 -11 30 21 -21 22 23 -3 -10 26 -23 33 -20 31 -4 -30 -16 -22 36 -33 37 -1
right_child=14 2 18 4 5 6 7 -9 9 17 15 13 -14 -15 32 -17 -18 -19 28 20 27 25 -24 -25 -26 -27 -28 -29 29 -31 -32 35 -34 -35 -36 -37 -38 -39
leaf_value=0 0.41671752304959347 -0.032413029755491631 -0.54899532876375134 -0.023064914035875433 -0.91455309585734512 0.31524980496314531 -0.44984444610540492 0.14389914392158926 -0.55342155145919947 -0.38650716353110498 0.15512943618028002 -0.28732636515819748 -0.11992923359384465 0.11267758220735144 0.028308260655726496 -0.2679319222036553 -0.59609182729214472 0.0012868389624344054 0.15796515838705788 -0.78317362458833506 0.060356367060177593 0.50644611910454951 -0.52194707220105574 0.22647531011048488 0.044276644580858358 -0.047047354515781327 0.18668250245046353 0.60105223165312982 -0.76485879690951497 0.0022519209292518791 -0.1377683413386451 0.030882766188648714 0.2488699494948422 -0.74069953247310116 -0.083506996689455701 -0.45203208000729933 -1.0619989020448162 -0.76801293729421027
leaf_weight=79.864687814319041 3419.4064529963071 3491.8788346207875 1066.9117973150569 2111.2392690474953 374.46610093580966 556.97353252532776 3652.6026745677373 857.13617595696996 339.50766244232364 2306.8263824413589 16351.624877152964 1241.2583219795488 2415.9137448517431 6973.5281413286866 2617.6257802784676 805.85755116055952 499.35985313921992 1281.691692149383 1324.1711386078532 285.53577647170459 262.72552795289084 2044.1995607234712 377.60340261159581 4457.8266715719365 8165.2909853351885 724.47600881294056 1868.3910069474223 194.65473149679019 444.67964678812132 2658.2434212767403 1004.2566658653232 442.24863899518095 4333.7236047643819 138.75216388318222 162.05867798898544 552.45905551545729 269.13050470635062 70.593839819732239
leaf_count=1036 14802 101960 10114 67897 44585 9143 157241 33765 8092 81545 204210 21247 92071 185132 10433 66206 23550 35114 7424 12798 694 28735 7009 98405 215772 11161 15884 859 10432 7683 7633 8003 14294 25404 3854 11337 11761 19727
internal_value=0 0.000939397 0.00630343 0.024845 -0.00650911 -0.0966974 -0.263919 -0.336368 0.0389118 -0.059442 0.099214 -0.0193646 -0.229302 0.0517445 0.249316 0.135016 -0.134836 -0.247503 -0.146114 0.133534 -0.221035 0.157945 0.0830387 0.112491 0.0197209 0.291604 0.354959 0.049125 -0.0667114 -0.140089 -0.351879 -0.403671 0.166293 -0.21707 -0.626737 -0.235828 -0.826078 -0.361898
internal_weight=0 69853.9 69272.3 61779.3 47933.3 16071.9 5066.71 4509.74 31861.4 12093.3 19768.1 11005.2 2790.38 8214.79 10370.8 17157.5 2610.6 3588.52 7492.97 13846 881.668 12964.4 8327.31 7949.71 8504.8 4637.07 3912.59 596.132 5421.8 4097.63 2071.17 1439.39 6951.35 401.478 581.648 994.708 419.589 150.459
internal_count=1687012 1647483 1611105 1548479 1245570 543184 200149 191006 702386 340523 361863 343035 136656 206379 39529 270416 91447 116659 62626 302909 39755 263154 207374 200365 223864 55780 44619 26957 44879 37455 17747 29772 24727 26098 36378 19340 32524 20763
is_linear=0
shrinkage=0.6


end of trees

feature_importances:
Column_222=46
Column_220=30
Column_221=28
Column_223=12
Column_215=8
Column_5=5
Column_195=5
Column_1=4
Column_4=4
Column_8=4
Column_16=4
Column_47=4
Column_193=4
Column_201=4
Column_208=4
Column_0=3
Column_2=3
Column_3=3
Column_17=3
Column_114=3
Column_138=3
Column_144=3
Column_189=3
Column_190=3
Column_192=3
Column_199=3
Column_210=3
Column_18=2
Column_43=2
Column_46=2
Column_112=2
Column_122=2
Column_123=2
Column_135=2
Column_148=2
Column_155=2
Column_172=2
Column_173=2
Column_176=2
Column_179=2
Column_183=2
Column_198=2
Column_206=2
Column_207=2
Column_211=2
Column_212=2
Column_6=1
Column_7=1
Column_19=1
Column_25=1
Column_31=1
Column_32=1
Column_33=1
Column_38=1
Column_42=1
Column_45=1
Column_109=1
Column_113=1
Column_116=1
Column_117=1
Column_124=1
Column_125=1
Column_126=1
Column_129=1
Column_134=1
Column_136=1
Column_141=1
Column_142=1
Column_143=1
Column_154=1
Column_157=1
Column_168=1
Column_169=1
Column_170=1
Column_171=1
Column_182=1
Column_187=1
Column_191=1
Column_209=1

parameters:
[boosting: gbdt]
[objective: binary]
[metric: binary_logloss]
[tree_learner: serial]
[device_type: cpu]
[data: ]
[valid: ]
[num_iterations: 10]
[learning_rate: 0.6]
[num_leaves: 64]
[num_threads: 0]
[deterministic: 0]
[force_col_wise: 0]
[force_row_wise: 0]
[histogram_pool_size: -1]
[max_depth: 8]
[min_data_in_leaf: 8590]
[min_sum_hessian_in_leaf: 30.7]
[bagging_fraction: 1]
[pos_bagging_fraction: 1]
[neg_bagging_fraction: 1]
[bagging_freq: 0]
[bagging_seed: 3]
[feature_fraction: 1]
[feature_fraction_bynode: 1]
[feature_fraction_seed: 2]
[extra_trees: 0]
[extra_seed: 6]
[early_stopping_round: 5]
[first_metric_only: 0]
[max_delta_step: 0]
[lambda_l1: 4.4]
[lambda_l2: 6.2]
[linear_lambda: 0]
[min_gain_to_split: 5.6]
[drop_rate: 0.1]
[max_drop: 50]
[skip_drop: 0.5]
[xgboost_dart_mode: 0]
[uniform_drop: 0]
[drop_seed: 4]
[top_rate: 0.2]
[other_rate: 0.1]
[min_data_per_group: 100]
[max_cat_threshold: 32]
[cat_l2: 10]
[cat_smooth: 10]
[max_cat_to_onehot: 4]
[top_k: 20]
[monotone_constraints: ]
[monotone_constraints_method: basic]
[monotone_penalty: 0]
[feature_contri: ]
[forcedsplits_filename: ]
[refit_decay_rate: 0.9]
[cegb_tradeoff: 1]
[cegb_penalty_split: 0]
[cegb_penalty_feature_lazy: ]
[cegb_penalty_feature_coupled: ]
[path_smooth: 0]
[interaction_constraints: ]
[verbosity: -1]
[saved_feature_importance_type: 0]
[linear_tree: 0]
[max_bin: 255]
[max_bin_by_feature: ]
[min_data_in_bin: 3]
[bin_construct_sample_cnt: 200000]
[data_random_seed: 1]
[is_enable_sparse: 1]
[enable_bundle: 1]
[use_missing: 1]
[zero_as_missing: 0]
[feature_pre_filter: 0]
[pre_partition: 0]
[two_round: 0]
[header: 0]
[label_column: ]
[weight_column: ]
[group_column: ]
[ignore_column: ]
[categorical_feature: ]
[forcedbins_filename: ]
[precise_float_parser: 0]
[objective_seed: 5]
[num_class: 1]
[is_unbalance: 0]
[scale_pos_weight: 1]
[sigmoid: 1]
[boost_from_average: 1]
[reg_sqrt: 0]
[alpha: 0.9]
[fair_c: 1]
[poisson_max_delta_step: 0.7]
[tweedie_variance_power: 1.5]
[lambdarank_truncation_level: 30]
[lambdarank_norm: 1]
[label_gain: ]
[eval_at: 10]
[multi_error_top_k: 1]
[auc_mu_weights: ]
[num_machines: 1]
[local_listen_port: 12400]
[time_out: 120]
[machine_list_filename: ]
[machines: ]
[gpu_platform_id: -1]
[gpu_device_id: -1]
[gpu_use_dp: 0]
[num_gpu: 1]

end of parameters

pandas_categorical:null
