tree
version=v3
num_class=1
num_tree_per_iteration=1
label_index=0
max_feature_idx=223
objective=binary sigmoid:1
feature_names=Column_0 Column_1 Column_2 Column_3 Column_4 Column_5 Column_6 Column_7 Column_8 Column_9 Column_10 Column_11 Column_12 Column_13 Column_14 Column_15 Column_16 Column_17 Column_18 Column_19 Column_20 Column_21 Column_22 Column_23 Column_24 Column_25 Column_26 Column_27 Column_28 Column_29 Column_30 Column_31 Column_32 Column_33 Column_34 Column_35 Column_36 Column_37 Column_38 Column_39 Column_40 Column_41 Column_42 Column_43 Column_44 Column_45 Column_46 Column_47 Column_48 Column_49 Column_50 Column_51 Column_52 Column_53 Column_54 Column_55 Column_56 Column_57 Column_58 Column_59 Column_60 Column_61 Column_62 Column_63 Column_64 Column_65 Column_66 Column_67 Column_68 Column_69 Column_70 Column_71 Column_72 Column_73 Column_74 Column_75 Column_76 Column_77 Column_78 Column_79 Column_80 Column_81 Column_82 Column_83 Column_84 Column_85 Column_86 Column_87 Column_88 Column_89 Column_90 Column_91 Column_92 Column_93 Column_94 Column_95 Column_96 Column_97 Column_98 Column_99 Column_100 Column_101 Column_102 Column_103 Column_104 Column_105 Column_106 Column_107 Column_108 Column_109 Column_110 Column_111 Column_112 Column_113 Column_114 Column_115 Column_116 Column_117 Column_118 Column_119 Column_120 Column_121 Column_122 Column_123 Column_124 Column_125 Column_126 Column_127 Column_128 Column_129 Column_130 Column_131 Column_132 Column_133 Column_134 Column_135 Column_136 Column_137 Column_138 Column_139 Column_140 Column_141 Column_142 Column_143 Column_144 Column_145 Column_146 Column_147 Column_148 Column_149 Column_150 Column_151 Column_152 Column_153 Column_154 Column_155 Column_156 Column_157 Column_158 Column_159 Column_160 Column_161 Column_162 Column_163 Column_164 Column_165 Column_166 Column_167 Column_168 Column_169 Column_170 Column_171 Column_172 Column_173 Column_174 Column_175 Column_176 Column_177 Column_178 Column_179 Column_180 Column_181 Column_182 Column_183 Column_184 Column_185 Column_186 Column_187 Column_188 Column_189 Column_190 Column_191 Column_192 Column_193 Column_194 Column_195 Column_196 Column_197 Column_198 Column_199 Column_200 Column_201 Column_202 Column_203 Column_204 Column_205 Column_206 Column_207 Column_208 Column_209 Column_210 Column_211 Column_212 Column_213 Column_214 Column_215 Column_216 Column_217 Column_218 Column_219 Column_220 Column_221 Column_222 Column_223
feature_infos=[1:3.4028234663852886e+38] [0:271267] [0:2] [0:177949] [0:141] [0:29690] [0:9] [508:861] [0.50031602382659912:0.87444800138473511] [1:223] [1:9] [0:8] [0:58214] [0:9] [0:510.96185302734375] [0:0.44487801194190979] [0:0.44487801194190979] [0:0.44487801194190979] [0:751811] [0:751811] [0:1] [0:3] [0:16] [0:1] [0:1] [0:7] [0:54] [0:7] [0:3.6723120212554932] [0:0.40233799815177917] [0:0.40233799815177917] [0:0.40233799815177917] [0:920] [0:920] [0:1] [0:3] [0:16] [0:1] [0:1] [0:6] [0:13] [0:6] [0:0.79615402221679688] [0:0.40233799815177917] [0:0.40233799815177917] [0:0.40233799815177917] [0:86] [0:86] none [0:3] [0:16] [0:1] [0:1] [0:6] [0:8] [0:6] [0:0.57813602685928345] [0:0.40233799815177917] [0:0.40233799815177917] [0:0.40233799815177917] [0:17] [0:17] [0:1] [0:2] [0:16] [0:1] [0:1] [0:4] [0:80] [0:4] [0:11.898479461669922] [0:0.35846701264381409] [0:0.35846701264381409] [0:0.35846701264381409] [0:682] [0:682] [0:1] [0:2] [0:16] [0:1] [0:1] none none none none none none none none none none none [16:16] none none [0:4] [0:4] [0:4] [0:0.37730899453163147] [0:0.36747300624847412] [0:0.36747300624847412] [0:0.36747300624847412] [0:37] [0:37] [0:1] [0:2] [0:16] [0:1] [0:1] [0:7] [0:131] [0:7] [0:8.9034099578857422] [0:0.38528299331665039] [0:0.38528299331665039] [0:0.38528299331665039] [0:4031] [0:4031] [0:1] [0:3] [0:16] [0:1] [0:1] [1:7] [1:19405.333984375] [1:9] [0.0065135997720062733:172.79824829101562] [0.00035099999513477087:0.44487801194190979] [0.004081999883055687:0.44487801194190979] [0.0057274000719189644:0.44487801194190979] [1:751811] [1:751811] [0:1] [1:3] [0:16] [0:1] [0.30000001192092896:1] [1:24] [1:58216] [1:24] [0.018439000472426414:511.20938110351562] [0.00076800002716481686:2.3295578956604004] [0.0093040000647306442:2.3295578956604004] [0.018439000472426414:2.3295578956604004] [1:751811] [1:751811] [0:2] [1:12] [0:112] [0:7] [1:7] [1:8] [1:58214] [1:9] [0.014701999723911285:510.96185302734375] [0.00076800002716481686:0.44487801194190979] [0.0093040000647306442:0.44487801194190979] [0.014701999723911285:0.44487801194190979] [1:751811] [1:751811] [0:1] [1:3] [0:16] [0:1] [0.3333333432674408:1] [1:7] [1:14753] [1:9] [0.00076800002716481686:172.79824829101562] [3.600000127335079e-05:0.44487801194190979] [0.00076800002716481686:0.44487801194190979] [0.00076800002716481686:0.44487801194190979] [1:751811] [0:751811] [0:1] [1:3] [0:16] [0:1] [0.1111111119389534:1] [1:19405.333984375] [0.0054867500439286232:0.44487801194190979] [1:58216] [0.018439000472426414:0.44487801194190979] [1:57495] [1:2261] [0.0093040000647306442:0.44487801194190979] [3.600000127335079e-05:0.44487801194190979] [0:244] [0:7] [3:188] [1:18] [0:3] [0:20] [1:3.4028234663852886e+38] [0:608] [500146:878952] [0:1] none [0:18] [2:29] [0:2] [0:316] none [0:1] none none [2:7] [0:60] [0:5560] [0:2767] [0:29688] [0:24039] [0:100] [0:1] [0:1] [0:100] [0:1] [0:1] none [0:159] [-10.044095993041992:7.8806352615356445] [0:1] [0:437] [6:439]
tree_sizes=2161 3069 2844 2535 3179 2852 2867 3072 3174 2523

Tree=0
num_leaves=19
num_cat=0
split_feature=222 221 222 222 221 222 222 222 222 8 221 222 223 223 3 220 220 223
split_gain=6.5798e+06 56467.2 22661.9 40436.1 14316.1 12720.5 5398.39 5036.04 3327.85 2232.84 1699.13 1682.95 676.571 630.996 387.839 297.507 178.091 43.9393
threshold=26.500000000000004 0.64230337738990795 10.500000000000002 18.500000000000004 0.65064710378646862 34.500000000000007 32.500000000000007 22.500000000000004 14.500000000000002 0.56863650679588329 0.71903264522552501 42.500000000000007 177.50000000000003 243.50000000000003 1082.5000000000002 0.91879668831825267 0.91879668831825267 295.50000000000006
decision_type=2 2 2 2 2 2 2 2 2 2 2 2 2 2 2 2 2 2
left_child=2 5 16 8 7 9 -3 -5 15 -2 -10 12 -7 -11 -13 -4 17 -1
right_child=1 6 3 4 -6 11 -8 -9 10 13 -12 14 -14 -15 -16 -17 -18 -19
leaf_value=2.5593398958027205 -0.36045688605850978 0.86900560984340713 2.4526883375932766 0.8906986653541682 1.7370149837318083 -1.0948490296864404 -0.54851877001686944 -0.46489420031811957 2.0195110368560356 -0.94828342094543983 2.3770233478307183 -2.2825634672496204 -1.9576562751776558 -1.8761321044234363 -1.5358074051440265 2.5388731612842959 2.5964018016940478 2.5842829980585362
leaf_weight=51923.906835731119 917.61902980133891 1224.8262430727482 21855.536972660571 1731.4404741190374 4872.9755110144615 594.51678476855159 1585.4585118144751 1177.0204989388585 6284.567780174315 638.37535747513175 7003.5749056637287 75596.507910400629 1537.2164663299918 700.81052910909057 524.80563785135746 20833.312130123377 488825.41206757352 58216.611846808344
leaf_count=14017 10687 8374 14466 11593 16693 8458 19626 14094 14662 8743 6540 1439451 27468 12409 8641 6743 37277 7070
internal_value=2.03534 -2.1522 2.56187 2.27834 1.21113 -2.22922 0.0623342 0.334855 2.42686 -1.02563 2.2078 -2.26353 -1.73301 -1.45958 -2.27789 2.49492 2.59204 2.5726
internal_weight=0 83320.1 662724 63758.4 7781.44 80509.9 2810.28 2908.46 55977 2256.8 13288.1 78253 2131.73 1339.19 76121.3 42688.8 598966 110141
internal_count=1687012 1543857 143155 84791 42380 1515857 28000 25687 42411 31839 21202 1484018 35926 21152 1448092 21209 58364 21087
is_linear=0
shrinkage=1


Tree=1
num_leaves=27
num_cat=0
split_feature=222 221 193 222 179 220 222 3 112 148 0 207 171 0 0 221 222 221 18 222 128 223 18 220 0 220
split_gain=247370 17364.5 3037.13 3010.07 2626.7 2280.81 1969.95 1897.81 1104.74 1190.31 1172.33 1030.04 836.76 712.826 647.311 540.252 441.665 391.712 304.872 242.809 359.704 242.569 217.328 179.085 125.462 107.504
threshold=16.500000000000004 0.51660639047622692 58587.500000000007 8.5000000000000018 3.6904761791229252 1.0000000180025095e-35 12.500000000000002 1.0000000180025095e-35 0.057423498481512077 59.500000000000007 513798.50000000006 1.0000000180025095e-35 0.068185500800609603 23283173.000000004 116146.50000000001 0.73241716623306286 30.500000000000004 0.67724689841270458 31.500000000000004 22.500000000000004 0.27995499968528753 92.500000000000014 30.500000000000004 1.1030156612396242 54.000000000000007 1.3276799321174624
decision_type=2 2 2 2 2 2 2 2 2 2 2 2 2 2 2 2 2 2 2 2 2 2 2 2 2 2
left_child=3 19 4 25 12 8 23 11 9 10 -6 13 -3 17 -10 -8 -9 22 -7 -2 21 -21 -4 -5 -23 -1
right_child=1 2 7 6 5 18 15 16 14 -11 -12 -13 -14 -15 -16 -17 -18 -19 -20 20 -22 24 -24 -25 -26 -27
leaf_value=0.50975078516287164 -0.89192259212780955 0.54940708878400446 -0.74889574228864475 0.43158998184093478 -0.45427677929212279 0.038210578289339062 0.18161256040299539 -0.91810210364858513 -0.83531634055831006 0.2332140913625762 0.074743358313967362 0.10565832378144925 0.12901044435580178 -0.042470025989969386 -0.31217749759595664 0.35720382991035482 -0.4565261561805033 -0.20568336566800871 0.25155663907501435 -0.20921848782276478 -0.21031266119664441 -0.33399851580655554 -0.40449157427420307 0.4949751742391173 -0.55082469536401224 0.53270712766995476
leaf_weight=81049.972054298967 537.07651028782129 2534.4268566295505 1034.5839413516223 25114.955609835684 2817.4864827394485 3361.8218435384333 9055.675421051681 1244.8666346520185 979.12098371237516 1681.0239154025912 1645.0038455463946 2085.6270674206316 2272.553481284529 1623.8946223519742 1599.1037661209702 8761.4666151627898 1008.1196025907993 1103.346589744091 3417.720348380506 578.69879887998104 860.69202060624957 802.11299899220467 1009.579895246774 24364.110422737896 60203.631676185876 268433.45937711746
leaf_count=19037 3259 7117 13661 13857 29331 11524 13968 8671 12665 10336 11157 13386 14752 9776 14582 7237 14258 3963 8627 6849 12576 15754 11122 7359 1363471 28717
internal_value=0 -0.395496 -0.0781855 0.508708 0.029296 -0.070703 0.411502 -0.317924 -0.239826 -0.123502 -0.258796 -0.185987 0.35195 -0.314095 -0.514348 0.268278 -0.715677 -0.452688 0.14643 -0.543625 -0.540447 -0.544977 -0.582933 0.462953 -0.548077 0.527406
internal_weight=0 92400.5 29418.3 416780 20308.3 15501.3 67296.2 9110.02 8721.74 6143.51 4462.49 6857.03 4806.98 4771.41 2578.22 17817.1 2252.99 3147.51 6779.54 62982.2 62445.1 61584.4 2044.16 49479.1 61005.7 349483
internal_count=1687012 1596837 194928 90175 120091 98222 42421 74837 78071 50824 40488 51908 21869 38522 27247 21205 22929 28746 20151 1401909 1398650 1386074 24783 21216 1379225 47754
is_linear=0
shrinkage=0.5


Tree=2
num_leaves=25
num_cat=0
split_feature=222 222 222 222 5 4 8 221 223 3 140 47 221 5 221 172 220 215 220 220 223 145 8 180
split_gain=136213 14637.1 4096.84 1958.14 1727.32 1546.34 1077.91 977.879 1317.67 869.958 789.63 1083.98 770.533 674.82 650.498 647.653 578.452 357.51 242.337 182.73 164.004 157.486 36.8767 20.4796
threshold=16.500000000000004 46.500000000000007 8.5000000000000018 12.500000000000002 335.50000000000006 52.500000000000007 0.69937700033187877 0.58260565996170055 199.50000000000003 1255.5000000000002 0.51160851120948803 8.5000000000000018 0.74631580710411083 92.500000000000014 0.70716342329978954 9.5000000000000018 0.41218625009059912 93.500000000000014 1.1030156612396242 1.3276799321174624 115.50000000000001 44.500000000000007 0.67388850450515758 0.011519499588757755
decision_type=2 2 2 2 2 2 2 2 2 2 2 2 2 2 2 2 2 2 2 2 2 2 2 2
left_child=2 4 19 18 5 13 9 8 15 14 -9 12 -12 21 20 -7 -5 -10 -4 -1 -3 -2 23 -22
right_child=1 6 3 16 -6 7 -8 10 17 -11 11 -13 -14 -15 -16 -17 -18 -19 -20 -21 22 -23 -24 -25
leaf_value=0.47846599363874642 -0.41523085598976128 -0.16450650566867492 0.36764482202833459 0.084936716761906089 0.39726270710565037 -0.23056435749607426 0.38893503247267502 0.18885613576309676 -0.69054109535760577 0.14527678147738823 -0.2226819958275249 0.22194004408752468 0.11066530290759423 -0.11778289118555681 0.17986567688425129 0.23928790770957453 0.28750423836130584 -0.29696721419086081 0.45644246569166386 0.51454431259027411 -0.35235290133820546 -0.71850144822569084 -0.29760358041347335 -0.52810148566008575
leaf_weight=51545.248612647876 996.16805926896632 354.18572045862675 17192.943031232804 7043.9481109380722 2145.7411458306015 1366.3567253164947 327.19721646234393 5727.7466313578188 1098.6371330916882 491.73962588608265 6138.0332456938922 2956.6497765462846 2393.5230812672526 1451.3367270063609 321.80043254047632 1559.4659699182957 7184.4788277279586 1348.5292709637433 15706.379767190665 167006.16388900392 351.57982393354177 985.08161316998303 280.97037749178708 38887.99582474865
leaf_count=19037 8616 9547 13857 13313 7604 11707 7225 17791 17995 7364 32115 8361 5055 10276 1607 10225 7892 17552 7359 28717 12002 11529 9192 1391074
internal_value=0 -0.310401 0.477193 0.343137 -0.0327324 -0.0684407 -0.500961 -0.0207133 -0.20683 -0.508283 0.0372663 -0.0381251 -0.128768 -0.380697 -0.516389 0.0187421 0.187565 -0.476887 0.41025 0.50607 -0.522128 -0.570249 -0.525213 -0.526691
internal_weight=0 69182.7 265679 47127.7 28167.3 26021.5 41015.5 22588.9 5372.99 40688.3 17216 11488.2 8531.56 3432.59 40196.5 2925.82 14228.4 2447.17 32899.3 218551 39874.7 1981.25 39520.5 39239.6
internal_count=1687012 1596837 90175 42421 158826 151222 1438011 120801 57479 1430786 63322 45531 37170 30421 1423422 21932 21205 35547 21216 47754 1421815 20145 1412268 1403076
is_linear=0
shrinkage=0.5


Tree=3
num_leaves=22
num_cat=0
split_feature=222 221 222 207 221 195 220 173 223 145 130 222 6 184 211 32 130 220 220 223 8
split_gain=77911 13684.4 3079.56 1347.87 1195.29 1562.29 1618.84 1075.63 1072.75 1001.16 1038.16 802.807 727.322 640.385 581.859 561.618 504.622 300.512 295.677 76.8609 24.6057
threshold=14.500000000000002 0.51249787211418163 8.5000000000000018 2.5000000000000004 0.79685083031654369 549346.50000000012 -0.93787688016891468 5.5000000000000009 389.50000000000006 127.50000000000001 155.12500000000003 36.500000000000007 1.0000000180025095e-35 2.5000000000000004 3.5000000000000004 1.5000000000000002 3.0833333730697636 -3.3231934309005733 1.3276799321174624 72.500000000000014 0.67388850450515758
decision_type=2 2 2 2 2 2 2 2 2 2 2 2 2 2 2 2 2 2 2 2 2
left_child=2 11 18 4 5 9 7 16 -4 -3 -11 17 15 -14 -9 -8 -7 -2 -1 -13 -21
right_child=1 3 8 -5 -6 6 12 14 -10 10 -12 19 13 -15 -16 -17 -18 -19 -20 20 -22
leaf_value=0.44496282143224763 -0.37456560608493439 0.32129051894824628 0.16606153727310533 0.41847102005803621 0.28440448504037319 -0.11393922396115951 -0.089270257761492194 -0.31589560072679324 0.37319649091513557 -0.34639715742616567 0.23041967949709516 -0.14998288285598063 0.057362275407846254 -0.27509124272483393 0.14823526701532699 0.1869863732715675 -0.57170345626138175 -0.021912503130811892 0.50122076719399444 -0.51388168527381706 -0.36363435475441386
leaf_weight=33030.357050963677 1257.7735868133605 3859.6683111814782 9183.3121287589893 1844.5266743768007 2892.3815727680922 765.98516866657883 3009.7203956265002 1297.8142911735922 20187.146738131531 1560.3081199498847 1537.4982634121552 183.11219089664519 2275.8989516245201 3896.3208756456152 1379.2458882825449 4662.8077362626791 3276.105160693638 1195.9590181354433 103285.6676561255 23327.453964838758 526.37760446500033
leaf_count=19037 11164 19135 15649 9567 3818 8388 16019 14780 16170 16484 8430 3454 8884 24347 12156 18978 50473 10421 28717 1354981 15960
internal_value=0 -0.214141 0.455946 0.00445957 -0.0206631 -0.052925 -0.122296 -0.323528 0.308612 0.151542 -0.0592478 -0.480366 -0.0242526 -0.152084 -0.0758912 0.0782248 -0.486202 -0.204704 0.487643 -0.508284 -0.510842
internal_weight=0 58749 165686 32258.3 30413.8 27521.4 20563.9 6719.15 29370.5 6957.47 3097.81 26490.7 13844.7 6172.22 2677.06 7672.53 4042.09 2453.73 136316 24036.9 23853.8
internal_count=1687012 1607439 79573 211459 201892 198074 154025 85797 31819 44049 24914 1395980 68228 33231 26936 34997 58861 21585 47754 1374395 1370941
is_linear=0
shrinkage=0.5


Tree=4
num_leaves=28
num_cat=0
split_feature=222 221 220 222 220 195 207 223 191 16 221 221 222 210 18 221 1 30 7 222 126 223 220 0 222 156 222
split_gain=46032.3 10009.5 1917.46 932.448 860.794 778.726 791.464 906.592 707.488 700.329 665.936 632.749 545.819 482.743 445.804 405.728 329.11 298.155 454.726 1022 94.728 94.2442 244.262 133.127 16.5877 12.1948 11.6126
threshold=12.500000000000002 0.51249787211418163 0.41218625009059912 36.500000000000007 -0.36020496487617487 545403.50000000012 1.0000000180025095e-35 172.50000000000003 1.5000000000000002 0.055143499746918685 0.79685083031654369 0.69624882936477672 6.5000000000000009 71.500000000000014 3.5000000000000004 0.63472813367843639 1054.5000000000002 0.03287049941718579 611.50000000000011 18.500000000000004 0.3392037451267243 185.50000000000003 -4.1665298938751212 1671407.0000000002 2.5000000000000004 0.035330500453710563 42.500000000000007
decision_type=2 2 2 2 2 2 2 2 2 2 2 2 2 2 2 2 2 2 2 2 2 2 2 2 2 2 2
left_child=2 3 10 16 5 9 8 -8 11 13 -1 14 24 -3 -7 20 -2 -6 19 -19 -9 22 25 -24 -4 -5 -23
right_child=1 4 12 21 17 6 7 15 -10 -11 -12 -13 -14 -15 -16 -17 -18 18 -20 -21 -22 26 23 -25 -26 -27 -28
leaf_value=0.18143131294374865 -0.34928977995950089 -0.17587377493965164 0.49823189316697147 -0.27040869994509459 0.18905205071799516 -0.71799874808843223 0.40126681159798161 -0.49985298200311046 0.096131090757984788 0.38721376794807877 0.3866391492426845 -0.048062716093669439 0.39074281771680036 0.20205254074604997 -0.29888046063916895 0.065574797384813074 0.021335655451462765 0.12960109939947342 0.16140798371300566 -0.24593339368771325 -0.18003895417949578 -0.26686286713587176 0.16991250011316941 -0.33021876574043124 0.47394414110646743 -0.51517392034181253 -0.5106594480362775
leaf_weight=8488.6887963311747 1111.0047944365069 2019.1073356680572 41145.43136415584 150.24398446921259 5531.1956790061668 750.24205942125991 1320.1456960141659 523.10785293485969 1627.6669481247663 1526.9344722665846 7593.8571727937087 2393.2812570305541 18770.830877196044 1436.8060880270787 4711.2457851013169 1349.7848293082789 1252.7404812201858 4229.2256565652788 5277.0686908746138 3151.058739756234 513.61207146942616 135.95951820071787 258.71129017695785 248.6297880448401 26327.95707098674 1104.2128309672698 13039.24725651741
leaf_count=14456 12381 17740 14421 10855 14944 14774 4839 10724 11467 7906 6877 7443 17427 8218 67682 4334 9665 7490 15072 19662 9306 7961 13636 12382 15789 83311 1246250
internal_value=0 -0.133743 0.437962 -0.446699 0.0151529 -0.0616932 -0.125403 0.0697378 -0.202014 0.10622 0.278691 -0.264243 0.467593 -0.017707 -0.35815 -0.113155 -0.152196 0.0920971 0.0493692 -0.0304092 -0.347447 -0.492967 -0.372409 -0.0705051 0.488868 -0.490573 -0.508574
internal_weight=0 53661.2 102327 17300.7 36360.5 18171.9 13189.1 3706.65 9482.44 4982.85 16082.5 7854.77 86244.2 3455.91 5461.49 2386.5 2363.75 18188.5 12657.4 7380.28 1036.72 14937 1761.8 507.341 67473.4 1254.46 13175.2
internal_count=1687012 1618042 68970 1396441 221601 164433 130569 29203 101366 33864 21333 89899 47637 25958 82456 24364 22046 57168 42224 27152 20030 1374395 120184 26018 30210 94166 1254211
is_linear=0
shrinkage=0.5


Tree=5
num_leaves=25
num_cat=0
split_feature=222 222 220 6 221 207 1 16 223 193 222 221 25 183 8 222 147 187 221 19 222 52 180 42
split_gain=27996.6 6928.69 1274.15 1047.65 831.463 1042.58 886.055 590.847 533.505 520.417 449.534 1101.97 755.27 503.82 437.551 435.206 363.837 331.701 316.118 272.749 269.139 150.719 101.079 93.0399
threshold=10.500000000000002 66.500000000000014 0.56391096115112316 5.5000000000000009 0.58260565996170055 1.5000000000000002 3754.5000000000005 0.061548000201582916 198.50000000000003 3605.0000000000005 20.500000000000004 0.60655704140663158 1.5000000000000002 15.500000000000002 0.67388850450515758 18.500000000000004 2.5000000000000004 6.5000000000000009 0.68657270073890697 792.50000000000011 4.5000000000000009 0.63333335518836986 0.011519499588757755 0.048047499731183059
decision_type=2 2 2 2 2 2 2 2 2 2 2 2 2 2 2 2 2 2 2 2 2 2 2 2
left_child=2 4 -1 14 5 6 7 19 15 -9 18 -12 13 -13 22 -6 -11 -7 -10 21 -4 -2 -3 -20
right_child=1 3 20 -5 8 17 -8 9 10 16 11 12 -14 -15 -16 -17 -18 -19 23 -21 -22 -23 -24 -25
leaf_value=0.27034748651727758 -0.64361220110916484 -0.0075059523660985774 0.48255090966942366 0.65343591971496606 -0.25451456916034265 0.5075796489533374 0.2196061521532493 0.11802279653145349 0.02207672430869596 -0.11693114870037041 0.36545415975583284 0.10995428052120153 -0.31062224914071512 -0.19784289686596465 0.19172154246308687 0.02868489180067435 -0.53178104590706332 0.00049457586282832281 0.11872158194975428 -0.087698297778275314 0.40206367948933325 -0.25796687718588696 -0.5068616110933547 0.20763389725421699
leaf_weight=11378.135792230722 1497.9739707470872 115.93311680480838 34382.046118614729 196.9146257112734 2428.0282542202622 684.51436018501408 971.9745588474907 1108.910503518302 5652.1187446587719 1246.9321592734195 1634.4824807180557 4235.5055355811492 2526.7891649403609 1924.7352495859377 222.57114750472829 3016.6197293740697 951.47374121146277 626.43868458317593 5958.100541699212 367.92171401018277 16453.797559655737 362.15137078147382 9041.2169025370385 6476.3071913458407
leaf_count=17249 46000 11300 22274 3726 8264 8667 15791 17214 13609 27353 14449 19594 16623 12942 10723 15020 31233 12137 11227 7653 18841 8077 1307120 9926
internal_value=0 -0.0763358 0.422666 -0.459629 0.0117562 -0.13501 -0.217235 -0.294756 0.0457739 -0.158536 0.0733184 -0.00965431 -0.0809117 0.0131143 -0.483955 -0.0972368 -0.299396 0.269385 0.120826 -0.494047 0.45664 -0.571881 -0.500903 0.165407
internal_weight=0 51247.6 62214 9576.64 41671 7818.29 6507.34 5535.36 33852.7 3307.32 28408 10321.5 8687.03 6160.24 9379.72 5444.65 2198.41 1310.95 18086.5 2228.05 50835.8 1860.13 9157.15 12434.4
internal_count=1687012 1628648 58364 1332869 295779 174125 153321 137530 121654 75800 98370 63608 49159 32536 1329143 23284 58586 20804 34762 61730 41115 54077 1318420 21153
is_linear=0
shrinkage=0.5


Tree=6
num_leaves=25
num_cat=0
split_feature=222 221 220 47 192 210 221 110 7 44 169 180 222 223 3 212 222 8 123 212 30 220 136 220
split_gain=16202.2 4435.56 1473.45 734.405 607.483 566.06 521.048 1066.93 790.345 614.88 573.768 510.464 417.216 330.664 283.229 310.074 261.249 524.992 258.591 256.64 192.304 102.774 63.8817 24.5538
threshold=10.500000000000002 0.43157045543193823 0.41218625009059912 8.5000000000000018 9.5000000000000018 159.50000000000003 0.70716342329978954 1.5000000000000002 555.50000000000011 0.022210500203073028 0.011248500086367132 0.057188499718904502 4.5000000000000009 126.50000000000001 1.0000000180025095e-35 10.500000000000002 22.500000000000004 0.56720051169395458 1.2250000238418581 89.500000000000014 0.030879000201821331 -2.5615288019180293 0.43874999880790716 3.0631083250045781
decision_type=2 2 2 2 2 2 2 2 2 2 2 2 2 2 2 2 2 2 2 2 2 2 2 2
left_child=2 13 -1 5 19 6 7 8 10 -10 -3 18 23 -2 15 -9 -6 -18 -7 -5 -8 22 -15 -4
right_child=1 3 12 4 16 11 20 14 9 -11 -12 -13 -14 21 -16 -17 17 -19 -20 -21 -22 -23 -24 -25
leaf_value=0.18198214828133349 -0.094310333442921723 -0.14764978636585327 0.44176286470712528 0.46294603893084335 0.098714165218461436 0.40632313891492822 0.12494190913163572 0.016569254562407824 0.075988134719647382 -0.15582505342242983 -0.74531129566403187 -0.12735892719099529 0.34629782308316431 -0.0063013605994754716 -0.68710856984739999 -0.37955499701573031 0.18694735269459697 -0.49768686775159282 0.11209908426098178 0.18504801565903298 -0.012100801623390337 -0.036669292028741897 -0.5070208433552309 0.48701549389925924
leaf_weight=7805.1268467647023 615.3954904184211 1232.0935240827966 10309.010517550865 1441.1259707922582 2401.8405611943454 1470.1057264381088 4006.7545006643049 623.99377146339975 8788.8377730662469 4229.431889690808 605.02503362181596 1202.5689055141993 11659.874823800987 77.828417119337246 552.73284430243075 2102.6001284654485 489.46819644165225 619.53693463071249 1607.0393727461342 2140.5140215922147 6958.9272097968496 139.09040337125771 5241.1497049424797 11442.232511458453
leaf_count=15753 15898 20026 13832 7011 5078 9167 8411 8762 110255 57878 19775 13250 19866 13881 12057 39826 7501 19360 15516 18039 19091 15287 1192579 8913
internal_value=0 -0.0517791 0.378598 0.00797243 0.154039 -0.0230013 -0.048064 -0.10012 -0.0428 0.000373168 -0.348946 0.146407 0.424371 -0.44989 -0.35796 -0.28798 0.0052029 -0.193604 0.254494 0.298655 0.0377445 -0.48917 -0.500318 0.465911
internal_weight=0 46546.1 41216.2 40472.6 7092.49 33380.1 29100.4 18134.7 14855.4 13018.3 1837.12 4279.71 33411.1 6073.46 3279.33 2726.59 3510.85 1109.01 3077.15 3581.64 10965.7 5458.07 5318.98 21751.2
internal_count=1687012 1628648 58364 391003 56989 334014 296081 268579 207934 168133 39801 37933 42611 1237645 60645 48588 31939 26861 24683 25050 27502 1221747 1206460 22745
is_linear=0
shrinkage=0.5


Tree=7
num_leaves=27
num_cat=0
split_feature=222 220 220 112 208 220 3 154 1 5 137 198 220 0 222 223 25 222 170 193 212 116 159 5 222 220
split_gain=9521.37 3004.81 1108 724.787 626.162 574.956 567.69 505.279 765.673 678.706 473.295 462.765 453.032 393.604 366.865 370.004 281.373 329.688 435.728 186.456 203.387 154.006 204.712 53.6198 171.657 39.8235
threshold=6.5000000000000009 -4.1665298938751212 -1.0277773737907407 0.19464600086212161 166.50000000000003 1.8201550245285036 1.0000000180025095e-35 0.91202300786972057 3978.5000000000005 6.5000000000000009 5.5000000000000009 1.5000000000000002 1.3276799321174624 4623311.5000000009 16.500000000000004 72.500000000000014 1.5000000000000002 20.500000000000004 0.052598500624299056 486.50000000000006 93.500000000000014 46.500000000000007 526.50000000000011 16.500000000000004 28.500000000000004 3.0631083250045781
decision_type=2 2 2 2 2 2 2 2 2 2 2 2 2 2 2 2 2 2 2 2 2 2 2 2 2 2
left_child=12 14 3 4 7 6 16 8 9 -3 13 -8 -1 -9 -2 -16 19 -18 -19 -4 -21 23 -23 24 -17 -14
right_child=1 2 5 -5 -6 -7 11 10 -10 -11 -12 -13 25 -15 15 21 17 18 -20 20 -22 22 -24 -25 -26 -27
leaf_value=0.27703308522724984 -1.5146330369546133 -0.66308876228664859 0.019926014691256908 -0.77819156681702539 0.49780252555915516 0.2321604586956352 -0.21155894717427287 -0.31172267990038593 0.49566077614127901 -0.039419598768483395 -0.76564811899447971 0.056130892171939319 0.40859579192509754 0.073343422697607935 0.13350928199153639 0.310829024897535 0.082892107646582669 -0.36910076984643664 0.061362917494221618 0.24952998004910054 0.10567964380841519 -0.40110746254557211 0.97975811595230045 -0.51613850529530636 -0.49823281295408833 0.4719324810178826
leaf_weight=5991.9706587721594 74.288546903524548 446.91439716354944 2909.1934628661256 357.34537693846505 467.23082837206312 5139.8098262455314 3273.6641718925675 1972.2633668944472 633.47553441917989 10651.69834456034 394.94824721792247 3143.196688611526 6781.6907989893807 975.49780414544512 259.78757458925247 82.567522180266678 5075.6988339740783 1111.9809852797771 1209.3383617249783 4227.7008247512858 6209.4208526508883 58.028419606620446 34.4807630503783 2775.8420727170305 202.19140919542406 7825.7488244435517
leaf_count=12852 674 17584 12569 19912 2750 11001 17950 60191 10110 302755 17407 12337 14083 20781 4015 416 11501 11442 10978 13093 23600 20847 5777 985676 56502 10209
internal_value=0 -0.00684084 0.0255584 -0.0823643 -0.065709 0.0787897 0.0495792 -0.0836797 -0.0344207 -0.0653497 -0.255043 -0.0800448 0.39504 -0.183379 -0.454463 -0.426441 0.0898497 0.0111315 -0.144112 0.133201 0.164423 -0.473842 0.124185 -0.493278 -0.250369 0.443022
internal_weight=0 51686.6 48199.4 15899.4 15542 32300 27160.2 15074.8 11732.1 11098.6 3342.71 6416.86 20599.4 2947.76 3487.19 3412.9 20743.3 7397.02 2321.32 13346.3 10437.1 3153.11 92.5092 3060.6 284.759 14607.4
internal_count=1687012 1649868 575961 451490 431578 124471 113470 428828 330449 320339 98379 30287 37144 80972 1073907 1073233 83183 33921 22420 49262 36693 1069218 26624 1042594 56918 24292
is_linear=0
shrinkage=0.5


Tree=8
num_leaves=28
num_cat=0
split_feature=222 222 221 223 135 220 199 140 19 145 46 193 129 220 29 113 195 192 47 8 169 222 222 0 222 192 222
split_gain=5237.95 1926 584.953 522.163 396.313 676.048 490.023 431.003 414.281 451.67 406.267 381.072 373.242 329.424 305.601 358.464 289.249 282.548 260.974 260.707 260.24 247.31 163.08 158.645 102.467 97.3645 19.5755
threshold=6.5000000000000009 116.50000000000001 0.79685083031654369 282.50000000000006 0.22500000149011615 -2.7857772111892696 5.5000000000000009 0.85761100053787243 12.500000000000002 754.50000000000011 4.5000000000000009 3754.0000000000005 0.16379349678754809 -4.1665298938751212 0.012074000202119352 0.020041500218212608 548076.50000000012 3.5000000000000004 4.5000000000000009 0.55654951930046093 0.0071250000037252912 14.500000000000002 20.500000000000004 1457550.0000000002 2.5000000000000004 15.500000000000002 26.500000000000004
decision_type=2 2 2 2 2 2 2 2 2 2 2 2 2 2 2 2 2 2 2 2 2 2 2 2 2 2 2
left_child=3 2 4 -1 6 7 14 13 18 12 19 -11 -10 26 16 -16 20 -15 21 -8 -2 -7 -9 -20 -5 -24 -6
right_child=1 -3 -4 24 5 8 10 22 9 11 -12 -13 -14 17 15 -17 -18 -19 23 -21 -22 -23 25 -25 -26 -27 -28
leaf_value=0.18450429840634491 -0.13776216199900262 -0.50043290446038358 0.15035727708358138 0.4549927827589802 -0.78287697309778015 -0.038704508176212717 -0.05387724767353607 -0.99885406699337498 0.015872068232156675 -0.39348848373410561 0.14936763280266863 0 0.18398144442591982 0.19359479889532732 0.38449885657673577 0.0639263822864478 -0.27900756588575681 -0.20261248717939545 -0.098083077758444603 -0.58458617204649133 0.29753011929637274 -0.30607259247327467 -0.55136017747042376 0.11898208061996975 0.34671929575409272 -0.066028542319839109 -0.42600090809528557
leaf_weight=3848.6012322632596 533.99671239644522 1866.9849570715451 6916.4951892725658 5231.9322410330642 111.51478253677487 1443.6442838865332 436.80847155785887 182.82024085498415 15629.892680881312 1092.1669253769214 684.40004481642973 1431.0121544151916 4196.3955161441118 709.97660155640915 2152.713428454299 1513.6858879120555 594.36602585116634 1178.8893515154487 2145.1434433229733 525.66206439241068 897.65655231376877 2277.1653215226834 424.67347397166304 1367.7093597616185 4891.5584624154726 159.95757611398585 293.45440295577282
leaf_count=14982 14030 1079688 16022 9498 1216 4207 10900 1376 124776 13172 7656 13208 28246 17609 13373 14184 7554 61553 16547 12173 19350 30135 44109 9733 12664 9812 79239
internal_value=0 -0.00362253 0.0161804 0.343462 -0.00697918 -0.0306615 0.0978283 -0.254005 -0.00736979 0.0261828 -0.140756 -0.172392 0.0516839 -0.142477 0.16753 0.253511 0.00991819 -0.0517858 -0.111379 -0.349813 0.133105 -0.203545 -0.577595 -0.0125714 0.403354 -0.42704 -0.547206
internal_weight=0 48767.2 46900.2 13972.1 39983.7 32644.4 7339.29 3061.29 29583.1 22349.5 1646.87 2523.18 19826.3 2293.84 5692.42 3666.4 2026.02 1888.87 7233.66 962.471 1431.65 3720.81 767.451 3512.85 10123.5 584.631 404.969
internal_count=1687012 1649868 570180 37144 554158 454938 99220 214914 240024 179402 30729 26380 153022 159617 68491 27557 40934 79162 60622 23073 33380 34342 55297 26280 22162 53921 80455
is_linear=0
shrinkage=0.5


Tree=9
num_leaves=22
num_cat=0
split_feature=222 222 220 3 1 0 222 223 210 223 222 221 17 0 8 129 32 220 144 222 5
split_gain=2928.78 1174.39 588.504 513.711 857.784 870.631 464.029 1449.12 830.249 797.194 1045.76 421.638 408.078 570.148 286.601 270.27 260.92 247.311 207.137 199.222 198.986
threshold=4.5000000000000009 116.50000000000001 1.1030156612396242 13.500000000000002 985.50000000000011 1021059.5000000001 42.500000000000007 165.50000000000003 4.5000000000000009 163.50000000000003 14.500000000000002 0.79685083031654369 0.073966000229120268 172364.50000000003 0.5403214991092683 0.15677950531244281 2.5000000000000004 1.8201550245285036 47.500000000000007 10.500000000000002 12.500000000000002
decision_type=2 2 2 2 2 2 2 2 2 2 2 2 2 2 2 2 2 2 2 2 2
left_child=17 2 3 6 5 -5 9 8 -8 10 -2 20 -11 -14 -6 -12 -7 -1 -10 -4 -9
right_child=1 -3 19 4 14 16 7 11 18 12 15 -13 13 -15 -16 -17 -18 -19 -20 -21 -22
leaf_value=0.21765138136101939 -0.47839203766538968 -0.49625787480936034 0.20536684781985351 0.24452264101338408 -0.20814078759428828 -0.64059826917322715 1.0388265071138501 0.032205284422163867 0.40007295068330523 0.17955491587008837 -0.11654484492786371 0.57351613276568381 -0.074783913794971582 0.092187901565167887 -0.79198875720557971 0.1558111166421832 -0.11540721492971667 0.40822765609628819 -0.39199413443114961 0.061166712993712742 -0.50397074607501069
leaf_weight=2872.7305971371825 1688.645010123495 1139.6475326578075 4269.9458447746001 1248.2624728278606 350.4690347732394 485.53128969229874 305.72923282091506 178.24955651222263 122.08016588457394 5412.6351844122983 2221.3881730814464 95.055519938468933 8471.6801887512556 12827.684852221952 632.57343596138526 1529.1810305942781 496.39122056870838 4717.2496108256164 207.44162847963162 5667.5745279781986 1763.3644255854597
leaf_count=10413 8330 1079688 15055 9398 10522 16198 13553 21446 10555 19566 15431 65 42580 59771 18630 8978 5509 16120 32207 14678 258319
internal_value=0 0.00324122 0.0152667 -0.0129708 -0.203987 -0.0302739 0.00461214 -0.195118 0.457376 0.0213613 -0.152797 -0.401341 0.0569843 0.0256222 -0.590923 -0.00453929 -0.381863 0.336868 -0.0862082 0.123581 -0.453187
internal_weight=0 49113.5 47973.9 38036.4 3213.23 2230.18 34823.1 2671.92 635.251 32151.2 5439.21 2036.67 26712 21299.4 983.042 3750.57 981.923 7589.98 329.522 9937.52 1941.61
internal_count=1687012 1660479 580791 551058 60257 31105 490801 336145 56315 154656 32739 279830 121917 102351 29152 24409 21707 26533 42762 29733 279765
is_linear=0
shrinkage=0.5


end of trees

feature_importances:
Column_222=49
Column_220=27
Column_221=22
Column_223=16
Column_0=9
Column_8=8
Column_3=6
Column_5=5
Column_1=4
Column_193=4
Column_207=4
Column_18=3
Column_47=3
Column_145=3
Column_180=3
Column_192=3
Column_195=3
Column_210=3
Column_212=3
Column_6=2
Column_7=2
Column_16=2
Column_19=2
Column_25=2
Column_30=2
Column_32=2
Column_112=2
Column_129=2
Column_130=2
Column_140=2
Column_169=2
Column_4=1
Column_17=1
Column_29=1
Column_42=1
Column_44=1
Column_46=1
Column_52=1
Column_110=1
Column_113=1
Column_116=1
Column_123=1
Column_126=1
Column_128=1
Column_135=1
Column_136=1
Column_137=1
Column_144=1
Column_147=1
Column_148=1
Column_154=1
Column_156=1
Column_159=1
Column_170=1
Column_171=1
Column_172=1
Column_173=1
Column_179=1
Column_183=1
Column_184=1
Column_187=1
Column_191=1
Column_198=1
Column_199=1
Column_208=1
Column_211=1
Column_215=1

parameters:
[boosting: gbdt]
[objective: binary]
[metric: binary_logloss]
[tree_learner: serial]
[device_type: cpu]
[data: ]
[valid: ]
[num_iterations: 10]
[learning_rate: 0.5]
[num_leaves: 64]
[num_threads: 0]
[deterministic: 0]
[force_col_wise: 0]
[force_row_wise: 0]
[histogram_pool_size: -1]
[max_depth: 8]
[min_data_in_leaf: 9920]
[min_sum_hessian_in_leaf: 24.4]
[bagging_fraction: 1]
[pos_bagging_fraction: 1]
[neg_bagging_fraction: 1]
[bagging_freq: 0]
[bagging_seed: 3]
[feature_fraction: 1]
[feature_fraction_bynode: 1]
[feature_fraction_seed: 2]
[extra_trees: 0]
[extra_seed: 6]
[early_stopping_round: 5]
[first_metric_only: 0]
[max_delta_step: 0]
[lambda_l1: 6.4]
[lambda_l2: 9.2]
[linear_lambda: 0]
[min_gain_to_split: 8.6]
[drop_rate: 0.1]
[max_drop: 50]
[skip_drop: 0.5]
[xgboost_dart_mode: 0]
[uniform_drop: 0]
[drop_seed: 4]
[top_rate: 0.2]
[other_rate: 0.1]
[min_data_per_group: 100]
[max_cat_threshold: 32]
[cat_l2: 10]
[cat_smooth: 10]
[max_cat_to_onehot: 4]
[top_k: 20]
[monotone_constraints: ]
[monotone_constraints_method: basic]
[monotone_penalty: 0]
[feature_contri: ]
[forcedsplits_filename: ]
[refit_decay_rate: 0.9]
[cegb_tradeoff: 1]
[cegb_penalty_split: 0]
[cegb_penalty_feature_lazy: ]
[cegb_penalty_feature_coupled: ]
[path_smooth: 0]
[interaction_constraints: ]
[verbosity: -1]
[saved_feature_importance_type: 0]
[linear_tree: 0]
[max_bin: 255]
[max_bin_by_feature: ]
[min_data_in_bin: 3]
[bin_construct_sample_cnt: 200000]
[data_random_seed: 1]
[is_enable_sparse: 1]
[enable_bundle: 1]
[use_missing: 1]
[zero_as_missing: 0]
[feature_pre_filter: 0]
[pre_partition: 0]
[two_round: 0]
[header: 0]
[label_column: ]
[weight_column: ]
[group_column: ]
[ignore_column: ]
[categorical_feature: ]
[forcedbins_filename: ]
[precise_float_parser: 0]
[objective_seed: 5]
[num_class: 1]
[is_unbalance: 0]
[scale_pos_weight: 1]
[sigmoid: 1]
[boost_from_average: 1]
[reg_sqrt: 0]
[alpha: 0.9]
[fair_c: 1]
[poisson_max_delta_step: 0.7]
[tweedie_variance_power: 1.5]
[lambdarank_truncation_level: 30]
[lambdarank_norm: 1]
[label_gain: ]
[eval_at: 10]
[multi_error_top_k: 1]
[auc_mu_weights: ]
[num_machines: 1]
[local_listen_port: 12400]
[time_out: 120]
[machine_list_filename: ]
[machines: ]
[gpu_platform_id: -1]
[gpu_device_id: -1]
[gpu_use_dp: 0]
[num_gpu: 1]

end of parameters

pandas_categorical:null
