tree
version=v3
num_class=1
num_tree_per_iteration=1
label_index=0
max_feature_idx=223
objective=binary sigmoid:1
feature_names=Column_0 Column_1 Column_2 Column_3 Column_4 Column_5 Column_6 Column_7 Column_8 Column_9 Column_10 Column_11 Column_12 Column_13 Column_14 Column_15 Column_16 Column_17 Column_18 Column_19 Column_20 Column_21 Column_22 Column_23 Column_24 Column_25 Column_26 Column_27 Column_28 Column_29 Column_30 Column_31 Column_32 Column_33 Column_34 Column_35 Column_36 Column_37 Column_38 Column_39 Column_40 Column_41 Column_42 Column_43 Column_44 Column_45 Column_46 Column_47 Column_48 Column_49 Column_50 Column_51 Column_52 Column_53 Column_54 Column_55 Column_56 Column_57 Column_58 Column_59 Column_60 Column_61 Column_62 Column_63 Column_64 Column_65 Column_66 Column_67 Column_68 Column_69 Column_70 Column_71 Column_72 Column_73 Column_74 Column_75 Column_76 Column_77 Column_78 Column_79 Column_80 Column_81 Column_82 Column_83 Column_84 Column_85 Column_86 Column_87 Column_88 Column_89 Column_90 Column_91 Column_92 Column_93 Column_94 Column_95 Column_96 Column_97 Column_98 Column_99 Column_100 Column_101 Column_102 Column_103 Column_104 Column_105 Column_106 Column_107 Column_108 Column_109 Column_110 Column_111 Column_112 Column_113 Column_114 Column_115 Column_116 Column_117 Column_118 Column_119 Column_120 Column_121 Column_122 Column_123 Column_124 Column_125 Column_126 Column_127 Column_128 Column_129 Column_130 Column_131 Column_132 Column_133 Column_134 Column_135 Column_136 Column_137 Column_138 Column_139 Column_140 Column_141 Column_142 Column_143 Column_144 Column_145 Column_146 Column_147 Column_148 Column_149 Column_150 Column_151 Column_152 Column_153 Column_154 Column_155 Column_156 Column_157 Column_158 Column_159 Column_160 Column_161 Column_162 Column_163 Column_164 Column_165 Column_166 Column_167 Column_168 Column_169 Column_170 Column_171 Column_172 Column_173 Column_174 Column_175 Column_176 Column_177 Column_178 Column_179 Column_180 Column_181 Column_182 Column_183 Column_184 Column_185 Column_186 Column_187 Column_188 Column_189 Column_190 Column_191 Column_192 Column_193 Column_194 Column_195 Column_196 Column_197 Column_198 Column_199 Column_200 Column_201 Column_202 Column_203 Column_204 Column_205 Column_206 Column_207 Column_208 Column_209 Column_210 Column_211 Column_212 Column_213 Column_214 Column_215 Column_216 Column_217 Column_218 Column_219 Column_220 Column_221 Column_222 Column_223
feature_infos=[1:3.4028234663852886e+38] [0:271267] [0:2] [0:177949] [0:141] [0:29690] [0:9] [508:861] [0.50031602382659912:0.87444800138473511] [1:223] [1:9] [0:8] [0:58214] [0:9] [0:510.96185302734375] [0:0.44487801194190979] [0:0.44487801194190979] [0:0.44487801194190979] [0:751811] [0:751811] [0:1] [0:3] [0:16] [0:1] [0:1] [0:7] [0:54] [0:7] [0:3.6723120212554932] [0:0.40233799815177917] [0:0.40233799815177917] [0:0.40233799815177917] [0:920] [0:920] [0:1] [0:3] [0:16] [0:1] [0:1] [0:6] [0:13] [0:6] [0:0.79615402221679688] [0:0.40233799815177917] [0:0.40233799815177917] [0:0.40233799815177917] [0:86] [0:86] none [0:3] [0:16] [0:1] [0:1] [0:6] [0:8] [0:6] [0:0.57813602685928345] [0:0.40233799815177917] [0:0.40233799815177917] [0:0.40233799815177917] [0:17] [0:17] [0:1] [0:2] [0:16] [0:1] [0:1] [0:4] [0:80] [0:4] [0:11.898479461669922] [0:0.35846701264381409] [0:0.35846701264381409] [0:0.35846701264381409] [0:682] [0:682] [0:1] [0:2] [0:16] [0:1] [0:1] none none none none none none none none none none none [16:16] none none [0:4] [0:4] [0:4] [0:0.37730899453163147] [0:0.36747300624847412] [0:0.36747300624847412] [0:0.36747300624847412] [0:37] [0:37] [0:1] [0:2] [0:16] [0:1] [0:1] [0:7] [0:131] [0:7] [0:8.9034099578857422] [0:0.38528299331665039] [0:0.38528299331665039] [0:0.38528299331665039] [0:4031] [0:4031] [0:1] [0:3] [0:16] [0:1] [0:1] [1:7] [1:19405.333984375] [1:9] [0.0065135997720062733:172.79824829101562] [0.00035099999513477087:0.44487801194190979] [0.004081999883055687:0.44487801194190979] [0.0057274000719189644:0.44487801194190979] [1:751811] [1:751811] [0:1] [1:3] [0:16] [0:1] [0.30000001192092896:1] [1:24] [1:58216] [1:24] [0.018439000472426414:511.20938110351562] [0.00076800002716481686:2.3295578956604004] [0.0093040000647306442:2.3295578956604004] [0.018439000472426414:2.3295578956604004] [1:751811] [1:751811] [0:2] [1:12] [0:112] [0:7] [1:7] [1:8] [1:58214] [1:9] [0.014701999723911285:510.96185302734375] [0.00076800002716481686:0.44487801194190979] [0.0093040000647306442:0.44487801194190979] [0.014701999723911285:0.44487801194190979] [1:751811] [1:751811] [0:1] [1:3] [0:16] [0:1] [0.3333333432674408:1] [1:7] [1:14753] [1:9] [0.00076800002716481686:172.79824829101562] [3.600000127335079e-05:0.44487801194190979] [0.00076800002716481686:0.44487801194190979] [0.00076800002716481686:0.44487801194190979] [1:751811] [0:751811] [0:1] [1:3] [0:16] [0:1] [0.1111111119389534:1] [1:19405.333984375] [0.0054867500439286232:0.44487801194190979] [1:58216] [0.018439000472426414:0.44487801194190979] [1:57495] [1:2261] [0.0093040000647306442:0.44487801194190979] [3.600000127335079e-05:0.44487801194190979] [0:244] [0:7] [3:188] [1:18] [0:3] [0:20] [1:3.4028234663852886e+38] [0:608] [500146:878952] [0:1] none [0:18] [2:29] [0:2] [0:316] none [0:1] none none [2:7] [0:60] [0:5560] [0:2767] [0:29688] [0:24039] [0:100] [0:1] [0:1] [0:100] [0:1] [0:1] none [0:159] [-4.3194770812988281:3.8015170097351074] [0:1] [0:438] [6:439]
tree_sizes=3667 4042 4577 3622 3169 4141 3845 2832 3830 3416

Tree=0
num_leaves=33
num_cat=0
split_feature=222 222 221 221 222 222 222 221 221 187 222 184 9 208 198 222 24 221 221 221 223 221 182 131 179 222 223 222 220 193 221 223
split_gain=6.26289e+06 85753.1 77813.7 45731.5 27439.1 11760.8 10554.3 9008.69 8496.5 8330.14 4239.86 3651.2 3257.59 3208.96 3595.58 2524.65 2288.72 1977.97 1952.24 1001.29 867.526 2292.18 1117.17 665.744 476.445 341.304 298.806 139.778 130.492 82.8333 18.7906 17.8314
threshold=38.500000000000007 16.500000000000004 0.44166347384452825 0.504651039838791 62.500000000000007 24.500000000000004 32.500000000000007 0.63187721371650707 0.57181620597839367 5.5000000000000009 98.500000000000014 1.5000000000000002 6.5000000000000009 21.500000000000004 1.5000000000000002 8.5000000000000018 0.6904762089252473 0.55721992254257213 0.64207634329795849 0.68960255384445202 187.50000000000003 0.37620826065540319 0.06212150119245053 38.549999237060554 4.0714285373687753 72.500000000000014 404.50000000000006 10.500000000000002 1.2003660202026369 3136.5000000000005 0.25944571197032934 333.50000000000006
decision_type=2 2 2 2 2 2 2 2 2 2 2 2 2 2 2 2 2 2 2 2 2 2 2 2 2 2 2 2 2 2 2 2
left_child=1 15 10 6 8 18 12 13 9 -4 16 -11 -3 14 -7 28 -2 24 -5 26 21 25 -22 -13 -6 30 -17 -21 31 -24 -18 -1
right_child=2 3 4 5 17 7 -8 -9 -10 11 -12 23 -14 -15 -16 19 20 -19 -20 27 22 -23 29 -25 -26 -27 -28 -29 -30 -31 -32 -33
leaf_value=2.5972453745371471 -0.97457511933634811 1.2461561061340221 0.49565878263298324 2.043652764731946 -1.4700578500583075 0.2001368522966338 -0.96956941081766423 2.0356221481690384 0.71421317355750924 -0.19901915340880549 -2.3641025705767844 -2.0264582546465113 0.24689241163474884 1.6638576606088076 1.2814992943069794 2.3942907566924299 -1.9659185921833884 -1.0775336872088199 2.3566177163100619 2.5914740728660597 -1.3422034372043248 -0.78463119383877311 -1.9123820663921114 -1.0863750080673622 -2.2496568980583223 -2.3053635352790125 2.5031312144101912 2.5427580065987545 2.6272747655400139 -2.3418330482822962 -1.3344512181577284 2.6160971104845698
leaf_weight=59358.540114399046 661.9441781565547 1838.9710783474147 1252.9481197707355 7841.4047751426697 648.99263361468911 1394.3094228729606 1156.6466183774173 5416.0825300402939 2218.0033051893115 759.04264241084456 58585.736342314631 789.58540654927492 1526.7388968020678 1673.7820806279778 1788.5616560913622 12886.870567243546 846.88673935458064 867.69175399839878 13568.26782990247 32525.106092102826 607.41845364123583 614.4589734710753 1511.687570836395 634.98636446893215 2045.3871842846274 1263.2822359092534 13618.781878851354 35720.5352123864 419291.09360359237 5531.9660112187266 731.04425572231412 59650.834883362055
leaf_count=13387 9443 9959 10545 18450 10565 13355 16285 12885 16780 8481 1145825 14547 14275 6431 9553 12939 14975 12765 15305 7225 9619 8173 27022 9361 39289 24077 7645 14612 27795 107655 11217 6572
internal_value=2.06804 2.56665 -2.12528 1.81836 -0.752809 2.03098 0.332667 1.59135 -0.0607439 -0.555033 -2.30464 -1.14733 0.788197 1.09755 0.80277 2.60946 -2.00511 -1.84221 2.24188 2.53382 -2.06367 -1.77795 -2.18753 -1.63259 -2.07574 -1.98175 2.45047 2.56609 2.62276 -2.25543 -1.6968 2.60676
internal_weight=0 669257 79571.1 36204.8 9216.64 31682.4 4522.36 10272.7 5654.57 3436.56 70354.4 2183.61 3365.71 4856.65 3182.87 633052 11768.7 3562.07 21409.7 94751.3 11106.7 3455.67 7651.07 1424.57 2694.38 2841.21 26505.7 68245.6 538300 7043.65 1577.93 119009
internal_count=1687012 206673 1480339 116498 122333 75979 40519 42224 59714 42934 1358006 32389 24234 29339 22908 90175 212181 62619 33755 42421 202738 58442 144296 23908 49854 50269 20584 21837 47754 134677 26192 19959
is_linear=0
shrinkage=1


Tree=1
num_leaves=36
num_cat=0
split_feature=222 221 222 206 212 2 113 47 16 187 201 210 223 169 222 0 172 222 222 170 215 222 187 189 220 52 222 16 223 222 43 171 171 221 222
split_gain=212068 15960.2 7904.07 5597.44 4889.09 5752.75 3057.11 3010.41 3458.6 2821.59 2407.84 2109.94 1927 1786.77 1674.69 1338.63 1182.9 989.674 872.604 845.785 843.753 805.886 667.879 504.754 445.998 303.966 290.598 283.914 111.72 46.4877 37.2307 285.755 29.946 45.8528 15.2867
threshold=20.500000000000004 0.29023788869380956 10.500000000000002 3.5000000000000004 1.5000000000000002 1.5000000000000002 0.0014075000071898105 8.5000000000000018 0.030943000689148906 2.5000000000000004 287.50000000000006 70.500000000000014 236.50000000000003 0.05157699994742871 30.500000000000004 5226.5000000000009 13.500000000000002 14.500000000000002 66.500000000000014 0.095310997217893614 93.500000000000014 36.500000000000007 3.5000000000000004 9.5000000000000018 0.90819883346557628 0.53571429848670971 50.500000000000007 0.048401499167084701 274.50000000000006 2.5000000000000004 0.03325100056827069 0.038845499977469451 0.22353749722242358 0.15956588089466098 4.5000000000000009
decision_type=2 2 2 2 2 2 2 2 2 2 2 2 2 2 2 2 2 2 2 2 2 2 2 2 2 2 2 2 2 2 2 2 2 2 2
left_child=2 18 24 4 15 7 10 8 -6 -10 13 21 -4 -7 -13 -3 22 -14 19 26 -9 -8 -17 -24 28 -19 -2 -12 -1 -26 32 -32 -20 -34 -31
right_child=1 3 12 -5 5 6 11 20 9 -11 27 14 17 -15 -16 16 -18 25 30 -21 -22 -23 23 -25 29 -27 -28 -29 -30 34 31 -33 33 -35 -36
leaf_value=0.45516582280438961 -0.65875505297222192 0.034093967069041685 0.10656667514248667 0.40662257023134712 0.37768687715397609 0.10250764425889006 -1.1038152118534204 0.14065680777997197 0.39682601201425849 -0.22859839668068849 -0.36505161158330413 0.09706460108232845 0.41913993941703104 -0.36472727641572017 -0.5619817770525557 -0.33523927193728537 -0.23436946768360101 0.1918930607392316 -0.54531654758468584 0.20149798531475374 0.53610943952201284 -0.62982864203431821 -0.96212305020661804 -0.61646419581322487 0.53350518714288853 0.32810624473343669 -0.21026204193504441 -0.75120451134029964 0.50050767731812595 0.52776247178276681 -0.072077544407583155 -0.54574039890606263 -0.52095125571053247 -0.27906823005481063 0.51056957229113087
leaf_weight=29530.818269595504 745.62240583077073 928.17559006437659 9621.0767752081156 4487.9772994108498 3903.0252788625658 6726.0032392777503 1421.321306746453 2356.300407409668 2062.0134380236268 13823.400620233268 820.08634481951594 1669.2610963359475 24855.379110123962 2927.5891302675009 2241.5135694108903 1015.1132853403687 1732.5127296671271 8328.3282974362373 40707.924767926335 776.62410169839859 3258.1062426008284 2775.2308456078172 2317.3101643770933 2253.2633473724127 170765.04270739853 8533.7198458723724 770.56297275796533 1424.084087356925 35427.063626859337 57790.671078588814 414.705356862396 1703.0569676235318 701.08225563541055 432.55454151332378 74250.275708246976
leaf_count=13911 8845 4713 18158 16866 18354 42513 10297 14741 7186 119463 8436 3470 13940 30481 30753 8090 18500 12701 1004995 8198 9253 40268 28367 31856 13624 8209 12909 19786 7972 7376 9306 41569 16890 9535 15481
internal_value=0 -0.303511 0.492915 -0.129035 -0.173962 -0.109498 -0.31 0.0483296 -0.0432477 -0.147031 -0.148093 -0.546772 0.308884 -0.0390692 -0.280293 -0.528025 -0.599709 0.355433 -0.522702 -0.218442 0.371213 -0.793186 -0.711883 -0.793995 0.518588 0.26116 -0.435561 -0.613579 0.480011 0.526838 -0.538449 -0.455204 -0.542485 -0.434447 0.518155
internal_weight=0 104394 419102 58142.3 53654.3 45407.9 20005.1 25402.8 19788.4 15885.4 11897.8 8107.33 51338.5 9653.59 3910.77 8246.38 7318.2 41717.4 46252.1 2292.81 5614.41 4196.55 5585.69 4570.57 367764 16862 1516.19 2244.17 64957.9 302806 43959.3 2117.76 41841.6 1133.64 132041
internal_count=1687012 1575640 111372 463393 446527 355001 186004 168997 145003 126649 101216 84788 53008 72994 34223 91526 86813 34850 1112247 29952 23994 50565 68313 60223 58364 20910 21754 28222 21883 36481 1082295 50875 1031420 26425 22857
is_linear=0
shrinkage=0.5


Tree=2
num_leaves=41
num_cat=0
split_feature=222 221 222 198 114 221 140 220 221 46 190 46 222 223 195 221 168 124 211 222 215 166 222 222 208 187 23 189 223 221 9 223 220 43 29 0 220 140 223 223
split_gain=118491 15012.9 6819.84 3299.22 1992.25 1896.46 3470.87 2286.06 1704.35 1870.77 1683.11 1665.59 1540.67 1528.7 1526.98 1394.16 1363.32 1300.01 908.629 877.845 859.352 719.579 843.441 698.32 618.914 605.566 488.16 544.332 403.03 361.546 348.431 252.455 193.322 183.794 558.513 118.09 114.947 69.4806 11.6085 45.7385
threshold=18.500000000000004 0.39483223855495458 10.500000000000002 2.5000000000000004 0.03146100044250489 0.24906130135059359 0.25092500448226934 -2.3831193447113033 0.70227894186973583 7.5000000000000009 1.5000000000000002 9.5000000000000018 44.500000000000007 422.50000000000006 546332.50000000012 0.64207634329795849 0.27927500009536749 3.2678571939468388 41.500000000000007 34.500000000000007 96.500000000000014 1.5000000000000002 72.500000000000014 6.5000000000000009 48.500000000000007 6.5000000000000009 1.0000000180025095e-35 9.5000000000000018 72.500000000000014 0.74915173649787914 64.500000000000014 126.50000000000001 1.0440598130226137 0.03325100056827069 0.033560499548912055 12764.500000000002 1.551028907299042 0.18893650174140933 178.50000000000003 165.50000000000003
decision_type=2 2 2 2 2 2 2 2 2 2 2 2 2 2 2 2 2 2 2 2 2 2 2 2 2 2 2 2 2 2 2 2 2 2 2 2 2 2 2 2
left_child=2 5 23 4 11 28 7 10 9 26 -7 12 17 25 -14 -4 -16 -3 24 -15 -19 37 -23 36 31 -5 -6 -28 -2 -17 -21 -8 -25 38 -35 -33 -1 -9 39 -30
right_child=1 3 15 13 8 6 18 21 -10 -11 -12 -13 14 19 16 29 -18 20 -20 30 -22 22 -24 32 -26 -27 27 -29 33 -31 -32 35 -34 34 -36 -37 -38 -39 -40 -41
leaf_value=0.48608374165172202 0.097316788142822769 -0.26602992786890656 0.083392235751099913 0.424113531233198 -0.24726969835006529 1.0726044739111464 -0.15914987993212606 -0.601706848899767 0.12106528997144457 -0.072823789360581592 0.022527202171013949 0.31080846169903809 0.093902171958946942 0.11755997085428481 -0.62508021913743805 0.25575994722773032 0.044407588204195568 -0.022516661744574069 0.11756953545286851 -0.10033199139428117 0.24955627105983133 0.49848599824166767 -0.32390259276623545 0.39531821672062811 0 0.17110454258372867 -0.79678867819646892 -0.43814396481855217 -0.50646745460543874 0.37548639432878156 -0.51217207186205882 -0.29679883509330518 0.46734973306024852 0.26862190774575395 -0.52572949131106683 -0.56164952483482211 0.51511489878979855 -0.31212583109766995 -0.52750423552194092 -0.30839956809685676
leaf_weight=58936.101460257545 261.54622911289334 3402.7626028191298 8820.0602207668126 4697.1927624922246 1092.1082565300167 832.6068652421236 488.7439911197871 621.75929764658213 2094.6004325728863 3189.2737146057189 710.3754898943007 3197.7027393132448 1755.7392380814999 3717.1963120754808 3091.7166555393487 13418.228141587228 994.3856978174299 7432.2692184131593 666.54227250255644 1191.6340524666011 4731.7592652123421 591.64505029283464 636.21675178222358 19542.302353342995 615.66323195211589 4917.4297104496509 2343.5518225412816 2118.7462307363749 1747.8887881115079 12623.420675674453 935.02523647807539 540.0307994838804 21234.231338180602 298.97346297465265 754.32962880656123 6947.8932801783085 131864.19843347371 460.73585288599133 22981.806488141418 536.80739264376462
leaf_count=18394 3082 15669 17261 8632 6939 8792 3955 13807 4280 19778 13405 11526 18130 7787 47647 16100 10349 25138 13410 10817 10066 4256 16872 13127 13979 19274 24502 22002 53408 9050 12436 11648 8093 8373 26763 185823 18750 9767 906461 17464
internal_value=0 -0.199615 0.462277 -0.0197975 -0.103914 -0.430074 -0.27362 0.124287 -0.282456 -0.379514 0.594219 -0.0250653 -0.0754945 0.172812 -0.294242 0.255808 -0.46164 0.00651611 -0.439525 -0.0283634 0.0831644 -0.189291 0.0705387 0.493333 -0.483193 0.295331 -0.554625 -0.628468 -0.507008 0.314031 -0.28433 -0.520433 0.433004 -0.513167 -0.296872 -0.543363 0.506188 -0.485055 -0.521946 -0.462748
internal_weight=0 90596.7 266439 50903.1 35444.6 39693.6 13112.2 3853.34 10838.3 8743.68 1542.98 24606.3 21408.6 15458.5 5841.84 34861.7 4086.1 15566.8 9258.87 5843.86 12164 2310.36 1227.86 231577 8592.33 9614.62 5554.41 4462.3 26581.4 26041.6 2126.66 7976.67 40776.5 26319.8 1053.3 7487.92 190800 1082.5 25266.5 2284.7
internal_count=1687012 1586237 100775 274972 216026 1311265 295714 66899 77501 73221 22197 138525 126999 58946 76126 42411 57996 50873 228815 31040 35204 44702 21128 58364 215405 27906 53443 46504 1015551 25150 23253 201426 21220 1012469 35136 197471 37144 23574 977333 70872
is_linear=0
shrinkage=0.5


Tree=3
num_leaves=32
num_cat=0
split_feature=222 221 222 221 195 206 223 134 207 208 208 47 129 222 199 221 215 223 220 222 222 201 9 220 140 223 43 127 171 220 222
split_gain=71561.1 11796 3511.83 2544.85 2467.81 2248.19 2154.55 2014.64 1683.74 1674.15 1511.85 1284.6 1239.95 1126.88 981.219 968.864 906.227 854.584 845.286 776.513 618.736 589.766 748.018 506.715 479.039 126.126 77.7684 516.006 90.921 168.692 42.4011
threshold=14.500000000000002 0.29023788869380956 8.5000000000000018 0.60414204001426708 546956.50000000012 3.5000000000000004 429.50000000000006 11.708333492279055 2.5000000000000004 28.500000000000004 25.500000000000004 6.5000000000000009 0.092542499303817763 66.500000000000014 3.5000000000000004 0.73152214288711559 95.500000000000014 372.50000000000006 -1.5422369241714475 28.500000000000004 22.500000000000004 254.50000000000003 10.500000000000002 1.2003660202026369 0.27762100100517279 324.50000000000006 0.03325100056827069 0.034564167261123664 0.22353749722242358 -3.0501189231872554 2.5000000000000004
decision_type=2 2 2 2 2 2 2 2 2 2 2 2 2 2 2 2 2 2 2 2 2 2 2 2 2 2 2 2 2 2 2
left_child=2 13 23 4 7 6 8 18 10 12 -6 15 19 16 -8 21 24 -4 -3 -9 -16 22 -5 25 -2 -1 28 -28 -15 -30 -25
right_child=1 3 17 11 5 -7 14 9 -10 -11 -12 -13 -14 26 20 -17 -18 -19 -20 -21 -22 -23 -24 30 -26 -27 27 -29 29 -31 -32
leaf_value=0.38914387979885018 -0.016114128815024421 0.61763287004581702 0.15958677389266734 0.18510845135066856 -0.28073242709418272 0.27651552768148085 -0.1140949703005897 -0.01354733190767414 0.27928525042102864 0.35157695084834178 0.081849104511408213 0.2381291432250372 0.18490307405392525 -0.51162925542465154 -0.15724329588181013 0.19149810110091606 0.3747708871652452 0.34547854553343177 0.14306347959698806 -0.45447656159138189 -0.61583488566689049 -0.23388499850352934 -0.11512246800942896 0.50646790361335292 -0.64195640067096416 0.45613881159657887 0.31846362394649874 -0.51982595288112354 -0.49490728964430447 0.070629008076686373 0.48081655400331735
leaf_weight=15904.692470042035 602.66961702611297 1968.7942792940885 9211.2461192673072 3519.2181840837002 11260.126545120962 2425.3530901484191 1722.3156766677275 1499.1240639165044 2192.6983553478494 1973.8904909193516 3838.428294710815 10398.228545501828 1721.7963475203142 16167.598662724718 895.31570762768388 5429.6531162131578 669.42941913753748 19462.051100392826 1839.4088893337175 3078.1569892819971 4957.4855520362034 3540.2487322129309 5022.5608992595226 62714.202259405516 635.9136303300038 16057.081586948596 218.77356215007603 893.01745973341167 327.6577649526298 198.59583647735417 39890.507801452652
leaf_count=13212 8182 17776 15193 6805 122894 10181 19585 4354 16967 13940 30606 16563 11167 1004995 2740 8695 9021 16626 11413 55606 114482 13351 17631 12654 13185 6747 6376 44499 18711 7714 15141
internal_value=0 -0.116165 0.445255 -0.0164363 -0.0983387 -0.181644 -0.226545 0.0895798 -0.128747 -0.0486696 -0.18835 0.0989842 -0.174929 -0.456213 -0.448932 0.0160973 -0.0884951 0.285943 0.390146 -0.311081 -0.546586 -0.0625488 0.0082647 0.479155 -0.342363 0.423023 -0.495371 -0.350756 -0.504612 -0.277964 0.49657
internal_weight=0 86996.5 163240 67282.8 39372.9 27291.7 24866.4 12081.2 17291.3 8272.97 15098.6 27909.9 6299.08 19713.7 7575.12 17511.7 1908.01 28673.3 3808.2 4577.28 5852.8 12082 8541.78 134566 1238.58 31961.8 17805.6 1111.79 16693.9 526.254 102605
internal_count=1687012 1607439 79573 494756 431711 317455 307274 114256 170467 85067 153500 63045 71127 1112683 136807 46482 30388 31819 29189 59960 117222 37787 24436 47754 21367 19959 1082295 50875 1031420 26425 27795
is_linear=0
shrinkage=0.5


Tree=4
num_leaves=28
num_cat=0
split_feature=222 221 222 206 222 5 198 206 2 198 195 43 187 128 176 190 223 32 145 208 220 206 223 24 156 222 222
split_gain=43960.8 8176.75 2474.45 1558.16 1431.35 1425.37 1361.3 1379.37 1352.92 1432.86 1302.53 2086.71 1264.62 1522.19 1127.19 1077.86 732.865 679.955 635.148 426.559 300.339 278.772 138.636 116.291 79.2684 191.316 164.623
threshold=12.500000000000002 0.39483223855495458 6.5000000000000009 2.5000000000000004 161.50000000000003 4.5000000000000009 5.5000000000000009 3.5000000000000004 1.5000000000000002 2.5000000000000004 543411.50000000012 0.03325100056827069 4.5000000000000009 0.11300100013613702 6.5000000000000009 1.5000000000000002 341.50000000000006 26.500000000000004 175.50000000000003 43.500000000000007 1.551028907299042 3.5000000000000004 198.50000000000003 0.45000000298023229 0.053893500939011581 32.500000000000007 40.500000000000007
decision_type=2 2 2 2 2 2 2 2 2 2 2 2 2 2 2 2 2 2 2 2 2 2 2 2 2 2 2
left_child=2 4 20 -3 10 -5 7 8 14 -10 11 12 15 21 -7 -2 -4 19 -17 24 -1 -14 -6 -24 26 -26 -12
right_child=1 3 16 5 22 6 -8 -9 9 -11 17 -13 13 -15 -16 18 -18 -19 -20 -21 -22 -23 23 -25 25 -27 -28
leaf_value=0.42189109012639281 0.52527203235261455 -0.40618833465065513 0.16766676168757838 -0.29848145988858815 0.052343183260289181 0.14484104769896211 0.39817398083844846 0.30574013295175412 -0.22198026278050573 0.056083271388173594 -0.022439536512931114 0.79296995808592308 -0.48671335259028398 0.4585588490262506 -0.059107443600721801 0.35024097674288451 0.34725398645796668 0.32951791492888521 -0.49876288446736078 -0.067593100591373509 0.49162455380838266 0.034201139464531308 0 -0.50833039506799893 -0.86926102795766225 -0.49724555277606952 -0.49178762677862004
leaf_weight=24452.635992968455 988.7651105420664 2042.6018190896139 8376.8188507910818 2995.3846758538857 102.1381837297231 20583.023257461376 2739.3039393019862 4381.7646918101236 9985.5592870078981 8603.6589468014427 272.95719359489158 611.99458368727937 3267.4039981868118 523.3991474667564 10063.681359232403 320.09529811749235 18413.707768268883 282.03702516155317 644.42680256161839 647.09928872669116 50439.546327694785 265.04607649007812 111.85191470850259 8548.8559532789513 439.97865109331906 2995.3684120532125 712.97956550540403
leaf_count=18394 17746 18638 14480 17576 8799 85432 6410 9637 75312 38520 1936 6574 158542 17835 54196 9185 17346 5746 28037 17115 18750 6062 5914 836859 3276 153407 35288
internal_value=0 -0.0695785 0.422208 0.0220679 -0.340989 0.0369208 0.0548501 0.0371849 0.0131671 -0.0931478 -0.227814 -0.0787652 -0.169154 -0.32835 0.077767 0.159762 0.291297 -0.411213 -0.213071 -0.453585 0.468954 -0.446737 -0.494839 -0.50171 -0.509098 -0.548015 -0.366473
internal_weight=0 82129.4 101683 61395 20734.4 59352.4 56357 53617.7 49235.9 18589.2 11971.6 6621.13 6009.14 4055.85 30646.7 1953.29 26790.5 5350.42 964.522 5068.38 74892.2 3532.45 8762.85 8660.71 4421.28 3435.35 985.937
internal_count=1687012 1618042 68970 305721 1312321 287083 269507 263097 253460 113832 460749 243981 237407 182439 139628 54968 31826 216768 37222 211022 37144 164604 851572 842773 193907 156683 37224
is_linear=0
shrinkage=0.5


Tree=5
num_leaves=37
num_cat=0
split_feature=221 221 222 47 23 208 4 210 210 222 223 223 3 15 208 222 126 18 31 0 222 114 173 29 29 220 30 52 209 5 23 221 220 199 222 210
split_gain=26512.6 4921.49 2687.04 1398.86 1494.8 1321.9 1654.89 3367.88 1276.19 1143.77 2380.48 1295.85 1220.23 800.896 761.389 598.891 538.893 536.382 494.629 440.549 425.649 368.718 367.337 335.412 1133.74 333.905 304.379 258.756 220.143 94.0593 220.765 321.561 87.3218 74.9782 67.6319 10.5223
threshold=0.73152214288711559 0.24906130135059359 8.5000000000000018 8.5000000000000018 1.0000000180025095e-35 109.50000000000001 52.500000000000007 2.5000000000000004 85.500000000000014 28.500000000000004 152.50000000000003 190.50000000000003 112.50000000000001 0.028790500015020374 6.5000000000000009 28.500000000000004 0.72598248720169078 53.500000000000007 0.03581999987363816 11853.000000000002 4.5000000000000009 0.043879998847842223 5.5000000000000009 0.033188499510288245 0.033560499548912055 -2.42138659954071 0.064754500985145583 0.70833334326744091 1.0000000180025095e-35 50.500000000000007 1.0000000180025095e-35 0.18559136241674426 2.0497164726257329 4.5000000000000009 32.500000000000007 36.500000000000007
decision_type=2 2 2 2 2 2 2 2 2 2 2 2 2 2 2 2 2 2 2 2 2 2 2 2 2 2 2 2 2 2 2 2 2 2 2 2
left_child=1 23 20 5 -5 6 7 17 18 11 -11 -8 -12 15 -13 -6 21 -3 -9 -10 32 26 -17 25 -25 28 -15 -4 29 30 31 -1 -2 -26 -31 -32
right_child=2 3 27 4 13 -7 9 8 19 10 12 14 -14 16 -16 22 -18 -19 -20 -21 -22 -23 -24 24 33 -27 -28 -29 -30 34 35 -33 -34 -35 -36 -37
leaf_value=-0.42351559640095499 0.43850384905184869 -0.076847963978185357 0.14703774406036821 0.45910664237897125 0.029054486111802759 0.38181928121135184 -0.15353569989183524 -0.4812199014256221 0.022179351948330067 0.45244951861379668 -0.18939655305683953 0.0011307471259157644 0.31175504671348397 0.32423135951470311 0.20103880857769654 -0.63759047490481624 0.37801692551448923 0.30869105607373321 -0.89331779190701577 -0.42214665924783606 0.36022203456863405 -0.11442304233218396 -0.090707162539760897 1.2614217700513142 0 0.42169156542345582 0.016316060348467963 0.27878036518752158 0.055089426256213797 -0.91540695273811235 -0.51066699991120823 0.5443477189115522 0.49180850160694389 -0.50826898388393982 -0.50623339587155214 -0.25167196369382361
leaf_weight=186.38516876474023 17623.571024687029 1706.2019924859051 9090.6625135284849 2902.9797912309878 1739.6317523187026 1798.1640678618569 5661.9118741159327 1438.1903687582817 1063.9399498649873 1757.0426422730088 17429.095431856345 8217.1389007088728 1292.8263406245969 1535.9221477843821 11429.437719985377 766.34980130661279 1828.1602159694303 1874.2146848947741 1690.3192563571502 1132.4128245778847 13006.919041313697 1869.9200622900389 538.99658266780898 118.05296327546239 93.267863601446152 95.218286742921919 1720.4792596767657 6585.2967362897471 178.9227893310599 129.77443863637745 733.06825186591595 143.70855063572526 20316.345433693379 385.95199942449108 5358.6650236207061 127.46728464309126
leaf_count=22294 15582 11155 16065 10134 4042 8036 18846 24222 6489 11095 324830 20820 8892 9476 19303 16348 6714 9753 33561 20218 15324 19839 8271 408 7755 7128 14620 8086 17535 1078 92820 7275 9459 44827 796794 17918
internal_value=0 -0.0465018 0.384294 -0.00471978 0.143711 -0.0386956 -0.0526415 -0.24976 -0.501691 -0.0141912 -0.102074 0.0568059 -0.154483 0.0514894 0.11763 -0.161548 0.145316 0.12435 -0.706861 -0.206264 0.440054 0.0611786 -0.416424 -0.429607 -0.0627109 -0.460539 0.163032 0.202716 -0.473802 -0.488505 -0.34692 0 0.467244 -0.413071 -0.518006 -0.47905
internal_weight=0 76943.8 66622.8 69393.3 12902.4 56490.9 54692.7 8905.28 5324.86 45787.5 20479 25308.5 18721.9 9999.46 19646.6 3044.98 6954.48 3580.42 3128.51 2196.35 50946.8 5126.32 1305.35 7550.48 597.273 6953.21 3256.4 15676 6857.99 6679.07 1190.63 330.094 37939.9 479.22 5488.44 860.536
internal_count=1687012 1622496 64516 606664 89444 517220 509184 105398 84490 403786 344817 58969 333722 79310 40123 28661 50649 20908 57783 26707 40365 43935 24619 1015832 52990 962842 24096 24151 955714 938179 140307 29569 25041 52582 797872 110738
is_linear=0
shrinkage=0.5


Tree=6
num_leaves=34
num_cat=0
split_feature=222 222 212 220 24 126 201 192 111 134 156 2 189 201 135 223 220 3 18 184 122 40 198 9 201 223 144 46 33 222 0 201 142
split_gain=15917.8 3352.2 1288.9 1224.41 1153.15 1358.86 1154.97 1102.26 1011.9 971.031 1340.98 777.361 1149.14 796.887 731.467 712.882 1243.35 696.702 615.308 599.559 562.206 538.306 602.676 523.409 556.728 431.359 364.377 386.166 542.224 271.404 265.411 142.208 81.311
threshold=8.5000000000000018 98.500000000000014 1.5000000000000002 0.90819883346557628 0.77500000596046459 0.17014837265014651 203.50000000000003 1.5000000000000002 3.5000000000000004 15.071428775787355 0.076087001711130156 1.5000000000000002 16.500000000000004 280.50000000000006 0.22500000149011615 185.50000000000003 -3.0360573530197139 6265.0000000000009 22.500000000000004 5.5000000000000009 0.18333333730697635 2.5000000000000004 1.5000000000000002 134.50000000000003 227.50000000000003 374.50000000000006 3.5000000000000004 7.5000000000000009 2.5000000000000004 2.5000000000000004 1.7014117331926445e+38 225.50000000000003 0.032836999744176872
decision_type=2 2 2 2 2 2 2 2 2 2 2 2 2 2 2 2 2 2 2 2 2 2 2 2 2 2 2 2 2 2 2 2 2
left_child=3 2 7 -1 -4 6 20 18 15 10 -9 21 13 -13 -11 16 -3 26 -2 31 -6 22 -7 24 -8 -14 -17 32 -29 -5 -16 -12 -28
right_child=1 8 4 29 5 11 23 9 -10 14 19 12 25 -15 30 17 -18 -19 -20 -21 -22 -23 -24 -25 -26 -27 27 28 -30 -31 -32 -33 -34
leaf_value=0.20859177896655437 -0.8069064709232141 -0.48067935327923866 0.25553620214095357 0.47444394647314225 -0.19731154592899519 0.032322709090440882 0.31947509131569668 0.19283017126410548 0.87193344202064782 -0.069707591860694418 -0.2356548382652508 0.079410219943345503 -0.13254828392216664 -0.20440013305173879 -0.74410893165404179 0.58754796907043894 1.0835447399400895 0.65313650237199372 -0.19758598568871308 -0.0020291989373017218 -0.67613958117879569 0.33704215274540583 0.20270863808181622 -0.25618254441246413 -0.054525734103948488 -0.62345005231860529 -0.24602745846498553 0.17925850812220462 -0.52242351248544205 0.37460629676722618 -0.32653368535388005 -0.52504813846721987 -0.50604713318635497
leaf_weight=8122.5606844611466 810.74672663898673 274.40879244287498 6220.6377174062654 15938.33824879746 1287.4467645203695 13599.180114421062 1364.3430152742658 5063.9973229469033 161.30773264355958 1873.034280629945 848.73713828495238 14066.915680806036 901.47282793489285 2988.044607873424 776.49344300862867 77.914992837584578 219.63767283188645 143.74106173077598 889.43044425570406 1948.7334150456591 1226.0087486453122 2642.9423411516473 8444.5112207593629 1956.1963315226603 3574.4002523955423 934.02546057081781 399.7106572969351 561.79275981825776 516.64437410840765 13293.355398802087 867.97109320445452 1040.6125381513266 5214.9597075605998
leaf_count=15418 11851 47016 19004 13624 12752 87789 7301 19802 831 16258 8937 75676 9163 26330 10811 6749 12743 1069 10756 11289 17166 4739 31893 18775 31667 12324 64927 28646 62135 18712 12109 13219 945531
internal_value=0 -0.0131064 0.0195715 0.381444 0.0519835 0.0279852 -0.144145 -0.116055 -0.329694 -0.0638969 0.023713 0.0652446 -0.0109426 0.0294155 -0.286011 -0.357337 0.215463 -0.398956 -0.492798 -0.198517 -0.433756 0.123656 0.0977967 -0.037671 0.0485483 -0.38595 -0.422619 -0.435646 -0.155528 0.429284 -0.528685 -0.398504 -0.488538
internal_weight=0 80896 73325.9 37354.3 59206.1 52985.5 9408.4 14119.8 7570.12 12419.6 8902.08 43577.1 18890.5 17055 3517.5 7408.81 494.046 6914.76 1700.18 3838.08 2513.46 24686.6 22043.7 6894.94 4938.74 1835.5 6771.02 6693.11 1078.44 29231.7 1644.46 1889.35 5614.67
internal_count=1687012 1639258 469611 47754 354579 335575 87661 115032 1169647 92425 53247 247914 123493 102006 39178 1168816 59759 1109057 22607 33445 29918 124421 119682 57743 38968 21487 1107988 1101239 90781 32336 22920 22156 1010458
is_linear=0
shrinkage=0.5


Tree=7
num_leaves=25
num_cat=0
split_feature=221 4 222 138 187 222 192 47 117 208 6 201 148 4 221 222 170 198 134 201 36 220 192 221
split_gain=9112.8 2231.25 2054.13 1321.3 1143.95 1055.73 957.162 1016.46 1027.14 683.044 659.284 754.927 599.643 498.169 468.159 450.437 439.479 421.913 492.5 409.775 254.469 161.247 148.99 11.0844
threshold=0.78908595442771923 54.500000000000007 179.50000000000003 230.50000000000003 4.5000000000000009 4.5000000000000009 17.500000000000004 7.5000000000000009 13.500000000000002 11.500000000000002 1.5000000000000002 260.50000000000006 52.500000000000007 52.500000000000007 0.65316843986511242 32.500000000000007 0.083626002073287978 2.5000000000000004 9.2678570747375506 233.50000000000003 1.5000000000000002 2.0497164726257329 8.5000000000000018 0.39894323050975805
decision_type=2 2 2 2 2 2 2 2 2 2 2 2 2 2 2 2 2 2 2 2 2 2 2 2
left_child=1 2 3 4 13 21 7 8 -6 -5 19 -12 -9 14 16 -3 -1 18 -15 -8 -7 -2 -19 -17
right_child=5 15 -4 9 6 20 10 12 -10 -11 11 -13 -14 17 -16 23 -18 22 -20 -21 -22 -23 -24 -25
leaf_value=0 0.35999202591759738 -1.6068036790168694 -0.48819137297063653 -0.9322187618806177 -0.010638016428106604 0.28673119088360582 -0.63508778995778703 0.17193526211232157 -0.30186177407238046 -0.10501623905674687 -0.26845716252612428 0.25757094427924965 -0.10186811460611703 0.19898369533831278 0.18230754082070727 -0.44391138111440087 -0.47926639813972022 0.37913881660626036 -0.010793947785947916 -0.23849556834738203 0.13221492324869677 0.46898600959500403 0.19377453558485463 -0.78779372573365258
leaf_weight=1125.2652371058357 7082.6522425081348 204.21370485960506 2112.8807629466755 541.71035237202886 30707.806644343247 5692.9173703102861 842.54359019570984 11077.101544799982 3353.4595485710306 478.57203983061481 1351.530800906301 1357.9606960612582 2417.6824385011569 6379.8401060733013 1247.7246730695479 190.43481856526341 839.28030950744869 2307.1729629983893 4926.8250133177498 3144.3430659795413 5261.7788759041578 7965.6844111027895 2312.5984686628217 136.26625665125903
leaf_count=17730 13888 2163 764723 13812 407265 9503 19555 70346 52150 7437 18018 8324 31708 39248 2358 30678 19829 9355 55022 57312 11410 9457 12780 2941
internal_value=0 -0.010287 -0.00309704 0.0106927 0.0186232 0.331944 -0.0184056 0.00646434 -0.0394778 -0.551727 -0.19527 -0.00366245 0.122609 0.123714 -0.0550382 -1.02299 -0.20755 0.159979 0.107357 -0.324377 0.212979 0.418151 0.287609 -0.614519
internal_weight=0 77055.2 76524.3 74411.4 73391.1 26003 54252.4 47556.1 34061.3 1020.28 6696.38 2709.49 13494.8 19138.7 3212.27 530.915 1964.55 15926.4 11306.7 3986.89 10954.7 15048.3 4619.77 326.701
internal_count=1687012 1642754 1606972 842249 821000 44258 664678 561469 459415 21249 103209 26342 102054 156322 39917 35782 37559 116405 94270 76867 20913 23345 22135 33619
is_linear=0
shrinkage=0.5


Tree=8
num_leaves=34
num_cat=0
split_feature=222 223 222 187 9 42 199 144 172 210 28 144 148 151 222 222 223 195 193 52 201 172 47 187 223 215 221 220 17 201 184 198 192
split_gain=5311.9 1284.25 1136 941.586 1133.32 915.124 770.933 802.05 1053.2 772.107 765.181 1107.65 959.548 728.9 815.502 663.221 606.63 564.971 553.81 518.966 627.352 460.161 405.314 383.208 377.51 368.718 354.006 264.795 196.741 187.715 84.6395 21.7941 87.5628
threshold=10.500000000000002 210.50000000000003 179.50000000000003 15.500000000000002 7.5000000000000009 0.0991095006465912 5.5000000000000009 752.50000000000011 6.5000000000000009 391.50000000000006 0.080255500972270979 95.500000000000014 48.500000000000007 2.5000000000000004 46.500000000000007 4.5000000000000009 414.50000000000006 549346.50000000012 58587.500000000007 0.46428571641445165 287.50000000000006 4.5000000000000009 7.5000000000000009 11.500000000000002 150.50000000000003 98.500000000000014 0.57967892289161693 -0.93070122599601735 0.076772000640630736 235.50000000000003 6.5000000000000009 3.5000000000000004 6.5000000000000009
decision_type=2 2 2 2 2 2 2 2 2 2 2 2 2 2 2 2 2 2 2 2 2 2 2 2 2 2 2 2 2 2 2 2 2
left_child=1 -1 3 6 16 25 7 8 10 13 11 -2 -12 14 21 -3 18 23 -5 20 -10 -8 -18 26 -16 28 -9 -20 -6 -30 -17 -4 -33
right_child=2 15 31 4 5 -7 9 17 19 -11 12 -13 -14 -15 24 30 22 -19 27 -21 -22 -23 -24 -25 -26 -27 -28 -29 29 -31 -32 32 -34
leaf_value=0.015831188528778049 -0.022957011145218396 0.39912499162029991 -0.49831768856858671 0.36646049409217141 -1.0385764088714255 -0.0061836937349836084 -0.1893766686684287 -0.38356047955681333 0.17430541995773188 0.3972726607542883 0.021250450679201512 -0.4138389655293363 0.33714776472583674 0.12305281395328699 0.27705703924127467 0.17352097146985182 -0.77436924102983284 -0.63362530640341108 -0.40675396874738462 0.37788960732380122 -0.17576038614718081 0.033416514735702271 -0.010142182676843761 0.42196360266448002 -0.48085804453011638 -0.18312347706708346 0.31909519614449144 0.1261163252695949 -0.42876996377860316 -0.87433038154555676 0.26449042201204248 0.45619635442750178 -0.43232997708379767
leaf_weight=4919.8867160262307 13235.86521879732 9410.1514540672069 1220.5178347203182 1240.9595326929702 418.43299669260159 904.50651168345939 5912.3866293311003 767.20206892781425 8709.3328414782882 758.59514907741686 13194.870178247511 2095.2798324180185 2938.1846091274638 2595.2779723801068 165.76998629805166 5819.353427267517 333.14496659260476 693.462940633588 462.5537569547887 2505.141124685877 1483.5640390051994 3768.5517587342765 369.82275970681803 289.85775708657457 2262.7160511701368 416.26035392878111 220.55475996760651 441.69256941857748 711.78872162746848 428.86284866940696 5295.844470637152 26.120640527107753 97.707014012441505
leaf_count=17202 125865 18710 718481 13570 13742 9286 27759 46352 136698 12071 75545 36017 9242 15583 4688 12135 17203 14043 19168 13732 41841 15523 4750 6413 146361 4753 230 1171 16974 15201 10317 14873 51513
internal_value=0 0.245994 -0.0213833 -0.0122148 -0.205966 -0.42666 0.0057788 0.0382133 0.0522232 -0.090745 0.00305381 -0.0768029 0.0791399 -0.116371 -0.168003 0.300976 0.0167167 -0.272849 0.149977 0.173717 0.122928 -0.102369 -0.382137 -0.0714105 -0.426959 -0.616661 -0.221959 -0.144314 -0.728617 -0.60473 0.217334 -0.474972 -0.202258
internal_weight=0 25445.2 68669 67324.6 5728.03 2879.85 61596.6 46133.3 44162.2 15463.3 31464.2 15331.1 16133.1 14704.7 12109.4 20525.3 2848.17 1971.08 2145.21 12698 10192.9 9680.94 702.968 1277.61 2428.49 1975.34 987.757 904.246 1559.08 1140.65 11115.2 1344.35 123.828
internal_count=1687012 58364 1628648 843781 115818 59956 727963 505978 438940 221985 246669 161882 84787 209914 194331 41162 55862 67038 33909 192271 178539 43282 21953 52995 151049 50670 46582 20339 45917 32175 22452 784867 66386
is_linear=0
shrinkage=0.5


Tree=9
num_leaves=30
num_cat=0
split_feature=222 221 193 193 206 222 5 212 223 0 223 127 187 195 144 18 142 199 130 220 215 198 123 199 145 145 45 124 223
split_gain=2818.46 980.888 1135.9 1268.64 828.319 1149.63 920.558 830.733 867.091 762.889 752.563 750.531 631.564 543.877 541.097 836.803 527.372 435.666 377.585 363.27 305.347 283.951 280.23 272.629 266.88 242.674 224.165 177.675 71.6649
threshold=4.5000000000000009 0.68960255384445202 428.00000000000006 215.00000000000003 3.5000000000000004 100.50000000000001 16.500000000000004 75.500000000000014 414.50000000000006 926071.50000000012 259.50000000000006 0.0094967000186443346 5.5000000000000009 548510.50000000012 109.50000000000001 34.500000000000007 0.39261399209499365 8.5000000000000018 41.100000381469734 1.551028907299042 96.500000000000014 1.5000000000000002 1.3095238208770754 5.5000000000000009 161.50000000000003 4.5000000000000009 0.043452000245451934 3.0714285373687749 403.50000000000006
decision_type=2 2 2 2 2 2 2 2 2 2 2 2 2 2 2 2 2 2 2 2 2 2 2 2 2 2 2 2 2
left_child=19 2 3 12 5 7 -6 11 13 -10 -3 -4 -2 -9 15 -14 -13 25 -5 -1 23 26 28 -8 -25 -7 -12 -27 -16
right_child=1 10 4 18 6 17 20 8 9 -11 21 16 14 -15 22 -17 -18 -19 -20 -21 -22 -23 -24 24 -26 27 -28 -29 -30
leaf_value=0.17863067282267114 0.13078240042627154 -0.077545758281066759 -0.55701810144562225 -1.0250110075722312 -0.31854542843130323 0.38782727889893198 0.29868884701542736 0.23704389323058253 0.0022923108646181701 -0.28534092871531341 -0.016815328776415801 -0.041324834043641616 -0.47982926356530309 0.045186676976592899 -0.50864468778697969 0.24788778158275265 -0.38521025891174598 0.60926323783974445 -0.41830599750123143 0.39265446679772376 0.42896822218402619 0.19335645034599769 -0.1648457258962813 -0.45230331911335353 0.18382755607483758 -0.25178855526792515 0.14177628498414879 -0.51878686827877718 -0.93589102429864424
leaf_weight=3425.6348486297647 1486.9862466462073 5353.0925508409273 943.66589081703569 553.60126536112512 709.38306890404783 90.199819620407652 977.83898582292022 4784.7326653532218 7552.495875430759 3295.1503773694276 4053.8030065866187 8003.3780805843999 742.16103249130538 16423.782287352777 255.32665894535603 819.3040917153703 1293.2769214218133 107.2307130402769 556.8091824449366 5040.5739216970978 2027.1091018900042 9828.1169424715918 298.91409638978075 303.78780611822731 332.34096079409937 1234.0822317794082 4847.5173094549682 1489.0034901792533 363.01747350627556
leaf_count=11122 17838 16507 16063 11872 11792 7053 11363 52466 64281 44931 11338 88822 13211 104337 6081 8357 14341 20877 18452 15411 16545 18980 5478 7890 14768 505972 10630 519806 20428
internal_value=0 0.00321766 -0.0337913 -0.258865 -0.0106336 -0.030757 0.197412 -0.00969652 0.0298326 -0.084954 0.0873052 -0.133666 -0.124876 0.0887053 -0.279448 -0.0967418 -0.0898409 -0.333686 -0.729577 0.306721 0.29936 0.134607 -0.582969 0.133096 -0.11712 -0.37263 0.0692492 -0.400212 -0.774615
internal_weight=0 78726.1 54643.6 5076.12 49567.5 45217 4350.46 42296.5 32056.2 10847.6 24082.5 10240.3 3965.71 21208.5 2478.72 1561.47 9296.66 2920.52 1110.41 8466.21 3641.08 18729.4 917.258 1613.97 636.129 2813.29 8901.32 2723.09 618.344
internal_count=1687012 1660479 1603024 101717 1501307 1438949 62358 385241 266015 109212 57455 119226 71393 156803 53555 21568 103163 1053708 30324 26533 50566 40948 31987 34021 22658 1032831 21968 1025778 26509
is_linear=0
shrinkage=0.5


end of trees

feature_importances:
Column_222=52
Column_221=28
Column_223=25
Column_220=16
Column_201=10
Column_187=9
Column_198=8
Column_208=8
Column_206=6
Column_0=5
Column_9=5
Column_47=5
Column_195=5
Column_199=5
Column_210=5
Column_215=5
Column_43=4
Column_144=4
Column_192=4
Column_193=4
Column_2=3
Column_4=3
Column_5=3
Column_18=3
Column_23=3
Column_24=3
Column_29=3
Column_46=3
Column_52=3
Column_134=3
Column_140=3
Column_145=3
Column_171=3
Column_172=3
Column_184=3
Column_189=3
Column_212=3
Column_3=2
Column_16=2
Column_114=2
Column_124=2
Column_126=2
Column_127=2
Column_142=2
Column_148=2
Column_156=2
Column_170=2
Column_190=2
Column_6=1
Column_15=1
Column_17=1
Column_28=1
Column_30=1
Column_31=1
Column_32=1
Column_33=1
Column_36=1
Column_40=1
Column_42=1
Column_45=1
Column_111=1
Column_113=1
Column_117=1
Column_122=1
Column_123=1
Column_128=1
Column_129=1
Column_130=1
Column_131=1
Column_135=1
Column_138=1
Column_151=1
Column_166=1
Column_168=1
Column_169=1
Column_173=1
Column_176=1
Column_179=1
Column_182=1
Column_207=1
Column_209=1
Column_211=1

parameters:
[boosting: gbdt]
[objective: binary]
[metric: binary_logloss]
[tree_learner: serial]
[device_type: cpu]
[data: ]
[valid: ]
[num_iterations: 10]
[learning_rate: 0.5]
[num_leaves: 64]
[num_threads: 0]
[deterministic: 0]
[force_col_wise: 0]
[force_row_wise: 0]
[histogram_pool_size: -1]
[max_depth: 8]
[min_data_in_leaf: 9920]
[min_sum_hessian_in_leaf: 24.4]
[bagging_fraction: 1]
[pos_bagging_fraction: 1]
[neg_bagging_fraction: 1]
[bagging_freq: 0]
[bagging_seed: 3]
[feature_fraction: 1]
[feature_fraction_bynode: 1]
[feature_fraction_seed: 2]
[extra_trees: 0]
[extra_seed: 6]
[early_stopping_round: 5]
[first_metric_only: 0]
[max_delta_step: 0]
[lambda_l1: 6.4]
[lambda_l2: 9.2]
[linear_lambda: 0]
[min_gain_to_split: 8.6]
[drop_rate: 0.1]
[max_drop: 50]
[skip_drop: 0.5]
[xgboost_dart_mode: 0]
[uniform_drop: 0]
[drop_seed: 4]
[top_rate: 0.2]
[other_rate: 0.1]
[min_data_per_group: 100]
[max_cat_threshold: 32]
[cat_l2: 10]
[cat_smooth: 10]
[max_cat_to_onehot: 4]
[top_k: 20]
[monotone_constraints: ]
[monotone_constraints_method: basic]
[monotone_penalty: 0]
[feature_contri: ]
[forcedsplits_filename: ]
[refit_decay_rate: 0.9]
[cegb_tradeoff: 1]
[cegb_penalty_split: 0]
[cegb_penalty_feature_lazy: ]
[cegb_penalty_feature_coupled: ]
[path_smooth: 0]
[interaction_constraints: ]
[verbosity: -1]
[saved_feature_importance_type: 0]
[linear_tree: 0]
[max_bin: 255]
[max_bin_by_feature: ]
[min_data_in_bin: 3]
[bin_construct_sample_cnt: 200000]
[data_random_seed: 1]
[is_enable_sparse: 1]
[enable_bundle: 1]
[use_missing: 1]
[zero_as_missing: 0]
[feature_pre_filter: 0]
[pre_partition: 0]
[two_round: 0]
[header: 0]
[label_column: ]
[weight_column: ]
[group_column: ]
[ignore_column: ]
[categorical_feature: ]
[forcedbins_filename: ]
[precise_float_parser: 0]
[objective_seed: 5]
[num_class: 1]
[is_unbalance: 0]
[scale_pos_weight: 1]
[sigmoid: 1]
[boost_from_average: 1]
[reg_sqrt: 0]
[alpha: 0.9]
[fair_c: 1]
[poisson_max_delta_step: 0.7]
[tweedie_variance_power: 1.5]
[lambdarank_truncation_level: 30]
[lambdarank_norm: 1]
[label_gain: ]
[eval_at: 10]
[multi_error_top_k: 1]
[auc_mu_weights: ]
[num_machines: 1]
[local_listen_port: 12400]
[time_out: 120]
[machine_list_filename: ]
[machines: ]
[gpu_platform_id: -1]
[gpu_device_id: -1]
[gpu_use_dp: 0]
[num_gpu: 1]

end of parameters

pandas_categorical:null
