tree
version=v3
num_class=1
num_tree_per_iteration=1
label_index=0
max_feature_idx=223
objective=binary sigmoid:1
feature_names=Column_0 Column_1 Column_2 Column_3 Column_4 Column_5 Column_6 Column_7 Column_8 Column_9 Column_10 Column_11 Column_12 Column_13 Column_14 Column_15 Column_16 Column_17 Column_18 Column_19 Column_20 Column_21 Column_22 Column_23 Column_24 Column_25 Column_26 Column_27 Column_28 Column_29 Column_30 Column_31 Column_32 Column_33 Column_34 Column_35 Column_36 Column_37 Column_38 Column_39 Column_40 Column_41 Column_42 Column_43 Column_44 Column_45 Column_46 Column_47 Column_48 Column_49 Column_50 Column_51 Column_52 Column_53 Column_54 Column_55 Column_56 Column_57 Column_58 Column_59 Column_60 Column_61 Column_62 Column_63 Column_64 Column_65 Column_66 Column_67 Column_68 Column_69 Column_70 Column_71 Column_72 Column_73 Column_74 Column_75 Column_76 Column_77 Column_78 Column_79 Column_80 Column_81 Column_82 Column_83 Column_84 Column_85 Column_86 Column_87 Column_88 Column_89 Column_90 Column_91 Column_92 Column_93 Column_94 Column_95 Column_96 Column_97 Column_98 Column_99 Column_100 Column_101 Column_102 Column_103 Column_104 Column_105 Column_106 Column_107 Column_108 Column_109 Column_110 Column_111 Column_112 Column_113 Column_114 Column_115 Column_116 Column_117 Column_118 Column_119 Column_120 Column_121 Column_122 Column_123 Column_124 Column_125 Column_126 Column_127 Column_128 Column_129 Column_130 Column_131 Column_132 Column_133 Column_134 Column_135 Column_136 Column_137 Column_138 Column_139 Column_140 Column_141 Column_142 Column_143 Column_144 Column_145 Column_146 Column_147 Column_148 Column_149 Column_150 Column_151 Column_152 Column_153 Column_154 Column_155 Column_156 Column_157 Column_158 Column_159 Column_160 Column_161 Column_162 Column_163 Column_164 Column_165 Column_166 Column_167 Column_168 Column_169 Column_170 Column_171 Column_172 Column_173 Column_174 Column_175 Column_176 Column_177 Column_178 Column_179 Column_180 Column_181 Column_182 Column_183 Column_184 Column_185 Column_186 Column_187 Column_188 Column_189 Column_190 Column_191 Column_192 Column_193 Column_194 Column_195 Column_196 Column_197 Column_198 Column_199 Column_200 Column_201 Column_202 Column_203 Column_204 Column_205 Column_206 Column_207 Column_208 Column_209 Column_210 Column_211 Column_212 Column_213 Column_214 Column_215 Column_216 Column_217 Column_218 Column_219 Column_220 Column_221 Column_222 Column_223
feature_infos=[1:3.4028234663852886e+38] [0:271267] [0:2] [0:177949] [0:141] [0:29690] [0:9] [508:861] [0.50031602382659912:0.87444800138473511] [1:223] [1:9] [0:8] [0:58214] [0:9] [0:510.96185302734375] [0:0.44487801194190979] [0:0.44487801194190979] [0:0.44487801194190979] [0:751811] [0:751811] [0:1] [0:3] [0:16] [0:1] [0:1] [0:7] [0:54] [0:7] [0:3.6723120212554932] [0:0.40233799815177917] [0:0.40233799815177917] [0:0.40233799815177917] [0:920] [0:920] [0:1] [0:3] [0:16] [0:1] [0:1] [0:6] [0:13] [0:6] [0:0.79615402221679688] [0:0.40233799815177917] [0:0.40233799815177917] [0:0.40233799815177917] [0:86] [0:86] none [0:3] [0:16] [0:1] [0:1] [0:6] [0:8] [0:6] [0:0.57813602685928345] [0:0.40233799815177917] [0:0.40233799815177917] [0:0.40233799815177917] [0:17] [0:17] [0:1] [0:2] [0:16] [0:1] [0:1] [0:4] [0:80] [0:4] [0:11.898479461669922] [0:0.35846701264381409] [0:0.35846701264381409] [0:0.35846701264381409] [0:682] [0:682] [0:1] [0:2] [0:16] [0:1] [0:1] none none none none none none none none none none none [16:16] none none [0:4] [0:4] [0:4] [0:0.37730899453163147] [0:0.36747300624847412] [0:0.36747300624847412] [0:0.36747300624847412] [0:37] [0:37] [0:1] [0:2] [0:16] [0:1] [0:1] [0:7] [0:131] [0:7] [0:8.9034099578857422] [0:0.38528299331665039] [0:0.38528299331665039] [0:0.38528299331665039] [0:4031] [0:4031] [0:1] [0:3] [0:16] [0:1] [0:1] [1:7] [1:19405.333984375] [1:9] [0.0065135997720062733:172.79824829101562] [0.00035099999513477087:0.44487801194190979] [0.004081999883055687:0.44487801194190979] [0.0057274000719189644:0.44487801194190979] [1:751811] [1:751811] [0:1] [1:3] [0:16] [0:1] [0.30000001192092896:1] [1:24] [1:58216] [1:24] [0.018439000472426414:511.20938110351562] [0.00076800002716481686:2.3295578956604004] [0.0093040000647306442:2.3295578956604004] [0.018439000472426414:2.3295578956604004] [1:751811] [1:751811] [0:2] [1:12] [0:112] [0:7] [1:7] [1:8] [1:58214] [1:9] [0.014701999723911285:510.96185302734375] [0.00076800002716481686:0.44487801194190979] [0.0093040000647306442:0.44487801194190979] [0.014701999723911285:0.44487801194190979] [1:751811] [1:751811] [0:1] [1:3] [0:16] [0:1] [0.3333333432674408:1] [1:7] [1:14753] [1:9] [0.00076800002716481686:172.79824829101562] [3.600000127335079e-05:0.44487801194190979] [0.00076800002716481686:0.44487801194190979] [0.00076800002716481686:0.44487801194190979] [1:751811] [0:751811] [0:1] [1:3] [0:16] [0:1] [0.1111111119389534:1] [1:19405.333984375] [0.0054867500439286232:0.44487801194190979] [1:58216] [0.018439000472426414:0.44487801194190979] [1:57495] [1:2261] [0.0093040000647306442:0.44487801194190979] [3.600000127335079e-05:0.44487801194190979] [0:244] [0:7] [3:188] [1:18] [0:3] [0:20] [1:3.4028234663852886e+38] [0:608] [500146:878952] [0:1] none [0:18] [2:29] [0:2] [0:316] none [0:1] none none [2:7] [0:60] [0:5560] [0:2767] [0:29688] [0:24039] [0:100] [0:1] [0:1] [0:100] [0:1] [0:1] none [0:159] [-12.928014755249023:9.3964004516601562] [0:1] [0:437] [6:439]
tree_sizes=2059 2737 3058 2640 2305 2091 2959 2205 3173

Tree=0
num_leaves=18
num_cat=0
split_feature=222 221 222 222 221 222 221 183 221 221 221 222 143 221 220 221 222
split_gain=6.64294e+06 60906.6 18297.1 26816.6 11671.1 11530.2 5275.98 5118.14 3400.76 2869.19 1391.32 1222.06 940.671 809.942 197.031 73.1367 18.8549
threshold=24.500000000000004 0.66329920291900646 10.500000000000002 16.500000000000004 0.64729326963424694 40.500000000000007 0.73548957705497753 9.5000000000000018 0.5913381576538087 0.56180498003959667 0.72291365265846264 12.500000000000002 0.13661950081586841 0.72291365265846264 0.8420829474925996 0.81566324830055248 4.5000000000000009
decision_type=2 2 2 2 2 2 2 2 2 2 2 2 2 2 2 2 2
left_child=2 5 14 11 8 9 7 -3 -5 -2 -6 -4 -11 -13 15 -1 -16
right_child=1 6 3 4 10 -7 -8 -9 -10 12 -12 13 -14 -15 16 -17 -18
leaf_value=2.604320479234616 -2.2672961112880476 0.40457612330398351 2.5748125680626988 -0.12907933928938276 1.6295264318214142 -2.7138420551753639 1.1570086555183345 -1.5306771010137856 1.1004726722667488 -0.59100835069489488 2.0988096402307348 2.2697302958342487 -1.5367617143730619 2.4884787160363664 2.6551006021591741 2.6388634640359392 2.6449189429500164
leaf_weight=41152.971793178469 2086.8725232407451 918.73588862270117 28000.318460598588 1183.307306624949 3489.2831251621246 76760.120062097907 885.61807728558779 797.13910095766187 1661.8176236487925 594.68267796933651 4198.7960063666105 8713.6331696584821 1723.4715930968523 12646.701099894941 366424.25711388886 49439.462446168065 145367.30742496997
leaf_count=11384 36172 7426 10606 11670 12901 1461433 4783 11989 9263 6957 8553 12656 25690 8549 21839 7103 18038
internal_value=2.03534 -2.57908 2.61905 2.32902 1.53272 -2.66313 0.0514741 -0.510262 0.583034 -1.77057 1.88572 2.49903 -1.30669 2.39944 2.64788 2.62325 2.65222
internal_weight=0 83766.6 662278 59893.9 10533.2 81165.1 2601.49 1715.87 2845.12 4405.03 7688.08 49360.7 2318.15 21360.3 602384 90592.4 511792
internal_count=1687012 1554450 132562 74198 42387 1530252 24198 19415 20933 68819 21454 31811 32647 21205 58364 18487 39877
is_linear=0
shrinkage=1


Tree=1
num_leaves=24
num_cat=0
split_feature=222 222 222 222 59 154 155 127 131 220 29 1 220 165 220 32 220 60 221 44 221 3 222
split_gain=169610 12866.2 6277.12 2126.33 1949.99 1863.34 1219.15 1346.42 1144.22 900.95 1119.67 661.106 507.884 445.109 407.671 314.282 310.069 155.231 142.705 132.17 114.883 41.5301 40.6334
threshold=18.500000000000004 46.500000000000007 10.500000000000002 14.500000000000002 0.067387998104095473 0.11253499984741212 0.024653499945998195 0.037248250097036369 57.100000381469734 0.30321414768695837 0.067592501640319838 1366.5000000000002 0.30321414768695837 1.5000000000000002 0.64215394854545604 2.5000000000000004 0.8420829474925996 5.5000000000000009 0.66329920291900646 0.032522499561309821 0.81566324830055248 1128.5000000000002 4.5000000000000009
decision_type=2 2 2 2 2 2 2 2 2 2 2 2 2 2 2 2 2 2 2 2 2 2 2
left_child=2 4 16 14 5 -2 8 11 15 10 -9 19 -5 -10 -4 -7 20 18 21 -8 -1 -3 -18
right_child=1 17 3 12 -6 6 7 9 13 -11 -12 -13 -14 -15 -16 -17 22 -19 -20 -21 -22 -23 -24
leaf_value=0.50643112938395463 0.49185043175106069 -0.58423844883529208 0.34374039676098955 0.018091813850747925 0.4494326620858336 0.087455869231432212 -0.95364042048415743 -0.11134447044550527 -0.55751438034363177 0.15658802259654736 -0.6152253741454442 -0.22046615942888523 0.25595308099979358 -0.030413982075994283 0.47802768470831142 0.43307924574844481 0.58517772874257945 -0.17097930222446148 -0.85753464937501001 -0.62236612136751557 0.55920932477971297 -0.32445456754491991 0.56879976624983575
leaf_weight=25820.936482775956 1422.9296032004058 42326.197085058317 12141.082968145609 5538.2026370614767 2102.0803075823933 1607.6534077264369 929.84665648452938 4585.7334976419806 887.24688264727592 2079.5637234952301 1879.423277746886 905.52898878976703 5341.1945811249316 1066.9486474711448 16426.979023560882 1597.6464751772583 220022.93955304474 290.22044033370912 633.72295868396759 809.95557597279549 30107.582030061632 246.20063767768443 88062.041774308309
leaf_count=11384 6275 1415166 12321 13557 10679 9496 11770 40062 10232 7506 22546 7491 7645 7694 8888 6808 21839 9148 5645 7667 7103 8052 18038
internal_value=0 -0.416883 0.550941 0.342326 -0.0501605 -0.109528 -0.162198 -0.264127 0.0587397 -0.157439 -0.258702 -0.606476 0.135095 -0.271877 0.421133 0.260865 0.573535 -0.584373 -0.587085 -0.804396 0.534955 -0.582837 0.580518
internal_weight=0 63370.9 403461 39447.5 19874.6 17772.5 16349.5 11190.1 5159.5 8544.72 6465.16 2645.33 10879.4 1954.2 28568.1 3205.3 364013 43496.3 43206.1 1739.8 55928.5 42572.4 308085
internal_count=1687012 1586237 100775 42411 148226 137547 131272 97042 34230 70114 62608 26928 21202 17926 21209 16304 58364 1438011 1428863 19437 18487 1423218 39877
is_linear=0
shrinkage=0.55


Tree=2
num_leaves=27
num_cat=0
split_feature=222 222 222 223 195 155 1 210 211 193 223 223 211 127 8 221 155 116 210 222 220 60 3 223 221 222
split_gain=91398.8 14519.3 2630.44 1075.41 712.722 761.376 820.727 669.296 618.979 1301.47 774.285 1022.61 647.439 635.02 603.774 589.729 578.907 481.093 359.462 260.622 213.31 172.319 75.3747 69.4795 62.027 10.1721
threshold=14.500000000000002 46.500000000000007 8.5000000000000018 328.50000000000006 535289.50000000012 0.024653499945998195 1296.5000000000002 26.500000000000004 8.5000000000000018 21764.000000000004 300.50000000000006 404.50000000000006 23.500000000000004 0.04062683321535588 0.53515449166297924 0.76485183835029613 0.052865501493215568 2.5000000000000004 1.5000000000000002 10.500000000000002 1.2687118053436282 5.5000000000000009 1412.5000000000002 305.50000000000006 0.66329920291900646 2.5000000000000004
decision_type=2 2 2 2 2 2 2 2 2 2 2 2 2 2 2 2 2 2 2 2 2 2 2 2 2 2
left_child=2 4 20 -4 14 6 7 -6 10 12 13 -12 -10 -7 -2 21 -11 -13 -15 -5 23 22 24 -1 -3 -22
right_child=1 15 3 19 5 8 -8 -9 9 16 11 17 -14 18 -16 -17 -18 -19 -20 -21 25 -23 -24 -25 -26 -27
leaf_value=0.48974117988812332 0.052090995674249102 -0.56658621353716976 0.23296462246203184 0.50482739353798178 0.24063867853082294 -0.47837650888573474 0.47568321498785088 -0.16053418491748545 -0.22741127270183539 -0.2720940944188156 0.39721251751410558 0.093483995666581166 0.2529932575729601 0.16399235176882943 -0.52744256291425595 0.43704559994743181 -0.95836048450985489 -0.24305730450230165 -0.17338413547486078 0.39599172091403556 0.5679213636663748 -0.099834669708121826 -0.15461362316364399 0.54022481311676562 -0.80263116073197105 0.55422068470215979
leaf_weight=19323.452070510015 915.28899266105145 24988.60554668121 9490.9047396332026 13220.928390821442 2893.0142728667706 1249.0773437926546 2092.0000283736736 2208.3565206415951 1799.7899535428733 767.11251365486532 2910.0933622820303 5015.6440577358007 1588.1378323631361 1663.1803192943335 1312.8247920842841 171.29023422300816 743.62819014582783 1716.2655293038115 2214.5964899323881 14432.847028939053 92554.669800007716 250.00089254975319 148.32097721099854 19505.797941766679 413.82520037144423 68820.764758918434
leaf_count=11203 7761 1416815 14161 5886 10253 10948 6554 12815 12000 6330 10634 24472 6827 7989 15727 300 10154 11683 15281 11772 13167 9148 6411 5152 5337 18232
internal_value=0 -0.258388 0.528086 0.393329 0.0084696 0.0333402 0.186339 0.066783 -0.0226278 -0.191873 0.0335245 0.125374 -0.00181111 -0.138911 -0.289698 -0.557205 -0.614616 0.00729277 -0.0283516 0.448225 0.553062 -0.564012 -0.56847 0.51526 -0.570783 0.562119
internal_weight=0 55061.1 237349 37144.7 29089 26860.9 7193.37 5101.37 19667.5 4898.67 14768.9 9642 3387.93 5126.85 2228.11 25972 1510.74 6731.91 3877.78 27653.8 200205 25800.8 25550.8 38829.3 25402.4 161375
internal_count=1687012 1607439 79573 31819 169428 145940 29622 23068 116318 35311 81007 46789 18827 34218 23488 1438011 16484 36155 23270 17658 47754 1437711 1428563 16355 1422152 31399
is_linear=0
shrinkage=0.55


Tree=3
num_leaves=23
num_cat=0
split_feature=222 222 222 220 1 154 216 220 193 220 0 220 145 220 222 223 222 43 44 222 221 222
split_gain=52558.7 10951.2 1579.07 688.854 821.668 1004.75 655.741 708.113 559.203 548.487 518.952 467.668 413.189 374.614 373.078 412.257 372.303 230.658 153.283 101.494 102.1 33.1756
threshold=12.500000000000002 46.500000000000007 8.5000000000000018 -0.13878714293241498 170.50000000000003 1.3274489641189577 1.0000000180025095e-35 -3.4627749919891353 2580.5000000000005 -0.6306549310684203 21010.000000000004 0.8420829474925996 424.50000000000006 1.0458977818489077 16.500000000000004 407.50000000000006 20.500000000000004 0.022449499927461151 0.015541999600827696 54.500000000000007 0.58101049065589916 2.5000000000000004
decision_type=2 2 2 2 2 2 2 2 2 2 2 2 2 2 2 2 2 2 2 2 2 2
left_child=2 3 13 4 -2 6 -6 12 17 19 -9 -4 -8 -1 -10 -16 -7 -5 -18 20 -3 -15
right_child=1 9 11 8 5 16 7 10 14 -11 -12 -13 -14 21 15 -17 18 -19 -20 -21 -22 -23
leaf_value=0.46234985019417091 -0.48744342125682349 -0.45201943397405719 0.26591693488854046 0.31459671000625866 0.36952233712726534 -0.12337743360035489 -0.61217107116482361 -0.23896460453227222 0.13743749498956548 0.091256756607396614 0.091600851682563461 0.43549885298253777 -0.014877912387211192 0.55576267351982722 0.083117796545529365 -0.2610853636565364 -0.30871496251941033 0.11833054701339618 -0.68415822124337988 -0.56284574300837853 0.094711927393504147 0.53159529892144497
leaf_weight=20629.638566266745 1199.7230547340587 330.83008680865169 8539.7118583163247 3687.8847449738532 1616.3742294297554 1571.7972240466624 833.95668044732884 1666.0330205224454 3530.6338652409613 403.03109563793987 10018.936211751308 11990.884056343697 606.54214572440833 55330.256448525935 1919.0120259481482 2302.2779955002479 652.88169792853296 3636.0257722935639 755.60915560321882 14553.701923175715 139.72643567062914 43072.440322178416
leaf_count=14618 10301 31201 11646 7532 11946 4797 15000 12326 6226 14095 53940 9570 8092 13614 6312 11939 8837 9675 13108 1385653 7062 19522
internal_value=0 -0.153371 0.506582 0.0210275 -0.0488049 -0.0187957 0.0400762 -0.000656044 0.108723 -0.537539 0.0442143 0.365175 -0.363231 0.53093 0.00557315 -0.104519 -0.309547 0.217597 -0.514239 -0.554529 -0.288764 0.545249
internal_weight=0 49425 139563 33997.7 18921.9 17722.1 14741.8 13125.5 15075.8 15427.3 11685 20530.6 1440.5 119032 7751.92 4221.29 2980.29 7323.91 1408.49 15024.3 470.557 98402.7
internal_count=1687012 1618042 68970 180031 138347 128046 101304 89358 41684 1438011 66266 21216 23092 47754 24477 18251 26742 17207 21945 1423916 38263 33136
is_linear=0
shrinkage=0.55


Tree=4
num_leaves=20
num_cat=0
split_feature=222 222 222 223 131 221 173 223 223 59 221 5 169 221 168 220 18 223 221
split_gain=30360.8 6779.72 2155.95 1197.38 593.433 548.897 1619.73 803.501 682.188 482.897 596.173 459.297 609.595 423.073 227.985 216.346 170.188 245.24 111.523
threshold=12.500000000000002 70.500000000000014 6.5000000000000009 305.50000000000006 1011.3750000000001 0.54020690917968761 492.50000000000006 150.50000000000003 160.50000000000003 0.036893500015139587 0.65489688515663158 175.50000000000003 0.028380999341607097 0.76485183835029613 0.29746548831462866 1.7908193469047549 17.500000000000004 167.50000000000003 0.77989244461059581
decision_type=2 2 2 2 2 2 2 2 2 2 2 2 2 2 2 2 2 2 2
left_child=2 4 15 -4 5 6 7 -2 -7 11 -11 13 -13 -10 -6 -1 17 -9 -5
right_child=1 -3 3 18 14 8 -8 16 9 10 -12 12 -14 -15 -16 -17 -18 -19 -20
leaf_value=0.46255343347960121 0.20473597408774 -0.55835432733918799 0.11212386049940976 0.3478003258694265 -0.14513080891994964 -0.28147636589258168 0.80687979178071045 0.16536995467099239 -0.048918075745417802 0.42798596637974096 0.051664680861429765 0.42557020181455762 -0.02992949669345573 0.15445862497968083 -0.6500763812114736 0.53903020372540045 -0.68879058854907615 -0.53794626528877221 0.43897240243519126
leaf_weight=15862.702812787611 531.52125786314718 8044.6064534159377 6035.7858263337985 8131.0680575435981 571.97779504815117 1881.0220522037707 391.20374639844522 203.60585597832687 15460.295350427506 2196.693468529731 3037.2307274350896 1839.8401632299647 1700.4192697170656 3857.2371731596068 528.87616971600801 46555.554629684892 1153.3670991954859 502.92865604348481 9327.0564854079857
leaf_count=14181 11242 1312177 13496 9975 11577 12367 9195 4185 103354 11168 8891 7351 9569 6829 13036 22963 69158 27943 8355
internal_value=0 -0.104821 0.46617 0.323782 0.00304179 0.0164757 -0.2167 -0.387211 0.0382238 0.0597608 0.210322 0.0251621 0.207001 -0.0081941 -0.392304 0.519688 -0.557152 -0.334243 0.396791
internal_weight=0 41900.8 85912.2 23493.9 33856.2 32755.4 2782.63 2391.42 29972.7 28091.7 5233.92 22857.8 3540.26 19317.5 1100.85 62418.3 1859.9 706.535 17458.1
internal_count=1687012 1618042 68970 31826 305865 281252 121723 112528 159529 147162 20059 127103 16920 110183 24613 37144 101286 32128 18330
is_linear=0
shrinkage=0.55


Tree=5
num_leaves=18
num_cat=0
split_feature=222 222 220 15 222 222 187 221 208 222 223 14 168 180 222 137 220
split_gain=18608.6 4385.25 1608.46 438.506 761.285 394.651 377.288 399.833 774.386 419.214 555.111 335.94 374.842 787.603 603.32 275.601 66.5061
threshold=10.500000000000002 70.500000000000014 0.46383497118949896 0.0039404998533427724 20.500000000000004 6.5000000000000009 1.5000000000000002 0.5212903916835786 122.50000000000001 16.500000000000004 126.50000000000001 0.10856999829411508 0.067735001444816603 0.060525501146912582 20.500000000000004 4.5000000000000009 2.9469895362854008
decision_type=2 2 2 2 2 2 2 2 2 2 2 2 2 2 2 2 2
left_child=2 3 -1 4 -2 16 -5 8 9 -8 -11 -9 13 -13 -14 -6 -4
right_child=1 -3 5 6 15 -7 7 11 -10 10 -12 12 14 -15 -16 -17 -18
leaf_value=0.21285501024287257 0.010319184426548082 -0.55454613263340613 0.47994228021425361 0.3068065051023659 -0.80524495004350016 0.37895198362103444 -1.1505204925944339 0.27450532959007556 0.9620747858115507 0.25636022376295814 -0.46372870808731614 0.035733901941648868 0.039821912614467055 0.43951033073296741 -0.17781769593628796 -0.26728219132750292 0.53420710526393556
leaf_weight=7797.5724096512422 2275.071192223113 4664.0088997338898 13521.868548887549 1408.6470083575696 570.36160040576942 8633.9939175494947 164.73915753047913 1624.0011725858785 140.75276778265834 457.43031682190485 1046.3542843945324 10705.319634325802 11256.285852733534 1684.623633621959 5842.6497054364299 618.07020490220748 20100.879153664922
leaf_count=15198 5640 1312177 15999 8680 15348 12618 1074 6472 1972 10585 90816 59829 26708 5878 73500 9969 14549
internal_value=0 -0.0519604 0.443 0.0101598 -0.176032 0.485383 0.0290209 0.0170141 -0.233557 -0.340102 -0.243719 0.0316896 0.0181933 0.0910269 -0.0345398 -0.530858 0.512563
internal_weight=0 42458.3 50054.3 37794.3 3463.5 42256.7 34330.8 32922.2 1809.28 1668.52 1503.78 31112.9 29488.9 12389.9 17098.9 1188.43 33622.7
internal_count=1687012 1628648 58364 316471 30957 43166 285514 276834 104447 102475 101401 172387 165915 65707 100208 25317 30548
is_linear=0
shrinkage=0.55


Tree=6
num_leaves=26
num_cat=0
split_feature=222 222 220 220 126 140 220 222 173 131 172 222 223 211 201 208 192 221 7 145 222 222 1 18 220
split_gain=10660.9 2748.64 971.841 633.406 849.954 746.565 686.375 674.997 648.629 935.154 553.438 389.197 379.421 338.591 342.809 381.162 322.295 332.405 289.267 532.273 242.596 207.444 138.321 76.0368 37.5547
threshold=8.5000000000000018 70.500000000000014 0.64215394854545604 -0.84173688292503346 0.077670101076364531 0.95912298560142528 -2.3817232847213741 24.500000000000004 519.50000000000011 450.29167175292974 27.500000000000004 12.500000000000002 393.50000000000006 4.5000000000000009 226.50000000000003 21.500000000000004 6.5000000000000009 0.70031121373176586 611.50000000000011 67.500000000000014 4.5000000000000009 24.500000000000004 671.50000000000011 989.50000000000011 3.5326033830642705
decision_type=2 2 2 2 2 2 2 2 2 2 2 2 2 2 2 2 2 2 2 2 2 2 2 2 2
left_child=2 3 -1 4 -2 7 10 12 9 -9 21 -5 -6 18 22 -16 -8 -18 19 -13 24 -7 -15 -10 -4
right_child=1 -3 20 11 5 6 16 8 23 -11 -12 13 -14 14 15 -17 17 -19 -20 -21 -22 -23 -24 -25 -26
leaf_value=0.20155621454738823 -0.69336222244695389 -0.55148091973617741 0.47075926695024778 0.17883099443630807 -0.18354069823646318 -1.1645787671568688 0.073567447308658732 0.18584442969401616 -0.63410670547641246 1.0795634004031687 -0.027890176207853626 0.14252635632135285 0.090726996584146735 0.15433611501736408 -0.37255203849891516 -0.0053352266205837209 -0.48205619489219753 0.03377823794374659 0.21327244879528268 -0.16700747798764307 0.37519826829625613 -0.53822253762492156 -0.051836107949832039 -0.10706628964742955 0.53103667192102377
leaf_weight=5126.6438604232389 621.97911166213453 2701.7034840724664 7704.2962408591993 7448.696628384525 3840.1737841041759 388.06294178497046 1514.9904495347291 3290.6561836409965 249.33727462263778 389.14848283887841 332.87788459006697 4431.3131488095969 2513.6640482088551 1921.8569645475363 1700.2187435255619 1723.0865360292373 955.20657259342261 612.88665319141001 3803.2511204667389 2692.4017457622103 6495.1674511781894 333.48096818017075 1989.1519395424984 136.58297016331926 8805.1678860923275
leaf_count=11686 13856 1312177 13105 15812 14583 3315 11828 100404 11486 5418 7289 14885 6090 7014 11207 7610 21065 1809 12375 13018 13598 26831 9562 11624 9365
internal_value=0 -0.0152072 0.419024 0.0203234 -0.0687021 -0.0414882 -0.238888 0.0369426 0.211744 0.283272 -0.620041 0.0729325 -0.0748912 0.029604 -0.0616698 -0.18858 -0.106625 -0.280788 0.090969 0.0253154 0.467333 -0.887687 0.0493282 -0.45763 0.50327
internal_weight=0 43590.7 28131.3 40889 15179 14557.1 4137.51 10419.6 4065.72 3679.8 1054.42 25710 6353.84 18261.3 7334.31 3423.31 3083.08 1568.09 10927 7123.71 23004.6 721.544 3911.01 385.92 16509.5
internal_count=1687012 1639258 47754 327081 235598 221742 72137 149605 128932 105822 37435 91483 20673 75671 35393 18817 34702 22874 40278 27903 36068 30146 16576 23110 22470
is_linear=0
shrinkage=0.55


Tree=7
num_leaves=19
num_cat=0
split_feature=222 222 221 223 198 0 171 4 0 221 190 222 11 24 222 0 47 222
split_gain=5884.03 1641.75 625.36 522.035 348.267 384.668 504.398 485.531 375.051 337.079 322.917 668.725 295.647 302.023 423.346 264.155 280.845 134.087
threshold=6.5000000000000009 70.500000000000014 0.81566324830055248 234.50000000000003 5.5000000000000009 97373.000000000015 0.034708000719547279 52.500000000000007 13891831.500000002 0.70031121373176586 2.5000000000000004 18.500000000000004 1.5000000000000002 0.73214286565780651 18.500000000000004 1888.5000000000002 4.5000000000000009 2.5000000000000004
decision_type=2 2 2 2 2 2 2 2 2 2 2 2 2 2 2 2 2 2
left_child=3 2 4 -1 5 12 10 9 -9 -8 11 -7 13 -2 -15 -14 -17 -5
right_child=1 -3 -4 17 -6 6 7 8 -10 -11 -12 -13 15 14 -16 16 -18 -19
leaf_value=0.20475477368988565 0.24122914119697259 -0.54838154382285254 0.20230053356728528 0.50850172168864805 0.25707670706811597 -0.12494517759833819 -0.40230174299340149 -0.040496544683864454 0.14358427879647861 0.0077967768818059512 -0.0021917758225725534 -0.72715874333717823 0.33807710482201569 0.043606547041429508 -0.2448796968302733 0.21691167220022708 -0.036154265537276686 0.38756662307960732
leaf_weight=3349.4966881733853 1161.6863991951104 1565.2229124704609 5184.5389732010663 6318.4423332905862 1508.4021190223866 1408.0318429030012 1565.3551367678447 11449.120920062822 4718.766708461626 976.65110710635781 1083.5141091893311 925.68739744991763 1569.8506727172644 4200.4127759831026 2412.3469311740482 2460.2474352320423 2847.3816111769411 5615.7477880024817
leaf_count=12679 5204 1312177 11330 10485 9131 4166 31281 108317 33641 2852 13093 25555 5507 10698 46013 15431 15472 13980
internal_value=0 0.00321862 0.0232236 0.398093 -0.00104224 -0.0117239 -0.0575098 -0.0219018 0.0132158 -0.244884 -0.251528 -0.366329 0.0573385 -0.0160253 -0.0616743 0.140335 0.0811262 0.452051
internal_weight=0 45037.2 43472 15283.7 38287.5 36779.1 22127.1 18709.9 16167.9 2542.01 3417.23 2333.72 14651.9 7774.45 6612.76 6877.48 5307.63 11934.2
internal_count=1687012 1649868 337691 37144 326361 317230 218905 176091 141958 34133 42814 29721 98325 61915 56711 36410 30903 24465
is_linear=0
shrinkage=0.55


Tree=8
num_leaves=28
num_cat=0
split_feature=222 221 220 3 223 222 138 1 0 222 201 169 16 184 135 2 221 220 189 222 16 222 220 222 209 141 57
split_gain=3245.34 1026.62 547.395 469.258 434.947 1217.72 659.329 410.691 506.749 371.893 1220.84 621.53 355.857 355.439 327.561 347.921 259.364 239.822 239.221 219.046 343.846 200.413 194.916 170.907 61.0316 29.7569 18.3016
threshold=4.5000000000000009 0.39779619872570043 1.7908193469047549 9.5000000000000018 159.50000000000003 14.500000000000002 6.5000000000000009 883.50000000000011 1099726.5000000002 38.500000000000007 42.000000000000007 0.046293999999761588 0.060194499790668494 9.5000000000000018 0.22500000149011615 1.0000000180025095e-35 0.79623040556907665 2.0969768762588505 10.500000000000002 14.500000000000002 0.090258497744798674 10.500000000000002 -2.5611312389373775 16.500000000000004 1.0000000180025095e-35 0.0036470000632107262 0.050102500244975097
decision_type=2 2 2 2 2 2 2 2 2 2 2 2 2 2 2 2 2 2 2 2 2 2 2 2 2 2 2
left_child=17 22 3 4 5 -3 -7 8 -5 14 11 -11 -10 19 -6 -16 -12 -1 -8 -9 -21 -4 23 -2 25 -25 -27
right_child=1 2 21 7 9 6 18 13 12 10 16 -13 -14 -15 15 -17 -18 -19 -20 20 -22 -23 -24 24 -26 26 -28
leaf_value=0.25848218839244325 -1.7443703238790917 -0.55001191606884514 0.25610843589952692 0.17746535933003466 0.1887566098892009 0.42583556258184113 -0.38038150993600056 -0.25635053018541532 -0.087956921354068254 0.64650874815788895 -0.60445890144312941 -0.6809922674598915 -0.62313071521696439 0.018143491333189259 0.08682854358545565 -0.052534290454727205 0.42564550248806005 0.4604431422838513 0.058352068016504638 -1.1489743351612232 -0.2352452392555584 0.067018829619498191 0.58715240561600035 0 0.1651366641908367 -0.56333310324892794 -0.035228799637632507
leaf_weight=2853.7175516389543 28.317283140961081 1463.3820523866452 3488.2274862719933 1402.4695792821003 4703.7130623837584 993.20383615998435 705.4902550400293 337.13115198269952 1135.3498701606004 540.00003100887989 1090.9427895114059 123.12924881343497 559.6653924297425 363.63133127728361 13063.898550147831 9236.8539389286889 71.234226379543543 5105.0369886458502 780.11046533452463 359.21440213077585 202.35565900799702 3347.0396306965267 38.137799479125533 26.994749117642641 32.441722937655868 947.73957686976064 26.205360153311631
leaf_count=10043 303 7489 11985 11328 15842 10465 9844 1175 12740 48244 245371 26212 11843 2976 51689 44940 91 16490 10278 22948 8036 8469 2999 24162 18674 1042918 9458
internal_value=0 0.00777759 0.0209832 -0.00533288 0.0172057 -0.153858 0.0808182 -0.174661 -0.0659567 0.0406794 -0.198809 0.392057 -0.267874 -0.437971 0.056974 0.0290582 -0.53735 0.388572 -0.150388 -0.621939 -0.831329 0.163906 -0.514661 -0.560274 -0.51069 -0.535072 -0.550734
internal_weight=0 45066.9 43967 37131.8 32772 3942.19 2478.8 4359.82 3097.48 28829.8 1825.31 663.129 1695.02 1262.33 27004.5 22300.8 1162.18 7958.75 1485.6 898.701 561.57 6835.27 1099.84 1061.7 1033.38 1000.94 973.945
internal_count=1687012 1660479 561965 541511 470465 38076 30587 71046 35911 432389 319918 74456 24583 35135 112471 96629 245462 26533 20122 32159 30984 20454 1098514 1095515 1095212 1076538 1052376
is_linear=0
shrinkage=0.55


end of trees

feature_importances:
Column_222=49
Column_221=23
Column_220=21
Column_223=13
Column_0=5
Column_1=5
Column_3=3
Column_131=3
Column_155=3
Column_211=3
Column_16=2
Column_18=2
Column_44=2
Column_59=2
Column_60=2
Column_127=2
Column_145=2
Column_154=2
Column_168=2
Column_169=2
Column_173=2
Column_193=2
Column_201=2
Column_208=2
Column_210=2
Column_2=1
Column_4=1
Column_5=1
Column_7=1
Column_8=1
Column_11=1
Column_14=1
Column_15=1
Column_24=1
Column_29=1
Column_32=1
Column_43=1
Column_47=1
Column_57=1
Column_116=1
Column_126=1
Column_135=1
Column_137=1
Column_138=1
Column_140=1
Column_141=1
Column_143=1
Column_165=1
Column_171=1
Column_172=1
Column_180=1
Column_183=1
Column_184=1
Column_187=1
Column_189=1
Column_190=1
Column_192=1
Column_195=1
Column_198=1
Column_209=1
Column_216=1

parameters:
[boosting: gbdt]
[objective: binary]
[metric: binary_logloss]
[tree_learner: serial]
[device_type: cpu]
[data: ]
[valid: ]
[num_iterations: 10]
[learning_rate: 0.55]
[num_leaves: 64]
[num_threads: 0]
[deterministic: 0]
[force_col_wise: 0]
[force_row_wise: 0]
[histogram_pool_size: -1]
[max_depth: 8]
[min_data_in_leaf: 8110]
[min_sum_hessian_in_leaf: 26.2]
[bagging_fraction: 1]
[pos_bagging_fraction: 1]
[neg_bagging_fraction: 1]
[bagging_freq: 0]
[bagging_seed: 3]
[feature_fraction: 1]
[feature_fraction_bynode: 1]
[feature_fraction_seed: 2]
[extra_trees: 0]
[extra_seed: 6]
[early_stopping_round: 5]
[first_metric_only: 0]
[max_delta_step: 0]
[lambda_l1: 2]
[lambda_l2: 9.8]
[linear_lambda: 0]
[min_gain_to_split: 10]
[drop_rate: 0.1]
[max_drop: 50]
[skip_drop: 0.5]
[xgboost_dart_mode: 0]
[uniform_drop: 0]
[drop_seed: 4]
[top_rate: 0.2]
[other_rate: 0.1]
[min_data_per_group: 100]
[max_cat_threshold: 32]
[cat_l2: 10]
[cat_smooth: 10]
[max_cat_to_onehot: 4]
[top_k: 20]
[monotone_constraints: ]
[monotone_constraints_method: basic]
[monotone_penalty: 0]
[feature_contri: ]
[forcedsplits_filename: ]
[refit_decay_rate: 0.9]
[cegb_tradeoff: 1]
[cegb_penalty_split: 0]
[cegb_penalty_feature_lazy: ]
[cegb_penalty_feature_coupled: ]
[path_smooth: 0]
[interaction_constraints: ]
[verbosity: -1]
[saved_feature_importance_type: 0]
[linear_tree: 0]
[max_bin: 255]
[max_bin_by_feature: ]
[min_data_in_bin: 3]
[bin_construct_sample_cnt: 200000]
[data_random_seed: 1]
[is_enable_sparse: 1]
[enable_bundle: 1]
[use_missing: 1]
[zero_as_missing: 0]
[feature_pre_filter: 0]
[pre_partition: 0]
[two_round: 0]
[header: 0]
[label_column: ]
[weight_column: ]
[group_column: ]
[ignore_column: ]
[categorical_feature: ]
[forcedbins_filename: ]
[precise_float_parser: 0]
[objective_seed: 5]
[num_class: 1]
[is_unbalance: 0]
[scale_pos_weight: 1]
[sigmoid: 1]
[boost_from_average: 1]
[reg_sqrt: 0]
[alpha: 0.9]
[fair_c: 1]
[poisson_max_delta_step: 0.7]
[tweedie_variance_power: 1.5]
[lambdarank_truncation_level: 30]
[lambdarank_norm: 1]
[label_gain: ]
[eval_at: 10]
[multi_error_top_k: 1]
[auc_mu_weights: ]
[num_machines: 1]
[local_listen_port: 12400]
[time_out: 120]
[machine_list_filename: ]
[machines: ]
[gpu_platform_id: -1]
[gpu_device_id: -1]
[gpu_use_dp: 0]
[num_gpu: 1]

end of parameters

pandas_categorical:null
