tree
version=v3
num_class=1
num_tree_per_iteration=1
label_index=0
max_feature_idx=223
objective=binary sigmoid:1
feature_names=Column_0 Column_1 Column_2 Column_3 Column_4 Column_5 Column_6 Column_7 Column_8 Column_9 Column_10 Column_11 Column_12 Column_13 Column_14 Column_15 Column_16 Column_17 Column_18 Column_19 Column_20 Column_21 Column_22 Column_23 Column_24 Column_25 Column_26 Column_27 Column_28 Column_29 Column_30 Column_31 Column_32 Column_33 Column_34 Column_35 Column_36 Column_37 Column_38 Column_39 Column_40 Column_41 Column_42 Column_43 Column_44 Column_45 Column_46 Column_47 Column_48 Column_49 Column_50 Column_51 Column_52 Column_53 Column_54 Column_55 Column_56 Column_57 Column_58 Column_59 Column_60 Column_61 Column_62 Column_63 Column_64 Column_65 Column_66 Column_67 Column_68 Column_69 Column_70 Column_71 Column_72 Column_73 Column_74 Column_75 Column_76 Column_77 Column_78 Column_79 Column_80 Column_81 Column_82 Column_83 Column_84 Column_85 Column_86 Column_87 Column_88 Column_89 Column_90 Column_91 Column_92 Column_93 Column_94 Column_95 Column_96 Column_97 Column_98 Column_99 Column_100 Column_101 Column_102 Column_103 Column_104 Column_105 Column_106 Column_107 Column_108 Column_109 Column_110 Column_111 Column_112 Column_113 Column_114 Column_115 Column_116 Column_117 Column_118 Column_119 Column_120 Column_121 Column_122 Column_123 Column_124 Column_125 Column_126 Column_127 Column_128 Column_129 Column_130 Column_131 Column_132 Column_133 Column_134 Column_135 Column_136 Column_137 Column_138 Column_139 Column_140 Column_141 Column_142 Column_143 Column_144 Column_145 Column_146 Column_147 Column_148 Column_149 Column_150 Column_151 Column_152 Column_153 Column_154 Column_155 Column_156 Column_157 Column_158 Column_159 Column_160 Column_161 Column_162 Column_163 Column_164 Column_165 Column_166 Column_167 Column_168 Column_169 Column_170 Column_171 Column_172 Column_173 Column_174 Column_175 Column_176 Column_177 Column_178 Column_179 Column_180 Column_181 Column_182 Column_183 Column_184 Column_185 Column_186 Column_187 Column_188 Column_189 Column_190 Column_191 Column_192 Column_193 Column_194 Column_195 Column_196 Column_197 Column_198 Column_199 Column_200 Column_201 Column_202 Column_203 Column_204 Column_205 Column_206 Column_207 Column_208 Column_209 Column_210 Column_211 Column_212 Column_213 Column_214 Column_215 Column_216 Column_217 Column_218 Column_219 Column_220 Column_221 Column_222 Column_223
feature_infos=[1:3.4028234663852886e+38] [0:271267] [0:2] [0:177949] [0:141] [0:29690] [0:9] [508:861] [0.50031602382659912:0.87444800138473511] [1:223] [1:9] [0:8] [0:58214] [0:9] [0:510.96185302734375] [0:0.44487801194190979] [0:0.44487801194190979] [0:0.44487801194190979] [0:751811] [0:751811] [0:1] [0:3] [0:16] [0:1] [0:1] [0:7] [0:54] [0:7] [0:3.6723120212554932] [0:0.40233799815177917] [0:0.40233799815177917] [0:0.40233799815177917] [0:920] [0:920] [0:1] [0:3] [0:16] [0:1] [0:1] [0:6] [0:13] [0:6] [0:0.79615402221679688] [0:0.40233799815177917] [0:0.40233799815177917] [0:0.40233799815177917] [0:86] [0:86] none [0:3] [0:16] [0:1] [0:1] [0:6] [0:8] [0:6] [0:0.57813602685928345] [0:0.40233799815177917] [0:0.40233799815177917] [0:0.40233799815177917] [0:17] [0:17] [0:1] [0:2] [0:16] [0:1] [0:1] [0:4] [0:80] [0:4] [0:11.898479461669922] [0:0.35846701264381409] [0:0.35846701264381409] [0:0.35846701264381409] [0:682] [0:682] [0:1] [0:2] [0:16] [0:1] [0:1] none none none none none none none none none none none [16:16] none none [0:4] [0:4] [0:4] [0:0.37730899453163147] [0:0.36747300624847412] [0:0.36747300624847412] [0:0.36747300624847412] [0:37] [0:37] [0:1] [0:2] [0:16] [0:1] [0:1] [0:7] [0:131] [0:7] [0:8.9034099578857422] [0:0.38528299331665039] [0:0.38528299331665039] [0:0.38528299331665039] [0:4031] [0:4031] [0:1] [0:3] [0:16] [0:1] [0:1] [1:7] [1:19405.333984375] [1:9] [0.0065135997720062733:172.79824829101562] [0.00035099999513477087:0.44487801194190979] [0.004081999883055687:0.44487801194190979] [0.0057274000719189644:0.44487801194190979] [1:751811] [1:751811] [0:1] [1:3] [0:16] [0:1] [0.30000001192092896:1] [1:24] [1:58216] [1:24] [0.018439000472426414:511.20938110351562] [0.00076800002716481686:2.3295578956604004] [0.0093040000647306442:2.3295578956604004] [0.018439000472426414:2.3295578956604004] [1:751811] [1:751811] [0:2] [1:12] [0:112] [0:7] [1:7] [1:8] [1:58214] [1:9] [0.014701999723911285:510.96185302734375] [0.00076800002716481686:0.44487801194190979] [0.0093040000647306442:0.44487801194190979] [0.014701999723911285:0.44487801194190979] [1:751811] [1:751811] [0:1] [1:3] [0:16] [0:1] [0.3333333432674408:1] [1:7] [1:14753] [1:9] [0.00076800002716481686:172.79824829101562] [3.600000127335079e-05:0.44487801194190979] [0.00076800002716481686:0.44487801194190979] [0.00076800002716481686:0.44487801194190979] [1:751811] [0:751811] [0:1] [1:3] [0:16] [0:1] [0.1111111119389534:1] [1:19405.333984375] [0.0054867500439286232:0.44487801194190979] [1:58216] [0.018439000472426414:0.44487801194190979] [1:57495] [1:2261] [0.0093040000647306442:0.44487801194190979] [3.600000127335079e-05:0.44487801194190979] [0:244] [0:7] [3:188] [1:18] [0:3] [0:20] [1:3.4028234663852886e+38] [0:608] [500146:878952] [0:1] none [0:18] [2:29] [0:2] [0:316] none [0:1] none none [2:7] [0:60] [0:5560] [0:2767] [0:29688] [0:24039] [0:100] [0:1] [0:1] [0:100] [0:1] [0:1] none [0:159] [-4.3194770812988281:3.8015170097351074] [0:1] [0:438] [6:439]
tree_sizes=5967 5405 5445 6908 5435 4638 6270 5308 4131 6620

Tree=0
num_leaves=55
num_cat=0
split_feature=222 222 221 221 222 222 221 198 113 222 208 221 164 221 222 221 179 115 221 0 208 189 30 9 5 195 198 222 123 208 208 189 221 208 223 9 223 222 221 8 3 47 198 223 220 221 221 222 221 52 223 222 221 222
split_gain=6.00061e+06 96827.4 88467.6 25009.7 22510.8 13055.3 7669.34 7526 6972.76 6906.59 6906.33 5948.38 5058.35 4758.9 4200.91 4037.28 3093.43 2778.25 2760.89 2702.21 2610.53 3151.47 2554.7 2300.23 2879.76 2426.4 2040.22 2024.28 1672.19 1565.29 1517.54 1892.67 1501.25 1378.88 1301.19 1023.79 875.699 770.142 698.679 622.037 615.073 545.929 595.683 499.171 288.318 274.033 260.389 248.617 180.813 128.72 69.3511 48.9964 24.5625 21.4477
threshold=40.500000000000007 24.500000000000004 0.43710659444332128 0.49847181141376501 62.500000000000007 16.500000000000004 0.63187721371650707 3.5000000000000004 0.001070500002242625 100.50000000000001 166.50000000000003 0.60414204001426708 0.6904762089252473 0.54307329654693615 32.500000000000007 0.63187721371650707 2.7749999761581425 0.030946999788284305 0.38736821711063391 260.50000000000006 22.500000000000004 10.500000000000002 0.080708499997854247 9.5000000000000018 197.50000000000003 583595.50000000012 2.5000000000000004 10.500000000000002 1.464285731315613 45.500000000000007 12.500000000000002 11.500000000000002 0.56459248065948497 14.500000000000002 72.500000000000014 9.5000000000000018 208.50000000000003 52.500000000000007 0.68960255384445202 0.64880800247192394 2691.5000000000005 6.5000000000000009 1.5000000000000002 240.50000000000003 0.38042005896568304 0.67644217610359203 0.44638010859489446 20.500000000000004 0.68960255384445202 0.63333335518836986 178.50000000000003 6.5000000000000009 0.64207634329795849 12.500000000000002
decision_type=2 2 2 2 2 2 2 2 2 2 2 2 2 2 2 2 2 2 2 2 2 2 2 2 2 2 2 2 2 2 2 2 2 2 2 2 2 2 2 2 2 2 2 2 2 2 2 2 2 2 2 2 2 2
left_child=1 5 9 8 7 27 17 11 14 10 12 22 -2 35 28 16 -6 26 -16 -14 21 -19 23 25 -25 -4 30 44 -3 32 31 -5 -18 46 -21 -7 45 -36 43 -24 -11 42 -8 -15 50 -29 -10 -45 52 -40 -1 -46 -38 -50
right_child=2 3 4 6 15 13 41 -9 33 40 -12 -13 19 38 18 -17 29 20 -20 34 -22 -23 39 24 -26 -27 -28 36 -30 -31 -32 -33 -34 -35 37 -37 48 -39 49 -41 -42 -43 -44 47 51 -47 -48 -49 53 -51 -52 -53 -54 -55
leaf_value=2.5172041664105258 0.036234520403649828 0.77827718282267333 -0.35653016833602358 0.39585273374874053 -0.29159305778858391 1.8898089454532725 1.747273904234903 1.2469412903355059 -1.9476182577056806 -2.2738526734194191 0.83684127160316213 0.81320431316037345 -0.24351718235054154 2.0375452855137928 -1.0742500217951534 0.22601478150416177 -2.0987463769842809 -0.54226206292648049 0.5206560046001325 -0.51715149527024717 1.5854700053225237 1.0576653555897311 -2.1250632949550341 -1.1622396617579134 0.66094236519986072 1.0779317398432884 1.9749649116322925 2.245142435242883 1.7873057192882462 -0.52114755736415841 1.6842942328153567 1.5235143285212445 -0.93475886675304265 -0.065983170020744719 -1.5630167702498245 1.3184538031361877 2.4504820967016183 -2.0876959469873202 2.3430875492926706 -0.67908551069336021 -0.99114885166872346 2.2583193866107081 2.133689674648509 2.3406140318269846 2.596222823042055 2.4319967111618794 -0.73028334062771227 2.1861028513804475 2.556799969987706 2.4606412483230993 2.5660654474727846 2.5788607782105046 2.5010709977767123 2.5201402152975794
leaf_weight=15432.747309435159 370.78926719725132 1000.7559489607811 802.44034467637539 764.630181517452 460.92815117165446 2232.7626152932644 1736.6675403378904 1135.0253360643983 293.80453085154295 59493.29521856457 252.67238318547606 1112.1099379509687 282.61909450590611 2664.4190755151212 418.62071373686194 363.27719682827592 2521.6968773119152 509.01045582070947 934.02247824147344 227.16290253400803 820.36652732267976 848.98598420619965 324.04180585965514 1111.983347620815 308.15317237749696 516.54196184128523 1799.6598653160036 4040.6921887472272 724.683146096766 311.72082611918449 1381.2855106331408 772.88910007104278 488.38785711303353 410.36426515504718 1648.9709891676903 1229.6678633280098 9853.2478208616376 9621.0279406569898 5136.7226775288582 258.9970976524055 218.48698000982404 2681.1441498883069 2293.4636502861977 6853.7004854418337 423148.23510893434 4240.026933811605 262.23964720964432 4517.1296757608652 19832.86930314824 5606.8475444950163 32244.234280902892 82001.325096689165 9382.4905312471092 18144.454598229378
leaf_count=6778 3810 7143 9388 6680 5318 6312 5904 6076 5330 1132285 1792 7870 3249 6016 6037 3479 46477 6351 7646 2735 3326 5192 6150 16447 2408 3138 4518 6009 2332 3927 5045 3332 6894 4357 26710 6245 6512 174980 5444 3418 3206 3707 4275 7423 31721 3248 3518 7564 4815 3383 6353 13512 4322 6905
internal_value=2.03534 2.53309 -2.00441 1.37811 -0.581965 2.56464 1.70357 0.0826455 0.287667 -2.1956 -1.83526 -0.211926 -1.88943 2.23183 0.666096 -1.46698 -1.62328 1.33363 0.00502649 -1.94795 0.865592 0.440506 -0.549113 -0.323504 -0.781942 0.190571 1.55268 2.57983 1.19553 -1.79936 1.29504 0.952852 -1.92155 -0.887313 -1.98749 1.68406 2.49603 -2.01449 2.30868 -1.54538 -2.26973 2.08347 1.9681 2.23423 2.58974 2.34176 -1.43885 2.27984 2.51822 2.40522 2.55045 2.59342 2.47563 2.53954
internal_weight=0 664214 81830.3 17652.6 9715.3 646562 13608.1 5569.29 4044.49 72115 12403.2 4434.27 12150.6 28241.2 3078.08 4146.01 3782.73 6896.83 1352.64 11779.8 2178.36 1358 3322.16 2739.12 1420.14 1318.98 4718.46 618320 1725.44 3321.81 2918.8 1537.52 3010.08 966.408 11497.2 3462.43 65493.8 11270 24778.8 583.039 59711.8 6711.28 4030.13 14035.2 552827 8280.72 556.044 11370.8 57213.1 10743.6 47677 505150 19235.7 37977.3
internal_count=1687012 217255 1469757 84693 120990 132562 48330 54895 36363 1348767 213276 48819 211484 42387 23158 66095 62616 34444 13683 207674 14869 11543 40949 31381 18855 12526 19575 90175 9475 57298 15057 10012 53371 13205 204425 12557 31811 201690 29830 9568 1135491 13886 10179 21003 58364 9257 8848 14987 22554 8827 13131 45233 10834 11720
is_linear=0
shrinkage=1


Tree=1
num_leaves=49
num_cat=0
split_feature=222 221 222 206 212 2 222 193 5 223 223 223 17 187 194 210 1 0 199 0 187 222 155 5 215 220 210 221 199 222 221 127 222 215 189 222 223 29 221 45 43 42 222 220 42 221 221 29
split_gain=224326 19352.7 6769.48 5746.33 4131.62 6608.43 3475.84 3302.55 3095.24 2308.62 1830.76 1763.81 1538.41 1459.21 1344.04 1267.95 998.842 995.801 936.968 925.238 859.221 834.922 845.445 814.583 941.518 740.706 664.337 663.572 647.971 836.624 811.685 517.483 483.261 404.421 302.857 247.128 178.32 178.044 154.208 127.323 104.647 1126.59 65.2241 37.1405 33.003 24.373 77.7407 11.6317
threshold=20.500000000000004 0.287397250533104 12.500000000000002 3.5000000000000004 1.5000000000000002 1.5000000000000002 30.500000000000004 12439.500000000002 78.500000000000014 226.50000000000003 428.50000000000006 186.50000000000003 0.083176001906394972 2.5000000000000004 1.0000000180025095e-35 62.500000000000007 1936.5000000000002 5226.5000000000009 3.5000000000000004 2775083.5000000005 2.5000000000000004 66.500000000000014 0.091432500630617156 30.500000000000004 95.500000000000014 0.29850971698760992 61.500000000000007 0.62196007370948803 5.5000000000000009 42.500000000000007 0.58757206797599804 0.036897249519824989 16.500000000000004 91.500000000000014 11.500000000000002 8.5000000000000018 162.50000000000003 0.046778000891208656 0.65316843986511242 0.046285500749945648 0.03325100056827069 0.03555050119757653 8.5000000000000018 1.2003660202026369 0.075794499367475524 0.25678619742393499 0.25944571197032934 0.11894299834966661
decision_type=2 2 2 2 2 2 2 2 2 2 2 2 2 2 2 2 2 2 2 2 2 2 2 2 2 2 2 2 2 2 2 2 2 2 2 2 2 2 2 2 2 2 2 2 2 2 2 2
left_child=2 21 25 4 13 7 16 12 10 19 -9 27 15 31 -14 -6 26 -15 -10 -8 -11 22 33 -5 -25 36 -7 -4 30 -30 -19 -3 38 -2 -35 43 -1 39 -13 -34 45 -42 -38 -27 -40 -23 -47 -43
right_child=1 3 11 23 5 6 9 8 18 20 -12 32 14 17 -16 -17 -18 28 -20 -21 -22 40 -24 24 -26 35 -28 -29 29 -31 -32 -33 37 34 -36 -37 42 -39 44 -41 41 47 -44 -45 -46 46 -48 -49
leaf_value=0.37438699772730072 -0.67154557786203095 0.36262020916464766 -0.20216990601789786 0.038963072303556646 0.094296294606449463 -0.30486968818139898 -0.22156963699754678 0.18684926752825362 0.11208286684773677 0 -0.27088524891831894 0.30908690491735613 0.029913711898963278 -0.014357117524209989 0.64562915123721754 0.65388245603939277 0.26776169435149505 -0.61801999491413928 -0.49614458116251731 0.40493897870875922 -0.58259469232404693 -0.55252580413079977 0.21010696493594846 0.18831837538085724 0.70189064973710424 0.51180428260940547 0.045876436942197188 0.17753219672167406 -1.1252052211818404 -0.57717223973677367 -0.1138911506580717 -0.28341112839607141 0.24163075599607792 -0.00084855537164633032 -0.55172404368482453 0.48171929836831479 0.49017967593947298 0.16532910067712192 0.38163639784677439 0.36869221279932224 0.73283991292456385 -0.54733298873781999 0.42969028255192315 0.53145750195621977 0.44079903110404073 -0.15748543638011453 -0.50400835244742592 -0.3038213772646029
leaf_weight=8073.1440147981048 887.46801324561238 610.11734538897872 2069.5159242041409 1256.8327841348946 1515.5325947850943 2873.7818519175053 2256.2186454311013 7826.2102439813316 719.50557881593704 679.89166743680835 3014.2310724332929 6045.2088635191321 6709.0250511169434 804.89489119872451 1015.6728546768427 3201.9096510633826 2054.6103247180581 2638.8333175219595 4451.6614231355488 784.34310749173164 10972.48539493233 42990.483081299812 709.3907707221806 1486.518837057054 2382.909172501415 54046.299857661128 2494.932942211628 2564.5523775331676 1142.3249279819429 2066.4685686975718 1187.2833895161748 607.11175096407533 5091.4119731150568 700.00135378167033 394.3002700433135 36431.463692709804 14996.007148806006 3920.2059339061379 8781.0195863135159 3872.131877861917 181.8643556162715 1889.6320526264608 10759.66523623094 247370.38815321401 7193.0659731030464 232.80766347795725 2160.7838355116546 190.38463491946459
leaf_count=6651 11838 3136 6390 5752 7453 10826 19554 36786 3960 5533 29207 6142 35561 4274 1413 6502 3115 35217 50404 3471 140230 975739 6091 6878 4464 11927 5633 4012 9566 32053 3736 4815 6678 6041 5179 12491 4312 6294 6305 3028 3123 42534 5794 27795 3553 4814 46623 4119
internal_value=0 -0.2948 0.49488 -0.113901 -0.157649 -0.101778 -0.306766 0.0574312 -0.0924903 -0.447605 0.0589956 0.29777 0.250679 -0.468625 0.112205 0.475702 -0.027128 -0.547659 -0.41052 -0.0575832 -0.548825 -0.527343 -0.25167 0.393346 0.506809 0.515827 -0.14117 0.00683948 -0.607878 -0.776568 -0.463538 0.0367118 0.336243 -0.419644 -0.206851 0.523008 0.443838 0.257748 0.381817 0.297401 -0.542757 -0.422614 0.465269 0.527966 0.408832 -0.548546 -0.473107 -0.528887
internal_weight=0 115090 411214 64753.3 59627 50570 22116.3 28453.7 16011.6 14692.9 10840.4 39537.1 12442.1 9057.03 7724.7 4717.44 7423.33 7839.81 5171.17 3040.56 11652.4 50337.1 2691.16 5126.26 3869.43 371677 5368.71 4634.07 7034.91 3208.79 3826.12 1217.23 34903 1981.77 1094.3 337848 33828.8 12883.7 22019.3 8963.54 47646 2261.88 25755.7 301417 15974.1 45384.1 2393.59 2080.02
internal_count=1687012 1575640 111372 469539 452445 359648 188362 171286 120357 168788 65993 42402 50929 92797 36974 13955 19574 84846 54364 23025 145763 1106101 29149 17094 11342 68970 16459 10402 80572 41619 38953 7951 32000 23058 11220 52213 16757 16000 16000 9706 1076952 49776 10106 39722 9858 1027176 51437 46653
is_linear=0
shrinkage=0.5


Tree=2
num_leaves=49
num_cat=0
split_feature=222 222 222 47 221 114 201 142 23 221 206 221 220 223 221 201 57 156 223 15 201 18 1 6 207 0 220 28 222 208 220 57 29 47 221 223 222 187 9 222 221 221 223 3 43 42 42 157
split_gain=124796 17393.8 5438.56 2790.08 1896.41 1736.23 1730.26 1425.87 1372.47 1927.35 1361.24 1350.81 2802.36 1171.51 1156.09 1124.96 1078.97 1049.97 1039.75 942.963 921.444 896.296 752.622 680.535 678.052 649.504 637.448 581.99 531.773 391.13 349.598 335.384 285.708 219.043 199.608 168.417 231.737 161.377 144.965 110.512 87.1143 71.6924 402.833 197.645 73.9492 860.347 39.0625 15.3322
threshold=18.500000000000004 86.500000000000014 10.500000000000002 7.5000000000000009 0.73152214288711559 0.034153500571846969 289.50000000000006 0.13289549946784976 1.0000000180025095e-35 0.54967632889747631 2.5000000000000004 0.29023788869380956 -2.5638741254806514 185.50000000000003 0.65316843986511242 203.50000000000003 0.037926999852061279 0.022787500172853473 243.50000000000003 0.0065084998495876798 253.50000000000003 9.5000000000000018 2650.5000000000005 5.5000000000000009 1.0000000180025095e-35 116146.50000000001 0.66372385621070873 0.037869000807404525 14.500000000000002 166.50000000000003 -0.76716679334640492 0.067729000002145781 0.031328000128269202 7.5000000000000009 0.71608024835586559 221.50000000000003 4.5000000000000009 8.5000000000000018 7.5000000000000009 6.5000000000000009 0.70227894186973583 0.25678619742393499 190.50000000000003 66.500000000000014 0.03325100056827069 0.034262999892234809 0.10868999734520914 0.28058150410652166
decision_type=2 2 2 2 2 2 2 2 2 2 2 2 2 2 2 2 2 2 2 2 2 2 2 2 2 2 2 2 2 2 2 2 2 2 2 2 2 2 2 2 2 2 2 2 2 2 2 2
left_child=2 3 26 4 5 6 10 19 32 21 20 41 -13 -14 16 -12 24 -15 30 -8 -2 37 27 29 -7 -11 35 -23 40 -19 -4 -9 -5 34 -30 36 -1 -10 -32 -28 -20 44 -43 46 47 -46 -44 -3
right_child=1 11 18 8 -6 14 7 31 9 25 15 12 13 17 -16 -17 -18 23 28 -21 -22 22 -24 -25 -26 -27 39 -29 33 -31 38 -33 -34 -35 -36 -37 -38 -39 -40 -41 -42 42 43 -45 45 -47 -48 -49
leaf_value=0.45383665549550761 -0.97440566349050706 -0.52922433641724764 -0.020986593460232402 0.30395627008450637 0.22877911680179291 -0.6245467546035175 0.21075154881731101 -0.76446047749855062 -0.38172514244373418 0.033640094846639816 -0.14203215447324594 1.1298564722320827 0.35508897387689503 0.37410074484963396 -0.01753234201114846 0.075350219341383459 0.0047635976952581007 -0.48933624749126081 0.33669593718568525 -0.32352393935225993 -0.099662874606779528 0.19332506936194011 0.52034022493802956 0.52425933039427941 -0.15348852129259524 0.34040269740602153 0.51191896966396666 -0.26630603316003909 0.12754400677851288 0.1697175833265695 0.28900436727737505 -0.22570745962936309 0.62184795078927846 0.35323836121603219 0.2966932916424696 0.45955811691936543 0.31260460887182767 -0.86518867787268505 0.1299391307170413 0.47459044502875569 0.41387387325182462 0.41021374038778496 -0.53506069796459621 0.10812824657049504 0.77255025532776267 -0.53249227343087902 -0.15826235668992994 -0.21502052758525042
leaf_weight=5935.8977197147906 599.51630947552621 25984.334954857826 2433.7197453211993 1711.1707197912037 4133.7054379917681 4129.9828751776367 1254.6247966773808 1623.6321838200092 422.61722531169653 2701.8938570190221 9007.8872505947948 326.12829727679491 544.52632358670235 404.14961001463234 2240.3269581440836 17492.313505230471 1105.6284911204129 6540.337102137506 7157.3186740614474 2338.7470675613731 627.51592829823494 907.75742887705564 466.29510364495218 165.39007121883333 981.88246988505125 4967.6290345862508 160782.0065032281 2661.308746336028 4511.321091843769 217.40989134460688 2710.41361380741 396.99282303825021 1381.5184694491327 3412.1278628855944 3048.7556780558079 18259.709220342338 6734.8753658942878 419.03861865960062 3462.5138440225273 29806.040303770453 12307.535316661 128.34444190189242 1540.7665696144104 122.31567186675966 132.23461908847094 1038.0042720809579 122.07031783461571 109.28598741441965
leaf_count=2923 8778 947970 5786 5827 6083 43331 6168 17820 4437 6777 63177 3492 7118 3616 5694 93719 5810 166073 6436 20713 4389 6287 2453 339 8045 7612 29530 26118 7749 1004 3146 2574 3163 2805 3122 7142 7377 6982 6127 11392 7240 3328 50899 3261 1014 34732 3761 3673
internal_value=0 -0.194772 0.46476 -0.0313387 -0.0935089 -0.125544 -0.0739815 -0.32693 0.150889 0.076722 -0.0224944 -0.463804 -0.282604 -0.343048 -0.327913 0.00124859 -0.438765 -0.395995 0.292267 -0.135557 -0.535263 -0.168244 -0.0683575 -0.442113 -0.53548 0.233149 0.495127 -0.147829 0.335771 -0.467198 0.137645 -0.662593 0.449024 0.246088 0.196694 0.427027 0.379448 -0.635228 0.200914 0.506131 0.385927 -0.514438 -0.402802 -0.465866 -0.521949 -0.375786 -0.511397 -0.528176
internal_weight=0 98947.3 260562 61572 45932.8 41799.1 33341.2 5614 15639.2 12546.5 27727.2 37375.3 8197.94 7871.81 8457.82 26500.2 6217.49 7327.29 39043.7 3593.37 1227.03 4877.02 4035.36 6923.14 5111.87 7669.52 221519 3569.07 30437.1 6757.75 8606.65 2020.63 3092.69 10972.2 7560.08 30930.5 12670.8 841.656 6172.93 190588 19464.9 29177.4 1913.5 1785.15 27263.9 1170.24 1662.84 26093.6
internal_count=1687012 1586237 100775 355957 286301 280218 217338 47275 69656 60666 170063 1230280 181642 178150 62880 156896 57186 171032 42411 26881 13167 46277 34858 167416 51376 14389 58364 32405 27352 167077 15059 20394 8990 13676 10871 17442 10300 11419 9273 40922 13676 1048638 61249 57921 987389 35746 54660 951643
is_linear=0
shrinkage=0.5


Tree=3
num_leaves=63
num_cat=0
split_feature=222 221 222 222 172 195 145 208 144 198 128 221 18 221 207 46 222 223 223 144 223 212 189 176 208 206 171 123 166 179 221 220 195 142 3 144 222 6 1 134 144 211 158 16 212 140 220 0 43 45 222 223 1 14 221 223 220 222 223 15 8 221
split_gain=72701.8 14327.6 2651.04 2398.93 2344.51 1440.98 1442.76 1433.1 1743.62 1321.25 1309.23 1130.2 1109.93 1313.54 1502.4 1025.17 932.791 889.342 885.395 877.614 843 839.278 1235.46 818.873 752.178 1028.67 750.981 827.93 723.013 574.239 564.146 507.526 469.978 608.407 462.487 455.541 405.456 359.907 314.312 292.243 265.555 255.556 214.148 196.767 164.406 159.825 138.381 125.873 119.002 738.425 114.109 111.549 86.9335 89.8977 82.0155 79.0134 71.2837 65.5537 61.0233 101.509 208.576 31.6753
threshold=14.500000000000002 0.30200588703155523 8.5000000000000018 30.500000000000004 6.5000000000000009 546648.50000000012 692.50000000000011 26.500000000000004 26.500000000000004 2.5000000000000004 0.078392501920461669 0.56459248065948497 3.5000000000000004 0.40303495526313787 2.5000000000000004 8.5000000000000018 76.500000000000014 203.50000000000003 156.50000000000003 14.500000000000002 164.50000000000003 80.500000000000014 7.5000000000000009 8.5000000000000018 21.500000000000004 3.5000000000000004 0.087187498807907118 1.8452380895614626 5.5000000000000009 3.2678571939468388 0.62196007370948803 0.77328044176101696 537607.50000000012 0.10220649838447572 1255.5000000000002 3.5000000000000004 38.500000000000007 1.0000000180025095e-35 760.50000000000011 13.22499990463257 97.500000000000014 1.0000000180025095e-35 34.500000000000007 0.033086501061916358 96.500000000000014 0.32556898891925817 -0.12329192459583281 156337.50000000003 0.03325100056827069 0.03352050110697747 12.500000000000002 218.50000000000003 3301.5000000000005 0.045989999547600753 0.78908595442771923 153.50000000000003 -2.42138659954071 4.5000000000000009 185.50000000000003 0.10102599859237672 0.58554849028587352 0.74915173649787914
decision_type=2 2 2 2 2 2 2 2 2 2 2 2 2 2 2 2 2 2 2 2 2 2 2 2 2 2 2 2 2 2 2 2 2 2 2 2 2 2 2 2 2 2 2 2 2 2 2 2 2 2 2 2 2 2 2 2 2 2 2 2 2 2
left_child=2 16 31 9 7 6 10 12 19 18 23 26 35 55 -15 29 21 46 38 -9 -8 36 -23 -6 25 30 27 -7 -28 -10 -20 51 33 45 48 -5 -2 -37 -3 50 47 -38 -26 -21 -22 -24 -4 -11 58 -50 61 54 53 -51 -1 -14 -34 -33 59 -18 -61 -19
right_child=1 3 17 4 5 11 20 8 15 40 -12 -13 13 14 -16 -17 34 39 24 43 44 22 32 -25 42 -27 28 -29 -30 -31 -32 57 56 -35 -36 37 41 -39 -40 -41 -42 -43 -44 -45 -46 -47 -48 -49 49 52 -52 -53 -54 -55 -56 -57 -58 -59 -60 60 -62 -63
leaf_value=0.29655900479960712 -1.1213459719105039 -0.46391339925144837 0.032028333277155957 -0.040775383917899193 0.6664586203942634 -0.094928362809823336 0.49859367275908406 -0.16089852837251739 0.15752986937896321 0.19432647641802558 1.123188237913997 0.27986361050662317 -0.11789368454302428 -0.17534607955447973 0.46849640702792628 0.20063204292017206 -0.46102991385036801 0.36734647190897052 -0.15505303996110475 0.59156185500090142 -0.70645784407741696 0.60698354465570492 -0.077090930883893849 0.094938572739415153 0.26238319959733408 0.318981524089055 -0.13931786867034829 0.66824847686792344 -0.62324797365577744 -0.56938900703003525 0.041604976375205403 0.50172004257355429 -0.6677686320737598 0.47116123146054056 0.0677194525714159 -0.45511629061907022 -0.04437061825186224 -0.84301281393394045 -0.086306910365810674 0.23241321775875198 0.095650465086761782 -0.58802512093033432 0.085379425268915204 0.28366445456505662 -0.17722708831547443 -0.63308251122689563 0.20627019350081291 0.32078995336605781 0.78797861837206928 0 0.3084099311046089 0.43909886281311661 0 -0.53788530366804965 0.40718222015524402 -0.5673674936698907 -0.25620134597369532 0.46689893565917562 -0.51931782798046655 0.46424605124691187 -0.37851595097786578 0.42544369945483684
leaf_weight=4035.6495031304657 238.16173128690571 1076.1504926327616 2528.5543152689934 496.29668917413801 1041.6449386095628 1289.5863180346787 285.61124589666724 795.84374948125333 308.09123578015715 3592.2336523234844 636.63042028062046 2010.3352574314922 138.06257064267993 10073.910899162292 982.97007998079062 841.146184890531 1183.553314415738 7231.6079793572426 6743.9733464745805 1161.0101532926783 413.09464385360479 574.95888499356806 312.37822054047137 1622.331185833551 4332.3362535526976 2174.4352286057547 2703.9235316840932 476.41203175112605 1098.5003395834938 1664.0572765721008 7862.0498350467533 83344.376470486633 471.42346531525254 381.56466587353498 350.7612019078806 2330.4261326016858 382.76912660524249 900.40956235677004 1208.7668968439102 4489.5738537535071 2948.5991426222026 563.84272887557745 3005.4305573394522 1155.6793259158731 282.15100202616304 248.19679989013821 2196.5838995203376 5499.8219252042472 120.3911166312173 89.276060965843499 5386.6374735720456 10370.719830485061 90.79206404555589 1025.2584256157279 4172.79500791803 2050.3957635685802 215.66092870011926 25335.306152706966 16553.144526773132 92.345545750111341 234.42115256935358 8726.6836361065507
leaf_count=4921 2528 4869 5482 5173 6556 18230 1492 7835 2669 5673 3040 4685 1751 88419 5437 6535 56055 6089 24124 1529 7716 4547 5357 15500 5945 2671 38610 4020 19969 23442 16673 21845 9792 2135 6811 33133 5884 15971 3638 5910 6036 12039 6326 6544 4428 4693 3489 6273 393 3461 5542 5347 3807 46704 3219 64209 3624 12422 956390 3646 10452 5307
internal_value=0 -0.102665 0.448505 0.00567533 -0.0894319 0.0906788 0.322333 -0.182933 0.0279866 0.0917938 0.48069 -0.039786 -0.256838 -0.188169 -0.117308 -0.255918 -0.44563 0.315599 0.0289568 0.286164 -0.205089 -0.200046 -0.0147862 0.321833 0.0573395 -0.000785905 -0.156349 0.110693 -0.281626 -0.453143 -0.048904 0.480356 -0.239471 -0.00391559 -0.487425 -0.498447 -0.537717 -0.566909 -0.267484 0.352167 0.229045 -0.375971 0.190759 0.441878 -0.503972 -0.338367 0.114317 0.271621 -0.49775 -0.336615 0.377011 0.401879 -0.458315 -0.496337 0.353801 -0.54188 -0.55093 0.49369 -0.509119 -0.391545 -0.119328 0.39966
internal_weight=0 96331.2 157818 73202.3 34758.5 11860.2 4281.46 22898.3 5925.83 38443.8 3300.61 7578.76 16972.5 13245.3 11056.9 2813.29 23128.9 30559.6 26403.1 3112.53 980.857 3388.96 2204.18 2663.98 24118.2 16780.5 5568.42 1766 3802.42 1972.15 14606 127259 1629.22 942.14 19739.9 3727.13 1184.77 3230.84 2284.92 25834.5 12040.7 946.612 7337.77 2316.69 695.246 560.575 4725.14 9092.06 19389.2 1325.72 21344.9 18579.2 1205.33 1114.53 8208.44 2188.46 687.084 108680 18063.5 1510.32 326.767 15958.3
internal_count=1687012 1607439 79573 469121 386893 124246 38732 262647 48554 82228 25096 85514 214093 159816 93856 32646 1138318 31819 64246 15908 13636 50599 30148 22056 55739 43468 80829 22250 58579 26111 40797 47754 25601 12185 1087719 54277 20451 49104 8507 22848 17982 17923 12271 8073 12144 10050 8971 11946 1080908 54365 16938 13487 53972 50165 8140 65960 13416 34267 1026543 70153 14098 11396
is_linear=0
shrinkage=0.5


Tree=4
num_leaves=49
num_cat=0
split_feature=222 221 220 221 1 215 124 179 222 193 194 158 47 126 187 221 14 154 207 221 222 128 144 187 110 13 9 2 126 222 5 43 168 220 222 223 215 221 207 210 215 5 222 223 223 222 222 46
split_gain=43128.7 9835.21 1949.81 1870.69 1325.92 1302.18 1270.42 1265.46 1580.32 1232.12 1087.67 982.785 883.781 674.172 640.563 612.142 599.3 683.779 604.245 586.176 580.312 700.927 572.762 565.063 428.417 425.847 420.482 615.691 581.78 414.406 383.605 333.416 648.509 286.521 251.389 252.511 248.069 200.429 187.306 147.399 144.698 143.867 289.478 137.225 48.375 46.7152 27.6417 23.4836
threshold=12.500000000000002 0.24906130135059359 0.90819883346557628 0.56459248065948497 448.50000000000006 98.500000000000014 22.10000038146973 1.5357142686843874 94.500000000000014 1568.5000000000002 2.5000000000000004 6.5000000000000009 6.5000000000000009 0.84816750884056102 4.5000000000000009 0.73152214288711559 0.10856999829411508 0.092495501041412367 2.5000000000000004 0.64207634329795849 38.500000000000007 0.048024374991655357 258.50000000000006 6.5000000000000009 2.5000000000000004 4.5000000000000009 134.50000000000003 1.0000000180025095e-35 0.34345933794975286 6.5000000000000009 177.50000000000003 0.03325100056827069 0.033513000234961517 -2.2254670858383174 6.5000000000000009 316.50000000000006 94.500000000000014 0.67644217610359203 1.5000000000000002 58.500000000000007 94.500000000000014 22.500000000000004 64.500000000000014 196.50000000000003 218.50000000000003 8.5000000000000018 2.5000000000000004 2.5000000000000004
decision_type=2 2 2 2 2 2 2 2 2 2 2 2 2 2 2 2 2 2 2 2 2 2 2 2 2 2 2 2 2 2 2 2 2 2 2 2 2 2 2 2 2 2 2 2 2 2 2 2
left_child=2 31 19 4 11 7 22 10 9 -9 30 38 14 16 36 20 17 -13 -18 -1 24 -22 23 -7 -16 -10 40 -28 -29 46 -6 33 -33 41 44 -36 37 -5 47 -17 -14 42 -2 -34 -21 -31 -4 -3
right_child=1 3 29 12 5 6 -8 8 25 -11 -12 13 26 -15 15 39 18 -19 -20 34 21 -23 -24 -25 -26 -27 27 28 -30 45 -32 32 43 -35 35 -37 -38 -39 -40 -41 -42 -43 -44 -45 -46 -47 -48 -49
leaf_value=0.12405479437843982 0.070807659953598917 -0.93692806260186778 0.49632983717723922 -0.058775793321899715 -0.093753902963576025 0.66876832133236841 -0.47174410520911664 -0.33483153847322927 -0.5151637016218078 0.015278102102036692 0.88312895657892665 -0.43552185443978764 0.1912143503410822 0.39936408556272424 0.014550207003313444 0.053057809874585554 -0.33382502842027278 0.25555510844332779 0.095121549981554004 0.3472774016158926 -0.053491909179542524 -0.58475390039733977 -0.095497826235711097 0.21963719455170996 -0.26119942516234063 0.17796404040229347 0.22682916138194648 -0.30579138773256243 0.11072185535445593 0.42180581934410238 0.4499774701397749 0.61637603019543141 0.085693928953399334 0.60345082804958827 0.17954725135727792 0.34443972320470495 0.24537164515869442 0.17832687294024394 -0.3024382955230675 0.23080606112303323 0.34475379254781491 -0.5105152101509236 -0.48206182421699278 -0.52379788481918665 0.43065431324894493 0.35100242105580326 0.46446614605661002 -0.62039005873040043
leaf_weight=3989.7356473067775 335.31876231310889 427.92200836539268 37496.72299017664 1756.3609618069604 996.50718425447121 1466.5911547783762 515.47977082291618 3002.0700958371162 2454.0856041302904 15046.579540924635 588.34094131411985 490.11054813535884 3109.9987498172559 475.92475772183388 10430.630734191276 2642.4709344282746 5695.789865475148 1238.4364755759016 934.91409716522321 4588.9458110705018 1467.4405655357987 1099.3570932336152 557.35798903508112 1440.8530605072156 1614.874865856953 227.70510512078181 4438.4065923634917 1374.1728194281459 2099.1442817095667 6300.9841131744906 463.89432889549062 197.60869482345879 95.126366736833006 48.238121597096324 4107.7547393301502 6035.9195801494643 3778.0612054560333 1750.9350823396817 304.3404573937878 2228.4511159071699 3627.330461201258 10682.44377924595 680.82498680939898 467.06434769136831 5504.3550613801926 7194.9186018183827 21592.91530086007 353.64102981984615
leaf_count=7435 3326 8995 13624 5872 12722 5449 7472 29383 136156 130985 1346 8100 5372 2763 25740 5567 95649 9523 10737 5339 8497 9714 7037 14613 5966 4910 7666 5875 4400 5115 2849 843 2485 1152 7194 5827 6163 2869 5580 3157 4090 917663 58387 31894 3456 7383 13597 7075
internal_value=0 -0.054718 0.425196 0.011164 -0.0709827 -0.0128802 0.250398 -0.0591847 -0.0964531 -0.0428321 0.314231 -0.227041 0.0840331 -0.170694 0.0297603 -0.017325 -0.204156 0.0554655 -0.272557 0.301568 -0.0687175 -0.284264 0.360252 0.449326 -0.0221901 -0.454066 0.182789 0.103427 -0.053048 0.466346 0.0774389 -0.466206 -0.134108 -0.487142 0.336247 0.278381 0.156209 0.0583625 -0.675512 0.135676 0.274978 -0.492549 -0.295887 -0.412391 0.393598 0.384698 0.484846 -0.80916
internal_weight=0 90604.8 96812.3 78098.2 36680.5 26759.5 3980.28 22779.2 20730.4 18048.6 2048.74 9921.08 41417.6 8835.18 26768.6 19483.2 8359.25 1728.55 6630.7 24226.7 14612.3 2566.8 3464.8 2907.44 12045.5 2681.79 14649.1 7911.72 3473.32 72585.5 1460.4 12506.6 759.799 11746.8 20237 10143.7 7285.36 3507.3 1085.9 4870.92 6737.33 11698.6 1016.14 562.191 10093.3 13495.9 59089.6 781.563
internal_count=1687012 1618042 68970 602292 501344 352922 34571 318351 301434 160368 16917 148422 100948 126772 73545 58641 124009 17623 106386 29251 49917 18211 27099 20062 31706 141066 27403 17941 10275 39719 15571 1015750 35222 980528 21816 13021 14904 8741 21650 8724 9462 979376 61713 34379 8795 12498 27221 16070
is_linear=0
shrinkage=0.5


Tree=5
num_leaves=42
num_cat=0
split_feature=222 221 5 206 220 187 9 47 222 9 215 4 189 9 148 2 24 199 131 215 220 0 223 222 215 221 0 222 31 23 220 7 222 140 7 223 28 28 220 223 223
split_gain=25690.4 5970.53 1797.78 1886.84 1526.26 1494.53 1161.53 1044.41 1132.95 1249.95 1030.07 914.643 795.23 751.546 675.978 673.093 505.339 467.298 422.266 396.678 395.825 369.478 433.76 342.275 396.174 307.668 272.161 258.463 237.463 219.754 183.089 167.235 127.283 91.2129 85.7421 74.1909 56.762 308.861 39.2206 34.4762 20.8215
threshold=10.500000000000002 0.24906130135059359 4.5000000000000009 3.5000000000000004 1.0440598130226137 15.500000000000002 7.5000000000000009 8.5000000000000018 44.500000000000007 5.5000000000000009 55.500000000000007 52.500000000000007 15.500000000000002 71.500000000000014 33.500000000000007 1.5000000000000002 0.6904762089252473 6.5000000000000009 16.774999618530277 97.500000000000014 -0.12329192459583281 9265043.5000000019 399.50000000000006 74.500000000000014 93.500000000000014 0.57181620597839367 629209.00000000012 4.5000000000000009 0.10004400089383127 1.0000000180025095e-35 -0.35130241513252253 592.50000000000011 6.5000000000000009 0.27762100100517279 665.50000000000011 398.50000000000006 0.033490000292658813 0.033726500347256667 1.551028907299042 261.50000000000006 177.50000000000003
decision_type=2 2 2 2 2 2 2 2 2 2 2 2 2 2 2 2 2 2 2 2 2 2 2 2 2 2 2 2 2 2 2 2 2 2 2 2 2 2 2 2 2
left_child=4 23 10 5 20 7 21 8 11 -10 -3 -4 16 18 25 -14 -9 -5 -12 30 -1 22 -7 24 33 -8 -20 -6 -16 -26 -19 -28 39 -2 36 -34 -25 -38 -29 -22 -39
right_child=1 2 3 17 27 6 14 12 9 -11 13 -13 15 -15 28 -17 -18 19 26 -21 32 -23 -24 34 29 -27 31 38 -30 -31 -32 -33 35 -35 -36 -37 37 40 -40 -41 -42
leaf_value=0.1297659132660397 -0.23897398068761977 0.15771421845418734 -0.12309093578936682 0.44157624180722138 0.47891181458106474 0.25770600679798905 -0.49057214438025304 0.60273884467156946 0.041340399971625585 -0.2841529386979621 -0.088378121573987653 0.079403736728090785 0.16844626154871248 -1.0655988885147623 -0.75191456245603161 -0.25932545606841678 0.21520012011104903 -0.24508514030831552 -0.79630219152430648 0.37973277672251565 0.31574095519259449 -0.39621388389653817 -0.15360026707331151 -0.49802105870147079 0.33612541526658818 -0.041952944669626423 -0.53959539797629252 0.34387866666393019 -0.13220196764778905 -0.21597168152109802 0.13319859852702418 -0.13982822228518524 0.18891788422740224 -0.6578377801826315 0.23436877231375361 0.31399174998610246 0.42308750231257647 0 0.41650682876758521 0.40257676955271193 -0.50158039733007742
leaf_weight=3839.3513625175692 312.20139293256216 911.06268950039521 6657.5917632686906 3205.8003458082676 30481.544934510253 1450.0467540682293 604.89933902106714 983.96922762412578 5552.1097387762275 6222.6915517589077 1069.9523253180087 33692.036983154248 2132.3428742615506 416.62928333273157 1308.9516975290608 1599.4502040604129 6564.5982508338057 597.15735827898607 538.396678423509 952.9747298695147 3396.2039054590277 482.26418109750375 1120.1908172206022 6181.7884954791516 359.08739978447556 1089.6113977236673 567.4391416888684 4821.2174474899657 202.72861422924325 335.48109878133982 653.63759907707572 571.99783690972254 2665.5065955417231 340.58031822810881 27.506574117578566 2860.8372673513368 105.45497603155673 30.548116230871528 6945.4848505347036 3717.878510797862 450.83720981050283
leaf_count=7385 7416 4402 26078 7493 20116 8128 17326 1051 126097 166574 6610 90870 12761 5509 28228 16589 37099 6981 7765 2550 5214 7503 16229 921362 4027 3455 7117 6597 1435 6975 1467 3545 5040 10138 2251 3504 996 2161 7175 3333 60460
internal_value=0 -0.0245433 0.0173619 0.0349933 0.403098 0.0128111 -0.219986 0.0358977 0.00593594 -0.13035 -0.305541 0.0458499 0.173789 -0.440534 -0.429686 -0.0137824 0.267066 0.319219 -0.340602 0.13787 0.273005 0 0.0766419 -0.431971 -0.193645 -0.206836 -0.497123 0.453654 -0.673386 0.0631915 -0.044006 -0.346021 0.315993 -0.471275 -0.47816 0.254983 -0.482106 -0.300929 0.387469 0.362291 -0.474687
internal_weight=0 87292 79148.5 75073.1 58728 69663.5 6258.69 63404.8 52124.4 11774.8 4075.48 40349.6 11280.4 3164.42 3206.19 3731.79 7548.57 5409.57 2747.79 2203.77 16479.8 3052.5 2570.24 8143.49 1347.35 1694.51 1677.83 42248.2 1511.68 694.568 1250.79 1139.44 12640.4 652.782 6796.14 5526.34 6768.63 586.84 11766.7 7114.08 481.385
internal_count=1687012 1628648 612862 577914 58364 559423 82304 477119 409619 292671 34948 116948 67500 30546 50444 29350 38150 18491 25037 10998 24476 31860 24357 1015786 28556 20781 18427 33888 29663 11002 8448 10662 17091 17554 987230 8544 984979 63617 13772 8547 62621
is_linear=0
shrinkage=0.5


Tree=6
num_leaves=57
num_cat=0
split_feature=221 222 222 183 198 193 195 221 176 215 145 208 221 156 187 172 8 222 126 144 221 23 223 131 173 25 3 179 4 0 220 29 116 221 222 222 195 131 134 6 210 189 154 189 33 223 210 156 148 201 184 223 222 141 42 220
split_gain=14751.5 3393.49 2193.65 1130.08 1093.33 1296.71 981.873 1739.79 1443.85 1055.79 888.509 775.765 731.237 661.157 573.86 552.042 530.414 503.215 777.05 546.108 487.732 823.891 446.229 435.547 433.489 418.169 386.249 435.205 365.187 509.607 340.711 336.695 335.084 293.013 292.741 280.007 476.251 259.123 242.966 196.018 147.891 143.22 138.268 120.546 99.7373 92.4048 290.546 82.7189 81.4731 65.2636 60.0577 55.0363 54.9756 51.0194 20.7538 11.6656
threshold=0.73152214288711559 108.50000000000001 6.5000000000000009 214.50000000000003 2.5000000000000004 428.00000000000006 545707.50000000012 0.40698556602001196 12.500000000000002 96.500000000000014 175.50000000000003 30.500000000000004 0.64207634329795849 0.1442694962024689 7.5000000000000009 4.5000000000000009 0.54525101184844982 179.50000000000003 0.11902787536382677 16.500000000000004 0.57181620597839367 1.0000000180025095e-35 259.50000000000006 321.12500000000006 855.50000000000011 1.0000000180025095e-35 6.5000000000000009 1.5357142686843874 52.500000000000007 25253.500000000004 1.2003660202026369 0.032936498522758491 51.500000000000007 0.44166347384452825 34.500000000000007 175.50000000000003 519069.50000000006 41.100000381469734 12.900000095367433 5.5000000000000009 55.500000000000007 9.5000000000000018 0.25789850950241094 9.5000000000000018 1.5000000000000002 169.50000000000003 12.500000000000002 0.029768499545753006 1.0000000180025095e-35 311.50000000000006 7.5000000000000009 223.50000000000003 2.5000000000000004 0.0071654999628663072 0.078401498496532454 1.7730104923248293
decision_type=2 2 2 2 2 2 2 2 2 2 2 2 2 2 2 2 2 2 2 2 2 2 2 2 2 2 2 2 2 2 2 2 2 2 2 2 2 2 2 2 2 2 2 2 2 2 2 2 2 2 2 2 2 2 2 2
left_child=1 3 30 4 6 12 8 26 24 13 11 -10 16 -9 28 -11 -6 18 19 -3 21 -16 43 49 25 -1 32 -28 29 -7 51 -18 -8 -12 -26 39 -37 -5 44 45 -22 -30 48 -4 54 46 -20 -47 -25 53 -46 -2 -32 -21 -24 -54
right_child=2 17 22 37 5 14 7 9 10 15 33 -13 -14 -15 20 -17 31 -19 35 23 40 -23 38 42 34 -27 27 -29 41 -31 52 -33 -34 -35 -36 36 -38 -39 -40 -41 -42 -43 -44 -45 50 47 -48 -49 -50 -51 -52 -53 55 -55 -56 -57
leaf_value=0.53145190932216657 0.24861565374134822 0.73603984453735527 -0.057074526667401752 -0.19196629021252393 -0.026104671165979861 0.32528321226946166 -0.52694960775956712 -0.13659438597075618 -0.020078911891617753 0.0041257352935775565 -0.40269249699059018 0.48753373631851632 0.031015390596875511 0.05463299206384703 0.27190610364090589 0.22683571107127062 -1.1624550150820876 -0.50040983675070771 0.66507753023157201 0 0.086917327064817473 -0.23739425171983519 0.27286211292492962 0.3937031015775832 0.24418009196128884 0.17405351745237679 0.41125166965931825 -0.5211705080338368 0.19909219525711389 -0.30960145992668636 0.47598091265506975 -0.41982319453895151 0.27780178296454761 -0.082684741792434957 -0.46946724870488066 1.5860229268348824 -0.39537263391265731 -0.88357598529450498 0.091282012785881522 0.27773465493585353 0.27437595554336114 0.34623334036813802 0.92562586205091557 0.12919522714506762 0.15037012502911359 -0.1457397839465947 -0.47431457850615227 -0.5274186146226415 -0.35495063973829061 0.12222638237766627 0.26532291346655679 0.35985752645290614 0.36879369786211852 -0.52104334019201348 0.34956031142393923 0.43757072204505942
leaf_weight=2265.4772696350701 2545.58282145462 280.4566409138497 1762.5783022379037 238.78558844246436 341.29476089053787 602.01331235701218 2606.9039103476098 18816.72877881513 2563.4996338544879 7217.5521744600264 1452.0009692814201 1045.8366684752982 1069.7750227432698 5900.2299428252736 1155.8656476315809 4566.621747298399 339.46356246713549 3482.7261244801339 68.297270249109715 34.343567894538864 2430.2691519549116 2457.1335655703442 3212.7557840263471 80.629419727716595 309.98593107564375 1375.1285257559502 270.78851101757027 216.37719367793761 3000.1491110196803 644.39509892230853 13738.704536233097 352.27514774096198 122.21892575081438 1505.1182397773955 247.37847436708398 39.266837210860103 66.350010775029659 414.11382310069166 2526.9748673436698 82.71899439371191 2021.8084776555188 4603.2771045453846 86.347808997379616 1659.9118222908583 2519.4521714576986 205.65463575127069 178.37503005331382 1620.5449345653178 47.322692977963015 36.162607224658132 2775.0094529292546 3259.1220415288117 2969.6528237124439 335.95018886995967 3002.0807575345971 4612.6158086352516
leaf_count=12905 5349 7179 5036 2469 3246 2062 87337 107433 30806 30680 41710 4949 2689 23307 7012 14509 6045 784867 4284 2894 5911 33224 4651 2453 609 9403 3723 8873 10742 6431 12621 2785 1713 6397 8521 2554 10640 8415 5165 396 3278 15815 590 3431 4913 14432 25040 213704 8297 1485 4282 4332 5225 40682 3653 5858
internal_value=0 -0.0269671 0.334531 0.00533284 0.011596 0.113788 -0.0268196 -0.0631998 0.106894 -0.0319394 -0.0389023 0.126555 -0.254817 -0.0907445 0.16002 0.0909605 -0.553075 -0.368208 -0.219998 0.167584 0.0626211 -0.0728182 0.195601 -0.0887684 0.335682 0.398611 -0.415299 0 0.248065 0 0.423668 -0.802172 -0.488274 -0.242261 -0.0665059 -0.376684 0.369524 -0.644476 0.235107 -0.416985 0.173553 0.289142 0.465077 0.0319475 0.266157 -0.448213 -0.126629 -0.488092 0.0757448 -0.396548 0.211916 0.312408 0.453575 -0.461918 0.31118 0.41178
internal_weight=0 76797.6 44584.4 70152.5 69499.6 19017.7 50481.8 39717.4 10764.4 36501.1 6566.46 3609.34 2102.81 24717 16914.9 11784.2 1033.03 6645.15 3162.42 901.213 8065.08 3613 17458.8 620.756 4197.97 3640.61 3216.29 487.166 8849.83 1246.41 27125.7 691.739 2729.12 2957.12 557.364 2261.21 105.617 652.899 14036.3 2155.59 4452.08 7603.43 214.3 3422.49 11509.3 2072.87 246.672 1826.2 127.952 406.456 5294.46 5804.7 21321 370.294 6214.84 7582.27
internal_count=1687012 1622496 64516 502999 492115 99240 392875 277575 115300 175929 83862 35755 14765 130740 84475 45189 12076 1119497 334630 63580 49425 40236 31131 56401 31438 22308 101646 12596 35050 8493 33385 8830 89050 48107 9130 271050 13194 10884 22664 257856 9189 26557 11340 8467 17499 257460 29324 228136 10750 45061 9195 9681 23704 43576 8304 11083
is_linear=0
shrinkage=0.5


Tree=7
num_leaves=48
num_cat=0
split_feature=222 4 222 220 2 212 4 210 0 193 5 206 1 187 24 198 47 222 206 4 24 192 222 126 6 187 211 223 1 215 222 210 168 156 3 221 11 2 222 215 195 223 220 195 220 222 1
split_gain=8751.33 2361.74 2104.05 993.763 822.775 1142.37 1146.66 1253.71 1006.87 765.676 657.021 942.638 775.046 715.519 682.32 655.166 575.862 571.512 434.607 761.387 440.869 410.715 374.721 384.881 318.205 327.871 300.919 256.234 245.89 242.326 169.786 155.989 245.193 155.786 152.773 147.728 147.463 146.535 95.8095 69.4853 56.6835 55.9974 36.7004 19.1677 12.079 11.0995 9.0908
threshold=8.5000000000000018 54.500000000000007 108.50000000000001 1.2003660202026369 1.5000000000000002 1.5000000000000002 52.500000000000007 1.5000000000000002 1.7014117331926445e+38 4331.0000000000009 1.0000000180025095e-35 3.5000000000000004 2318.5000000000005 6.5000000000000009 0.77500000596046459 1.5000000000000002 9.5000000000000018 24.500000000000004 2.5000000000000004 26.000000000000004 0.84523808956146251 1.5000000000000002 179.50000000000003 0.11902787536382677 1.0000000180025095e-35 7.5000000000000009 4.5000000000000009 158.50000000000003 351.50000000000006 94.500000000000014 4.5000000000000009 12.500000000000002 0.21214200556278232 0.07911150157451631 39.500000000000007 0.43710659444332128 1.5000000000000002 1.0000000180025095e-35 4.5000000000000009 94.500000000000014 523979.50000000006 327.50000000000006 2.0497164726257329 516708.50000000006 1.7730104923248293 62.500000000000007 5135.5000000000009
decision_type=2 2 2 2 2 2 2 2 2 2 2 2 2 2 2 2 2 2 2 2 2 2 2 2 2 2 2 2 2 2 2 2 2 2 2 2 2 2 2 2 2 2 2 2 2 2 2
left_child=3 2 4 27 5 6 7 -2 9 -8 12 13 -6 15 -15 -12 18 -3 19 -7 -20 -10 23 24 33 -26 29 -1 -9 -18 42 32 -25 43 -33 -36 -14 -34 -29 -28 46 -40 -5 -4 -32 -42 -19
right_child=1 17 22 30 10 16 8 28 21 -11 11 -13 36 14 -16 -17 26 40 20 -21 -22 -23 -24 31 25 -27 39 38 -30 -31 44 34 37 -35 35 -37 -38 -39 41 -41 45 -43 -44 -45 -46 -47 -48
leaf_value=0.032447206788712706 0.06715186189471932 -2.0756217113195596 0 0.39284918309465955 -0.89495877931735168 0.13192452575653846 -0.054019582420017552 -0.44568313349884259 -0.14208940178371465 -0.54640786623057636 -0.17658510891865301 0.29872457583789497 -0.31829384467627275 0.18233574790419857 -0.15953084969010095 0.1234893278924161 -0.064514227224053644 -0.266374276098722 0.26524189612971932 -0.5071126431253008 0.071850572881312302 0.18376089552053149 -0.48959244859382339 -0.48710124408942662 0.59900787340961437 -0.43441726925984464 0.2883033189041545 0.31801570722381206 -0.92300217899443615 0.27610052349352909 0.27201982475754394 -0.51505442010576885 0.40430340025009015 0.23874234127932117 -0.44909582861187308 0.46840214561087695 0.079820357299154543 -0.38962277019272412 0.12133753680917106 0.46997599709003396 -0.94383116254124066 0.24373223013188441 0.46797505293552533 -0.50838879404327886 0.35620159165369691 -0.50227813956325074 0.025125663399902187
leaf_weight=1890.7831123555079 827.57955226517515 110.52623685961589 28.32440992759075 4313.7040802079719 476.02026645559818 1020.8231707289815 2612.8465374626685 578.82210103422403 1170.6516190651455 1140.5095929077361 2400.0155275355792 1996.8362142688129 414.81931404478382 1609.2083169509424 13933.173250277992 7327.7714270738652 934.93415238638408 25.915608545765281 3370.0393453282304 831.10162226390094 24784.542458732729 5053.5147058144794 2093.7367136547691 213.94581804907648 344.22001937986352 84.871095279988367 1420.0303883880842 2799.6680271329824 700.18669142416911 1114.4314304571017 2102.4420277855825 942.69703984947409 220.69395395868924 96.74978173780255 76.660999451996759 79.434552902588621 477.7472598773893 63.599113562493585 1884.7547136144713 1284.2586759808473 218.28115642326884 2523.6316033818293 7329.6345973513089 225.08368555014022 1855.8851299725939 126.98473697190639 19.593941426021047
leaf_count=5681 5868 1270 4671 9530 6279 6521 13688 7255 11725 19039 20839 5856 5721 6295 126863 37891 6226 8048 10106 12262 145463 30790 764723 34978 7453 13817 5670 4853 16635 3606 4954 192899 15821 4993 10945 310 3006 10948 4688 2771 3713 4737 9459 31655 3852 20842 1797
internal_value=0 -0.00794479 -0.00103547 0.332197 0.0186599 0.0595171 -0.0726293 -0.406942 -0.0012307 -0.205953 -0.0480038 -0.0307729 -0.385144 -0.057107 -0.123729 0.0488514 0.105605 -1.07956 0.079704 -0.153365 0.0952556 0.121564 -0.334029 -0.19349 0.0889621 0.378401 0.267582 0.19949 -0.715721 0.118754 0.409108 -0.334066 -0.0872341 -0.252735 -0.439844 0 -0.10119 0.203096 0.242527 0.377742 -0.742582 0.19289 0.440909 -0.460874 0.31349 -0.813222 -0.0694422
internal_weight=0 80451.2 79949.9 24700.5 75479.9 46844.3 12084.1 2106.59 9977.52 3753.36 28635.6 27267 1368.59 25270.2 15542.4 9727.79 34760.2 501.302 30006.5 1851.92 28154.6 6224.17 4470.02 2376.28 779.249 429.091 4753.65 9098.84 1279.01 2049.37 15601.7 1597.03 498.239 350.158 1098.79 156.096 892.567 284.293 7208.05 2704.29 390.775 4408.39 11643.3 253.408 3958.33 345.266 45.5095
internal_count=1687012 1639258 1603588 47754 510375 297625 105000 29758 75242 32727 212750 197744 15006 191888 133158 58730 192625 35670 174352 18783 155569 42515 1093213 328490 62589 21270 18273 19959 23890 9832 27795 265901 61747 41319 204154 11255 8727 26769 14278 8441 34400 9425 18989 36326 8806 24555 9845
is_linear=0
shrinkage=0.5


Tree=8
num_leaves=37
num_cat=0
split_feature=221 222 222 189 172 32 207 0 208 144 223 222 50 18 199 179 179 0 36 192 220 0 123 47 18 42 187 201 222 223 113 220 221 198 198 222
split_gain=4714.41 1279.75 1039.93 736.24 730.644 1950.76 873.388 768.235 709.915 639.139 570.543 550.979 485.079 424.179 413.896 391.396 347.633 286.208 284.955 210.158 205.851 185.489 176.048 174.795 174.727 173.323 156.779 153.886 134.058 79.5467 74.8634 65.9447 31.5497 23.7192 22.4009 16.1499
threshold=0.81049713492393505 16.500000000000004 179.50000000000003 26.500000000000004 6.5000000000000009 7.5000000000000009 2.5000000000000004 2048443.0000000002 26.500000000000004 312.50000000000006 328.50000000000006 2.5000000000000004 1.5000000000000002 25.500000000000004 5.5000000000000009 1.7083333134651186 1.7083333134651186 10017103.500000002 2.5000000000000004 3.5000000000000004 -3.2845396995544429 2274128.0000000005 1.3666666746139529 7.5000000000000009 93.500000000000014 0.049522999674081809 6.5000000000000009 242.00000000000003 24.500000000000004 367.50000000000006 0.001070500002242625 1.7730104923248293 0.46596197783946997 3.5000000000000004 4.5000000000000009 6.5000000000000009
decision_type=2 2 2 2 2 2 2 2 2 2 2 2 2 2 2 2 2 2 2 2 2 2 2 2 2 2 2 2 2 2 2 2 2 2 2 2
left_child=1 10 3 4 5 6 8 -8 -3 13 17 31 -7 14 -6 -15 20 21 35 -18 -11 23 25 27 32 26 -12 -1 -14 -20 -24 -2 -5 -4 -35 -13
right_child=11 2 33 24 9 12 7 -9 -10 16 22 18 28 15 -16 -17 19 -19 29 -21 -22 -23 30 -25 -26 -27 -28 -29 -30 -31 -32 -33 -34 34 -36 -37
leaf_value=0.023534885809624137 0.32695925271689463 -0.10788827177366486 -0.49958409855995389 -0.62047071027331724 0.044647662685130991 -0.25124792975520072 -0.098999844968692963 0.47075057154908795 0.062790305784922132 -0.37986871379233611 0.1386569933325395 0.34111358156395521 -1.3082553604866891 -0.085215973572646403 -0.36772154560570591 0.19136782012990472 0.0089630850554104531 -0.14503537472951589 0.038108618362896453 -0.31307634508993221 0.14196467012224501 0.20357423625456458 0.28152076181307151 0.15439572709057367 -0.28950772465117486 0.18482427436184071 -0.062710693937715653 -0.17738869815535188 -0.72838915322915665 0.18165083998546211 0.16301019833598612 0.45037007663145767 -1.3203538916832589 0 -0.36160334653884108 0.26132430506913645
leaf_weight=2924.5987825632328 2155.65551560733 24073.668880609621 1222.0718485569814 102.90622921736212 2740.9168120907852 582.0102782062022 957.99987938080449 1476.4131091707386 8109.3817585567012 207.12419954274083 1845.6249830942834 2311.6902671245625 170.11180162196979 1448.2671945560141 767.62540062476182 9402.1202649418265 645.91392097901553 2391.5036005908623 1837.6115265322151 1926.4718126233784 1337.6563822522876 1604.7479247776791 3224.8331543738022 1563.9143775391858 178.03413876960985 3932.3464955954114 1974.1160120243439 1381.1087832516059 738.44067669240758 2309.4647542394232 2877.3080225317972 4405.1066640749341 100.71028591843788 55.560589248838369 58.443185690848622 2610.0295354543487
leaf_count=7675 5807 261944 718481 6563 35803 6887 15547 13516 62208 36876 3753 6705 1398 53049 17498 133331 17584 7476 6045 77441 37219 2889 4844 3333 6977 7619 5535 4816 25115 5539 5814 9013 1469 31316 35070 4857
internal_value=0 -0.000281873 -0.0413845 -0.0306521 -0.0256556 -0.0670912 -0.0427371 0.245027 -0.0647231 0.0550502 0.0970497 0.299809 -0.625542 0.105019 -0.044938 0.153957 -0.117871 0.00462748 0.218403 -0.230583 0.0669309 0.053293 0.162463 0.0111076 -0.714573 0.110982 0.0334104 -0.0400296 -0.85484 0.11946 0.226786 0.411104 -1.03348 -0.475903 -0.163319 0.300385
internal_weight=0 80022 56301.8 54965.8 54584.1 36108 34617.5 2434.41 32183.1 18476.1 23720.1 15629.6 1490.56 14358.9 3508.54 10850.4 4117.17 9865.87 9068.8 2572.39 1544.78 7474.37 13854.2 5869.62 381.651 7752.09 3819.74 4305.71 908.552 4147.08 6102.14 6560.76 203.617 1336.08 114.004 4921.72
internal_count=1687012 1649046 1595292 810425 795416 386615 353215 29063 324152 408801 53754 37966 33400 239681 53301 186380 169120 26189 23146 95025 74095 18713 27565 15824 15009 16907 9288 12491 26513 11584 10658 14820 8032 784867 66386 11562
is_linear=0
shrinkage=0.5


Tree=9
num_leaves=60
num_cat=0
split_feature=222 222 192 201 201 176 192 147 210 173 222 179 222 43 28 113 201 124 171 115 220 0 8 201 221 5 187 28 220 1 192 220 2 222 199 47 207 126 221 195 143 157 113 223 173 179 16 195 140 183 211 123 143 165 143 220 0 5 5
split_gain=2434.29 816.164 647.043 610.953 1263.25 1234.43 1119.44 611.671 564.167 522.897 506.146 560.46 493.892 653.604 476.231 517.88 471.285 431.657 422.041 395.952 384.391 512.157 379.891 550.881 549.795 356.092 338.146 322.602 316.182 338.837 312.238 301.573 300.764 284.005 457.179 249.372 249.283 277.852 215.396 281.925 246.558 174.948 156.438 151.883 116.035 109.875 112.897 104.178 103.2 99.9099 91.0813 69.0051 60.5363 41.3826 32.7696 27.889 24.8325 16.1345 14.1601
threshold=4.5000000000000009 108.50000000000001 17.500000000000004 254.50000000000003 203.50000000000003 4.5000000000000009 10.500000000000002 3.5000000000000004 69.500000000000014 7.5000000000000009 18.500000000000004 1.5357142686843874 28.500000000000004 0.1528510004281998 0.10488149896264078 0.020715499296784404 47.500000000000007 22.550000190734867 0.018421499989926819 0.039904499426484115 0.66372385621070873 610657.00000000012 0.56756350398063671 272.50000000000006 0.68960255384445202 210.50000000000003 9.5000000000000018 0.090823501348495497 -1.5422369241714475 1162.5000000000002 4.5000000000000009 1.551028907299042 1.0000000180025095e-35 22.500000000000004 3.5000000000000004 5.5000000000000009 1.5000000000000002 1.1964849829673769 0.18559136241674426 543096.50000000012 0.11031000316143037 0.10167049989104272 0.0044270001817494639 180.50000000000003 287.50000000000006 2.2678571939468388 0.032735498622059829 531093.00000000012 0.096503000706434264 14.500000000000002 1.0000000180025095e-35 1.464285731315613 0.2235670015215874 2.5000000000000004 0.073092997074127211 2.5149310827255253 7953.0000000000009 2.5000000000000004 111.50000000000001
decision_type=2 2 2 2 2 2 2 2 2 2 2 2 2 2 2 2 2 2 2 2 2 2 2 2 2 2 2 2 2 2 2 2 2 2 2 2 2 2 2 2 2 2 2 2 2 2 2 2 2 2 2 2 2 2 2 2 2 2 2
left_child=31 2 3 4 5 6 17 9 10 12 49 -12 30 -14 15 -7 -8 -2 35 25 21 -13 26 24 -24 -20 -9 -25 29 -10 -5 50 -21 -30 -35 -6 37 -11 53 40 45 -31 44 -41 47 46 -40 -42 -45 -4 -1 -38 -46 57 -50 56 -33 -3 -55
right_child=1 38 8 7 18 14 16 22 28 36 11 20 13 -15 -16 -17 -18 -19 19 32 -22 -23 23 27 -26 -27 -28 -29 33 41 -32 55 -34 34 -36 -37 51 -39 39 43 42 -43 -44 48 52 -47 -48 -49 54 -51 -52 -53 -54 58 -56 -57 -58 -59 -60
leaf_value=0.25609529194396358 -0.2453644628209706 -0.0021189246073907357 -0.12857276514380289 -0.2491728385867697 -0.40475530140254878 -0.13945836956462554 0.17456093841128814 0.33303041063227518 -0.10195586287785899 0.079681304538380696 0.17116143688560764 -0.72577818549032214 -0.47620174383210978 0.17983067466298661 0.17434990208982387 -0.45775630690192004 -0.15623004596448009 0.18250973422037545 0.22149630184288246 0.13988765644873583 0.06665624177659088 -0.27148425866716464 -0.60749210284524491 -0.1215747006237289 0.018832946196844037 -0.10894522229393067 -0.029227264321262818 0.15070678409921376 0.11082794057022544 0.23584043576315045 0.0081636651586544338 0.39775901777915046 -0.0931759158690003 0.13157197908109863 -0.49291838968661439 0.097981209134443401 -0.61336964078477729 -0.31994517982656046 0.34528278902465215 0.18060198517056161 0.84030580649366926 0.83350953551645846 -0.38992267660160701 0.25389673869344254 -0.39103654224270978 -0.49296051679536279 -0.42705559918851865 0.2259243552300442 0 0.056497692343024361 0.082763527156378483 -0.11551660079680585 0.37066297031254225 0.50540791986032541 -0.5136156177159682 0.44233175119521145 0.26571681106579892 -0.49451253059388373 -0.012991626253169668
leaf_weight=1901.0196000602446 3173.5279570542916 37.534854568773881 1429.0099210217595 1943.0027447260218 520.18230517272605 5687.7601871771039 10891.462122355937 1920.3537576562958 291.9434461161145 4571.1279471559101 481.64483294152888 1117.8200949694437 2213.1733528082259 440.52924057480413 866.92794814985245 1679.3845149141271 1171.6967829705682 702.59618045610841 15290.895354447217 3609.7487193313136 366.81486690510064 1539.3745947032585 667.83811789972242 1521.5177747608104 694.35764099180233 835.24297509063035 929.1451190393127 3647.2562597355573 1537.0125185057987 287.26456935855094 2884.7415128714638 1237.90864389122 2209.161699008313 506.19983914331533 646.52360713743838 432.72426448226906 175.0144807912875 468.00805383274565 107.7427288434119 93.022253234637901 145.30240381631302 273.3874664066243 62.175374253245536 34.568188757519238 58.293135846266523 208.38640382475569 68.596887268708088 196.78295460343361 14.621350799978243 1429.860122491722 1451.1771299716202 167.29247470165137 29.027387273847125 5.0324297103215931 657.61470848842873 1996.1328195315436 1170.3404255658388 870.32036521559348 10.268968819291329
leaf_count=6440 30432 17236 4639 7331 6132 57449 48177 7217 7718 48502 5471 17661 40419 3698 3339 20608 8564 3421 68249 14610 933 19958 9052 10623 1901 8429 7850 14888 3286 3746 8020 5350 13635 2349 7110 2788 5759 5743 3382 5034 4691 5140 21691 817 16304 55252 14205 16630 501 3620 4682 2478 310 3286 184777 5563 4498 766525 8893
internal_value=0 0.00660637 0.0157246 0.0328648 0.065166 -0.0143722 0.0666129 -0.0352693 -0.10362 -0.106182 -0.192708 -0.31995 -0.191635 -0.365201 -0.17163 -0.213182 0.141927 -0.166287 0.149319 0.163593 -0.400081 -0.466357 0.0614568 -0.00434409 -0.286763 0.204023 0.213493 0.069533 0.0551527 0.319117 -0.0946815 0.299599 0.0505562 -0.0275411 -0.215646 -0.172667 0.011838 0.0410578 -0.268458 -0.155708 0.0353737 0.544997 0.272505 -0.369052 0.386012 -0.254451 0.0119501 0.516633 -0.449682 -0.0344225 0.182968 -0.393772 -0.0756388 -0.464209 -0.496114 0.386666 0.336927 -0.479731 0.089843
internal_weight=0 81820.8 79221.5 69314.7 47071.3 24173.4 15939.3 22243.4 9906.86 12862.9 6364.52 3505.65 7481.45 2653.7 8234.07 7367.14 12063.2 3876.12 22898 21945 3024.01 2657.19 9380.47 6530.97 1362.2 16126.1 2849.5 5168.77 3542.33 852.595 4827.74 7756.58 5818.91 2689.74 1152.72 952.907 5381.44 5039.14 2599.29 1676.13 876.307 560.652 491.581 799.827 429.406 384.726 176.34 342.085 706.804 2858.87 3352.2 342.307 87.3205 923.157 672.236 4404.38 2408.25 907.855 15.3014
internal_count=1687012 1660479 540945 459314 285833 171990 90594 173481 81631 121950 52282 44023 59468 44117 81396 78057 56741 33853 113843 104923 38552 37619 51531 36464 10953 76678 15067 25511 29349 16604 15351 26533 28245 12745 9459 8920 62482 54245 1119534 323594 132465 8886 59626 191129 37935 72839 17587 21321 186095 8259 11122 8237 16614 795940 185278 15411 9848 783761 12179
is_linear=0
shrinkage=0.5


end of trees

feature_importances:
Column_222=68
Column_221=49
Column_223=33
Column_220=26
Column_0=14
Column_187=11
Column_215=11
Column_5=10
Column_208=10
Column_1=9
Column_195=9
Column_201=9
Column_47=8
Column_179=8
Column_189=8
Column_198=8
Column_210=8
Column_9=7
Column_144=7
Column_2=6
Column_42=6
Column_206=6
Column_207=6
Column_3=5
Column_4=5
Column_28=5
Column_43=5
Column_126=5
Column_192=5
Column_199=5
Column_6=4
Column_8=4
Column_18=4
Column_29=4
Column_113=4
Column_123=4
Column_156=4
Column_193=4
Column_212=4
Column_23=3
Column_24=3
Column_131=3
Column_140=3
Column_143=3
Column_172=3
Column_173=3
Column_176=3
Column_211=3
Column_7=2
Column_14=2
Column_15=2
Column_16=2
Column_45=2
Column_46=2
Column_57=2
Column_115=2
Column_124=2
Column_128=2
Column_134=2
Column_142=2
Column_145=2
Column_148=2
Column_154=2
Column_157=2
Column_158=2
Column_168=2
Column_171=2
Column_183=2
Column_194=2
Column_11=1
Column_13=1
Column_17=1
Column_25=1
Column_30=1
Column_31=1
Column_32=1
Column_33=1
Column_36=1
Column_50=1
Column_52=1
Column_110=1
Column_114=1
Column_116=1
Column_127=1
Column_141=1
Column_147=1
Column_155=1
Column_164=1
Column_165=1
Column_166=1
Column_184=1

parameters:
[boosting: gbdt]
[objective: binary]
[metric: binary_logloss]
[tree_learner: serial]
[device_type: cpu]
[data: ]
[valid: ]
[num_iterations: 10]
[learning_rate: 0.5]
[num_leaves: 64]
[num_threads: 0]
[deterministic: 0]
[force_col_wise: 0]
[force_row_wise: 0]
[histogram_pool_size: -1]
[max_depth: 8]
[min_data_in_leaf: 3970]
[min_sum_hessian_in_leaf: 2.9]
[bagging_fraction: 1]
[pos_bagging_fraction: 1]
[neg_bagging_fraction: 1]
[bagging_freq: 0]
[bagging_seed: 3]
[feature_fraction: 1]
[feature_fraction_bynode: 1]
[feature_fraction_seed: 2]
[extra_trees: 0]
[extra_seed: 6]
[early_stopping_round: 5]
[first_metric_only: 0]
[max_delta_step: 0]
[lambda_l1: 9.8]
[lambda_l2: 9.6]
[linear_lambda: 0]
[min_gain_to_split: 7.8]
[drop_rate: 0.1]
[max_drop: 50]
[skip_drop: 0.5]
[xgboost_dart_mode: 0]
[uniform_drop: 0]
[drop_seed: 4]
[top_rate: 0.2]
[other_rate: 0.1]
[min_data_per_group: 100]
[max_cat_threshold: 32]
[cat_l2: 10]
[cat_smooth: 10]
[max_cat_to_onehot: 4]
[top_k: 20]
[monotone_constraints: ]
[monotone_constraints_method: basic]
[monotone_penalty: 0]
[feature_contri: ]
[forcedsplits_filename: ]
[refit_decay_rate: 0.9]
[cegb_tradeoff: 1]
[cegb_penalty_split: 0]
[cegb_penalty_feature_lazy: ]
[cegb_penalty_feature_coupled: ]
[path_smooth: 0]
[interaction_constraints: ]
[verbosity: -1]
[saved_feature_importance_type: 0]
[linear_tree: 0]
[max_bin: 255]
[max_bin_by_feature: ]
[min_data_in_bin: 3]
[bin_construct_sample_cnt: 200000]
[data_random_seed: 1]
[is_enable_sparse: 1]
[enable_bundle: 1]
[use_missing: 1]
[zero_as_missing: 0]
[feature_pre_filter: 0]
[pre_partition: 0]
[two_round: 0]
[header: 0]
[label_column: ]
[weight_column: ]
[group_column: ]
[ignore_column: ]
[categorical_feature: ]
[forcedbins_filename: ]
[precise_float_parser: 0]
[objective_seed: 5]
[num_class: 1]
[is_unbalance: 0]
[scale_pos_weight: 1]
[sigmoid: 1]
[boost_from_average: 1]
[reg_sqrt: 0]
[alpha: 0.9]
[fair_c: 1]
[poisson_max_delta_step: 0.7]
[tweedie_variance_power: 1.5]
[lambdarank_truncation_level: 30]
[lambdarank_norm: 1]
[label_gain: ]
[eval_at: 10]
[multi_error_top_k: 1]
[auc_mu_weights: ]
[num_machines: 1]
[local_listen_port: 12400]
[time_out: 120]
[machine_list_filename: ]
[machines: ]
[gpu_platform_id: -1]
[gpu_device_id: -1]
[gpu_use_dp: 0]
[num_gpu: 1]

end of parameters

pandas_categorical:null
