tree
version=v3
num_class=1
num_tree_per_iteration=1
label_index=0
max_feature_idx=139
objective=binary sigmoid:1
feature_names=Column_0 Column_1 Column_2 Column_3 Column_4 Column_5 Column_6 Column_7 Column_8 Column_9 Column_10 Column_11 Column_12 Column_13 Column_14 Column_15 Column_16 Column_17 Column_18 Column_19 Column_20 Column_21 Column_22 Column_23 Column_24 Column_25 Column_26 Column_27 Column_28 Column_29 Column_30 Column_31 Column_32 Column_33 Column_34 Column_35 Column_36 Column_37 Column_38 Column_39 Column_40 Column_41 Column_42 Column_43 Column_44 Column_45 Column_46 Column_47 Column_48 Column_49 Column_50 Column_51 Column_52 Column_53 Column_54 Column_55 Column_56 Column_57 Column_58 Column_59 Column_60 Column_61 Column_62 Column_63 Column_64 Column_65 Column_66 Column_67 Column_68 Column_69 Column_70 Column_71 Column_72 Column_73 Column_74 Column_75 Column_76 Column_77 Column_78 Column_79 Column_80 Column_81 Column_82 Column_83 Column_84 Column_85 Column_86 Column_87 Column_88 Column_89 Column_90 Column_91 Column_92 Column_93 Column_94 Column_95 Column_96 Column_97 Column_98 Column_99 Column_100 Column_101 Column_102 Column_103 Column_104 Column_105 Column_106 Column_107 Column_108 Column_109 Column_110 Column_111 Column_112 Column_113 Column_114 Column_115 Column_116 Column_117 Column_118 Column_119 Column_120 Column_121 Column_122 Column_123 Column_124 Column_125 Column_126 Column_127 Column_128 Column_129 Column_130 Column_131 Column_132 Column_133 Column_134 Column_135 Column_136 Column_137 Column_138 Column_139
feature_infos=[0:16] [0:6] [0:8] [0:8] [0:16] [0:1] [0:1] [0:1] [0:1] [0:1] [0:12923] [0:3233] [0:12917] [2:132] [3:25845] [-1.9397770166397095:98.653861999511719] [3.7259809970855713:159.86013793945312] [2.7613649368286133:152.07829284667969] [0.79833799600601196:166.13566589355469] [-1.9448369741439819:98.624855041503906] [0:2726] [0:110] [0:563] [0:10] [0:2730] [0:1083] [0:30] [0:49] [0:5] [0:1083] [0:1627] [0:64] [0:475] [0:6] [0:1629] [0:1083] [0:30] [0:140.75] [0:5] [0:1083] [0:661782.25] [0:638.75] [0:37744.1875] [0:9] [0:663410.25] [0:2] [0:2] [0:2] [0:1] [0:0.80995500087738037] [0:1] [0:1] [0:1] [0:0.57142901420593262] [0:0.60000002384185791] [0:1] [0:1] [0:1] [0:0.57142901420593262] [0:0.60000002384185791] [0:1] [0:1] [0:1] [0:0.57142901420593262] [0:0.60000002384185791] [0:0.25] [0:0.25] [0:0.25] [0:0.0625] [0:0.0625] [-502.57244873046875:16527.740234375] [0:955.788818359375] [0:4664.697265625] [0:77.544601440429688] [-503.66119384765625:16532.033203125] [-567.93853759765625:4774.43798828125] [0:223.21076965332031] [0:538.6591796875] [0:64.091140747070312] [-569.168701171875:4789.7236328125] [0:11113.951171875] [0:615.50018310546875] [0:3829.640380859375] [0:68.338874816894531] [0:11124.8037109375] [-281.26773071289062:5556.9755859375] [0:238.94720458984375] [0:1200.550537109375] [0:64.091140747070312] [-287.8358154296875:5562.40185546875] [0:30879978] [0:56952.48828125] [0:2417518.5] [0:1167.55029296875] [0:30940314] [0:1] [0:1] [0:1] [0:1] [0:1] [0:1] [0:1] [0:1] [0:1] [0:1] [-11.413535118103027:190.64485168457031] [0:60.223415374755859] [0:72.414131164550781] [0:49.223228454589844] [-11.416239738464355:191.38079833984375] [-194.15585327148438:0] [-118.54830169677734:0] [-158.66993713378906:0] [-132.80621337890625:0] [-194.16043090820312:0] [-187.41470336914062:0] [-111.64816284179688:0] [-156.41024780273438:0] [-130.16769409179688:0] [-187.39202880859375:0] [-205.81387329101562:0] [-137.58628845214844:0.70563399791717529] [-179.10939025878906:0] [-155.76138305664062:0] [-205.75247192382812:0] [1:31] [5:1383] [0:226244464] [0:170] [100:65534] [1:65535] [1:254] [1:254] [0:4344779] [0:2348975] [0:570000000] [-3.4968183040618896:3.5611093044281006] [0:1] [0:676] [1:679]
tree_sizes=6903 6949 6979 7022 6961 6912 5199 6879 6844 6952

Tree=0
num_leaves=64
num_cat=0
split_feature=138 136 138 139 138 107 139 136 139 130 136 45 138 50 129 136 139 130 138 138 126 138 15 67 138 138 124 136 130 64 138 130 139 103 100 137 49 112 131 137 90 130 25 139 24 102 85 131 57 10 138 139 70 136 138 59 136 132 138 105 109 137 105
split_gain=869258 50074.7 37637.6 16232.1 13355.2 11809.9 10286.7 4175.99 3877.3 3848.39 3601.01 2926.92 2682.26 2603.6 2068.76 1938.03 1828.85 1570.72 1562.1 1521.69 1512.82 1499.75 1326.73 1205.22 1184.1 1139.72 1073.18 1009.48 2656.09 1673.04 963.922 951.14 921.375 838.537 721.495 711.734 685.418 641.87 618.496 610.734 570.36 527.342 504.712 482.168 451.099 587.777 449.298 442.072 437.407 436.291 404.905 393.092 380.271 667.892 375.478 407.461 360.94 358.458 354.53 348.952 344.545 338.769 331.345
threshold=32.500000000000007 0.084288232028484358 18.500000000000004 91.500000000000014 54.500000000000007 13.326104164123537 129.50000000000003 -0.065765533596277223 133.50000000000003 46283.500000000007 -0.47828930616378779 0.0091874999925494211 25.500000000000004 0.055362999439239509 16517.500000000004 0.28109937906265264 30.500000000000004 41156.500000000007 38.500000000000007 12.500000000000002 118.50000000000001 13.500000000000002 18.403393745422367 0.030305999331176284 25.500000000000004 41.500000000000007 -2.6573964357376094 -0.15082539618015287 62142.500000000007 0.014688500203192236 25.500000000000004 43295.500000000007 238.50000000000003 0.49647499620914465 0.55606648325920116 0.71466994285583507 0.048225000500679023 -1.5293139815330503 28.500000000000004 0.51883682608604442 7.7042880058288583 45680.500000000007 8.5000000000000018 57.500000000000007 91.500000000000014 0.94282248616218578 8.0206737518310565 27.500000000000004 0.19756100326776507 469.50000000000006 22.500000000000004 256.50000000000006 11.180282115936281 -0.63460430502891529 41.500000000000007 0.0078909997828304785 -0.83238163590431202 3.5000000000000004 64.500000000000014 19.996826171875004 14.368967056274416 0.74211516976356517 12.172415256500246
decision_type=2 2 2 2 2 2 2 2 2 2 2 2 2 2 2 2 2 2 2 2 2 2 2 2 2 2 2 2 2 2 2 2 2 2 2 2 2 2 2 2 2 2 2 2 2 2 2 2 2 2 2 2 2 2 2 2 2 2 2 2 2 2 2
left_child=2 4 7 10 6 9 26 16 12 22 35 32 62 18 49 33 56 24 57 -9 -20 -18 37 25 -10 -13 52 -6 -29 48 59 -15 54 60 -14 50 -17 47 -27 -28 -19 42 -36 -23 45 -26 -32 -3 -30 -11 -4 -38 53 -2 -8 -56 -1 -7 -33 -12 -16 -54 -5
right_child=1 5 3 8 27 13 11 19 17 14 30 23 34 31 15 36 21 40 20 -21 -22 43 -24 -25 44 38 39 28 29 -31 46 58 -34 -35 41 -37 51 -39 -40 -41 -42 -43 -44 -45 -46 -47 -48 -49 -50 -51 -52 -53 61 -55 55 -57 -58 -59 -60 -61 -62 -63 -64
leaf_value=0.41222690460983114 -1.2200344934156482 -1.1152071103390686 -0.2103016607689463 1.6207622022625654 -1.5225205541580984 0.72722724360109636 1.1128992554813333 2.0787469129827008 1.5059077935846026 1.8053173625364969 1.3222083853368802 0.20727948248094497 1.0888878712352716 -0.60386202801804401 0.055004060150928069 0.39632280878606052 1.8839316958799461 1.8324839266618731 -1.1698391140958309 1.8984761530630576 1.4634780479680727 0.88577316471753664 1.1893264921534787 1.2541273535237867 1.0695667613436397 -0.86921752451317302 -0.78959913042594576 -1.3577752660524964 0.33617763942247136 -0.94994151099619972 0.86375539219279651 1.3387439336952434 1.8273829164422764 -0.93203786025871271 -0.46412047777270549 0.91539680792423661 0.87905893440316829 1.1699220352747823 0.21335063433082446 1.1249350931125324 1.5191865272991165 0.6463593795566257 0.62751233842344456 1.5302457619739651 1.6241066599131115 0.14888619445107021 -0.34652247163329908 0.091345208140238165 1.8197315160545195 1.0489502028232347 -1.0537544851116498 1.7288685251762448 -1.3452216987311318 -0.11894230967137132 -0.50937251548341544 0.94291698630824117 1.2275212266072577 -0.26270956254298072 0.1096452739300986 0.65007825765098814 1.3881688136151509 0.26009665696496254 1.2114893014404431
leaf_weight=338.19844245165586 611.56822970509529 384.19932645559311 434.15682365745306 918.27653279155493 25445.870914652944 231.89243368804455 320.206617385149 132966.63475178927 2495.4755841270089 1720.0398627221584 420.62464259564877 1078.437017261982 521.40216992795467 164.59508172422647 136.37265629321337 267.46956010907888 12691.354286827147 6341.2126886025071 1787.8569224625826 19784.456513740122 77.267609529197216 469.13415729254484 238.31265161186457 206.57284766435623 571.43670891970396 1110.9546923339367 115.67888254672289 2565.1854242905974 108.65701538324356 233.45943680405617 174.25138785690069 390.65896457433701 341.80086187273264 257.18182902783155 507.14754749089479 107.16503123193979 267.77499467134476 84.759381033480167 300.42829512059689 134.17573262751102 3227.2649383991957 731.56602866202593 274.52817041426897 3152.5240899920464 184.05548614263535 477.20431569963694 483.4974208176136 239.8437789157033 166.46806980669498 310.37333503365517 950.71081911027431 639.5104591473937 4102.2140581831336 424.03434763848782 156.26306205242872 152.95042994618416 498.76618668437004 501.90467564761639 101.62324941158295 938.63353005051613 117.99077077955008 78.403226248919964 2981.6679522022605
leaf_count=1834 6151 3992 3067 1598 286723 1044 1091 50358 5236 1814 1095 6636 1770 1467 963 1519 13254 6581 18082 18379 144 1904 759 603 1998 10506 1079 27881 665 2328 701 986 305 2555 4075 455 1084 289 1861 458 6589 3440 1306 6614 299 3041 3485 1595 141 1097 8896 801 42004 2910 1381 607 1648 3717 718 4227 260 513 8993
internal_value=1.36938 -0.986802 1.92687 1.2022 -1.27534 0.387298 -0.637036 2.0239 1.41871 1.00236 0.0173716 0.148347 1.01617 -0.488284 1.28044 0.789894 1.74212 1.5989 -0.759142 2.05547 -1.05795 1.78674 -0.070929 -0.172992 1.26985 -0.288301 -1.15983 -1.47879 -1.10685 0.197373 0.55102 0.607308 1.05261 -0.173882 0.459347 -0.690195 1.22361 -0.478738 -0.652334 0.168781 1.72765 0.249243 -0.101768 1.44417 0.79038 0.637921 -0.0463551 -0.68747 1.23707 1.68605 -0.806423 1.46956 -1.22002 -0.792895 0.622843 0.156212 0.884292 0.030028 1.05424 0.852263 0.67116 -1.31912 1.30963
internal_weight=0 45573 192641 22740.3 37653.3 7919.63 9133.69 169901 19231.2 4663.83 3509.04 3667.61 5934.59 3255.8 3716.71 1686.3 17150 13296.6 2598.92 152751 1865.12 16313 947.115 2696.39 3728.17 2489.82 5466.07 28519.6 3073.77 508.585 2017.01 656.877 971.221 511.545 2034.64 1492.03 1174.76 708.802 1411.38 249.855 9568.48 1513.24 781.676 3621.66 1232.7 1048.64 657.749 624.043 275.125 2030.41 1384.87 907.285 5216.22 1035.6 629.42 309.213 836.965 733.797 492.282 1359.26 254.363 4180.62 3899.94
internal_count=597572 436729 160843 66852 393843 42886 76105 93991 44926 16728 21926 22990 21182 26158 10093 7182 25254 23744 22987 68737 18226 21772 6635 19606 10574 19003 53115 317738 31015 3134 9508 3171 3384 3778 10591 12418 3404 5876 12367 1537 13170 8821 5381 8518 5338 5039 4186 5587 806 2911 11963 1885 51578 9061 3079 1988 3482 4761 1704 5322 1223 42517 10591
is_linear=0
shrinkage=1


Tree=1
num_leaves=64
num_cat=0
split_feature=138 138 138 139 136 139 138 139 139 132 13 126 139 129 130 20 14 136 64 138 126 137 2 129 24 130 87 136 126 0 37 114 132 54 129 136 50 125 126 102 136 137 128 136 136 93 136 10 133 15 139 12 18 107 136 10 117 139 131 138 135 137 11
split_gain=86681.4 8848.71 7428.35 2862.1 2359.67 1806.02 1113.17 2015.44 968.565 828.967 662.425 776.496 650.316 622.13 649.952 492.016 445.132 439.445 430.498 424.374 405.638 404.671 399.623 559.35 427.239 396.155 394.754 394.48 382.5 361.431 364.567 350.926 484.13 329.731 319.217 315.75 305.49 297.08 292.73 400.271 276.186 274.737 257.117 248.034 238.574 229.804 219.436 215.154 213.053 219.83 212.343 211.437 207.675 201.99 194.883 191.493 273.705 181.644 179.448 176.07 174.9 169.129 168.997
threshold=23.500000000000004 48.500000000000007 14.500000000000002 169.50000000000003 0.26766863465309149 121.50000000000001 78.500000000000014 198.50000000000003 58.500000000000007 4.5000000000000009 6.5000000000000009 82.500000000000014 70.500000000000014 52754.500000000007 28631.500000000004 17.500000000000004 152.50000000000003 -0.13540358096361158 0.21034549921751025 8.5000000000000018 100.50000000000001 0.68742534518241893 1.5000000000000002 18850.000000000004 90.500000000000014 57479.000000000007 11.600679874420168 0.41783171892166143 83.500000000000014 1.5000000000000002 1.2250000238418581 -1.7320345044136045 19.500000000000004 0.014601000119000675 8212.5000000000018 0.59645968675613414 0.050076499581336982 3.5000000000000004 91.500000000000014 0.4647239893674851 0.30928447842597967 0.71027690172195446 10.500000000000002 -0.53500041365623463 -0.8719111680984496 1.4881765246391299 0.064706340432167067 372.50000000000006 1.0000000180025095e-35 5.1900055408477792 147.50000000000003 7.5000000000000009 15.853130340576174 14.616741180419924 0.12538930028676989 1.0000000180025095e-35 -14.566446781158445 116.50000000000001 73.500000000000014 9.5000000000000018 8.2066664695739764 0.72504153847694408 1.5000000000000002
decision_type=2 2 2 2 2 2 2 2 2 2 2 2 2 2 2 2 2 2 2 2 2 2 2 2 2 2 2 2 2 2 2 2 2 2 2 2 2 2 2 2 2 2 2 2 2 2 2 2 2 2 2 2 2 2 2 2 2 2 2 2 2 2 2
left_child=2 3 4 9 8 12 7 20 43 10 33 16 47 14 58 26 57 41 -8 -6 21 31 23 62 36 -20 -16 -7 -25 34 38 -3 -33 60 -5 -18 -24 50 39 -31 51 -11 -17 -1 -10 -35 -41 -4 -29 -50 -22 -15 -13 55 -14 56 -36 -12 -9 -46 -2 -26 -19
right_child=1 6 5 29 19 27 18 13 44 17 11 52 54 40 15 42 35 22 25 -21 37 -23 24 28 61 -27 -28 48 -30 30 -32 32 -34 45 53 -37 -38 -39 -40 46 -42 -43 -44 -45 59 -47 -48 -49 49 -51 -52 -53 -54 -55 -56 -57 -58 -59 -60 -61 -62 -63 -64
leaf_value=-0.14216158094261136 0.42780368313154138 -0.64537953896827094 -0.12765545645258158 0.4573644799115178 0.63314239785903381 0.19148995185634562 -0.70700100306317737 -0.65559799731560042 0.062741469807739106 -0.54695012735178306 -0.2694825328459749 0.74151889240402025 -0.045875844134387701 -0.72877417334773831 0.342121794779154 0.021246472496408198 -0.48693003415504987 0.29617342674862512 -0.67338322205349865 0.52297739052217707 0 0.089247819241938656 -0.56257128784916532 -0.58136091246084221 -0.088897524173522452 1.0141256362908573 1.2342976922420303 0.43351483909643423 0.75971373197222702 0.30798143413260071 0.27592912361604871 -0.62246652589641005 1.1484805448962319 -0.39424069996215255 0.21340779836388585 0.18862458471634411 0.049452513225884225 -0.58162393752334229 0.52898144811339998 -0.64742701969057426 -1.4655479425829245 -0.029743118241050207 -1.0453604088876269 0.20412208877013935 0.49784875462702555 0.38082168907815361 -0.16237512930620587 -0.53264484767205944 0.36575397905547352 -0.44323518853599098 1.3081276427935427 0.11252669254880963 0.064209295350449253 -0.53612552767157473 0.15884117059829397 0.21328471576798499 -1.245882329519673 0.27633190443120181 0.27228449402050686 0.35686010775003979 -0.14266831910607952 0.68817709723329301 -0.37863129879806756
leaf_weight=1256.0076077356935 1186.4093839451671 9531.5492331534624 972.55714023858309 1871.0607486329973 62014.53901398927 5467.9872000701725 19505.347431503236 372.79666178300977 643.81873792037368 4756.7028997242451 364.41860073059797 275.11026183515787 3455.3123304918408 215.39616794139147 994.19407156854868 343.85791058838367 3033.9333606511354 1069.3650958314538 84.043449647724628 17142.063610725105 96.41728787124157 275.26884236931801 2233.3476931639016 696.29934798926115 307.24789059907198 94.287219740450382 222.56766382977366 6942.6635996922851 73.911019250750542 379.8036337569356 1109.4420042447746 118.24707527458668 86.842962436378002 474.03640734031796 90.745453141629696 254.00377530604601 317.66077203303576 119.33980166912079 191.90111894160509 606.57736300304532 98.109525576233864 426.19490921869874 92.911191362887621 1768.7060653083026 9599.3819251991808 177.36507275700569 846.23324768617749 1013.4791104309261 269.25322149693966 202.73735582083464 73.146637290716171 183.0916905105114 432.13157039135695 138.64756033942103 3181.255131341517 2758.2920001074672 71.172134537249804 511.3782870657742 78.204979196190834 5573.4038778059185 209.90542862191796 132.94717901200056 137.20483157038689
leaf_count=4230 3466 102354 3303 2423 31551 10271 238844 3801 1476 36338 2116 328 10025 2108 3511 2085 20012 2496 1037 15294 717 1790 13668 3800 1316 94 322 7383 56 824 2949 1195 427 2319 175 624 1112 1302 259 3520 978 1586 971 4150 9607 333 3722 4808 301 810 257 1021 1907 791 6751 6347 540 1271 353 8170 1075 233 669
internal_value=0 -0.401563 0.493761 -0.133712 0.56386 0.173963 -0.607887 -0.468878 0.371933 -0.272943 -0.111453 -0.232168 -0.0380014 0.00100908 0.146136 0.322178 -0.331552 -0.382262 -0.698444 0.609422 -0.587943 -0.608234 -0.251747 -0.0390197 -0.389933 0.196639 0.51845 0.316173 -0.43766 0.160315 0 -0.628579 0.120846 0.172804 0.261429 -0.43269 -0.484356 0.0940156 -0.150387 -0.226943 -0.59411 -0.505599 -0.211879 0.0585543 0.431447 -0.172473 -0.371627 -0.338661 0.407013 0.00507333 0.605515 -0.335714 0.34187 0.138719 0.0515347 0.174323 -0.431783 0.0426443 -0.480571 0.446684 0.337801 0.143872 0.212518
internal_weight=0 57719.1 119503 25133.4 97997.9 21505.2 32585.6 12901.9 18841.3 17069.6 6918.69 4870.98 8622.6 2601.13 2104.53 1653.53 4163.73 10150.9 19683.7 79156.6 10300.8 10011.9 4967.98 1976.78 2991.2 178.331 1216.76 12882.6 770.21 8063.88 3133.96 9736.64 205.09 2047.72 4929.92 3287.94 2551.01 288.904 2024.52 1832.61 496.597 5182.9 436.769 3024.71 15816.6 651.401 1452.81 1986.04 7414.65 471.991 169.564 398.488 707.242 3058.86 6636.57 2920.21 161.918 875.797 451.002 15172.8 1396.31 440.195 1206.57
internal_count=597572 479442 118130 116275 74478 43652 363167 123192 27633 94725 33451 26258 24887 15150 11043 6889 24023 61274 239975 46845 108042 105766 23350 7021 16329 1131 3833 18765 3856 21550 11274 103976 1622 7193 10276 20636 14780 2276 8325 8066 4107 37924 3056 8380 19253 2652 7242 8111 8494 1111 974 3129 2235 7853 16776 7062 715 3387 4154 17777 4541 1549 3165
is_linear=0
shrinkage=0.6


Tree=2
num_leaves=64
num_cat=0
split_feature=138 138 136 136 136 20 115 137 9 139 13 138 47 137 133 138 139 129 107 124 138 110 127 19 137 138 138 129 129 125 136 13 11 92 72 127 137 126 132 139 131 110 78 127 130 127 13 108 109 130 105 126 138 29 117 74 73 133 136 18 67 47 121
split_gain=34617.3 8217.69 3267.31 1347.56 1220.06 904.265 868.151 751.813 703.092 689.718 679.866 592.105 580.423 625.441 543.28 535.795 477.571 487.156 443.775 438.542 489.435 388.962 375.914 365.852 345.074 317.776 308.535 297.858 282.671 281.548 257.283 247.334 384.332 245.714 250.642 238.991 222.735 203.148 194.256 189.758 189.449 186.307 185.611 176.392 175.343 174.701 173.359 170.488 166.049 165.458 164.293 163.825 150.805 140.628 130.708 105.302 101.505 101.378 100.121 96.2544 93.7504 90.3068 78.7322
threshold=16.500000000000004 46.500000000000007 0.53015619516372692 0.36817699670791632 -0.54910454154014576 5.5000000000000009 -30.540681838989254 0.34863431751728063 0.80909100174903881 87.500000000000014 14.500000000000002 100.50000000000001 0.10620300099253656 0.60446599125862133 1.0000000180025095e-35 8.5000000000000018 133.50000000000003 52754.500000000007 15.00238084793091 -1.6093614697456358 78.500000000000014 -15.573064804077147 9.5000000000000018 5.8063576221466073 0.61021810770034801 9.5000000000000018 9.5000000000000018 13478.500000000002 998.50000000000011 1.5000000000000002 -1.0059018731117246 5.5000000000000009 1.5000000000000002 9.3222947120666522 7.9496819972991952 1.5000000000000002 0.56381821632385265 132.50000000000003 5.5000000000000009 17.500000000000004 2.5000000000000004 -8.5798096656799299 10.939117908477785 167269.50000000003 29264.500000000004 7063.0000000000009 5.5000000000000009 15.723782539367678 23.971864700317386 45680.500000000007 14.568198680877687 38.500000000000007 69.500000000000014 2.5000000000000004 -19.260756492614743 104.47789001464845 17.88565826416016 1.0000000180025095e-35 1.183228671550751 22.363086700439457 0.054999999701976783 0.41277900338172918 -0.79850748181343068
decision_type=2 2 2 2 2 2 2 2 2 2 2 2 2 2 2 2 2 2 2 2 2 2 2 2 2 2 2 2 2 2 2 2 2 2 2 2 2 2 2 2 2 2 2 2 2 2 2 2 2 2 2 2 2 2 2 2 2 2 2 2 2 2 2
left_child=2 3 9 7 24 6 -6 42 30 26 12 16 21 -14 18 58 -8 -18 22 20 23 -10 46 27 43 -11 39 -7 61 -24 33 35 47 54 -35 41 -16 -25 51 -1 -40 -20 -2 -3 -37 -13 -5 -33 -44 -31 -38 -32 -26 -28 -9 -30 -34 59 -4 -17 -22 -12 -41
right_child=1 4 15 14 5 19 11 8 10 25 28 45 13 -15 36 57 17 -19 31 -21 60 -23 29 37 52 -27 53 -29 55 49 38 32 56 34 -36 44 50 -39 40 62 -42 -43 48 -45 -46 -47 -48 -49 -50 -51 -52 -53 -54 -55 -56 -57 -58 -59 -60 -61 -62 -63 -64
leaf_value=-0.2367590624094392 -0.61009388869517545 -0.64224685488362709 0.53222915710205709 0.25039735611678504 1.7381148373345379 0.16974475714819556 -0.48929004311879853 -0.71272494127490094 -0.3641503750578361 0.42573447944260262 -0.37067891185885454 -0.60678915358157737 -0.34645633654061903 -0.063419359312142723 -1.3530850164893005 0.48450342814247405 0.25208172966220016 -0.46895954746028251 -0.16306679058589421 0.60665294309732587 -0.66146098796411934 0.15883716550094482 0.64016107190551153 -0.4832719999537935 -0.24635177377428799 0.24849496809428942 -0.12783793158068121 -0.34335525613001783 0.5690365293490991 -0.30476447981815563 0.36095685350074785 0.3602332712299075 -0.052294135552995259 0.85200348272136694 -0.2522463113759898 0.3421396061087783 0.16166588038085866 0.41916011436179207 -0.48452424084082402 0.2967378147710969 0.07188869040201902 -0.9142839202499875 0.41806787466937934 0.11455132113191886 -0.49245827311229601 0.19245394282040354 0.54024398268320772 0.023142408545480969 -0.48438182484735992 0.12043627812248517 -0.64466516905502991 0.085995640112346144 0.66967200388914472 0.11883130993260259 0.042805590886960135 0.06527347179636292 -0.48421386923224219 0.28054874213092568 0.6087643000188292 0.31476810313218673 0 0.29493118246795275 0.096544104438605713
leaf_weight=287.45042999833822 1149.6453221552074 10165.034667346627 12357.087204996496 1308.5724371746182 80.210174843668938 745.93872110359371 563.93999599292874 321.58246336504817 618.80550748854876 7726.9886689614505 239.50702252611518 941.58423001132905 6612.3677043877542 4984.8224908299744 79.44073798507452 6853.7950311601162 1884.3879960868508 397.04355150088668 324.73225835338235 126.7999275624752 3243.2138478122652 2682.1258430145681 314.49406448379159 3121.8423801455647 196.64681741595268 7437.9600458517671 1867.9233269803226 855.36229519918561 724.29963489621878 396.88824017345905 1807.5587824843824 1780.2135367281735 862.45908012986183 109.66045504063368 175.24124863371253 323.68022090196609 162.45812226086855 78.749196292832494 226.56646747142076 3356.4086404908448 2987.4861198589206 207.07419857010245 129.4572722800076 97.051033351570368 111.43304895237088 94.171726139262319 2163.2832714170218 826.28814984485507 142.44631394743919 1665.2090529762208 168.96291849762201 1489.1717716865242 83.391493249684572 1473.7599192783237 90.841147005558014 222.75883236527443 260.23140690475702 1790.7997020408511 21107.536189910024 1814.4716025553644 76.080293200910091 86.783831883221865 1022.9753323663026
leaf_count=1134 11695 203887 13685 2412 436 4918 7624 3227 4627 9870 1369 18073 39150 19964 632 6844 12871 4426 1265 244 62200 9762 187 41787 2380 13358 6066 8458 1237 1634 3412 3615 2900 404 1356 627 289 231 1427 7128 10087 1298 376 1714 529 951 1636 2534 1170 3523 839 5009 1154 3810 576 826 1324 3155 13264 3273 797 248 2668
internal_value=0 -0.184474 0.446893 -0.00492787 -0.466289 -0.335732 -0.0980366 -0.0824863 -0.0563561 0.26398 -0.125947 -0.141741 -0.162187 -0.225423 0.170073 0.54319 0 0.122741 0.196961 -0.448981 -0.466853 0.0583612 0.307342 -0.340769 -0.616519 0.339381 0.120283 -0.101415 0.29181 0.119618 0.0989816 0.0579857 0.129005 -0.242301 0.168954 -0.208908 -0.495439 -0.45815 0.136678 0.219859 0.0296097 -0.477018 -0.50507 -0.634459 0.110005 -0.527812 0.433582 0.255933 -0.0359684 0.0349167 -0.240438 0.239022 0.0214932 -0.01741 -0.536453 0.458108 -0.160568 0.421798 0.580832 0.45 -0.646061 -0.174083 0.251532
internal_weight=0 58508 67097.2 35756.5 22751.4 12209.3 3961.34 24801.1 23379.6 23173.5 16171.5 3881.13 14898.1 11597.2 10955.4 43923.7 2845.37 2281.43 10544.6 8247.99 8121.19 3300.93 5848.45 4801.89 10542.1 15164.9 8008.52 1601.3 1273.35 2376.59 7208.11 4696.11 3729.19 697.325 284.902 966.92 410.862 3200.59 6510.78 4666.83 3214.05 531.806 1421.55 10262.1 435.113 1035.76 3471.86 2606.5 271.904 2062.1 331.421 3296.73 280.038 3341.68 412.424 947.058 1122.69 10459.1 33464.6 8668.27 3319.29 326.291 4379.38
internal_count=597572 513317 84255 141166 372151 163016 44381 115922 102681 44034 77183 43945 73503 59114 25244 40221 24921 17297 23484 118635 118391 14389 9392 55394 209135 23228 20806 13376 3680 5344 25498 14092 10373 5563 1760 3719 1760 42018 19935 10930 11514 2563 13241 205601 1156 19024 4048 6149 1546 5157 1128 8421 3534 9876 3803 2063 4224 13272 26949 10117 62997 1617 9796
is_linear=0
shrinkage=0.6


Tree=3
num_leaves=64
num_cat=0
split_feature=138 138 136 130 130 125 13 136 130 24 137 70 138 136 74 13 131 73 10 57 126 119 11 69 138 127 125 123 92 109 125 16 127 138 136 137 64 10 11 128 39 10 139 104 87 138 130 25 126 114 138 17 79 137 126 136 34 67 94 49 45 132 90
split_gain=13836.6 4735.64 2334.68 864.616 857.006 759.009 888.52 706.912 655.847 649.279 557.267 542.491 512.086 502.756 491.062 371.082 350.878 446.185 391.887 376.429 347.644 724.443 311.006 306.284 303.171 302.278 671.912 269.946 244.91 288.345 227.57 223.654 212.912 244.982 204.976 202.67 234.293 196.054 233.327 190.001 187.488 184.774 178.283 173.696 170.344 169.105 166.383 164.579 160.85 154.06 145.964 137.083 136.808 136.501 134.489 133.536 131.457 131.404 130.187 140.875 120.03 135.728 114.528
threshold=13.500000000000002 55.500000000000007 0.64532223343849193 32608.500000000004 99.500000000000014 2.5000000000000004 5.5000000000000009 -0.54910454154014576 49057.500000000007 53.500000000000007 0.46656227111816412 54.234897613525398 28.500000000000004 -0.35719250142574305 125.79676437377931 6.5000000000000009 42.500000000000007 17.595330238342289 14.500000000000002 0.17425800114870074 21.500000000000004 -7.8336415290832511 17.500000000000004 0.00027250000857748097 6.5000000000000009 5.5000000000000009 1.5000000000000002 -1.4916524887084959 45.408109664916999 17.180387496948246 3.5000000000000004 15.590167045593263 314070.50000000006 39.500000000000007 -0.93707013130187977 0.57398641109466564 0.0072204999160021552 424.50000000000006 1.0000000180025095e-35 1.0000000180025095e-35 2.2613635063171391 104.50000000000001 47.500000000000007 0.78961500525474559 3.3191550970077519 37.500000000000007 21243.500000000004 1.5000000000000002 92.500000000000014 -2.3715965747833248 6.5000000000000009 24.400883674621586 44.318796157836921 0.59287384152412426 107.50000000000001 0.47044624388217932 40.500000000000007 0.0069575000088661918 9688.4951171875018 0.32443100214004522 0.10078550130128862 88.500000000000014 222.63887023925784
decision_type=2 2 2 2 2 2 2 2 2 2 2 2 2 2 2 2 2 2 2 2 2 2 2 2 2 2 2 2 2 2 2 2 2 2 2 2 2 2 2 2 2 2 2 2 2 2 2 2 2 2 2 2 2 2 2 2 2 2 2 2 2 2 2
left_child=2 3 13 4 41 6 20 22 28 12 34 16 23 40 25 30 17 19 -18 -10 27 47 53 44 -4 31 -27 39 54 -30 56 -8 33 -17 -7 36 -14 -16 -39 -5 -1 -2 -15 -11 -6 -36 -37 -22 -47 -23 -44 -43 -25 -3 58 -13 -12 -55 59 -9 62 -62 -45
right_child=1 7 24 5 9 10 14 8 11 43 15 55 35 42 37 32 18 -19 -20 -21 21 49 -24 52 -26 26 -28 -29 29 -31 -32 -33 -34 -35 45 46 -38 38 -40 -41 -42 51 50 60 -46 48 -48 -49 -50 -51 -52 -53 -54 57 -56 -57 -58 -59 -60 -61 61 -63 -64
leaf_value=-0.23656743231611679 -0.24886127084398604 -0.6062234581410757 0.54536262943588265 -0.2978856274517846 0.07019731881313987 -0.62343844840556051 0.56299348609587707 -0.55040760425631408 -0.40710574837065938 -0.20388968179439934 0.073179016223518384 -0.56262797991581293 -0.19036407679608405 -0.0380758097668326 0.25509197043389176 0.0075312269970434047 -0.21431755301987854 0.9421632224274169 0.84119099192397051 0.14112538205847586 0.19019819144620831 -1.1662875188780941 0.56372793081071482 -0.49824576288944672 0.38928310783452053 0.76408326321622166 0.064716367716112791 0.38059693384929377 0.98571273724557984 -0.35698571186199501 0.72028986330626643 0.27348451213999148 0.46221166697325977 -0.26155421142150326 -0.045159718442959441 -0.35238140574484617 -0.60943008689426836 0.011921719786206746 -0.59362428459604855 0.088645678593342325 0.081948697818211264 0.54012316319012399 0.35577649017280805 -0.59982078699833918 -0.13993501408372622 -0.51820886149038281 0.036530520794995386 -0.3062621267941526 0.26575740839777423 -0.15907224097780673 0.2168940156838994 -0.058507381138509548 0.23244728645882487 -0.4282568419658237 0.24575865884282061 0.20680129856311733 0.52317431219302113 0.50846768307064538 0.18361119266082343 0.22511566295314023 0.41821802893752497 -0.026509671675987782 0.092619878051762652
leaf_weight=869.73328826017678 135.55872170254588 5302.4217691067606 16437.302564449608 695.07576689496636 2175.6391897480935 503.99883393570781 2557.8541110642254 3227.7140106540173 931.17118626646698 474.15861851349473 1177.0910486299545 795.5893463883549 729.35250636003911 655.83601580932736 541.96802171692252 9485.767556855455 177.08951854892075 136.54711638391018 358.07510525546968 838.93940414860845 558.72403073497117 313.6606492754072 73.582422964274883 882.51029287092388 6777.1159817297012 606.93282661959529 2620.723118443042 713.96321778185666 81.138674434274435 141.09830808639526 340.36616928689182 1743.5343106202781 320.25216896273196 1382.1539389062673 1233.3802581820637 1065.3416898809373 1789.2245003692806 651.12523597851396 329.75917961075902 1269.1410836018622 2713.2226780708879 930.89588136970997 4999.9664673339576 86.265834081918001 3694.4590495061129 657.42444454319775 586.85796328447759 404.26610484160483 93.679278733208776 85.618670612573624 6976.3401425480843 140.5249493457377 86.427812833338976 141.32372654601932 71.026144362986088 74.306217076256871 297.23142596334219 71.297615565359592 78.291994640603662 71.475673604756594 956.36363303102553 300.51093141362071 769.91144929453731
leaf_count=3204 725 188075 20641 3211 7159 8506 3134 82263 16709 3307 3604 17960 9075 2340 1458 31825 2024 1562 1184 9322 1829 2401 1672 4204 11473 365 9303 1090 1065 3654 340 5638 602 13904 5569 8536 22608 2593 2167 3632 6773 2298 9409 626 12972 8228 3461 1983 407 311 15732 707 179 2549 737 667 474 881 1404 661 2479 1308 3393
internal_value=0 -0.0859048 0.378049 0.00795303 -0.109555 0.0690182 0.175357 -0.410023 -0.28054 -0.152914 -0.0205595 -0.0845242 -0.21661 0.202613 0.279796 0.0289105 0.0588325 -0.0597279 0.484486 -0.144906 -0.0574007 -0.303727 -0.570044 -0.114152 0.500217 0.342628 0.199848 0.0665493 -0.455207 0.131317 0.279922 0.447802 -0.0115343 -0.0264029 -0.280294 -0.38265 -0.491442 -0.0275336 -0.190141 -0.0462166 0.00268534 0.371714 0.258846 0.115854 -0.0611482 -0.187749 -0.211603 -0.013673 -0.411129 -0.972665 0.275575 0.4568 -0.425844 -0.587142 -0.494837 -0.489163 0.170452 -0.0811612 -0.512685 -0.531345 0.190769 0.308254 0.0104979
internal_weight=0 55958.8 39429.5 43387.7 14804 28583.7 13092.3 12571.1 6982.46 13597 15491.3 3311.72 11009.8 16215.1 9051.9 13002.9 2441.82 1906.66 535.165 1770.11 4040.45 1362.27 5588.63 6839.04 23214.4 7529.04 3227.66 2678.18 3670.74 222.237 1814.69 4301.39 11188.2 10867.9 2488.48 4170.78 2518.58 1522.85 980.884 1964.22 3582.96 1206.98 12632.1 2587.21 5870.1 1984.48 1652.2 962.99 751.104 399.279 11976.3 1071.42 968.938 5515.04 3448.51 869.896 1474.32 212.621 3377.48 3299.19 2113.05 1256.87 856.177
internal_count=597572 528000 69572 195611 83037 112574 39115 332389 139212 79307 73459 49428 68194 37458 24658 50749 30801 27593 3208 26031 14457 6524 193177 24514 32114 18440 9668 7933 89784 4719 4418 8772 46331 45729 22710 43680 31683 6218 4760 6843 9977 3730 27481 11113 20131 14204 11997 3812 8635 2712 25141 3005 4383 191505 85065 18627 4078 3430 84328 82924 7806 3787 4019
is_linear=0
shrinkage=0.6


Tree=4
num_leaves=64
num_cat=0
split_feature=136 138 138 138 139 138 11 125 139 125 59 13 129 2 14 137 136 13 129 5 12 131 137 136 138 133 127 137 137 127 128 127 12 138 130 138 119 131 131 129 126 48 138 139 105 134 87 139 63 131 137 115 126 136 125 79 48 67 10 127 60 27 133
split_gain=6166.94 2997.72 904.589 707.673 507.262 617.225 463.544 1183.46 349.593 292.785 342.555 314.369 448.657 427.062 260.866 257.114 245.801 210.645 220.728 216.239 217.311 206.75 232.394 185.206 174.204 180.327 172.574 170.291 157.155 157.151 139.05 128.501 178.427 128.097 115.742 142.456 112.49 110.168 108.191 106.292 100.622 88.9224 245.631 86.1589 79.1298 103.73 89.251 74.3833 73.7709 72.051 82.3745 71.227 70.6452 69.7768 66.8569 65.6574 64.179 63.4677 63.3525 68.1019 62.2724 58.3505 58.103
threshold=0.75505030155181896 79.500000000000014 20.500000000000004 5.5000000000000009 114.50000000000001 43.500000000000007 1.5000000000000002 1.5000000000000002 111.50000000000001 4.5000000000000009 0.044123498722910888 5.5000000000000009 831.50000000000011 1.5000000000000002 136.50000000000003 0.63187542557716381 0.30928447842597967 12.500000000000002 1929.5000000000002 0.79285699129104625 1.5000000000000002 76.500000000000014 0.34658926725387579 -0.74556970596313465 10.500000000000002 1.5000000000000002 20499.000000000004 0.67090448737144481 0.30290128290653234 1.0000000180025095e-35 2.5000000000000004 4966.0000000000009 3.5000000000000004 25.500000000000004 48500.500000000007 11.500000000000002 -5.8535985946655265 111.50000000000001 10.500000000000002 3346.5000000000005 106.50000000000001 0.17519199848175052 25.500000000000004 93.500000000000014 26.522009849548343 1.0000000180025095e-35 6.3891148567199716 169.50000000000003 0.026385500095784668 10.500000000000002 0.4972818940877915 -15.288287639617918 53.500000000000007 1.3643049597740176 2.5000000000000004 30.740312576293949 0.21583849936723712 0.062361000105738647 274.50000000000006 20.500000000000004 0.010870500002056362 2.5000000000000004 1.0000000180025095e-35
decision_type=2 2 2 2 2 2 2 2 2 2 2 2 2 2 2 2 2 2 2 2 2 2 2 2 2 2 2 2 2 2 2 2 2 2 2 2 2 2 2 2 2 2 2 2 2 2 2 2 2 2 2 2 2 2 2 2 2 2 2 2 2 2 2
left_child=1 2 8 53 5 17 9 -8 23 11 33 12 -6 -13 16 26 21 19 40 28 -21 36 -23 43 -10 47 -9 58 -4 37 -17 57 -33 -11 35 -5 -3 56 -12 -31 -19 -36 -43 49 62 55 -47 51 -20 50 -1 -26 -51 -2 -27 -46 -25 61 59 -7 -45 -16 -37
right_child=3 14 4 34 6 27 7 15 24 10 38 13 -14 -15 31 30 -18 18 48 20 -22 22 -24 29 25 54 -28 -29 -30 39 -32 32 -34 -35 41 44 -38 -39 -40 -41 -42 42 -44 60 45 46 -48 -49 -50 52 -52 -53 -54 -55 -56 -57 -58 -59 -60 -61 -62 -63 -64
leaf_value=-0.24387531446619531 0.42138441033575053 -0.57331055279701693 -0.52492739468863836 0.29718799425947789 0.34089160074360209 -0.45611092482035298 0.89232195508603074 -0.43302061159373972 0.25922681979571655 -0.025612395051339189 -0.19348505068663796 0.23922419477159471 -0.14529745565873417 -0.014646249128187398 -0.59979756324094369 0.15307523550526625 0.43385363173432118 -0.31466522504088718 0.57144414034190183 0.42915969657533171 -0.23720567263306241 -0.5131793953510938 0.68110806038153238 0.0045641840242046372 -0.018864692537208645 -0.64721837908365909 0.021654047356854538 0.21389150292098574 0.072027960576650202 0.035145274189847878 -0.22475318127074359 0.55424272685741294 -0.44558343209846663 -0.69409308017693094 0.39507773671570173 0.24623779082664404 0 -0.63127913228487254 0.40436426126063757 0.17552333324609334 0.28444120807258161 0.27966319381896765 -0.50353923341715157 -0.90614616613388999 -0.13681402158520681 0.10358159776276112 -0.6046925494323212 0.20399060281952291 0.079094371819861051 -0.40926378502421035 0.076893101928278473 0.13177405102996198 -0.0073566053641407076 0.55091251854776446 0 0.22129066419862564 -0.25057986459438164 0 -0.60254863591980834 -0.00033288563231477811 -0.094236165489910304 0 -0.11760118446645616
leaf_weight=384.92065750434995 3059.6641170689836 646.13476680219173 161.68102834373713 1901.4261508909985 819.08866801392287 461.39218195807189 333.51820069272071 2309.0962354820222 4781.2046442851424 154.74019478261471 166.78075058758259 5623.9379436895251 3796.1306518046185 4068.9282756419852 3386.0857128286734 620.96937605459243 166.4753427002579 336.7735304646194 363.02018681541085 169.55664504133165 4122.8667752342299 88.446634800173342 128.44670166540891 2721.8745812028646 1605.6801878400147 133.62760854698718 318.46255896613002 107.51287002675235 1983.0443551894277 3991.959874426946 760.30378390662372 81.874631122685969 191.09424203634262 464.82427162956446 2861.401053047739 842.5007886569947 138.88269199151546 103.96015671826899 248.09664830192924 4010.1873570736498 125.05335049331188 1910.7642462579533 142.23914817348123 77.662106528878212 311.5990834441036 75.095648379996419 179.5693214694038 3084.9254195280373 199.53991070762277 396.00325188413262 1044.382233005017 3374.9738741861656 303.83243007771671 5525.9175038123503 121.49481818079948 396.5457050036639 392.07788729667664 78.135037234053016 1200.7985805282369 189.49546994548291 87.71401247754693 74.912779581733048 165.65466440469027
leaf_count=1826 8031 26878 3087 5116 3489 13940 356 24659 10536 439 1390 29127 26402 30315 184594 2222 393 2729 1385 1201 32982 4830 2587 8448 4351 673 1625 958 11300 12529 4099 2138 7500 6909 4963 1795 3027 499 1197 10686 580 3767 768 476 1303 217 1068 5699 895 1922 2895 7619 1047 8935 346 966 1580 2055 46258 4880 272 2252 561
internal_value=0 -0.0225815 0.0172213 0.382681 -0.0557579 -0.17018 -0.000665503 -0.173772 0.0972191 0.0480579 -0.257584 0.0706967 -0.0572928 0.132191 -0.468123 -0.26581 -0.209977 -0.0902914 0.158964 -0.13098 -0.208692 -0.325521 0.169138 0.0289925 0.167107 0.113278 -0.375993 -0.469685 0.0222928 0.0610916 -0.0511348 -0.545073 -0.117622 -0.538772 0.261208 0.179648 -0.469392 -0.0496372 0.152422 0.106299 -0.138404 0.323884 0.220605 -0.125211 0.0626005 -0.0559732 -0.379411 0.129639 0.410671 -0.0884037 -0.00683434 0.0821881 -0.244946 0.505924 -0.368983 0.0564865 -0.0265317 -0.576096 -0.513211 -0.333602 -0.536235 -0.588167 0.180582
internal_weight=0 60702.6 55722.1 17372.4 29105.6 9420.73 19684.9 4342.35 26616.5 15342.5 1034.44 14308.1 4615.22 9692.87 4980.49 4008.83 1168.39 7461.54 1024.39 6437.15 4292.42 1001.91 216.893 13514.6 13101.9 8320.7 2627.56 1959.2 2144.73 11220.1 1381.27 3812.1 272.969 619.564 8786.8 3872.39 785.017 3217.91 414.877 8002.15 461.827 4914.4 2053 2294.51 1970.97 962.81 254.665 8065.58 562.56 2129.14 1429.3 4980.65 699.836 8585.58 255.122 708.145 3113.95 3539.13 1851.69 650.888 165.376 3461 1008.16
internal_count=597572 560082 323828 37490 252424 120195 132229 32961 71404 99268 9935 89333 29891 59442 236254 32605 37715 54159 5589 48570 34183 37322 7417 42180 29224 18688 26284 66036 14387 33742 6321 198539 9638 7348 20524 11026 29905 10527 2587 23215 3309 9498 4535 8438 5910 3554 1285 17669 2280 7690 4721 11970 2969 16966 1019 2269 10028 188901 65078 18820 748 186846 2356
is_linear=0
shrinkage=0.6


Tree=5
num_leaves=64
num_cat=0
split_feature=136 138 137 118 12 137 14 123 114 128 50 137 12 20 138 138 55 72 130 29 63 19 138 49 129 131 117 90 35 45 49 57 24 107 69 129 107 134 117 131 136 126 130 129 45 138 25 10 137 138 79 47 138 35 48 136 121 137 72 138 129 127 138
split_gain=2617.9 1484.74 596.499 500.307 440.778 346.267 301.823 297.323 291.892 408.825 348.845 368.743 280.189 291.621 254.377 247.837 245.296 244.522 231.859 199.017 194.794 177.827 232.598 329.428 182.592 157.191 142.671 110.861 123.948 115.654 110.47 101.366 89.3098 88.7248 79.5929 115.58 88.5841 77.0795 84.3993 76.7772 73.8454 72.3621 70.9807 70.8256 64.1077 81.0019 62.2883 59.347 82.3936 56.8143 56.3212 54.6033 50.6318 49.3827 93.676 59.1566 46.4375 46.7938 45.4038 49.061 45.0244 43.4547 71.0714
threshold=1.0498943924903872 83.500000000000014 0.74825468659400951 -21.918080329895016 8.5000000000000018 0.50169110298156749 825.50000000000011 -2.5032384395599361 -8.6766853332519513 1.0000000180025095e-35 0.16693499684333804 0.57398641109466564 3.5000000000000004 65.500000000000014 4.5000000000000009 44.500000000000007 0.076950997114181532 10.248764514923097 44101.500000000007 1.5000000000000002 0.030535999685525898 5.3551549911499032 133.50000000000003 0.011146999895572664 10454.000000000002 53.500000000000007 -7.604628086090087 317.42573547363287 25.083333969116214 0.042556999251246459 0.20011100172996524 0.22792199999094012 18.500000000000004 16.813434600830082 0.00015649999841116371 21001.500000000004 16.148463249206547 1.5000000000000002 -20.544945716857907 73.500000000000014 -0.065765533596277223 35.500000000000007 1085.5000000000002 588.50000000000011 0.087726000696420683 3.5000000000000004 41.500000000000007 85.500000000000014 0.43315298855304724 26.500000000000004 0.30293299257755285 0.29520699381828314 11.500000000000002 1.9545454978942873 0.11651600152254106 -0.29270468652248377 -1.3019145131111143 0.78901800513267528 22.755757331848148 10.500000000000002 30574.500000000004 6.5000000000000009 12.500000000000002
decision_type=2 2 2 2 2 2 2 2 2 2 2 2 2 2 2 2 2 2 2 2 2 2 2 2 2 2 2 2 2 2 2 2 2 2 2 2 2 2 2 2 2 2 2 2 2 2 2 2 2 2 2 2 2 2 2 2 2 2 2 2 2 2 2
left_child=1 2 3 5 8 34 7 16 9 25 11 -10 27 15 -2 -14 -6 -11 -9 33 -15 22 23 -3 31 -5 32 29 -29 -7 -12 -25 -8 53 42 41 -37 38 -16 43 -24 -36 -1 61 45 -35 -28 48 -23 -45 -47 -46 -44 54 55 -4 57 -55 60 -60 -39 62 -21
right_child=14 21 19 4 6 12 26 18 10 17 30 -13 13 20 37 -17 -18 -19 -20 39 -22 47 40 24 -26 -27 46 28 -30 -31 -32 -33 -34 44 35 36 -38 58 -40 -41 -42 -43 52 49 51 50 -48 -49 -50 -51 -52 -53 -54 56 -56 -57 -58 -59 59 -61 -62 -63 -64
leaf_value=0.060649817376599649 0.48091711592297692 0.90334065039888767 -0.16994956927069177 0 0.02493960888619224 0.034746587879320341 0.26470119227124173 0.053490712789534108 -0.15409161088167855 0.39032143147631887 -0.15067036007935708 0.025386339944210034 -0.1314328077864173 -0.10312023501441439 0.13538365248505921 -0.51607829627685042 0.33208902857096095 0.026432972383659537 0.44403726342149252 0.12113499672700434 0.33782081768008015 -0.52784358951239629 -0.59662460907819193 -0.24711656114415739 -0.53478869521009587 -0.38284817538800492 -0.58442006545914726 -0.21343181249429236 0.40594053730255264 0.38018557203128439 0.42044033540070908 0.50768379243645023 -0.12791411077523629 0.067442036408853046 0 -0.11198861694248001 0.59625737017300917 0.35365652678081028 0.41327742771194753 -0.10458811874134165 0 -0.5087922806937536 -0.0032725272201061177 0.22813756809975977 0.45487061099395765 -0.15963264539780364 0 -0.58163264866224129 0 0.48241562071974298 -0.60581557571181233 -0.014617307896008003 -0.50360094860813476 0.031549444869486382 -0.51340956190354392 0.12173682788069375 -0.065674538614714797 0.22152552618577173 0.12141648584920162 -0.35912505559158542 0.084770532750152894 0.22432676599319801 -0.234415514094266
leaf_weight=77.21524859778583 3964.6624350836501 117.38934166450053 314.41443106625229 1907.2630385989323 4294.9697791505605 724.67668272694573 293.8414041348733 799.35445666220039 9398.9573730747215 1808.3650652649812 126.9479220258072 7248.1411800226197 6479.6139972247183 658.69446392124519 661.35786774754524 672.14285551942885 1205.0844489675947 1102.7750258920714 2014.6487420857884 651.71823209850118 743.85349203040823 202.36075461190194 433.65335027035326 93.754011632874608 245.61903032846749 476.51117812376469 271.34559822268784 527.12016648985445 135.15294074919075 743.09640601230785 684.99419868690893 138.50870206113905 653.87542529311031 250.85758142499253 127.5051498664543 136.04828143492341 93.104008878581226 393.48682738980278 1378.3400676422752 252.5316258771345 71.370268046855927 287.22293272148818 101.17718669399619 4829.9118130230345 96.81758132763207 355.61144338455051 100.53557961806655 1531.6065774848685 181.31422489136457 387.48014398850501 178.26118795527145 426.9197061737068 1142.9009109451436 743.25666133407503 107.39426007401198 982.30599175998941 313.49537508701906 1708.4520392790437 161.96558953542262 117.47529243677855 695.82790511567146 558.84299614932388 279.8102719951421
leaf_count=1380 11640 3301 1093 16445 29348 3497 2455 4333 78038 10875 785 26360 31559 4698 2077 18522 4781 7012 4895 2110 3541 13003 39528 4871 13620 3636 2912 3716 583 2926 1649 2470 5464 784 2266 2696 541 915 2753 1040 1382 7027 367 13664 136 1309 518 140092 3870 1097 973 1482 34972 2148 565 2449 1010 4017 706 568 2249 1720 1133
internal_value=0 -0.00246338 0.0190091 -0.0130113 0.0263786 -0.114232 0.133951 0.176524 -0.0189673 0.10395 -0.0565924 -0.0756545 -0.0708549 -0.119645 0.375908 -0.169007 0.0936979 0.254887 0.335592 0.135303 0.12765 -0.412211 -0.20891 0.0375533 -0.178211 -0.0784186 -0.129528 0.122207 -0.0748432 0.214677 0.32383 0.183091 0 0.0483208 -0.34578 -0.155839 0.16609 0.251134 0.326907 0.202816 -0.50499 -0.346153 -0.432419 0.215331 -0.0854179 -0.194811 -0.439216 -0.524508 -0.27377 0.248942 -0.326943 0.0689508 -0.467567 0.0916884 0 0.0461201 0.13808 0.166488 0.132749 -0.0673717 0.189144 0.0931955 0.00724483
internal_weight=0 60490.8 57475.2 45037.1 32387.6 12649.5 9633.66 8314.06 22754 5294.91 17459 16647.1 10684.4 8554.3 7373.12 7151.76 5500.05 2911.14 2814 12438.1 1402.55 3015.58 1100.29 595.271 477.882 2383.77 1319.6 2130.05 662.273 1467.77 811.942 232.263 947.717 5477.79 1965.17 643.88 229.152 3408.45 2039.7 6960.3 505.024 414.728 1321.29 6707.76 1308.47 784.73 371.881 1915.28 383.675 5217.39 533.873 523.737 1244.08 4169.32 1404.11 1296.72 2765.2 2451.71 1368.76 279.441 1089.31 1490.37 931.529
internal_count=597572 576664 354527 317797 199506 118291 54706 43357 144800 37968 106832 104398 69042 58320 20908 50081 34129 17887 9228 36730 8239 222137 65172 24262 20961 20081 11349 10722 4299 6423 2434 7341 7919 15966 49249 12530 3237 9268 4830 20764 40910 9293 36719 19724 4684 3066 3430 156965 16873 14761 2282 1618 35339 11282 4107 3542 7175 6165 4438 1274 3164 4963 3243
is_linear=0
shrinkage=0.6


Tree=6
num_leaves=48
num_cat=0
split_feature=136 138 92 138 133 136 11 125 127 137 14 75 136 131 123 127 13 16 136 7 139 117 57 10 14 132 136 139 128 138 12 104 115 108 10 139 135 138 138 136 138 4 132 138 54 139 48
split_gain=1146.88 705.86 310.243 303.86 301.314 306.408 309.475 589.994 433.392 236.676 198.801 212.896 200.902 142.643 123.998 111.867 131.612 103.66 93.1355 86.8867 85.5898 65.95 61.5016 110.002 197.371 61.2426 59.1479 57.6822 53.4329 60.4546 48.8756 37.3464 32.3268 28.9785 27.5543 26.76 30.9338 24.9872 21.4992 20.0594 14.6072 13.3074 10.8093 13.2158 10.3814 7.66089 6.50895
threshold=1.2655327916145327 78.500000000000014 132.54688262939456 7.5000000000000009 1.0000000180025095e-35 -1.6966303586959837 1.5000000000000002 1.5000000000000002 1.0000000180025095e-35 0.59037044644355785 136.50000000000003 3.6854014396667485 -0.041987862437963479 98.500000000000014 -13.851840019226072 2517.5000000000005 6.5000000000000009 9.893888473510744 1.8501301407814028 0.77500000596046459 245.50000000000003 -13.536160469055174 0.22792199999094012 448.50000000000006 572.50000000000011 3.5000000000000004 0.43493624031543737 35.500000000000007 10.500000000000002 17.500000000000004 9.5000000000000018 0.94583448767662059 -4.4125835895538321 23.614141464233402 205.50000000000003 115.50000000000001 69.813262939453139 15.500000000000002 3.5000000000000004 -0.45042464137077326 92.500000000000014 1.0000000180025095e-35 5.5000000000000009 9.5000000000000018 0.016991000622510914 96.500000000000014 0.13762649893760684
decision_type=2 2 2 2 2 2 2 2 2 2 2 2 2 2 2 2 2 2 2 2 2 2 2 2 2 2 2 2 2 2 2 2 2 2 2 2 2 2 2 2 2 2 2 2 2 2 2
left_child=1 2 3 19 5 37 8 -8 -7 17 11 13 -13 41 31 22 -17 -6 28 32 26 -16 -12 -24 -25 -19 -11 -21 29 42 40 46 35 38 -34 36 -1 -5 -29 -37 -14 -3 -2 45 -35 -44 -4
right_child=18 10 14 4 9 6 7 -9 -10 20 15 12 30 -15 21 16 -18 25 -20 27 -22 -23 23 24 -26 -27 -28 33 -30 -31 -32 -33 34 44 -36 39 -38 -39 -40 -41 -42 -43 43 -45 -46 -47 -48
leaf_value=0.033407222148478057 0.29430758936282636 -0.29697438472528859 -0.95467583766350472 -0.12635554167408392 0 -0.04354482376818148 0.58280038584738103 -0.10554078102921227 0.093014758052520574 -0.48430078296015466 -0.58594163224250717 -0.34923696381544561 0.43735047503620078 0.13452214941161722 0.34494688877605928 0.33898327816371465 -0.53853281875581316 -0.24457578989463549 0.48563098724971454 -0.17018947936174689 0.23149336824820252 -0.39833198936446373 -0.59326035900297036 0.52485556673902845 -0.53618872725551936 -0.90884400704587265 -0.098812234376071409 0.32233610035123134 0.40140709838694194 -0.22818524394307521 0.88001687946414864 -0.25619950368571254 0.10124262346374413 0.12586067827584768 -0.28943393268257239 -0.033533108883837585 0.29334954657222961 -0.57857570360459587 0.19238202068080815 0.17730523157004816 0.020687715074652193 -0.72564626144313893 0 0 -0.16437551038464943 0.21848802248341045 -0.39968566712413323
leaf_weight=2683.3819977231324 621.38988223695196 120.64144323254004 145.79029096709564 96.500555206090212 92.202755489852279 13094.852109796833 457.7151717026718 9929.0376574331895 22945.299389841501 181.51949212932959 974.33449197141454 123.99753146665171 87.167480199597776 125.98139717895538 80.87099454831332 131.77361237443984 97.479207661468536 102.93976378580555 1340.5001804828644 114.10718453489244 208.61117604933679 71.487040263600647 193.96692811790854 119.96495625283569 112.61537021258846 264.35702604800463 880.57319796644151 1007.9023931999691 788.60011424613185 95.338969149626791 98.406389806885272 109.19103180523962 78.365605158731341 73.605374530423433 145.7782557993196 133.12200940679759 175.30298582231626 322.33745248848572 1765.161590852309 1398.2256228872575 89.48007776401937 176.69691514596343 74.734880685340613 122.95127361174673 79.303680640645325 461.63436569250189 75.504216162022203
leaf_count=9447 2624 8374 1831 414 338 84363 738 67263 133382 903 149729 11287 362 4238 334 4885 8001 472 4747 551 379 534 20813 4270 14025 1886 3363 3958 2816 398 183 807 197 368 668 373 516 17932 7231 4266 1053 12755 644 393 541 2245 675
internal_value=0 0.00251711 0.0162597 0.0205023 0.0028698 0.012084 0.0168561 -0.0741567 0.043249 -0.24214 -0.311856 -0.0625007 0.24094 -0.359966 -0.457252 -0.43321 -0.0184834 -0.608791 0.355373 0.131548 -0.10162 0 -0.49664 -0.271535 0 -0.748403 -0.173635 0.211253 0.270363 0.189013 0.52886 -0.658591 0.0775235 0.228496 -0.131292 0.0896865 0.0521971 -0.492352 0.242544 0.155375 0.26764 -0.58461 0.225781 0.149696 0 0.190157 -0.814131
internal_weight=0 59165.6 56713 56230.2 48575.9 46845.7 46426.9 10386.8 36040.2 1730.2 2452.51 822.371 399.051 423.32 482.844 1630.13 229.253 459.5 3505.15 7654.26 1270.7 152.358 1400.88 426.547 232.58 367.297 1062.09 3040.08 2164.65 1376.05 275.054 330.486 4614.18 2925.97 224.144 4390.03 2858.68 418.838 2773.06 1531.35 176.648 297.338 1280.71 659.321 152.909 536.369 221.295
internal_count=597572 583705 343730 339549 311433 304092 285746 68001 217745 7341 239975 38252 12885 25367 4181 201723 12886 2696 13867 28116 4645 868 188837 39108 18295 2358 4266 12649 9120 6304 1598 3313 15467 12098 865 14602 9963 18346 11189 4639 1415 21129 5906 3282 909 2889 2506
is_linear=0
shrinkage=0.6


Tree=7
num_leaves=64
num_cat=0
split_feature=138 136 126 137 132 132 107 49 10 18 12 131 10 131 90 137 136 48 48 135 20 111 74 93 45 49 130 130 122 14 10 107 60 66 34 13 72 138 125 59 119 11 15 107 108 120 138 13 130 130 127 130 121 128 135 92 105 138 43 129 101 13 138
split_gain=486.915 363.72 337.198 331.046 256.579 229.272 216.751 340.845 238.505 355.514 321.645 253.271 221.488 208.758 206.531 184.144 173.801 191.133 242.683 207.03 161.326 155.235 283.952 147.216 143.302 236.917 200.296 130.111 151.238 140.18 130.05 129.653 126.01 124.389 123.354 122.773 126.246 116.872 116.096 125.447 115.328 102.427 102.373 98.1646 86.5185 82.4165 80.0428 78.3915 77.5399 70.6051 70.2958 70.0514 67.8841 67.4009 66.5519 73.9003 95.0015 66.8113 66.5402 64.165 61.1671 58.0155 51.1559
threshold=29.500000000000004 1.4840244054794314 100.50000000000001 0.34658926725387579 178.50000000000003 9.5000000000000018 15.077637672424318 0.10607249662280084 8.5000000000000018 12.684110641479494 1.0000000180025095e-35 23.500000000000004 67.500000000000014 48.500000000000007 17320.312500000004 0.38058613240718847 0.14701975882053378 0.16904799640178683 0.38675200939178472 0.83333334326744091 114.50000000000001 -26.050015449523922 34.851900100708015 20.256240844726566 0.010058000218123199 0.0051645000930875548 48054.500000000007 63180.500000000007 -1.2039725184440611 140.50000000000003 2327.5000000000005 21.436517715454105 0.0081710000522434729 0.0063060000538825997 15.500000000000002 5.5000000000000009 23.625704765319828 65.500000000000014 6.5000000000000009 0.016262000426650051 -21.224259376525875 16.500000000000004 10.507150173187258 31.876857757568363 13.624548435211183 -15.925278186798094 20.500000000000004 4.5000000000000009 53783.500000000007 51590.000000000007 6.5000000000000009 38816.000000000007 -12.841363430023192 19.500000000000004 54.613687515258796 21.202166557312015 20.44931793212891 6.5000000000000009 0.2070409953594208 2118.5000000000005 0.80558148026466381 6.5000000000000009 3.5000000000000004
decision_type=2 2 2 2 2 2 2 2 2 2 2 2 2 2 2 2 2 2 2 2 2 2 2 2 2 2 2 2 2 2 2 2 2 2 2 2 2 2 2 2 2 2 2 2 2 2 2 2 2 2 2 2 2 2 2 2 2 2 2 2 2 2 2
left_child=1 4 3 24 16 32 8 12 9 48 52 14 -8 -11 -12 -13 23 19 27 31 21 40 -23 33 25 -2 -27 28 -19 -29 43 47 -4 38 51 36 -21 -28 39 -1 -9 -37 58 -14 50 -15 -33 -18 -5 -40 -6 -34 -10 60 55 56 -25 -57 -22 -53 -35 -20 -3
right_child=2 62 5 6 44 -7 7 20 10 13 11 15 30 45 -16 -17 17 18 61 35 42 22 -24 54 -26 26 37 29 -30 -31 -32 46 34 53 -36 41 -38 -39 49 -41 -42 -43 -44 -45 -46 -47 -48 -49 -50 -51 -52 59 -54 -55 -56 57 -58 -59 -60 -61 -62 -63 -64
leaf_value=0.076621138190771168 -0.47275875443520871 0.40677736241960644 -0.20405386156853553 -0.52631959364699077 -0.67627987014861179 -0.3724722668847536 0.47267638370328918 0 1.0713653390671718 0.21396458832672874 -0.068397279479673195 0.68957798892741506 -0.38472889464140286 -0.80724107104576193 0.70942302629688658 0.11381316563256216 0.10707000660024181 0.0029726353326882389 0.40582586917329927 -0.05056709977103737 0.24225003153538319 0.24041680864695403 -0.3441767106047427 -0.41408577199713426 -0.5353270107847844 -0.38086577629086799 0.86462557838858256 0.20530030557206233 -0.4289456966339566 -0.46678610535879778 0.28918977621723507 0.10519613169565906 1.1979215035274118 0.25907732100365438 0 0.11307966698275922 -0.5219040331852548 0 -0.055423359967695852 -0.036743529721941094 0.63306336880207736 -0.39109831585261573 -0.019554739992048421 0.085429499185617361 -0.98493800268783138 0 -0.12454172877960001 0.24176197567946422 -1.314702599522676 -0.66521076489874387 0 0 0.19264202236109101 -0.19931308020796118 0.26121824413961037 0 0.031272899518157649 -0.40371801486179359 1.1778781207369806 0.65593900231417435 -0.10376661130292991 0.076337281191814585 0.16139434923465903
leaf_weight=5684.3414084753022 408.11443661362864 1050.8809509775601 72.373138408875093 192.07177822408266 72.658852053806186 128.33356035966426 115.19990050420165 224.25220312946476 110.93348010187037 393.2601321246475 7321.6827088354621 221.29623952438124 2559.2407208073419 123.59751460375264 114.02245556376874 1931.3661390023772 2487.0902533140033 4801.0856438388582 532.2672713547945 1453.2775202943012 78.453403823776171 441.57855113269761 842.94503569579683 208.05120226554573 781.72988938214257 132.42622671509162 130.60897525306791 126.05360520957038 299.24641040689312 477.21801477973349 100.52302254457027 2217.1030969242565 96.396882353816181 1292.617139251437 113.68289210391231 2544.1755641079508 236.67220148025081 113.65927687869407 169.96450136229396 9130.331988750957 175.81402298505418 140.09095677756704 73.239754876820371 147.26011584769003 91.311933624558151 86.335444728611037 696.54905810486525 5275.4202966508456 97.237812548410147 139.29385741241276 138.61458343430422 77.836622401373461 73.134618382668123 135.78240039106458 108.5676388470456 199.15202051494271 742.00904335686937 675.0669374121353 71.532242479734123 273.56672630971298 163.50849778298289 378.54481661808677 583.62647141003981
leaf_count=19768 53597 6487 1939 3053 528 2647 926 3067 1254 2519 140745 4570 55792 1787 1881 22936 7640 17337 908 5366 664 3351 14186 970 96608 15730 1282 297 1528 2775 1715 7749 470 3091 1306 8743 1408 9772 660 31619 1254 712 939 1606 661 806 2561 12570 1527 862 497 697 823 508 261 645 2591 3293 310 1111 621 1291 2755
internal_value=0 0.0469086 -0.071273 -0.0890255 0.0355494 0.315128 -0.0619067 -0.167314 -0.0135509 -0.308921 0.013161 -0.00175373 -0.295914 -0.0336948 -0.0548078 0.178414 0.0398628 0.0764086 -0.00783715 0.113773 0.0273638 -0.0342008 -0.138736 -0.0023224 -0.351744 -0.157653 0.173168 -0.0546841 -0.022102 -0.316491 -0.330939 0.158791 0.466352 0.0155442 0.564273 0.00255281 -0.122435 0.497932 -0.00094009 0.00641221 0.283467 0.0834086 0.496666 -0.35694 -0.504737 -0.510814 0.048189 0.199495 -0.844411 -0.359227 -0.237659 0.703187 0.77797 0.174553 -0.158903 -0.188137 -0.0639277 -0.314765 0.767962 0.523139 0.214221 0.277067 0.323957
internal_weight=0 42250.6 17823.7 17061.5 40616.1 762.19 15495 4830.04 10664.9 892.503 9772.44 9588.37 2922.22 603.193 7435.71 2152.66 40313.5 21664.8 6614.42 15050.4 1907.82 1684.59 1284.52 18648.7 1566.54 784.809 376.694 5703.6 5100.33 603.272 2807.02 10676.2 633.856 16715.8 561.483 4374.22 1689.95 244.268 15123.9 14814.7 400.066 2684.27 223.225 2706.5 302.585 209.933 2913.65 7762.51 289.31 309.258 211.273 447.8 184.068 1591.91 1932.85 1824.28 950.06 874.219 149.986 351.403 1456.13 910.812 1634.51
internal_count=597572 146702 450870 442700 137460 8170 265711 83810 181901 9692 172209 170132 60039 5112 142626 27506 135774 70885 24136 46749 23771 21858 17537 64889 176989 80381 26784 21937 18865 3072 59113 30520 5523 57129 3584 16229 6774 11054 52909 51387 4321 9455 1913 57398 1686 2593 10310 20210 4580 1522 1025 2278 2077 4220 7760 7499 3561 3938 974 1808 3712 2199 9242
is_linear=0
shrinkage=0.6


Tree=8
num_leaves=64
num_cat=0
split_feature=136 138 32 82 77 49 21 126 129 138 19 128 35 83 10 123 103 117 62 112 134 12 111 72 137 133 129 137 62 25 138 29 85 122 22 135 88 128 138 13 138 133 72 128 118 115 127 57 139 69 128 127 30 63 116 47 138 120 94 82 92 129 127
split_gain=262.817 225.364 194.199 226.865 210.446 192.789 258.585 219.236 312.834 230.466 196.025 229.382 183.141 175.707 168.281 151.001 134.849 134.359 106.824 98.1266 91.6462 91.683 80.374 73.3508 66.8657 100.081 150.897 103.671 63.6043 61.7138 68.2307 58.9432 60.1963 58.218 51.9276 48.3647 47.636 43.475 43.2607 84.1214 39.6489 36.8658 36.1714 33.6107 33.4901 35.5954 32.7564 29.6015 29.1542 28.7822 42.0039 27.1791 25.4862 21.3115 21.1229 18.645 17.7002 16.9101 16.5593 16.0746 15.299 15.1664 24.4635
threshold=0.8234020769596101 121.50000000000001 2.5000000000000004 25.998279571533207 18.425292968750004 0.020995500497519973 1.5000000000000002 73.500000000000014 4731.5000000000009 51.500000000000007 16.186940193176273 10.500000000000002 2.522727489471436 4.7943882942199716 14.500000000000002 -26.607345581054684 0.60494798421859752 -20.544945716857907 0.080178499221801772 -2.1316465139389034 4.5000000000000009 17.500000000000004 -2.5902504920959468 36.896757125854499 0.86935520172119152 1.0000000180025095e-35 57647.000000000007 0.69638898968696605 0.060080498456954963 16.500000000000004 18.500000000000004 5.5000000000000009 32.587060928344734 -5.8453409671783438 6.5000000000000009 4.2083332538604745 6.7342946529388437 12.500000000000002 22.500000000000004 5.5000000000000009 7.5000000000000009 1937.0000000000002 35.786808013916023 1.5000000000000002 -17.764898300170895 -5.4444019794464102 108.50000000000001 0.21103200316429141 87.500000000000014 0.00020450000010896477 1.0000000180025095e-35 8.5000000000000018 9.5000000000000018 0.08054050058126451 -17.189633369445797 0.78869047760963451 8.5000000000000018 -9.7986383438110334 35.548639297485359 12.176968574523928 5.6972904205322275 20098.500000000004 33.500000000000007
decision_type=2 2 2 2 2 2 2 2 2 2 2 2 2 2 2 2 2 2 2 2 2 2 2 2 2 2 2 2 2 2 2 2 2 2 2 2 2 2 2 2 2 2 2 2 2 2 2 2 2 2 2 2 2 2 2 2 2 2 2 2 2 2 2
left_child=1 2 4 15 5 6 10 9 16 13 14 -12 -11 -7 -1 34 -9 31 -10 -3 21 36 52 44 25 38 41 -28 58 30 57 32 49 37 -4 -30 -17 47 42 -40 -35 54 61 -22 -5 -46 -31 60 -26 50 56 -41 -6 -29 -27 -42 -2 -25 -8 -49 -33 62 -19
right_child=17 19 3 23 22 7 28 8 18 12 11 -13 -14 -15 -16 20 -18 24 -20 -21 43 -23 -24 29 48 26 27 53 35 46 -32 33 -34 40 -36 -37 -38 -39 39 51 55 -43 -44 -45 45 -47 -48 59 -50 -51 -52 -53 -54 -55 -56 -57 -58 -59 -60 -61 -62 -63 -64
leaf_value=-0.12333820679062578 -0.082632410064025649 -0.56628856721966014 -0.3142695842274465 -0.17166944204649182 -0.30353763973822312 -0.085048184708563165 0.33142057920345025 0.10322472657718944 0.044780352351534526 0.012708380530846344 -0.0061632759900677918 -0.41726763499212727 -0.31943902964436238 0.0091195117595312594 0.1361720329351144 0.49529933934261783 -0.17469608128432221 0.40148744150937932 0.42318547593170741 0 0.20170098540416412 -0.065910593850158128 -0.06513417139537829 0.018029309620392231 0 0 -0.85573249021106401 0.034772429452145086 -0.0025782283013338239 -0.12362791189033456 -0.59975159649119469 0.031613952808237783 -0.47274967061321255 0.14068200582918233 0.1274356698597735 0.52062903908381442 0.12724704853660815 0.33487810142677898 -0.38853314119727378 0.40007935080885298 -0.4308686897500667 -0.22007724629228292 -0.060192255794744812 -0.24412150713610734 0.39121447554336325 -0.0078287557843309315 0.35799982321680918 0.3796977510237764 0.35770122065233045 0.090450748872341322 0 0 -0.93259611737723569 -0.31704801825697138 0.20923410743566423 0 -0.59323677756370896 -0.2744580693643191 0.86274773892676992 0 -0.19651502513276478 0.20001306639271113 0.078823232686581785
leaf_weight=1023.7534513311693 80.26625510933809 360.07083331007743 174.26212253340054 80.585956139024347 85.238453483674675 12605.172990916064 93.276883379206993 1315.2346101759467 408.19564958009869 830.58816511637997 3367.8002438037656 567.45496423065197 1868.1804636290763 16206.416304036276 6149.6671587488381 1082.8114308214281 1172.3185683496995 506.44902208296116 1048.0296836862108 145.09955697786063 113.42256951215677 118.2789252193179 133.25025911210105 135.92418316239491 81.8378460847307 175.0870014129905 97.120577817317098 125.52184863842558 126.04904324945528 105.86883005767595 194.79639028606471 261.10979376756586 149.15541085472796 85.291864519123919 170.90528055198956 87.944765297230333 199.70146561437286 300.37449679116253 120.40004361560568 117.34477194212377 129.31746097654104 84.871557960752398 118.30237139808014 108.77796610153746 167.51338100910652 100.45818391023204 72.060818437486887 107.3819005676778 808.60754406813066 267.52613353333436 243.03246487281285 126.99344136333093 114.31583040533587 80.676433225977235 627.98614743817598 71.744567631743848 76.701981792226434 92.883366232737899 156.05310677026864 76.888410845887847 141.14608445728663 1667.9939703090349 161.65699671942275
leaf_count=7591 636 106191 2106 1019 943 67812 343 8385 3230 21346 32855 4586 108330 69897 84552 4018 9092 1414 4765 11138 798 1074 971 416 936 1042 715 768 935 959 3747 1283 1196 708 870 376 998 1113 592 203 710 618 533 914 613 775 289 389 5220 1201 1334 403 1930 682 2713 273 496 413 452 406 913 5510 836
internal_value=0 -0.00732278 -0.00316826 0.146638 -0.0125423 -0.00900881 0.0580412 -0.031056 0.101705 -0.0478704 0.0389706 -0.0677197 -0.215552 -0.031907 0.0982642 0.263144 -0.025765 0.117417 0.321826 -0.402232 0.340109 0.396584 -0.481252 -0.0893143 0.170789 0.134814 -0.00668141 -0.369282 0.493388 -0.218108 -0.342324 -0.0115239 -0.136683 0.0714521 -0.0829305 0.201979 0.443595 0.150205 0.196325 0 -0.151078 0.113901 0.224872 0 0.117778 0.227293 0.0513657 0.0425479 0.32352 -0.0477506 -0.153304 0.204137 -0.716974 -0.0862003 0.158111 -0.301231 -0.385066 -0.0846131 0.705241 0.239422 -0.0381599 0.241805 0.333692
internal_weight=0 50782.4 50277.2 2918.25 47358.9 47026.1 11572 35454.1 3943.78 31510.4 11108.7 3935.26 2698.77 28811.6 7173.42 1968.16 2487.55 6890.79 1456.23 505.17 1622.99 1400.79 332.805 950.091 4900.85 4010.4 1191.26 303.319 463.324 601.534 423.604 1989.94 816.682 1173.25 345.167 213.994 1282.51 886.901 2819.14 364.738 286.354 887.945 2454.4 222.201 348.558 267.972 177.93 586.526 890.445 667.527 400.001 244.338 199.554 206.198 803.073 201.062 156.968 228.808 249.33 184.27 402.256 2336.1 668.106
internal_count=597572 564729 447400 19009 428391 424547 131690 292857 25472 267385 129584 37441 129676 137709 92143 10778 17477 32843 7995 117329 7802 6090 3844 8231 22185 16029 6538 2165 2106 5824 4576 10658 4863 5795 2976 1311 5016 4104 9491 1198 1691 4373 8293 1712 2407 1388 1248 2991 6156 3667 2466 606 2873 1450 3755 983 1132 829 795 795 2196 7760 2250
is_linear=0
shrinkage=0.6


Tree=9
num_leaves=64
num_cat=0
split_feature=136 131 48 48 138 73 17 70 129 93 108 130 130 57 88 130 103 85 137 130 112 131 129 138 88 125 37 138 12 128 50 125 138 60 69 13 127 13 137 126 132 102 100 129 139 105 10 109 20 30 102 136 129 139 10 127 139 129 65 123 133 130 129
split_gain=238.913 184.524 167.186 225.258 200.537 196.701 230.734 248.754 228.006 174.641 158.866 410.334 194.305 330.635 557.342 247.876 192.183 191.044 188.099 175.269 156.07 155.884 155.717 148.699 148.502 133.433 128.608 121.797 113.528 105.743 105.579 104.397 159.634 128.284 100.605 100.064 95.0989 94.2231 91.6378 91.3411 87.2336 87.1892 77.7994 71.8755 69.5617 69.5185 113.41 69.4364 56.7434 51.713 51.4202 48.7629 45.6551 44.4078 43.7129 43.1744 37.8765 35.8623 35.098 33.7867 33.5887 31.7333 28.4523
threshold=-0.98250728845596302 182.50000000000003 0.17752099782228473 0.38675200939178472 11.500000000000002 9.6759700775146502 14.660054206848146 15.22568464279175 59482.000000000007 14.803671360015871 10.04987144470215 60708.500000000007 62142.500000000007 0.19756100326776507 6.113811969757081 60975.500000000007 0.83797448873519909 136.63053131103518 0.66715228557586681 47385.500000000007 -3.7931495904922481 17.500000000000004 38218.500000000007 56.500000000000007 8.4290475845336932 1.5000000000000002 1.2250000238418581 8.5000000000000018 5.5000000000000009 13.500000000000002 0.028196000494062904 2.5000000000000004 54.500000000000007 0.019481999799609188 5.9500000133994042e-05 6.5000000000000009 20.500000000000004 6.5000000000000009 0.25828123092651373 55.500000000000007 17.500000000000004 0.77649301290512096 0.99331200122833263 54420.500000000007 30.500000000000004 6.328907012939454 306.50000000000006 11.892197608947756 6.5000000000000009 66.500000000000014 0.95681649446487438 -1.0536763072013853 551.50000000000011 92.500000000000014 1307.5000000000002 7.5000000000000009 94.500000000000014 1929.5000000000002 5.9500000133994042e-05 -9.6313219070434553 1.0000000180025095e-35 14830.500000000002 4042.5000000000005
decision_type=2 2 2 2 2 2 2 2 2 2 2 2 2 2 2 2 2 2 2 2 2 2 2 2 2 2 2 2 2 2 2 2 2 2 2 2 2 2 2 2 2 2 2 2 2 2 2 2 2 2 2 2 2 2 2 2 2 2 2 2 2 2 2
left_child=23 2 10 4 48 8 20 -8 26 -10 12 19 15 14 17 18 54 -14 24 25 -7 37 27 34 -2 -12 -6 -18 55 -27 -20 32 -21 -33 38 61 -16 -17 -1 43 49 44 -41 -15 -40 52 -47 -42 57 51 -37 53 -46 -36 58 62 -3 -4 -13 -50 -59 -30 -5
right_child=1 56 3 28 5 6 7 -9 9 -11 11 16 13 39 36 21 22 -19 30 31 -22 -23 -24 -25 -26 29 -28 -29 35 -31 -32 33 -34 -35 40 50 -38 -39 41 42 47 -43 -44 -45 45 46 -48 -49 59 -51 -52 -53 -54 -55 -56 -57 -58 60 -60 -61 -62 -63 -64
leaf_value=-0.36964582158139098 -0.046355027205994062 -0.17902663678972974 -0.44248221739693527 -0.48375054961343567 0.057799022187216532 -0.50789720211285594 0.26275866302461937 -0.14610394827225054 -0.47866303128968296 0.31280727935959862 0.50747823366786393 0.15156468854794478 0.037577983216700667 0.46371177370447925 -0.32364470515445909 0.14350175802393567 0 0.58124940565224914 0.044041897976469541 0.30233894682722146 -0.14080322151690294 -0.87594420718667731 0.087491578450745899 -0.49720283738082 0.24524138920521343 0.073531269490527726 0.46717150316385142 -0.78154633309720534 0.69602334047824732 -0.38162589183392515 0.21312655475157419 -0.042183062736317868 0.8733728325257708 0.31264666324830936 -0.38801944988932935 0.26236934374339815 -1.2091282325710369 -0.34096140234786537 0.35813035024069811 0.25010090241104044 0.45958278049280854 -0.55744053194534227 -0.44321329566344281 0.040240794892935534 0 0.3935986480136397 -0.033014014112204511 -0.18252130424477706 0.015897120753806959 0 -0.17106425694406718 -0.13177799842554794 -0.5446683660933701 -0.98603161952968821 0.35633421380579339 0.15278606708396761 -0.93682769412854594 0.056326839679869879 -0.31166145180855021 0.1544782004435977 -0.26122410198235713 0.246808885670632 -0.0045115044752136405
leaf_weight=236.91945130855311 14715.407623202394 71.094650703947991 87.122878722148016 84.621864320826717 1017.763184245181 996.61218086842564 596.99920353037305 4177.9191843307926 393.99561409052694 117.18730992771452 236.39715305704158 101.16435430262936 2465.9795304629952 1196.0197251092759 109.14707135755452 190.59136647090781 105.02471462637186 251.19493996590609 10607.398671593866 1231.6844698907807 815.03643329133047 148.36409783354611 128.21856332063908 391.57632240717066 642.24435348904808 3082.9924831484677 392.87763769592857 356.83918261458166 247.69264883745927 182.76129960466642 1544.3469978824724 607.64214242756134 220.05627034662757 825.29353765910491 194.24248246010393 255.57390500081237 126.70467314863345 426.64516340018599 220.2590473825112 153.31757006933913 71.013281385065056 78.530281454790384 80.574073803669307 198.52972756611416 74.421305820345879 270.90888372878544 1030.3588120698696 226.74318489816505 1246.8978175760712 74.647489081136882 133.30951430439018 131.03400812647305 116.87003771727905 107.16487447475083 133.40041284268955 178.68319329724181 74.143342230003327 378.53881660662591 101.28521709656343 1521.0061793097993 156.11967727192678 152.03598810482072 130.8830807787017
leaf_count=7828 208626 534 461 871 8370 12656 3152 32809 3917 484 779 436 19022 5133 1295 1015 929 675 40834 3023 6985 2329 763 112652 8237 25817 1855 3965 595 1825 6076 5396 1335 5073 2948 1008 2401 6015 717 618 403 1084 696 1244 590 1908 11654 2964 5585 631 902 1135 1993 1760 511 826 1896 1530 790 7575 1167 526 743
internal_value=0 0.0161608 0.0181603 -0.040535 -0.0657514 -0.115089 -0.16451 -0.0934138 0.0514664 -0.284339 0.0374138 0.11748 0.019399 0.133889 0.0120171 0.000616284 -0.251579 0.0917659 0.0102344 0.172139 -0.34739 -0.333692 -0.456812 -0.151699 -0.0336577 0.0794129 0.1781 -0.618013 0.207021 0.0453236 0.0661322 0.282184 0.397974 0.159188 -0.100465 0.337981 -0.851142 -0.182856 -0.0258403 0.350174 -0.279274 0.0184324 0 0.407986 0.0510522 6.04769e-05 0.054008 -0.0018793 0.0564769 -0.428528 0.0996866 -0.506651 -0.324545 -0.642818 0.0961797 -0.0434966 -0.636094 -0.102068 -0.0585302 0.0942754 -0.0295769 0.548539 -0.229747
internal_weight=0 53395.3 53250.1 13080.9 11898.1 8508.39 6586.57 4774.92 1921.82 511.183 40169.2 7312.76 32856.5 4581.47 2953.03 28275 925.932 2717.17 27509.4 6386.83 1811.65 765.601 590.082 3224.69 15357.7 3502.15 1410.64 461.864 1182.8 3265.75 12151.7 2884.68 1451.74 1432.94 2833.11 788.612 235.852 617.237 2028.27 1628.44 804.845 1791.35 233.892 1394.55 1712.82 1492.56 1301.27 297.756 3389.69 507.089 388.883 432.441 191.291 301.407 335.85 394.188 145.238 621.781 202.45 2767.9 534.658 399.729 215.505
internal_count=597572 449305 446875 92017 86546 70228 55602 35961 14626 4401 354858 50642 304216 31084 23393 273132 7394 19697 263773 43248 19641 9359 5657 148267 216863 28421 10225 4894 5471 27642 46910 14827 4358 10469 35615 3031 3696 7030 25774 7691 9841 17946 1314 6377 16862 16145 13562 3367 16318 6474 1910 5843 2583 4708 1737 2440 2430 3158 1226 13160 2697 1121 1614
is_linear=0
shrinkage=0.6


end of trees

feature_importances:
Column_138=73
Column_136=44
Column_137=30
Column_139=30
Column_130=26
Column_129=24
Column_127=19
Column_10=16
Column_126=16
Column_131=16
Column_13=15
Column_125=12
Column_128=11
Column_132=10
Column_12=9
Column_133=9
Column_48=8
Column_107=8
Column_11=7
Column_49=7
Column_14=6
Column_57=6
Column_72=6
Column_105=6
Column_117=6
Column_20=5
Column_45=5
Column_92=5
Column_123=5
Column_135=5
Column_24=4
Column_25=4
Column_47=4
Column_50=4
Column_67=4
Column_69=4
Column_90=4
Column_102=4
Column_108=4
Column_109=4
Column_115=4
Column_15=3
Column_18=3
Column_19=3
Column_29=3
Column_35=3
Column_59=3
Column_60=3
Column_63=3
Column_64=3
Column_70=3
Column_73=3
Column_74=3
Column_79=3
Column_85=3
Column_87=3
Column_88=3
Column_93=3
Column_103=3
Column_112=3
Column_114=3
Column_119=3
Column_121=3
Column_134=3
Column_2=2
Column_16=2
Column_17=2
Column_30=2
Column_34=2
Column_37=2
Column_54=2
Column_62=2
Column_82=2
Column_94=2
Column_100=2
Column_104=2
Column_110=2
Column_111=2
Column_118=2
Column_120=2
Column_122=2
Column_124=2
Column_0=1
Column_4=1
Column_5=1
Column_7=1
Column_9=1
Column_21=1
Column_22=1
Column_27=1
Column_32=1
Column_39=1
Column_43=1
Column_55=1
Column_65=1
Column_66=1
Column_75=1
Column_77=1
Column_78=1
Column_83=1
Column_101=1
Column_116=1

parameters:
[boosting: gbdt]
[objective: binary]
[metric: binary_logloss]
[tree_learner: serial]
[device_type: cpu]
[data: ]
[valid: ]
[num_iterations: 10]
[learning_rate: 0.6]
[num_leaves: 64]
[num_threads: 0]
[deterministic: 0]
[force_col_wise: 0]
[force_row_wise: 0]
[histogram_pool_size: -1]
[max_depth: 8]
[min_data_in_leaf: 290]
[min_sum_hessian_in_leaf: 71]
[bagging_fraction: 1]
[pos_bagging_fraction: 1]
[neg_bagging_fraction: 1]
[bagging_freq: 0]
[bagging_seed: 3]
[feature_fraction: 1]
[feature_fraction_bynode: 1]
[feature_fraction_seed: 2]
[extra_trees: 0]
[extra_seed: 6]
[early_stopping_round: 5]
[first_metric_only: 0]
[max_delta_step: 0]
[lambda_l1: 9]
[lambda_l2: 10]
[linear_lambda: 0]
[min_gain_to_split: 4.4]
[drop_rate: 0.1]
[max_drop: 50]
[skip_drop: 0.5]
[xgboost_dart_mode: 0]
[uniform_drop: 0]
[drop_seed: 4]
[top_rate: 0.2]
[other_rate: 0.1]
[min_data_per_group: 100]
[max_cat_threshold: 32]
[cat_l2: 10]
[cat_smooth: 10]
[max_cat_to_onehot: 4]
[top_k: 20]
[monotone_constraints: ]
[monotone_constraints_method: basic]
[monotone_penalty: 0]
[feature_contri: ]
[forcedsplits_filename: ]
[refit_decay_rate: 0.9]
[cegb_tradeoff: 1]
[cegb_penalty_split: 0]
[cegb_penalty_feature_lazy: ]
[cegb_penalty_feature_coupled: ]
[path_smooth: 0]
[interaction_constraints: ]
[verbosity: -1]
[saved_feature_importance_type: 0]
[linear_tree: 0]
[max_bin: 255]
[max_bin_by_feature: ]
[min_data_in_bin: 3]
[bin_construct_sample_cnt: 200000]
[data_random_seed: 1]
[is_enable_sparse: 1]
[enable_bundle: 1]
[use_missing: 1]
[zero_as_missing: 0]
[feature_pre_filter: 0]
[pre_partition: 0]
[two_round: 0]
[header: 0]
[label_column: ]
[weight_column: ]
[group_column: ]
[ignore_column: ]
[categorical_feature: ]
[forcedbins_filename: ]
[precise_float_parser: 0]
[objective_seed: 5]
[num_class: 1]
[is_unbalance: 0]
[scale_pos_weight: 1]
[sigmoid: 1]
[boost_from_average: 1]
[reg_sqrt: 0]
[alpha: 0.9]
[fair_c: 1]
[poisson_max_delta_step: 0.7]
[tweedie_variance_power: 1.5]
[lambdarank_truncation_level: 30]
[lambdarank_norm: 1]
[label_gain: ]
[eval_at: 10]
[multi_error_top_k: 1]
[auc_mu_weights: ]
[num_machines: 1]
[local_listen_port: 12400]
[time_out: 120]
[machine_list_filename: ]
[machines: ]
[gpu_platform_id: -1]
[gpu_device_id: -1]
[gpu_use_dp: 0]
[num_gpu: 1]

end of parameters

pandas_categorical:null
