tree
version=v3
num_class=1
num_tree_per_iteration=1
label_index=0
max_feature_idx=139
objective=binary sigmoid:1
feature_names=Column_0 Column_1 Column_2 Column_3 Column_4 Column_5 Column_6 Column_7 Column_8 Column_9 Column_10 Column_11 Column_12 Column_13 Column_14 Column_15 Column_16 Column_17 Column_18 Column_19 Column_20 Column_21 Column_22 Column_23 Column_24 Column_25 Column_26 Column_27 Column_28 Column_29 Column_30 Column_31 Column_32 Column_33 Column_34 Column_35 Column_36 Column_37 Column_38 Column_39 Column_40 Column_41 Column_42 Column_43 Column_44 Column_45 Column_46 Column_47 Column_48 Column_49 Column_50 Column_51 Column_52 Column_53 Column_54 Column_55 Column_56 Column_57 Column_58 Column_59 Column_60 Column_61 Column_62 Column_63 Column_64 Column_65 Column_66 Column_67 Column_68 Column_69 Column_70 Column_71 Column_72 Column_73 Column_74 Column_75 Column_76 Column_77 Column_78 Column_79 Column_80 Column_81 Column_82 Column_83 Column_84 Column_85 Column_86 Column_87 Column_88 Column_89 Column_90 Column_91 Column_92 Column_93 Column_94 Column_95 Column_96 Column_97 Column_98 Column_99 Column_100 Column_101 Column_102 Column_103 Column_104 Column_105 Column_106 Column_107 Column_108 Column_109 Column_110 Column_111 Column_112 Column_113 Column_114 Column_115 Column_116 Column_117 Column_118 Column_119 Column_120 Column_121 Column_122 Column_123 Column_124 Column_125 Column_126 Column_127 Column_128 Column_129 Column_130 Column_131 Column_132 Column_133 Column_134 Column_135 Column_136 Column_137 Column_138 Column_139
feature_infos=[0:16] [0:6] [0:8] [0:8] [0:16] [0:1] [0:1] [0:1] [0:1] [0:1] [0:12923] [0:3233] [0:12917] [2:132] [3:25845] [-1.9397770166397095:98.653861999511719] [3.7259809970855713:159.86013793945312] [2.7613649368286133:152.07829284667969] [0.79833799600601196:166.13566589355469] [-1.9448369741439819:98.624855041503906] [0:2726] [0:110] [0:563] [0:10] [0:2730] [0:1083] [0:30] [0:49] [0:5] [0:1083] [0:1627] [0:64] [0:475] [0:6] [0:1629] [0:1083] [0:30] [0:140.75] [0:5] [0:1083] [0:661782.25] [0:638.75] [0:37744.1875] [0:9] [0:663410.25] [0:2] [0:2] [0:2] [0:1] [0:0.80995500087738037] [0:1] [0:1] [0:1] [0:0.57142901420593262] [0:0.60000002384185791] [0:1] [0:1] [0:1] [0:0.57142901420593262] [0:0.60000002384185791] [0:1] [0:1] [0:1] [0:0.57142901420593262] [0:0.60000002384185791] [0:0.25] [0:0.25] [0:0.25] [0:0.0625] [0:0.0625] [-502.57244873046875:16527.740234375] [0:955.788818359375] [0:4664.697265625] [0:77.544601440429688] [-503.66119384765625:16532.033203125] [-567.93853759765625:4774.43798828125] [0:223.21076965332031] [0:538.6591796875] [0:64.091140747070312] [-569.168701171875:4789.7236328125] [0:11113.951171875] [0:615.50018310546875] [0:3829.640380859375] [0:68.338874816894531] [0:11124.8037109375] [-281.26773071289062:5556.9755859375] [0:238.94720458984375] [0:1200.550537109375] [0:64.091140747070312] [-287.8358154296875:5562.40185546875] [0:30879978] [0:56952.48828125] [0:2417518.5] [0:1167.55029296875] [0:30940314] [0:1] [0:1] [0:1] [0:1] [0:1] [0:1] [0:1] [0:1] [0:1] [0:1] [-11.413535118103027:190.64485168457031] [0:60.223415374755859] [0:72.414131164550781] [0:49.223228454589844] [-11.416239738464355:191.38079833984375] [-194.15585327148438:0] [-118.54830169677734:0] [-158.66993713378906:0] [-132.80621337890625:0] [-194.16043090820312:0] [-187.41470336914062:0] [-111.64816284179688:0] [-156.41024780273438:0] [-130.16769409179688:0] [-187.39202880859375:0] [-205.81387329101562:0] [-137.58628845214844:0.70563399791717529] [-179.10939025878906:0] [-155.76138305664062:0] [-205.75247192382812:0] [1:31] [5:1383] [0:226244464] [0:170] [100:65534] [1:65535] [1:254] [1:254] [0:4344779] [0:2348975] [0:570000000] [-4.5702376365661621:4.7759213447570801] [0:1] [0:676] [1:679]
tree_sizes=6897 7064 7065 7033 6945 7101 5233 6397 5879 4022

Tree=0
num_leaves=64
num_cat=0
split_feature=138 136 136 138 136 136 39 130 5 125 139 129 129 126 126 126 139 136 130 136 14 139 89 138 137 102 14 74 136 93 75 74 74 129 136 117 138 50 136 7 20 109 130 128 138 136 115 139 45 113 136 126 136 14 138 14 139 123 138 57 137 52 15
split_gain=333051 114800 25717 19082 17629.6 10966.7 9228.08 8190.26 8107.59 5086.86 3364.2 3223.82 3091.69 2391.25 2386.78 2242.32 2192.6 2138.92 2074.06 1997.31 1889.14 1846.09 1789.74 1625.51 1607.68 1566.95 1507.41 1385.3 1374.13 1354.68 1346.92 1288 1254.94 1244.91 1147.75 1185.16 1110.78 1099.85 1134.6 1092.55 1067.64 993.051 986.65 970.782 951.72 941.717 1102.44 929.21 890.685 1051.69 856.826 843.684 842.325 841.161 823.129 802.793 790.02 778.871 734.7 734.188 716.337 882.201 649.085
threshold=24.500000000000004 -0.79074624180793751 -0.15609256923198697 12.500000000000002 -1.7564000487327573 -0.38637001812458033 4.6904764175415048 28951.500000000004 0.52272748947143566 2.5000000000000004 57.500000000000007 64756.500000000007 15104.500000000002 29.500000000000004 33.500000000000007 37.500000000000007 126.50000000000001 -0.12953031808137891 36278.500000000007 -0.47987630963325495 270.50000000000006 104.50000000000001 7.103527545928956 168.50000000000003 0.24016979336738589 0.94874149560928356 526.50000000000011 130.88853454589847 0.2353470325469971 11.301541805267336 16.183722496032718 66.295280456542983 75.624526977539077 16168.500000000002 -1.4710596203804014 -7.6034736633300772 66.500000000000014 0.0023709998931735758 -1.1157571673393247 0.56349250674247753 15.500000000000002 15.080107212066652 31263.500000000004 6.5000000000000009 8.5000000000000018 -0.42002692818641657 -8.1486344337463361 64.500000000000014 0.022099999710917476 -4.2945849895477286 -2.1174987554550166 20.500000000000004 0.27564442157745367 260.50000000000006 16.500000000000004 229.50000000000003 80.500000000000014 -17.663712501525875 73.500000000000014 0.37617899477481848 0.3093437552452088 0.24621199816465381 6.7430145740509042
decision_type=2 2 2 2 2 2 2 2 2 2 2 2 2 2 2 2 2 2 2 2 2 2 2 2 2 2 2 2 2 2 2 2 2 2 2 2 2 2 2 2 2 2 2 2 2 2 2 2 2 2 2 2 2 2 2 2 2 2 2 2 2 2 2
left_child=3 4 6 17 11 10 25 13 21 28 -5 20 32 39 30 22 56 47 43 29 -2 33 -10 48 26 45 -17 -21 31 -20 42 -9 -11 55 -24 -36 -15 38 -26 -4 -14 -32 51 59 -19 46 -3 -1 49 -23 -22 -8 -34 -39 -12 -6 -7 -56 -41 -16 -27 -62 -25
right_child=1 2 7 5 8 16 14 9 15 12 54 -13 40 36 18 24 -18 44 19 27 50 23 34 62 37 60 -28 -29 -30 -31 41 -33 52 -35 35 -37 -38 53 -40 58 -42 -43 -44 -45 -46 -47 -48 -49 -50 -51 -52 -53 -54 -55 57 -57 -58 -59 -60 -61 61 -63 -64
leaf_value=1.646177899744089 0.19086420623818134 1.3558073438740603 1.5761742038733901 0.13002453439305084 0.4701288845770577 1.3377880249172789 1.2864246068182741 1.6584420279980641 0.92624447114430841 1.3447891908028597 1.4676025134885329 0.89540644315984763 1.6374845889300627 1.0202181887206145 0.26834978016932087 0.7236264706009583 1.8498116757667793 2.0693589793139671 0.31896136956997534 1.0945989724697149 -0.69774515464715048 1.2702940074531006 -0.17422964016547837 0.060487575543616945 -0.060859928479034764 1.2641095840488408 -0.084429829952441082 0.49779844816763341 1.7847962935948354 0.98692416641664615 0.33971777133838743 1.2520636182934262 0.74080477953944379 0.86228574551189685 0.51220574591735502 -0.1950142699187043 0.51082487937364252 0.11916237780417394 0.53157115474975147 1.2917426517477311 1.3451464036600509 0.9180274726584875 1.3751755885906929 0.86100777424364072 1.9674062219224304 1.4590981887471495 0.98869547872870345 1.9320572742859545 0.58498147406619627 0.8336842236244314 -0.33278772151888614 0.68968333187214403 1.1931875219657897 -0.38262340715424403 0.6931404662798557 -0.37540497427751518 1.6558209590215525 1.2862990006098522 0.86547424920641847 0.83127751784425641 0.52425515525043243 1.1130076578503121 0.7310823837199466
leaf_weight=2513.2506689950824 659.14013606309891 3262.9956511929631 1730.9534420073032 630.52787058055401 366.037303827703 1505.5589716434479 650.1918064430356 5141.0104750692844 993.57328186184168 2491.1423663571477 919.97704351693392 304.95744255930185 5483.6818900108337 2931.090463295579 2777.3521237894893 1036.537098377943 16032.566721275449 101485.29766575992 1657.5939916446805 3292.5463280305266 2601.0691380575299 2132.0761299803853 635.8153377994895 424.51753402501345 1328.0962501242757 843.70712039619684 585.73351325839758 772.19029749184847 12086.582608349621 700.31836958229542 641.66023974120617 1645.5190974771976 1438.9509918615222 488.54703052341938 2919.5853040888906 444.16855911910534 903.76896130293608 841.63651809841394 883.91335664689541 2686.2472086027265 3140.1554812416434 1918.2790300622582 1682.1844111084938 732.32331826537848 17238.193303719163 4255.1021782383323 2200.4060566499829 6643.6292916163802 672.04850306361914 1521.9504161924124 1908.950440838933 931.65199123322964 1238.3792221024632 1699.7983393669128 733.44571239501238 382.47260792553425 7312.6402167528868 698.2040423899889 858.98912022262812 443.64790497720242 851.54167722165585 800.06830573827028 543.52110121399164
leaf_count=6298 5868 11458 4345 5550 2707 5318 2524 10922 5524 8872 2877 1735 12097 14735 23679 6559 20792 37419 13746 15529 34126 8377 6740 4157 13535 3300 5860 5731 18739 3657 5391 6549 9059 2769 21619 4768 6737 7766 6523 10267 11170 10585 5807 4270 14309 12975 11594 6631 4821 9120 21702 6185 5230 19687 4941 4332 16057 2727 5034 2638 6239 3720 3574
internal_value=1.61647 1.02001 1.27572 1.97486 0.252231 1.67469 0.982142 1.47543 0.444612 1.569 0.950103 -0.37625 1.38435 1.1401 0.784172 0.240427 1.7617 2.04019 0.668938 0.809986 -0.450917 0.800368 0.442657 0.903841 0.0824551 1.24484 0.430213 0.9807 1.70391 0.516555 0.989775 1.55996 1.13974 0.359434 0.322988 0.417892 0.899621 -0.0356931 0.174713 1.31517 1.53109 0.772172 1.16095 0.440337 2.05457 1.31766 1.2077 1.85369 1.00939 1.08801 -0.544083 0.934001 0.949452 -0.217648 1.17105 0.034207 1.60157 0.981312 1.188 0.345287 0.96188 0.808353 0.434439
internal_weight=0 93564.4 70190.2 155713 23374.1 27832.9 28413.8 41776.5 17900 32665.4 2982.15 5474.12 13792.3 9111.05 16199.9 11368.9 24850.8 127880 10376 6422.65 5169.16 6531.17 4993.14 5294.11 6375.72 12213.8 1622.27 4064.74 18873.1 2357.91 5823.97 6786.53 5168.47 1237.06 3999.57 3363.75 3834.86 4753.44 2212.01 5276.19 8623.84 2559.94 3264.03 3953.32 118723 9718.5 5463.4 9156.88 4326.08 3654.03 4510.02 1581.84 2677.33 2541.43 2351.63 748.51 8818.2 1431.65 3545.24 3221 2495.32 1651.61 968.039
internal_count=597572 474653 272784 122919 201869 58262 149028 123756 138438 82638 16095 63431 46428 41118 99742 98581 42167 64657 69250 38663 61696 39857 38651 30049 59930 49286 12419 21260 36210 17403 30492 17471 23161 9808 33127 26387 21472 47511 20058 19646 23267 15976 14516 30587 51728 36027 23052 12929 22318 17497 55828 8709 14289 27453 10545 7039 21375 7668 15301 26317 13259 9959 7731
shrinkage=1


Tree=1
num_leaves=64
num_cat=0
split_feature=138 136 136 138 20 136 12 136 17 139 107 39 130 139 125 105 139 136 101 0 130 137 14 24 122 117 11 44 122 116 126 138 139 126 131 105 122 127 105 136 127 130 39 139 139 84 130 125 139 138 136 54 92 75 139 126 104 127 138 54 138 138 136
split_gain=106472 14518.8 4506.67 3865.42 3282.28 3253.32 2284.93 1870.37 1762.9 1434.63 1347.73 1301.34 1526.69 1250.52 1208.03 1195.28 1151.42 948.154 943.338 695.515 689.258 680.002 867.958 810.843 705.596 629.945 626.846 624.326 603.559 596.764 580.91 577.284 565.029 533.441 527.302 642.35 512.827 492.994 468.021 450.279 437.454 407.824 404.047 393.097 375.726 352.05 332.225 307.347 298.562 446.44 295.998 241.731 375.851 240.111 231.387 239.106 181.863 180.246 173.096 165.013 153.548 146.751 129.91
threshold=15.500000000000002 -0.29382920265197748 0.59272456169128429 8.5000000000000018 13.500000000000002 -1.1577096581459043 2.5000000000000004 -0.038653612136840813 7.6339385509490976 368.00000000000006 15.468227863311769 6.3484845161437997 29264.500000000004 92.500000000000014 2.5000000000000004 29.338530540466312 248.50000000000003 0.36254109442234045 0.39491449296474462 2.5000000000000004 48705.500000000007 0.29465980827808386 893.50000000000011 42.500000000000007 -11.632643699645994 -17.149110794067379 1.0000000180025095e-35 28.436110496521 -3.0494529008865352 -7.2103154659271231 41.500000000000007 75.500000000000014 91.500000000000014 17.500000000000004 100.50000000000001 22.213856697082523 -1.5969675183296201 1.0000000180025095e-35 28.634025573730472 0.12742714583873752 1.5000000000000002 49057.500000000007 1.5192310214042666 67.500000000000014 102.50000000000001 11.909831523895265 35977.000000000007 2.5000000000000004 164.50000000000003 42.500000000000007 -0.64164596796035755 0.05687649920582772 1.0695185065269472 6.0518295764923105 66.500000000000014 30.500000000000004 0.91806200146675121 16.500000000000004 83.500000000000014 0.053362000733613975 11.500000000000002 5.5000000000000009 -1.3188065886497495
decision_type=2 2 2 2 2 2 2 2 2 2 2 2 2 2 2 2 2 2 2 2 2 2 2 2 2 2 2 2 2 2 2 2 2 2 2 2 2 2 2 2 2 2 2 2 2 2 2 2 2 2 2 2 2 2 2 2 2 2 2 2 2 2 2
left_child=3 5 4 17 8 13 33 32 29 11 18 12 37 54 -14 20 19 43 27 26 59 22 24 42 25 -15 -10 39 -24 -3 -17 -25 50 -7 35 -13 46 -8 51 -6 -26 -20 58 -1 -9 -44 56 -48 49 -40 -5 52 -12 -29 -2 -56 -35 -22 -23 -4 -46 -19 -57
right_child=1 2 15 7 10 6 9 44 16 -11 38 34 14 21 -16 30 -18 61 41 -21 57 23 28 31 40 -27 -28 53 -30 -31 -32 -33 -34 36 -36 -37 -38 -39 48 -41 -42 -43 45 -45 60 -47 47 -49 -50 -51 -52 -53 -54 -55 55 62 -58 -59 -60 -61 -62 -63 -64
leaf_value=0.17327698151531823 -0.68378975782753049 -0.18545481934850327 0.0043985551102444049 -0.32678269340786975 -0.24689544898677501 0.199162733238405 -0.25595160571586978 0.15876603431431691 0.030751959630236903 -0.80468296726427657 -0.43390017974596201 -0.3010350579490399 0.013654014867157369 -0.2760136092268759 -0.22557041765606134 0.04963033660261832 0.1830828080382193 0.43028267031018813 -0.5437302032814556 -0.27906143154450108 0.29337263532755464 -0.57934308633543319 -0.56260725148344726 0.038533826631223289 -0.2918429717180191 -0.0036989983944710975 -0.15278008081846084 0.12275328716798187 -0.12934244568943204 -0.58619387843566251 -0.29200568610923466 -0.45614007855173616 0.12280173821760661 -0.062643761504674045 -0.031434436182683566 -0.46117497227837706 -0.30684931313003805 -0.48103766952396187 -0.36074814299185198 -0.030375151188832019 -0.66225723713729157 -0.21403484162432576 -0.21168660069238177 0.34050618722757969 0.33488205079993416 -0.52696449854891303 0.19214230948510169 -0.056383370679663126 -0.21078072621704039 -0.66497934252527791 -0.025610817405667782 -0.058787042017963621 -0.21383319719378627 -0.073766018322000179 -0.32828491439930707 -0.61007567797722029 -0.27899466125395728 0.17895901399542646 -0.91251649808955926 0.1609211050517467 0.25620585748565772 0.38238947624529279 -0.38007724761365397
leaf_weight=3029.5335799269378 2201.5324043855071 1714.0112376026809 3124.9047964178026 993.11526999250054 3544.9855237193406 1154.5828068628907 3245.1199102960527 3899.5991898812354 15809.358572013676 822.85430894047022 1802.8575881533325 10052.610519319773 5715.5372906178236 3074.5189316496253 8235.0987175628543 2028.1999484077096 5357.2152092456818 53405.73873225227 1004.0050265230238 1587.310417547822 5405.6608094647527 503.6624788120389 2656.4321672618389 771.85104784369469 1492.0233852267265 2445.0907353460789 3666.7351286932826 2563.4116100743413 644.78936675935984 917.58790475875139 1306.5875164829195 732.40013171732426 2162.7609357312322 1620.1666518040001 797.44527612999082 6739.9053116701543 1442.2308525554836 3042.4818581975996 2051.4559662751853 2727.3408513851464 787.79285341501236 1526.6250422261655 673.36266915500164 9022.3741718791425 8535.7074765488505 3977.1241188049316 1330.5149752758443 1971.9578620754182 862.50399758666754 1263.3796341866255 1111.6860154643655 910.82259770855308 4092.9639997333288 1619.2205281592906 850.50681708008051 2486.2935637012124 1020.3366125226021 3813.0987382233143 562.86862399429083 1651.6556422077119 7733.8048347309232 13237.079344619066 499.78299825638533
leaf_count=5810 15944 5721 7333 4235 13363 1939 12970 6936 35460 5810 8246 44911 15015 15324 31933 4366 8233 22304 5204 5898 5190 3210 19772 2881 6834 7904 11349 5053 2588 4894 4884 4619 4000 4923 2558 34955 6085 15629 8466 6915 5022 5292 3209 7672 7122 25771 2541 5954 3188 7114 3031 2596 14514 4729 4551 17799 4196 5646 4404 2616 9114 9147 2680
internal_value=0 -0.175149 -0.046103 0.358918 -0.10399 -0.30202 -0.24069 0.219864 -0.0135625 -0.282066 -0.213554 -0.270649 -0.201374 -0.420779 -0.127518 0.130954 0.0175156 0.402084 -0.126208 -0.0245696 0.182246 -0.368586 -0.306163 -0.464367 -0.233142 -0.155545 -0.00377288 -0.073056 -0.478291 -0.325696 -0.084075 -0.202038 -0.0205518 -0.0533246 -0.35029 -0.365385 -0.0929256 -0.365065 -0.316722 -0.15289 -0.420484 -0.345351 -0.533198 0.298554 0.270767 -0.481546 -0.0408298 0.0435648 -0.422412 -0.477148 -0.168178 -0.25168 -0.281336 0.0465035 -0.578911 -0.518313 -0.146622 0.246161 -0.756817 0.0587035 0.297552 0.420789 -0.572018
internal_weight=0 141903 70351.9 103131 53021.8 71550.9 47190.8 24436.7 29052.2 38651.1 23969.6 37828.2 20238.2 24360 13950.6 17330.1 26420.6 78694.7 12985.6 21063.4 13995.3 18321.9 11100.6 7221.27 7799.43 5519.61 19476.1 10455 3301.22 2631.6 3334.79 1504.25 4267.56 8539.79 17590 16792.5 7385.21 6287.6 10984 6272.33 2279.82 2530.63 5717.02 12051.9 20169.1 4650.49 5942.98 3302.47 4177.34 3314.84 2104.8 6806.64 5895.82 4182.63 6038.12 3836.58 2640.5 9218.76 1066.53 4776.56 16269.5 66642.8 2986.08
internal_count=597572 518201 186270 79371 156235 331931 189419 34438 71555 163781 84680 157971 75547 142512 46948 30035 60940 44933 40556 52707 20785 101538 57444 44094 35084 23228 46809 30060 22360 10615 9250 7500 11266 25638 82424 79866 23699 28599 44124 20278 11856 10496 36594 13482 23172 28980 17614 8495 18768 15580 7266 25356 22760 9782 40974 25030 9119 10836 7614 9949 16236 31451 20479
shrinkage=0.4


Tree=2
num_leaves=64
num_cat=0
split_feature=138 136 136 138 130 25 139 126 130 10 25 136 55 130 102 116 137 136 127 130 131 138 130 130 138 131 137 136 136 24 137 107 17 136 126 138 138 135 139 4 101 130 138 139 136 70 138 117 19 40 139 12 78 112 118 121 139 18 136 138 138 126 138
split_gain=54305.7 7313.1 2667.5 2569.16 1310.72 1112.2 1070.75 993.77 1079.28 938.142 926.38 866.689 777.494 760.466 780.126 745.787 680.604 622.459 588.175 571.012 644.712 567.305 629.113 620.092 554.832 650.737 523.265 504.386 476.394 465.169 421.558 413.885 402.107 398.084 395.745 381.556 371.216 792.223 540.493 364.78 362.08 345.607 343.242 296.455 287.282 286.239 276.434 270.506 258.54 222.715 217.307 202.405 177.165 172.336 166.427 176.431 145.915 140.19 114.835 103.237 95.7493 59.2485 56.3742
threshold=13.500000000000002 0.09373293444514276 -1.4710596203804014 7.5000000000000009 34600.500000000007 1.5000000000000002 80.500000000000014 41.500000000000007 41156.500000000007 428.50000000000006 1.5000000000000002 0.49417698383331304 0.013930500019341709 65532.500000000007 0.87052351236343395 -34.619789123535149 0.40118727087974554 -2.3127658367156978 1.0000000180025095e-35 36278.500000000007 18.500000000000004 66.500000000000014 18400.500000000004 61160.500000000007 36.500000000000007 66.500000000000014 0.66882857680320751 0.96773988008499157 0.75659707188606273 16.500000000000004 0.56439545750617992 15.077637672424318 22.555472373962406 -1.0620175600051878 34.500000000000007 108.50000000000001 62.500000000000007 14.839721202850344 128.50000000000003 2.5000000000000004 0.55437001585960399 32287.500000000004 39.500000000000007 67.500000000000014 0.83735555410385143 255.81228637695315 17.500000000000004 -20.901107788085934 7.2215864658355722 5.5694444179534921 60.500000000000007 7.5000000000000009 5.960102081298829 -10.060750007629393 -19.336919784545895 -23.028121948242184 105.50000000000001 8.6530675888061541 1.4161862730979922 9.5000000000000018 57.500000000000007 57.500000000000007 10.500000000000002
decision_type=2 2 2 2 2 2 2 2 2 2 2 2 2 2 2 2 2 2 2 2 2 2 2 2 2 2 2 2 2 2 2 2 2 2 2 2 2 2 2 2 2 2 2 2 2 2 2 2 2 2 2 2 2 2 2 2 2 2 2 2 2 2 2
left_child=3 2 17 11 10 7 50 8 24 27 -3 43 32 16 -15 -14 19 -2 35 33 -21 30 54 34 56 -26 -20 39 31 -16 60 52 48 -7 -24 -18 38 -38 -10 51 45 -17 -34 -1 59 46 -12 -48 -9 -33 -5 57 -11 -41 55 -23 -4 -6 -13 -8 61 -19 -46
right_child=1 4 5 6 9 13 44 12 36 28 40 58 15 14 29 41 18 21 26 20 -22 22 23 -25 25 -27 -28 -29 -30 -31 -32 49 42 -35 -36 -37 37 -39 -40 53 -42 -43 -44 -45 62 -47 47 -49 -50 -51 -52 -53 -54 -55 -56 -57 -58 -59 -60 -61 -62 -63 -64
leaf_value=0.15109620452096534 -0.48453829468003246 0.1178150572179987 -0.0369374327621564 -0.14702880971117491 0.00068582578726907397 -0.39493387176139128 0.25018537965965187 -0.34083828313605929 -0.012535823039501365 0.076379918242494599 0.051312332102779856 0.37117218064608948 -0.40049316099959875 -0.099721856352688307 -0.79806897636107677 -0.17189802545171515 -0.088344584957191913 -0.60801595697642841 -0.28695778438646902 -0.096589079406470837 0.13209950630705417 -0.48196189422670432 0.020247313645064317 -0.49857892743652732 -0.20550005509855127 0.026385319077384752 -0.041807787312530202 0.25688033447035696 0.11285593843721659 -0.33601546301275959 -0.13185533814655001 -0.33841907130520321 -0.17464726970063874 -0.15022083975354478 -0.19607838792284252 -0.34341169764925955 0.062249507648272584 -0.29222368643120678 0.25945237154604733 -0.14251246299670772 -0.31529142098747032 0.0036276418344444259 -0.53700767091831059 0.30855428387102607 0.32053754508054588 0.079133541074232552 -0.31217593700641544 -0.11337577249648485 -0.14453135394297281 -0.1067888775209128 0.075131193893015355 0.19829498069769469 -0.088153676307223899 0.064971404532308943 -0.55714883943835469 -0.14800370960472284 0.14414190633180798 0.11755608953363945 0.41476720359246971 0.1550140296595901 -0.36545124533623852 -0.42379190742698347 0.25189099735417342
leaf_weight=2615.6569651030004 2768.7261291816831 3307.7646060362458 1477.386915564537 1251.0757351629436 2037.3953711427748 1210.3627946451306 2871.5661822594702 1474.8130697272718 2011.3083586469293 2523.0903026238084 1177.1087238825858 16102.391516175121 1046.6542870029807 896.56833898276091 738.24938416481018 2458.8612933829427 7029.3896484673023 1197.1397326216102 12128.939930178225 10081.244396604598 2448.6017950735986 509.85994426161051 2125.4970043152571 772.51728823781013 7971.8964344449341 2550.037402074784 1582.3380593247712 4125.6366638913751 3250.574144102633 680.09171514213085 611.11066487431526 1011.4245110452175 648.02829943597317 9048.0901380442083 3693.547268666327 1085.5317764803767 5788.1149540804327 1220.2492231614888 2773.4792485870421 1273.4868640229106 1396.4492833204567 6607.6129418835044 1224.9064395055175 7389.7816776111722 5255.6240029372275 1274.4838874489069 1433.8274340070784 4742.0368868112564 4053.293542586267 1978.3698175139725 1605.382231708616 4322.2105461806059 1786.5939216092229 1280.8406681120396 848.51706200838089 521.05095431953669 1364.0075729936361 8740.2411133907735 26992.898323699832 5267.0357533507049 586.99090661108494 427.76528292894363 3304.69310747087
leaf_count=5403 28108 6203 4563 4325 4818 7234 3734 6616 5783 5186 2509 13368 5591 3172 5148 10769 23496 10215 54850 36615 6025 4010 8674 5581 31727 6825 5236 4513 5857 3146 3220 4066 2634 36595 21268 5118 14635 5070 3694 4022 5755 20046 7237 7620 5033 2877 5871 14451 14291 6048 3606 6109 5006 2740 6128 2939 2687 15456 13590 8933 4263 3304 3960
internal_value=0 -0.0934547 -0.152206 0.328177 0.0399092 -0.126768 0.204125 -0.0799957 -0.0290233 0.0834371 -0.0655916 0.373842 -0.153161 -0.169277 -0.392983 -0.0809407 -0.157642 -0.3142 -0.208161 -0.109213 -0.0518312 -0.272323 -0.220329 -0.161884 -0.10687 -0.149237 -0.258726 0.130861 -0.0144027 -0.577572 -0.427898 -0.0711824 -0.251714 -0.179214 -0.116952 -0.122607 0.0591288 0.000382269 0.145 0.101353 -0.126193 -0.0439154 -0.412241 0.26749 0.242838 -0.0954561 -0.125825 -0.159707 -0.197106 -0.18551 -0.0219432 0.125011 0.00799848 -0.0382115 -0.424655 -0.314297 0.0497644 0.0955328 0.398507 0.188719 -0.50923 -0.560367 0.294166
internal_weight=0 149324 103663 72656.1 45661.5 89600.1 19555.4 42670.6 25156.5 32329.9 13331.7 53100.7 17514.2 46929.4 2314.91 10113.1 44614.5 14062.7 21826.2 22788.3 12529.8 11294 8470.99 6591.56 13363.3 10521.9 13711.3 21779.8 10550.1 1418.34 2823.01 7299.48 7401.04 10258.5 5819.04 8114.92 11793.2 7008.36 4784.79 17654.2 10023.9 9066.47 1872.93 10005.4 16698.9 8627.46 7352.97 6175.86 5528.11 2989.79 2856.46 15099.8 4309.68 2554.33 1879.43 1030.91 2841.39 10777.6 43095.3 8138.6 2211.9 1624.91 8560.32
internal_count=597572 528000 426513 69572 101487 328803 29591 142168 74984 63821 37666 39981 67184 186635 11466 36406 175169 97710 88700 86469 42640 69602 48600 35523 45802 38552 60086 37658 26163 8294 21002 20306 30778 43829 29942 28614 29182 19705 9477 33145 31463 30815 9871 13023 21660 25708 22831 20322 20907 10114 7931 26383 10192 6762 13077 6949 7250 20274 26958 12667 17782 13519 8993
shrinkage=0.4


Tree=3
num_leaves=64
num_cat=0
split_feature=138 136 136 136 16 73 0 137 138 1 12 136 132 129 131 129 138 12 10 127 113 122 131 40 123 139 11 125 130 75 113 139 129 121 132 132 15 17 139 105 127 129 127 89 139 138 57 87 100 136 126 138 130 136 108 75 90 100 132 130 139 138 136
split_gain=29584.7 3876.22 1847.93 1704.82 907.652 921.396 852.984 932.889 784.019 792.2 772.149 736.276 635.45 645.943 561.151 591.931 545.46 539.344 626.599 571.322 476.135 475.559 468.971 468.647 809.629 446.89 434.029 428.812 426.263 457.466 405.638 484.209 482.357 403.407 368.297 364.841 333.697 333.03 303.533 289.288 234.272 230.527 327.558 186.495 183.698 182.534 178.513 177.096 144.164 131.939 120.823 108.785 94.9464 88.8545 81.8616 54.6933 54.3942 48.6526 39.183 34.7442 20.7154 19.9734 19.3516
threshold=10.500000000000002 0.2353470325469971 -1.1442540884017942 0.27564442157745367 8.4554252624511737 13.178991794586183 2.5000000000000004 0.7420046627521516 19.500000000000004 1.5000000000000002 3.5000000000000004 -2.3127658367156978 23.500000000000004 2754.5000000000005 16.500000000000004 3436.5000000000005 5.5000000000000009 5.5000000000000009 253.50000000000003 47.500000000000007 -33.01769828796386 -14.737443447113035 46.500000000000007 8.6700677871704119 -4.2416999340057364 56.500000000000007 1.5000000000000002 2.5000000000000004 46093.500000000007 8.2504281997680682 -2.8125815391540523 381.50000000000006 47253.500000000007 -3.0494444370269771 3.5000000000000004 7.5000000000000009 8.2977156639099139 19.108632087707523 168.50000000000003 21.998892784118656 11.500000000000002 32398.500000000004 4.5000000000000009 45.483434677124031 179.50000000000003 6.5000000000000009 0.21937499940395358 3.6510725021362309 0.77318701148033153 1.12356573343277 44.500000000000007 31.500000000000004 41986.500000000007 1.0431852340698244 11.778938770294191 3.5962204933166508 365.14082336425787 0.2513554990291596 6.5000000000000009 34234.500000000007 128.50000000000003 7.5000000000000009 1.8166227936744692
decision_type=2 2 2 2 2 2 2 2 2 2 2 2 2 2 2 2 2 2 2 2 2 2 2 2 2 2 2 2 2 2 2 2 2 2 2 2 2 2 2 2 2 2 2 2 2 2 2 2 2 2 2 2 2 2 2 2 2 2 2 2 2 2 2
left_child=3 2 11 25 30 6 14 20 39 28 47 55 13 27 15 -6 49 19 -19 -15 -8 38 48 24 -12 -1 -16 36 29 51 31 33 -33 -4 -35 -25 -13 41 56 52 -29 42 -30 -31 -43 -27 -11 -7 -23 -5 59 -10 -3 60 -45 57 -14 58 -2 -41 -18 -55 -51
right_child=1 8 4 16 5 10 7 -9 9 46 23 12 21 17 26 -17 53 18 -20 -21 -22 22 -24 35 -26 45 -28 40 37 43 -32 32 -34 34 -36 -37 -38 -39 -40 50 -42 44 -44 54 -46 -47 -48 -49 -50 62 -52 -53 -54 61 -56 -57 -58 -59 -60 -61 -62 -63 -64
leaf_value=-0.019858850609189127 -0.24493658005587615 0.12579114653024248 0.051197278785298561 0.33011962848831988 -0.11589845516383435 0.081932044184467409 -0.32570018111750532 0.16016096206631777 0.1444500304991562 -0.32666320535644577 -0.4581589655400522 0.13505803112552761 -0.4355801571201629 -0.079383354705411163 0.065762114328200422 -0.010303385099278731 0.21138183633618779 0.05224377931436372 -0.24768841545768161 0.18712689806871541 -0.12364479065060563 -0.18694709816131783 0.048641107736647246 0.028517927229574632 -0.11961023011624061 0.25438215803227043 -0.11499421253044897 -0.2852118307329598 0.24034801950686507 -0.19136329862110463 0.033514460712311338 -0.70232890614863619 -0.23494636014504083 -0.083386483007105508 -0.41051411091533963 -0.21691360593391207 -0.2292955395837474 -0.055927441896248778 -0.12127201732604316 0.069491099447192534 -0.57548904872226903 -0.052022540589095792 0.052499041645851424 -0.0067621966739046472 0.10477111893149277 0.12004802073627652 -0.089265741857969427 -0.10028193077566171 -0.45023511787510212 0.37918203173379617 -0.014639358754386267 0.019584642380255885 0.22235306981048902 0.33381822021963725 -0.12926271975874254 -0.23513521383594843 -0.58391505019913603 -0.48467941947683474 -0.45123862334258869 0.14528735458235284 0.26409294933021038 0.28479555990113259 0.40725408206018276
leaf_weight=1878.9473845027387 351.54481114447117 2479.3069119602442 881.28763695433736 6664.3496380019933 11700.448006696999 2037.9029377736151 2323.0712145008147 1619.9658278785646 2081.2243357412517 1113.1934246756136 2498.3989684507251 661.48668459057808 1095.2374632395804 3689.8198394142091 16857.32351847738 31051.489174623042 2722.6778784058988 1550.9844345934689 3921.7792170159519 1973.8703684955835 9632.671127460897 694.32427547127008 947.88692411407828 1629.4024485982955 2078.0986679829657 4046.4199836663902 2428.3008345514536 2562.089412022382 3764.1686883382499 1977.8929799385369 854.06484559550881 683.21607771515846 747.55811701342463 988.70073185116053 1262.5055165998638 2371.9390249848366 1015.7689826823771 2198.1847085654736 432.84827607870102 1871.3236565440893 548.07498580217361 1780.9563678279519 2472.678242418915 3026.5983316451311 3603.004357162863 2748.5409697499126 950.88652057573199 1465.4804270192981 668.74132224917412 8242.7456374056637 1785.7733867093921 2440.6029692329466 5054.2331662625074 3061.5405965931714 1233.2648830749094 271.9087741933763 743.66232239827514 1217.1825952529907 300.31024961546063 2135.9091120138764 2653.1005133017898 3221.049545109272 12270.214421663433
leaf_count=5410 3837 4405 2645 7875 44012 4881 11679 3411 3623 4505 13382 2629 8596 18276 42614 93148 4893 5649 24938 7203 37573 3820 3864 4902 7391 5510 8983 17748 4531 6737 2507 5032 3371 3344 6602 10417 6740 6003 2583 3914 4768 4462 5221 7736 6544 5453 2890 5117 5086 7582 4500 5903 6510 3384 3963 3521 6530 16899 3981 3635 3274 3867 7563
internal_value=0 -0.0476359 -0.0847203 0.312954 -0.0597824 -0.0499539 -0.0335511 -0.124371 0.0597499 0.0200943 -0.152539 -0.187207 -0.163823 -0.125951 -0.0136629 -0.0392226 0.348779 -0.0730211 -0.162564 0.0133952 -0.162999 -0.295185 -0.166761 -0.217159 -0.304671 0.152441 0.0429586 -0.248867 0.0401114 -0.0195312 -0.218697 -0.266055 -0.4591 -0.177486 -0.267305 -0.116816 -0.0851778 0.0865989 -0.425326 0.138966 -0.336832 0.113625 0.166017 -0.0898 0.0527717 0.200186 -0.217781 0.0054961 -0.316977 0.379916 0.0715343 0.0772415 0.190699 0.276096 -0.0424269 -0.410596 -0.496358 -0.435542 -0.341846 0.110108 0.237592 0.308868 0.396036
internal_weight=0 155729 115759 47509.6 93111.8 87694.5 75613.3 13575.7 39969.2 26642.7 12081.2 22647.5 20506.6 15923.9 62037.6 42751.9 38835.7 11136.5 5472.76 5663.69 11955.7 4582.7 2310.95 8577.84 4576.5 8673.91 19285.6 4787.42 24578.6 10759.6 5417.33 4563.27 1430.77 3132.49 2251.21 4001.34 1677.26 13819 2271.75 13326.5 3110.16 11620.8 6236.85 6237.76 5383.96 6794.96 2064.08 3503.38 1363.07 27177.3 5793.01 4521.83 7533.54 11658.4 4259.86 2140.95 1838.9 1869.04 651.855 4007.23 5375.78 6282.59 20513
internal_count=597572 542761 457679 54811 311011 287510 241420 52663 85082 62118 46090 146668 118430 87951 188757 137160 38438 56066 30587 25479 49252 30479 12770 36092 20773 16373 51597 31885 54723 27962 23501 20994 8403 12591 9946 15319 9369 26761 17709 22964 22516 20758 9752 18436 11006 10963 7395 9998 8906 23020 12049 9526 10915 15418 11699 28238 15126 24717 7818 7549 8167 7251 15145
shrinkage=0.4


Tree=4
num_leaves=63
num_cat=0
split_feature=138 136 136 136 12 116 122 122 130 125 129 0 125 136 16 109 11 70 70 67 112 77 13 123 64 121 132 118 87 53 128 30 76 83 138 130 138 13 129 48 131 114 116 16 132 104 139 139 132 126 130 12 138 136 136 107 47 139 128 35 139 139
split_gain=16642 2043.09 1404.74 1066.22 785.09 764.968 651.907 642.232 548.988 596.949 545.069 544.706 905.753 507.724 486.646 485.259 457.674 509.909 418.935 387.965 375.443 423.638 373.351 421.297 365.395 598.229 355.98 388.73 365.121 351.5 338.113 314.893 310.806 307.793 306.816 292.271 287.159 286.452 295.885 284.897 277.291 268.14 701.243 261.771 255.962 248.13 315.659 228.914 189.417 178.264 148.128 120.176 92.5599 86.4301 68.2449 65.785 61.275 50.7544 43.413 37.2674 30.5128 9.18547
threshold=9.5000000000000018 -0.5492577552795409 0.73252364993095409 1.0038993358612063 3.5000000000000004 -7.6009836196899405 -33.095670700073235 -31.187019348144528 21610.500000000004 2.5000000000000004 47864.500000000007 2.5000000000000004 2.5000000000000004 -0.48823492228984827 11.128329753875734 15.548497200012209 1.0000000180025095e-35 22.203889846801761 53.018667221069343 0.015044499654322864 -4.4146525859832755 8.8803224563598651 5.5000000000000009 -1.6094294786453245 0.019507500343024734 -2.302580595016479 12.500000000000002 -7.604938030242919 3.7671654224395756 0.19375000149011615 1.0000000180025095e-35 33.500000000000007 7.9424741268157968 5.2858710289001474 5.5000000000000009 60975.500000000007 40.500000000000007 5.5000000000000009 11990.500000000002 0.11651600152254106 13.500000000000002 -4.7586524486541739 -7.6043779850006095 20.541289329528812 7.5000000000000009 0.84561201930046093 121.50000000000001 190.50000000000003 12.500000000000002 21.500000000000004 46688.500000000007 8.5000000000000018 5.5000000000000009 -2.159697294235229 1.5837529897689822 15.468227863311769 0.58957201242446911 116.50000000000001 1.0000000180025095e-35 5.0454545021057138 134.50000000000003 116.50000000000001
decision_type=2 2 2 2 2 2 2 2 2 2 2 2 2 2 2 2 2 2 2 2 2 2 2 2 2 2 2 2 2 2 2 2 2 2 2 2 2 2 2 2 2 2 2 2 2 2 2 2 2 2 2 2 2 2 2 2 2 2 2 2 2 2
left_child=2 4 13 8 26 6 18 -8 14 16 19 12 -9 -1 44 -13 22 -18 53 32 51 24 23 -10 25 -22 28 37 40 30 31 -16 -11 -32 54 -24 -12 -28 43 -38 41 42 -2 -39 -3 46 -20 55 -19 -46 -42 -7 59 58 61 -5 -57 -54 -6 -15 -36 -4
right_child=1 3 34 47 5 20 7 11 9 10 36 15 -14 52 29 -17 17 48 45 -21 21 -23 35 -25 -26 -27 27 -29 -30 -31 33 -33 -34 -35 60 -37 39 38 -40 -41 50 -43 -44 -45 49 -47 -48 -49 -50 -51 -52 -53 57 -55 -56 56 -58 -59 -60 -61 -62 -63
leaf_value=-0.01548945891886839 0.0424413136009524 -0.3893979767438559 0.31207082427565225 0.15300094453759028 -0.47379900453634227 -0.34646595364683125 0.25337510078381043 0.022057704924913518 -0.013170150528645327 -0.049665261902757017 0.15601137343879262 -0.45025556820811241 -0.14214859756401943 0.20200182287246551 -0.12154025216541152 -0.1436869996250334 0.11215983981764605 -0.067701919825819745 -0.43839843813443946 0.11894391563635752 -0.47040186630320868 -0.47997230478680541 0.14233193316667725 0.17927629580098148 0.095332672727109796 -0.10793329499513485 -0.030005333014419239 0.043678166374063541 -0.17144660484235449 0.17668565507619668 0.064601604500722304 0.083781292692072629 -0.22390257987064033 -0.094667658217893136 0.22182292843646786 -0.02793888940961279 0.076296581734626778 -0.59979673641279463 -0.065684712904843887 -0.12136292631951003 0.07889015134161069 0.237189327691641 -0.37383610878442397 -0.23079469401564703 -0.02545628169888586 0.083419127652492098 -0.026529765341335023 0.22596846598319714 -0.25085740128156347 -0.25606382268598277 0.28212332317037059 -0.60824666391736903 0.11756462637718042 -0.58393346528594259 0.38847464854673286 0.00017802530484989655 0.10977296900249656 0.20896896027864187 -0.21170639875048641 0.27382427838991513 0.28450897432175165 0.34888589254231145
leaf_weight=1999.9113078564405 4773.7835749834776 883.57261595502496 2563.2619411759079 1730.8435986824334 214.33434356004 832.09294349700212 907.24987838417292 11040.37870394811 9594.7539473678917 25535.535010693595 3433.1253687106073 980.97282242774963 10459.450189085677 2173.5671095252037 9577.2414441984147 5332.7316413447261 2274.2049749474972 3151.3568285778165 670.15182811766863 2060.8177462518215 992.05182280763984 734.36642903834581 12173.78686953336 2243.3318606056273 785.69986972399056 2768.560915838927 1185.8664703965187 1888.1501576527953 1237.8436462804675 1165.0101775415242 5663.0021921526641 1360.2195449732244 1752.4124270938337 2951.0664488784969 2273.8100438881665 1850.903233891353 3295.9162986464798 558.22564988210797 679.92365740612149 1803.7013683654368 1185.862986728549 774.47379184514284 747.48508725315332 710.66924752667546 1161.3104191143066 480.40131293982267 542.21500494331121 3276.7228447757661 1276.3054849542677 1008.2650244906545 1136.8423187695444 452.23186875507236 2127.6743133049458 596.27553433179855 10404.690837712958 1620.1570710223168 1671.111838426441 1898.6649783961475 225.6677072532475 2882.0824849996716 3388.4919908624142 3950.411747938022
leaf_count=5372 20825 4502 4762 2892 3863 6064 3869 43554 24801 78480 5768 8180 58687 3978 32957 30364 4543 9450 6344 4808 6596 4967 23244 3459 3000 12166 4752 6610 5759 2076 15012 3625 6755 10950 4562 4984 7718 4081 3495 5664 4432 1763 4781 5173 3631 2532 3523 4103 5298 4841 2827 4046 5033 5359 9933 3976 3230 2903 3317 4521 4426 4386
internal_value=0 -0.0267879 0.28342 0.00614964 -0.0906369 -0.121126 -0.0951562 -0.0773609 -0.00595088 0.0117771 -0.022349 -0.0881873 -0.0577976 0.166621 -0.058519 -0.191522 0.0514964 -0.0415824 -0.282037 -0.0482346 -0.245379 -0.197862 0.0756448 0.0232548 -0.152001 -0.203884 -0.0126871 -0.099376 0.031425 -0.0364977 -0.0492492 -0.0959325 -0.060892 0.00994797 0.340696 0.119809 0.0665945 -0.185754 -0.280069 0.00623044 0.0606695 0.0169496 -0.0138656 -0.394179 -0.207619 -0.158566 -0.255032 0.14359 -0.120723 -0.133054 0.178782 -0.439765 0.206799 -0.482548 0.367796 0.0896505 0.0560655 0.160904 -0.342106 0.243153 0.259524 0.334579
internal_weight=0 155409 33662.6 102515 52894 38014.8 31449.8 28720.8 94215.8 70446.2 37881.5 27813.5 21499.8 11081.9 23769.7 6313.7 32564.6 6701.87 2729.05 29348.8 6565 5280.68 25862.8 11838.1 4546.31 3760.61 14879.1 5022.84 9856.29 20716.5 19551.5 10937.5 27287.9 8614.07 22580.7 14024.7 8532.74 3134.69 1948.82 5099.62 8618.45 6295.74 5521.27 1268.89 3053.15 1692.77 1212.37 8298.84 4427.66 2169.58 2322.71 1284.32 9081.99 1036.28 16918.4 5022.11 3291.27 4026.34 440.002 5055.65 5662.3 6513.67
internal_count=597572 547696 49876 276767 270929 206431 169592 144654 262566 184972 109193 140785 102241 21807 77594 38544 75779 19291 24938 90043 36839 26729 56488 28260 21762 18762 64498 24111 40387 64620 62544 36582 85235 25962 28069 28228 19150 17501 12749 13382 34628 27369 25606 9254 12974 12399 9867 14201 14748 8472 7259 10110 16435 12539 19081 10098 7206 7936 7180 8499 8988 9148
shrinkage=0.4


Tree=5
num_leaves=64
num_cat=0
split_feature=138 138 139 136 127 10 128 139 129 137 137 134 131 138 130 126 120 129 126 123 11 135 39 139 138 80 117 112 125 12 18 136 65 131 87 44 13 14 59 118 136 137 123 69 54 136 138 13 136 19 19 54 138 59 139 137 105 63 82 137 138 120 90
split_gain=9179.49 1610.64 1051.56 1028.53 921.707 904.237 737.272 526.957 517.253 534.88 510.858 604.795 573.885 510.829 489.861 476.521 407.646 380.124 350.162 342.237 336.865 359.086 323.671 321.581 307.003 301.263 452.767 314.284 300.854 282.422 372.047 314.038 279.662 382.374 277.658 261.721 223.007 213.109 205.561 200.706 291.359 188.031 181.587 200.937 178.514 365.825 189.033 186.833 159.481 135.279 132.011 128.8 125.283 125.195 113.733 105.992 85.6453 83.504 78.4959 66.8602 66.6673 66.5383 38.499
threshold=7.5000000000000009 34.500000000000007 133.50000000000003 0.8994065821170808 3.5000000000000004 1096.5000000000002 1.0000000180025095e-35 104.50000000000001 10211.500000000002 0.78056249022483837 0.44395197927951818 1.0000000180025095e-35 13.500000000000002 68.500000000000014 20872.500000000004 39.500000000000007 -1.8970710039138792 7290.5000000000009 16.500000000000004 -1.8970634937286375 1.0000000180025095e-35 18.801937103271488 6.6904764175415048 56.500000000000007 16.500000000000004 56.571866989135749 -7.5740804672241202 -16.174063682556149 2.5000000000000004 3.5000000000000004 8.6530675888061541 -0.54059487581253041 3.5000000480067688e-06 9.5000000000000018 7.0410294532775888 6.2678570747375497 11.500000000000002 225.50000000000003 0.08382000029087068 -24.230669021606442 -0.71126243472099293 0.39925734698772436 -16.132524490356442 7.3500003054505228e-05 0.0075534998904913673 0.22241553664207461 12.500000000000002 4.5000000000000009 -0.25136791169643397 13.64959239959717 11.165452957153322 0.0098235001787543314 3.5000000000000004 0.029725500382483009 245.50000000000003 0.49162670969963079 18.722662925720218 0.028174499981105331 7.2636585235595712 0.64131346344947826 4.5000000000000009 -7.764753818511962 44.920074462890632
decision_type=2 2 2 2 2 2 2 2 2 2 2 2 2 2 2 2 2 2 2 2 2 2 2 2 2 2 2 2 2 2 2 2 2 2 2 2 2 2 2 2 2 2 2 2 2 2 2 2 2 2 2 2 2 2 2 2 2 2 2 2 2 2 2
left_child=3 2 8 23 5 6 10 17 9 15 11 14 13 -12 -3 49 18 36 -9 -13 21 28 -23 -1 59 26 27 -7 -8 30 -20 -31 33 -19 41 -26 50 51 -14 -27 -41 -22 43 -34 48 -46 -47 -48 -4 56 62 -10 -5 -52 -49 -39 -2 58 -57 -17 -25 -50 -6
right_child=1 4 44 52 7 25 20 16 37 -11 12 19 38 -15 -16 24 -18 32 29 -21 34 22 -24 60 35 39 -28 -29 -30 31 -32 -33 42 -35 -36 -37 -38 55 -40 40 -42 -43 -44 -45 45 46 47 54 61 -51 53 -53 -54 -55 -56 57 -58 -59 -60 -61 -62 -63 -64
leaf_value=-0.011432110257493584 0.11706071685614783 -0.052940173536557091 0.24834481646721912 0.3627563381591985 -0.33166194016836936 -0.47063749181760539 0.15531236742247467 0.18271309567676314 0.20323900402302286 0.11978603904888892 -0.10872655147702995 -0.15754768396442809 -0.068138976994166628 -0.38215026116091116 0.096542292168065411 -0.11728360124443847 0.10533655773954542 -0.42961008975422871 -0.21413026948163949 0.11985163048177744 -0.03518720402514091 0.062620768719851783 -0.18438588673257383 0.22773911183542755 -0.31269850244008557 -0.2563380184253839 -0.71694979567708761 -0.064138600910880222 0.047603267791121416 -0.15422210230671224 0.0055509171342306672 -0.067709862582967753 0.042848803404636981 0.015457716100420302 0.065336991240560707 -0.12457552135587185 -0.053528002022146137 -0.086310352647912453 0.11385214723046591 0.15632597184651675 -0.17009853290764718 -0.29373796074451181 0.13699183664028222 -0.25131643209591331 -0.079159003120826021 0.19127189318842042 -0.02542624568774389 0.082570897278593264 0.15386004624925087 -0.1009110686011212 -0.35991196683891952 0.064498611815643578 0.27969317304945024 -0.65188078808736372 0.19693094487188437 0.072601405878053193 -0.001131386736997487 0.088564567987572729 -0.060288105064424724 0.0041269178556228641 0.14666028669021944 0.059741834085042224 -0.17379856098993229
leaf_weight=1512.5365099739283 1454.2333442177624 5487.5386498291045 2282.7140496075153 8791.6249026861042 520.22021703235805 469.09371337480843 8924.8143261987716 832.48896787129343 2003.3258966989815 2448.9378477782011 3001.7582687847316 4514.867709826678 3114.3124866578728 1729.6545535475016 9695.7847716622055 1240.6564085148275 2141.1382292769849 770.78300433605909 1419.3907689992338 840.62418154254556 926.29162732325494 2142.627453148365 1401.4680189341307 3786.8182873213664 2194.6131617221981 844.83922804519534 352.61899812892079 877.71687251888216 7802.2481708303094 10640.172036422417 9315.5108057837933 18340.844045765698 754.6738339997828 509.50748314335942 1618.6182636581361 2613.2820796854794 479.61681568808854 1313.2610227093101 1455.2447781078517 812.38181926310062 943.62909090518951 888.05545308813453 785.58717292547226 723.26249331794679 1907.4059137348086 3289.9839309174567 2096.4958529192954 6264.1314936969429 3562.564961982891 1513.3350654263049 795.49199284613132 2346.6294002365321 4547.2274968624115 354.30102091655135 1809.0663597602397 1177.2298548780382 2971.8359136749059 2829.2935652136803 1788.0319180712104 1719.4185202401131 2993.3542510708794 1862.721700143069 538.47214632853866
leaf_count=4726 3295 23779 3941 12622 3597 8368 20849 1525 3376 5277 11734 19992 10552 9428 30287 4437 4974 6519 5785 2094 3931 6421 5452 7085 12001 6336 3268 5502 27070 65212 31151 62350 4271 2280 5017 11721 2963 4900 3324 3696 3854 4548 2485 4276 5893 5489 5234 12743 6090 6006 8076 5099 8906 2979 2498 3202 8523 6523 5296 4785 6642 3904 3413
internal_value=0 -0.0121764 0.04653 0.265706 -0.0400554 -0.00586249 0.00829966 -0.0804687 -0.00611136 -0.0522358 -0.0335185 0.00166861 -0.111286 -0.208917 0.0424692 -0.0830305 -0.0645772 -0.189173 -0.0735705 -0.113851 0.0609714 0.0806086 -0.0348861 0.154885 -0.148237 -0.182312 -0.313418 -0.206598 0.105123 -0.0789669 -0.0234529 -0.099503 -0.102762 -0.252105 -0.0547591 -0.210662 -0.302712 0.0588631 -0.0100065 -0.096246 -0.0186711 -0.162264 -0.017869 -0.100723 0.109554 0.0845234 0.107779 0.0806743 0.159339 0.0021445 -0.356433 0.128604 0.334526 -0.451189 0.108316 0.0160635 0.037564 0.0394047 -0.00727797 -0.0465481 0.192088 0.121702 -0.252384
internal_weight=0 157455 50689.2 21631.6 106766 57844.2 53543.9 48921.5 27614.1 16156.3 29839.8 20538.8 9300.97 4731.41 15183.3 13707.4 42689.5 6231.92 40548.4 5355.49 23704.1 20271.2 3544.1 8292.71 7767.97 4300.28 1699.43 1346.81 16727.1 39715.9 10734.9 28981 3543.81 1280.29 3432.97 4807.9 2688.1 11457.8 4569.56 2600.85 1756.01 1814.35 2263.52 1477.94 23075.1 15367.1 13459.7 10169.7 7708 5939.4 2208.49 4349.96 13338.9 1149.79 8073.2 7107.82 4426.07 5794.56 2965.26 2960.07 6780.17 5425.29 1058.69
internal_count=597572 557591 130233 39981 427358 215502 184478 211856 84441 56045 111190 76152 35038 21162 54066 50768 170997 40859 166023 22086 73288 59792 11873 18453 32944 31024 17138 13870 47919 164498 36936 127562 19831 8799 13496 23722 21028 28396 13876 13886 7550 8479 11032 8547 45792 31857 25964 20475 13935 17824 18065 8475 21528 11055 15241 19921 11818 15021 8498 9222 13727 9994 7010
shrinkage=0.4


Tree=6
num_leaves=47
num_cat=0
split_feature=138 138 136 136 139 126 111 139 134 127 129 63 128 132 117 12 85 9 125 19 105 116 131 121 44 112 60 117 139 108 131 90 75 136 102 136 136 57 79 126 10 60 129 127 138 138
split_gain=5045.81 887.006 827.097 707.015 459.347 445.783 336.758 336.615 324.378 394.419 595.883 451.382 416.702 385.72 383.234 346.991 304.131 297.59 276.781 245.718 244.554 205.359 201.984 164.217 156.71 150.111 144.309 128.259 121.075 119.631 81.82 104.181 81.0261 80.7395 71.0441 74.7561 65.5495 58.7956 49.7827 48.3253 48.0877 33.8535 54.829 26.8729 25.3428 19.5695
threshold=6.5000000000000009 18.500000000000004 1.0838988423347475 -2.2570255994796748 91.500000000000014 36.500000000000007 -1.7318229675292967 97.500000000000014 1.0000000180025095e-35 1.5000000000000002 4151.5000000000009 0.022857999429106716 1.5000000000000002 23.500000000000004 -6.4636521339416495 3.5000000000000004 10.617470264434816 0.36038950085639959 2.5000000000000004 3.6193259954452519 22.552380561828617 -7.2728004455566397 16.500000000000004 -1.3019145131111143 0.19579099863767627 -15.059313774108885 0.0046055000275373468 -17.624234199523922 191.50000000000003 12.495995521545412 3.5000000000000004 407.96221923828131 3.5962204933166508 1.9789647459983828 0.64226898550987255 1.2851352691650393 0.040049722418189056 0.26365450024604803 21.912876129150394 40.500000000000007 651.50000000000011 0.00059850001707673084 25686.000000000004 9.5000000000000018 2.5000000000000004 3.5000000000000004
decision_type=2 2 2 2 2 2 2 2 2 2 2 2 2 2 2 2 2 2 2 2 2 2 2 2 2 2 2 2 2 2 2 2 2 2 2 2 2 2 2 2 2 2 2 2 2 2
left_child=2 7 21 27 5 16 20 23 9 12 11 -11 19 -12 15 29 26 -17 -14 -6 22 36 -7 30 -22 -18 -5 32 34 -10 -2 39 41 45 43 37 -1 40 -30 -32 -36 42 -3 -9 -38 -4
right_child=1 3 33 4 8 6 -8 28 14 10 13 -13 18 -15 -16 17 25 -19 -20 -21 24 -23 -24 -25 -26 -27 -28 -29 38 -31 31 -33 -34 -35 35 -37 44 -39 -40 -41 -42 -43 -44 -45 -46 -47
leaf_value=0.10797367443417885 0.082708546549767087 -0.40536739657718379 0.31065386654295402 0.012039131834744515 -0.13866370372911865 -0.11526846195258092 -0.43022817643578898 0.086896877111358614 -0.0050512744913751399 -0.15660881660484341 0.02710888748153599 -0.02132065764695442 0.15139676533792204 -0.098345152434028735 0.10728136408416077 0.08779954515955174 -0.2140834411465066 -0.098961423049232874 0.035210848478906369 0.01554055794790974 -0.37577996046730494 -0.0057734264523949018 0.11943269654834032 -0.13925112765908185 -0.15475828906051209 -0.019324215605963944 0.21928068130034395 0.0028999373634643602 0.11117168095712447 0.13605934457669538 0.079673198535690437 -0.096278816440359211 -0.097036991913974913 0.36851468889332351 -0.010421563218826757 0.13418306192987303 0.24504748298312837 0.093735977083127905 0.20088402415136059 -0.024351764877135293 0.072178083734183524 -0.45778055973432008 -0.10227781263299883 0.1564094041697171 0.17356877989243935 0.25238696280479866
leaf_weight=1918.9298761934042 2235.8337269276381 287.9263641545549 2569.2265193499625 1104.0875782761723 1777.9432455096394 1622.8855618871748 647.20598505809903 1789.5016247136518 6110.8719824738801 7255.2584036663175 29834.623150056228 8681.2786745382473 6482.4064589943737 4511.8916062265635 2448.5415457542986 1469.1652765553445 954.26009851973504 18425.267102658749 6683.1115069314837 23292.785705408081 619.37618403509259 1323.1786033296958 915.12618057988584 1218.7486334070563 3199.391482938081 1905.9415638670325 1061.3158344849944 188.08780989702791 2053.3481191108003 1137.5472868047655 1600.7561815530062 1511.3825945816934 183.39082856290042 3684.8509918171912 3478.777470481582 1660.6038078842685 1366.2285270756111 2262.8849849263206 2031.1696889558807 1274.3516890052706 1659.5502889705822 589.66262114234269 155.13217893149704 1937.256569923833 2323.1112450687215 1853.783086036332
leaf_count=4443 5693 7468 6150 4559 7472 10425 5578 3755 19342 37334 94294 32664 13618 18806 5944 4759 5918 73895 21912 79328 3839 4031 3548 4841 18566 6735 2481 2513 3889 2407 3755 5117 3473 6388 9155 3602 3039 4819 3083 3958 3781 14488 2215 3520 6213 4759
internal_value=0 -0.00545495 0.237117 -0.0185222 -0.0154686 -0.0899332 -0.155149 0.0640651 -0.00787725 0.00423554 -0.0190384 -0.0829654 0.0348606 0.0106045 -0.0441341 -0.0578246 0.000830172 -0.0851281 0.0924829 0.00456899 -0.12694 0.135444 -0.03034 -0.00432715 -0.190919 -0.084627 0.114021 -0.30072 0.095888 0.0170169 0.0204193 -0.0111823 -0.34822 0.323911 0.0766132 0.0573299 0.168884 0.039967 0.156014 0.0333259 0.0161283 -0.391937 -0.30152 0.123269 0.200317 0.286483
internal_weight=0 156259 15039.3 131544 130140 12029.6 7003.99 24714.2 118111 88519.3 50283.1 15936.5 38236.2 34346.5 29591.4 27142.9 5025.61 19894.4 13165.5 25070.7 6356.78 6931.45 2538.01 7841.07 3818.77 2860.2 2165.4 1404.2 16873.1 7248.42 6622.32 4386.49 1216.11 8107.86 12788.6 9061.82 5608.27 7401.21 4084.52 2875.11 5138.33 1032.72 443.059 3726.76 3689.34 4423.01
internal_count=597572 562549 35023 503581 473424 61649 41956 58968 411775 305428 183098 69998 122330 113100 106347 100403 19693 78654 35530 86800 36378 17726 13973 23364 22405 12653 7040 30157 35604 21749 18523 12830 27644 17297 28632 21357 13695 17755 6972 7713 12936 24171 9683 7275 9252 10909
shrinkage=0.4


Tree=7
num_leaves=58
num_cat=0
split_feature=138 136 138 139 136 131 30 130 10 10 24 130 37 17 47 18 125 17 108 131 12 119 70 127 82 90 138 139 84 126 137 129 30 87 120 139 131 137 107 129 30 138 17 138 14 122 82 136 105 67 89 52 108 128 139 90 29
split_gain=2684.96 614.663 492.231 386.083 380.329 333.725 543.004 591.307 701.805 638.4 416.223 527.475 513.535 479.207 461.646 438.213 391.456 354.177 335.339 319.067 313.614 305.364 373.291 311.702 254.417 235.072 233.483 220.198 210.673 177.787 192.698 187.144 167.14 158.74 173.817 156.105 149.08 141.373 119.744 123.01 110.555 105.485 97.8071 85.4305 78.1448 77.9832 73.6113 66.4795 66.4626 61.5851 60.7685 54.602 50.0724 47.333 42.298 29.6066 14.5595
threshold=5.5000000000000009 1.12356573343277 31.500000000000004 47.500000000000007 -2.3127658367156978 3.5000000000000004 33.500000000000007 63058.500000000007 1243.5000000000002 444.50000000000006 25.500000000000004 39753.000000000007 1.2250000238418581 12.822325229644777 0.36939549446105963 7.2797603607177743 5.5000000000000009 9.0979242324829119 17.300626754760746 76.500000000000014 6.5000000000000009 -17.830811500549313 153.41933441162112 18.500000000000004 6.2803955078125009 1686.0874633789065 66.500000000000014 147.50000000000003 31.954720497131351 42.500000000000007 0.66496753692626964 23227.500000000004 49.500000000000007 5.5898964405059823 -15.635365486145018 58.500000000000007 1.5000000000000002 0.77351179718971264 15.077637672424318 13791.500000000002 10.500000000000002 21.500000000000004 17.121239662170414 17.500000000000004 807.50000000000011 -4.1024734973907462 7.7736456394195566 1.8166227936744692 16.855801582336429 0.0013170000165700915 61.001403808593757 0.067231997847557082 13.968740463256838 5.5000000000000009 119.50000000000001 0.26756900548934942 7.5000000000000009
decision_type=2 2 2 2 2 2 2 2 2 2 2 2 2 2 2 2 2 2 2 2 2 2 2 2 2 2 2 2 2 2 2 2 2 2 2 2 2 2 2 2 2 2 2 2 2 2 2 2 2 2 2 2 2 2 2 2 2
left_child=1 35 3 28 42 6 7 8 16 26 11 13 15 17 21 -13 -6 -7 25 -15 -10 22 -12 -23 -11 -16 -9 29 -2 40 31 36 -8 34 -32 -1 -31 -35 39 46 52 44 -4 -40 -42 -45 -29 56 55 50 -41 54 53 -5 -37 -44 -3
right_child=2 47 4 27 5 10 32 9 20 24 14 12 -14 19 18 -17 -18 -19 -20 -21 -22 23 -24 -25 -26 -27 -28 38 -30 30 33 -33 -34 37 -36 51 -38 -39 43 49 41 -43 48 45 -46 -47 -48 -49 -50 -51 -52 -53 -54 -55 -56 -57 -58
leaf_value=-0.018501565991583178 -0.32205942556236811 0.21735511340883826 0.037962357636356345 0.070440769518680127 -0.015470639876713477 -0.0083031322530634812 0.17697875133798024 -0.20771054030769892 -0.15433215639969156 0.045738670816230932 -0.12587944139245555 -0.20109651185585517 0.23911009270024206 -0.0057515704255290609 -0.0025535873411258458 0.054161493417891518 -0.26353085111342911 -0.17275813769949436 -0.1957653829497675 0.14488198096105423 -0.51435336706783585 -0.019928502789438467 -0.50975288987155121 -0.18197720537102788 -0.20486092435145672 0.14705938885761904 -0.5029270898997894 0.10050048580012588 -0.029882615916580535 0.034705843694066214 -0.010516494701791626 0.050763479403858426 -0.0059395675741297192 -0.11255986705657757 0.17664468561886962 0.06448670168142244 -0.14910255768000477 0.059390656197902916 0.078493160811950846 0.012268998965207542 -0.0034479156933929496 -0.074051871853210702 -0.23658139788663524 0.048428864423507662 0.10314646852454767 -0.088863415751928895 0.2101548162424737 0.34485125802785355 -0.02994553963360308 0.13269962890224987 0.10994818244283365 0.21536717708854183 0.014378953907298465 0.14872117430686496 0.16611376911865036 -0.43573187424153725 0.28693042924358081
leaf_weight=1167.8672695518471 711.88162877690047 1176.6533373245038 131.07712525688112 6675.6619346244261 26907.988502034917 3827.0965478867292 2104.8062358405441 748.39560758322477 1018.4416014719754 1395.7508570179343 1234.0848419079557 1126.2278224825859 2325.1147470474243 14561.29474422615 4710.5729854460806 23118.602184662595 1057.1209093825892 4655.1083606891334 1003.3695946708322 2658.0560953198001 633.53527075797319 5749.4274551589042 608.64974937774241 2843.9075569026172 1202.576161513105 2602.6887395335361 1047.5366549417377 1927.2458205055445 898.80852365028113 876.6323020812124 1423.4647618494928 1514.7491252087057 1275.8757567238063 1674.7817641440779 1773.8677839618176 1386.6366600045003 3493.8548835851252 1400.5399967459962 2727.9171878099442 3177.4692723304033 2838.5906559573486 1915.1345017747954 195.38632980175316 1276.3671343568712 1782.8712679082528 1364.9299487862736 2080.9524407079443 2953.0891376454383 106.60926062427461 1729.6745594944805 1513.4585919007659 1295.229850278236 2008.6611987370998 1547.9894796060398 1304.7091442523524 462.42100629676133 1119.3568273503333
leaf_count=3925 5165 3899 2363 16062 100991 14924 6608 3353 6457 5242 8172 4605 3936 63013 15902 68355 6490 20064 4432 6681 6243 22924 5574 14281 5740 7841 7222 3976 3920 3231 4515 3721 5813 5791 3698 4422 14918 3708 6177 7570 7901 6621 4478 3015 4262 3986 3320 7563 2975 3215 2983 3694 5127 3203 2869 16753 3683
internal_value=0 0.207927 -0.00194415 0.0326002 -0.0165938 -0.0144406 -0.0450263 -0.0602379 -0.039887 -0.197182 0.00165231 0.020003 0.0595282 -0.0208307 -0.0494579 0.0422636 -0.0248861 -0.098656 0.0207722 0.017469 -0.293155 -0.105489 -0.253353 -0.0736621 -0.0700165 0.0506111 -0.380564 0.039544 -0.159631 0.0187678 -0.0180171 -0.0700355 0.107758 0.0306785 0.0931266 0.109548 -0.11207 -0.034026 0.0775354 0.102548 0.04548 0.00472412 -0.276045 0.0288043 0.0375372 -0.022256 0.157663 0.30434 -0.3308 0.0680022 0.0439606 0.147234 0.071441 0.0852863 0.114082 -0.378299 0.251742
internal_weight=0 10403.5 155647 46335.5 109312 108416 37392 34011.3 29617.1 4394.26 71024.2 52271.5 26569.9 25701.6 18752.7 24244.8 27965.1 8482.2 8316.63 17219.4 1651.98 10436.1 1842.73 8593.34 2598.33 7313.26 1795.93 44724.8 1610.69 28926.8 12157.9 5885.24 3380.68 6272.65 3197.33 5154.44 4370.49 3075.32 15798 10428.8 16768.9 6536.6 895.494 5369.21 4621.46 2641.3 4008.2 5249.1 764.417 6420.6 4690.93 3986.58 10232.3 8223.65 2691.35 657.807 2296.01
internal_count=597572 30055 567517 126085 441432 414863 154159 141738 120181 21557 260704 181578 76896 104682 79126 72960 107481 34988 28175 69694 12700 50951 13746 37205 10982 23743 10575 117000 9085 82758 39582 21870 12421 17712 8213 14910 18149 9499 34242 21064 43176 18784 26569 13178 12163 7001 7296 15145 24206 13768 10553 10985 24392 19265 7291 21231 7582
shrinkage=0.4


Tree=8
num_leaves=53
num_cat=0
split_feature=136 137 125 132 52 126 117 129 59 10 12 123 12 130 126 12 37 117 131 17 138 127 45 12 136 16 15 104 14 110 18 18 55 138 123 137 130 39 64 138 112 85 59 65 136 25 60 115 129 126 74 136
split_gain=1623.81 471.927 307.306 554.724 474.198 436.318 431.288 394.124 429.138 440.527 382.376 392.061 377.296 566.928 358.922 329.713 324.234 353.437 308.882 292.742 290.47 277.755 265.195 259.913 246.484 238.823 234.912 302.37 273.826 250.511 266.717 232.042 230.911 213.905 192.834 189.648 176.5 171.06 166.914 152.649 150.649 112.865 120.002 73.0245 61.1085 60.1732 144.027 111.433 68.2604 59.5451 40.6573 25.3154
threshold=1.4942777752876284 0.72120755910873424 2.5000000000000004 2.5000000000000004 0.10128200054168703 32.500000000000007 -19.979603767395016 22761.500000000004 0.025823500007390979 1522.5000000000002 7.5000000000000009 -2.7444174289703365 7.5000000000000009 41452.500000000007 107.50000000000001 2.5000000000000004 1.4499999880790713 -23.051127433776852 5.5000000000000009 12.33400869369507 98.500000000000014 44.500000000000007 0.013741500210016968 6.5000000000000009 -0.86553597450256337 8.9473128318786639 4.8700215816497812 0.9982915222644807 209.50000000000003 -22.42393589019775 18.696770668029789 21.562112808227543 0.013737500179558994 4.5000000000000009 -25.621828079223629 0.45755767822265631 55625.500000000007 22.366665840148929 0.070604499429464354 4.5000000000000009 -18.926262855529782 12.6628794670105 0.036460001021623618 0.00036150000232737517 0.6126329004764558 1.5000000000000002 0.01384150004014373 -16.550706863403317 2910.5000000000005 36.500000000000007 99.553394317626967 1.9789647459983828
decision_type=2 2 2 2 2 2 2 2 2 2 2 2 2 2 2 2 2 2 2 2 2 2 2 2 2 2 2 2 2 2 2 2 2 2 2 2 2 2 2 2 2 2 2 2 2 2 2 2 2 2 2 2
left_child=1 2 3 4 5 35 20 8 10 14 11 19 15 22 24 38 17 -12 -13 -4 23 -15 -14 32 -10 -17 27 -9 41 -30 -31 -22 -5 51 -25 -1 -29 39 -8 44 -33 42 -28 45 -3 46 49 48 -47 -41 -49 -2
right_child=33 37 7 6 -6 -7 12 26 9 -11 16 18 13 21 -16 25 -18 -19 -20 -21 31 -23 -24 34 -26 -27 28 36 29 30 -32 40 -34 -35 -36 -37 -38 -39 -40 43 -42 -43 -44 -45 -46 47 -48 50 -50 -51 -52 -53
leaf_value=-0.018594026443546834 0.25021585003135299 0.073726606678907125 -0.34968305315621812 -0.13241327524487609 -0.046136095058280459 0.28875190676680662 0.014105582877013398 -0.24027335686276144 -0.14434221489523488 0.24955548259796598 -0.032165810280991761 0.1417384146343641 -0.11631749526028552 0.18717376812730258 0.22285434371508367 -0.16454792678719266 0.13267878516833484 -0.25140262859098117 -0.088568463576959272 -0.078531149760469265 -0.38182505352416229 0.0059201641824159646 0.032401575441192168 -0.061205148758154665 -0.018312532585059563 -0.026795582063234753 0.13666392008018405 -0.1151435477470131 0.20647070150661773 0.02931786738517303 -0.11082357433888115 -0.20511320646486558 0.059893430865185206 0.14282842254823772 -0.24446309874866406 0.16723404913288031 0.069277495302719455 0.15308311359746668 0.12642839438239392 0.078322791905225675 0.036942519055232728 0.19168510619265688 -0.019090921971423692 -0.057233399824711775 0.18180532876639324 -0.12101244616704049 0.16229911023835042 0.013415807268227936 0.013239585720924443 -0.029700790804800616 0.11326794216189436 0.33571022573824683
leaf_weight=1783.9543681042269 1001.2465518102981 2115.8271448533051 694.66097648441792 1270.2081752717495 2350.3003836264834 2613.3453654106706 7840.2984019787982 1149.5537009607069 2878.2639678763226 974.9427094575949 1583.2994039570913 2392.4830883922987 2324.9204706219025 5695.9521614080295 894.53639634232968 2242.8441763212904 516.28899549553171 4673.6975903650746 1520.5091888718307 7827.06676445622 721.51274556992576 1784.8889197534882 10927.743485047482 3924.0066899480298 18197.496728887782 19912.056965603027 1820.2030229591765 1371.9153602332808 898.49508063634858 7067.8150768866763 3133.7027231021784 1048.8646763651632 4643.7142347204499 2588.8337899013422 1206.4421354453079 1718.0793302748352 2097.6340758656152 2770.742363049183 2908.0367036922835 1456.7235506135039 668.3612461257726 1953.1713268728927 1386.1800230960362 1577.4423619313166 1427.5732308649458 1279.3446450424381 1667.2211395082995 1394.1934463456273 1133.1273243017495 1842.7055774363689 1257.136375809554 1707.0719640487805
leaf_count=5840 4118 6066 4315 8393 6615 5380 23211 5346 20600 3385 14788 7716 11297 10991 2026 10267 1696 30359 6553 48029 5052 5273 35652 19109 63864 68191 4145 5370 6472 21870 13965 8896 15901 6277 6569 3020 5497 6722 5863 3297 2544 3560 3655 4942 5302 4545 3239 4000 3223 5620 3118 5828
internal_value=0 0.000532104 -0.00736061 0.00983108 0.106312 0.165017 -0.0023291 -0.0279874 -0.0502515 -0.0132869 -0.0943666 -0.0526199 0.0137363 0.0560031 -0.0249986 -0.0128769 -0.170874 -0.196061 0.0520622 -0.100773 -0.0662865 0.144033 0.00624787 -0.0386043 -0.0355667 -0.0407829 0.0169289 -0.0626027 0.0395704 0.00410876 -0.0136695 -0.191262 0.018446 0.22569 -0.104494 0.0723971 -0.00345513 0.061614 0.0445748 0.0448268 -0.11053 0.115699 0.0691248 0.0225609 0.117527 0.0351877 0.0664745 0.00434918 -0.0576855 0.0177873 0.0610672 0.304515
internal_weight=0 156539 138617 75585.5 8465.68 6115.38 67119.9 63031.9 42153.2 22945.2 19208 12434.7 53636.7 20733.5 21970.3 32903.2 6773.29 6257 3912.99 8521.73 13483.1 7480.84 13252.7 11044.4 21075.8 22154.9 20878.7 4619.1 16259.6 11100 10201.5 2438.74 5913.92 5297.15 5130.45 3502.03 3469.55 17922 10748.3 15151.3 1717.23 5159.55 3206.38 11607.9 3543.4 10030.5 4966.65 5063.8 2412.47 3299.43 2651.33 2708.32
internal_count=597572 581349 531275 258064 20855 14240 237209 273211 203331 89875 113456 66613 170745 63213 86490 107532 46843 45147 14269 52344 66464 16264 46949 49972 84464 78458 69880 16213 53667 42307 35835 16492 24294 16223 25678 8860 10867 50074 29074 43352 11440 11360 7800 31984 11368 27042 12156 14886 7768 8917 7118 9946
shrinkage=0.4


Tree=9
num_leaves=36
num_cat=0
split_feature=136 139 138 129 129 129 13 138 137 49 129 16 79 138 12 90 130 100 121 139 138 127 70 93 74 104 107 83 29 135 14 113 138 127 29
split_gain=837.179 427.458 436.572 277.035 958.333 520.768 469.25 350.137 499.546 342.391 341.199 423.311 306.498 271.587 265.267 293.488 259.993 239.588 236.458 234.996 194.351 192.68 169.441 167.172 209.568 180.125 164.213 163.078 97.7333 89.6716 69.0853 37.6951 37.5666 21.2095 12.0687
threshold=1.4942777752876284 35.500000000000007 9.5000000000000018 622.50000000000011 1236.5000000000002 256.50000000000006 11.500000000000002 282.50000000000006 0.25921538472175604 0.0265655005350709 154.50000000000003 20.299075126647953 1.2455810308456423 18.500000000000004 2.5000000000000004 46.438257217407234 56605.500000000007 0.99091699719429027 -13.2213978767395 219.50000000000003 2.5000000000000004 1.0000000180025095e-35 59.504600524902351 0.0017019999795593323 7.4606506824493417 0.82331201434135448 11.798509597778322 8.5076851844787615 1.5000000000000002 2.0166666507720952 453.50000000000006 -17.478322982788082 3.5000000000000004 144.50000000000003 7.5000000000000009
decision_type=2 2 2 2 2 2 2 2 2 2 2 2 2 2 2 2 2 2 2 2 2 2 2 2 2 2 2 2 2 2 2 2 2 2 2
left_child=1 30 28 5 13 9 7 12 -9 14 27 -12 -6 -5 -4 -16 19 18 -15 21 34 -7 -18 24 -8 -25 -19 -11 31 -22 -1 -3 -30 -34 -2
right_child=20 2 3 4 6 16 23 8 -10 10 11 -13 -14 17 15 -17 22 26 -20 -21 29 -23 -24 25 -26 -27 -28 -29 32 -31 -32 -33 33 -35 -36
leaf_value=-0.13969199723829059 0.25572789893415243 -0.012500361767763361 0.034846493137595309 0.013443103735200281 0.024355281906631138 0.17777170135079393 -0.050315056959273956 0.0029904561323717918 -0.54864886067200047 0.11650750067383855 -0.32763127932075975 -0.002541946103770469 -0.023641838612673719 -0.21792123870453409 -0.33534693289185835 -0.013254907299112419 -0.16948012422460546 -0.15994893115078765 -0.017883542028395753 -0.057700864247311349 0.17385804271151753 0.060779333420467367 0.078371407014094036 0.13506959774883973 0.14395450784216818 -0.036568441458097047 -0.43172882733627538 -0.025231017280701557 0.1658172241572482 0.025272619739099823 -0.33692546757627762 0.066138141659526362 0.078739803152522089 0.14030022952048374 0.33658703664974593
leaf_weight=590.3265254390426 780.21840430190787 1740.2308996822685 916.79156681150198 1223.3074507163838 31133.70911120344 6215.1515888567083 1042.3130950564519 593.22341120522469 466.28458392620087 4060.6257698154077 873.2988733863458 2414.5948522090912 67247.040320056956 2516.2683357954957 1313.5153176644817 697.6755854357034 915.1193476440385 587.7592943366617 1527.6810326860286 1120.7953559714369 1701.2641553902067 3570.4519297303632 845.6271387306042 1403.9834787920117 5800.3539793542586 3209.6031423453242 952.08724274672568 1897.5929698264226 1565.5292432708666 1071.9260409048293 586.97119881678373 2179.1324586933479 3831.6365638193674 1234.1572091779672 734.57745061279275
leaf_count=2659 3470 5454 3971 3415 116119 15554 4810 3637 4029 14781 5139 9600 244148 17045 10833 4977 4956 3651 6254 4230 4608 13886 2951 5050 17529 11558 5713 7411 6052 4488 4107 6236 11997 3597 3657
internal_value=0 0.00103144 0.00288354 -0.00292319 -0.011029 0.0354536 -0.00207931 -0.0109176 -0.239508 -0.0235753 0.0141079 -0.0892107 -0.00844515 -0.156695 -0.142768 -0.224059 0.092238 -0.194092 -0.142563 0.115282 0.180191 0.135173 -0.0500691 0.0745665 0.114253 0.0155327 -0.328697 0.07125 0.0813934 0.116726 -0.238922 0.0310463 0.111029 0.0939142 0.295689
internal_weight=0 154273 153096 142545 117704 24841.2 110897 99440.3 1059.51 12174.1 9246.11 3287.89 98380.7 6807.1 2927.98 2011.19 12667.1 5583.8 4043.95 10906.4 4287.99 9785.6 1760.75 11456.3 6842.67 4613.59 1539.85 5958.22 10550.7 2773.19 1177.3 3919.36 6631.32 5065.79 1514.8
internal_count=597572 581349 574583 541247 442958 98289 406880 367933 7666 56712 36931 14739 360267 36078 19781 15810 41577 32663 23299 33670 16223 29440 7907 38947 22339 16608 9364 22192 33336 9096 6766 11690 21646 15594 7127
shrinkage=0.4


end of trees

feature_importances:
Column_136=60
Column_138=59
Column_139=41
Column_130=26
Column_129=21
Column_126=20
Column_137=17
Column_12=14
Column_127=14
Column_131=14
Column_125=10
Column_14=9
Column_132=9
Column_117=8
Column_10=7
Column_17=7
Column_105=7
Column_122=7
Column_123=7
Column_90=6
Column_128=6
Column_13=5
Column_16=5
Column_18=5
Column_39=5
Column_70=5
Column_74=5
Column_75=5
Column_107=5
Column_112=5
Column_116=5
Column_121=5
Column_11=4
Column_19=4
Column_30=4
Column_54=4
Column_59=4
Column_87=4
Column_104=4
Column_108=4
Column_113=4
Column_0=3
Column_15=3
Column_24=3
Column_25=3
Column_29=3
Column_44=3
Column_52=3
Column_57=3
Column_60=3
Column_82=3
Column_89=3
Column_100=3
Column_102=3
Column_118=3
Column_120=3
Column_135=3
Column_20=2
Column_37=2
Column_40=2
Column_45=2
Column_47=2
Column_55=2
Column_63=2
Column_64=2
Column_65=2
Column_67=2
Column_79=2
Column_83=2
Column_84=2
Column_85=2
Column_93=2
Column_101=2
Column_109=2
Column_115=2
Column_134=2
Column_1=1
Column_4=1
Column_5=1
Column_7=1
Column_9=1
Column_35=1
Column_48=1
Column_49=1
Column_50=1
Column_53=1
Column_69=1
Column_73=1
Column_76=1
Column_77=1
Column_78=1
Column_80=1
Column_92=1
Column_110=1
Column_111=1
Column_114=1
Column_119=1

parameters:
[boosting: gbdt]
[objective: binary]
[metric: binary_logloss]
[tree_learner: serial]
[device_type: cpu]
[data: ]
[valid: ]
[num_iterations: 10]
[learning_rate: 0.4]
[num_leaves: 64]
[num_threads: 0]
[force_col_wise: 0]
[force_row_wise: 0]
[histogram_pool_size: -1]
[max_depth: 8]
[min_data_in_leaf: 3370]
[min_sum_hessian_in_leaf: 36.6]
[bagging_fraction: 1]
[pos_bagging_fraction: 1]
[neg_bagging_fraction: 1]
[bagging_freq: 0]
[bagging_seed: 3]
[feature_fraction: 1]
[feature_fraction_bynode: 1]
[feature_fraction_seed: 2]
[extra_trees: 0]
[extra_seed: 6]
[early_stopping_round: 10]
[first_metric_only: 0]
[max_delta_step: 0]
[lambda_l1: 1.8]
[lambda_l2: 1.4]
[min_gain_to_split: 8.2]
[drop_rate: 0.1]
[max_drop: 50]
[skip_drop: 0.5]
[xgboost_dart_mode: 0]
[uniform_drop: 0]
[drop_seed: 4]
[top_rate: 0.2]
[other_rate: 0.1]
[min_data_per_group: 100]
[max_cat_threshold: 32]
[cat_l2: 10]
[cat_smooth: 10]
[max_cat_to_onehot: 4]
[top_k: 20]
[monotone_constraints: ]
[monotone_constraints_method: basic]
[monotone_penalty: 0]
[feature_contri: ]
[forcedsplits_filename: ]
[refit_decay_rate: 0.9]
[cegb_tradeoff: 1]
[cegb_penalty_split: 0]
[cegb_penalty_feature_lazy: ]
[cegb_penalty_feature_coupled: ]
[path_smooth: 0]
[interaction_constraints: ]
[verbosity: -1]
[saved_feature_importance_type: 0]
[max_bin: 255]
[max_bin_by_feature: ]
[min_data_in_bin: 3]
[bin_construct_sample_cnt: 200000]
[data_random_seed: 1]
[is_enable_sparse: 1]
[enable_bundle: 1]
[use_missing: 1]
[zero_as_missing: 0]
[feature_pre_filter: 0]
[pre_partition: 0]
[two_round: 0]
[header: 0]
[label_column: ]
[weight_column: ]
[group_column: ]
[ignore_column: ]
[categorical_feature: ]
[forcedbins_filename: ]
[objective_seed: 5]
[num_class: 1]
[is_unbalance: 0]
[scale_pos_weight: 1]
[sigmoid: 1]
[boost_from_average: 1]
[reg_sqrt: 0]
[alpha: 0.9]
[fair_c: 1]
[poisson_max_delta_step: 0.7]
[tweedie_variance_power: 1.5]
[lambdarank_truncation_level: 20]
[lambdarank_norm: 1]
[label_gain: ]
[eval_at: 10]
[multi_error_top_k: 1]
[auc_mu_weights: ]
[num_machines: 1]
[local_listen_port: 12400]
[time_out: 120]
[machine_list_filename: ]
[machines: ]
[gpu_platform_id: -1]
[gpu_device_id: -1]
[gpu_use_dp: 0]

end of parameters

pandas_categorical:null
