tree
version=v3
num_class=1
num_tree_per_iteration=1
label_index=0
max_feature_idx=139
objective=binary sigmoid:1
feature_names=Column_0 Column_1 Column_2 Column_3 Column_4 Column_5 Column_6 Column_7 Column_8 Column_9 Column_10 Column_11 Column_12 Column_13 Column_14 Column_15 Column_16 Column_17 Column_18 Column_19 Column_20 Column_21 Column_22 Column_23 Column_24 Column_25 Column_26 Column_27 Column_28 Column_29 Column_30 Column_31 Column_32 Column_33 Column_34 Column_35 Column_36 Column_37 Column_38 Column_39 Column_40 Column_41 Column_42 Column_43 Column_44 Column_45 Column_46 Column_47 Column_48 Column_49 Column_50 Column_51 Column_52 Column_53 Column_54 Column_55 Column_56 Column_57 Column_58 Column_59 Column_60 Column_61 Column_62 Column_63 Column_64 Column_65 Column_66 Column_67 Column_68 Column_69 Column_70 Column_71 Column_72 Column_73 Column_74 Column_75 Column_76 Column_77 Column_78 Column_79 Column_80 Column_81 Column_82 Column_83 Column_84 Column_85 Column_86 Column_87 Column_88 Column_89 Column_90 Column_91 Column_92 Column_93 Column_94 Column_95 Column_96 Column_97 Column_98 Column_99 Column_100 Column_101 Column_102 Column_103 Column_104 Column_105 Column_106 Column_107 Column_108 Column_109 Column_110 Column_111 Column_112 Column_113 Column_114 Column_115 Column_116 Column_117 Column_118 Column_119 Column_120 Column_121 Column_122 Column_123 Column_124 Column_125 Column_126 Column_127 Column_128 Column_129 Column_130 Column_131 Column_132 Column_133 Column_134 Column_135 Column_136 Column_137 Column_138 Column_139
feature_infos=[0:16] [0:6] [0:8] [0:8] [0:16] [0:1] [0:1] [0:1] [0:1] [0:1] [0:12923] [0:3233] [0:12917] [2:132] [3:25845] [-1.9397770166397095:98.653861999511719] [3.7259809970855713:159.86013793945312] [2.7613649368286133:152.07829284667969] [0.79833799600601196:166.13566589355469] [-1.9448369741439819:98.624855041503906] [0:2726] [0:110] [0:563] [0:10] [0:2730] [0:1083] [0:30] [0:49] [0:5] [0:1083] [0:1627] [0:64] [0:475] [0:6] [0:1629] [0:1083] [0:30] [0:140.75] [0:5] [0:1083] [0:661782.25] [0:638.75] [0:37744.1875] [0:9] [0:663410.25] [0:2] [0:2] [0:2] [0:1] [0:0.80995500087738037] [0:1] [0:1] [0:1] [0:0.57142901420593262] [0:0.60000002384185791] [0:1] [0:1] [0:1] [0:0.57142901420593262] [0:0.60000002384185791] [0:1] [0:1] [0:1] [0:0.57142901420593262] [0:0.60000002384185791] [0:0.25] [0:0.25] [0:0.25] [0:0.0625] [0:0.0625] [-502.57244873046875:16527.740234375] [0:955.788818359375] [0:4664.697265625] [0:77.544601440429688] [-503.66119384765625:16532.033203125] [-567.93853759765625:4774.43798828125] [0:223.21076965332031] [0:538.6591796875] [0:64.091140747070312] [-569.168701171875:4789.7236328125] [0:11113.951171875] [0:615.50018310546875] [0:3829.640380859375] [0:68.338874816894531] [0:11124.8037109375] [-281.26773071289062:5556.9755859375] [0:238.94720458984375] [0:1200.550537109375] [0:64.091140747070312] [-287.8358154296875:5562.40185546875] [0:30879978] [0:56952.48828125] [0:2417518.5] [0:1167.55029296875] [0:30940314] [0:1] [0:1] [0:1] [0:1] [0:1] [0:1] [0:1] [0:1] [0:1] [0:1] [-11.413535118103027:190.64485168457031] [0:60.223415374755859] [0:72.414131164550781] [0:49.223228454589844] [-11.416239738464355:191.38079833984375] [-194.15585327148438:0] [-118.54830169677734:0] [-158.66993713378906:0] [-132.80621337890625:0] [-194.16043090820312:0] [-187.41470336914062:0] [-111.64816284179688:0] [-156.41024780273438:0] [-130.16769409179688:0] [-187.39202880859375:0] [-205.81387329101562:0] [-137.58628845214844:0.70563399791717529] [-179.10939025878906:0] [-155.76138305664062:0] [-205.75247192382812:0] [1:31] [5:1383] [0:226244464] [0:170] [100:65534] [1:65535] [1:254] [1:254] [0:4344779] [0:2348975] [0:570000000] [-3.4968183040618896:3.5611093044281006] [0:1] [0:676] [1:679]
tree_sizes=6906 7023 7038 7036 6175 5093 3067 6055 7012 2626

Tree=0
num_leaves=64
num_cat=0
split_feature=138 136 138 0 139 138 139 136 138 136 138 139 136 138 130 139 85 70 129 138 130 129 20 139 129 138 138 138 120 54 136 138 74 138 139 5 138 138 4 138 90 136 13 82 137 50 139 131 136 139 138 136 139 80 139 138 139 136 102 136 136 107 131
split_gain=802473 58620 33691.3 14701.1 14553.3 10787.9 8583.28 7115.35 4854.92 4796.55 3423.69 3347.1 3322.23 2749.96 2286.93 2097.57 1869.96 1655.35 1639.74 1436.05 1387.43 1374.65 1368.44 1208.02 1018.71 961.264 947.2 923.24 848.957 848.209 841.834 804.959 797.031 630.664 2228.07 987.874 623.952 559.948 531.561 508.583 432.409 326.678 303.582 293.844 292.476 269.39 252.862 248.653 245.151 237.882 217.619 210.46 191.29 518.286 179.927 124.511 125.235 115.852 113.228 111.547 89.2968 87.9805 65.3815
threshold=34.500000000000007 -0.11278466135263442 20.500000000000004 1.5000000000000002 88.500000000000014 53.500000000000007 140.50000000000003 0.19340710341930392 50.500000000000007 -0.1054583080112934 74.500000000000014 133.50000000000003 -0.47828930616378779 28.500000000000004 48903.500000000007 57.500000000000007 45.534513473510749 18.964241981506351 18850.000000000004 12.500000000000002 42277.500000000007 8835.5000000000018 3.5000000000000004 93.500000000000014 10700.500000000002 14.500000000000002 25.500000000000004 26.500000000000004 -3.2396084070205684 0.0071215000934898862 -0.851538985967636 23.500000000000004 20.467843055725101 82.500000000000014 171.50000000000003 0.55050548911094677 40.500000000000007 24.500000000000004 1.5000000000000002 39.500000000000007 7.7042880058288583 0.64532223343849193 11.500000000000002 8.1562995910644549 0.61618858575820934 0.0080030001699924486 127.50000000000001 13.500000000000002 -1.1292245984077451 113.50000000000001 16.500000000000004 0.26766863465309149 123.50000000000001 7.681171417236329 109.50000000000001 40.500000000000007 66.500000000000014 0.13633579015731814 0.98975649476051342 0.45231132209301 0.38397409021854406 11.542218685150148 98.500000000000014
decision_type=2 2 2 2 2 2 2 2 2 2 2 2 2 2 2 2 2 2 2 2 2 2 2 2 2 2 2 2 2 2 2 2 2 2 2 2 2 2 2 2 2 2 2 2 2 2 2 2 2 2 2 2 2 2 2 2 2 2 2 2 2 2 2
left_child=2 5 9 7 12 6 23 10 14 15 16 13 31 37 36 30 24 -10 -9 41 27 -12 -8 55 -3 -17 -14 -13 -20 -24 -1 -4 -25 34 52 -36 -5 57 -15 -34 59 -11 -19 -23 -40 -37 50 -29 -33 -39 -21 -42 -7 -54 -27 56 -2 -6 -38 -22 -48 -41 -35
right_child=1 3 4 8 11 33 22 18 17 19 21 20 26 38 -16 25 -18 42 28 46 40 43 29 32 -26 54 -28 47 -30 -31 -32 48 39 62 35 45 58 49 44 61 51 -43 -44 -45 -46 -47 60 -49 -50 -51 -52 -53 53 -55 -56 -57 -58 -59 -60 -61 -62 -63 -64
leaf_value=0.77620533739982145 -1.6410359039126281 1.3037494327475485 0.088059421742891164 -0.17411396047368877 1.359556195589404 -1.7494227745936988 1.2351847763913046 1.7304433412338922 0.11761086664722398 2.054765400370564 0.20270599601827821 1.5603013540768425 1.017468986954345 0.87675346264145437 0.56036743914564613 1.9330004649533432 -0.44609118343753074 -1.5839156048387235 0.39722406851920844 1.9378301131924935 1.763006105613099 -1.7422355761932857 0.50014070115296538 -0.16216883962293149 0.36921495176800723 1.41947126145507 0.070327112755675936 0.68751663780482586 1.3119901632053135 -0.60182853285552995 1.4824846715331665 -1.3655774447766682 -0.48217643403484045 -1.7651810826566712 0.18439710362942496 -0.65242016236936329 -0.71527267566592356 0.81438267510344342 -0.15238304255964485 -1.0470447330416535 1.3928579228421152 2.1344009440600633 -0.85817894533678785 -0.8086654204469641 0.50652824520625439 -1.4496867418619044 1.9106983831689797 1.1885202307498508 -0.68960148993042547 1.2754235295596481 1.7301313473773152 1.7225432966471486 -0.83385608658666555 -1.6374719386298955 1.7015971761490807 -1.6635469312431781 -1.0076298408959758 1.6187211924349887 -1.3341876578388725 1.9468926865867635 2.0237316061008688 -1.5218633770331051 -1.471456542038357
leaf_weight=1059.7817003056407 353.83722230792046 927.4542675241828 428.05641853064299 772.08571018278599 1485.1921444535255 5081.8541375920177 610.70364540070295 2051.0979616641998 323.9968626499176 30653.668222941458 353.90986602753401 2396.2794741913676 996.02900616824627 667.67985624819994 1302.7274905815721 10494.735885031521 688.95779900997877 2084.982734836638 828.07007203996181 5990.5258867070079 3060.8592354133725 454.61961146444082 742.95645000040531 564.87232898175716 1071.5727898329496 2066.4957261309028 830.04752065241337 855.87024164199829 904.92738325893879 517.17215695977211 2156.0559516921639 503.76953861862421 494.96696420013905 17757.969878569245 382.32422620803118 416.2994192019105 411.12190932035446 968.86223644018173 677.03034529834986 583.52974834293127 1641.9294255077839 90014.160028479993 367.7289105951786 303.11999934911728 575.07817564159632 492.08353659510612 4572.3618881478906 868.22935998439789 670.92871485650539 964.43185537308455 3560.400120601058 1690.9794433563948 495.51876026391983 1953.6520326137543 1846.1787082105875 1662.0615761950612 539.65707696974277 1494.4467165246606 387.99003532528877 3028.6239963248372 13303.390414185822 683.48459898680449 849.75783051550388
leaf_count=4426 3432 2373 2448 5034 3754 53280 1723 2763 1908 20386 2044 4638 3312 2517 5910 10095 5101 21781 4274 6457 4030 5218 3695 3743 5550 5071 4576 3769 2293 4157 5236 4811 3705 198365 2259 3469 3290 3832 4412 5301 3959 30899 3129 2634 2767 5157 4417 2594 5013 2632 5599 2437 4247 20879 2895 16601 4602 2710 3737 2317 8205 6912 8792
internal_value=1.34317 -1.04828 1.94152 0.113992 1.21856 -1.49806 -0.758965 0.706333 -0.679818 2.04539 0.0782581 1.42692 -0.0200231 1.05635 -0.0830467 1.72431 0.478446 -1.29466 1.33832 2.08357 1.61418 -0.882725 0.429307 -1.21295 0.800438 1.83029 0.58396 1.3004 0.872132 0.0425266 1.25069 -0.704009 -0.861889 -1.67973 -1.52561 -0.720362 -0.612451 1.31502 0.39706 -1.08211 1.75177 2.11421 -1.47853 -1.38039 0.145424 -1.09364 1.94854 0.937159 -0.986809 1.04212 1.8609 1.56138 -1.66253 -1.47833 1.55367 -1.52915 -1.26878 1.4909 -1.02641 1.85525 1.9951 -1.31027 -1.75227
internal_weight=0 47417.1 189522 13234.4 23804.3 34182.7 6753.24 7583.73 5650.63 165718 3799.63 20375.5 3428.83 6832.72 2873.93 17623.2 2687.98 2776.71 3784.1 148095 13542.8 1111.65 1870.83 4882.41 1999.03 14407.4 1826.08 4120.38 1733 1260.13 3215.84 1602.75 2326.85 27429.5 8821.73 1290.71 1571.2 4912.93 1919.79 1761.98 9422.39 120668 2452.71 757.74 1252.11 908.383 27426.7 1724.1 1174.7 1933.29 9550.93 3332.91 7531.02 2449.17 3912.67 2555.56 893.494 2979.64 799.112 6089.48 17875.8 1267.01 18607.7
internal_count=597572 427358 170214 77039 66528 350319 53871 32250 44789 103686 22920 46368 20160 22624 17971 27723 13024 26818 9330 75963 23744 9896 9575 44296 7923 18061 7888 11001 6567 7852 9662 12272 19661 296448 89291 10885 12061 12928 9696 15918 12743 51285 24910 7852 7179 8626 24678 6363 9824 6464 12056 6396 78406 25126 7966 24635 8034 6464 7027 6347 12622 12213 207157
is_linear=0
shrinkage=1


Tree=1
num_leaves=64
num_cat=0
split_feature=138 138 136 139 138 138 130 136 139 138 139 139 70 136 129 130 126 125 24 137 9 79 37 130 60 136 39 117 128 126 136 12 138 12 136 137 139 138 136 30 123 139 0 82 24 139 138 136 129 107 136 14 138 47 138 72 94 40 139 130 80 139 138
split_gain=65736.5 9655.46 5513.94 3047.08 1652.1 1530.86 1530.31 1918.03 1226.79 1025.18 883.692 880.738 847.576 725.13 611.163 574.436 495.643 492.585 421.458 416.688 404.285 392.492 377.588 408.844 310.266 310.111 415.917 491.547 511.577 299.701 293.301 287.489 266.112 255.15 253.391 199.07 196.22 194.59 159.386 378.323 267.964 155.146 150.983 137.87 131.229 131.189 113.176 109.909 106.195 96.8092 86.4482 78.8063 71.2454 67.0572 56.6296 54.6972 87.9451 38.8531 35.1776 33.915 29.4005 28.214 17.5073
threshold=23.500000000000004 55.500000000000007 0.26766863465309149 169.50000000000003 14.500000000000002 16.500000000000004 46093.500000000007 -0.15792637318372724 199.50000000000003 41.500000000000007 47.500000000000007 70.500000000000014 10.588975429534914 0.36817699670791632 44091.500000000007 32608.500000000004 73.500000000000014 2.5000000000000004 40.500000000000007 0.68317949771881115 0.80909100174903881 3.3992685079574589 1.9166665077209475 62845.500000000007 0.031008499674499038 -0.92650213837623585 3.522727489471436 -7.6068780422210684 1.0000000180025095e-35 76.500000000000014 0.86174455285072338 8.5000000000000018 10.500000000000002 7.5000000000000009 -0.33803401887416834 0.62528598308563244 157.50000000000003 64.500000000000014 -0.097356788814067827 35.500000000000007 -3.1963809728622432 133.50000000000003 1.5000000000000002 4.8261759281158456 24.500000000000004 87.500000000000014 18.500000000000004 -0.38414590060710901 2830.5000000000005 15.00238084793091 -0.35719250142574305 10.500000000000002 10.500000000000002 0.42495299875736242 6.5000000000000009 25.256366729736332 660.27444458007824 921.73611450195324 95.500000000000014 52013.500000000007 18.879976272583011 96.500000000000014 65.500000000000014
decision_type=2 2 2 2 2 2 2 2 2 2 2 2 2 2 2 2 2 2 2 2 2 2 2 2 2 2 2 2 2 2 2 2 2 2 2 2 2 2 2 2 2 2 2 2 2 2 2 2 2 2 2 2 2 2 2 2 2 2 2 2 2 2 2
left_child=2 3 5 9 30 10 38 25 33 12 43 -7 34 16 -10 18 20 31 21 22 -14 -5 23 29 35 -8 27 28 -27 -11 52 -17 50 42 -2 -19 46 -28 51 40 60 47 -9 -1 -15 -34 -6 -13 -29 -49 -12 -3 58 -39 -32 57 -57 62 -4 -38 -40 -52 -53
right_child=1 6 4 15 36 11 7 8 14 19 32 41 13 44 -16 17 -18 24 -20 -21 -22 -23 -24 -25 -26 26 37 48 -30 -31 54 -33 45 -35 -36 -37 59 53 39 -41 -42 -43 -44 -45 -46 -47 -48 49 -50 -51 61 55 -54 -55 -56 56 -58 -59 -60 -61 -62 -63 -64
leaf_value=-0.1741021629170641 -0.084796501693230719 -0.33757012147748544 0.55172827303106386 0.060694050900327041 0.3862885816548175 -0.38246535697576267 -0.75859066951460075 -1.0845948215432599 0.39219430847623526 -0.65230752616795529 0.38960668000812598 -0.082001191736015805 -0.057785655163832071 0.248074614882136 -0.30125095645885047 0.27149113615124426 0.079420146064103567 -0.29156005565424292 0.29945021357332113 0.18792965690158739 -0.40065401492058822 -0.57887099261724906 0.091893151436177101 -0.058610950554402345 0.32349008193250306 -0.46413936024771157 -0.20077360829148502 -0.24656801022705299 0.48953109295054914 -0.064308633308671828 0.69919269546891449 0.58178718900371007 0.20175542038360861 -0.22007682408448323 0.29087243324401774 0.1206818882345664 0.41834798698745695 -0.74248859770310827 -1.0526097356422213 -0.27994441145627874 -1.3822286279210849 0.27322615391138633 -0.47840899153868405 0.15027329714810625 -0.033827685460609068 0.39078547085534326 0.20052037310638532 0.25871712223400684 -0.77441357320548743 0.025629979270261428 0.46906156476326 -0.64435980638915924 0.52758653085970009 -0.40734483981149411 0.63850473124591878 -0.23830060798480054 -0.7620588577897619 -0.42083379858949338 0.63495945718694968 0.52862854807646487 -0.74684238375175216 0.56208736650473279 -0.74855223942867966
leaf_weight=1066.097744949162 1141.376859664917 275.63120121508837 3788.6857106238604 757.59008400142193 3293.694609798491 1565.1221237853169 3445.5421672537923 414.836241312325 1909.0602490603924 4300.8741329759359 2816.8739226236939 1275.9380293488503 1829.8879738822579 1232.6753140613437 739.15827402472496 3199.2996914312243 1386.4577572643757 989.86279260367155 807.96577567607164 405.58559283614159 7604.1774478405714 846.05466067045927 430.53271650522947 688.29826910793781 1292.2378023825586 419.71263111382723 397.41705361753702 262.45952552556992 539.51259967684746 416.52443344891071 34724.545097377151 2175.3655924610794 2340.0438567660749 553.98666243255138 2180.8525184318423 970.96427610144019 2990.1279644072056 2445.420929081738 289.35186793655157 349.13594450056553 644.18838591128588 2850.6445129029453 359.78878325968981 1145.6920661367476 1558.7385929338634 5335.2075359635055 2611.1559442132711 1541.3856893703341 563.42615597695112 1548.1589043587446 2985.2233797200024 1475.3812843412161 6141.7746581174433 350.42697232216597 10653.157171241939 305.85494676232338 294.30331991612911 234.15049187839031 12818.642197992653 3043.5690148919821 811.57771007716656 5238.2372264266014 10297.593220993876
leaf_count=3624 5979 3000 5371 2215 5107 5946 49488 3271 6187 39026 4156 3853 7992 2559 5249 6239 5056 4046 2422 2072 38036 4686 2324 4006 2958 4682 4198 2939 4146 3021 17299 2545 5302 4080 4662 2473 3758 34593 2612 3150 6114 4862 3533 2946 4736 7799 5135 2884 7645 3958 4515 18109 6944 4491 7679 3585 4017 2979 9552 2611 9494 4829 144827
internal_value=0 -0.31269 0.526279 -0.0823428 0.615061 0.28686 -0.600399 -0.430663 -0.0575166 -0.21629 0.382464 0.058553 -0.132944 -0.204903 0.197139 0.198512 -0.281176 0.276988 -0.0806788 -0.441689 -0.334575 -0.274682 -0.48614 -0.532891 0.0758525 -0.606318 -0.49991 -0.244807 0.0682294 -0.601238 0.654237 0.397953 0.428379 -0.567469 0.160701 -0.08559 0.391114 -0.641097 -0.740609 -0.914528 -1.03886 0.154808 -0.809852 -0.00439096 0.0893979 0.333712 0.304875 0.0765288 -0.612223 0.14323 0.493777 -0.711907 0.59254 -0.702151 0.685057 -0.719737 -0.503078 -0.730167 0.616267 0.474758 -0.832387 0.528898 -0.735927
internal_weight=0 61593.2 109774 34215.3 80065.4 29708.6 27377.9 12400.7 3976.83 23176 20927.4 8781.25 16934.2 13611.9 2648.22 11039.3 10820.5 8627.73 2411.61 6241.82 9434.07 1603.64 5836.23 5405.7 3253.06 8423.92 4978.38 1785.11 959.225 4717.4 68126.8 5374.67 18715.6 1328.61 3322.23 1960.83 11938.5 3193.26 14977.2 2094.25 1745.12 7216.13 774.625 2211.79 2791.41 7675.25 5904.85 4365.48 825.886 3089.54 11040.3 12882.9 22749.1 2795.85 45377.7 12607.3 600.158 12007.1 16607.3 6033.7 1100.93 8223.46 11773
internal_count=597572 479442 118130 147053 63456 54674 332389 134502 22320 119469 33171 21503 69020 58379 11436 27584 51084 18261 9323 50449 46028 6901 48377 46053 9477 112182 62694 19412 8828 42047 46845 8784 26601 10884 10641 6519 16611 43282 197887 21370 18220 15557 6804 6570 7295 13101 10242 10695 10584 6842 13500 176517 21867 39084 24978 173517 7602 165915 14923 6369 12106 9344 162936
is_linear=0
shrinkage=0.65


Tree=2
num_leaves=64
num_cat=0
split_feature=138 138 136 136 107 13 45 138 57 130 137 136 49 138 11 130 11 129 137 37 70 130 135 138 129 126 125 114 10 137 130 88 138 137 139 128 138 80 22 104 10 129 136 68 136 24 115 137 19 136 17 131 127 136 136 139 79 132 138 139 138 136 13
split_gain=24757.3 6554.79 2954.41 1794.76 1308.42 877.682 873.771 973.502 767.343 867.012 736.058 651.715 508.715 502.428 480.817 459.53 531.649 421.239 415.972 378.886 400.867 437.845 354.147 348.01 322.883 312.769 299.059 295.752 289.451 387.928 291.429 261.216 257.575 243.288 239.828 231.66 223.363 213.357 289.41 181.401 209.789 139.803 123.903 121.891 111.71 111.419 99.2116 80.7468 126.753 66.2414 65.4344 62.5471 61.3865 59.8158 43.3634 32.9225 27.2239 27.007 22.3687 21.8782 15.1345 12.5605 10.2058
threshold=17.500000000000004 68.500000000000014 0.49016119539737707 -0.53500041365623463 13.908445358276369 16.500000000000004 0.096781499683856978 38.500000000000007 0.45307900011539465 53438.500000000007 0.36260107159614569 -0.56383949518203724 0.020669999532401565 8.5000000000000018 1.5000000000000002 40868.500000000007 1.0000000180025095e-35 622.50000000000011 0.64478358626365673 1.4499999880790713 56.142576217651374 46093.500000000007 1.4200000166893008 28.500000000000004 65504.500000000007 29.500000000000004 2.5000000000000004 -8.0998053550720197 145.50000000000003 0.41582269966602331 50333.500000000007 4.469362974166871 36.500000000000007 0.60741937160491954 63.500000000000007 4.5000000000000009 9.5000000000000018 13.633452892303469 3.5000000000000004 0.98019549250602733 380.50000000000006 4981.5000000000009 0.054549362510442741 0.0039755001198500403 1.183228671550751 66.500000000000014 -16.954409599304196 0.55648383498191845 9.5099830627441424 -0.65926912426948536 20.374502182006839 106.50000000000001 1.5000000000000002 -0.05787259712815284 0.86174455285072338 96.500000000000014 15.84107542037964 6.5000000000000009 95.500000000000014 97.500000000000014 14.500000000000002 0.20538470894098285 6.5000000000000009
decision_type=2 2 2 2 2 2 2 2 2 2 2 2 2 2 2 2 2 2 2 2 2 2 2 2 2 2 2 2 2 2 2 2 2 2 2 2 2 2 2 2 2 2 2 2 2 2 2 2 2 2 2 2 2 2 2 2 2 2 2 2 2 2 2
left_child=2 3 11 10 15 6 7 14 19 58 49 33 25 44 -6 17 22 -5 32 24 21 -21 26 -19 28 -12 -17 -25 29 51 -31 42 41 -1 57 -33 55 -8 -39 40 -27 -14 -18 -9 59 -22 -34 53 -49 56 54 -3 -38 -30 -15 -36 62 -13 -10 -4 -54 -57 -2
right_child=1 8 13 4 5 -7 37 43 9 -11 12 34 18 50 -16 16 31 23 -20 20 45 -23 -24 27 -26 39 -28 -29 47 30 -32 35 46 -35 36 -37 52 38 -40 -41 -42 -43 -44 -45 -46 -47 -48 48 -50 -51 -52 -53 60 -55 -56 61 -58 -59 -60 -61 -62 -63 -64
leaf_value=-0.2076348364965715 -0.57485814445166705 -0.68231660898296909 0.48985291196099706 0.33964523036166883 -0.033201390699838705 0.59321717011472364 0.36293665347590748 -0.59966905702791873 -0.38393872181636274 0.63084178055404527 0.44826450388067701 0.20127298822657505 -0.41378864612866334 0.42087086668745727 -0.39942956736893248 0.44090410260234958 0.0024454438309391016 0.1086033917207082 -0.010250047611463716 -0.48178023356884275 -0.75165859929535284 0.51678281417126215 0.014183605821290201 0.054355392278215987 0.26822641600602098 0.18365462581265121 0.18471929255891364 -0.3756310357451742 -0.6795972507130319 -0.51770525883251695 0.19578360814316106 0.061243528140237452 -0.77866709008434087 0.13843777354657272 0.35517345296111347 -0.41145166021810808 0.19377866580258141 -0.13001129603632375 0.19364201840134784 0.29390438325835755 -0.37043724683895279 -0.022053511648984531 0.30768161270024297 -0.14230455092218278 0.64837976602751723 -0.11997369610968503 -0.42363946487150367 -0.043763690847205952 -0.65270523169021999 -0.26296525169523 0.33454113813520159 -0.28993681412677319 0.34629413139224036 -0.90688063583164902 0.52438981441613719 0.42179182551339139 -0.43846964732334087 0.059021476177389481 -0.7368066261466264 0.57712740733943291 0.26562086753696479 0.50562464140457641 -0.75881430948671991
leaf_weight=1269.5983647853136 442.18655953556299 1344.3114094417542 2363.2797495331615 1335.7973212059587 7129.4074264056981 768.39426276832819 1022.9440162628889 2485.2353798877448 203.63361787237227 495.7892452199012 648.8270775899291 1136.7703164927661 950.84683940932155 4392.563598787412 1931.4669450521469 5538.6957888472825 1109.0569191239774 2511.5255429558456 1416.6714977025986 326.20844233781099 530.51734616793692 421.67897862009704 1592.9680008348078 1035.3293821103871 167.75585570000112 408.4716286174953 3052.8553635776043 1868.9460994713008 7294.5120371039957 412.49314106814563 570.36541859805584 867.77003801614046 875.88005936518312 2623.4861654192209 2237.7891092635691 858.19502808898687 2909.1320689674467 2284.723979504779 2372.2587611880153 411.02273498103023 920.58426205441356 681.75200974196196 1191.9036695584655 299.57074864581227 16331.405517814681 171.92951721325517 656.88066361099482 236.37938623316586 436.73310339823365 227.07037847861648 2129.9259242229164 242.92428543418646 3416.5793922916055 663.83063052408397 3953.5398953985423 2883.6117191314697 281.6405500434339 1322.1753676533699 270.758196067065 8448.8210498336703 2303.311902821064 2394.4720703661442 1074.3325714208186
leaf_count=4379 6615 28736 4849 4411 22039 1572 2850 26557 3567 2986 2726 2952 5501 6772 7950 9402 4344 5810 5907 5458 10252 2484 4973 5780 1963 2537 10352 12060 177650 7524 4064 2665 13168 5959 4571 3843 6328 10872 8258 2370 8450 2980 2450 2455 13264 2769 8623 3744 7481 2308 4382 4224 6174 8980 4428 4112 3851 3902 6420 9593 4398 3062 16466
internal_value=0 -0.131106 0.454162 -0.0180738 0.041856 -0.0850351 -0.115052 -0.215637 -0.526292 0.0273257 -0.279963 0.267472 -0.178889 0.565685 -0.111756 0.152769 0.21911 0.0125449 -0.305775 -0.568481 -0.250688 0.0760857 0.298175 -0.0675336 -0.608638 0.0629583 0.350376 -0.221118 -0.622152 -0.42608 -0.100274 0.0181608 -0.436758 0.0245613 0.318093 -0.171815 0.347032 0.0940607 0.0340603 -0.0788973 -0.19729 -0.252739 0.162326 -0.551959 0.612758 -0.60318 -0.629723 -0.679985 -0.445208 -0.625482 0.443265 -0.625076 0.274339 -0.699252 0.470473 0.429895 -0.668823 0.126426 -0.595499 0.558494 0.314571 0.460715 -0.708487
internal_weight=0 62043 60116.5 48253.2 39257 18294 17525.6 11845.7 13789.8 970.181 8996.17 22496.9 6970.94 37619.5 9060.87 20963 14211.4 6751.6 4582.03 12819.6 1450.33 747.887 10184.5 5415.8 11369.3 2388.91 8591.55 2904.28 11201.5 2570.09 982.859 4026.93 3165.36 3893.08 18603.8 1725.97 16144.9 5679.93 4656.98 1740.08 1329.06 1632.6 2300.96 2784.81 27143.5 702.447 1532.76 8631.46 673.112 2025.23 10476 1587.24 8629.02 7958.34 8346.1 7515.87 1798.16 2458.95 474.392 10812.1 5719.89 5278.08 1516.52
internal_count=597572 508447 89125 230145 148643 82553 80981 59001 278302 12973 81502 45837 52262 43288 29989 66090 38029 28061 36179 265329 20963 7942 24727 23650 244366 16083 19754 17840 242403 44548 11588 13302 30272 10338 35499 6508 28645 21980 19130 13357 10987 8481 6794 29012 27706 13021 21791 197855 11225 29240 15582 32960 16900 186630 11200 11745 26932 6854 9987 14442 10572 7174 23081
is_linear=0
shrinkage=0.65


Tree=3
num_leaves=64
num_cat=0
split_feature=138 138 136 139 138 136 127 112 139 126 13 11 129 127 16 54 132 11 138 139 11 131 129 126 13 128 132 137 17 136 136 100 138 15 137 83 137 129 80 20 137 105 29 35 138 59 137 138 138 137 25 136 116 139 14 72 139 138 16 87 120 59 138
split_gain=9373.71 3482.88 1788.55 957.931 950.684 463.507 412.591 500.725 404.928 387.12 362.743 321.497 327.996 421.729 380.556 325.655 297.018 265.04 257.262 570.413 414.659 350.416 309.089 298.733 256.982 245.711 237.047 225.545 221.519 207.269 196.595 191.084 183.707 145.386 141.491 140.705 137.118 133.258 119.879 115.311 111.5 110.656 151.409 109.283 85.2571 60.1751 91.2238 56.7982 53.0696 50.9821 40.7033 33.4325 28.0227 20.7251 17.4234 12.2847 12.0648 11.9915 9.99668 7.76542 6.99745 5.40687 3.3612
threshold=13.500000000000002 74.500000000000014 0.72575566172599804 118.50000000000001 32.500000000000007 0.49016119539737707 1873.5000000000002 -2.5879594087600704 39.500000000000007 100.50000000000001 5.5000000000000009 1.5000000000000002 26195.500000000004 1.0000000180025095e-35 15.758483409881594 0.0064800002146512279 4.5000000000000009 1.5000000000000002 109.50000000000001 160.50000000000003 1.0000000180025095e-35 39.500000000000007 1236.5000000000002 129.50000000000003 6.5000000000000009 8.5000000000000018 4.5000000000000009 0.4846786260604859 26.437218666076664 0.12538930028676989 1.3643049597740176 0.4655465036630631 47.500000000000007 6.3612794876098642 0.64854028820991527 12.299930572509767 0.63499310612678539 14429.500000000002 8.1122283935546893 2.5000000000000004 0.69638898968696605 14.000440597534181 6.5000000000000009 2.0454545021057133 5.5000000000000009 0.018520999699831012 0.63815101981163036 8.5000000000000018 9.5000000000000018 0.55144900083541881 2.5000000000000004 -0.033735990524291985 -7.6071619987487784 105.50000000000001 50.500000000000007 9.9281406402587908 136.50000000000003 2.5000000000000004 17.488730430603031 1.3158965110778811 -10.742751121520994 0.012905499897897245 4.5000000000000009
decision_type=2 2 2 2 2 2 2 2 2 2 2 2 2 2 2 2 2 2 2 2 2 2 2 2 2 2 2 2 2 2 2 2 2 2 2 2 2 2 2 2 2 2 2 2 2 2 2 2 2 2 2 2 2 2 2 2 2 2 2 2 2 2 2
left_child=2 3 8 4 26 9 18 39 -1 11 33 12 14 -14 -5 25 24 -12 19 54 21 22 -21 49 -6 -13 37 -17 41 43 47 32 -18 -7 -30 36 -26 45 -33 -8 -40 -28 -43 -10 -45 -2 -47 53 52 51 -46 -20 56 -4 -3 -22 60 -32 -50 -41 -31 -34 -55
right_child=1 6 30 5 16 10 7 -9 29 -11 17 15 13 -15 -16 27 31 -19 23 20 55 -23 -24 -25 35 -27 28 -29 34 48 57 38 61 -35 -36 -37 -38 -39 40 59 -42 42 -44 44 50 46 -48 -49 58 -51 -52 -53 -54 62 -56 -57 -58 -59 -60 -61 -62 -63 -64
leaf_value=-0.12027391404311905 0.1153890092921778 -0.37823681242769108 0.41175462948564268 0.24713788447160198 0.24472059652644165 0.13959926800614481 0.015547920388490658 0.71160790244442096 0.0083396488893859623 0.48403339710204168 0.41165463198563179 0.19656281714274945 -0.27314221714221121 0.08006987012937937 0.019968136893806335 -0.55546807521227204 0.018828329979394053 0.11037747895364736 -0.65859612149624081 0.38834456026722608 -0.93107157692357001 0.66106933648643451 -0.35257594081336646 0.49497552774325393 -0.41118174541492231 -0.24939469019255636 0.11164613004206694 -0.15413322596494997 -0.49359973528259476 0.30951978523638246 0.6296721282740313 -0.012007659804495557 -0.67774848071143234 -0.16085658386122037 -0.12969784374647492 0.20740268148118027 0.083715953634391521 0.23015284935522115 -0.60334991368444035 -0.35695965893705445 -0.060601337324421869 -0.17366384439858762 0.047819248106512759 0.32841755484931917 0.089563438567276873 -0.18340332501176126 0.091785251792079067 0.36954624347402265 0.29545632583626885 -0.17804112746771339 0.23065466057313438 -0.96802798749131858 0.27599559801980139 0.55270450685589811 -0.66118170568349277 -0.56151437520359948 0.45760392045034032 0.55484172404994658 0.20164924802196196 -0.72583178692395045 0.40848781767891107 -0.37369296228849519 0.48085721297485773
leaf_weight=1312.5457719936967 1514.8936799969524 177.35034670028836 1476.2481471644714 5314.9396963110194 552.48574577271938 1667.2457964327186 167.00976856052876 267.17111925035715 1431.3822673466057 766.96928502433002 3523.7629152312875 1652.4177027735859 2508.1006311606616 3288.5096647553146 7623.6716156881303 823.87165612261742 629.64569162204862 1961.1263751490042 3048.8954829955474 335.69075490999967 163.99200117122382 300.24720436800271 783.7189700929448 91.115721460431814 1346.8291464373469 756.17829573154449 1851.464370790869 2256.7794410428032 754.5594087112695 1212.2972586993128 5045.8364703888074 192.97536773048341 201.03849107772112 1142.7125543626025 1224.1881368029863 229.6644828133285 271.42912870459259 1933.1406924575567 2325.0482141263783 89.403959218412638 188.97247719578445 2859.3105843160301 2357.0850021410733 1848.9911097157747 2061.0663529932499 1095.6272492483258 927.95302354730666 2565.3009586781263 1403.4097720142454 109.95918612368405 1672.5945242214948 224.46231725718826 1355.7400620151311 2385.4103481760249 1653.1925859656185 181.78454574849457 1419.5762509182096 2908.138170786202 1422.3384278416634 217.35630290396512 1204.6351768355817 124.78319056145847 2170.8813558081165
leaf_count=4523 5424 4335 4603 18767 5318 3657 3898 1968 4055 2265 5988 6228 13640 12851 38668 7270 5040 5218 127310 4504 4032 3364 16430 734 22438 3868 5454 10992 4504 3244 6210 2875 5665 4056 4176 2004 1623 4868 41380 3511 1079 11373 7032 3575 5322 4317 2551 5450 3077 2895 4059 4060 3292 3927 65746 4666 2393 4714 3785 7439 3053 2519 4290
internal_value=0 -0.0527764 0.376825 0.00597955 -0.104172 0.0742026 -0.45834 0 0.223862 0.0298304 0.207397 0.0152555 0.0559269 -0.0721507 0.1136 -0.122842 -0.320334 0.304699 -0.506687 -0.381767 -0.115324 0.0379284 -0.126729 -0.6346 -0.140139 0.0548999 -0.0136112 -0.262978 -0.0784249 0.254174 0.5276 -0.437265 -0.180783 0.0160461 -0.270727 -0.257381 -0.325845 0.0928506 -0.526202 -0.397704 -0.564132 -0.0239926 -0.0728819 0.171349 0.212451 0.0166871 -0.0553829 0.457346 0.326097 -0.666408 0.153868 -0.681544 0.36681 0.493922 -0.636269 -0.751972 0.39776 0.602933 0.249748 -0.633544 0.360702 -0.575792 0.519525
internal_weight=0 61678.7 32896.4 53867.4 20581.1 33286.3 7811.35 740.941 16344.6 24991.4 8294.85 24224.5 18735.2 5796.61 12938.6 5489.25 6062.87 5484.89 7070.41 3595.98 1765.43 1419.66 1119.41 3474.43 2400.41 2408.6 14518.2 3080.65 9046.61 15032 16551.8 3662.46 955.467 2809.96 1978.75 1847.92 1618.26 5471.61 2707 473.77 2514.02 7067.86 5216.4 7014.03 5582.65 3538.47 2023.58 8597.84 8018 3383.32 3733.66 3273.36 5192.25 6032.54 1830.54 345.777 3836.51 7953.97 2825.75 306.76 2416.93 325.822 4556.29
internal_count=597572 528000 69572 273108 139640 133468 254892 16816 40378 114549 18919 112284 83926 26491 57435 28358 89941 11206 238076 103077 32996 24298 20934 134999 31383 10096 49699 18262 32539 35855 29194 58558 13224 7713 8680 26065 24061 17160 45334 14848 42459 23859 18405 17011 12956 12292 6868 18270 18844 134265 9381 131370 11982 12820 70081 8698 8690 10924 6862 10950 6297 8184 8217
is_linear=0
shrinkage=0.65


Tree=4
num_leaves=56
num_cat=0
split_feature=136 138 136 138 42 16 13 131 137 133 118 48 110 10 129 2 130 129 112 69 136 137 72 115 24 14 138 130 128 53 138 67 139 29 107 87 135 12 122 72 129 129 55 136 17 39 137 126 136 124 137 138 14 128 139
split_gain=3591.14 1973.04 706.904 455.602 430.477 571.217 451.172 512.102 394.454 559.38 410.617 374.046 343.743 372.972 308.53 395.616 271.667 266.602 251.577 248.16 245.952 224.986 219.112 217.709 216.817 211.075 203.218 185.987 184.237 170.551 126.717 124.87 205.988 110.489 126.664 110.377 109.037 103.449 91.6222 201.722 84.1305 81.7887 80.9639 73.869 62.1668 58.3381 213.029 52.9381 52.4674 69.0718 45.3178 28.6749 26.8599 16.2639 15.3042
threshold=0.86174455285072338 46.500000000000007 -0.54910454154014576 6.5000000000000009 0.24641600251197818 17.122601509094242 17.500000000000004 15.500000000000002 0.7362637221813203 1.0000000180025095e-35 -21.918080329895016 0.16904799640178683 -2.4252189397811885 8.5000000000000018 12275.500000000002 1.5000000000000002 29594.500000000004 65427.500000000007 -2.5498050451278682 4.8500000048079535e-05 1.0000000180025095e-35 0.50595986843109142 11.586979389190676 -23.403185844421383 21.500000000000004 203.50000000000003 19.500000000000004 37871.500000000007 1.0000000180025095e-35 0.24038449674844745 64.500000000000014 0.017322000116109851 198.50000000000003 1.5000000000000002 15.97585439682007 7.5530595779418954 3.8033332824707036 1.0000000180025095e-35 -29.83109092712402 10.8321590423584 266.50000000000006 6763.5000000000009 0.040938999503850944 1.4840244054794314 18.342439651489261 1.0555555224418642 0.40025508403778082 98.500000000000014 -0.22647784650325772 -5.1878726482391349 0.45286515355110174 10.500000000000002 502.50000000000006 2.5000000000000004 129.50000000000003
decision_type=2 2 2 2 2 2 2 2 2 2 2 2 2 2 2 2 2 2 2 2 2 2 2 2 2 2 2 2 2 2 2 2 2 2 2 2 2 2 2 2 2 2 2 2 2 2 2 2 2 2 2 2 2 2 2
left_child=1 8 17 43 6 24 7 14 9 10 21 16 13 -9 15 -4 25 31 27 26 -18 38 28 -24 -6 -12 -13 30 -23 -16 -7 37 50 34 48 -21 44 -3 -1 -40 -35 -26 -29 53 -5 46 -39 -47 -10 -50 -33 54 -53 -2 -42
right_child=3 2 4 36 5 18 -8 12 33 -11 11 19 -14 -15 29 -17 20 -19 -20 35 -22 22 23 -25 41 -27 -28 42 -30 -31 -32 32 -34 40 -36 -37 -38 45 39 -41 51 -43 -44 -45 -46 47 -48 -49 49 -51 -52 52 -54 -55 -56
leaf_value=-0.5186809020557307 0.3572938751923303 0 0.012883168496169549 0.39001377936323367 0.75849632720022997 0.17746212140148265 0.53893045251262783 -0.5981117969758315 0.050777819005728746 -0.41279657945653103 -0.15886113886453462 0.021733061581655746 0.47889076605376024 0.020539343973792919 -0.58662808581707382 -0.53337797369756079 0.065701137651757349 0.36288134925150878 0.4812056940446357 -0.048181164016546922 0.23250580436503776 -0.055041900036089803 -0.31099509560126332 -0.031799623420214883 0.41494424170963351 0.083380960724277794 -0.29978656897772832 -0.85038079035983305 0.24274203492562563 0.10378267253653146 -0.4964159598838464 -0.66240675717313191 0.68156636395558212 0.047001145389132755 -0.072717667806187755 0.22827956463778504 0.10624113903784585 -0.57153918848312957 0.048315600068986032 -0.44671265338007993 0.2432008697993279 -0.21846073611135583 -0.26193046407950288 0.57494008002110231 0.20254701506136938 -0.61860447125498241 0.17065112916244454 -0.073518970728916111 0.30527750050179214 0.093201985168210696 -0.0268137519239268 0.11743478029346784 0.25420356026284713 0.47977838134045325 0.35542788706479084
leaf_weight=490.36622276157141 1313.1511840401217 152.93212893977761 1427.7547310250811 1955.1851063016802 580.34420594666153 364.15511024091393 329.86381614999846 528.12113001663238 1739.834262739867 1213.2186800735071 2168.0138109540567 1300.5773580158129 490.24986355192959 1796.7243384642061 2110.8604624222498 906.16959093092009 6480.6557044675574 155.9579959101975 206.32592650456354 1176.7581545058638 9069.7014063121751 1613.6592196589336 1539.7033802894875 5205.2298889625818 166.56529954634607 5054.5183528549969 2197.426936943084 257.80667806649581 1879.1443795859814 152.3737640590407 170.6335360952653 140.82508526695892 97.179770086891949 1183.7807070827112 1539.7027715472504 1225.3882330236956 1689.5405124761164 640.99344098800793 724.09137797448784 645.9874057713896 1753.9434761106968 167.18588445521891 200.71634801244363 3509.7869378337637 1408.9394041290507 2422.7267405693419 208.60548700112849 94.583836152218282 1339.2070807442069 1392.9487618776038 90.553942258004099 1324.6570167066529 1421.4287142166868 1468.9260726906359 1160.4195227771997
leaf_count=5760 4577 6190 17243 3851 3547 3548 1829 7168 4675 5600 9475 3901 3606 29085 49040 22971 25631 3154 1781 4100 20647 7046 7546 19741 2280 20073 9541 4911 6510 1224 7224 8000 2151 3902 5219 3574 5261 40676 5792 4633 5854 3990 3152 8021 4049 139458 4226 2827 2810 3750 2453 3494 3285 4701 2819
internal_value=0 -0.00317291 -0.222318 0.391482 -0.128168 0.130648 -0.199332 -0.232832 0.0521507 0.0215382 0.0345747 0.0770057 -0.013082 -0.118769 -0.366513 -0.197869 0.114854 -0.452927 -0.161866 -0.0684303 0.163249 -0.0656726 -0.0274535 -0.0961652 0.518167 0.0101206 -0.179223 -0.299928 0.104136 -0.538431 -0.0315755 -0.487139 -0.0892199 0.151812 0.0863961 0.0913521 0.24455 -0.52314 -0.273707 -0.182652 0.208677 0.087013 -0.603232 0.508785 0.312787 -0.546875 -0.384906 -0.599695 0.14203 0.19868 -0.432173 0.241795 0.189734 0.423618 0.289392
internal_weight=0 68700.6 13860.2 11345.5 9855.85 2113.73 7742.12 7412.25 54840.4 41984.4 40771.2 28673 2815.1 2324.85 4597.16 2333.92 22772.9 4004.36 1199.64 5900.15 15550.4 12098.2 10237.7 6744.93 914.095 7222.53 3498 993.312 3492.8 2263.23 534.789 3848.4 328.559 12855.9 6011.69 2402.15 5053.67 3519.84 1860.45 1370.08 6844.23 333.751 458.523 6291.86 3364.12 3366.91 849.599 2517.31 4471.99 2732.16 231.379 5660.45 2746.09 2782.08 2914.36
internal_count=597572 567112 371734 30460 162599 30433 132166 130337 195378 159570 153970 96942 39859 36253 90478 40214 75826 209135 20616 21116 46278 57028 40843 27287 9817 29548 13442 18835 13556 50264 10772 205981 12604 35808 16454 7674 13161 193377 16185 10425 19354 6270 8063 17299 7900 187187 44902 142285 11235 6560 10453 15452 6779 9278 8673
is_linear=0
shrinkage=0.65


Tree=5
num_leaves=46
num_cat=0
split_feature=136 137 138 133 49 138 32 82 114 108 54 13 138 55 136 139 24 121 120 12 138 127 12 136 127 132 48 130 48 138 18 79 138 129 136 11 127 136 125 123 100 113 124 29 13
split_gain=1458.2 1091.33 419.791 450.818 449.523 419.243 410.609 556.567 336.301 225.921 251.289 250.485 213.63 208.895 189.089 177.413 142.897 210.197 141.758 196.264 141.668 107.606 103.67 83.7511 79.2538 79.1589 72.7968 70.7582 59.3444 55.107 55.0478 53.6509 48.7969 42.7208 85.1013 40.0104 62.7154 35.2629 33.1912 28.8224 27.9699 21.9518 21.17 10.588 4.91737
threshold=1.1136797070503237 0.34658926725387579 18.500000000000004 1.0000000180025095e-35 0.020344500429928306 96.500000000000014 2.5000000000000004 25.998279571533207 -1.7320345044136045 14.94113349914551 0.003686499898321927 6.5000000000000009 71.500000000000014 0.010226000100374224 -1.2683376669883726 143.50000000000003 14.500000000000002 -2.9957315921783443 -3.278774499893188 7.5000000000000009 4.5000000000000009 1.0000000180025095e-35 7.5000000000000009 0.15783515572547915 12942.000000000002 4.5000000000000009 0.19523800164461139 56777.500000000007 0.16904799640178683 6.5000000000000009 26.168192863464359 7.2375540733337411 10.500000000000002 925.50000000000011 -0.67602083086967457 1.5000000000000002 1.0000000180025095e-35 1.8501301407814028 1.5000000000000002 -2.1847984790801998 0.8757615089416505 -22.824484825134274 -13.869298934936522 7.5000000000000009 11.500000000000002
decision_type=2 2 2 2 2 2 2 2 2 2 2 2 2 2 2 2 2 2 2 2 2 2 2 2 2 2 2 2 2 2 2 2 2 2 2 2 2 2 2 2 2 2 2 2 2
left_child=1 12 15 4 9 6 8 -8 -6 10 11 -4 14 -12 40 21 17 -16 42 -20 37 26 39 27 33 -22 30 31 41 -17 38 -23 -30 34 -14 36 -31 43 -3 -19 -1 -25 -7 -2 -35
right_child=20 2 3 -5 5 18 7 -9 -10 -11 13 -13 24 -15 16 29 -18 22 19 -21 25 23 -24 28 -26 -27 -28 -29 32 35 -32 -33 -34 44 -36 -37 -38 -39 -40 -41 -42 -43 -44 -45 -46
leaf_value=-0.66994689719095379 0.31431152175125893 -0.018692467119600042 0.21134604817977376 -0.68238939383255848 -0.067390311628338528 -0.37290634885927693 0.39888862578400636 -0.25329485439496768 0.48632637063771833 -0.34215137108272425 0.46521607452468783 -0.064816244114100724 -0.63552882635313235 0.049294559595758791 0.3989028450365677 0.28507391791462289 -0.49918505718482853 -0.16889438402059306 -0.59102221100977625 0.4470160835485758 0.36278938362432739 0.014478910991837185 0.11952423052449725 0.11144595816237196 0 0.11391104700644138 -0.18502760225497666 -0.10756270502684642 0.15429588616879766 0.072230129570569929 -0.10291377499372235 0.14668068609269397 -0.070435811965493506 -0.6594658653547476 0.037501249061638271 0.043693011900540001 0.23791929992628558 0.56120935799152138 0.12269715211690131 -0.45700348662582613 -0.30117325786755139 0.23673608315873754 -0.73374214177703234 0.4645604130527507 -0.39658601728178067
leaf_weight=345.78691999148577 698.48617275850847 1157.9327293373644 2731.8175079184584 426.19277510326356 27070.468647318892 146.00354172359221 1896.9890082995407 770.93032603850588 468.04592307191342 412.51779474900104 1552.8334209956229 2787.5772249817383 162.84490710077807 792.02004680084065 377.6099930065684 1580.091983160004 313.72465336183086 379.14611626369879 162.33591101935599 140.25810018018819 1208.5760185774416 3220.8132375217974 343.75344192236662 977.7364956731908 101.17614125786349 1081.8937386400066 983.46594425197691 1136.7759178224951 846.13016731245443 1648.3764135041274 1210.5597330015153 2255.0349243693054 759.75879491027445 974.09888356621377 133.64289127429947 1377.2264284826815 2637.006264875643 1246.645690322388 1629.8667314830236 327.45128810405731 184.79885179083794 2357.9023208189756 476.19925013463944 664.71670838911086 122.70285739167593
leaf_count=12275 3279 4116 17106 2217 188720 11931 7396 5497 867 3131 8714 30225 19947 5623 4554 4515 5935 4543 4774 2159 3351 9462 3010 3680 4276 4187 4058 3840 4024 4473 4298 6285 2791 104069 6049 4054 6129 4243 4883 3054 5679 8253 31436 3434 11030
internal_value=0 0.00164974 0.0218395 -0.018879 -0.0115733 -0.0474571 -0.034108 0.208971 -0.0578078 0.122919 0.147874 0.0712142 -0.338147 0.326499 -0.209554 0.0902058 -0.103107 -0.0128748 -0.478391 -0.0977186 0.368883 0.0527103 -0.164972 0.0872129 -0.530605 0.247079 -0.0265567 0.0385867 0.151479 0.175254 0.0115525 0.0696435 0.0456735 -0.570925 -0.321309 0.143855 0.17513 0.474068 0.0626473 -0.308643 -0.550198 0.20123 -0.656576 0.39091 -0.634263
internal_weight=0 67379.6 63612.9 39834.2 39408 31131.2 30206.4 2667.92 27538.5 8276.77 7864.25 5519.39 3766.74 2344.85 2272.27 23778.7 1741.69 1427.96 924.797 302.594 4900.32 16536 1050.35 11554.2 1494.47 2290.47 4981.83 6612.62 4941.53 7242.7 3998.36 5475.85 1605.89 1393.29 296.488 5662.61 4285.38 2609.85 2787.8 706.597 530.586 3335.64 622.203 1363.2 1096.8
internal_count=597572 579078 394657 319796 317579 252780 202480 12893 189587 64799 61668 47331 184421 14337 39050 74861 21096 15161 50300 6933 18494 55690 10607 38335 145371 7538 17355 19587 18748 19171 13297 15747 6815 141095 25996 14656 10602 10956 8999 7597 17954 11933 43367 6713 115099
is_linear=0
shrinkage=0.65


Tree=6
num_leaves=27
num_cat=0
split_feature=138 136 132 13 125 130 123 137 18 11 138 91 128 10 124 120 125 52 112 134 10 108 138 126 136 10
split_gain=544.088 486.56 428.77 269.785 1953.09 541.124 642.052 502.695 473.898 409.851 510.278 510.119 490.71 503.573 367.359 317.786 199.725 190.302 173.344 172.488 149.222 94.7384 69.3024 53.786 21.2442 11.8897
threshold=121.50000000000001 1.2655327916145327 173.50000000000003 5.5000000000000009 1.5000000000000002 4307.5000000000009 -1.4916524887084959 0.521001696586609 10.456496715545656 1.0000000180025095e-35 26.500000000000004 10.216960430145265 1.0000000180025095e-35 85.500000000000014 -4.1063809394836417 -6.4896745681762686 1.5000000000000002 0.48684200644493109 -4.8274960517883292 1.0000000180025095e-35 182.50000000000003 18.533057212829593 3.5000000000000004 85.500000000000014 1.8501301407814028 39.500000000000007
decision_type=2 2 2 2 2 2 2 2 2 2 2 2 2 2 2 2 2 2 2 2 2 2 2 2 2 2
left_child=1 2 3 5 -5 14 7 8 -7 12 21 -12 15 -14 16 -6 20 23 -4 -9 -1 -11 24 25 -3 -2
right_child=17 22 18 4 9 6 -8 19 -10 10 11 -13 13 -15 -16 -17 -18 -19 -20 -21 -22 -23 -24 -25 -26 -27
leaf_value=-0.12650979075176885 -0.35181599705408972 0.3000291426267151 -0.76957314287360146 0.61194214095513766 -0.095256379586212803 -0.86534725005200885 0.24383778515990176 -0.017064744222745017 -0.26627470091635036 0.038901822115858957 -0.34485067195420083 0.052992799541911148 0.55617731376010715 0.097873247504527847 -0.29638797992768146 0.13599148031884847 0.44875706957695549 0.26268066854545002 -0.083038217871609782 -0.23966852023377289 0.2223484439125617 -0.17935081670842243 0.18669048812258346 -0.046017402071653113 0.4985621086635848 -0.68315800927238901
leaf_weight=735.90294946543872 112.08380659506656 577.743202771293 409.40268037118949 2387.9353352602338 10220.531503270846 772.64069620304508 1582.7737180428812 4012.7144226216478 2125.6176067020278 8848.0120999340434 4302.3595470316941 1968.7574224296259 1085.6237910786876 15819.500763673452 683.35489355563186 3316.7830958940322 1126.0335120239761 121.86761380871758 271.87225717562251 2357.9306586330058 1661.5517265126109 922.98255910398439 1246.4083669888787 85.996099511627108 685.7931780454237 638.81284177466296
leaf_count=4817 9567 4212 5792 6130 101776 9899 4559 15647 29508 29115 65340 21935 3647 104631 4862 26686 3967 3780 2090 11972 9892 4111 5640 3459 4015 100523
internal_value=0 0.0208208 0.00984852 0.0153792 0.0388645 -0.0605868 -0.137473 -0.203031 -0.427767 0.009319 -0.0746548 -0.219373 0.0536961 0.12759 0.136819 -0.0383081 0.222026 -0.471704 -0.502164 -0.100097 0.113678 0.0178671 0.301541 -0.58351 0.411381 -0.639773
internal_weight=0 67122.2 64612.3 63931 48872.5 15058.5 10851.7 9268.9 2898.26 46484.6 16042.1 6271.12 30442.4 16905.1 4206.84 13537.3 3523.49 958.76 681.275 6370.65 2397.45 9770.99 2509.94 836.893 1263.54 750.897
internal_count=597572 480243 466376 458494 363371 95123 71585 67026 39407 357241 120501 87275 236740 108278 23538 128462 18676 117329 7882 27619 14709 33226 13867 113549 8227 110090
is_linear=0
shrinkage=0.65


Tree=7
num_leaves=55
num_cat=0
split_feature=137 138 47 20 130 75 77 138 25 57 10 130 77 94 117 132 138 138 130 116 132 137 130 25 50 136 40 10 12 107 92 129 130 64 73 9 18 116 139 128 104 138 138 105 59 118 138 92 102 129 128 139 25 123
split_gain=327.106 304.252 310.669 323.05 329.47 399.261 399.114 329.149 371.157 318.261 339.325 307.61 300.92 260.053 244.838 315.648 251.154 219.758 201.718 189.468 158.58 191.006 158.233 156.233 155.466 146.426 128.873 230.294 128.212 123.96 122.072 113.293 106.426 95.8067 93.8646 93.4606 90.4104 84.0401 82.6049 75.4515 75.4503 70.1844 63.5283 61.5198 53.1147 42.7504 24.8901 23.2197 19.8413 17.8119 10.3923 7.8086 5.16762 4.56091
threshold=0.21800269931554797 9.5000000000000018 0.11215950176119806 67.500000000000014 32287.500000000004 5.7607684135437021 4.9089753627777108 48.500000000000007 7.5000000000000009 0.35504201054573065 125.50000000000001 42531.500000000007 7.6271085739135751 18.698414802551273 -7.6073734760284415 8.5000000000000018 47.500000000000007 35.500000000000007 46283.500000000007 -34.240825653076165 96.500000000000014 0.29335063695907598 24228.500000000004 1.5000000000000002 0.00067049998324364435 0.49016119539737707 0.67708349227905285 6.5000000000000009 2.5000000000000004 22.702224731445316 1.1914545297622683 30574.500000000004 62845.500000000007 0.041886499151587493 7.0592789649963388 0.52272748947143566 16.188245773315433 -7.2728004455566397 82.500000000000014 1.5000000000000002 0.84279400110244762 18.500000000000004 27.500000000000004 28.801620483398441 0.048838499933481223 -22.660116195678707 2.5000000000000004 16.566499710083011 0.95814749598503124 57647.000000000007 1.0000000180025095e-35 165.50000000000003 4.5000000000000009 -2.3025505542755123
decision_type=2 2 2 2 2 2 2 2 2 2 2 2 2 2 2 2 2 2 2 2 2 2 2 2 2 2 2 2 2 2 2 2 2 2 2 2 2 2 2 2 2 2 2 2 2 2 2 2 2 2 2 2 2 2
left_child=41 25 12 4 7 6 13 8 24 10 -7 29 14 -6 15 17 28 40 -14 -19 21 -18 35 -24 -4 37 27 -17 -16 39 -10 -11 -8 43 -28 -9 -30 44 -27 42 -3 -1 -5 -13 47 48 52 50 -40 51 -2 -48 -47 -43
right_child=1 2 3 11 5 9 32 22 30 31 -12 33 18 -15 16 26 20 19 -20 -21 -22 -23 23 -25 -26 38 34 -29 36 -31 -32 -33 -34 -35 -36 -37 -38 -39 45 -41 -42 53 -44 -45 -46 46 49 -49 -50 -51 -52 -53 -54 -55
leaf_value=-0.091445039534191336 0.20316002584615375 -0.014014143864676611 -0.0037352169650584546 0.32528529947261048 -0.48910182278341396 0.17136526339354147 0.23127586351214713 -0.034615980636681358 -0.049617944869230643 0.25166870611702535 -0.17308388098403901 -0.12147044201792954 0 0.048859089572435975 -0.20066486797239383 -0.29420158736772528 0.38359435424024735 -0.36085735574129729 0.46706043609699088 0.43050338055192894 0.37279315327674123 -0.50050610147047947 0.44251281098722667 -0.46353003308256913 -0.23036039481068887 -0.025018467999480067 -0.36806845711770808 0.16213433813428305 0.20200547173056649 0.059171166008858953 0.20875559147153924 -0.062253706512454918 0.54602256783353331 -0.31881730939402164 0.037461101023701669 -0.64696551994217522 -0.016095333861620816 -0.10024208110278189 0.016152122243150987 0.21798288128977628 0.17850232895418328 -0.67157896146626672 0.69165984059606334 0.19231636773958499 -0.045095208985487349 0.2809577906469562 0.21226780323020139 0.033251532718384776 0.20204642279054794 0.12573379012503993 0.10889461130525997 0.32618548343858228 0.4270491141037191 -0.34821273766646943
leaf_weight=170.27146951109171 1235.325395995751 1366.1557111321017 1666.4063974467572 480.58240946382284 400.89767875248799 1373.1872585903038 1468.0225911369198 134.4540876483079 1447.8328202939592 1419.1971828520764 9443.7797797406383 560.385894057923 561.35903641209006 6449.0314190105419 989.16523909149691 641.24301282188389 108.95326586364536 130.62724296224769 1239.0223173346603 1845.0139982303372 115.46327707811724 983.21987203788012 146.79745794262271 171.27117169002304 6028.7445237680804 604.08154079236556 729.66724085528404 1688.7177332631545 1271.8423114893958 781.35700617660768 1609.1376789291389 711.42306028999155 714.46499353088439 509.77877987269312 335.37221722514369 896.60579610578134 2097.3403718103655 1317.5576590276323 574.26729285449255 766.27677912404761 2171.3102001578081 331.75932255701628 445.01122451154515 489.30811436835211 983.86459319991991 481.84258892713115 1025.6761721706716 979.92363376775756 491.53351103991736 721.45375301025342 1289.077962889336 695.27628406009171 473.50870511238463 85.847542412462644
leaf_count=740 3416 5224 6879 1028 5335 8124 8477 3618 6200 6786 78629 4511 5692 51146 3747 4535 8169 6255 4883 40983 2022 25253 4907 10809 30923 4713 18662 14620 3447 3708 5492 4418 1834 3446 4159 55933 7216 4674 3572 5586 6666 63903 5669 2365 3823 2516 5789 3358 3197 3697 4431 2615 3837 5935
internal_value=0 0.0147478 -0.00503116 -0.0371967 -0.0578609 -0.0102522 0.0944267 -0.144007 -0.105527 -0.0835722 -0.128985 0.136449 0.0700625 0.0166907 0.0385727 0.105554 -0.0679504 0.201679 0.320808 0.375961 -0.330031 -0.408324 -0.447279 -0.0334354 -0.181788 0.114011 -0.0494598 0.034782 0.00392205 0.279283 0.0852006 0.145121 0.336444 -0.0877317 -0.237007 -0.570984 0.0651889 0.0426816 0.194937 0.378522 0.103122 -0.471332 0.506608 0.0213021 0.085504 0.225548 0.261969 0.123251 0.105633 0.222584 0.15664 0.260805 0.358045 -0.616066
internal_weight=0 65261.8 54388.4 38114 34081.3 21980 9032.42 12101.2 10752.1 12947.6 10817 4032.7 16274.5 6849.93 14474.1 8908.11 5565.98 5513.11 1800.38 1975.64 1207.64 1092.17 1349.13 318.069 7695.15 10873.4 3395 2329.96 4358.35 2473.23 3056.97 2130.62 2182.49 1559.47 1065.04 1031.06 3369.18 5805.75 5067.64 1691.87 3537.47 587.878 925.594 1049.69 4488.19 4463.56 3397.76 3504.33 1065.8 2442.41 2524.4 1720.95 955.351 417.607
internal_count=597572 526994 477356 315823 289510 164749 66792 124761 49494 97957 86753 26313 161533 56481 150958 101104 49854 59128 10575 47238 35444 33422 75267 15716 37802 49638 41976 19155 14410 15991 11692 11204 10311 10322 22821 59551 10663 19702 29936 12283 11890 70578 6697 6876 15028 25223 18454 11205 6769 12101 7847 8404 6353 69838
is_linear=0
shrinkage=0.65


Tree=8
num_leaves=64
num_cat=0
split_feature=138 125 13 129 130 134 130 88 12 122 18 54 135 103 12 125 35 92 83 122 84 94 125 137 127 139 129 130 131 48 15 83 130 58 100 104 129 106 127 129 47 106 10 137 126 134 131 139 58 13 18 14 124 16 54 50 14 130 100 138 82 139 138
split_gain=300.6 276.898 420.511 339.97 279.8 256.298 265.027 706.593 355.836 360.466 360.396 334.216 333.687 228.793 225.738 224.046 213.196 193.104 189.758 183.102 181.395 169.638 169.463 141.684 138.725 139.106 125.984 109.558 204.503 126.059 116.098 107.879 169.797 116.44 101.669 92.0634 91.6406 90.5789 89.0195 87.6655 85.9328 81.4354 79.1618 75.4176 71.3539 69.8435 69.4926 68.9422 67.1842 104.962 67.0586 66.2781 65.351 51.4264 50.6065 47.877 42.8995 42.7683 40.4005 40.2338 37.6986 13.8689 26.4601
threshold=30.500000000000004 4.5000000000000009 11.500000000000002 8414.5000000000018 56605.500000000007 171.50000000000003 61452.500000000007 7.9000885486602792 7.5000000000000009 -2.983253955841064 13.663946628570558 0.20055849850177768 2.4100000858306889 0.52854847908020031 3.5000000000000004 3.5000000000000004 21.366665840148929 82.129913330078139 11.846994400024416 -1.4916515350341795 47.010293960571296 22.186291694641117 2.5000000000000004 0.65572181344032299 7.5000000000000009 135.50000000000003 256.50000000000006 57799.000000000007 2.5000000000000004 0.13762649893760684 5.3935775756835946 6.151750087738038 47385.500000000007 0.17029000073671344 0.54654899239540111 0.98321950435638439 653.50000000000011 12.136441707611086 37.500000000000007 37588.500000000007 0.15058150142431262 11.197624683380129 196.50000000000003 0.62219741940498363 46.500000000000007 118.50000000000001 23.500000000000004 94.500000000000014 0.10172400251030923 13.500000000000002 19.513092041015629 425.50000000000006 -6.4887070655822745 26.827476501464847 0.0023000000510364775 0.017484500072896484 257.50000000000006 4012.5000000000005 0.95663151144981395 14.500000000000002 10.273538112640383 140.50000000000003 55.500000000000007
decision_type=2 2 2 2 2 2 2 2 2 2 2 2 2 2 2 2 2 2 2 2 2 2 2 2 2 2 2 2 2 2 2 2 2 2 2 2 2 2 2 2 2 2 2 2 2 2 2 2 2 2 2 2 2 2 2 2 2 2 2 2 2 2 2
left_child=17 2 5 13 24 6 8 15 9 14 12 -11 -10 22 -2 20 -12 26 60 21 -8 -7 -4 50 25 42 34 31 29 40 -30 36 39 44 -1 -5 57 45 -31 46 -29 47 -3 -36 -34 -38 -33 -6 49 52 -24 -32 58 -45 -44 61 -27 -28 -26 -41 -15 -49 -63
right_child=1 4 3 35 41 19 7 -9 10 11 16 -13 -14 18 -16 -17 -18 -19 -20 -21 -22 -23 23 -25 48 56 27 28 30 38 51 32 33 -35 43 -37 37 -39 -40 59 -42 -43 54 53 -46 -47 -48 55 -50 -51 -52 -53 -54 -55 -56 -57 -58 -59 -60 -61 -62 62 -64
leaf_value=0.11437665971027502 0.040423912668489485 0.31774907113666723 0.60825772565331926 0.27079208887263351 -0.17160917243600154 -0.37921335075721335 -0.077088020865027723 -0.88417971637107218 0.35176107547169971 -0.45101817570385638 -0.19937269333399965 0.31300023722652381 -0.35539203835546312 -0.65945856445180939 -0.2343081852606492 0.55606745789260503 0.19279234384458982 -0.25795118835856085 0.18404344514702706 0.78222389868351261 0.30510855959003663 0.39916593639218539 0.020735071578028688 0.4077174988318501 -0.74703006510043568 -0.2657637464965632 0.24675440698188192 0.037787795632088735 0.075293109896874308 0.105113191712285 -0.093508375110795697 0.13519921133997689 0.34494019396178321 0.021291263413774932 -0.24910382622408708 0.71031712281136494 -0.010255192761241523 0.18986523568763011 -0.20770800099672249 0.033761582061508866 0.2880545912148208 -0.06571919101340791 0.040628334710360217 0.045621891767075116 0.16335288269758666 0.16894328387375607 -0.0086182769927879987 -0.7334683804171741 0.41951920141959986 0.43689348779013987 -0.64865362074118182 -0.31416802262255661 0.10343612623155815 -0.13740083900988889 -0.5107313670850836 -0.4547077081410722 -0.88580030403896393 0.060476023325989565 -0.10836705056413753 -0.16631133297082387 -0.23844372092018093 -1.486889401239935 -0.78037971671213502
leaf_weight=1134.8690933051985 2417.84154602536 138.45355933037354 351.93320323433727 384.35376565001206 97.673859285074286 196.92640993923123 1141.7413983074366 280.2295323407161 1620.5074032684061 2809.7703201680561 2842.3411319268489 257.32851884354022 334.47113259549951 259.72839276731247 2599.6795153041312 575.02564042713493 726.63668133533793 903.96665349730756 278.1546573251253 234.10435613896698 950.98289338982431 284.25204478751402 100.91463302785996 193.26628786174115 106.01313819317147 96.060838737408631 1191.8076003468595 1093.1763476619963 802.39106061751954 707.02233512478415 1203.274140131427 4900.6237280531786 2185.5064259446226 1094.2252465531928 1109.9605519969482 536.2074661970837 11911.256893467274 1204.4071871335618 815.49918790929951 761.60528197383974 1334.1825470097829 107.60825621435652 103.27223520737607 1286.4407488759607 1769.8186497688293 992.80088718514889 1930.2831426714547 153.44954509747913 193.52590270986548 137.18305011908524 130.35793373489287 1227.8564201472327 129.11493142106337 1264.7949934434146 159.63620885257842 144.44867978349794 171.55692598648602 1042.7508883713745 95.626962712907698 888.99176759831607 196.93215760809835 85.773586101364344 89.85844087251462
leaf_count=3334 54067 1839 3608 5017 2790 5294 17632 4097 19060 65271 76228 1393 9739 5284 80920 6231 9828 4043 2689 845 8609 4221 2700 573 4530 2544 3308 3559 2512 2743 4522 15497 5468 3962 5085 3848 43490 3842 4595 4170 3774 977 4261 4201 5267 3882 6716 5030 2094 1815 4734 5882 2342 4968 3884 3234 6804 3580 2245 3025 2199 836 6835
internal_value=0 -0.0555544 -0.0318849 0.220705 -0.285532 -0.0676889 -0.0843388 0.0915762 -0.122732 -0.209605 0.00375997 -0.385527 0.22861 0.0282187 -0.101206 0.196071 -0.11841 0.0383356 -0.22865 0.311611 0.0949168 0.072554 0.276112 0 -0.108482 -0.318109 0.044837 0.0577158 -0.0139137 0.0847127 -0.135533 0.0750655 0.118129 0.21278 -0.0538696 0.531877 0.0391707 0.0194853 -0.0600211 0.0612962 0.177021 -0.625666 -0.0647227 -0.107084 0.264765 0.00326375 0.0940168 -0.723979 0.0981643 -0.0279365 -0.342734 -0.20667 -0.233525 -0.043673 -0.281251 -0.828786 -0.680845 0.161646 -0.466699 -0.0717849 -0.487949 -0.97786 -1.1595
internal_weight=0 21712.9 19703.7 2431.85 2009.26 17271.8 16556.6 2947.98 13608.6 8084.62 5523.96 3067.1 1954.98 1511.29 5017.52 2667.75 3568.98 42757.5 734.815 715.283 2092.72 481.178 776.472 424.539 1330.44 668.98 41853.5 37057.5 7183.4 3949.88 3233.52 29874.1 13531.1 5049.55 4796.07 920.561 16343 14108.5 1522.52 8481.5 2427.36 678.812 401.362 3661.2 3955.33 12904.1 6830.91 571.204 661.464 467.938 231.273 2431.13 330.755 2551.24 262.908 473.53 267.618 2234.56 201.64 1650.6 456.661 329.082 175.632
internal_count=597572 446147 394087 30652 52060 363435 353075 36569 316506 201651 114855 66664 28799 21787 134987 32472 86056 151425 10172 10360 26241 9515 11615 8007 32358 19332 147382 129794 27587 14671 12916 102207 44105 14697 17588 8865 58102 51214 7338 29408 7333 19702 9984 14254 10735 47372 22213 18725 13026 10932 7434 10404 9117 9169 8145 15935 9348 6888 6775 7195 7483 12701 7671
is_linear=0
shrinkage=0.65


Tree=9
num_leaves=23
num_cat=0
split_feature=87 27 138 139 129 125 126 127 125 15 125 125 138 84 112 73 130 127 47 107 87 79
split_gain=231.51 260.83 202.353 193.525 167.99 156.993 152.893 169.285 1054.79 280.115 220.522 447.049 255.518 134.465 92.0137 90.7444 90.1217 80.7991 85.9049 81.2021 53.2243 14.0554
threshold=19.454302787780765 2.5000000000000004 121.50000000000001 241.00000000000003 63092.500000000007 6.5000000000000009 114.50000000000001 1.0000000180025095e-35 1.5000000000000002 6.7052540779113778 2.5000000000000004 1.5000000000000002 24.500000000000004 39.869359970092781 -2.1316465139389034 11.795281410217287 63180.500000000007 11.500000000000002 0.11834749951958658 11.266606330871584 7.3566396236419687 36.880382537841804
decision_type=2 2 2 2 2 2 2 2 2 2 2 2 2 2 2 2 2 2 2 2 2 2
left_child=2 15 3 5 14 6 7 10 -9 -10 11 -1 -12 -7 17 -2 21 18 -5 -19 -20 -4
right_child=1 -3 16 4 -6 13 -8 8 9 -11 12 -13 -14 -15 -16 -17 -18 19 20 -21 -22 -23
leaf_value=-0.11031781610220814 -0.74164089592115201 0.028800487028011277 -0.63150298416527295 0.38431473110831094 -0.099444072276040338 -0.60708408400651592 0.29645809077568541 0.61096272792308393 -0.12214894140920013 0.033295370405416039 -0.041116687846748483 0.14186567966569053 -0.34365411886764718 -0.073810465953472904 0.34344266261876416 -0.25592916131223786 0.064456267051388891 -0.095532608373873742 -0.0095480878890594565 0.21670317877730166 0.25762888028528691 -0.25451304520693968
leaf_weight=7004.4937632459041 394.48158583973418 679.6983924114611 291.88950516021578 776.76422404151526 1094.8553631013929 317.15653567184927 758.08239555166801 1263.8178628081223 5897.8630477609549 28766.38661486542 2898.3030007377965 5151.950285345185 2026.8258054721809 588.96846483793342 1143.6819757851626 332.83318255044287 122.23047702564509 989.93632340227487 705.57064204520429 540.86777753633214 532.05629996710923 98.09574349905597
leaf_count=58174 4790 4981 89240 2737 5829 4593 3751 3131 50916 231908 10463 33288 40064 4595 3609 2365 10615 6197 4794 2893 2629 16010
internal_value=0 -0.255574 0.010879 0.0143921 0.127452 0.00235881 0.00695344 0.00273114 0.0281257 0.00673341 -0.0504583 -0.0031256 -0.166473 -0.265541 0.181256 -0.52585 -0.394893 0.127707 0.213313 0.0124666 0.1025 -0.548076
internal_weight=0 1407.01 60969.8 60457.6 5783.73 54673.8 53767.7 53009.6 35928.1 34664.2 17081.6 12156.4 4925.13 906.125 4688.88 727.315 512.216 3545.2 2014.39 1530.8 1237.63 389.985
internal_count=597572 12136 585436 469571 28688 440883 431695 427944 285955 282824 141989 91462 50527 9188 22859 7155 115865 19250 10160 9090 7423 105250
is_linear=0
shrinkage=0.65


end of trees

feature_importances:
Column_138=73
Column_136=47
Column_139=37
Column_130=25
Column_137=24
Column_129=23
Column_125=12
Column_13=11
Column_127=10
Column_10=9
Column_126=9
Column_12=8
Column_128=8
Column_11=7
Column_131=7
Column_132=7
Column_14=6
Column_107=6
Column_18=5
Column_24=5
Column_54=5
Column_16=4
Column_25=4
Column_47=4
Column_48=4
Column_72=4
Column_79=4
Column_80=4
Column_82=4
Column_87=4
Column_100=4
Column_112=4
Column_120=4
Column_123=4
Column_124=4
Column_15=3
Column_17=3
Column_20=3
Column_29=3
Column_50=3
Column_59=3
Column_70=3
Column_83=3
Column_92=3
Column_94=3
Column_104=3
Column_116=3
Column_122=3
Column_134=3
Column_135=3
Column_0=2
Column_9=2
Column_35=2
Column_37=2
Column_39=2
Column_40=2
Column_49=2
Column_55=2
Column_57=2
Column_58=2
Column_73=2
Column_77=2
Column_84=2
Column_88=2
Column_102=2
Column_105=2
Column_106=2
Column_108=2
Column_114=2
Column_115=2
Column_117=2
Column_118=2
Column_133=2
Column_2=1
Column_4=1
Column_5=1
Column_19=1
Column_22=1
Column_27=1
Column_30=1
Column_32=1
Column_42=1
Column_45=1
Column_52=1
Column_53=1
Column_60=1
Column_64=1
Column_67=1
Column_68=1
Column_69=1
Column_74=1
Column_75=1
Column_85=1
Column_90=1
Column_91=1
Column_103=1
Column_110=1
Column_113=1
Column_121=1

parameters:
[boosting: gbdt]
[objective: binary]
[metric: binary_logloss]
[tree_learner: serial]
[device_type: cpu]
[data: ]
[valid: ]
[num_iterations: 10]
[learning_rate: 0.65]
[num_leaves: 64]
[num_threads: 0]
[deterministic: 0]
[force_col_wise: 0]
[force_row_wise: 0]
[histogram_pool_size: -1]
[max_depth: 8]
[min_data_in_leaf: 3120]
[min_sum_hessian_in_leaf: 85.5]
[bagging_fraction: 1]
[pos_bagging_fraction: 1]
[neg_bagging_fraction: 1]
[bagging_freq: 0]
[bagging_seed: 3]
[feature_fraction: 1]
[feature_fraction_bynode: 1]
[feature_fraction_seed: 2]
[extra_trees: 0]
[extra_seed: 6]
[early_stopping_round: 5]
[first_metric_only: 0]
[max_delta_step: 0]
[lambda_l1: 5.8]
[lambda_l2: 2]
[linear_lambda: 0]
[min_gain_to_split: 0.2]
[drop_rate: 0.1]
[max_drop: 50]
[skip_drop: 0.5]
[xgboost_dart_mode: 0]
[uniform_drop: 0]
[drop_seed: 4]
[top_rate: 0.2]
[other_rate: 0.1]
[min_data_per_group: 100]
[max_cat_threshold: 32]
[cat_l2: 10]
[cat_smooth: 10]
[max_cat_to_onehot: 4]
[top_k: 20]
[monotone_constraints: ]
[monotone_constraints_method: basic]
[monotone_penalty: 0]
[feature_contri: ]
[forcedsplits_filename: ]
[refit_decay_rate: 0.9]
[cegb_tradeoff: 1]
[cegb_penalty_split: 0]
[cegb_penalty_feature_lazy: ]
[cegb_penalty_feature_coupled: ]
[path_smooth: 0]
[interaction_constraints: ]
[verbosity: -1]
[saved_feature_importance_type: 0]
[linear_tree: 0]
[max_bin: 255]
[max_bin_by_feature: ]
[min_data_in_bin: 3]
[bin_construct_sample_cnt: 200000]
[data_random_seed: 1]
[is_enable_sparse: 1]
[enable_bundle: 1]
[use_missing: 1]
[zero_as_missing: 0]
[feature_pre_filter: 0]
[pre_partition: 0]
[two_round: 0]
[header: 0]
[label_column: ]
[weight_column: ]
[group_column: ]
[ignore_column: ]
[categorical_feature: ]
[forcedbins_filename: ]
[precise_float_parser: 0]
[objective_seed: 5]
[num_class: 1]
[is_unbalance: 0]
[scale_pos_weight: 1]
[sigmoid: 1]
[boost_from_average: 1]
[reg_sqrt: 0]
[alpha: 0.9]
[fair_c: 1]
[poisson_max_delta_step: 0.7]
[tweedie_variance_power: 1.5]
[lambdarank_truncation_level: 30]
[lambdarank_norm: 1]
[label_gain: ]
[eval_at: 10]
[multi_error_top_k: 1]
[auc_mu_weights: ]
[num_machines: 1]
[local_listen_port: 12400]
[time_out: 120]
[machine_list_filename: ]
[machines: ]
[gpu_platform_id: -1]
[gpu_device_id: -1]
[gpu_use_dp: 0]
[num_gpu: 1]

end of parameters

pandas_categorical:null
