tree
version=v3
num_class=1
num_tree_per_iteration=1
label_index=0
max_feature_idx=139
objective=binary sigmoid:1
feature_names=Column_0 Column_1 Column_2 Column_3 Column_4 Column_5 Column_6 Column_7 Column_8 Column_9 Column_10 Column_11 Column_12 Column_13 Column_14 Column_15 Column_16 Column_17 Column_18 Column_19 Column_20 Column_21 Column_22 Column_23 Column_24 Column_25 Column_26 Column_27 Column_28 Column_29 Column_30 Column_31 Column_32 Column_33 Column_34 Column_35 Column_36 Column_37 Column_38 Column_39 Column_40 Column_41 Column_42 Column_43 Column_44 Column_45 Column_46 Column_47 Column_48 Column_49 Column_50 Column_51 Column_52 Column_53 Column_54 Column_55 Column_56 Column_57 Column_58 Column_59 Column_60 Column_61 Column_62 Column_63 Column_64 Column_65 Column_66 Column_67 Column_68 Column_69 Column_70 Column_71 Column_72 Column_73 Column_74 Column_75 Column_76 Column_77 Column_78 Column_79 Column_80 Column_81 Column_82 Column_83 Column_84 Column_85 Column_86 Column_87 Column_88 Column_89 Column_90 Column_91 Column_92 Column_93 Column_94 Column_95 Column_96 Column_97 Column_98 Column_99 Column_100 Column_101 Column_102 Column_103 Column_104 Column_105 Column_106 Column_107 Column_108 Column_109 Column_110 Column_111 Column_112 Column_113 Column_114 Column_115 Column_116 Column_117 Column_118 Column_119 Column_120 Column_121 Column_122 Column_123 Column_124 Column_125 Column_126 Column_127 Column_128 Column_129 Column_130 Column_131 Column_132 Column_133 Column_134 Column_135 Column_136 Column_137 Column_138 Column_139
feature_infos=[0:16] [0:6] [0:8] [0:8] [0:16] [0:1] [0:1] [0:1] [0:1] [0:1] [0:12923] [0:3233] [0:12917] [2:132] [3:25845] [-1.9397770166397095:98.653861999511719] [3.7259809970855713:159.86013793945312] [2.7613649368286133:152.07829284667969] [0.79833799600601196:166.13566589355469] [-1.9448369741439819:98.624855041503906] [0:2726] [0:110] [0:563] [0:10] [0:2730] [0:1083] [0:30] [0:49] [0:5] [0:1083] [0:1627] [0:64] [0:475] [0:6] [0:1629] [0:1083] [0:30] [0:140.75] [0:5] [0:1083] [0:661782.25] [0:638.75] [0:37744.1875] [0:9] [0:663410.25] [0:2] [0:2] [0:2] [0:1] [0:0.80995500087738037] [0:1] [0:1] [0:1] [0:0.57142901420593262] [0:0.60000002384185791] [0:1] [0:1] [0:1] [0:0.57142901420593262] [0:0.60000002384185791] [0:1] [0:1] [0:1] [0:0.57142901420593262] [0:0.60000002384185791] [0:0.25] [0:0.25] [0:0.25] [0:0.0625] [0:0.0625] [-502.57244873046875:16527.740234375] [0:955.788818359375] [0:4664.697265625] [0:77.544601440429688] [-503.66119384765625:16532.033203125] [-567.93853759765625:4774.43798828125] [0:223.21076965332031] [0:538.6591796875] [0:64.091140747070312] [-569.168701171875:4789.7236328125] [0:11113.951171875] [0:615.50018310546875] [0:3829.640380859375] [0:68.338874816894531] [0:11124.8037109375] [-281.26773071289062:5556.9755859375] [0:238.94720458984375] [0:1200.550537109375] [0:64.091140747070312] [-287.8358154296875:5562.40185546875] [0:30879978] [0:56952.48828125] [0:2417518.5] [0:1167.55029296875] [0:30940314] [0:1] [0:1] [0:1] [0:1] [0:1] [0:1] [0:1] [0:1] [0:1] [0:1] [-11.413535118103027:190.64485168457031] [0:60.223415374755859] [0:72.414131164550781] [0:49.223228454589844] [-11.416239738464355:191.38079833984375] [-194.15585327148438:0] [-118.54830169677734:0] [-158.66993713378906:0] [-132.80621337890625:0] [-194.16043090820312:0] [-187.41470336914062:0] [-111.64816284179688:0] [-156.41024780273438:0] [-130.16769409179688:0] [-187.39202880859375:0] [-205.81387329101562:0] [-137.58628845214844:0.70563399791717529] [-179.10939025878906:0] [-155.76138305664062:0] [-205.75247192382812:0] [1:31] [5:1383] [0:226244464] [0:170] [100:65534] [1:65535] [1:254] [1:254] [0:4344779] [0:2348975] [0:570000000] [-4.5702376365661621:4.7759213447570801] [0:1] [0:676] [1:679]
tree_sizes=3979 4240 5011 4681 3722 3382 3178 4480 2838 1878

Tree=0
num_leaves=36
num_cat=0
split_feature=138 138 138 139 139 136 136 118 139 137 139 138 130 136 139 138 139 126 109 100 138 136 54 137 138 139 138 136 138 48 136 138 75 136 138
split_gain=963730 43728.7 28007.4 15373.9 9656.28 5228.16 4289.33 3352.7 3317.55 2345.67 2260.47 1785.74 1722.25 1666.95 1545.59 1352.93 1206.63 1063.25 709.926 661.414 526.959 665.556 2139.19 482.77 471.632 469.533 420.834 403.717 299.178 272.878 65.4437 47.0585 27.6626 23.8916 16.1996
threshold=28.500000000000004 41.500000000000007 18.500000000000004 123.50000000000001 91.500000000000014 0.17452745884656909 -0.19950816780328748 -7.5894556045532218 296.50000000000006 0.58980995416641246 146.50000000000003 12.500000000000002 46093.500000000007 -0.57573875784873951 66.500000000000014 23.500000000000004 80.500000000000014 22.500000000000004 18.963917732238773 0.32418200373649603 63.500000000000007 -0.49707777798175806 0.00068450000253506016 0.60374486446380626 48.500000000000007 120.50000000000001 22.500000000000004 0.8994065821170808 51.500000000000007 0.13100700080394748 0.33202029764652258 6.5000000000000009 7.4855556488037118 -1.1303160786628721 6.5000000000000009
decision_type=2 2 2 2 2 2 2 2 2 2 2 2 2 2 2 2 2 2 2 2 2 2 2 2 2 2 2 2 2 2 2 2 2 2 2
left_child=2 3 6 16 13 9 14 12 17 20 15 27 23 -4 -1 -6 33 -7 -18 -11 21 -3 -23 -5 -19 -13 -12 30 -21 -20 -8 -29 -24 -2 -32
right_child=1 5 4 7 10 8 11 -9 -10 19 26 25 -14 -15 -16 -17 18 24 29 28 -22 22 32 -25 -26 -27 -28 31 -30 -31 34 -33 -34 -35 -36
leaf_value=1.3746224407782961 -1.2661657355424303 -1.2901910954517135 -0.22125428302440131 -0.27095886610192532 1.3570334923940464 -0.17797237903033181 1.939957053355676 1.3138132324920393 0.371386849957967 -0.19163630954581645 1.725958461039045 1.7182353434465014 0.77626845135074751 0.65160256657042304 1.7913484878314745 0.80701385075527898 0.0057871167235956644 -0.57395602213960539 -0.83722429037293611 -0.53472142489653729 -1.3221667093321419 0.056043195609526197 -0.93538513237695287 0.33406979206979903 -1.1907021076965758 1.9011174891366389 1.4697846618258654 2.0468720322012759 -1.092693298402448 -0.33210744227586231 2.0077489098471717 2.0157856227453945 -1.241709372546586 -0.92761290499479299 1.9721050694116156
leaf_weight=3772.0258563831449 697.49778505414724 3581.2609047815204 1154.7982971146703 876.98692171275616 3626.8100558295846 621.25080817192793 13706.48159583658 1968.7887345477939 914.5187034085393 657.34758564829826 4109.2482961714268 5988.935612693429 1986.0404065102339 1595.1153542548418 9453.4224926605821 2157.8921014815569 786.37906269729137 631.37478277087212 1073.7761576473713 616.10228151082993 24027.323968693614 580.15928272157907 641.27015660703182 833.99906228482723 1611.5497452914715 15363.916740752757 3711.0851223692298 77939.291995421052 973.70528318732977 664.36063153296709 13117.958154715598 24173.673452459276 1508.6744927465916 692.37613894045353 12398.904887229204
leaf_count=10104 7414 39019 8530 6991 9355 4731 10002 5229 5489 5193 5352 8890 8863 7356 10938 9355 5435 5570 10192 5429 274728 3913 6370 5008 17601 11262 8028 19590 10498 5212 6163 9439 16365 6355 7603
internal_value=1.36938 -0.893548 1.91016 0.152916 1.22181 -1.16902 1.97417 0.733143 -0.550026 -1.2405 1.41184 1.99867 0.424677 0.28266 1.67263 1.15138 -0.684956 -0.841826 -0.448678 -0.684793 -1.28132 -1.12384 -0.901245 0.0198375 -1.02177 1.84996 1.60467 2.02111 -0.883072 -0.649634 1.97299 2.03955 -1.1558 -1.10616 1.99058
internal_weight=0 45944.7 192270 9580.2 16354.9 36364.5 175915 5665.82 3778.69 32585.8 13605 162689 3697.03 2749.91 13225.4 5784.7 3914.39 2864.18 2524.52 2247.16 30338.7 6311.36 2730.1 1710.99 2242.92 21352.9 7820.33 141336 1589.81 1738.14 39223.3 102113 2149.94 1389.87 25516.9
internal_count=597572 455605 141967 60699 47976 394906 93991 26091 33391 361515 32090 72949 20862 15886 21042 18710 34608 27902 20839 21120 340395 65667 26648 11999 23171 20152 13380 52797 15927 15404 23768 29029 22735 13769 13766
is_linear=0
shrinkage=1


Tree=1
num_leaves=38
num_cat=0
split_feature=138 138 138 139 136 136 137 117 131 53 137 119 139 0 139 129 137 137 136 139 130 136 18 138 62 72 67 130 138 139 138 64 127 138 67 128 92
split_gain=118340 10658.8 5457.11 2102.69 2045.14 1823.84 1575.51 1262.61 1065.55 1001.68 871.901 760.885 575.987 524.537 515.14 491.256 481.637 479.035 441.968 415.543 384.806 305.272 269.707 229.772 216.724 196.757 161.15 175.659 158.972 95.4202 86.7693 66.3313 59.4082 53.2092 46.1968 36.9989 31.6544
threshold=20.500000000000004 37.500000000000007 13.500000000000002 170.50000000000003 -0.09400575608015059 0.27564442157745367 0.47548520565032965 -14.121131420135496 34.500000000000007 0.24038449674844745 0.46353034675121313 -10.437733650207518 66.500000000000014 1.5000000000000002 87.500000000000014 5392.5000000000009 0.72634699940681469 0.69330570101737987 0.59272456169128429 165.50000000000003 48903.500000000007 1.0838988423347475 15.942844867706301 15.500000000000002 0.10026450082659723 12.629967212677004 0.015563500113785269 60228.000000000007 7.5000000000000009 66.500000000000014 9.5000000000000018 0.048008499667048461 54127.500000000007 5.5000000000000009 0.038582000881433494 30.500000000000004 50.89464187622071
decision_type=2 2 2 2 2 2 2 2 2 2 2 2 2 2 2 2 2 2 2 2 2 2 2 2 2 2 2 2 2 2 2 2 2 2 2 2 2
left_child=2 3 5 10 14 12 9 17 11 32 22 -9 -1 -12 -4 -13 18 26 25 23 -5 30 -2 -6 -17 -15 27 31 -14 -24 -7 -8 34 -23 35 36 -3
right_child=1 6 4 20 19 21 7 8 -10 -11 13 15 28 16 -16 24 -18 -19 -20 -21 -22 33 29 -25 -26 -27 -28 -29 -30 -31 -32 -33 -34 -35 -36 -37 -38
leaf_value=0.19866577605715122 -0.28995766401290163 -0.69519151628186693 -0.34122860035923747 -0.013826135948748522 0.34632228754876082 0.5422785489352161 -0.69390705276917264 0.099211018083979405 0.24387695762689207 0.02427600106035312 0.0078349035971344936 -0.23079861884606351 0.4909342173458735 -0.2370008443799746 0.051527575334183409 -0.46482677220805141 0.044179251734362504 -0.1401824143519167 -0.042042627989833894 0.42083046026021131 0.25564852667555382 0.60507763084942656 -0.77221109533464338 0.16386552461935025 -0.84849125860756947 -0.44775743513069821 -0.38373809507004858 -0.41892539726980732 0.36655653459788573 -0.50313899069188506 0.46973479178849631 -0.50646807587814191 -0.4862034655300847 0.56490730331640082 -0.50732589069828737 -0.52643558430649007 -0.56105069672478602
leaf_weight=4277.8163854330778 1134.5150963142514 25758.703653201461 1859.9199850000441 2784.0824356004596 3434.6005422286689 19199.198948204517 5367.0877272933722 870.03129117190838 1132.9826504513621 618.98237536102533 3624.7975529059768 1414.9333879873157 6825.2573317214847 2214.5570219010115 2193.2133339121938 915.10706958174706 1494.5330508500338 735.72726130485535 1619.0219564884901 6193.1575185991824 3746.8793894872069 41802.341055069119 870.6656798645854 5470.054857686162 954.30520191043615 3599.6729532182217 921.48225621134043 1033.5442088469863 6121.4823708347976 899.37795942276716 7615.1826476715505 765.8603857755661 556.0435119047761 16487.258227400482 547.27921548485756 555.63323950767517 759.64427229762077
leaf_count=9185 5096 276250 7384 7998 4742 14237 50508 4428 4638 3673 11028 8686 5774 10352 5167 6613 4517 4265 5085 5900 6282 15602 6649 10921 8254 18077 7651 8515 8049 5419 7414 6423 5301 9311 5240 5237 7701
internal_value=0 -0.432294 0.487626 -0.120819 0.217991 0.538066 -0.591855 -0.440769 -0.227582 -0.665771 -0.231385 -0.356572 0.374459 -0.168292 -0.128579 -0.477649 -0.239906 -0.568201 -0.29718 0.311121 0.140657 0.571143 -0.50297 0.234513 -0.66286 -0.367931 -0.606889 -0.63516 0.432364 -0.637761 0.521802 -0.671077 -0.680973 0.59378 -0.684772 -0.688232 -0.691488
internal_weight=0 64895.5 121479 21988.1 19150.9 102329 42907.3 14111.1 5287.36 28796.3 15457.1 4154.38 17224.6 12552.6 4053.13 3284.35 8927.78 8823.7 7433.25 15097.8 6530.96 85104 2904.56 8904.66 1869.41 5814.23 8087.97 7166.49 12946.7 1770.04 26814.4 6132.95 28177.3 58289.6 27621.3 27074 26518.3
internal_count=597572 493886 103686 80503 34114 69572 413383 109981 32619 303402 66223 27981 23008 49059 12551 23553 38031 77362 33514 21563 14280 46564 17164 15663 14867 28429 73097 65446 13823 12068 21651 56931 299729 24913 294428 289188 283951
is_linear=0
shrinkage=0.55


Tree=2
num_leaves=45
num_cat=0
split_feature=138 138 138 136 139 136 53 136 138 136 139 54 137 90 130 129 139 136 80 94 58 130 138 54 57 130 14 138 137 54 139 83 139 120 130 138 138 134 131 131 138 73 136 136
split_gain=50189.5 7222.5 5652.51 1854.84 1728.21 1318.62 820.105 716.631 644.576 573.008 564.929 622.641 454.427 654.874 395.776 356.306 352.131 272.667 269.487 264.953 254.794 250.238 247.837 323.369 152.684 344.006 142.942 159.384 150.474 139.226 122.872 116.367 106.47 89.4631 85.6566 73.0818 66.9925 51.2067 46.7274 45.118 77.2562 39.1597 28.2982 13.0314
threshold=24.500000000000004 12.500000000000002 54.500000000000007 0.46035030484199529 160.50000000000003 0.68332955241203319 0.24038449674844745 -0.83329373598098744 34.500000000000007 -0.50653046369552601 258.50000000000006 0.0099789998494088667 0.55005082488060009 1.0000000180025095e-35 64632.000000000007 4862.5000000000009 90.500000000000014 1.2851352691650393 13.402712345123293 623.60726928710949 0.15894749760627749 48705.500000000007 15.500000000000002 0.00048049999168142682 0.48684200644493109 48903.500000000007 381.50000000000006 38.500000000000007 0.64131346344947826 0.0013594999909400942 105.50000000000001 7.220243215560914 98.500000000000014 -5.7329804897308341 43563.500000000007 8.5000000000000018 65.500000000000014 223.50000000000003 6.5000000000000009 90.500000000000014 98.500000000000014 17.595330238342289 1.9789647459983828 0.8994065821170808
decision_type=2 2 2 2 2 2 2 2 2 2 2 2 2 2 2 2 2 2 2 2 2 2 2 2 2 2 2 2 2 2 2 2 2 2 2 2 2 2 2 2 2 2 2 2
left_child=1 3 4 9 8 7 12 -3 16 -1 11 -6 24 -14 20 -13 29 35 -18 38 26 -7 -9 -24 37 -26 27 -10 -28 -2 -25 36 -11 -17 -32 43 -15 39 -20 41 -41 -4 -19 -5
right_child=2 5 6 17 10 21 -8 22 14 32 -12 15 13 31 -16 33 18 42 19 -21 -22 -23 23 30 25 -27 28 -29 -30 -31 34 -33 -34 -35 -36 -37 -38 -39 -40 40 -42 -43 -44 -45
leaf_value=0.10348715687738742 -0.17697480878938027 -0.26211451863472701 -0.62405107428750639 0.46905540153024361 0.14629138636512265 0.18788930544213286 0.064053382544275408 0.19094926043464996 -0.16655095838369824 0.2952848288886416 0.26955470867369746 0.038260608503923411 0.17935270489684532 -0.41354293005896847 0.028828195584644917 -0.47228077369482002 0.12046224936350637 0.53550746914809644 -0.34272664340311149 0.017955852447798681 -0.13711277165369357 0.36735127965352304 0.18433486934606055 -0.12105720826187893 -0.63623665970238552 0.0047249742047773061 -0.60271945650642711 -0.46001614540169022 -0.28649004247741333 -0.46801647359759113 -0.049499965223965096 -0.29607211065181493 0.40541295053777315 -0.23301584352561538 0.10075040398566776 0.4155852495132788 -0.68239630607769963 -0.40662063027459022 -0.18677780168325994 -0.26599403098047647 -0.62265690874846147 -0.44882538719047421 0.57432168572289022 0.51295721197294075
leaf_weight=3483.1832022704184 885.75987366959453 2158.0649887546897 15618.721784554422 5956.5193937122822 2706.0393253788352 4252.8399318568408 644.10946910455823 4140.4442604593933 845.20678990706801 4796.6182584539056 2449.4965725019574 1074.8083627559245 557.60151791200042 508.14924414083362 637.88774842768908 988.27420553937554 1466.8887592405081 15098.848531475291 1255.3944756910205 1629.3407633453608 841.58855330571532 5410.5394182652235 2980.3830000534654 2792.36697524786 637.36382921040058 412.19344979524612 2558.0040567293763 1793.739066850394 588.29843331873417 1207.8885293565691 2293.6591559424996 667.60244249925017 6565.6458851732314 991.8902701921761 2278.3445346914232 5861.1309412308037 851.53635762631893 447.8942067399621 1218.5714123547077 350.40461095422506 455.36389670148492 500.84907521679997 14783.80109953694 6992.5445010513067
leaf_count=7861 6239 9426 263113 6803 9462 8010 3684 8037 5218 9274 5430 4725 2936 5727 4369 6157 4460 12005 6248 6201 6032 6330 6047 9072 10189 4246 31002 19489 3913 8606 6311 7952 7523 5156 5029 7426 11388 6789 5231 4963 8020 7708 6959 6806
internal_value=0 0.369491 -0.343176 0.469834 -0.154058 0.127049 -0.545157 0.0331155 -0.265516 0.299302 0.0484841 -0.045436 -0.563903 -0.345818 -0.38299 -0.215626 -0.153847 0.521769 -0.0811555 -0.153578 -0.422806 0.288617 0.0772499 0.0315634 -0.594347 -0.384394 -0.464021 -0.366916 -0.544457 -0.346092 -0.0301726 -0.490937 0.359161 -0.353822 0.0251341 0.46906 -0.584464 -0.60686 -0.266869 -0.611981 -0.471335 -0.618806 0.554832 0.493022
internal_weight=0 89844.9 44790.9 63538.3 23139.1 26306.6 21651.8 16643.3 14928.6 14845.4 8210.51 5761.01 21007.7 2584.89 7264.72 3054.97 7663.84 48692.8 5570.2 4103.31 6626.84 9663.38 14485.2 10344.8 18422.8 1049.56 5785.25 2638.95 3146.3 2093.65 7364.37 2027.29 11362.3 1980.16 4572 18810.2 1359.69 17373.2 2473.97 16925.3 805.769 16119.6 29882.6 12949.1
internal_count=597572 122919 474653 64657 137938 58262 336715 43922 107008 24658 30930 25500 333031 28003 70023 16038 36985 39999 22140 17680 65654 14340 34496 26459 305028 14435 59622 24707 34915 14845 20412 25067 16797 11313 11340 21035 17115 290593 11479 283804 12983 270821 18964 13609
is_linear=0
shrinkage=0.55


Tree=3
num_leaves=42
num_cat=0
split_feature=138 138 136 139 137 130 136 130 24 125 138 127 138 138 139 54 138 137 138 102 13 75 137 130 127 127 57 24 114 139 136 127 104 120 78 137 136 121 139 15 89
split_gain=21780.8 6387.17 2790.74 949.93 921.5 901.089 1477.64 590.981 659.502 653.499 525.595 450.766 428.373 399.057 616.83 525.856 382.372 379.046 365.635 403.245 329.578 280.033 266.263 238.569 233.41 229.874 190.123 182.86 182.067 150.926 124.601 110.365 93.0121 77.1899 77.1436 81.8835 36.1323 23.5581 16.0293 12.9511 10.2647
threshold=15.500000000000002 51.500000000000007 0.68332955241203319 56.500000000000007 0.3535792231559754 61700.000000000007 0.019674115814268592 32608.500000000004 71.500000000000014 2.5000000000000004 8.5000000000000018 8.5000000000000018 8.5000000000000018 78.500000000000014 196.50000000000003 0.011859500315040352 26.500000000000004 0.64784210920333873 22.500000000000004 0.61868450045585643 5.5000000000000009 9.8365168571472186 0.56210541725158703 65532.500000000007 2726.5000000000005 5.5000000000000009 0.24976199865341189 72.500000000000014 -6.3792269229888907 112.50000000000001 1.4942777752876284 15314.000000000002 0.9782945215702058 -6.7051215171813956 10.327492237091066 0.59796860814094555 0.061567658558487899 -12.087004184722899 124.50000000000001 21.858800888061527 47.152160644531257
decision_type=2 2 2 2 2 2 2 2 2 2 2 2 2 2 2 2 2 2 2 2 2 2 2 2 2 2 2 2 2 2 2 2 2 2 2 2 2 2 2 2 2
left_child=2 4 3 -1 28 13 24 8 18 11 30 20 36 14 27 -16 25 23 32 22 -9 -13 -20 -18 40 -11 -21 34 37 -14 38 39 -6 -12 35 -3 -5 -2 -4 -15 -7
right_child=1 5 10 12 7 6 -8 9 -10 16 33 21 29 31 15 -17 17 -19 19 26 -22 -23 -24 -25 -26 -27 -28 -29 -30 -31 -32 -33 -34 -35 -36 -37 -38 -39 -40 -41 -42
leaf_value=-0.10759041736333501 -0.51472744155159789 -0.57560512528566332 0.41746462471964868 0.28841183558958366 -0.10511292466021621 -0.58922341107163778 0.50070129949910802 0.063886244213790286 0.22887141593737587 -0.096222682143733307 0.28255348409594316 0.11772101632975701 0.072421125617320059 -0.59729726465747734 0.37858884311073193 -0.36484653695992225 -0.30620970378628359 0.060339936084064266 -0.27939331884175345 -0.45216238822990262 0.32468918331380442 -0.18136995963896033 0.088286081579155531 0.018500267658647186 0.021020891512925199 0.11779567469932609 -0.21253524899473553 -0.055345353572610612 -0.18446784945841202 0.22408103672060944 0.53550990217827066 -0.17796025887054562 0.057943651811808057 0.39531212376250768 -0.23172777161889777 -0.31390105885450265 0.36796173459669357 -0.73266230003617772 0.47315625271437212 -0.45136543366208387 -0.41188273466166947
leaf_weight=2748.402228012681 435.71266599930823 2947.2247617170215 3784.2327049616724 3416.8147466629744 2258.1011654250324 923.9861868917942 752.04017132148147 2274.7345440909266 1539.3183370437473 2256.6499036811292 4126.6492017824203 2343.8221409376711 3804.8052990119904 7462.503277245909 522.05555604211986 629.96253702603281 3216.7409837767482 1881.4516076482832 992.50674929656088 2206.6718769501895 4196.7675417494029 1582.2821069788188 1470.4886082746089 859.75560741126537 253.28608126193285 4595.0884643085301 1906.0741929933429 285.72085170261562 435.59375487267971 4230.5877572391182 14013.606863856316 213.66696717962623 1975.0192544423044 3651.0325328242034 287.60503980517387 457.70064269006252 4434.4113803226501 427.84667272493243 5252.3055880777538 333.60440856777132 226.10169637948275
leaf_count=9200 7093 69455 7693 5740 7189 23133 4777 7122 5504 7577 7808 7387 10008 200179 4411 8075 27010 7528 9020 17463 9927 6784 6388 4244 3863 10913 12249 5272 4030 7714 12971 4737 4974 4736 5525 6251 7342 5964 6159 8551 5606
internal_value=0 -0.150702 0.358724 0.190517 -0.0266507 -0.449434 -0.118802 -0.00996337 -0.107179 0.0417216 0.460322 0.144159 0.242181 -0.503519 -0.382403 -0.0267419 -0.0413537 -0.143257 -0.155222 -0.236368 0.233309 -0.00257763 -0.0596203 -0.237484 -0.452168 0.0471148 -0.341746 -0.484947 -0.48085 0.152499 0.502203 -0.58069 -0.02877 0.335834 -0.517757 -0.541231 0.333677 -0.627263 0.450183 -0.591466 -0.55711
internal_weight=0 52150.1 49462.8 18635 36854.6 15295.5 2155.41 35555.5 12348.2 23207.3 30827.8 10397.6 15886.6 13140 5130.27 1152.02 12809.7 5957.95 10808.9 6575.74 6471.5 3926.1 2463 4076.5 1403.37 6851.74 4112.75 3978.25 1299.15 8035.39 23050.1 8009.77 4233.12 7777.68 3692.53 3404.93 7851.23 863.559 9036.54 7796.11 1150.09
internal_count=597572 518201 79371 40004 168366 349835 37379 151279 62787 88492 39367 31220 30804 312456 98989 12486 57272 38782 57283 45120 17049 14171 15408 31254 32602 18490 29712 86503 17087 17722 26823 213467 12163 12544 81231 75706 13082 13057 13852 208730 28739
is_linear=0
shrinkage=0.55


Tree=4
num_leaves=33
num_cat=0
split_feature=138 138 136 136 136 24 138 136 126 126 137 56 105 137 137 136 124 136 130 127 50 139 11 138 102 137 138 138 113 117 138 10
split_gain=9510.7 4047.46 1584.02 1025.16 588.723 637.152 756.029 517.229 380.648 459.015 431.697 370.014 312.856 323.669 303.752 289.73 240.212 181.443 174.493 170.304 104.721 99.5962 91.863 89.9909 73.8296 60.7292 53.2233 50.2933 39.6151 38.8529 36.5228 22.2531
threshold=11.500000000000002 62.500000000000007 0.8994065821170808 -1.1854864358901975 -0.31899969279766077 10.500000000000002 90.500000000000014 1.0431852340698244 99.500000000000014 40.500000000000007 0.69330570101737987 0.31909099221229559 19.157896041870121 0.49785257875919348 0.56439545750617992 -0.59385171532630909 -2.6573964357376094 1.6909460425376894 50550.500000000007 9.5000000000000018 0.0031704999273642902 93.500000000000014 9.5000000000000018 70.500000000000014 0.51141801476478588 0.61270982027053844 5.5000000000000009 6.5000000000000009 -3.8418314456939693 -20.656889915466305 5.5000000000000009 1307.5000000000002
decision_type=2 2 2 2 2 2 2 2 2 2 2 2 2 2 2 2 2 2 2 2 2 2 2 2 2 2 2 2 2 2 2 2
left_child=2 3 15 14 22 6 -6 8 9 12 11 -11 18 -14 20 -1 23 27 -5 -12 24 30 25 -7 29 -3 -23 -4 -8 31 -17 -2
right_child=1 4 17 7 5 16 28 -9 -10 10 19 -13 13 -15 -16 21 -18 -19 -20 -21 -22 26 -24 -25 -26 -27 -28 -29 -30 -31 -32 -33
leaf_value=0.0056344233405371943 -0.76610680906247108 -0.56382863626963375 0.42229022114041176 0.040533850444060854 0.33253790994067722 -0.29150575267434187 -0.31294220742439838 0.18722701426867774 0.29904612757945837 -0.19359295041373883 -0.057574306427094463 0.082923868643600337 -0.251185224657059 0.0110638649282838 -0.10867680359039318 0.20336161562229005 0.10602665226521012 0.50731077412970793 0.17544130142055234 0.14696335589583001 -0.17655671865623543 0.32327114242453836 -0.11392590566181689 -0.6177918432088344 -0.29793096020861842 -0.19723523469836787 0.22058626974627824 0.32758199795145299 -0.66218198535825301 -0.41042457454420889 0.095593178442600152 -0.5308719267116524
leaf_weight=2311.9121902640909 468.90591673180461 4836.7484950274229 4696.6964703015983 7354.456476662308 916.8308943323791 369.77467154338956 202.22608307655901 4695.2601092653349 1191.9260286968201 9045.3316128347069 2380.8926158510149 1737.0600332859904 1779.0188329406083 7019.0522654410452 1194.1413286998868 2004.5169665347785 193.83786584809422 7378.741307457909 4822.3724208846688 2530.431358192116 313.49678346887231 2684.9878983292729 158.50585678592324 1104.9800017653033 330.66719247400761 157.46643815748394 4041.8958278717473 3107.8283966789022 271.28075715713203 277.64464747905731 1952.1406074929982 306.07785038650036
leaf_count=6097 9731 219761 10308 31209 10577 8382 6231 10236 4517 64890 8145 8600 16627 29821 6919 5495 3561 10585 14751 6787 5446 5053 6125 37289 5553 3111 9116 6878 7709 5402 6206 6454
internal_value=0 -0.0706424 0.323929 -0.00639073 -0.425897 -0.233569 0.0406609 0.015126 -0.00620434 -0.0161943 -0.0873449 -0.148918 0.036991 -0.0419259 -0.323086 0.182727 -0.462298 0.444618 0.0941045 0.0475994 -0.472597 0.220918 -0.539542 -0.537909 -0.538044 -0.552696 0.261936 0.384937 -0.519814 -0.610773 0.150661 -0.678275
internal_weight=0 53658.4 28178.7 45446.7 8211.65 3058.93 1390.34 42555.8 37860.5 36668.6 15693.7 10782.4 20974.9 8798.07 2890.93 12995.5 1668.59 15183.3 12176.8 4911.32 1696.79 10683.5 5152.72 1474.75 1383.3 4994.21 6726.88 7804.52 473.507 1052.63 3956.66 774.984
internal_count=597572 537834 59738 235088 302746 73749 24517 195583 185347 180830 88422 73490 92408 46448 39505 31967 49232 27771 45960 14932 32586 25870 228997 45671 27140 222872 14169 17186 13940 21587 11701 16185
is_linear=0
shrinkage=0.55


Tree=5
num_leaves=30
num_cat=0
split_feature=138 138 136 137 118 137 138 42 136 129 127 17 35 72 12 138 136 64 91 18 138 14 42 139 126 115 119 25 130
split_gain=4031.82 2299.16 1053.28 786.851 505.707 397.632 310.699 294.297 347.356 320.26 295.227 326.171 240.575 206.611 171.273 232.947 122.724 108.498 101.169 93.0003 125.975 88.5155 68.282 67.5563 50.7044 39.1565 38.9217 30.6177 10.4941
threshold=9.5000000000000018 86.500000000000014 1.0431852340698244 0.34504821896553045 -21.918080329895016 0.55005082488060009 40.500000000000007 0.97999998927116405 0.73252364993095409 18051.500000000004 20499.000000000004 7.7743685245513925 24.10000038146973 5.0667741298675546 3.5000000000000004 35.500000000000007 1.9789647459983828 0.047433499246835716 19.484590530395511 14.209166049957277 46.500000000000007 27.500000000000004 0.2070409953594208 117.50000000000001 92.500000000000014 -7.4453439712524405 -11.93743324279785 1.5000000000000002 12533.500000000002
decision_type=2 2 2 2 2 2 2 2 2 2 2 2 2 2 2 2 2 2 2 2 2 2 2 2 2 2 2 2 2
left_child=2 3 13 19 5 6 22 8 10 -10 11 -6 14 -1 -7 -16 26 -11 21 20 -2 -3 -5 27 -23 28 -4 -15 -21
right_child=1 18 16 4 7 12 -8 -9 9 17 -12 -13 -14 23 15 -17 -18 -19 -20 25 -22 24 -24 -25 -26 -27 -28 -29 -30
leaf_value=-0.0094186040502199555 0.10217488948977445 -0.17312864935213354 0.28805785995833683 -0.25318538587763295 -0.32137572409411946 0.077414802627155485 -0.55863790640913191 0.26774442022687578 0.27911717925896973 -0.047589085176854673 0.26241253951078886 -6.8121642838871836e-05 0.17721451687524811 0.088204158225599155 -0.05682473765641019 -0.29209932032152786 0.49699759746356342 0.12912829819518454 0.084036348426080293 -0.38729403890582798 -0.46561225631455277 -0.54911552621010684 -0.037052483200210359 0.24998442496826795 -0.088719679544920091 -0.19333564582113821 0.39501466176858496 0.1820896030417648 -0.56311628006047776
leaf_weight=2095.7167624123394 232.3506189500913 235.45390737429261 1829.4342030896805 883.23844372481108 996.54765426460654 2156.7237428352237 793.50904695224017 1689.1414355216548 2901.7552496073768 2081.117691825144 1224.0678921286017 21317.227399225347 1412.5034254333004 1939.2947549615055 8226.0713976006955 1508.2275637788698 3223.3209691736847 2102.252943072468 84.816715213470161 239.90126486402005 228.089863602072 2737.5351357124746 914.76569093205035 2994.1939956415445 82.712740517221391 145.90917104110122 3101.6242972821929 2527.6858739815652 707.5710122063756
leaf_count=6526 1884 10462 6522 7379 7273 8962 33823 7447 5503 6598 4635 132421 5419 5588 29217 21517 6779 5100 4567 8911 9852 192726 5643 7128 4125 3570 8797 8536 30662
internal_value=0 -0.0363358 0.266799 -0.00748636 0.00492222 -0.0753542 -0.272334 0.0444543 0.0320616 0.138788 -3.25951e-05 -0.0145327 -0.0368144 0.14261 -0.0623962 -0.0935178 0.412043 0.0409694 -0.492415 -0.392164 -0.178234 -0.508909 -0.144254 0.185455 -0.536201 -0.480076 0.355871 0.141728 -0.521865
internal_weight=0 52901.5 17711.3 49761 48207.1 15895 2591.51 32312.1 30623 7085.13 23537.8 22313.8 13303.5 9556.89 11891 9734.3 8154.38 4183.37 3140.52 1553.82 460.44 3055.7 1798 7461.17 2820.25 1093.38 4931.06 4466.98 947.472
internal_count=597572 547696 49876 335816 280937 111960 46845 168977 161530 17201 144329 139694 65115 27778 59696 50734 22098 11698 211880 54879 11736 207313 13022 21252 196851 43143 15319 14124 39573
is_linear=0
shrinkage=0.55


Tree=6
num_leaves=28
num_cat=0
split_feature=136 138 139 138 57 52 126 55 123 107 138 138 127 80 138 139 91 137 111 111 104 136 50 92 123 75 123
split_gain=1781.64 1244.51 774.167 635.812 401.697 359.755 393.627 377.279 347.006 337.353 335.956 277.454 200.515 191.954 159.911 148.812 145.883 131.074 179.737 171.966 78.2167 53.3076 38.0639 36.8981 23.4466 21.629 12.0398
threshold=1.2851352691650393 86.500000000000014 30.500000000000004 16.500000000000004 0.43967999517917639 0.10128200054168703 72.500000000000014 0.042107500135898597 -17.663712501525875 15.548985004425051 6.5000000000000009 59.500000000000007 6589.5000000000009 41.577123641967781 5.5000000000000009 145.50000000000003 46.012937545776374 0.41304484009742742 -4.1517925262451163 -3.5982509851455684 0.9775800108909608 1.9789647459983828 0.012316500302404167 16.566499710083011 -13.148246288299559 3.9873139858245854 -32.868030548095696
decision_type=2 2 2 2 2 2 2 2 2 2 2 2 2 2 2 2 2 2 2 2 2 2 2 2 2 2 2
left_child=1 2 -1 14 5 8 7 -7 11 -6 21 -5 -10 -11 25 20 17 -3 26 -20 23 -2 -17 -16 -22 -4 -19
right_child=10 16 3 4 9 6 -8 -9 12 13 -12 -13 -14 -15 15 22 -18 18 19 -21 24 -23 -24 -25 -26 -27 -28
leaf_value=-0.49952723569462043 0.32917651162637729 -0.55991212490621867 0.14470066983538599 -0.072701254078365002 0.39260440147709458 -0.27183571955157276 0.19429048665393847 -0.049920905617256706 0.025834546387136517 0.19967601259873399 0.15084492319729323 -0.51066634462791616 0.2644580640193141 -0.17000706991301828 0.017519902300836537 0.095555357431489546 0.42127254634496258 -0.22048103810014591 0.49501299039704261 -0.30843434442089607 0.13091678724621664 0.46650522446009413 0.19568228090887965 -0.074143805922114683 0.047982174175867344 0.22298195705456167 -0.56388151052812219
leaf_weight=894.85724237421528 1867.5484423311427 1294.9939810796641 2478.3698513722047 7374.1107516731136 1171.0769682610407 4956.6442108373158 998.67996667465195 4382.738680430688 11988.012570263352 818.79750268300995 2979.5354309822433 462.4068336118944 1167.2976273233071 873.04505754262209 4640.7847500140779 2366.0760443522595 54.298418271355331 56.840878040995449 139.93481951439753 177.2456955765374 2000.2234120573848 1897.1710625826381 2398.0126846665516 1851.3138981349766 2275.0861618425697 2183.7295337663963 307.15653505036607
leaf_count=4912 8159 160335 7228 64668 4874 46607 5904 29333 93197 4892 8594 36435 4978 6763 13897 5803 2259 6384 4182 8774 5774 6388 5641 6337 7442 7885 29927
internal_value=0 -0.0089448 0.00658216 0.0149715 -0.0307021 -0.0487592 -0.132726 -0.167899 -0.00733065 0.166252 0.28981 -0.0989705 0.0471814 0.00824819 0.0923582 0.0653878 -0.431374 -0.456296 -0.255218 0.0441937 0.0294117 0.399166 0.146342 -0.00846556 0.087161 0.181803 -0.516815
internal_weight=0 57311.7 55281.3 54386.4 34192.8 31329.9 10338.1 9339.38 20991.8 2862.92 6744.25 7836.52 13155.3 1691.84 20193.6 15531.5 2030.47 1976.17 681.178 317.181 10767.4 3764.72 4764.09 6492.1 4275.31 4662.1 363.997
internal_count=597572 574431 362570 357658 297651 281122 81844 75940 199278 16529 23141 101103 98175 11655 60007 44894 211861 209602 49267 12956 33450 14547 11444 20234 13216 15113 36311
is_linear=0
shrinkage=0.55


Tree=7
num_leaves=40
num_cat=0
split_feature=138 136 49 137 53 25 135 129 87 138 37 57 139 127 127 29 110 132 137 127 129 19 117 137 137 107 139 136 25 138 136 125 124 14 105 58 138 126 116
split_gain=822.436 588.311 540.408 388.144 459.849 270.654 295.864 295.076 376.231 218.486 211.136 292.162 215.147 212.591 200.256 181.711 161.785 269.16 148.568 127.522 115.091 129.385 110.63 213.739 107.013 106.861 103.254 97.4141 78.3589 111.61 74.9376 73.9312 69.9839 87.9143 62.5321 57.328 43.0793 37.6257 18.1865
threshold=32.500000000000007 1.8166227936744692 0.25013549625873571 0.40710768103599554 0.24038449674844745 10.500000000000002 22.473333358764652 1110.5000000000002 5.6325719356536874 39.500000000000007 1.4499999880790713 0.48684200644493109 188.50000000000003 36896.500000000007 142622.50000000003 8.5000000000000018 -3.4733380079269405 5.5000000000000009 0.68472507596015941 3.5000000000000004 2994.5000000000005 7.0556240081787118 -20.544945716857907 0.77351179718971264 0.68041047453880321 12.195181846618654 95.500000000000014 0.83735555410385143 1.5000000000000002 18.500000000000004 0.49417698383331304 2.5000000000000004 -4.2106795310974112 192.50000000000003 35.657920837402351 0.096005998551845564 16.500000000000004 41.500000000000007 -1.0000000180025095e-35
decision_type=2 2 2 2 2 2 2 2 2 2 2 2 2 2 2 2 2 2 2 2 2 2 2 2 2 2 2 2 2 2 2 2 2 2 2 2 2 2 2
left_child=1 15 3 4 9 6 10 -7 -9 -2 11 13 -12 -5 34 19 17 -8 25 22 24 -22 23 26 -21 -17 -1 32 29 -23 31 -10 33 -24 38 -27 -30 -20 -11
right_child=2 -3 -4 5 -6 7 16 8 30 14 12 -13 -14 -15 -16 18 -18 -19 37 20 21 28 27 -25 -26 35 -28 -29 36 -31 -32 -33 -34 -35 -36 -37 -38 -39 -40
leaf_value=-0.079158369798711062 -0.010993965665945838 0.34549676369359317 0.45187798503930349 -0.17477109509345071 0.39077728128179917 0.15020262514966526 0.30543846768828598 0.095658253737740923 -0.62702572300838344 -0.54279507829374385 -0.091830254696641786 0.22784877265605868 0.4394507733485804 0.25687591343509347 0.49773818334772529 0.12736751633148419 0.45053654511788055 -0.26217871255630454 0.21991940610429961 -0.10946063509099352 -0.034604314554757855 0.07913673109845866 -0.087128158565123667 0.052541140368427733 0.048535270847969089 -0.079062054831016942 -0.26334278528281119 0.13569171289607099 0.100413770594729 0.23378482015669366 -0.76432107356438339 -0.26568830380435338 -0.10895049845849326 0.06573050164777193 0.097723135093266703 0.045037751978916282 -0.02264934707391765 0.11526093672178989 -0.2645331322478941
leaf_weight=2144.3165937545709 370.59384284960106 1940.4491932794917 510.05878176540136 6168.5810647585895 242.4418270168826 387.83656712993979 577.7234141305089 361.95223160134628 345.66570081538521 1628.4013972452376 469.13582086213864 674.96078798687086 441.24435520521365 359.60094397887588 57.092775691300631 3041.8149512533564 465.98081507836469 440.94932720134966 2462.1980228924658 2300.4997838949785 2449.4055242743343 3319.4143641598057 1627.4995768512599 2287.4161268253811 2950.5239681866951 1883.4536652406678 1652.1642405586317 1677.4363838993013 1757.3513824590482 2506.4957935456187 349.70194930559956 391.73089992278256 1692.8604879532941 3736.5915831262246 45.178277665749192 2781.2421228811145 1654.8032734952867 1947.6453125148546 105.79914900078438
leaf_count=10494 5756 9348 5840 124646 2558 5537 6686 4353 8602 212251 7798 6233 3932 2572 2435 7696 1678 9817 8404 10338 7950 9626 6001 7305 9375 7196 6918 5342 6349 7749 3696 8183 5702 12630 3897 9365 6105 6950 10259
internal_value=0 0.0494102 -0.101272 -0.121816 -0.32048 -0.0790474 -0.0418236 -0.272329 -0.386364 -0.399779 -0.0832467 -0.1149 0.165224 -0.150652 -0.477364 0.0362538 0.183315 0.0584824 0.0935633 0.0143401 0.0469565 0.0773578 -0.0228644 -0.0798119 -0.020487 0.0472305 -0.159843 0.0166839 0.107177 0.146005 -0.547701 -0.439416 -0.0114999 0.0190934 -0.51048 -0.00483788 0.040425 0.174131 -0.527227
internal_weight=0 45813.6 14394.6 13884.6 2449.51 11435.1 9598.18 1836.89 1449.05 2207.07 8113.52 7203.14 910.38 6528.18 1836.47 43873.1 1484.65 1018.67 12116.4 31756.8 16938.5 11687.5 14818.3 6083.9 5251.02 7706.51 3796.48 8734.39 9238.06 5825.91 1087.1 737.397 7056.95 5364.09 1779.38 4664.7 3412.15 4409.84 1734.2
internal_count=597572 160843 436729 430889 237156 193733 163362 30371 24834 234598 145181 133451 11730 127218 228842 151495 18181 16503 39611 111884 57492 37779 54392 24717 19713 24257 17412 29675 29829 17375 20481 16785 24333 18631 226407 16561 12454 15354 222510
is_linear=0
shrinkage=0.55


Tree=8
num_leaves=25
num_cat=0
split_feature=138 136 130 130 73 138 40 60 130 48 131 127 129 134 15 77 70 137 17 139 47 126 50 112
split_gain=439.662 289.675 238.812 195.868 373.829 268.334 359.58 250.301 245.667 289.137 213.191 199.595 194.949 178.817 181.526 126.556 205.199 195.696 197.05 119.812 108.293 93.0186 58.7444 20.0749
threshold=90.500000000000014 1.9789647459983828 99.500000000000014 62142.500000000007 8.099924564361574 51.500000000000007 676.11999511718761 0.031279498711228378 52649.500000000007 0.16333349794149402 74.500000000000014 41.500000000000007 15454.500000000002 69.500000000000014 21.858800888061527 10.10287380218506 33.392169952392585 0.64131346344947826 8.5208659172058123 215.50000000000003 0.19577550143003467 101.50000000000001 0.023892500437796119 -27.133019447326657
decision_type=2 2 2 2 2 2 2 2 2 2 2 2 2 2 2 2 2 2 2 2 2 2 2 2
left_child=1 2 -1 5 7 15 8 12 10 -10 -7 -6 20 14 21 17 -17 18 -4 -19 -5 23 -18 -2
right_child=13 -3 3 4 11 6 -8 -9 9 -11 -12 -13 -14 -15 -16 16 22 19 -20 -21 -22 -23 -24 -25
leaf_value=0.21997562442666424 -0.12548638305827253 0.2998556393551543 -0.28859937737655977 0.077817287869992244 0.0611797000377294 -0.39714114269680895 0.73741734240836521 0.40266331731152349 -0.25487944279795888 0.42115724727685716 0.15213629996730374 -0.22744410564724932 -0.087130426811069792 0.39061572208152939 0.47845965160331255 0.26572388510446415 -0.082842914270852344 0.008262196099515515 -0.041078815916186208 0.1410073414134366 0.31172310867288494 0.26929102228789958 0.058592399259311027 -0.56225323663867555
leaf_weight=1547.4106899288017 43.846840154379606 1038.8834447293775 1032.5694729145616 1249.5329236995894 1564.2723486758769 1653.4342678070534 119.30843625182752 1146.4867942451965 431.28336317511275 336.2500771379564 239.59114314313047 1336.6406602170318 1082.1416801037267 82.830203257035464 57.15246659819968 1309.5636342964135 1251.394020173233 17981.768347359262 16410.802395542851 2322.2487813786138 1184.2604595865123 40.765008507529274 3008.5134905360173 748.40589457738679
leaf_count=8063 11236 7241 4706 8069 8093 97626 3511 3445 22623 5048 5821 8947 6850 9940 7428 4082 6912 68482 105507 5991 4686 2427 13174 167664
internal_value=0 0.0127141 0.00726539 0.00109133 0.0831198 -0.0123479 -0.17786 0.17958 -0.220508 0.0404316 -0.326792 -0.0715348 0.106081 -0.359336 -0.43205 -0.00168126 0.0756479 -0.0131304 -0.0558694 0.0235316 0.192487 -0.49815 0.0167179 -0.540426
internal_weight=0 56246.4 55207.5 53660.1 7563.33 46096.7 2779.87 4662.42 2660.56 767.533 1893.03 2900.91 3515.94 973 890.17 43316.9 5569.47 37747.4 17443.4 20304 2433.79 833.018 4259.91 792.253
internal_count=597572 398877 391636 383573 40090 343483 134629 23050 131118 27671 103447 17040 19605 198695 188755 208854 24168 184686 110213 74473 12755 181327 20086 178900
is_linear=0
shrinkage=0.55


Tree=9
num_leaves=16
num_cat=0
split_feature=138 139 138 101 19 118 13 10 107 138 136 52 137 136 118
split_gain=241.908 187.59 248.732 176.099 129.434 124.043 125.702 210.6 141.055 326.406 199.425 93.882 49.4922 32.8877 23.3572
threshold=105.50000000000001 24.500000000000004 4.5000000000000009 0.82190749049186718 25.515949249267582 -45.968112945556634 14.500000000000002 460.50000000000006 15.077637672424318 37.500000000000007 -0.31057718396186823 0.074537001550197615 0.55005082488060009 1.4942777752876284 -21.159400939941403
decision_type=2 2 2 2 2 2 2 2 2 2 2 2 2 2 2
left_child=1 -1 11 12 5 -4 8 -8 10 -10 -7 14 -2 -13 -3
right_child=3 2 4 -5 -6 6 7 -9 9 -11 -12 13 -14 -15 -16
leaf_value=-0.27211729773050081 -0.53939100524781769 0.019327954786293056 -0.19579972144159644 0.50557741640325549 0.16720750950502569 -0.058162723054702249 0.23716568358301787 -0.099567334483033787 -0.019218604613900216 -0.25307864113959999 0.046280111067902654 0.16159475155144618 0.014243212367388949 0.31987203081037796 0.12276032324689004
leaf_weight=716.37888821796514 420.81959249748616 1381.9884335910901 1009.5029087330913 57.441572629031725 1345.6954738290515 7684.5675025362289 1603.356687103631 854.53042497939896 15888.814467102522 2035.1565512276138 19647.936980908387 927.84916434530169 50.149087870260701 792.20144694799092 1323.861552542774
leaf_count=3194 143093 6010 11016 8127 9089 150019 9295 7668 63131 66276 99112 5279 3607 7002 5654
internal_value=0 0.00657179 0.0102792 -0.365791 -0.000749193 -0.00542747 -0.00135668 0.119634 -0.00796543 -0.0458951 0.016867 0.135192 -0.478308 0.235824 0.0704968
internal_weight=0 55211.8 54495.5 528.41 50069.6 48723.9 47714.4 2457.89 45256.5 17924 27332.5 4425.9 470.969 1720.05 2705.85
internal_count=597572 442745 439551 154827 415606 406517 395501 16963 378538 129407 249131 23945 146700 12281 11664
is_linear=0
shrinkage=0.55


end of trees

feature_importances:
Column_138=60
Column_136=39
Column_139=29
Column_137=25
Column_130=15
Column_127=12
Column_126=7
Column_129=6
Column_54=5
Column_57=4
Column_118=4
Column_131=4
Column_14=3
Column_24=3
Column_25=3
Column_50=3
Column_53=3
Column_75=3
Column_107=3
Column_117=3
Column_123=3
Column_10=2
Column_13=2
Column_15=2
Column_17=2
Column_18=2
Column_19=2
Column_42=2
Column_48=2
Column_52=2
Column_58=2
Column_64=2
Column_67=2
Column_72=2
Column_73=2
Column_80=2
Column_91=2
Column_92=2
Column_102=2
Column_104=2
Column_105=2
Column_111=2
Column_119=2
Column_120=2
Column_124=2
Column_125=2
Column_134=2
Column_0=1
Column_11=1
Column_12=1
Column_29=1
Column_35=1
Column_37=1
Column_40=1
Column_47=1
Column_49=1
Column_55=1
Column_56=1
Column_60=1
Column_62=1
Column_70=1
Column_77=1
Column_78=1
Column_83=1
Column_87=1
Column_89=1
Column_90=1
Column_94=1
Column_100=1
Column_101=1
Column_109=1
Column_110=1
Column_112=1
Column_113=1
Column_114=1
Column_115=1
Column_116=1
Column_121=1
Column_128=1
Column_132=1
Column_135=1

parameters:
[boosting: gbdt]
[objective: binary]
[metric: binary_logloss]
[tree_learner: serial]
[device_type: cpu]
[data: ]
[valid: ]
[num_iterations: 10]
[learning_rate: 0.55]
[num_leaves: 64]
[num_threads: 0]
[deterministic: 0]
[force_col_wise: 0]
[force_row_wise: 0]
[histogram_pool_size: -1]
[max_depth: 8]
[min_data_in_leaf: 5640]
[min_sum_hessian_in_leaf: 40.3]
[bagging_fraction: 1]
[pos_bagging_fraction: 1]
[neg_bagging_fraction: 1]
[bagging_freq: 0]
[bagging_seed: 3]
[feature_fraction: 1]
[feature_fraction_bynode: 1]
[feature_fraction_seed: 2]
[extra_trees: 0]
[extra_seed: 6]
[early_stopping_round: 5]
[first_metric_only: 0]
[max_delta_step: 0]
[lambda_l1: 2.2]
[lambda_l2: 4.4]
[linear_lambda: 0]
[min_gain_to_split: 9.6]
[drop_rate: 0.1]
[max_drop: 50]
[skip_drop: 0.5]
[xgboost_dart_mode: 0]
[uniform_drop: 0]
[drop_seed: 4]
[top_rate: 0.2]
[other_rate: 0.1]
[min_data_per_group: 100]
[max_cat_threshold: 32]
[cat_l2: 10]
[cat_smooth: 10]
[max_cat_to_onehot: 4]
[top_k: 20]
[monotone_constraints: ]
[monotone_constraints_method: basic]
[monotone_penalty: 0]
[feature_contri: ]
[forcedsplits_filename: ]
[refit_decay_rate: 0.9]
[cegb_tradeoff: 1]
[cegb_penalty_split: 0]
[cegb_penalty_feature_lazy: ]
[cegb_penalty_feature_coupled: ]
[path_smooth: 0]
[interaction_constraints: ]
[verbosity: -1]
[saved_feature_importance_type: 0]
[linear_tree: 0]
[max_bin: 255]
[max_bin_by_feature: ]
[min_data_in_bin: 3]
[bin_construct_sample_cnt: 200000]
[data_random_seed: 1]
[is_enable_sparse: 1]
[enable_bundle: 1]
[use_missing: 1]
[zero_as_missing: 0]
[feature_pre_filter: 0]
[pre_partition: 0]
[two_round: 0]
[header: 0]
[label_column: ]
[weight_column: ]
[group_column: ]
[ignore_column: ]
[categorical_feature: ]
[forcedbins_filename: ]
[precise_float_parser: 0]
[objective_seed: 5]
[num_class: 1]
[is_unbalance: 0]
[scale_pos_weight: 1]
[sigmoid: 1]
[boost_from_average: 1]
[reg_sqrt: 0]
[alpha: 0.9]
[fair_c: 1]
[poisson_max_delta_step: 0.7]
[tweedie_variance_power: 1.5]
[lambdarank_truncation_level: 30]
[lambdarank_norm: 1]
[label_gain: ]
[eval_at: 10]
[multi_error_top_k: 1]
[auc_mu_weights: ]
[num_machines: 1]
[local_listen_port: 12400]
[time_out: 120]
[machine_list_filename: ]
[machines: ]
[gpu_platform_id: -1]
[gpu_device_id: -1]
[gpu_use_dp: 0]
[num_gpu: 1]

end of parameters

pandas_categorical:null
