tree
version=v3
num_class=1
num_tree_per_iteration=1
label_index=0
max_feature_idx=139
objective=binary sigmoid:1
feature_names=Column_0 Column_1 Column_2 Column_3 Column_4 Column_5 Column_6 Column_7 Column_8 Column_9 Column_10 Column_11 Column_12 Column_13 Column_14 Column_15 Column_16 Column_17 Column_18 Column_19 Column_20 Column_21 Column_22 Column_23 Column_24 Column_25 Column_26 Column_27 Column_28 Column_29 Column_30 Column_31 Column_32 Column_33 Column_34 Column_35 Column_36 Column_37 Column_38 Column_39 Column_40 Column_41 Column_42 Column_43 Column_44 Column_45 Column_46 Column_47 Column_48 Column_49 Column_50 Column_51 Column_52 Column_53 Column_54 Column_55 Column_56 Column_57 Column_58 Column_59 Column_60 Column_61 Column_62 Column_63 Column_64 Column_65 Column_66 Column_67 Column_68 Column_69 Column_70 Column_71 Column_72 Column_73 Column_74 Column_75 Column_76 Column_77 Column_78 Column_79 Column_80 Column_81 Column_82 Column_83 Column_84 Column_85 Column_86 Column_87 Column_88 Column_89 Column_90 Column_91 Column_92 Column_93 Column_94 Column_95 Column_96 Column_97 Column_98 Column_99 Column_100 Column_101 Column_102 Column_103 Column_104 Column_105 Column_106 Column_107 Column_108 Column_109 Column_110 Column_111 Column_112 Column_113 Column_114 Column_115 Column_116 Column_117 Column_118 Column_119 Column_120 Column_121 Column_122 Column_123 Column_124 Column_125 Column_126 Column_127 Column_128 Column_129 Column_130 Column_131 Column_132 Column_133 Column_134 Column_135 Column_136 Column_137 Column_138 Column_139
feature_infos=[0:16] [0:6] [0:8] [0:8] [0:16] [0:1] [0:1] [0:1] [0:1] [0:1] [0:12923] [0:3233] [0:12917] [2:132] [3:25845] [-1.9397770166397095:98.653861999511719] [3.7259809970855713:159.86013793945312] [2.7613649368286133:152.07829284667969] [0.79833799600601196:166.13566589355469] [-1.9448369741439819:98.624855041503906] [0:2726] [0:110] [0:563] [0:10] [0:2730] [0:1083] [0:30] [0:49] [0:5] [0:1083] [0:1627] [0:64] [0:475] [0:6] [0:1629] [0:1083] [0:30] [0:140.75] [0:5] [0:1083] [0:661782.25] [0:638.75] [0:37744.1875] [0:9] [0:663410.25] [0:2] [0:2] [0:2] [0:1] [0:0.80995500087738037] [0:1] [0:1] [0:1] [0:0.57142901420593262] [0:0.60000002384185791] [0:1] [0:1] [0:1] [0:0.57142901420593262] [0:0.60000002384185791] [0:1] [0:1] [0:1] [0:0.57142901420593262] [0:0.60000002384185791] [0:0.25] [0:0.25] [0:0.25] [0:0.0625] [0:0.0625] [-502.57244873046875:16527.740234375] [0:955.788818359375] [0:4664.697265625] [0:77.544601440429688] [-503.66119384765625:16532.033203125] [-567.93853759765625:4774.43798828125] [0:223.21076965332031] [0:538.6591796875] [0:64.091140747070312] [-569.168701171875:4789.7236328125] [0:11113.951171875] [0:615.50018310546875] [0:3829.640380859375] [0:68.338874816894531] [0:11124.8037109375] [-281.26773071289062:5556.9755859375] [0:238.94720458984375] [0:1200.550537109375] [0:64.091140747070312] [-287.8358154296875:5562.40185546875] [0:30879978] [0:56952.48828125] [0:2417518.5] [0:1167.55029296875] [0:30940314] [0:1] [0:1] [0:1] [0:1] [0:1] [0:1] [0:1] [0:1] [0:1] [0:1] [-11.413535118103027:190.64485168457031] [0:60.223415374755859] [0:72.414131164550781] [0:49.223228454589844] [-11.416239738464355:191.38079833984375] [-194.15585327148438:0] [-118.54830169677734:0] [-158.66993713378906:0] [-132.80621337890625:0] [-194.16043090820312:0] [-187.41470336914062:0] [-111.64816284179688:0] [-156.41024780273438:0] [-130.16769409179688:0] [-187.39202880859375:0] [-205.81387329101562:0] [-137.58628845214844:0.70563399791717529] [-179.10939025878906:0] [-155.76138305664062:0] [-205.75247192382812:0] [1:31] [5:1383] [0:226244464] [0:170] [100:65534] [1:65535] [1:254] [1:254] [0:4344779] [0:2348975] [0:570000000] [-4.5702376365661621:4.7759213447570801] [0:1] [0:676] [1:679]
tree_sizes=3549 3931 3706 3399 3593 3011 2188 3839 2965 4941

Tree=0
num_leaves=32
num_cat=0
split_feature=138 138 138 139 139 136 136 118 116 139 138 138 139 139 130 138 137 138 138 138 139 102 4 136 139 136 136 137 139 136 136
split_gain=901012 36392.3 33017.5 15856.8 12823.1 4990.77 4835.1 3746.46 3466.53 3104.01 2526.21 1923.55 1675.2 1619.13 1524.9 1400.35 1261.69 1199.36 1041.52 638.628 1648.84 618.966 490.641 364.488 303.523 90.5923 85.8689 106.455 57.5864 44.5374 23.084
threshold=33.500000000000007 20.500000000000004 50.500000000000007 133.50000000000003 91.500000000000014 0.2622715830802918 -0.11162175983190535 -7.5845043659210196 -12.294141769409178 127.50000000000001 26.500000000000004 25.500000000000004 69.500000000000014 88.500000000000014 51133.500000000007 13.500000000000002 0.59796860814094555 41.500000000000007 25.500000000000004 62.500000000000007 161.50000000000003 0.94282248616218578 1.5000000000000002 0.8994065821170808 133.50000000000003 -1.1716357469558714 -0.10297535359859465 0.47548520565032965 126.50000000000001 0.36254109442234045 1.4942777752876284
decision_type=2 2 2 2 2 2 2 2 2 2 2 2 2 2 2 2 2 2 2 2 2 2 2 2 2 2 2 2 2 2 2
left_child=1 6 3 13 10 16 12 14 -7 11 -3 -6 -1 25 21 23 19 -15 -11 20 28 -5 -20 29 -17 -2 -21 -28 -4 -8 -25
right_child=2 4 5 7 9 8 15 -9 -10 18 -12 -13 -14 17 -16 24 -18 -19 22 26 -22 -23 -24 30 -26 -27 27 -29 -30 -31 -32
leaf_value=1.4078809655876627 -1.7465445765359935 0.46240897362898703 -1.733874353663839 0.072111490085944085 1.3120549300879742 -1.4840476203775157 2.0230908164362145 1.1566300782087895 0.15144719106426852 1.7212471639003035 -0.6802628698016655 0.47953005557503725 1.8548683345587622 -0.43002003912876674 0.5466475825309316 1.8446276249124529 -1.061124239767808 -1.234622254328164 1.5298528807559784 -1.7700055735939892 -0.56255711679890785 -0.65591949699396213 1.1571095790929327 2.119469887584545 2.000425686489546 -1.3420557557996136 -1.6866570505623664 -1.2562005453710683 -1.3602393723582786 2.0796583668252588 2.1494507563755083
leaf_weight=5018.424797102809 1076.9381618648767 2019.1151330918074 2489.076863117516 1049.9366698712111 2504.3821263685822 1101.4689794704318 13381.278364412487 2005.8499540835619 1131.4153324589133 6356.7580734416842 1411.3091292455792 2225.0568703263998 12282.434985585511 1796.7586955502629 1574.1749383062124 8879.9380993694067 1473.2153759598732 1562.8420599773526 2975.0902472212911 23047.35747282207 779.48995457589626 1106.0521862059832 2987.3558751344681 35993.545491464436 15015.323374785483 1158.2484028637409 1860.2567922249436 745.54075849056244 747.81569968163967 24523.944000273943 56658.748365879059
leaf_count=12773 11141 9527 25864 6436 6715 11273 10227 6029 6644 9330 10607 10744 14318 12928 7449 11469 13676 14544 5793 255500 6170 8918 9135 15645 10315 10332 20417 7279 7435 14406 14533
internal_value=1.34317 1.95445 -1.28512 -0.324666 1.13564 -1.61086 2.05211 0.436855 -0.660189 1.36613 -0.0104785 0.918999 1.72554 -1.10364 0.0516277 2.08865 -1.67867 -0.807692 1.53827 -1.70893 -1.44299 -0.305896 1.34317 2.11529 1.94281 -1.54289 -1.75005 -1.56842 -1.65157 2.05988 2.13788
internal_weight=0 192233 44706.4 11330.8 20479.1 33375.6 171754 5736.01 2232.88 17048.6 3430.42 4729.44 17300.9 5594.79 3730.16 154453 31142.8 3359.6 12319.2 29669.5 4016.38 2155.99 5962.45 130558 23895.3 2235.19 25653.2 2605.8 3236.89 37905.2 92652.3
internal_count=597572 165537 432035 77777 61851 354258 103686 28832 17917 41717 20134 17459 27091 48945 22803 76595 336341 27472 24258 322665 39469 15354 14928 54811 21784 21473 283196 27696 33299 24633 30178
is_linear=0
shrinkage=1


Tree=1
num_leaves=35
num_cat=0
split_feature=138 138 136 138 136 137 117 75 105 138 136 136 82 58 137 130 130 137 137 136 19 136 113 138 57 136 136 136 138 132 40 10 137 138
split_gain=72324.2 9371.73 5356.97 2451.33 2413.07 1637.66 1676.25 1282.16 1258.24 991.106 917.29 881.371 554.346 549.736 530.637 510.75 471.74 373.227 352.676 327.741 293.233 143.563 142.001 141.297 136.227 201.38 143.031 135.928 122.021 119.16 60.491 45.2187 41.2804 6.10497
threshold=22.500000000000004 43.500000000000007 0.51383909583091747 15.500000000000002 -0.59385171532630909 0.45160669088363653 -14.121131420135496 10.099808216094972 19.157896041870121 12.500000000000002 -0.2766562551259994 -0.50653046369552601 6.5731058120727548 0.23303149640560153 0.63138690590858471 32931.500000000007 47385.500000000007 0.66157612204551708 0.42071278393268591 0.33202029764652258 6.6800115108489999 0.27564442157745367 -13.39856958389282 16.500000000000004 0.45307900011539465 0.27564442157745367 0.11615824326872827 1.2851352691650393 9.5000000000000018 4.5000000000000009 156.36989593505862 125.50000000000001 0.38968376815319067 7.5000000000000009
decision_type=2 2 2 2 2 2 2 2 2 2 2 2 2 2 2 2 2 2 2 2 2 2 2 2 2 2 2 2 2 2 2 2 2 2
left_child=2 4 3 11 18 13 17 12 16 27 -5 -1 -8 24 15 -10 20 22 -2 -17 -6 -9 30 -11 25 26 32 33 -13 -20 31 -7 -3 -4
right_child=1 5 9 10 8 6 7 21 14 23 -12 28 -14 -15 -16 19 -18 -19 29 -21 -22 -23 -24 -25 -26 -27 -28 -29 -30 -31 -32 -33 -34 -35
leaf_value=0.19828282538702113 -0.76486960861271436 -0.74962662155478832 0.64775976420157699 -0.23151069369005747 -0.13541852813600441 -0.53917206693301667 -0.068744254722275522 -0.66179974781414797 -0.49789744632203298 0.54535698871970117 0.19392429982156847 0.54371456609979174 0.49848181682141068 -0.07320394291246636 0.052928489947876724 -0.29532948758823402 0.29691197847625056 -0.17189581512897095 -0.21838294213698761 0.073818691148167179 0.1892557961769594 -0.30559405734310863 -0.42736286794189698 0.4108790876929902 -0.47204268198243488 -1.1400737622287347 -0.37607886898216952 0.69797295407094206 0.43177181093130584 -0.47030425320940816 -0.50260828271245417 -0.76041447270551765 -0.65413925535061124 0.60508179894688141
leaf_weight=5312.9098503142595 1329.4836443960667 13635.948900058866 14073.724068038166 3319.4854150339961 2357.5660022497177 673.81018861755729 1745.848634287715 1116.8821705654263 2256.1181909143925 7681.9152039289474 6001.695203602314 11513.448405452073 1229.4050208181143 594.11322671175003 3961.8274576961994 2010.719861663878 6469.1110548004508 808.45282204449177 1493.1604375913739 2015.7091585919261 2328.2224906533957 982.81189835071564 1133.3974021673203 6821.4568074122071 1039.0922398082912 544.0582761913538 570.17377335578203 38956.003481157124 7612.892380386591 2013.2764435708523 779.71267368644476 3840.8423239998519 3693.7574258409441 9379.5931749641895
leaf_count=10867 11061 195147 11132 10823 8457 7256 13183 11449 11868 7689 12295 12755 6501 5084 12584 9624 13174 5749 7560 5810 6513 4719 11317 9050 12481 4878 5555 18964 11096 11840 8581 45002 48851 8657
internal_value=0 -0.350605 0.542285 0.326079 -0.0616088 -0.584511 -0.396726 -0.108981 0.0318938 0.637104 0.0418355 0.43426 0.164142 -0.699329 -0.132262 -0.249844 0.183112 -0.59769 -0.476218 -0.109313 0.0248096 -0.498171 -0.650338 0.482557 -0.718142 -0.731651 -0.71877 0.672913 0.499499 -0.364769 -0.696838 -0.7289 -0.729683 0.630988
internal_weight=0 58623.5 110673 33760.4 26235.2 32388.3 12311.2 5074.95 21399.3 76912.7 9321.18 24439.3 2975.25 20077.1 10244.4 6282.55 11154.9 7236.22 4835.92 4026.43 4685.79 2099.69 6427.76 14503.4 19483 18443.9 17899.9 62409.3 19126.3 3506.44 5294.37 4514.65 17329.7 23453.3
internal_count=597572 484244 113328 57836 98491 385753 113757 35852 68030 55492 23118 34718 19684 271996 39886 27302 28144 77905 30461 15434 14970 16168 72156 16739 266912 254431 249553 38753 23851 19400 60839 52258 243998 19789
is_linear=0
shrinkage=0.65


Tree=2
num_leaves=33
num_cat=0
split_feature=138 138 136 139 139 136 136 113 138 54 137 45 126 138 138 12 126 82 139 128 25 57 138 136 131 130 127 138 57 105 69 136
split_gain=27374.6 6560.34 3074.59 1685.2 1389.9 1075.01 1026.06 1088.53 908.418 974.987 538.465 495.183 472.451 453.788 431.506 385.731 358.669 358.39 221.741 178.918 151.161 175.175 136.815 102.878 100.851 92.7854 80.5816 74.9277 24.0247 16.9415 15.9833 14.5086
threshold=17.500000000000004 62.500000000000007 0.63608133792877208 226.50000000000003 62.500000000000007 -1.0620175600051878 -0.21693070977926251 -2.5902584791183467 28.500000000000004 0.00086149998242035519 0.56439545750617992 0.14735549688339236 36.500000000000007 9.5000000000000018 12.500000000000002 2.5000000000000004 73.500000000000014 15.92672634124756 52.500000000000007 5.5000000000000009 1.5000000000000002 0.22335600107908252 36.500000000000007 1.5837529897689822 86.500000000000014 59574.000000000007 7063.0000000000009 7.5000000000000009 0.48684200644493109 12.041297912597658 3.5000000480067688e-06 1.0838988423347475
decision_type=2 2 2 2 2 2 2 2 2 2 2 2 2 2 2 2 2 2 2 2 2 2 2 2 2 2 2 2 2 2 2 2
left_child=2 3 4 5 -1 10 24 15 19 12 18 16 -10 23 27 -8 -11 25 -2 20 -7 -22 -20 31 26 30 28 -6 -3 -24 -17 -4
right_child=1 6 13 -5 14 8 7 -9 9 11 -12 -13 -14 -15 -16 17 -18 -19 22 -21 21 -23 29 -25 -26 -27 -28 -29 -30 -31 -32 -33
leaf_value=-0.08583277258190504 -0.91025392582417031 -0.69252262598227321 0.53543197610565441 0.28396697455613529 0.46182862817575765 0.10902700646348931 0.03049678256063908 0.58594826050263782 0.331326690880276 -0.33323386378836178 -0.064563298678289485 0.12596871748471175 -0.10411249270780751 0.449390098492914 0.2025663125793 -0.7838818065444243 0.04893156215389164 -0.031477642753224643 -0.24744221637731711 0.16781792647538024 -0.13500656534194627 0.072744917440643986 -0.44113415527129707 0.6545580608272048 -0.36008573943972738 -0.34226182149790069 -0.33293422954958835 0.35505891634014153 -0.48649191802666752 -0.67984736527220435 -0.59851204837769723 0.59715804908327219
leaf_weight=3762.2655072268099 658.33568173646927 8774.0754035934806 5943.2954609207809 6058.002847712487 6996.1742364931852 4596.2519011944532 689.6541563719511 542.88572031632066 2117.7509578801692 9786.2079248577356 1340.8609510548413 1317.2772257477045 2063.7553598210216 9530.5376803614199 6192.6608798727393 862.24419046938419 1133.7704940326512 564.39502039551735 833.35285016521811 4760.9560718759894 3869.3277835659683 3042.0316086523235 373.53325371444225 15542.776232294738 552.13373614102602 481.38998851180077 355.49453460052609 5879.1461082678288 457.22167568281293 779.33901611343026 911.20303704589605 7976.9138938039541
leaf_count=12214 6647 215138 8446 13455 9777 11386 8103 2971 8746 71712 7447 7261 12902 13912 13051 16258 6886 7040 5454 10683 12314 7820 7367 11855 12599 7199 8331 10413 9136 15621 15971 9457
internal_value=0 -0.160658 0.463994 -0.0333513 0.274067 -0.0859289 -0.543555 -0.264651 -0.0468731 -0.154814 -0.404692 -0.247526 0.11525 0.575032 0.345353 -0.398097 -0.293077 -0.50471 -0.574931 0.0617525 0.017389 -0.0428203 -0.460049 0.615452 -0.654395 -0.620673 -0.670693 0.413567 -0.683032 -0.608259 -0.692659 0.57129
internal_weight=0 56921.5 61823.8 42730.8 22830.2 36672.8 14190.7 4051.77 32687.3 16418.8 3985.42 12237.3 4181.51 38993.5 19068 3508.89 10920 2819.23 2644.56 16268.6 11507.6 6911.36 1986.23 29463 10138.9 2254.84 9586.79 12875.3 9231.3 1152.87 1773.45 13920.2
internal_count=597572 508447 89125 205701 45455 192246 302746 57542 149710 107507 42536 85859 21648 43670 33241 54571 78598 46468 35089 42203 31520 20134 28442 29758 245204 39428 232605 20190 224274 22988 32229 17903
is_linear=0
shrinkage=0.65


Tree=3
num_leaves=30
num_cat=0
split_feature=138 138 136 136 137 5 138 58 126 139 12 128 130 88 114 137 137 139 126 136 137 131 137 136 86 67 130 138 10
split_gain=10330.5 3795.05 1893.26 1508.2 1185.16 584.746 767.407 574.622 489.287 472.962 391.858 372.862 344.259 326.318 237.267 235.745 205.047 193.878 187.36 156.972 154.846 91.4989 217.536 89.1896 84.8577 54.7789 39.2945 28.935 26.3042
threshold=13.500000000000002 86.500000000000014 0.8994065821170808 0.70641407370567333 0.35568435490131384 0.52272748947143566 37.500000000000007 0.19523800164461139 95.500000000000014 84.500000000000014 2.5000000000000004 4.5000000000000009 44994.500000000007 9.2042226791381854 -16.218496322631832 0.66157612204551708 0.66882857680320751 56.500000000000007 37.500000000000007 1.5837529897689822 0.72120755910873424 39.500000000000007 0.40303638577461248 0.18611136078834536 8.9530649185180682 0.020496000535786155 59779.500000000007 6.5000000000000009 179.50000000000003
decision_type=2 2 2 2 2 2 2 2 2 2 2 2 2 2 2 2 2 2 2 2 2 2 2 2 2 2 2 2 2
left_child=2 3 9 4 13 11 14 10 21 17 -8 15 -5 26 16 18 -7 -1 -6 27 -16 24 -23 -11 25 -3 28 -4 -2
right_child=1 8 19 12 5 6 7 -9 -10 23 -12 -13 -14 -15 20 -17 -18 -19 -20 -21 -22 22 -24 -25 -26 -27 -28 -29 -30
leaf_value=-0.053170980719991816 -0.44418964113867304 -0.68557462533994451 0.51446098841263854 0.049178253810934824 0.061512128832893372 -0.31538523372286714 0.097270700919447034 0.23597242650378594 0.40733085441067934 0.23291428358059438 -0.35193406339889638 0.32260285727375271 0.30360608825977009 -0.026764046921874413 -0.0047464343462191427 0.23031644161857143 -0.01587452619568358 0.18665833601371601 -0.20203574215371389 0.60073455810665255 0.16878828402679458 -0.65160810285956372 0.019785666711793878 0.36071850275384698 -0.17902274647054162 -0.31306904504769012 -0.34348923242378038 0.42237409487534139 -0.70134105887070719
leaf_weight=2582.4483942501247 361.15543736983091 4149.2161466125399 4384.9880141429603 3490.7122335676104 2646.7903328444809 1829.2949840966612 909.85073514096439 938.16855775564909 199.34434429369867 4163.7205245234072 6916.0131876002997 2511.2797705940902 6590.6784069165587 528.61139508523047 14708.193262880668 1736.7485062871128 2125.0662253983319 3101.0772758647799 1974.2332693822682 9007.1948352493346 2536.3253635391593 513.00416161864996 312.70418240129948 6382.1988590545952 189.04195216856897 235.84259635768831 292.04344198387116 3997.0535093797371 1380.3127149678767
leaf_count=8394 7436 168262 9001 11184 13235 9488 9803 6961 3694 8810 101848 9072 13128 7163 49834 4189 6754 8674 15124 12712 6040 19611 6711 13516 5472 8130 6804 8465 38057
internal_value=0 -0.0646282 0.389505 -0.0092334 -0.0642402 -0.0358274 -0.0793238 -0.241108 -0.57271 0.229219 -0.299028 0.110512 0.216063 -0.492333 -0.012171 0.0258148 -0.155868 0.076799 -0.0500126 0.538741 0.0204988 -0.610045 -0.391861 0.310827 -0.648031 -0.666938 -0.610601 0.471324 -0.651791
internal_weight=0 57074.6 33618.7 51475.5 41394.1 38832 29962.9 8764.03 5599.15 16229.4 7825.86 8869.05 10081.4 2562.12 21198.9 6357.77 3954.36 5683.53 4621.02 17389.2 17244.5 5399.81 825.708 10545.9 4574.1 4385.06 2033.51 8382.04 1741.47
internal_count=597572 528000 69572 316120 291808 232348 190728 118612 211880 39394 111651 41620 24312 59460 72116 32548 16242 17068 28359 30178 55874 208186 26322 22326 181864 176392 52297 17466 45493
is_linear=0
shrinkage=0.65


Tree=4
num_leaves=32
num_cat=0
split_feature=136 138 137 136 138 138 130 126 138 35 18 139 139 128 12 138 138 108 130 134 15 12 138 139 20 128 139 29 136 15 132
split_gain=3994.16 1913.1 882.258 688.428 557.352 534.549 512.621 441.243 384.147 368.489 354.564 453.436 267.066 232.74 177.346 176.09 269.406 149.587 384.975 143.579 156.065 143.19 302.508 134.646 131.862 124.644 106.453 93.8067 82.3595 42.7397 7.42241
threshold=1.0838988423347475 86.500000000000014 0.52541646361351024 -0.69028666615486134 9.5000000000000018 8.5000000000000018 61452.500000000007 129.50000000000003 39.500000000000007 18.690477371215824 8.7885880470275897 172.50000000000003 251.50000000000003 3.5000000000000004 7.5000000000000009 15.500000000000002 42.500000000000007 10.145765304565431 50148.000000000007 148.50000000000003 20.468305587768558 3.5000000000000004 37.500000000000007 113.50000000000001 5.5000000000000009 1.0000000180025095e-35 63.500000000000007 1.5000000000000002 1.9789647459983828 6.7430145740509042 2.5000000000000004
decision_type=2 2 2 2 2 2 2 2 2 2 2 2 2 2 2 2 2 2 2 2 2 2 2 2 2 2 2 2 2 2 2
left_child=1 2 3 15 23 28 8 17 14 12 -10 -12 21 -11 24 -1 26 19 -19 20 -3 25 -23 27 -5 -6 -17 -4 -2 -18 -31
right_child=5 7 4 6 9 -7 -8 -9 10 13 11 -13 -14 -15 -16 16 29 18 -20 -21 -22 22 -24 -25 -26 -27 -28 -29 -30 30 -32
leaf_value=-0.73306116564947932 0.44270838755320091 -0.675224284268237 0.043863476583948138 0.032285409164399315 -0.017118095177174081 0.22874266226593343 0.26014101846070498 0.66721500263294409 -0.77212907736320502 0.28472949008943438 -0.3635876302499606 0.13626688529329634 0.21009762756334741 0.02564506158849772 0.13683294465147461 -0.30207963354097417 -0.14964897583542716 -0.65773026556647052 0.37474179427234122 0.072779854306978531 -0.087845522030307099 -0.014832717114084149 -0.24181846927691006 0.29874790581888155 -0.19052185042058811 0.17189457110519579 0 0.22020554146074631 0.59297898647478176 -0.37471921288244958 -0.61161419887123725
leaf_weight=471.16904059238732 4169.2465917775407 2356.3698850022629 2494.6270333817229 2158.0203847903758 3269.1469272570685 4894.0015742434189 2052.2227049907669 130.24143200553954 500.09826391004026 3450.51439855434 2085.6879688631743 1190.9483847925439 2273.2827199120075 2627.313285251148 2466.4339733626693 917.38724766671658 151.11384827829897 359.26134689431638 254.82473309151828 116.43106593936682 231.41881359554827 16484.969613797031 2931.1529085012153 4051.7611053744331 2261.2447840217501 2617.5127265043557 1037.3549565104768 2807.4346607737243 3185.0482520004734 216.36835119687021 934.79157341830432
leaf_count=2241 13434 163763 7580 7089 13695 12370 11200 878 5630 12524 44901 13118 6265 9851 7720 10118 5579 19632 9019 6744 11802 53539 36311 9759 10036 9139 8578 9529 6689 10481 48358
internal_value=0 -0.0082666 0.0189612 -0.108967 0.067996 0.397339 -0.0364618 -0.478797 -0.0940905 0.0287989 -0.260609 -0.18036 -0.0029528 0.173651 -0.00193286 -0.354633 -0.297711 -0.525868 -0.221104 -0.592854 -0.624856 -0.0223205 -0.0493973 0.208416 -0.0805929 0.0660855 -0.141135 0.138284 0.508696 -0.527943 -0.572612
internal_weight=0 62899.1 59450.6 16442.8 43007.7 12248.3 12714.7 3448.55 10662.4 33653.9 3776.73 3276.64 27576.1 6077.83 6885.7 3728.19 3257.02 3318.31 614.086 2704.22 2587.79 25302.8 19416.1 9353.82 4419.27 5886.66 1954.74 5302.06 7354.29 1302.27 1151.16
internal_count=597572 565079 353241 185049 168192 32493 99694 211838 88494 141324 63649 58019 118949 22375 24845 85355 83114 210960 28651 182309 175565 112684 89850 26868 17125 22834 18696 17109 20123 64418 58839
is_linear=0
shrinkage=0.65


Tree=5
num_leaves=27
num_cat=0
split_feature=136 138 137 139 138 129 138 72 138 18 109 138 72 138 130 70 136 138 34 82 134 30 136 138 131 126
split_gain=1520.51 890.847 432.03 345.019 735.72 564.73 425.269 379.015 288.733 373.677 360.141 257.328 240.444 230.406 217.043 211.801 156.299 129.966 106.232 88.6612 79.8248 66.3688 56.1188 55.7884 18.8393 11.7999
threshold=1.2851352691650393 116.50000000000001 0.29228207468986517 169.50000000000003 62.500000000000007 18463.500000000004 53.500000000000007 8.5139975547790545 23.500000000000004 14.884223937988283 10.704455375671388 7.5000000000000009 15.838095188140871 11.500000000000002 481.50000000000006 13.36455297470093 0.41124773025512701 40.500000000000007 1.5000000000000002 6.0699584484100351 47.500000000000007 46.500000000000007 1.9789647459983828 5.5000000000000009 87.500000000000014 71.500000000000014
decision_type=2 2 2 2 2 2 2 2 2 2 2 2 2 2 2 2 2 2 2 2 2 2 2 2 2 2
left_child=1 2 17 4 13 6 16 -8 -7 10 -10 22 -9 19 -15 -16 -5 -1 -6 -4 24 25 -2 -21 -3 -20
right_child=11 20 3 5 18 8 7 12 9 -11 -12 -13 -14 14 15 -17 -18 -19 21 23 -22 -23 -24 -25 -26 -27
leaf_value=-0.17100469873835183 0.35963540774118291 -0.65144123618327887 -0.016141731269897916 0.046361445626919011 0 0.13044138818201675 0.8047553414447649 -0.19382768205688661 -0.586243871084552 0.10301553803845857 -0.10545702222589472 0.17293134098246027 0.51265346030594316 0.22042343282100313 0.074277993660894409 -0.065376297773689265 0.25416168094221703 -0.64010089471620224 -0.6551295107158206 0.1906453119970655 0 -0.037130511972631085 0.53841242337686956 0.072177525470804624 -0.22201736616137277 -0.30363659140519134
leaf_weight=567.81524881208315 1854.6719380295835 964.10784389870241 2509.0278117060661 3481.7440198492259 145.37074895622209 3102.4275877480395 883.97689558332786 372.94014476845041 988.58816925482824 1891.0056978245266 2072.2223859485239 2505.527911812067 424.71730214729905 1419.7617620681413 5618.6974602546543 24361.102788108867 2835.8586427783594 510.61355276452377 900.53826440079138 3110.6594126243144 111.93990550283343 110.15171679807827 1762.3051521712914 4120.9372657458298 88.927536249626428 111.12040474778041
leaf_count=5925 9040 112508 8523 11510 8006 7815 9336 10111 9511 13418 15595 7536 8370 6116 26808 139239 6695 55760 64468 11225 8563 5578 6565 15807 7037 6507
internal_value=0 -0.00299485 0.00794607 0.0155608 -0.0150574 0.096755 0.21912 0.510544 -0.0241626 -0.122094 -0.262834 0.336724 0.176323 0 -0.0271095 -0.0390249 0.140533 -0.399004 -0.502327 0.0873063 -0.565292 -0.569964 0.448527 0.123909 -0.620787 -0.622592
internal_weight=0 60704.3 59539.3 58460.8 42407.4 16053.5 7999.24 1681.63 8054.24 4951.82 3060.81 6122.51 797.657 41140.2 31399.6 29979.8 6317.6 1078.43 1267.18 9740.62 1164.98 1121.81 3616.98 7231.6 1053.04 1011.66
internal_count=597572 574431 446323 384638 292277 92361 46022 27817 46339 38524 25106 23141 18481 207718 172163 166047 18205 61685 84559 35555 128108 76553 15605 27032 119545 70975
is_linear=0
shrinkage=0.65


Tree=6
num_leaves=19
num_cat=0
split_feature=136 138 127 139 19 138 42 68 13 57 13 131 118 52 138 138 110 139
split_gain=529.881 451.342 375.429 363.396 230.774 253.145 336.633 269.089 239.374 211.684 179.049 233.338 163.792 154.041 105.657 61.4033 47.3517 41.8733
threshold=1.4942777752876284 81.500000000000014 142622.50000000003 35.500000000000007 25.515949249267582 14.500000000000002 0.92378351092338573 0.0068669999018311509 16.500000000000004 0.45307900011539465 18.500000000000004 46.500000000000007 -14.26154851913452 0.074537001550197615 4.5000000000000009 5.5000000000000009 -15.046677589416502 121.50000000000001
decision_type=2 2 2 2 2 2 2 2 2 2 2 2 2 2 2 2 2 2
left_child=1 3 9 -1 5 13 7 8 -7 10 11 -3 -13 15 -2 -5 -17 -15
right_child=14 2 -4 4 -6 6 -8 -9 -10 -11 -12 12 -14 17 -16 16 -18 -19
leaf_value=-0.31220318570297673 0.39863494224136053 -0.62191740036453436 0.95179837186156036 0.10792405821193293 0.2616181627012637 -0.053246900036888416 0.22968405103303222 0.20437108024790362 0.24554966303996392 0.23799109359160889 0.24437033050035348 -0.56912949479427377 0.36346315273007246 0.10128849897931981 0.14558404147141557 -0.079339306833301718 0.039012569728073918 0.2168350548882062
leaf_weight=1450.0341078722849 1543.6781716675032 1297.6034148726612 91.638329988578334 2733.3449411685579 1581.7851952516939 35193.124046784826 2211.511695576366 1940.5515599341597 1162.3102074104827 208.59574367571622 138.22894888627343 129.21360796433873 197.35763728292659 2685.4597365767695 1436.8838814808987 2432.9967568782158 3407.8675691015087 3187.4011661941186
leaf_count=6766 9946 190907 2563 9777 7906 256197 11944 9324 6208 10554 1919 12504 10703 12872 6277 8348 11394 11463
internal_value=0 -0.00194793 -0.300598 0.00859971 0.0169346 0.00978419 -0.0164557 -0.0308213 -0.043533 -0.362728 -0.437039 -0.498549 0 0.0837058 0.278637 0.0274105 -0.00941114 0.164958
internal_weight=0 60049 2062.64 57986.4 56536.4 54954.6 40507.5 38296 36355.4 1971 1762.4 1624.17 326.571 14447.1 2980.56 8574.21 5840.86 5872.86
internal_count=597572 581349 229150 352199 345433 337527 283673 271729 262405 226587 216033 214114 23207 53854 16223 29519 19742 24335
is_linear=0
shrinkage=0.65


Tree=7
num_leaves=34
num_cat=0
split_feature=130 73 60 136 77 138 54 104 107 104 126 137 127 128 10 126 66 14 65 138 15 118 72 102 57 117 16 83 139 129 75 65 129
split_gain=241.937 477.779 307.589 269.869 216.879 257.852 227.295 361.01 199.479 177.695 168.401 224.221 195.088 187.865 167.823 198.956 167.017 161.932 150.778 146.032 139.733 138.486 194.593 132.607 108.465 84.7099 87.5259 75.9578 73.6354 69.0677 44.0772 16.4413 10.5182
threshold=62142.500000000007 8.099924564361574 0.031008499674499038 -1.6883029937744138 11.603227138519289 81.500000000000014 0.0047179998364299544 0.87950801849365245 12.754820346832277 0.82591751217842113 42.500000000000007 0.66496753692626964 1.0000000180025095e-35 4.5000000000000009 306.50000000000006 58.500000000000007 0.0042570000514388093 708.50000000000011 0.00014550000196322801 22.500000000000004 20.468305587768558 -7.5948400497436515 10.073048114776613 0.49232450127601629 0.18142599612474444 -7.6003015041351309 15.530267238616945 8.1343622207641619 106.50000000000001 4606.5000000000009 3.0597165822982793 1.0499999916646631e-05 598.50000000000011
decision_type=2 2 2 2 2 2 2 2 2 2 2 2 2 2 2 2 2 2 2 2 2 2 2 2 2 2 2 2 2 2 2 2 2
left_child=3 2 9 23 5 10 7 20 -6 29 12 14 13 18 15 -12 -16 27 -5 -3 -7 22 -14 28 -11 26 -10 -13 30 -2 31 -1 -8
right_child=1 19 -4 4 8 6 32 -9 25 24 11 17 21 -15 16 -17 -18 -19 -20 -21 -22 -23 -24 -25 -26 -27 -28 -29 -30 -31 -32 -33 -34
leaf_value=-0.5350291099809561 0.10663923840697882 0.032195401757949826 0.51311639735388137 -0.038421376530450295 0.30828421083589674 -0.62475042822869231 -0.29457074024384394 1.1049350561819919 0.21880954278716783 0.12726628433493908 -0.16147435090919812 -0.11391710905147288 0.20049162138674895 0.13338681907891339 -0.23940619533895052 0.1244398613112912 0.063321646366605616 0.13891731115275402 -0.24320174963373195 -0.24957980394627757 0.18333864390679844 -0.058358596549726909 0.034906472570526176 0.11980492939791669 0.42112557267570094 -0.12629177993345456 -0.015183063256502396 0.033062686415736765 -0.84186868569952444 -0.17060089109682416 -0.074531405003418302 -0.23406759346218128 -0.69236279067303885
leaf_weight=344.57395947328769 726.59185568848625 1742.4331076493254 1256.7993730104063 6654.0088816789212 1659.5351832520682 224.16377106448635 89.791137723601423 94.126988832140341 1270.2596630892949 1350.1405568415066 2107.0719824829139 3165.8234683144838 4885.2552481199382 2009.443040226819 5057.2814955506474 1992.5747334677726 876.4664153365884 3058.3713324348209 2002.3220235576155 1360.8320586787304 135.25471867120359 2889.8412388992729 8014.4685659555253 219.42314791970421 961.26128550688736 981.86227534955833 1356.7736606131075 2718.0694008388091 161.26434301468544 769.29199002287351 250.00211909029167 208.41233753913548 437.04025563993491
leaf_count=15192 6197 7950 5853 40072 11786 42938 13900 16324 9914 13626 18730 13002 26348 9412 49134 13859 6462 10720 14233 14659 8787 13552 45120 11268 4952 8913 9477 10709 27510 9231 8499 4828 74415
internal_value=0 0.109767 0.233074 -0.010385 -0.0032464 -0.0175337 -0.347029 0 0.121572 0.138957 -0.010288 -0.0570898 0.0230875 -0.0445239 -0.123844 -0.0212522 -0.193806 0.017244 -0.0864536 -0.089807 -0.307232 0.0690877 0.0980482 -0.316932 0.252085 0.0341004 0.0960955 -0.0451529 -0.421751 -0.0325204 -0.328293 -0.432708 -0.636299
internal_weight=0 8167.35 5064.09 52863.5 51679.8 46411.4 980.377 453.545 5268.43 3807.29 45431 18975.7 26455.3 10665.8 10033.4 4099.65 5933.75 8942.26 8656.33 3103.27 359.418 15789.6 12899.7 1183.68 2311.4 3608.9 2627.03 5883.89 964.253 1495.88 802.988 552.986 526.831
internal_count=597572 62468 39859 535104 467807 427717 156364 68049 40090 34006 271353 122616 148737 63717 88185 32589 55596 34431 54305 22609 51725 85020 71468 67297 18578 28304 19391 23711 56029 15428 28519 20020 88315
is_linear=0
shrinkage=0.65


Tree=8
num_leaves=26
num_cat=0
split_feature=136 55 139 12 138 20 131 130 126 130 138 87 130 57 57 138 59 81 129 19 127 107 138 136 67
split_gain=167.539 131.307 234.92 231.349 209.304 283.868 237.036 178.683 196.985 153.065 142.967 176.915 135.238 153.076 180.513 167.203 148.12 133.63 113.166 122.674 103.597 72.4619 66.751 57.3053 9.08267
threshold=1.9789647459983828 0.076950997114181532 283.50000000000006 5.5000000000000009 69.500000000000014 9.5000000000000018 107.50000000000001 53623.500000000007 34.500000000000007 99.500000000000014 33.500000000000007 7.767707586288453 29594.500000000004 0.3585715144872666 0.10435550287365915 18.500000000000004 0.065046999603509917 7.4768810272216806 188.50000000000003 8.9538764953613299 90.500000000000014 17.279940605163578 73.500000000000014 -0.16486366838216779 0.012066000141203405
decision_type=2 2 2 2 2 2 2 2 2 2 2 2 2 2 2 2 2 2 2 2 2 2 2 2 2
left_child=1 4 3 21 9 6 7 23 -9 -1 -5 -12 16 14 17 -16 18 -14 -11 -20 -10 -3 -7 -6 -24
right_child=-2 2 -4 10 5 22 -8 8 20 12 11 -13 13 -15 15 -17 -18 -19 19 -21 -22 -23 24 -25 -26
leaf_value=0.21348226259017514 0.29187180526079859 -0.28297831614890029 0.38558967678785883 0.045000948517085401 -0.57065570163676405 -0.083830364479837868 0.95732056085551609 0.49607876708757087 -0.69521404318754865 -0.19720695619664419 0.5979482090574465 0.074934311443533436 0.034283923621806829 0.1639352083916471 0.034561864601386265 -0.093746050617608531 -0.26420337582076969 0.23954986151842458 -0.10907359991611097 0.026389092210746902 0.15448346467599303 -0.03234837416432635 -0.66118793290506839 -0.096232207362899544 -0.31079082017781656
leaf_weight=1328.5621499191038 834.52855461731087 847.70834667992312 941.56122483382933 2533.1307731603738 293.04005326575134 148.77615845075343 94.312020581564866 306.72743685921887 123.25786101992708 1700.513295112527 535.24280037760036 610.28502706356812 11332.55216875521 2631.5596926423023 7128.8526111092651 10606.446175016114 1368.992377015762 1535.873892930802 4202.675409744028 8503.9516767427558 99.926729468628764 1273.2509111147956 535.69508048554417 218.42770701594418 106.85101194866002
leaf_count=5837 7241 11501 5866 8685 80413 7753 5790 12320 19240 12336 9686 9986 65369 10517 28667 66083 9050 6080 27487 54230 7146 8707 97057 7799 12726
internal_value=0 -0.000867357 0.0843959 0.0344388 -0.0119677 -0.222091 -0.00892614 -0.103746 0.153521 -0.00380897 0.133692 0.324701 -0.00981707 0.0135803 0.000467801 -0.0418811 -0.059431 0.0592336 -0.0395648 -0.0180198 -0.294567 -0.13521 -0.520363 -0.379787 -0.612578
internal_weight=0 59008.2 6741.18 5799.62 52267 1927.01 1135.69 1041.38 529.912 50340 3678.66 1145.53 49011.4 33235.3 30603.7 17735.3 15776.1 12868.4 14407.1 12706.6 223.185 2120.96 791.322 511.468 642.546
internal_count=597572 590331 54431 48565 535900 250244 132708 126918 38706 285656 28357 19672 279819 176716 166199 94750 103103 71449 94053 81717 26386 20208 117536 88212 109783
is_linear=0
shrinkage=0.65


Tree=9
num_leaves=44
num_cat=0
split_feature=11 138 91 134 47 127 116 15 15 125 129 15 13 127 137 138 135 136 105 137 127 10 121 30 126 131 117 121 56 61 39 122 85 103 138 130 109 138 90 129 138 130 136
split_gain=105.773 221.103 264.679 245.023 217.936 166.383 204.893 198.109 158.665 126.976 272.946 299.735 247.917 219.419 195.188 220.777 185.074 302.957 242.738 167.19 165.608 147.402 140.425 122.672 141.589 109.037 96.773 90.319 85.8438 85.8075 84.506 81.4195 81.201 78.9648 78.8156 120.775 76.4153 73.6221 71.2221 63.6418 49.4296 39.5753 32.8715
threshold=1.0000000180025095e-35 40.500000000000007 0.016858000308275226 17.500000000000004 0.21525099873542788 1662.5000000000002 -7.2728004455566397 8.6124219894409197 5.5118412971496591 2.5000000000000004 30574.500000000004 6.9752330780029306 11.500000000000002 6.5000000000000009 0.57431825995445263 38.500000000000007 1.0000000180025095e-35 0.28974695503711706 12.670979499816896 0.76643598079681408 3.5000000000000004 217.50000000000003 -2.5902475118637081 48.500000000000007 109.50000000000001 12.500000000000002 -6.0979862213134757 -1.4916545152664182 0.27149850130081182 0.015707000158727173 7.2613635063171396 -4.1018259525299063 43.921064376831062 0.75855299830436718 29.500000000000004 54589.500000000007 28.943218231201175 40.500000000000007 100.58269119262697 4606.5000000000009 23.500000000000004 41156.500000000007 -0.075889792293310152
decision_type=2 2 2 2 2 2 2 2 2 2 2 2 2 2 2 2 2 2 2 2 2 2 2 2 2 2 2 2 2 2 2 2 2 2 2 2 2 2 2 2 2 2 2
left_child=5 25 3 8 -4 6 9 -7 -3 10 11 13 37 21 15 40 17 18 -12 22 36 -1 -18 24 -17 29 34 30 -27 41 -10 -6 -32 -31 -8 39 -16 -13 -22 -36 -11 -2 -28
right_child=1 2 4 -5 31 7 26 -9 27 14 16 12 -14 -15 20 23 19 -19 -20 -21 38 -23 -24 -25 -26 28 42 -29 -30 33 32 -33 -34 -35 35 -37 -38 -39 -40 -41 -42 -43 -44
leaf_value=0.14718681327915928 0.013477335346671754 -0.93283957673538209 0.40772626511768517 0.27306495580356654 -0.38987678786935603 0.0046766076247633436 -0.12724574647841011 0.32786653484850192 -0.74268827853139952 0.046258951448026206 0.59406375532289402 0.02450325857538593 0.34384192209067826 -0.040733089552246707 -0.1405374603092302 -0.43652841155005268 -0.36113511233649864 -0.10675453457343642 0.0070734612485109831 0.10305703408673751 0.011003534336279434 0.41681912431073254 0.025414181680383938 0.33810012405193857 0.29381300467790866 -0.17732957317142453 -0.087478129727997372 -0.0015409511157733543 0.0034700622038273993 0.13054163356502696 0.074235364727993983 0.066415291608875923 -0.52653114551445301 -0.014911301374218153 -0.30152947292458643 -0.036637770378823931 0.026871192357201274 -0.1660962736610527 0.18058953423897306 -0.84278840649032594 -0.10737115196292375 -0.1208014561975663 0.079558791587925642
leaf_weight=1499.8433485324495 1740.829800180858 304.16286921160645 388.43475222992129 181.53534703544574 396.70909327830304 1727.9744347239903 2009.5975339047727 1547.4193667204818 315.44983087325818 1666.1191908922046 605.65872256425791 7278.4005924409721 1003.782116279559 901.84059473752859 2228.2450272338756 1357.0056454984588 1636.5539308423758 2005.5959692461765 618.60642979835393 643.43897476926213 1722.3971572699083 2270.8601628643228 491.19095801303047 99.028105964534916 111.60252589016454 2467.7529159315163 1066.3728375624341 237.69524965577875 1913.609625398065 3815.7229475881904 156.67718936872552 251.4614677017089 194.96951211040141 2585.1343966075801 225.74579819658538 294.18162194744218 2294.6145891047781 966.88096101640258 2962.4363873128605 231.63570401657489 1816.2018351438455 1841.0641087234253 917.00528866267996
leaf_count=13405 7443 16399 12669 5513 14115 12316 8010 8711 24415 5312 7671 29471 5799 8996 11971 110993 27393 9000 9953 4372 7982 17594 5616 5041 2297 11397 13115 6524 7527 13450 6826 5340 9894 11759 6539 5549 10373 50591 12343 11372 11522 7909 3085
internal_value=0 -0.0425865 -0.224039 -0.409273 0.0198616 0.0183975 0.00641377 0.1591 -0.516417 0.0241133 0.0576982 0.107774 0.0392848 0.242127 -0.0224534 -0.125329 -0.0575999 0.046851 0.302395 -0.181138 0.0334252 0.311136 -0.269543 -0.328032 -0.377041 -0.011527 -0.119939 -0.368254 -0.0972254 0.0255814 -0.490603 -0.205343 -0.245715 0.0710042 -0.198643 -0.381479 -0.0544918 0.0014734 0.119394 -0.590404 -0.0323965 -0.0541307 -0.00762804
internal_weight=0 16791.2 2427.1 1390.49 1036.61 42200.2 38924.8 3275.39 1208.95 34180.3 19922.7 13921.6 9249.06 4672.54 14257.7 5049.96 6001.04 3229.86 1224.27 2771.18 9207.69 3770.7 2127.74 1567.64 1468.61 14364.1 4744.54 904.792 4381.36 9982.75 667.097 648.171 351.647 6400.86 2761.16 751.563 4522.86 8245.28 4684.83 457.382 3482.32 3581.89 1983.38
internal_count=597572 161180 101695 69571 32124 436392 415365 21027 64058 367695 189861 125856 85861 39995 177834 135165 64005 26624 17624 37381 42669 30999 33009 118331 113290 59485 47670 47659 18924 40561 41135 19455 16720 25209 31470 23460 22344 80062 20325 17911 16834 15352 16200
is_linear=0
shrinkage=0.65


end of trees

feature_importances:
Column_138=57
Column_136=37
Column_139=22
Column_137=18
Column_130=15
Column_126=10
Column_57=7
Column_127=7
Column_15=6
Column_129=6
Column_131=6
Column_12=5
Column_128=5
Column_10=4
Column_13=3
Column_19=3
Column_72=3
Column_82=3
Column_105=3
Column_117=3
Column_118=3
Column_134=3
Column_18=2
Column_20=2
Column_30=2
Column_54=2
Column_58=2
Column_65=2
Column_67=2
Column_75=2
Column_102=2
Column_104=2
Column_107=2
Column_109=2
Column_113=2
Column_116=2
Column_121=2
Column_132=2
Column_4=1
Column_5=1
Column_11=1
Column_14=1
Column_16=1
Column_25=1
Column_29=1
Column_34=1
Column_35=1
Column_39=1
Column_40=1
Column_42=1
Column_45=1
Column_47=1
Column_52=1
Column_55=1
Column_56=1
Column_59=1
Column_60=1
Column_61=1
Column_66=1
Column_68=1
Column_69=1
Column_70=1
Column_73=1
Column_77=1
Column_81=1
Column_83=1
Column_85=1
Column_86=1
Column_87=1
Column_88=1
Column_90=1
Column_91=1
Column_103=1
Column_108=1
Column_110=1
Column_114=1
Column_122=1
Column_125=1
Column_135=1

parameters:
[boosting: gbdt]
[objective: binary]
[metric: binary_logloss]
[tree_learner: serial]
[device_type: cpu]
[data: ]
[valid: ]
[num_iterations: 10]
[learning_rate: 0.65]
[num_leaves: 64]
[num_threads: 0]
[deterministic: 0]
[force_col_wise: 0]
[force_row_wise: 0]
[histogram_pool_size: -1]
[max_depth: 8]
[min_data_in_leaf: 7440]
[min_sum_hessian_in_leaf: 88.5]
[bagging_fraction: 1]
[pos_bagging_fraction: 1]
[neg_bagging_fraction: 1]
[bagging_freq: 0]
[bagging_seed: 3]
[feature_fraction: 1]
[feature_fraction_bynode: 1]
[feature_fraction_seed: 2]
[extra_trees: 0]
[extra_seed: 6]
[early_stopping_round: 5]
[first_metric_only: 0]
[max_delta_step: 0]
[lambda_l1: 8]
[lambda_l2: 2.8]
[linear_lambda: 0]
[min_gain_to_split: 5.8]
[drop_rate: 0.1]
[max_drop: 50]
[skip_drop: 0.5]
[xgboost_dart_mode: 0]
[uniform_drop: 0]
[drop_seed: 4]
[top_rate: 0.2]
[other_rate: 0.1]
[min_data_per_group: 100]
[max_cat_threshold: 32]
[cat_l2: 10]
[cat_smooth: 10]
[max_cat_to_onehot: 4]
[top_k: 20]
[monotone_constraints: ]
[monotone_constraints_method: basic]
[monotone_penalty: 0]
[feature_contri: ]
[forcedsplits_filename: ]
[refit_decay_rate: 0.9]
[cegb_tradeoff: 1]
[cegb_penalty_split: 0]
[cegb_penalty_feature_lazy: ]
[cegb_penalty_feature_coupled: ]
[path_smooth: 0]
[interaction_constraints: ]
[verbosity: -1]
[saved_feature_importance_type: 0]
[linear_tree: 0]
[max_bin: 255]
[max_bin_by_feature: ]
[min_data_in_bin: 3]
[bin_construct_sample_cnt: 200000]
[data_random_seed: 1]
[is_enable_sparse: 1]
[enable_bundle: 1]
[use_missing: 1]
[zero_as_missing: 0]
[feature_pre_filter: 0]
[pre_partition: 0]
[two_round: 0]
[header: 0]
[label_column: ]
[weight_column: ]
[group_column: ]
[ignore_column: ]
[categorical_feature: ]
[forcedbins_filename: ]
[precise_float_parser: 0]
[objective_seed: 5]
[num_class: 1]
[is_unbalance: 0]
[scale_pos_weight: 1]
[sigmoid: 1]
[boost_from_average: 1]
[reg_sqrt: 0]
[alpha: 0.9]
[fair_c: 1]
[poisson_max_delta_step: 0.7]
[tweedie_variance_power: 1.5]
[lambdarank_truncation_level: 30]
[lambdarank_norm: 1]
[label_gain: ]
[eval_at: 10]
[multi_error_top_k: 1]
[auc_mu_weights: ]
[num_machines: 1]
[local_listen_port: 12400]
[time_out: 120]
[machine_list_filename: ]
[machines: ]
[gpu_platform_id: -1]
[gpu_device_id: -1]
[gpu_use_dp: 0]
[num_gpu: 1]

end of parameters

pandas_categorical:null
