tree
version=v3
num_class=1
num_tree_per_iteration=1
label_index=0
max_feature_idx=139
objective=binary sigmoid:1
feature_names=Column_0 Column_1 Column_2 Column_3 Column_4 Column_5 Column_6 Column_7 Column_8 Column_9 Column_10 Column_11 Column_12 Column_13 Column_14 Column_15 Column_16 Column_17 Column_18 Column_19 Column_20 Column_21 Column_22 Column_23 Column_24 Column_25 Column_26 Column_27 Column_28 Column_29 Column_30 Column_31 Column_32 Column_33 Column_34 Column_35 Column_36 Column_37 Column_38 Column_39 Column_40 Column_41 Column_42 Column_43 Column_44 Column_45 Column_46 Column_47 Column_48 Column_49 Column_50 Column_51 Column_52 Column_53 Column_54 Column_55 Column_56 Column_57 Column_58 Column_59 Column_60 Column_61 Column_62 Column_63 Column_64 Column_65 Column_66 Column_67 Column_68 Column_69 Column_70 Column_71 Column_72 Column_73 Column_74 Column_75 Column_76 Column_77 Column_78 Column_79 Column_80 Column_81 Column_82 Column_83 Column_84 Column_85 Column_86 Column_87 Column_88 Column_89 Column_90 Column_91 Column_92 Column_93 Column_94 Column_95 Column_96 Column_97 Column_98 Column_99 Column_100 Column_101 Column_102 Column_103 Column_104 Column_105 Column_106 Column_107 Column_108 Column_109 Column_110 Column_111 Column_112 Column_113 Column_114 Column_115 Column_116 Column_117 Column_118 Column_119 Column_120 Column_121 Column_122 Column_123 Column_124 Column_125 Column_126 Column_127 Column_128 Column_129 Column_130 Column_131 Column_132 Column_133 Column_134 Column_135 Column_136 Column_137 Column_138 Column_139
feature_infos=[0:16] [0:6] [0:8] [0:8] [0:16] [0:1] [0:1] [0:1] [0:1] [0:1] [0:12923] [0:3233] [0:12917] [2:132] [3:25845] [-1.9397770166397095:98.653861999511719] [3.7259809970855713:159.86013793945312] [2.7613649368286133:152.07829284667969] [0.79833799600601196:166.13566589355469] [-1.9448369741439819:98.624855041503906] [0:2726] [0:110] [0:563] [0:10] [0:2730] [0:1083] [0:30] [0:49] [0:5] [0:1083] [0:1627] [0:64] [0:475] [0:6] [0:1629] [0:1083] [0:30] [0:140.75] [0:5] [0:1083] [0:661782.25] [0:638.75] [0:37744.1875] [0:9] [0:663410.25] [0:2] [0:2] [0:2] [0:1] [0:0.80995500087738037] [0:1] [0:1] [0:1] [0:0.57142901420593262] [0:0.60000002384185791] [0:1] [0:1] [0:1] [0:0.57142901420593262] [0:0.60000002384185791] [0:1] [0:1] [0:1] [0:0.57142901420593262] [0:0.60000002384185791] [0:0.25] [0:0.25] [0:0.25] [0:0.0625] [0:0.0625] [-502.57244873046875:16527.740234375] [0:955.788818359375] [0:4664.697265625] [0:77.544601440429688] [-503.66119384765625:16532.033203125] [-567.93853759765625:4774.43798828125] [0:223.21076965332031] [0:538.6591796875] [0:64.091140747070312] [-569.168701171875:4789.7236328125] [0:11113.951171875] [0:615.50018310546875] [0:3829.640380859375] [0:68.338874816894531] [0:11124.8037109375] [-281.26773071289062:5556.9755859375] [0:238.94720458984375] [0:1200.550537109375] [0:64.091140747070312] [-287.8358154296875:5562.40185546875] [0:30879978] [0:56952.48828125] [0:2417518.5] [0:1167.55029296875] [0:30940314] [0:1] [0:1] [0:1] [0:1] [0:1] [0:1] [0:1] [0:1] [0:1] [0:1] [-11.413535118103027:190.64485168457031] [0:60.223415374755859] [0:72.414131164550781] [0:49.223228454589844] [-11.416239738464355:191.38079833984375] [-194.15585327148438:0] [-118.54830169677734:0] [-158.66993713378906:0] [-132.80621337890625:0] [-194.16043090820312:0] [-187.41470336914062:0] [-111.64816284179688:0] [-156.41024780273438:0] [-130.16769409179688:0] [-187.39202880859375:0] [-205.81387329101562:0] [-137.58628845214844:0.70563399791717529] [-179.10939025878906:0] [-155.76138305664062:0] [-205.75247192382812:0] [1:31] [5:1383] [0:226244464] [0:170] [100:65534] [1:65535] [1:254] [1:254] [0:4344779] [0:2348975] [0:570000000] [-4.5702376365661621:4.7759213447570801] [0:1] [0:676] [1:679]
tree_sizes=2683 3387 3712 2864 3934 1768 1432 2731

Tree=0
num_leaves=24
num_cat=0
split_feature=138 138 138 139 139 138 138 138 139 137 138 130 139 127 79 139 136 139 136 136 67 136 109
split_gain=1.11001e+06 29736.1 26989.8 14096.8 10726.6 3615.97 2917.18 2609 2567.81 2001.35 1849.46 1623.7 1271.86 1210.9 1068.8 926.438 703.394 623.349 472.78 210.8 201.203 44.6613 12.883
threshold=23.500000000000004 13.500000000000002 41.500000000000007 171.50000000000003 91.500000000000014 30.500000000000004 18.500000000000004 8.5000000000000018 86.500000000000014 0.64456701278686535 17.500000000000004 49700.500000000007 114.50000000000001 73464.500000000015 4.404543638229371 162.50000000000003 0.59272456169128429 124.50000000000001 0.3949017077684403 0.082932204008102431 0.038582000881433494 1.4942777752876284 16.40874004364014
decision_type=2 2 2 2 2 2 2 2 2 2 2 2 2 2 2 2 2 2 2 2 2 2 2
left_child=1 7 3 5 10 8 15 16 -2 13 -3 -8 -9 18 -10 -6 19 22 20 -1 -4 -18 -7
right_child=2 4 9 -5 6 17 11 12 14 -11 -12 -13 -14 -15 -16 -17 21 -19 -20 -21 -22 -23 -24
leaf_value=2.0257314957439041 -1.5364016315674025 0.57835425326939516 -1.8991248656342581 0.58113408687049739 1.4847917187413653 -1.4545080127938328 0.63602671926149545 1.7519971592792192 0.26497201075411758 -0.96818972770344924 -0.51936762709105566 1.419282385682632 2.0654238742029878 -0.91283224626528225 -0.62167635294442736 1.896399258964875 2.1935579007221495 -1.1149528435067673 -1.4296112332288091 2.1486045986813087 -1.4181983127126321 2.2245523658788868 -1.8115722823996339
leaf_weight=11592.03669924289 917.92894218862057 1399.6875148117542 29575.406834155321 2981.6106781810522 4741.4373052120209 700.49679715931416 2114.8465846031904 7956.3791337758303 1058.0516821071506 1204.9028900712729 1260.6896098405123 2398.3670519739389 18178.404548197985 637.89175371080637 1413.280142173171 4565.5458635538816 47377.28301949054 1276.8110418990254 1304.6361618116498 14481.356457047164 661.72768239676952 81270.45315053314 1951.4026356339455
leaf_count=9829 9635 6717 356483 14832 11050 7383 10079 13069 6182 11402 9751 5966 11570 5922 11710 4995 15188 12540 14035 6945 7064 12971 22254
internal_value=1.42853 2.08484 -1.53613 -0.613892 1.24927 -1.09957 1.47907 2.16102 -0.599122 -1.82031 0.0547163 1.05084 1.97025 -1.85184 -0.245924 1.68734 2.1932 -1.52823 -1.87045 2.09425 -1.88904 2.2132 -1.72235
internal_weight=0 197336 43684.1 10299.6 16480.6 7317.97 13820.2 180856 3389.26 33384.6 2660.38 4513.21 26134.8 32179.7 2471.33 9306.98 154721 3928.71 31541.8 26073.4 30237.1 128648 2651.9
internal_count=597572 118130 479442 84536 48558 69704 32090 69572 27527 394906 16468 16045 24639 383504 17892 16045 44933 42177 377582 16774 363547 28159 29637
is_linear=0
shrinkage=1


Tree=1
num_leaves=30
num_cat=0
split_feature=138 137 138 117 136 136 138 136 14 74 68 113 59 137 80 139 102 130 138 128 137 129 136 138 137 82 136 139 69
split_gain=77753.2 8824.62 4782.59 4435.14 1818.77 1711.4 1352.63 1292.76 1064.26 753.821 628.338 561.448 519.636 504.22 430.088 407.186 378.415 327.432 282.242 552.313 280.803 259.679 225.607 194.191 149.061 138.256 31.9921 24.6263 7.15374
threshold=15.500000000000002 0.5322023630142213 9.5000000000000018 -12.646324634552 0.20946432650089267 0.2622715830802918 33.500000000000007 0.42703022062778478 136.50000000000003 90.714618682861342 0.0039480000268667945 -3.5065274238586421 0.081452000886201872 0.72120755910873424 14.134143829345705 97.500000000000014 0.50093647837638866 53623.500000000007 63.500000000000007 9.5000000000000018 0.66496753692626964 45343.500000000007 1.0038993358612063 5.5000000000000009 0.68472507596015941 12.730323791503908 1.5837529897689822 171.50000000000003 0.00030250000418163841
decision_type=2 2 2 2 2 2 2 2 2 2 2 2 2 2 2 2 2 2 2 2 2 2 2 2 2 2 2 2 2
left_child=2 5 7 6 -4 18 10 15 -5 11 13 -7 16 14 -3 -1 -8 -10 19 21 -16 25 -6 26 27 28 -9 -18 -2
right_child=1 3 4 8 22 9 12 23 17 -11 -12 -13 -14 -15 20 -17 24 -19 -20 -21 -22 -23 -24 -25 -26 -27 -28 -29 -30
leaf_value=0.34050930744546731 -0.77511869981068093 -0.018318170271044303 -0.072267730709008118 0.70832772356702334 0.31822329460779125 -0.33302016816464136 -0.27915314173665151 0.67007505458703476 0.013705357818088331 -0.6510769575890899 0.19651407386333677 0.27144008403049141 -0.035393969830498848 0.011164528578592311 -0.53953262347041109 0.56408905509620733 -0.75956439450757096 0.3403597677983306 -0.74481213654414591 -0.14637709518310774 -0.19701282912981349 -0.3231153141335415 0.49110417693486397 0.6139294893549806 -0.44931929502466966 -0.48230301039138712 0.70883923781955738 -0.94802523062467925 -0.61883841322708155
leaf_weight=6516.4519412443042 4233.0693573914468 1495.2179987095296 4622.9323310889304 2185.2778835520148 7148.6417517624795 1266.3177188783884 959.7656175121665 23709.740680165589 2817.0987446792424 1177.8807626850903 1805.0967745110393 1323.6656244955957 698.60792731866241 2668.222876559943 3049.4790527969599 7790.3388267830014 1801.8278464786708 2455.794332627207 16095.629001542926 1061.2700500302017 1604.5994007773697 914.15984531864524 6274.9933309108019 18079.25238051638 637.52858313918114 1082.0154975429177 38655.197816390544 867.22352056950331 579.32496555522084
leaf_count=10784 55259 5458 12658 4911 10985 9673 11377 11843 13981 10750 5328 6369 6730 9027 18292 5790 24719 7502 265068 11038 7263 9700 5852 11526 5327 12096 9933 11354 6979
internal_value=0 -0.382902 0.585628 -0.0853707 0.278376 -0.629922 -0.282777 0.644083 0.326463 -0.220465 -0.151131 -0.0221329 -0.563147 -0.222929 -0.325308 0.462703 -0.648268 0.166927 -0.694047 -0.589331 -0.422747 -0.657524 0.399511 0.676259 -0.753509 -0.708327 0.694216 -0.823674 -0.757756
internal_weight=0 50779.1 112798 23045.7 18046.6 27733.3 15587.6 94751 7458.17 3767.86 10622.6 2589.98 4964.95 8817.52 6149.3 14306.8 4266.35 5272.89 23965.5 7869.84 4654.08 6808.57 13423.6 80444.2 3306.58 5894.41 62364.9 2669.05 4812.39
internal_count=597572 518201 79371 131269 29495 386932 104875 49876 26394 26792 45368 16042 59507 40040 31013 16574 52777 21483 360140 95072 25555 84034 16837 33302 41400 74334 21776 36073 62238
is_linear=0
shrinkage=0.65


Tree=2
num_leaves=33
num_cat=0
split_feature=138 137 136 130 138 136 12 137 138 60 53 117 125 123 138 126 138 72 24 129 139 138 135 132 70 129 136 129 60 118 90 92
split_gain=32328.1 6867.67 2303.83 1772.3 1896.98 936.102 887.439 798.47 715.687 727.754 637.93 627.842 559.933 502.142 450.532 546.406 445.103 360.428 310.169 375.221 287.393 251.393 221.308 177.644 158.138 80.6215 34.4002 28.8603 27.1796 14.3967 11.2229 7.77201
threshold=11.500000000000002 0.46742270886898046 0.73252364993095409 62142.500000000007 44.500000000000007 -0.18270197510719297 1.5000000000000002 0.64131346344947826 26.500000000000004 0.042280500754714019 0.21825399994850161 -14.00663375854492 2.5000000000000004 -14.999907970428465 51.500000000000007 32.500000000000007 5.5000000000000009 7.9496819972991952 62.500000000000007 2910.5000000000005 170.50000000000003 5.5000000000000009 37.084386825561531 2.5000000000000004 37.556591033935554 213.50000000000003 1.6909460425376894 17257.500000000004 0.019481999799609188 -6.706333875656127 2657.2451171875005 53.384187698364265
decision_type=2 2 2 2 2 2 2 2 2 2 2 2 2 2 2 2 2 2 2 2 2 2 2 2 2 2 2 2 2 2 2 2
left_child=2 10 5 4 7 -1 -6 8 13 20 14 18 -5 -3 15 -2 26 -14 19 -9 -10 -7 25 -17 -15 -8 -4 28 -25 31 -27 -16
right_child=1 3 16 12 6 21 22 11 9 -11 -12 -13 17 24 29 23 -18 -19 -20 -21 -22 -23 -24 27 -26 30 -28 -29 -30 -31 -32 -33
leaf_value=0.068721701961409407 -0.082587172788436386 -0.27082934590195906 0.61183537681880273 0.57028119757364493 0.44354935351843877 0.50837028186591715 -0.32743358432697189 -0.26667265098422532 -0.43842364168388576 0.036719430221580973 0.30596188599896834 0.28919330082817468 0.3575528598928383 0.18812639014479857 -0.69731652604728933 -0.24227831932305535 0.49612463514649535 -0.056716932485644599 0.20954599134631521 0.040846637600578981 -0.93402712916518948 0.31935194696753738 -0.075917511559617623 -0.84503720393076698 -0.038019704632558084 -0.68957047913774039 0.66592295324815309 -0.52371078877025501 -0.57904591800901173 -0.46223346106188479 -0.48617939569234014 -0.48363068750770905
leaf_weight=4572.544611711055 1375.4458179567009 2684.3369056396186 12635.775421909988 2060.6074643339962 380.48329636827111 6199.966464208439 398.03153983876109 2776.3803704790771 1792.9692633170635 1134.9336980935186 321.89794689044356 4155.2951126657426 1687.8339704815298 2607.4400965422392 8687.4318318609148 499.40354107879102 12191.684445034713 1828.4633441306651 1985.3366744648665 4166.3539531771094 735.04968551918864 6221.5465933475643 351.81039515323937 881.28221974149346 2552.8573676757514 2879.1517943199724 19429.477784754708 507.37510924786329 443.50127316825092 281.61549366265535 348.2848097756505 263.82374970056117
leaf_count=10741 13386 12718 10302 5645 3663 7057 7871 13530 24976 6973 4559 8809 6546 6366 251000 6137 12668 10234 6271 14435 5277 10191 6628 15602 8686 62521 8779 6613 6629 8270 7331 7158
internal_value=0 -0.187482 0.525757 -0.0345893 -0.0993684 0.321582 -0.49456 -0.0290767 -0.154102 -0.39138 -0.58504 0.0805021 0.300616 -0.0425446 -0.607668 -0.412149 0.604014 0.140783 -0.0161047 -0.0814387 -0.585454 0.414209 -0.585859 -0.604006 0.0752823 -0.633813 0.644826 -0.69925 -0.761317 -0.685457 -0.669672 -0.691752
internal_weight=0 47787.4 61251 34525.6 28948.7 16994.1 4357.76 24591 11507.6 3662.95 13261.8 13083.4 5576.9 7844.63 12939.9 3707.01 44256.9 3516.3 8928.07 6942.73 2528.02 12421.5 3977.28 2331.56 5160.3 3625.47 32065.3 1832.16 1324.78 9232.87 3227.44 8951.26
internal_count=597572 537834 59738 218480 196055 27989 88014 108041 64996 37226 319354 43045 22425 27770 314795 48367 31749 16780 34236 27965 30253 17248 84351 34981 15052 77723 19081 28844 22231 266428 69852 258158
is_linear=0
shrinkage=0.65


Tree=3
num_leaves=25
num_cat=0
split_feature=138 137 136 136 137 113 52 130 139 136 54 137 138 35 138 130 138 124 138 79 136 137 73 139
split_gain=13631.4 4214.62 1453.51 1436.78 928.97 933.038 1231.01 710.762 517.51 514.022 544.391 403.483 399.755 513.531 343.896 354.816 319.327 252.949 234.957 146.638 136.685 123.098 56.5295 53.5495
threshold=8.5000000000000018 0.42264559864997869 0.8994065821170808 0.80802541971206676 0.73134973645210277 -18.656215667724606 0.10620300099253656 49493.500000000007 86.500000000000014 -0.48823492228984827 0.0091774999164044874 0.36202254891395574 20.500000000000004 4.6904764175415048 34.500000000000007 63058.500000000007 43.500000000000007 -19.429032325744625 49.500000000000007 3.3992685079574589 1.5837529897689822 0.79509276151657116 10.1399302482605 35.500000000000007
decision_type=2 2 2 2 2 2 2 2 2 2 2 2 2 2 2 2 2 2 2 2 2 2 2 2
left_child=2 11 8 4 5 16 9 -5 -1 18 -11 23 -8 -14 -13 -16 17 -3 -7 -19 -4 -6 -18 -2
right_child=1 3 20 7 21 6 12 -9 -10 10 -12 14 13 -15 15 -17 22 19 -20 -21 -22 -23 -24 -25
leaf_value=0.080813425858374061 -1.0705390988066039 -0.49106165822916231 0.50345747926925422 0.0070429055983365239 0.057710642555682527 -0.081374925343249555 -0.088039544055177194 0.35077819554354778 0.38252860964543273 0.28443044930650779 -0.058418191060879379 0.018385685217820743 -0.029087873587438376 -0.56307373866062849 -0.64028442544471853 0.27832750724874739 -0.67598548887564736 0.013866805856279229 -0.60738906124743275 -0.27210553442409385 0.61783000478153494 0.23356967037645043 -0.26325130130493057 -0.66925649345618876
leaf_weight=3715.676444853656 200.51407639682293 1479.7271215403453 8018.8357070852071 4424.2998494021595 4101.6774419415742 1505.8087786640972 2832.0256219748408 6071.3243419211358 7061.2180732330307 5161.745903391391 3113.5836975453421 728.74850975908339 1083.2161703594029 2735.5436595743522 1318.6179092517123 195.12888136040419 1264.548052017577 1198.3561652889475 482.44050905760378 1910.9949711561203 12867.772547101602 2980.8367247637361 212.77652442827821 3933.5376499295235
leaf_count=10621 2208 13385 11798 14766 12788 12156 8747 11541 10989 28604 25091 5661 13622 45371 60236 5778 45889 7021 18511 15138 11525 6429 6277 193420
internal_value=0 -0.0778476 0.473963 -0.000473574 -0.0728881 -0.136429 -0.0576012 0.206417 0.279033 0.0831654 0.15483 -0.568964 -0.275559 -0.413098 -0.341667 -0.518147 -0.355231 -0.268324 -0.212296 -0.160306 0.574242 0.132522 -0.620664 -0.690688
internal_weight=0 46935.5 31663.5 40558.9 30063.3 22980.8 16914.4 10495.6 10776.9 10263.6 8275.33 6376.55 6650.79 3818.76 2242.5 1513.75 6066.4 4589.08 1988.25 3109.35 20886.6 7082.51 1477.32 4134.05
internal_count=597572 552639 44933 285336 259029 239812 152102 26307 21610 84362 53695 267303 67740 58993 71675 66014 87710 35544 30667 22159 23323 19217 52166 195628
is_linear=0
shrinkage=0.65


Tree=4
num_leaves=35
num_cat=0
split_feature=138 138 136 136 130 138 139 102 127 19 137 34 138 128 136 19 89 137 68 125 70 64 84 45 136 83 136 104 121 42 129 129 78 14
split_gain=5917.02 2266.66 1528.67 937.21 826.471 849.111 599.443 557.945 444.998 418.973 326.04 324.252 267.97 505.668 203.847 201.648 200.21 176.076 170.849 209.438 153.924 138.637 135.549 107.679 95.8072 94.8725 71.9316 58.0095 52.365 50.6505 43.1307 30.1871 13.0851 9.96967
threshold=6.5000000000000009 90.500000000000014 -0.96033838391304005 1.0838988423347475 37871.500000000007 27.500000000000004 197.50000000000003 0.8044709861278535 4.5000000000000009 26.092377662658695 0.63806781172752391 33.500000000000007 46.500000000000007 16.500000000000004 0.2622715830802918 5.9772303104400644 20.488742828369144 0.56919395923614513 0.0023105000145733361 2.5000000000000004 255.81228637695315 0.063901498913764967 55.021259307861335 0.046475499868392951 -0.42002692818641657 7.5069539546966562 1.8166227936744692 0.97982349991798412 -1.0000000180025095e-35 0.18016999959945681 221.50000000000003 6429.5000000000009 10.412963867187502 14.500000000000002
decision_type=2 2 2 2 2 2 2 2 2 2 2 2 2 2 2 2 2 2 2 2 2 2 2 2 2 2 2 2 2 2 2 2 2 2
left_child=3 2 9 14 5 11 12 10 -8 16 25 22 18 21 -1 -10 23 31 19 -6 24 -14 27 28 -9 -7 -5 -4 30 -24 -2 -18 33 -3
right_child=1 32 4 26 6 7 8 20 15 -11 -12 -13 13 -15 -16 -17 17 -19 -20 -21 -22 -23 29 -25 -26 -27 -28 -29 -30 -31 -32 -33 -34 -35
leaf_value=0.11911724133060572 -0.33632670718321106 -0.32092682154234814 -0.053270366503271188 0.4757417746151239 0.12511195604388636 -0.52104104734136336 0.46450547727534441 -0.26650485099480986 -0.041841719224010157 0.26789826632231106 0.21772510899215286 0.21913380969634216 -0.571517542351477 0.64796123111931825 0.34022550583662986 0.27375420731643846 -0.71789593342256275 -0.076275662441934053 0.1892709950237606 -0.043704382781260029 -0.11057996726467359 0.048675666417051094 -0.22794347916093166 -0.24290261408179498 -0.77098394740229881 -0.0016274322881330485 0.60000067553077385 0.072894630692142554 -1.0206415428596425 -0.071889719771397756 -0.72833174597654704 -0.3387720880302672 -0.27653361201824106 -0.67821359192490305
leaf_weight=3450.818977130577 210.39940098160878 98.428167232312262 3330.3710179245099 4237.2242619115859 5592.8428159626201 562.38102084165439 2971.1944420472719 223.5886612306349 1661.012816014234 310.59563436871395 748.00236317235976 2239.2306497907266 786.59244360588491 208.53727202489972 3822.4780397573486 1708.0535180824809 338.77512263553217 676.60233763931319 3813.6525027505122 6915.3841351810843 238.02941896067932 169.48316267970949 1889.1131161982194 251.99424061737955 1305.127893445082 229.10595615161583 5476.0800432604738 2848.7985805440694 301.40626893378794 1888.1005194392055 850.30316430795938 224.63056277204305 90.011558336205781 2190.9689039895311
leaf_count=8603 5237 5360 11251 9371 20834 18910 10167 11854 8989 3905 4946 6050 37181 4990 9123 6618 16572 5686 13798 36616 4820 4793 8109 5444 39060 7332 7926 8987 8181 6921 36110 10493 6977 186358
internal_value=0 -0.036355 -0.00164376 0.41396 0.0332176 -0.0834022 0.10931 -0.375441 0.280649 -0.436163 -0.0851924 -0.00373605 0.046854 -0.253062 0.236121 0.116712 -0.514789 -0.309367 0.0686121 0.0313745 -0.624881 -0.456332 -0.05443 -0.668576 -0.701217 -0.377773 0.546483 0.00406132 -0.742857 -0.151424 -0.656554 -0.578346 -0.653342 -0.665532
internal_weight=0 44872.7 42493.3 16986.6 39328.6 15501.8 23826.8 3306.24 6340.26 3164.71 1539.49 12195.6 17486.5 1164.61 7273.3 3369.07 2854.11 1240.01 16321.9 12508.2 1766.75 956.076 9956.38 1614.1 1528.72 791.487 9713.3 6179.17 1362.11 3777.21 1060.7 563.406 2379.41 2289.4
internal_count=597572 562549 363854 35023 272226 128240 143986 86922 25774 91628 31188 41318 118212 46964 17726 15607 87723 32751 71248 57450 55734 41974 35268 54972 50914 26242 17297 20238 49528 15030 41347 27065 198695 191718
is_linear=0
shrinkage=0.65


Tree=5
num_leaves=15
num_cat=0
split_feature=138 137 139 136 138 138 35 25 125 84 139 123 54 10
split_gain=2278.49 1176.02 788.594 544.729 480.867 463.072 404.877 567.172 554.141 417.036 234.592 62.8709 53.2459 45.1724
threshold=4.5000000000000009 0.36202254891395574 47.500000000000007 1.2282271981239321 12.500000000000002 90.500000000000014 34.071428298950202 4.5000000000000009 2.5000000000000004 41.276224136352546 130.50000000000003 -1.4910400509834287 0.0043189998250454673 76.500000000000014
decision_type=2 2 2 2 2 2 2 2 2 2 2 2 2 2
left_child=3 11 -3 -1 10 6 7 8 -6 -9 12 -2 -4 -7
right_child=1 2 4 -5 5 13 -8 9 -10 -11 -12 -13 -14 -15
leaf_value=0.18312587462935392 -0.63149037831883315 -0.58933061145145438 -0.038002902963508813 0.51295947079296167 0.12795185315733174 -0.17550982335827048 0.26597200654681519 -0.57103054676676868 -0.10714661109021671 -0.12495107104457091 0.20733620831219424 -0.11660791191135986 0.077056404395366304 -0.66546772677266941
leaf_weight=4268.0682760090567 1329.4726119230036 922.28260347712785 2549.913266251795 4335.2547076614574 9801.2329124365933 133.54857204272412 1957.1667692624032 1020.2503076579887 7440.3259278277401 7172.8437918443233 6448.414635298308 137.28079364448786 4831.3398195602931 514.2892041830346
leaf_count=12701 189643 6093 7398 12372 77421 8998 12787 14842 87116 70276 14223 6226 14344 63132
internal_value=0 -0.0153898 0.00412396 0.350048 0.0173591 -0.0314166 -0.0183453 -0.0404545 0.0261963 -0.18131 0.116614 -0.587152 0.0366047 -0.573647
internal_weight=0 44258.4 42791.6 8603.32 41869.3 28039.7 27391.8 25434.7 17241.6 8193.09 13829.7 1466.75 7381.25 647.838
internal_count=597572 572499 376630 25073 370537 334572 262442 249655 164537 85118 35965 195869 21742 72130
is_linear=0
shrinkage=0.65


Tree=6
num_leaves=12
num_cat=0
split_feature=139 138 138 126 136 139 127 138 57 139 77
split_gain=1004.52 1046.19 597.383 379.392 300.234 273.826 242.254 403.581 282.129 275.074 76.8349
threshold=30.500000000000004 5.5000000000000009 101.50000000000001 109.50000000000001 1.6909460425376894 291.50000000000006 83023.000000000015 63.500000000000007 0.35504201054573065 198.50000000000003 3.15892505645752
decision_type=2 2 2 2 2 2 2 2 2 2 2
left_child=-1 4 3 5 10 6 7 8 -3 -9 -2
right_child=1 2 -4 -5 -6 -7 -8 9 -10 -11 -12
leaf_value=-0.79283187870692273 0.11265403309787027 -0.036518916776934633 -0.65186030091688685 0.45097940988533042 0.47471983795864825 0.21464295318070276 0.2593802291767946 -0.62460535610407431 0.16211426606084495 0.075196811517414863 0.27637467578526653
leaf_weight=625.32113350660075 3301.4091973782051 31089.749608753365 594.75425383157562 779.88547379337251 2010.1974038109183 2232.7702663845848 1263.3452090551145 781.85975521884393 3337.9525446349289 321.44433346902952 2094.4378861931618
leaf_count=5012 10814 232720 165667 5399 8735 10029 6179 111060 18463 14705 8789
internal_value=0 0.0343099 -0.00673903 0.00281424 0.258862 -0.00604 -0.0195882 -0.0296732 -0.0170977 -0.416345 0.177277
internal_weight=0 47807.8 40401.8 39807 7406.04 39027.1 36794.4 35531 34427.7 1103.3 5395.85
internal_count=597572 592560 564222 398555 28338 393156 383127 376948 251183 125765 19603
is_linear=0
shrinkage=0.65


Tree=7
num_leaves=24
num_cat=0
split_feature=136 136 14 19 107 126 138 64 108 19 107 136 138 129 15 117 18 75 57 73 130 110 139
split_gain=453.41 251.352 167.511 947.238 264.144 265.001 389.413 371.104 261.46 242.149 202.203 191.699 514.152 362.215 394.549 229.422 194.163 155.648 99.8432 69.8886 102.341 43.2447 9.9313
threshold=1.9789647459983828 -1.6028832197189329 23.500000000000004 8.2727732658386248 15.240786075592043 74.500000000000014 26.500000000000004 0.09171950072050096 10.101476669311525 26.092377662658695 16.232870101928714 -0.23411924391984937 59.500000000000007 20098.500000000004 5.4559714794158944 -14.778494834899901 18.259320259094242 4.5946910381317148 0.24976199865341189 8.2750520706176776 57961.500000000007 -15.972075462341307 39.500000000000007
decision_type=2 2 2 2 2 2 2 2 2 2 2 2 2 2 2 2 2 2 2 2 2 2 2
left_child=1 19 3 8 9 6 17 10 -3 11 -8 12 16 14 -13 -15 -4 -6 -19 20 21 22 -1
right_child=-2 2 4 -5 5 -7 7 -9 -10 -11 -12 13 -14 15 -16 -17 -18 18 -20 -21 -22 -23 -24
leaf_value=-0.39339507033302684 0.37484867251067089 -0.85815449053070425 0.23800879591351956 0.1816739055067669 -0.14713332615461705 0.18946920564507122 0.089958464097726981 0.44931296015588734 -0.22036590930217637 0.44235633952999304 -0.4925449105724774 0.42310679042493415 -0.67267794888779076 0.15866519319204719 0.098457643075092902 -0.081540895550379383 -0.044259091929824766 -0.060500393601165998 0.071120169592470125 0.10684054282979714 0 -0.18033920883587057 -0.82727153217009808
leaf_weight=92.460588977206498 1408.8492439961992 669.76096487150062 1268.8110354212695 1551.8002644885564 3462.3938326562056 1829.439989799168 275.9225788526237 228.67741356696934 503.79687589535024 685.74547333095688 1753.8886029544519 2171.9721653478919 499.13710911810631 2394.7158980497625 6061.4134716389235 5591.7849737969227 5373.7843963700579 4331.8559939429397 5513.2266845218837 88.688499102951027 154.15813648025505 107.55336966738105 260.19857472734293
leaf_count=1704 7241 13045 17254 9614 13645 12630 12192 4901 4403 3711 76842 12182 152176 12821 32626 45803 45770 18034 19800 4471 13771 21590 41346
internal_value=0 0.000596917 0.00686197 -0.148953 0.0172435 -0.0435912 -0.0713455 -0.320954 -0.589955 0.0614664 -0.410789 0.0500117 -0.0382041 0.0891741 0.184846 -0.00883496 0.00895234 -0.0285338 0.0126781 -0.38409 -0.463548 -0.616284 -0.732141
internal_weight=0 44871.2 44168.1 2725.36 41442.8 17395.4 15566 2258.49 1173.56 24047.4 2029.81 23361.6 7141.73 16219.9 8233.39 7986.5 6642.6 13307.5 9845.08 703.059 614.371 460.213 352.659
internal_count=597572 590331 507449 27062 480387 158044 145414 93935 17448 322343 89034 318632 215200 103432 44808 58624 63024 51479 37834 82882 78411 64640 43050
is_linear=0
shrinkage=0.65


end of trees

feature_importances:
Column_138=35
Column_136=26
Column_139=18
Column_137=14
Column_129=7
Column_130=7
Column_19=4
Column_14=3
Column_117=3
Column_125=3
Column_126=3
Column_127=3
Column_35=2
Column_54=2
Column_57=2
Column_60=2
Column_64=2
Column_68=2
Column_70=2
Column_73=2
Column_79=2
Column_84=2
Column_102=2
Column_107=2
Column_113=2
Column_123=2
Column_128=2
Column_10=1
Column_12=1
Column_15=1
Column_18=1
Column_24=1
Column_25=1
Column_34=1
Column_42=1
Column_45=1
Column_52=1
Column_53=1
Column_59=1
Column_67=1
Column_69=1
Column_72=1
Column_74=1
Column_75=1
Column_77=1
Column_78=1
Column_80=1
Column_82=1
Column_83=1
Column_89=1
Column_90=1
Column_92=1
Column_104=1
Column_108=1
Column_109=1
Column_110=1
Column_118=1
Column_121=1
Column_124=1
Column_132=1
Column_135=1

parameters:
[boosting: gbdt]
[objective: binary]
[metric: binary_logloss]
[tree_learner: serial]
[device_type: cpu]
[data: ]
[valid: ]
[num_iterations: 10]
[learning_rate: 0.65]
[num_leaves: 64]
[num_threads: 0]
[deterministic: 0]
[force_col_wise: 0]
[force_row_wise: 0]
[histogram_pool_size: -1]
[max_depth: 8]
[min_data_in_leaf: 7440]
[min_sum_hessian_in_leaf: 88.5]
[bagging_fraction: 1]
[pos_bagging_fraction: 1]
[neg_bagging_fraction: 1]
[bagging_freq: 0]
[bagging_seed: 3]
[feature_fraction: 1]
[feature_fraction_bynode: 1]
[feature_fraction_seed: 2]
[extra_trees: 0]
[extra_seed: 6]
[early_stopping_round: 5]
[first_metric_only: 0]
[max_delta_step: 0]
[lambda_l1: 8]
[lambda_l2: 2.8]
[linear_lambda: 0]
[min_gain_to_split: 5.8]
[drop_rate: 0.1]
[max_drop: 50]
[skip_drop: 0.5]
[xgboost_dart_mode: 0]
[uniform_drop: 0]
[drop_seed: 4]
[top_rate: 0.2]
[other_rate: 0.1]
[min_data_per_group: 100]
[max_cat_threshold: 32]
[cat_l2: 10]
[cat_smooth: 10]
[max_cat_to_onehot: 4]
[top_k: 20]
[monotone_constraints: ]
[monotone_constraints_method: basic]
[monotone_penalty: 0]
[feature_contri: ]
[forcedsplits_filename: ]
[refit_decay_rate: 0.9]
[cegb_tradeoff: 1]
[cegb_penalty_split: 0]
[cegb_penalty_feature_lazy: ]
[cegb_penalty_feature_coupled: ]
[path_smooth: 0]
[interaction_constraints: ]
[verbosity: -1]
[saved_feature_importance_type: 0]
[linear_tree: 0]
[max_bin: 255]
[max_bin_by_feature: ]
[min_data_in_bin: 3]
[bin_construct_sample_cnt: 200000]
[data_random_seed: 1]
[is_enable_sparse: 1]
[enable_bundle: 1]
[use_missing: 1]
[zero_as_missing: 0]
[feature_pre_filter: 0]
[pre_partition: 0]
[two_round: 0]
[header: 0]
[label_column: ]
[weight_column: ]
[group_column: ]
[ignore_column: ]
[categorical_feature: ]
[forcedbins_filename: ]
[precise_float_parser: 0]
[objective_seed: 5]
[num_class: 1]
[is_unbalance: 0]
[scale_pos_weight: 1]
[sigmoid: 1]
[boost_from_average: 1]
[reg_sqrt: 0]
[alpha: 0.9]
[fair_c: 1]
[poisson_max_delta_step: 0.7]
[tweedie_variance_power: 1.5]
[lambdarank_truncation_level: 30]
[lambdarank_norm: 1]
[label_gain: ]
[eval_at: 10]
[multi_error_top_k: 1]
[auc_mu_weights: ]
[num_machines: 1]
[local_listen_port: 12400]
[time_out: 120]
[machine_list_filename: ]
[machines: ]
[gpu_platform_id: -1]
[gpu_device_id: -1]
[gpu_use_dp: 0]
[num_gpu: 1]

end of parameters

pandas_categorical:null
