tree
version=v3
num_class=1
num_tree_per_iteration=1
label_index=0
max_feature_idx=139
objective=binary sigmoid:1
feature_names=Column_0 Column_1 Column_2 Column_3 Column_4 Column_5 Column_6 Column_7 Column_8 Column_9 Column_10 Column_11 Column_12 Column_13 Column_14 Column_15 Column_16 Column_17 Column_18 Column_19 Column_20 Column_21 Column_22 Column_23 Column_24 Column_25 Column_26 Column_27 Column_28 Column_29 Column_30 Column_31 Column_32 Column_33 Column_34 Column_35 Column_36 Column_37 Column_38 Column_39 Column_40 Column_41 Column_42 Column_43 Column_44 Column_45 Column_46 Column_47 Column_48 Column_49 Column_50 Column_51 Column_52 Column_53 Column_54 Column_55 Column_56 Column_57 Column_58 Column_59 Column_60 Column_61 Column_62 Column_63 Column_64 Column_65 Column_66 Column_67 Column_68 Column_69 Column_70 Column_71 Column_72 Column_73 Column_74 Column_75 Column_76 Column_77 Column_78 Column_79 Column_80 Column_81 Column_82 Column_83 Column_84 Column_85 Column_86 Column_87 Column_88 Column_89 Column_90 Column_91 Column_92 Column_93 Column_94 Column_95 Column_96 Column_97 Column_98 Column_99 Column_100 Column_101 Column_102 Column_103 Column_104 Column_105 Column_106 Column_107 Column_108 Column_109 Column_110 Column_111 Column_112 Column_113 Column_114 Column_115 Column_116 Column_117 Column_118 Column_119 Column_120 Column_121 Column_122 Column_123 Column_124 Column_125 Column_126 Column_127 Column_128 Column_129 Column_130 Column_131 Column_132 Column_133 Column_134 Column_135 Column_136 Column_137 Column_138 Column_139
feature_infos=[0:16] [0:6] [0:8] [0:8] [0:16] [0:1] [0:1] [0:1] [0:1] [0:1] [0:12923] [0:3233] [0:12917] [2:132] [3:25845] [-1.9397770166397095:98.653861999511719] [3.7259809970855713:159.86013793945312] [2.7613649368286133:152.07829284667969] [0.79833799600601196:166.13566589355469] [-1.9448369741439819:98.624855041503906] [0:2726] [0:110] [0:563] [0:10] [0:2730] [0:1083] [0:30] [0:49] [0:5] [0:1083] [0:1627] [0:64] [0:475] [0:6] [0:1629] [0:1083] [0:30] [0:140.75] [0:5] [0:1083] [0:661782.25] [0:638.75] [0:37744.1875] [0:9] [0:663410.25] [0:2] [0:2] [0:2] [0:1] [0:0.80995500087738037] [0:1] [0:1] [0:1] [0:0.57142901420593262] [0:0.60000002384185791] [0:1] [0:1] [0:1] [0:0.57142901420593262] [0:0.60000002384185791] [0:1] [0:1] [0:1] [0:0.57142901420593262] [0:0.60000002384185791] [0:0.25] [0:0.25] [0:0.25] [0:0.0625] [0:0.0625] [-502.57244873046875:16527.740234375] [0:955.788818359375] [0:4664.697265625] [0:77.544601440429688] [-503.66119384765625:16532.033203125] [-567.93853759765625:4774.43798828125] [0:223.21076965332031] [0:538.6591796875] [0:64.091140747070312] [-569.168701171875:4789.7236328125] [0:11113.951171875] [0:615.50018310546875] [0:3829.640380859375] [0:68.338874816894531] [0:11124.8037109375] [-281.26773071289062:5556.9755859375] [0:238.94720458984375] [0:1200.550537109375] [0:64.091140747070312] [-287.8358154296875:5562.40185546875] [0:30879978] [0:56952.48828125] [0:2417518.5] [0:1167.55029296875] [0:30940314] [0:1] [0:1] [0:1] [0:1] [0:1] [0:1] [0:1] [0:1] [0:1] [0:1] [-11.413535118103027:190.64485168457031] [0:60.223415374755859] [0:72.414131164550781] [0:49.223228454589844] [-11.416239738464355:191.38079833984375] [-194.15585327148438:0] [-118.54830169677734:0] [-158.66993713378906:0] [-132.80621337890625:0] [-194.16043090820312:0] [-187.41470336914062:0] [-111.64816284179688:0] [-156.41024780273438:0] [-130.16769409179688:0] [-187.39202880859375:0] [-205.81387329101562:0] [-137.58628845214844:0.70563399791717529] [-179.10939025878906:0] [-155.76138305664062:0] [-205.75247192382812:0] [1:31] [5:1383] [0:226244464] [0:170] [100:65534] [1:65535] [1:254] [1:254] [0:4344779] [0:2348975] [0:570000000] [-2.3079688549041748:2.4797468185424805] [0:1] [0:676] [1:679]
tree_sizes=6927 7034 7052 4998 6984 4120 4469 5546 5216 5859

Tree=0
num_leaves=64
num_cat=0
split_feature=138 136 138 137 107 139 138 139 130 120 70 130 138 136 136 138 137 125 136 122 138 129 10 137 0 68 137 139 138 137 137 127 126 138 138 138 102 130 130 139 45 107 59 139 136 70 139 130 129 136 60 10 138 136 87 139 136 80 136 139 136 136 138
split_gain=854859 73939.3 31329.4 17448.7 16535.2 13673.6 6465.95 7001.95 5008.13 4379.6 4196.4 3832.32 3570.69 3153.84 2855.99 2665.89 2445.67 2186.9 1864.6 1603.05 1682.35 1572.57 1889.88 1464.4 2367.17 2622.88 1322.01 1312.37 1205.57 1155.53 1110.03 982.565 936.465 862.939 810.941 798.024 728.275 697.494 679.745 650.369 1203.51 612.655 551.4 525.481 524.468 523.352 520.095 432.787 388.23 386.054 348.702 333.297 331.63 264.409 257.568 252.422 237.749 192.936 189.467 178.378 166.6 142.565 133.991
threshold=28.500000000000004 0.0065371091477572927 14.500000000000002 0.61305767297744762 13.046381473541262 84.500000000000014 51.500000000000007 124.50000000000001 49057.500000000007 -5.2116141319274893 28.996858596801761 39128.500000000007 38.500000000000007 0.053924314677715308 -0.29437999427318567 23.500000000000004 0.49328851699829107 1.5000000000000002 0.12595837563276294 -1.7147694826126096 40.500000000000007 17257.500000000004 61.500000000000007 0.34775094687938696 1.5000000000000002 0.0050239998381584891 0.52989912033081066 51.500000000000007 7.5000000000000009 0.68493428826332103 0.4867836087942124 24.500000000000004 27.500000000000004 18.500000000000004 10.500000000000002 17.500000000000004 0.73062199354171764 47621.500000000007 53623.500000000007 104.50000000000001 0.011480499990284445 15.318674087524416 0.013336000032722952 117.50000000000001 -0.36308261752128596 74.305637359619155 128.50000000000003 46465.500000000007 12275.500000000002 -0.18121583014726636 0.034165000542998321 35.500000000000007 48.500000000000007 -0.80348336696624745 6.3467857837677011 155.50000000000003 0.52562156319618236 45.077816009521491 -0.10516012832522391 113.50000000000001 0.72323352098464977 0.50440123677253734 6.5000000000000009
decision_type=2 2 2 2 2 2 2 2 2 2 2 2 2 2 2 2 2 2 2 2 2 2 2 2 2 2 2 2 2 2 2 2 2 2 2 2 2 2 2 2 2 2 2 2 2 2 2 2 2 2 2 2 2 2 2 2 2 2 2 2 2 2 2
left_child=2 3 13 6 8 14 7 39 16 12 42 15 38 27 26 35 32 -5 41 20 46 -10 -23 58 25 31 53 44 60 52 -24 -25 -3 -16 62 -7 -17 -12 48 51 -41 49 -9 -37 -1 61 -19 -22 -6 -13 -38 -2 57 -4 -45 -47 -30 -14 -8 -36 -15 -20 -29
right_child=1 4 5 17 9 11 23 10 21 -11 37 18 29 28 33 36 -18 19 45 -21 47 22 30 24 -26 -27 -28 34 56 -31 -32 -33 -34 -35 59 43 50 -39 -40 40 -42 -43 -44 54 -46 55 -48 -49 -50 -51 -52 -53 -54 -55 -56 -57 -58 -59 -60 -61 -62 -63 -64
leaf_value=1.0471282886155304 -0.80393767202264854 -1.5414733386734922 -1.5992329085175525 1.3073300534505341 -0.78769737153225572 1.6188193786412612 -1.9076506771305208 1.1326781079318684 1.7812454563458024 0.67205026418849323 -1.5087052060409629 1.2168945603109551 -0.60555462335973376 2.1580159136914649 1.166020685439507 0.92596566412910142 0.77439590628316013 -0.30912658310456353 1.8771667160334058 0.99454491048796534 -1.4640073721102023 1.6272957201958613 -0.29433642862639542 -1.586755076487766 -1.7881718424740933 0.57881536843609871 0.13320254380299712 2.0826432528434631 1.9878095175470625 -0.056763158359389276 1.0427401794837547 -0.86610961984295276 0.047672310588012579 0.22692818802767323 1.5120296246836342 0.67924225086612311 -0.44442099154060233 -0.39485836770109151 0.61818288940011712 0.14310619949477221 -1.4805296492047897 0.94726732678053938 0.25901913214176675 1.5202438080783465 1.6860648725085321 1.4827353253867779 0.64574352365708554 -0.55060467625029585 0.081104124330435345 1.6755508824120275 0.42073165567838977 -1.738453399765326 -1.7950554189944761 -0.71913512854067863 1.0617190750156802 1.8194950195438839 2.1047192222038023 -1.4950286360921901 -1.1778318579653995 1.8217148329508732 2.2153598478555034 2.0598100419162488 1.930859204788451
leaf_weight=973.35946959257126 243.88731725513935 355.43932615220547 354.70498479157686 485.76448301970959 486.35123967379332 2537.8723513409495 14719.189020991325 645.01637753844261 2621.854912891984 1039.2378458604217 623.84765009582043 1230.3547103330493 285.33150032162666 31623.699333235621 827.05709974467754 601.7529129460454 1074.2811402156949 488.93928520381451 4416.0047369673848 401.34234999120235 521.11648390442133 1107.5059334635735 492.24220032989979 2380.8013946413994 7945.1313068345189 343.24835152924061 672.47663519531488 6879.4599346742034 13051.504536099732 262.47801195085049 573.33258267492056 1421.3963228836656 316.62627406418324 842.1576055213809 1762.8446007221937 816.63689560443163 425.92192473262548 467.49207449704409 462.33331093192101 289.71557179838419 699.0960138887167 1112.2902827188373 595.94838012009859 1048.3714810907841 1212.9452630355954 1801.3580375313759 521.70352370291948 533.65265376865864 494.12942308187485 2068.1542542800307 436.98088528960943 3037.4815205186605 1239.4332099407911 440.60247880965471 1004.7878669798374 2002.2070474401116 18602.969651706517 330.70810382813215 278.63980765640736 1448.0432272478938 87421.558427855372 3355.0572355166078 4264.8054035454988
leaf_count=3598 2109 4025 3825 1362 4267 4936 177829 2152 3682 4833 6898 3868 2381 13726 2637 2386 4735 3646 5069 1521 5711 2034 3733 26897 93327 1701 4139 4437 11929 1793 2069 13090 2087 4788 4105 3781 3354 3670 2209 1801 7556 4323 3519 2320 2456 4199 2521 4444 3134 3639 2365 33873 14562 3618 3596 2667 9730 3600 2834 1953 17831 1979 4713
internal_value=1.42853 -1.03301 2.03728 -1.47886 0.434187 1.3735 -1.61176 -1.02862 1.09908 -0.509498 -0.115806 1.54817 -0.852251 2.14047 0.10204 1.14253 0.158353 0.0408641 1.72271 -0.206996 -0.43792 1.44226 1.0343 -1.75334 -1.57603 -1.16559 -0.559243 1.87052 2.17007 -1.39146 0.418095 -1.32123 -0.811395 0.688888 1.94195 1.35396 0.366135 -1.04384 -0.0523841 -1.52434 -1.01564 1.36353 0.708546 1.11914 1.40227 1.85972 0.175586 -1.01524 -0.360887 1.50382 -0.0168775 -1.67309 -1.57472 -1.13056 1.29645 1.6608 2.05667 -1.10588 -1.89509 1.65269 2.20017 1.95663 2.02498
internal_weight=0 47784.7 193236 36643.4 11141.3 25994.7 33690.9 6602.48 6541.28 4600 2332.3 22857.8 3560.76 167241 3137 6872.32 1746.35 2952.52 15985.4 2466.75 2065.41 4794.94 2173.08 27088.4 12090.6 4145.45 1467.78 16541.5 150700 2117.95 1065.57 3802.2 672.066 1669.21 14355.2 5407.67 1464.66 1091.34 1442.81 4270.18 988.812 4410.8 1240.96 2869.8 2186.3 11574.6 1010.64 1054.77 980.481 3298.51 862.903 3281.37 1855.47 795.307 2053.16 3803.57 31654.5 616.04 14997.8 3210.89 119045 7771.06 11144.3
internal_count=597572 455605 141967 396461 59144 67489 377256 61578 22365 36779 16239 48482 31946 74478 19007 22738 10847 19205 25744 17843 16322 11518 7836 315678 135015 41688 11582 21262 53216 22336 5802 39987 6112 7425 15208 14633 8105 10568 9610 45339 9357 11830 5671 9697 6054 13914 6167 10155 7401 7507 5719 35982 20543 7443 5916 6866 21659 5981 180663 6058 31557 7048 9150
is_linear=0
shrinkage=1


Tree=1
num_leaves=64
num_cat=0
split_feature=138 138 138 139 138 139 13 125 136 126 57 114 136 136 136 85 117 130 120 137 138 138 129 19 135 125 126 125 130 138 139 139 70 139 68 100 127 113 138 84 126 12 139 126 40 112 127 12 139 136 132 73 129 58 133 136 136 133 73 94 12 136 136
split_gain=63087.4 8396.18 5007.04 3865.49 1751.17 1344.47 1254.91 1527.43 1239.84 1149.87 1064 1032.62 922.365 889.113 861.314 813.196 713.897 659.2 618.458 833.444 615.164 614.788 614.73 507.022 475.772 476.717 436.214 418.5 1004.46 994.282 1001.27 371.307 333.086 324.445 313.375 308.903 300.653 430.028 299.679 286.963 281.328 272.092 268.953 241.863 200.004 176.327 170.981 154.193 142.572 126.412 125.152 119.3 114.616 110.159 97.3946 91.6143 78.933 72.204 72.1795 78.6986 67.2896 52.779 51.6511
threshold=17.500000000000004 68.500000000000014 9.5000000000000018 179.50000000000003 35.500000000000007 69.500000000000014 5.5000000000000009 2.5000000000000004 0.27767479419708258 114.50000000000001 0.091965999454259886 -1.7320345044136045 0.25326919555664068 -0.054795345291495316 -0.71396958827972401 8.6459536552429217 -6.6564500331878653 39128.500000000007 -6.4352736473083487 0.6989036798477174 31.500000000000004 26.500000000000004 65504.500000000007 5.7625029087066659 77.38769912719728 1.5000000000000002 40.500000000000007 2.5000000000000004 41156.500000000007 104.50000000000001 144.50000000000003 64.500000000000014 24.934687614440922 108.50000000000001 0.0020694999257102613 0.94377249479293834 3.5000000000000004 -12.060466289520262 4.5000000000000009 52.592365264892585 37.500000000000007 6.5000000000000009 57.500000000000007 42.500000000000007 0.26785700023174291 -2.1316465139389034 1.0000000180025095e-35 1.0000000180025095e-35 44.500000000000007 0.0065371091477572927 4.5000000000000009 12.469319343566896 13182.500000000002 0.096005998551845564 1.0000000180025095e-35 0.68933176994323742 -0.14947447180747983 59.500000000000007 16.265980720520023 15.098401546478273 6.5000000000000009 0.72323352098464977 0.97784230113029491
decision_type=2 2 2 2 2 2 2 2 2 2 2 2 2 2 2 2 2 2 2 2 2 2 2 2 2 2 2 2 2 2 2 2 2 2 2 2 2 2 2 2 2 2 2 2 2 2 2 2 2 2 2 2 2 2 2 2 2 2 2 2 2 2 2
left_child=2 3 8 4 10 42 15 36 31 16 14 22 18 60 35 -5 24 43 19 -12 -9 -17 27 -22 25 -6 55 28 47 30 -30 48 -20 44 40 -2 -8 -38 62 -23 -14 -25 -4 46 -16 -31 -7 -3 -1 58 -35 -49 53 -28 61 -19 -33 -56 -29 -60 -13 -40 -10
right_child=1 11 5 6 9 17 7 20 38 -11 12 13 34 -15 33 21 -18 26 32 -21 23 39 -24 41 -26 -27 52 49 29 45 -32 56 -34 50 -36 -37 37 -39 54 -41 -42 -43 -44 -45 -46 -47 -48 51 -50 -51 -52 -53 -54 -55 57 -57 -58 -59 59 -61 -62 -63 -64
leaf_value=0.091972373707617044 -0.75236400626400524 -0.21785176834162537 -0.4220802584623719 0.19196174767068191 -0.17065905281754831 0.10990187278572189 0.67367497668108733 0.2517562314904786 0.65474455589905756 0.85548047589020804 -0.6122786423006864 -0.8080073763255774 0.061943514582164259 0.6495471213767533 0.1611448047168394 -0.029760760206019046 0.095770520038576681 0.45069446036551603 0.25281663132405519 -0.026641405117967077 -0.82360281965175519 -1.2890218104351325 0.30294802329995091 0.20448188809162951 0.22092644202583683 -0.57350030181333922 0.027268415485746107 -0.75702383989447364 -0.73667427411986475 -0.75262544401296727 0.33578116893197885 0.40536531544514903 -0.24585045940144992 0.46527766718664698 0.31415152339384522 0.056231493223492447 0.65035548030317547 0.0939643482375149 0.57981401257206588 -0.51144454253944083 -0.38389334643235457 -0.40644341568752385 0.051345681725899588 -0.021263185913325686 -0.25099001429902124 -0.099908821205570472 0.33231134226841447 -0.76617276704253456 0.37386343106666819 -1.1084952264590937 0.21332887440549483 -0.34329686404217308 0.38259544860376543 0.29372129431927868 0.44349587831267162 0.58965040838792515 0.53813480519897716 0.59174059245568134 -0.1440363617239683 -0.69358816289659375 -0.29411967444079401 0.6650432703030128 0.70399810583571809
leaf_weight=1399.4176385216415 587.87164079397917 262.24177765473723 1150.7991661503911 1428.4642551653087 1456.0816279128194 2401.3336578719318 3140.9880538731813 1959.0563645474613 16502.139205560088 287.53846227377653 4082.6348885409534 264.66204563900828 1849.9257616810501 492.37454768270254 1319.1274860054255 697.95694637298584 933.97123266011477 6087.3780170045793 859.04754173010588 1381.150950923562 505.34186141937971 367.95996333286166 277.89383662864566 722.00352064520121 373.79358443245292 9251.4283301904798 1299.3657204322517 8299.7648409083486 500.42255720868707 1319.9009048230946 1344.0031096376479 2780.7899461723864 1626.5688653625548 1583.5217554531991 1224.1688763685524 293.44085554033518 1137.8376898728311 1230.0576012097299 7227.7070529945195 486.19172702357173 874.36161253601313 527.87796684727073 889.58876034244895 1803.0441477932036 791.55517337098718 211.48710133507848 3880.9652121737599 5541.2438727207482 1719.6796920970082 459.78754913806915 1878.5096975266933 327.26888737827539 1714.4991737678647 1357.7025317065418 2956.811308324337 3366.8899718560278 8137.7604453228414 3213.3147079534829 197.6971319951117 288.67791061103344 219.69571150094271 7452.946878541261 33664.387295819819
leaf_count=3617 5966 3109 5033 3991 11788 4965 3209 3679 8935 1400 24583 3671 5007 1006 4824 1919 5157 6663 2103 4490 3901 3604 2126 3398 3029 99320 3217 128016 7559 20321 7784 3468 7043 2386 2505 2068 2476 3789 5594 3221 3610 3431 2368 4693 4061 1278 5829 84675 2760 5329 4187 4253 2310 2244 3517 1927 7185 2089 2485 4166 2524 3117 9594
internal_value=0 -0.266269 0.551319 -0.103886 -0.227074 0.288561 0.205359 0.323877 0.625268 -0.41682 -0.0996861 -0.613909 -0.214983 0.0358467 0.112561 -0.160663 -0.447773 0.33559 -0.342493 -0.464756 0.00114773 -0.486023 -0.647361 -0.277377 -0.493783 -0.519006 0.421922 -0.661625 -0.564325 -0.278068 0.0425473 0.447991 -0.0725629 0.207309 0.0413473 -0.482136 0.540921 0.362954 0.660248 -0.854239 -0.0808748 -0.0525752 -0.215097 0.187553 0.00543506 -0.664372 0.247763 -0.721275 0.248364 -0.761097 0.329637 -0.743235 0.250789 0.164448 0.593471 0.500672 0.5047 0.521432 -0.742076 -0.477919 -0.584289 0.623427 0.687902
internal_weight=0 62865.6 109007 42858.4 30654.7 23951.6 12203.7 9223.16 85055 12302.8 18351.9 20007.1 11897.9 976.732 6454.03 2980.57 12015.3 21911.2 7949.4 5463.79 3714.28 1552.11 19030.4 1755.22 11081.3 10707.5 13825.8 18752.5 9506.57 3375.81 1844.43 14037.6 2485.62 5572.71 3948.46 881.312 5508.88 2367.9 71017.3 854.152 2724.29 1249.88 2040.39 8085.34 2110.68 1531.39 6282.3 6130.75 3119.1 9245.93 3462.03 5868.51 4371.57 2657.07 20850.8 9454.27 10918.6 6170.13 8786.14 486.375 484.358 14680.7 50166.5
internal_count=597572 508447 89125 230145 193527 39249 36618 23883 49876 120694 72833 278302 49341 7201 23492 12735 119294 31848 38219 29073 14409 8744 271101 10730 114137 111108 16361 268975 128979 36942 15343 17030 9146 15458 11122 8034 9474 6265 32846 6825 8617 6829 7401 15487 8885 21599 10794 92037 6377 139996 6573 88928 7771 5461 14317 8590 10653 5606 134667 6651 6195 8711 18529
is_linear=0
shrinkage=0.65


Tree=2
num_leaves=64
num_cat=0
split_feature=138 138 130 136 125 127 137 125 13 11 138 14 138 139 64 125 129 87 8 127 105 137 49 138 128 136 10 132 127 138 129 20 39 14 107 137 126 60 12 19 132 127 74 133 129 55 105 10 105 106 35 138 12 69 68 139 82 127 105 100 139 131 124
split_gain=25435.9 5687.97 2154.68 2100.43 1935.2 5709.27 1620.69 1531.6 1565.75 984.557 917.119 909.224 899.781 1543.64 801.823 1056.01 798.648 701.092 668.459 611.966 575.909 532.928 512.998 512.59 495.087 491.509 487.881 434.949 416.981 369.748 369.045 361.743 358.712 352.479 325.531 396.342 313.025 298.299 295.403 288.912 279.142 249.062 246.292 233.339 214.806 211.634 209.814 206.575 205.324 203.514 202.896 188.003 176.705 175.091 169.358 152.314 138.808 125.781 122.135 120.941 109.621 101.376 93.1638
threshold=11.500000000000002 68.500000000000014 43295.500000000007 0.50440123677253734 1.5000000000000002 1.0000000180025095e-35 0.64380317926406871 2.5000000000000004 5.5000000000000009 1.0000000180025095e-35 23.500000000000004 413.50000000000006 101.50000000000001 160.50000000000003 0.019324500113725666 2.5000000000000004 65367.500000000007 7.2765009403228769 0.6333335041999818 883.50000000000011 15.36506223678589 0.48259036242961889 0.2696440070867539 5.5000000000000009 1.0000000180025095e-35 -0.1861479505896568 1243.5000000000002 13.500000000000002 9.5000000000000018 34.500000000000007 30001.500000000004 58.500000000000007 32.071428298950202 353.50000000000006 15.00238084793091 0.75707149505615245 28.500000000000004 0.012771500274538996 3.5000000000000004 9.0844430923461932 19.500000000000004 1425.5000000000002 42.99986648559571 1.0000000180025095e-35 45963.500000000007 0.047062000259757049 21.891512870788578 1203.5000000000002 19.665019035339359 9.1684284210205096 15.916666507720949 6.5000000000000009 3.5000000000000004 1.0499999916646631e-05 0.0069295000284910211 150.50000000000003 8.4556035995483416 129.50000000000003 9.8344531059265154 0.92594650387763988 96.500000000000014 9.5000000000000018 -2.1100186109542842
decision_type=2 2 2 2 2 2 2 2 2 2 2 2 2 2 2 2 2 2 2 2 2 2 2 2 2 2 2 2 2 2 2 2 2 2 2 2 2 2 2 2 2 2 2 2 2 2 2 2 2 2 2 2 2 2 2 2 2 2 2 2 2 2 2
left_child=3 2 4 25 5 17 9 8 16 24 41 46 13 54 15 36 20 29 48 21 44 58 62 -5 32 42 -23 30 -13 38 50 34 -6 -26 61 -36 -15 -21 -2 59 -31 47 -1 -25 -4 -32 56 52 -19 -41 -16 -27 -9 -22 -3 -30 -10 -17 -12 -11 -53 -8 -14
right_child=1 12 7 23 6 -7 31 10 11 39 19 28 22 14 27 57 -18 18 -20 37 53 26 -24 43 33 51 -28 -29 55 40 45 -33 -34 -35 35 -37 -38 -39 -40 49 -42 -43 -44 -45 -46 -47 -48 -49 -50 -51 -52 60 -54 -55 -56 -57 -58 -59 -60 -61 -62 -63 -64
leaf_value=-0.12914173177016727 0.27571501423465072 -0.66824475073627487 0.13943276905374846 0.6280355574331995 -0.48772405744874114 0.96142171422760847 -0.069636197473069067 0.23297463570629387 0.48975351357815766 -0.65092811231784142 -0.30033837457657286 0.30295660562574911 -0.66495740885147847 0.37970072902736729 -0.077980427244019421 -0.82802164079231533 0.367915480345542 -0.59755877337530372 0.047688028480996028 0.48375812034219534 -1.0120643691912437 -0.24912181969990835 0.53959379989341283 0.51886974746089332 0.1395824715159511 0.44020739332467618 0.28478741409606456 -0.88504371096732548 -0.46949737013800852 -0.18374286938379433 -1.0119765705376964 0.27846510568237559 0.27066792295679459 -0.30995284380188742 -0.46488707784035227 0.075889043504546436 1.1134180649448921 -0.095599346940912891 -0.22103750368628292 -0.74705838624795395 -0.94578445355731677 0.38141700041721682 0.22019495245973728 0.29579269611921583 -0.32241145094313728 -0.12455027463845562 0.31090337583665201 0.295503018199749 -1.2061842301046659 -0.29704444196597973 0.5860780251646569 0.15676966281599403 -0.067501780784921403 -0.40678548851790775 0.0010350096448028753 0.012538057740878281 0.70026280452771428 -0.058680472010583094 -0.65092984728567993 -1.1454801407914961 0.34453842816800428 0.20224924555566659 -1.0181715801696392
leaf_weight=1234.5882916562259 1063.7113639935851 2977.9526301529258 946.78412336297333 28667.208077158779 4032.3516917303205 2338.9293902516365 1040.3324672020972 1105.8497619666159 3044.6063208822161 347.37920442409813 656.89359390735626 1487.2452282328159 5942.3980173543096 551.50301545672119 557.32312154956162 232.84644500724971 1134.6868581268936 451.97235683724284 390.67288677021861 747.4181697499007 432.93409444764256 3447.108402941376 142.15604772605002 7090.2770999129862 1423.8829772230238 7653.7727436330169 907.24131345003843 390.65839799679816 537.77962097525597 578.94377910718322 226.49302291311324 1429.7732631713152 275.41201089695096 1510.1672183871269 1507.9303223788738 910.33287676051259 468.01917965710163 737.74753324314952 953.02722799219191 1161.259794909507 318.00137659534812 1455.9755868446082 2696.0905334874988 2853.4012060128152 760.85592059977353 237.12357456423342 1512.7059859894216 1410.7916061468422 577.50104769878089 711.74610828980803 289.61555543728173 1961.8782976567745 3224.0258285626769 423.32517019286752 162.61964927241206 549.39622439444065 2631.9080284070224 154.75982078723609 1388.5798924453557 801.11627967096865 4371.150844976306 1276.1124701816589 373.49394802935421
leaf_count=3726 2175 76357 2706 18622 41655 1688 3922 2211 5773 3594 6858 4605 157357 3272 5898 5133 2227 3405 1652 3099 3094 22409 1276 6650 8015 10201 3933 7599 3545 4939 3554 3968 1666 13298 8126 2567 2761 4124 3772 13630 3823 2071 5172 4620 3373 2225 4414 2847 5325 5619 2033 4445 9753 2316 2255 1840 2561 1548 20008 9418 6302 3508 7034
internal_value=0 -0.0993254 -0.00341522 0.498222 -0.151018 0.143906 -0.270938 0.115977 0.275312 -0.429105 -0.0261647 0.411725 -0.488821 -0.311995 0.0122301 0.375112 -0.0843389 -0.297451 -0.671371 -0.179352 -0.285576 -0.266684 -0.659245 0.583648 -0.298262 0.313915 -0.137234 -0.286998 0.0791662 -0.113693 -0.10456 -0.00715339 -0.438527 -0.0912653 -0.0940178 -0.260776 0.722212 0.195302 0.0400397 -0.741048 -0.459823 0.141412 0.109952 0.455233 -0.0655484 -0.568422 0.530404 0.0799221 -0.945043 -0.578337 0.148916 0.371035 0.00897023 -0.719184 -0.633023 -0.225177 0.588229 -0.530472 -0.540297 -1.00106 0.286848 0.0794165 -0.686942
internal_weight=0 64351.4 51644.4 56528.4 23100.6 6672.76 16427.8 28543.9 13462.2 10263.3 15081.6 9763.64 12707 6248.91 3108.34 1407.13 3698.59 4333.83 1420.15 7884.99 2563.9 6399.82 6458.05 38610.9 7241.81 17917.5 4354.35 1701.21 2574.42 2913.68 1310.56 6164.48 4307.76 2934.05 4734.71 2418.26 1019.52 1485.17 2016.74 3021.5 896.945 7196.64 3930.68 9943.68 1707.64 463.617 7189.22 5740.67 1029.47 1873.01 846.939 13986.8 4329.88 856.259 3140.57 1087.18 5676.51 387.606 2045.47 1148.5 6333.03 2316.44 6315.89
internal_count=597572 537834 259532 59738 145765 26779 118986 113767 36454 96895 77313 22738 278302 112635 34023 12714 13716 25091 10382 60431 11489 53208 165667 29892 64634 29846 26342 21309 9990 14709 13710 22091 43321 21313 18123 10693 6033 7223 5947 32261 8762 16882 8898 11270 6079 5779 12748 14811 8730 19249 7931 20948 11964 5410 78612 5385 8334 6681 26866 13012 10747 7430 164391
is_linear=0
shrinkage=0.65


Tree=3
num_leaves=45
num_cat=0
split_feature=138 137 136 136 133 126 72 11 132 125 136 74 138 13 138 137 47 47 48 48 17 139 120 136 20 117 9 92 138 138 73 62 126 29 29 137 139 49 133 93 109 136 138 136
split_gain=10110.1 3262.9 1441.5 1371.33 1364.02 841.107 792.402 898.768 740.286 714.467 681.813 582.877 576.085 550.853 438.051 430.697 424.35 549.375 448.389 540.475 403.844 378.663 343.251 340.317 324.479 366.102 284.972 190.102 181.042 180.329 146.963 142.827 139.191 113.147 75.2509 65.0009 146.031 67.8912 53.5071 51.8265 36.0821 30.0983 27.0908 24.5054
threshold=8.5000000000000018 0.34775094687938696 0.72323352098464977 0.22029358893632892 1.0000000180025095e-35 107.50000000000001 9.7762694358825701 1.5000000000000002 4.5000000000000009 1.5000000000000002 -0.17610733211040494 52.076307296752937 60.500000000000007 5.5000000000000009 24.500000000000004 0.80416661500930797 0.13423399627208712 0.77350452542305004 0.38675200939178472 0.19523800164461139 28.345534324646 64.500000000000014 -1.4916495084762571 -0.28928896784782404 6.5000000000000009 -7.5822885036468497 0.80909100174903881 67.706130981445327 3.5000000000000004 3.5000000000000004 7.7888441085815439 0.11159000173211099 50.500000000000007 1.5000000000000002 1.5000000000000002 0.29226130247116094 78.500000000000014 0.006155499955639244 1.0000000180025095e-35 20.429867744445804 8.9055914878845233 1.2995316982269289 6.5000000000000009 0.29118415713310247
decision_type=2 2 2 2 2 2 2 2 2 2 2 2 2 2 2 2 2 2 2 2 2 2 2 2 2 2 2 2 2 2 2 2 2 2 2 2 2 2 2 2 2 2 2 2
left_child=2 23 21 5 16 6 8 10 9 -3 15 -11 20 -12 31 -8 30 18 19 -18 -10 33 -14 27 25 -25 -16 35 41 43 -5 -9 -26 -1 -31 39 -37 -38 -30 -2 -27 -4 -36 -23
right_child=1 3 28 4 -6 -7 7 14 12 11 13 -13 22 -15 26 -17 17 -19 -20 -21 -22 29 -24 24 32 40 -28 -29 38 34 -32 -33 -34 -35 42 36 37 -39 -40 -41 -42 -43 -44 -45
leaf_value=-0.10084444999721019 -0.6671520199857871 0.61580668286279117 0.55524199780621541 0.2117304601831754 -0.4886255174036267 0.50604424036098228 -0.3416286237284597 -0.036189790018676837 0.046020455114481253 -0.096898034937853331 -0.33113367192059867 0.29703593686212554 -0.55706223493107987 0.07474429710013912 -0.11661336049055385 0.36568267938634696 0.13575118758418409 0.44114963905156845 0.52701922833131454 -0.17672197015115162 -0.43865158774028956 0.36736114695498667 0.13724657672696627 0.41486652429953536 -0.76941042482297206 -0.2811930393730408 -0.80353808315410713 0.45314810572937364 0.52456044378221245 0.15349783363972544 0.44463819486078787 -0.40788809752885014 -0.014222374596071358 0.18251329647754561 0.35157850974501326 -0.018264847670044469 -0.20944491487913947 -0.67394469482431107 0.38778198655323948 -0.040444604765873193 -0.87945571355469676 0.63529704083830096 0.24076463456784156 0.48155740536307057
leaf_weight=1244.8147850334644 3074.0680643115193 1287.0819578794762 4185.8578601023182 1911.7032753834501 1321.5256373081356 1072.6262338422239 4809.0788587657735 864.82437294907868 5884.7423133095726 3423.5629547089338 1709.6786954286508 2942.7777473004535 1514.043809290044 8016.3737614257261 317.75891745556146 386.79902831837535 8657.7359357420355 2140.3054429320619 897.64648557733744 3195.0021240985952 823.23552721366286 1806.9607823602855 367.69661672599614 476.74143625283614 393.18602859368548 100.95399080589414 1499.9592610099353 67.577730198390782 2769.1547353779897 2196.8795229420066 3077.7275578845292 906.36526230163872 146.58235347270966 1126.4033706635237 2441.4940903270617 254.24187065567821 185.5942513756454 727.82274582237005 2662.4255162198097 64.216619713231921 105.58363736234605 7124.0604451550171 1884.4653427675366 2195.6410480914637
leaf_count=3939 132363 4699 5708 3833 5212 4665 66717 2680 28976 25681 15041 19438 35037 43980 3391 796 25165 4189 1473 12577 6995 2829 3322 3554 11564 2665 28778 1863 3357 4687 3636 3854 3056 3126 4483 4023 5154 32806 4393 2584 2872 5485 3815 3111
internal_value=0 -0.028259 0.43248 0.0182045 0.149238 -0.0592945 -0.0768692 -0.168806 0.0278025 0.174846 -0.0983215 0.0849782 -0.103012 0.00306381 -0.460778 -0.288298 0.19185 0.136585 0.0851545 0.0513181 -0.0134528 0.2687 -0.420355 -0.501657 -0.195117 0.100121 -0.685175 -0.586614 0.558412 0.321564 0.356091 -0.228108 -0.56992 0.0330396 0.253826 -0.603891 -0.462569 -0.583342 0.458292 -0.655033 -0.609806 0.606099 0.30409 0.431013
internal_weight=0 62624.8 29638.2 57028.3 21201.6 35826.6 34754 18510.8 16243.1 7653.42 14921.9 6366.34 8589.72 9726.05 3588.91 5195.88 19880.1 14890.7 12750.4 11852.7 6707.98 12896.7 1881.74 5596.57 1223.05 683.279 1817.72 4373.52 16741.5 10525.4 4989.43 1771.19 539.768 2371.22 6522.84 4305.94 1167.66 913.417 5431.58 3138.28 206.538 11309.9 4325.96 4002.6
internal_count=597572 552639 44933 350135 56085 294050 289385 165237 124148 49818 126534 45119 74330 59021 38703 67513 50873 43404 39215 37742 35971 25990 38359 202504 23711 9091 32169 178793 18943 18925 7469 6534 14620 7065 12985 176930 41983 37960 7750 134947 5537 11193 8298 5940
is_linear=0
shrinkage=0.65


Tree=4
num_leaves=64
num_cat=0
split_feature=136 137 113 12 13 125 2 15 130 138 137 11 130 130 54 127 125 138 11 128 137 138 14 119 10 129 129 132 87 18 29 5 130 138 14 72 104 129 130 107 85 94 40 130 104 24 127 67 74 131 12 110 132 113 137 137 48 139 107 72 136 138 128
split_gain=4720.77 1716.89 1092.66 995.782 667.553 2788.55 760.283 528.7 540.264 696.132 495.591 488.993 488.57 592.928 483.93 453.207 666.885 507.727 486.977 438.708 406.947 389.271 373.755 362.41 355.655 347.914 327.019 325.138 274.283 268.749 251.757 342.107 232.656 232.221 230.11 290.944 379.227 208.489 201.402 200.991 179.096 174.033 156.755 153.649 151.415 150.192 139.013 135.452 129.698 119.904 116.385 78.533 69.8084 54.0385 51.8292 51.5422 49.2807 48.9352 47.7867 46.4544 46.4027 39.7113 35.7864
threshold=0.76275014877319347 0.57648193836212169 -16.603375434875485 9.5000000000000018 5.5000000000000009 1.5000000000000002 1.5000000000000002 10.507150173187258 62142.500000000007 20.500000000000004 0.72523969411849987 1.5000000000000002 56928.500000000007 36626.000000000007 0.060350000858306892 1.0000000180025095e-35 1.5000000000000002 31.500000000000004 1.0000000180025095e-35 5.5000000000000009 0.45922073721885687 3.5000000000000004 561.50000000000011 -7.8336415290832511 85.500000000000014 60729.500000000007 15104.500000000002 13.500000000000002 7.6215569972991952 24.738218307495121 2.5000000000000004 0.8257575035095216 370.50000000000006 6.5000000000000009 242.50000000000003 9.2325973510742205 0.84279400110244762 588.50000000000011 2974.5000000000005 15.396284103393556 7.3898799419403085 170.33765411376956 0.26785700023174291 48299.500000000007 0.89747151732444774 10.500000000000002 24.500000000000004 0.024359999224543575 49.657377243041999 4.5000000000000009 7.5000000000000009 -16.935499191284176 4.5000000000000009 -26.783390998840328 0.77135875821113598 0.82267078757286083 0.21583849936723712 112.50000000000001 19.959613800048832 21.906148910522464 1.2995316982269289 22.500000000000004 10.500000000000002
decision_type=2 2 2 2 2 2 2 2 2 2 2 2 2 2 2 2 2 2 2 2 2 2 2 2 2 2 2 2 2 2 2 2 2 2 2 2 2 2 2 2 2 2 2 2 2 2 2 2 2 2 2 2 2 2 2 2 2 2 2 2 2 2 2
left_child=1 2 20 4 7 -6 11 8 9 -4 14 -7 13 19 15 17 -17 38 26 32 47 60 40 -9 -8 -20 -18 28 -15 48 31 49 -5 -33 41 36 53 -32 -3 -40 -14 42 -22 54 -35 -29 59 56 -19 55 -48 -31 -39 -36 -23 -12 61 -51 -54 -37 -2 -1 -45
right_child=21 10 3 12 5 6 24 23 -10 -11 30 -13 22 27 -16 16 18 29 25 -21 34 43 -24 -25 -26 -27 -28 45 -30 51 37 33 -34 44 35 46 -38 52 39 -41 -42 -43 -44 62 -46 -47 50 -49 -50 57 -52 -53 58 -55 -56 -57 -58 -59 -60 -61 -62 -63 -64
leaf_value=-0.40350221982427309 0.47106510416255393 0.19268684963867541 -0.10561741413070763 0.4465920437864368 0.80611223494855777 0.0074894049668082809 0.12663292570291029 0.504531337979642 0.1949900131803855 -0.77982280444486107 -0.048087117084388106 -0.3376693847543405 0.36331542033381137 0.19675373836536 0.33806648604081152 0.63813358767199735 0.021244142989460681 -1.2930092977074819 -0.22585099188306437 0.45406873180478402 0.062760151332634947 0.11343931316431489 -0.93660039595371714 -0.39755346842335121 -0.59770414028407015 0.28949878337183044 0.29457339336453864 0.29485210125758132 0.70376343396696861 -0.0038543304067486812 0.05584394238135016 0.11156438877385533 -0.35866676565402011 -0.49722396306094302 -0.77356578322750169 -0.58356132150753481 0.29913047517377667 0.39709520114258356 -0.022377964432311801 -0.36487532343332391 -0.27081641166304105 0.40950660961081814 -0.53649870457069071 0.33341891593849332 -0.06332097084142399 -0.51112601979746497 0 0 -0.58765904424534998 0.14860313827188681 -0.62917632091594222 -0.49343156486233491 0.32029933446113645 -0.2534735471522811 0.30204518292338994 0.15533402772062477 -0.017493147320399693 0.3059317060314512 0.16682417771111968 -0.95073165571702178 0.5985265705987638 -0.69665260803227202 0.46898957681470443
leaf_weight=287.40820231940597 2266.82883430738 958.75114729255438 957.12594041787088 171.55974311381578 1390.77343392279 6722.1351847327314 326.63703317800537 446.44581027142704 446.15734619740397 2051.0050805814099 1015.7730356417596 2327.1633312562481 320.84279833128676 643.56823350070044 1880.4956525522284 775.82717382954434 5586.1420919792727 223.74101461563259 3880.0639410084113 563.08731552772224 491.88462495943531 1455.822426719591 232.71289915731177 316.12573825754225 2024.6245932485908 637.96792722772807 2773.43277698569 201.3728408110328 1643.7327424250543 281.13022167421877 1715.2170004872605 1150.6375397499651 1018.852752591949 689.23341392353177 209.61400516331196 617.27814740780741 515.31004501366988 2573.8254777351394 2027.0196702703834 1133.4833191521466 440.27813456347212 319.64539927477017 284.8461691448465 1822.9765391470864 691.6155491983518 178.88314747763798 303.24190549086779 156.13444955972955 273.79169633844867 1378.847745494917 207.40552802151069 284.40635096142069 2074.6573883965611 174.26699899602681 1142.3937820494175 1060.8163274815306 59.009738691616803 2467.6050854874775 1621.641083965078 255.44907679315656 3875.5277327317744 1717.4637490762398 1986.1674759155139
leaf_count=2172 5269 2391 2845 2132 3544 98444 4303 2991 2381 47268 3107 35186 2817 8764 3872 674 25449 2544 21030 3920 3851 3734 5599 3877 36296 1653 7751 2225 6195 2503 5253 3063 25393 3294 4419 11556 4744 4836 6105 4973 4879 2727 4129 3068 2160 3652 3066 5089 3511 3532 4214 2880 4302 2370 2660 2393 1410 4646 4369 5217 5485 90603 2787
internal_value=0 -0.000502314 -0.121998 -0.0577213 -0.135072 -0.0608914 -0.167137 -0.359288 -0.467427 -0.566483 0.091078 -0.0811955 0.184777 0.277508 0.0240835 -0.00724133 0.0547717 -0.170893 0.019241 -0.0150817 -0.37879 0.434747 -0.225109 0.127876 -0.496197 -0.15241 0.112281 0.470238 0.562699 -0.570519 0.175348 0.0967184 -0.239601 -0.102651 -0.235233 -0.352598 -0.0617313 0.25824 -0.0667211 -0.14621 -0.000332733 0.00783283 -0.156534 0.32148 -0.282318 -0.080954 -0.539353 -0.595394 -0.918445 0.182272 -0.260197 -0.255645 0.313207 -0.548773 0.197536 0.0550164 -0.639459 0.250306 0.25381 -0.698058 0.552226 -0.656707 0.405142
internal_weight=0 65178.2 28022 22423.1 17008.2 12791.3 11400.6 4216.86 3454.29 3008.13 37156.1 9049.3 5414.89 4421.06 20716.3 18835.8 13653.4 5182.32 12877.6 1753.5 5598.96 12549.7 993.834 762.572 2351.26 4518.03 8359.57 2667.56 2287.3 1063.07 16439.9 8454.53 1190.41 2531.49 3378.94 2282.57 899.191 7985.34 4119.25 3160.5 761.121 1096.38 776.731 6407.36 1380.85 380.256 1383.37 2220.02 497.533 5923.04 510.647 565.537 6270.12 383.881 2598.22 2076.59 2063.88 3846.45 3696.3 872.727 6142.36 2004.87 3809.14
internal_count=597572 574569 448278 302711 237135 177773 174229 59362 52494 50113 126291 133630 65576 52281 85336 81464 56557 24907 55883 31445 145567 23003 13295 6868 40599 22683 33200 20836 14959 11438 40955 22195 27525 8517 46293 35586 11533 18760 13469 11078 7696 10707 7980 12249 5454 5877 24053 99274 6055 13678 7280 5383 13507 6789 6394 5500 94185 8178 8671 16773 10754 92775 5855
is_linear=0
shrinkage=0.65


Tree=5
num_leaves=37
num_cat=0
split_feature=136 138 132 128 10 125 13 11 138 49 130 113 138 50 128 130 128 138 25 109 13 138 126 72 10 84 135 67 133 29 14 126 11 45 136 136
split_gain=1808.66 1206.45 857.531 757.158 1107.14 572.838 1119.65 646.968 722.763 513.362 474.914 546.2 613.919 394.599 367.591 356.492 297.006 290.047 287.997 308.239 244.062 217.379 204.394 153.996 188.811 141.938 108.271 107.641 90.628 89.5704 81.9047 74.7375 55.513 36.1277 33.9984 25.6319
threshold=0.85586711764335643 99.500000000000014 173.50000000000003 1.0000000180025095e-35 61.500000000000007 1.5000000000000002 5.5000000000000009 1.0000000180025095e-35 20.500000000000004 0.11314649879932405 3446.5000000000005 -3.2833764553070064 12.500000000000002 0.051303500309586532 33.500000000000007 46283.500000000007 6.5000000000000009 2.5000000000000004 13.500000000000002 15.433817863464357 4.5000000000000009 25.500000000000004 48.500000000000007 14.597640514373781 172.50000000000003 78.550518035888686 4.0037500858306894 0.038582000881433494 42.500000000000007 4.5000000000000009 8.5000000000000018 101.50000000000001 11.500000000000002 0.10397500172257425 0.0065371091477572927 1.7152361869812014
decision_type=2 2 2 2 2 2 2 2 2 2 2 2 2 2 2 2 2 2 2 2 2 2 2 2 2 2 2 2 2 2 2 2 2 2 2 2
left_child=1 2 3 9 -5 6 16 14 -9 10 23 12 -12 27 -7 33 -6 35 19 21 -21 -11 -13 24 -1 -4 -19 30 -28 -25 -3 32 34 -15 -32 -2
right_child=17 13 25 4 5 7 -8 8 -10 18 11 22 -14 15 -16 -17 -18 26 -20 20 -22 -23 -24 29 -26 -27 28 -29 -30 -31 31 -33 -34 -35 -36 -37
leaf_value=-0.099166158807344348 0.45917018520255276 0.068528945472806829 -0.45706296267910845 0.59459462855329803 -0.1721946710204405 0.086513265643090739 0.66423910136375108 0.049729721278952935 -0.26935800134260324 0.0067402640215418448 -0.020031308344828663 -0.0013763361413051743 -0.34516700021168495 -0.210734396119967 0.45147483619334583 0.55018955503656863 0.29785915491144999 0.35803641075468934 0.46501046346221125 -0.25889894179195216 0.19322217088807939 -0.6294811387561402 0.43501552200639576 -0.32910494685426023 0.33563465480914689 -1.1559586276402358 -0.0031266963181337776 0.17721637391164777 0.26247474863122827 0.065020852076170879 -0.64121050430471549 0.086546600220892236 0 -0.87170104426872785 -1.0432826420402963 0.60371078603754091
leaf_weight=575.89105867687613 1726.9718030984513 67.587343979626894 288.06879033194855 1748.0259012444876 1571.6175091544865 16548.075076291454 1869.8815947207622 7303.3429664112628 5073.6160150626674 467.07963359775022 3727.4279300011694 2243.0986514920369 7253.2955128656467 71.93277841899544 1253.7100714521948 279.47163580032066 882.59552686894313 1907.2922029565088 812.8057493341621 585.42828676011413 3366.4357527140528 425.3547445544973 560.58452582149766 407.23335432563908 1495.3392347139306 246.51770555088297 966.89477331936359 71.608080850215629 1191.7051721150056 577.99972000531852 1561.8259405847639 53.67773294984363 56.974091363837942 101.04348286101595 123.92293147183955 1110.9379933145829
leaf_count=4734 5772 2473 3479 4012 11454 100832 2406 20904 68724 1250 11153 13129 107773 4584 3386 4056 3095 4111 2656 3516 17286 4576 3025 3277 9763 3819 3205 2769 3146 3689 144160 2359 3382 4384 3134 2099
internal_value=0 0.00656617 0.0248602 0.0323811 0.0905306 0.0648541 0.286033 0.0330563 -0.0809705 -0.0612275 -0.118183 -0.16963 -0.235036 -0.445872 0.112445 0.0961043 -0.00209688 0.357314 0.107936 0.0472041 0.12551 -0.296142 0.0858032 0.1131 0.213854 -0.790689 0.244599 -0.573486 0.142871 -0.0967559 -0.603765 -0.630262 -0.653641 -0.621435 -0.674919 0.517401
internal_weight=0 61671.5 59283.4 58748.8 36250.9 34502.8 4324.09 30178.7 12377 22498 16840.9 13784.4 10980.7 2388.04 17801.8 452.448 2454.21 6903.8 5657.1 4844.3 3951.86 892.434 2803.68 3056.46 2071.23 534.586 4065.89 1935.6 2158.6 985.233 1863.99 1796.4 1742.72 172.976 1685.75 2837.91
internal_count=597572 579239 407938 400640 214813 210801 16955 193846 89628 185827 156543 135080 118926 171301 104218 13024 14549 18333 29284 26628 20802 5826 16154 21463 14497 7298 10462 158277 6351 6966 155508 153035 150676 8968 147294 7871
is_linear=0
shrinkage=0.65


Tree=6
num_leaves=40
num_cat=0
split_feature=137 138 129 48 132 135 129 10 127 10 126 11 102 126 35 118 12 129 136 48 117 104 116 29 109 129 138 40 136 136 123 139 138 52 79 119 132 13 50
split_gain=872.041 741.727 678.625 536.87 584.784 509.267 456.839 443.6 438.721 393.138 338.437 324.042 318.778 382.847 339.872 309.543 249.894 246.639 230.145 199.629 182.828 151.722 148.544 139.899 130.261 118.628 112.725 109.692 74.5111 190.497 83.9841 66.3911 30.6283 29.5703 28.2183 48.5425 19.6038 19.2981 10.4201
threshold=0.29226130247116094 4.5000000000000009 266.50000000000006 0.38675200939178472 4.5000000000000009 4.6083333492279062 713.50000000000011 44.500000000000007 1.0000000180025095e-35 8.5000000000000018 78.500000000000014 15.500000000000002 0.70983201265335094 53.500000000000007 20.10000038146973 -25.282540321350094 1.0000000180025095e-35 3249.5000000000005 1.1672199964523318 0.18350149691104892 -22.782333374023434 0.88158848881721508 -6.891227960586547 3.5000000000000004 27.115257263183597 178.50000000000003 13.500000000000002 12.231111049652101 -0.71396958827972401 -0.68838101625442494 -1.4910400509834287 95.500000000000014 1.5000000000000002 0.074537001550197615 31.141801834106449 -5.9962410926818839 7.5000000000000009 13.500000000000002 0.051303500309586532
decision_type=2 2 2 2 2 2 2 2 2 2 2 2 2 2 2 2 2 2 2 2 2 2 2 2 2 2 2 2 2 2 2 2 2 2 2 2 2 2 2
left_child=28 18 5 4 10 12 15 9 -9 -8 11 16 13 21 19 23 -4 -12 22 20 -14 27 31 -6 -17 -15 -21 -3 37 -30 34 36 -20 -33 -31 -36 -2 -1 -37
right_child=1 2 3 -5 6 -7 7 8 -10 -11 17 -13 14 25 -16 24 -18 -19 32 26 -22 -23 -24 -25 -26 -27 -28 -29 29 30 -32 33 -34 -35 35 38 -38 -39 -40
leaf_value=-0.65543395512324854 0.1739078646876179 -0.9506684449448034 0.46356963670219176 0.42852620451949908 -0.39320315466709371 0.38938564977289719 -0.10593317303415031 -0.27123598134911681 -0.053703968705763813 0.30699282189593868 0.063665572763409839 0.4444329233586708 -0.12571870109746036 0.33621798527087687 0.02254694167782911 0.37478867260091753 0.043899961168204826 0.55939494238598009 0.51088435140514488 -0.51720917832047553 -0.59991516847957571 -0.067031432710222466 -0.086922263376849773 0.12852990715742166 0.046452386851086186 -0.09726710897063516 -1.1372958410133729 -0.34472862665424875 0.65035102389765809 -0.67696438037821483 0.0091033735413798087 0.20502741764078686 0.32036006150346996 0.34470864524273964 0.11673203430440608 -0.66176686413272379 0.027887835477957808 -0.17285306771904416 -0.20757210237234516
leaf_weight=665.40694188873749 844.30992560158484 234.00339381536469 616.16804043448064 1410.2372117462801 479.67276465240866 524.45897661917843 1747.9383310466073 5533.1759109653649 13507.934106993722 2175.7282541712048 700.24993989733048 959.47073524841107 566.87755935336463 682.34398707794026 540.67800940776942 1919.9668035635259 18355.832184401108 1114.3473684758064 1066.2299948385917 245.16461535310373 929.5028758685803 371.26803471671883 820.35047011543065 382.42637416400248 716.21291635290254 423.56542555242777 327.41615036770236 319.67325832787901 71.377162433229387 314.22251607885119 138.62103378039319 1506.6237905346788 711.79493070510216 1346.3681428139098 63.044308133190498 99.933898549061269 787.84569947118871 53.327218905091286 53.222673224634491
leaf_count=88076 3183 3991 3099 3927 5563 3039 10802 66087 121628 10668 4648 3052 4093 3788 4032 11745 127017 4873 4289 1103 13555 3542 2889 2255 4615 3641 5194 3978 2702 27298 2281 4114 3084 4193 2958 11345 3183 4960 3082
internal_value=0 0.0361112 0.0104732 0.0338546 0.0222258 -0.213588 -0.0426155 -0.0760141 -0.117074 0.122643 0.101213 0.0765701 -0.282501 -0.0878486 -0.432778 0.175872 0.0577512 0.369866 0.233974 -0.552475 -0.42259 -0.396001 0.165281 -0.160107 0.286579 0.168747 -0.881942 -0.610527 -0.471361 -0.317615 -0.427834 0.211889 0.436818 0.272115 -0.544684 -0.332658 0.104915 -0.623764 -0.527814
internal_weight=0 61867.8 54784.3 49619.4 48209.1 5164.95 26463.1 22964.8 19041.1 3923.67 21746.1 19931.5 4640.49 2030.85 2609.64 3498.28 18972 1814.6 7083.52 2068.96 1496.38 924.945 5305.5 862.099 2636.18 1105.91 572.581 553.677 1459.16 740.422 669.044 4485.15 1778.02 2852.99 530.423 216.201 1632.16 718.734 153.157
internal_count=597572 454870 429935 379979 376052 49956 233363 209185 187715 21470 142689 133168 46917 18940 27977 24178 130116 9521 24935 23945 17648 11511 17562 7818 16360 7429 6297 7969 142702 49666 46964 14673 7373 8307 44683 17385 6366 93036 14427
is_linear=0
shrinkage=0.65


Tree=7
num_leaves=50
num_cat=0
split_feature=138 75 127 87 136 135 72 129 56 133 101 19 129 25 137 82 120 138 12 139 129 114 114 126 68 67 40 24 12 109 134 103 39 19 136 62 126 110 89 92 49 75 139 82 107 125 126 25 127
split_gain=616.738 505.154 466.005 433.29 480.601 417.177 413.568 332.889 385.679 406.098 415.662 423.967 421.469 397.825 330.788 322.202 307.675 293.838 321.92 380.109 293.678 263.07 229.159 237.534 216.819 186.931 260.575 211.168 265.151 177.277 217.003 177.03 171.625 170.388 165.051 163.491 155.037 147.388 265.138 146.64 129.078 103.228 101.348 95.8879 120.752 68.2774 161.832 19.1873 9.63796
threshold=44.500000000000007 7.4855556488037118 314070.50000000006 6.1468093395233163 -0.012862125877290962 29.900072097778324 31.252125740051273 63615.500000000007 0.65151548385620128 1.0000000180025095e-35 0.79580402374267589 6.0182485580444345 3249.5000000000005 6.5000000000000009 0.75018262863159191 22.283151626586918 -8.8798465728759748 101.50000000000001 3.5000000000000004 140.50000000000003 22761.500000000004 -8.9446363449096662 -1.7320345044136045 14.500000000000002 0.0020694999257102613 0.0080010001547634619 7.9921875000000009 12.500000000000002 7.5000000000000009 19.914308547973636 100.50000000000001 0.47371898591518408 11.535714626312258 7.2215864658355722 0.075857203453779234 0.047782000154256828 27.500000000000004 -6.6638655662536612 22.598174095153812 1.107324004173279 0.065658498555421843 7.8746709823608407 546.00000000000011 20.298624992370609 27.413760185241703 1.5000000000000002 27.500000000000004 7.5000000000000009 1.0000000180025095e-35
decision_type=2 2 2 2 2 2 2 2 2 2 2 2 2 2 2 2 2 2 2 2 2 2 2 2 2 2 2 2 2 2 2 2 2 2 2 2 2 2 2 2 2 2 2 2 2 2 2 2 2
left_child=5 2 3 4 17 7 22 8 9 10 13 -12 -13 15 36 -1 35 18 21 -20 31 -2 23 -3 -15 27 -27 28 -25 30 -22 -7 -8 40 -6 -5 -11 39 -39 -18 -9 -31 -29 44 -37 46 -19 -28 -47
right_child=1 6 -4 16 34 20 32 33 -10 14 11 12 -14 24 -16 -17 37 45 19 -21 29 -23 -24 25 -26 26 47 42 -30 41 -32 -33 -34 -35 -36 43 -38 38 -40 -41 -42 -43 -44 -45 -46 48 -48 -49 -50
leaf_value=-0.00048964239557595902 0.4946532689018926 0.39967570311504641 0.72753048729588776 0.73168961129595733 -0.96533290030243557 0.1779132782459823 0.8452654205373481 -0.090014048758721293 0.32412470821225275 -0.26268194173422976 -0.70551809942731003 -0.51760873684748754 0.048683508110899602 0.099622118192060058 -0.0084949924437357788 -0.49104990770415363 1.1935048047392189 -0.65526230688021259 -0.44140084842233462 0.11984608916482389 -0.29368278307867596 -0.16146440496009584 0.34253347576268717 -0.55059346119319075 0.36311812414686079 0.72969589405794566 -0.71179674033201745 -0.68969791127123692 0.050283624575038516 0.40676155040638073 0.13375036531647044 0.50629623499884602 -0.10252625326105407 0.34880485088206209 -0.36451437126422143 -0.72168817717100786 -0.73732652594398351 -0.33237722207342796 0.69228858054463493 0.40090394596792317 0.24244209012952425 0.082993730761710127 0.1471942767873759 0.29139214108967798 0.29418615432976081 -0.35730230289080372 0.72426447139774341 -0.15590247964579854 -0.67617124316769139
leaf_weight=24035.409900141356 827.06994899909478 136.58266412996454 329.4823772245436 65.250997734372504 312.06068627838977 1336.5051627284847 162.20026081847027 1005.1718381486135 1522.5271938659716 597.68226373172365 593.40229145437479 750.38504544756142 2075.8689153479645 7002.5475166424876 1064.3743771945592 574.5187561979983 191.21397475519916 80.009876151918434 919.3633122992469 1125.1292875263025 891.11282602779102 365.87497468490619 168.30441674232134 735.28252652368974 1635.6829642076045 125.38487068130053 89.842801038292237 1599.0819377026637 523.2746737197449 765.36817482765764 1129.9672998512397 1512.9492566436529 147.92978107847739 1817.4012922428083 568.16737563058268 232.47135673207231 613.1112948062364 192.35327721285284 224.50913099088939 235.2584551476757 950.84093267691787 953.17716296005528 57.941989592916798 72.18025571590988 56.379938151687384 102.52275304193608 56.842172281583771 55.359081128321122 325.19252632179996
leaf_count=113352 19328 2609 2081 1056 4005 5060 1273 3593 4254 2247 3981 5008 8511 27875 5078 3893 1838 17541 52034 18033 4490 7868 879 36534 4937 3126 5507 77390 17578 2172 4040 3927 4682 4170 4693 12667 3248 4988 1060 4233 2244 4285 886 2758 1033 17669 2262 2354 53242
internal_value=0 -0.132162 -0.0185891 -0.0607961 -0.152396 0.0437657 -0.319054 0.0209799 0.00370177 -0.00881552 0.00768283 -0.207867 -0.10163 0.0299392 -0.275001 -0.0121184 0.274759 -0.0513313 0.023803 -0.132044 0.196322 0.291961 -0.383297 -0.421107 0.149923 -0.457474 0.0519705 -0.50543 -0.300011 0.0756974 -0.0540061 0.353536 0.392534 0.205501 -0.58397 -0.170611 -0.506676 0.501858 0.216518 0.770508 0.0708085 0.229079 -0.658906 -0.346783 -0.515135 -0.48203 -0.0631903 -0.525086 -0.609257
internal_weight=0 10082.5 6281.33 5951.85 4682.23 50828 3801.19 44238.9 40465.5 38943 36667.8 3419.66 2826.25 33248.2 2275.17 24609.9 1269.62 3802 3237.44 2044.49 6589.08 1192.94 3491.05 3322.75 8638.23 3186.17 270.587 2915.58 1258.56 3739.63 2021.08 2849.45 310.13 3773.41 880.228 426.283 1210.79 843.335 416.862 426.472 1956.01 1718.55 1657.02 361.032 288.851 564.567 136.852 145.202 427.715
internal_count=597572 381207 228389 226308 196675 216365 152818 192391 182384 178130 167557 17500 13519 150057 10573 117245 29633 187977 97263 70067 23974 27196 146863 145984 32812 143375 10987 132388 54112 14987 8530 8987 5955 10007 8698 17514 5495 12119 6048 6071 5837 6457 78276 16458 13700 90714 19803 7861 70911
is_linear=0
shrinkage=0.65


Tree=8
num_leaves=47
num_cat=0
split_feature=138 136 54 11 111 13 129 129 129 118 131 126 131 132 45 18 62 14 19 29 50 87 19 130 136 47 131 138 138 50 138 136 103 133 125 138 136 116 100 114 130 89 84 127 34 136
split_gain=450.58 331.449 314.686 411.196 347.512 360.686 402.384 303.462 455.381 333.685 293.567 268.586 265.608 263.456 428.781 315.064 233.237 232.654 442.45 216.841 419.465 244.373 214.205 211.275 208.647 201.806 188.358 184.411 162.502 178.009 157.194 150.199 138.77 135.22 134.75 134.583 128.673 117.465 124.207 94.0683 77.6985 51.1574 43.7073 33.148 17.8976 17.5469
threshold=21.500000000000004 -1.0342183113098142 0.0064800002146512279 8.5000000000000018 -1.2039715051650999 13.500000000000002 4264.5000000000009 65473.500000000007 34392.500000000007 -7.5647435188293448 9.5000000000000018 39.500000000000007 87.500000000000014 2.5000000000000004 0.042556999251246459 16.724024772644047 0.14863549917936328 27.500000000000004 12.296520709991457 1.5000000000000002 0.00067049998324364435 2.8918544054031377 11.10786008834839 62845.500000000007 -0.094511315226554857 0.77350452542305004 26.500000000000004 49.500000000000007 1.5000000000000002 0.0025009999517351393 12.500000000000002 0.17942898720502856 0.60494798421859752 1.0000000180025095e-35 2.5000000000000004 27.500000000000004 -0.26102563738822931 -7.579399347305297 0.48905000090599066 -9.3668084144592267 4966.5000000000009 4.7945351600646982 32.709175109863288 9.5000000000000018 12.500000000000002 0.97784230113029491
decision_type=2 2 2 2 2 2 2 2 2 2 2 2 2 2 2 2 2 2 2 2 2 2 2 2 2 2 2 2 2 2 2 2 2 2 2 2 2 2 2 2 2 2 2 2 2 2
left_child=12 40 3 10 5 7 32 8 11 -10 13 -4 19 23 15 -15 17 18 -12 20 26 -22 -16 27 -25 28 34 -3 45 -30 33 -32 -7 -31 41 -19 -5 38 -36 43 -2 -1 -43 -18 -27 -21
right_child=1 2 4 36 -6 6 -8 -9 9 -11 16 -13 -14 14 22 -17 39 35 -20 25 21 -23 -24 24 -26 44 -28 -29 29 30 31 -33 -34 -35 37 -37 -38 -39 -40 -41 -42 42 -44 -45 -46 -47
leaf_value=-0.039681397044182554 0.027828466709786812 0.036943683606087512 -0.0076395785279784727 0.7825490364819232 0.34069623967080914 0.17253076126291722 0.55150507983723873 0.36273672642876398 -0.29443351490205355 -0.83584899996848316 -0.38764618786032762 -0.24277745992704167 -0.26010032171568997 0.062504270897075248 -0.34304557699848187 -0.52753121896883937 -0.92832899500377797 0.0066500209636827304 0.57014400913213314 0.23633861548455623 -0.02088942722209948 -0.49924666229358594 0.24753205201512496 0.46457124646230785 -0.16678238661310632 0.35532210214623594 0.21253533023993876 -0.61612205833714406 0.29674925218069387 0.14784303946633934 0.086613173022159082 -0.093022910616245916 -0.50777361994337333 -0.024686469270250252 0.14683898422572533 0.33925751217978461 0.21475587330010365 -0.28067987282812173 -0.18324549603731849 0.020343771314162672 -0.71007045136663227 0.22491240975532706 0.040281970334896375 -0.3367061354645402 0.22609539793700301 0.41527184857452637
leaf_weight=948.73850076028612 64.664293406734942 663.64259766601026 4796.9796154243668 366.11844462886802 675.90444175203447 211.75688158918638 643.50772477441933 431.18057829275494 2564.9783716553648 598.83241080478183 678.27464074379532 3606.180506192235 1070.2918757349253 492.05513364711078 350.67057362990454 1611.7158821804333 101.44076017124462 676.62607827619649 284.60985673690448 622.51606013835408 812.69925327843521 1036.0500915852608 942.856717734423 769.73671989704599 301.04565241164528 1074.1324927068781 2231.79646413296 244.37638620848884 1348.7589524190407 7746.6155531859258 3426.8873936175369 4590.31150422059 292.2554788638372 2524.8558462163201 1001.4163447798928 2307.490177773725 340.36535653664032 1056.220617472427 917.32700286369072 138.44699243345531 393.76776115701068 1180.2103507267311 1057.7919658961473 101.14788567880169 1100.2142401207238 521.93025465577375
leaf_count=3202 6824 4179 73941 5038 5156 2451 5213 1290 40007 17572 9228 82784 4304 16076 10595 38451 3316 3013 1479 2344 3087 5057 10761 8104 1443 2360 5280 12808 3070 22110 10895 13724 4798 9726 2693 46099 2158 4289 3477 1761 72418 2800 3266 2098 3047 3780
internal_value=0 -0.0577084 -0.0471799 0.0382544 -0.111415 -0.13493 0.211809 -0.168329 -0.188442 -0.398683 0.00293981 -0.108864 0.0575004 -0.0979917 -0.20787 -0.388781 0.129903 0.174915 -0.101045 0.0678359 -0.0106354 -0.290639 0.0852225 0.0897183 0.285306 0.102927 0.0509422 -0.139093 0.0830379 0.0689871 0.0520069 -0.0159897 -0.219231 0.105252 -0.0073962 0.264631 0.515174 -0.10708 -0.0100227 -0.380407 -0.602601 0.085074 0.138801 -0.657563 0.291497 0.32109
internal_weight=0 24650.6 24192.2 10370.6 13821.6 13145.7 1147.52 11998.2 11567 3163.81 9664.14 8403.16 34268.8 5376.1 3397.3 2103.77 4288.04 3947 962.884 33198.5 10242.3 1848.75 1293.53 1978.8 1070.78 22956.2 8393.5 908.019 20781.9 19637.4 18288.7 8017.2 504.012 10271.5 6161.7 2984.12 706.484 2974.96 1918.74 341.036 458.432 3186.74 2238 202.589 2174.35 1144.45
internal_count=597572 489061 409819 176607 233212 228056 12462 215594 214304 57579 169411 156725 108511 102417 75883 54527 66994 59819 10707 104207 33151 8144 21356 26534 9547 71056 25007 16987 65649 59525 56455 24619 7249 31836 19727 49112 7196 10459 6170 7175 79242 9268 6066 5414 5407 6124
is_linear=0
shrinkage=0.65


Tree=9
num_leaves=53
num_cat=0
split_feature=132 137 50 128 132 10 114 125 127 138 131 119 115 122 127 24 17 126 129 117 18 18 127 137 13 131 83 134 138 55 100 107 110 60 138 118 139 49 13 44 100 114 123 137 114 108 25 130 129 12 9 117
split_gain=338.449 312.906 253.89 232.139 340.982 305.465 246.136 244.25 468.212 321.822 236.936 220.013 598.91 211.339 209.553 237.44 219.428 291.953 213.376 200.138 243.093 188.603 173.479 173.208 166.059 160.472 153.308 140.712 125.977 123.558 120.891 136.691 114.611 114.327 112.757 110.424 108.854 123.976 103.905 120.276 103.621 103.128 101.75 95.2287 87.0331 74.782 74.5251 70.0382 61.9733 60.7405 43.2696 9.54509
threshold=73.500000000000014 0.59091278910636913 0.10009999945759775 1.0000000180025095e-35 1.5000000000000002 149.50000000000003 -25.654176712036129 1.5000000000000002 1.0000000180025095e-35 79.500000000000014 17.500000000000004 -5.684741497039794 -13.288772106170653 -20.663698196411129 2.5000000000000004 36.500000000000007 10.756518840789797 65.500000000000014 3934.5000000000005 -7.4969091415405265 34.342933654785163 8.8905353546142596 3.5000000000000004 0.76431596279144298 3.5000000000000004 17.500000000000004 10.55240058898926 35.500000000000007 16.500000000000004 0.017243999987840656 0.7910825014114381 21.865828514099125 -9.6656007766723615 0.07226749882102014 46.500000000000007 -19.456216812133786 52.500000000000007 0.076579999178648009 11.500000000000002 110.29166793823244 0.77703601121902477 -2.6684364080429073 -2.4079344272613521 0.62587374448776256 -6.4428060054779044 12.845750331878664 8.5000000000000018 49940.500000000007 16887.500000000004 7.5000000000000009 0.38750000298023229 -14.916953563690184
decision_type=2 2 2 2 2 2 2 2 2 2 2 2 2 2 2 2 2 2 2 2 2 2 2 2 2 2 2 2 2 2 2 2 2 2 2 2 2 2 2 2 2 2 2 2 2 2 2 2 2 2 2 2
left_child=2 26 3 4 10 32 23 8 28 13 19 12 -4 -9 16 21 18 24 -6 20 33 41 -11 36 -18 -23 38 -20 -8 -3 -17 -32 35 -1 43 48 -7 -38 39 50 -31 -16 44 -34 -36 -42 -41 -19 -5 -28 -2 -52
right_child=1 29 11 5 14 6 7 9 -10 22 -12 -13 -14 -15 15 30 17 47 27 -21 -22 25 -24 -25 -26 -27 49 -29 -30 40 31 -33 34 -35 42 -37 37 -39 -40 46 45 -43 -44 -45 -46 -47 -48 -49 -50 -51 51 -53
leaf_value=-0.6093313534815249 -0.45900777969901047 0.16772506596397307 0.44318735050436209 0.065597280157897897 0.60849492863297139 0 0.16118196164102527 0.20074791892246083 0.59201284866226322 -0.028849300237499018 -0.9888045784435725 0.47146420740742501 -0.62550957512188676 0.0022625745249011619 -0.839939939674334 -0.046376164187998122 0.091165085517110819 0.27930329386897096 -0.20047486753943072 0.20671776017179816 0.15053196533442822 -0.05932560281482064 -0.68981182354682613 0.019111897785515825 -0.21857521142584288 0.15538854728269202 -0.35305902226878327 0.3892088192043644 -0.13728503001242096 -0.37150134305192301 0.47790993715824881 0.054948679939349404 -0.12214837334953199 0.025862736953836427 0.33423314273859406 0.60000747365628215 -0.87128971863223548 -0.031317927732294359 0.033913232890927798 -0.5784917893574858 0.068805475498080415 -0.0086563485454940574 0.53428483363561285 0.19214757450582945 -0.48862023286531475 -0.20641267811650099 0.24635423440110357 -0.095235708148649359 0.38870336506259184 0.19218982080544003 -0.74860061365470643 -1.0814160589739756
leaf_weight=792.86418669561681 137.39087994143483 748.32756654400146 564.37257096922258 527.35932368948124 337.98987119531375 130.47180521930568 1619.8964233290753 2547.6962631153874 920.10230921723996 292.33319564223348 193.73761477845255 965.59790488269937 357.44488888948399 20407.747427622584 165.99009875100455 422.51138686705963 826.92346323645324 814.68252562423004 519.01202940712392 339.52256908731943 299.47346317931078 3928.6758118472499 411.53487443462654 415.34115166624542 5678.0626155922946 2339.3863188229152 165.82728234105161 248.59624901229108 934.68756213531015 580.76903844616027 1018.429698485721 489.7490149436635 825.25243970565498 133.52110667861416 122.91955876236898 522.99954130488914 334.20698103343602 101.7852800169785 89.068255037418567 92.997802060912363 934.14778366294922 107.6634921488876 428.30789791277493 790.01457141281571 89.19654982330394 737.36364032674464 79.745583777403226 271.99423351220321 509.70217012913781 165.76406296846108 198.53372087609023 228.09775772648572
leaf_count=18232 5354 2478 2311 4385 4854 1178 5440 17736 1502 25720 4283 3898 5286 120174 5985 5033 4451 7541 15393 3504 2612 58261 49009 1292 83869 17614 3433 2607 14774 3544 7472 2397 3976 1203 2966 2525 12591 972 2574 6422 4156 892 2291 2338 3531 4017 1475 3241 2343 2095 12656 13686
internal_value=0 -0.170967 0.0215213 0.0127814 -0.0441942 0.0466188 0.0231027 0.034758 0.195584 0.0110198 -0.316386 0.25535 0.0255455 0.0244152 -0.0161093 0.0564905 -0.0870481 -0.126611 0.182207 -0.229039 -0.351664 -0.00238647 -0.420189 -0.29558 -0.178861 0.0205598 -0.457549 -0.00569415 0.0511603 -0.0591983 0.25648 0.342486 0.219126 -0.516039 0.123672 0.355061 -0.527878 -0.682193 -0.607068 -0.686892 -0.135663 -0.52591 0.353626 0.0304864 -0.00608607 -0.0516935 -0.190519 0.183763 0.227374 -0.0758873 -0.83248 -0.941523
internal_weight=0 4158.03 52747.8 50860.3 18928.8 31931.6 28115.8 27134 3474.69 23659.3 1759.12 1887.42 921.817 22955.4 17169.7 8472.41 8697.26 7591.66 1105.6 1565.38 1225.86 6541.72 703.868 981.805 6504.99 6268.06 1157.43 767.608 2554.58 3000.61 1930.69 1508.18 3815.75 926.385 2255.69 1560.06 566.464 435.992 825.834 736.766 2252.28 273.654 640.424 1615.27 212.116 1671.51 172.743 1086.68 1037.06 331.591 564.022 426.631
internal_count=597572 61890 535682 524187 249444 274743 250388 234355 21716 212639 29834 11495 7597 137910 219610 97654 121956 99102 22854 25551 22047 82752 74729 16033 88320 75875 47695 18000 20214 14195 14902 9869 24355 19435 15102 9253 14741 13563 42167 39593 11717 6877 8788 6314 6497 8173 7897 10782 6728 5528 31696 26342
is_linear=0
shrinkage=0.65


end of trees

feature_importances:
Column_138=56
Column_136=43
Column_139=25
Column_137=23
Column_129=22
Column_130=19
Column_126=17
Column_127=17
Column_125=14
Column_132=12
Column_12=11
Column_10=10
Column_13=10
Column_11=8
Column_133=8
Column_107=7
Column_114=7
Column_128=7
Column_131=7
Column_14=6
Column_19=6
Column_29=6
Column_48=5
Column_49=5
Column_50=5
Column_72=5
Column_87=5
Column_100=5
Column_117=5
Column_18=4
Column_25=4
Column_40=4
Column_68=4
Column_105=4
Column_109=4
Column_113=4
Column_120=4
Column_135=4
Column_24=3
Column_45=3
Column_47=3
Column_60=3
Column_62=3
Column_67=3
Column_70=3
Column_73=3
Column_74=3
Column_82=3
Column_84=3
Column_104=3
Column_110=3
Column_118=3
Column_119=3
Column_9=2
Column_17=2
Column_20=2
Column_35=2
Column_39=2
Column_54=2
Column_55=2
Column_75=2
Column_85=2
Column_89=2
Column_92=2
Column_94=2
Column_102=2
Column_103=2
Column_116=2
Column_122=2
Column_123=2
Column_134=2
Column_0=1
Column_2=1
Column_5=1
Column_8=1
Column_15=1
Column_34=1
Column_44=1
Column_52=1
Column_56=1
Column_57=1
Column_58=1
Column_59=1
Column_64=1
Column_69=1
Column_79=1
Column_80=1
Column_83=1
Column_93=1
Column_101=1
Column_106=1
Column_108=1
Column_111=1
Column_112=1
Column_115=1
Column_124=1

parameters:
[boosting: gbdt]
[objective: binary]
[metric: binary_logloss]
[tree_learner: serial]
[device_type: cpu]
[data: ]
[valid: ]
[num_iterations: 10]
[learning_rate: 0.65]
[num_leaves: 64]
[num_threads: 0]
[deterministic: 0]
[force_col_wise: 0]
[force_row_wise: 0]
[histogram_pool_size: -1]
[max_depth: 8]
[min_data_in_leaf: 2670]
[min_sum_hessian_in_leaf: 53]
[bagging_fraction: 1]
[pos_bagging_fraction: 1]
[neg_bagging_fraction: 1]
[bagging_freq: 0]
[bagging_seed: 3]
[feature_fraction: 1]
[feature_fraction_bynode: 1]
[feature_fraction_seed: 2]
[extra_trees: 0]
[extra_seed: 6]
[early_stopping_round: 5]
[first_metric_only: 0]
[max_delta_step: 0]
[lambda_l1: 3]
[lambda_l2: 5]
[linear_lambda: 0]
[min_gain_to_split: 7]
[drop_rate: 0.1]
[max_drop: 50]
[skip_drop: 0.5]
[xgboost_dart_mode: 0]
[uniform_drop: 0]
[drop_seed: 4]
[top_rate: 0.2]
[other_rate: 0.1]
[min_data_per_group: 100]
[max_cat_threshold: 32]
[cat_l2: 10]
[cat_smooth: 10]
[max_cat_to_onehot: 4]
[top_k: 20]
[monotone_constraints: ]
[monotone_constraints_method: basic]
[monotone_penalty: 0]
[feature_contri: ]
[forcedsplits_filename: ]
[refit_decay_rate: 0.9]
[cegb_tradeoff: 1]
[cegb_penalty_split: 0]
[cegb_penalty_feature_lazy: ]
[cegb_penalty_feature_coupled: ]
[path_smooth: 0]
[interaction_constraints: ]
[verbosity: -1]
[saved_feature_importance_type: 0]
[linear_tree: 0]
[max_bin: 255]
[max_bin_by_feature: ]
[min_data_in_bin: 3]
[bin_construct_sample_cnt: 200000]
[data_random_seed: 1]
[is_enable_sparse: 1]
[enable_bundle: 1]
[use_missing: 1]
[zero_as_missing: 0]
[feature_pre_filter: 0]
[pre_partition: 0]
[two_round: 0]
[header: 0]
[label_column: ]
[weight_column: ]
[group_column: ]
[ignore_column: ]
[categorical_feature: ]
[forcedbins_filename: ]
[precise_float_parser: 0]
[objective_seed: 5]
[num_class: 1]
[is_unbalance: 0]
[scale_pos_weight: 1]
[sigmoid: 1]
[boost_from_average: 1]
[reg_sqrt: 0]
[alpha: 0.9]
[fair_c: 1]
[poisson_max_delta_step: 0.7]
[tweedie_variance_power: 1.5]
[lambdarank_truncation_level: 30]
[lambdarank_norm: 1]
[label_gain: ]
[eval_at: 10]
[multi_error_top_k: 1]
[auc_mu_weights: ]
[num_machines: 1]
[local_listen_port: 12400]
[time_out: 120]
[machine_list_filename: ]
[machines: ]
[gpu_platform_id: -1]
[gpu_device_id: -1]
[gpu_use_dp: 0]
[num_gpu: 1]

end of parameters

pandas_categorical:null
