tree
version=v3
num_class=1
num_tree_per_iteration=1
label_index=0
max_feature_idx=139
objective=binary sigmoid:1
feature_names=Column_0 Column_1 Column_2 Column_3 Column_4 Column_5 Column_6 Column_7 Column_8 Column_9 Column_10 Column_11 Column_12 Column_13 Column_14 Column_15 Column_16 Column_17 Column_18 Column_19 Column_20 Column_21 Column_22 Column_23 Column_24 Column_25 Column_26 Column_27 Column_28 Column_29 Column_30 Column_31 Column_32 Column_33 Column_34 Column_35 Column_36 Column_37 Column_38 Column_39 Column_40 Column_41 Column_42 Column_43 Column_44 Column_45 Column_46 Column_47 Column_48 Column_49 Column_50 Column_51 Column_52 Column_53 Column_54 Column_55 Column_56 Column_57 Column_58 Column_59 Column_60 Column_61 Column_62 Column_63 Column_64 Column_65 Column_66 Column_67 Column_68 Column_69 Column_70 Column_71 Column_72 Column_73 Column_74 Column_75 Column_76 Column_77 Column_78 Column_79 Column_80 Column_81 Column_82 Column_83 Column_84 Column_85 Column_86 Column_87 Column_88 Column_89 Column_90 Column_91 Column_92 Column_93 Column_94 Column_95 Column_96 Column_97 Column_98 Column_99 Column_100 Column_101 Column_102 Column_103 Column_104 Column_105 Column_106 Column_107 Column_108 Column_109 Column_110 Column_111 Column_112 Column_113 Column_114 Column_115 Column_116 Column_117 Column_118 Column_119 Column_120 Column_121 Column_122 Column_123 Column_124 Column_125 Column_126 Column_127 Column_128 Column_129 Column_130 Column_131 Column_132 Column_133 Column_134 Column_135 Column_136 Column_137 Column_138 Column_139
feature_infos=[0:16] [0:6] [0:8] [0:8] [0:16] [0:1] [0:1] [0:1] [0:1] [0:1] [0:12923] [0:3233] [0:12917] [2:132] [3:25845] [-1.9397770166397095:98.653861999511719] [3.7259809970855713:159.86013793945312] [2.7613649368286133:152.07829284667969] [0.79833799600601196:166.13566589355469] [-1.9448369741439819:98.624855041503906] [0:2726] [0:110] [0:563] [0:10] [0:2730] [0:1083] [0:30] [0:49] [0:5] [0:1083] [0:1627] [0:64] [0:475] [0:6] [0:1629] [0:1083] [0:30] [0:140.75] [0:5] [0:1083] [0:661782.25] [0:638.75] [0:37744.1875] [0:9] [0:663410.25] [0:2] [0:2] [0:2] [0:1] [0:0.80995500087738037] [0:1] [0:1] [0:1] [0:0.57142901420593262] [0:0.60000002384185791] [0:1] [0:1] [0:1] [0:0.57142901420593262] [0:0.60000002384185791] [0:1] [0:1] [0:1] [0:0.57142901420593262] [0:0.60000002384185791] [0:0.25] [0:0.25] [0:0.25] [0:0.0625] [0:0.0625] [-502.57244873046875:16527.740234375] [0:955.788818359375] [0:4664.697265625] [0:77.544601440429688] [-503.66119384765625:16532.033203125] [-567.93853759765625:4774.43798828125] [0:223.21076965332031] [0:538.6591796875] [0:64.091140747070312] [-569.168701171875:4789.7236328125] [0:11113.951171875] [0:615.50018310546875] [0:3829.640380859375] [0:68.338874816894531] [0:11124.8037109375] [-281.26773071289062:5556.9755859375] [0:238.94720458984375] [0:1200.550537109375] [0:64.091140747070312] [-287.8358154296875:5562.40185546875] [0:30879978] [0:56952.48828125] [0:2417518.5] [0:1167.55029296875] [0:30940314] [0:1] [0:1] [0:1] [0:1] [0:1] [0:1] [0:1] [0:1] [0:1] [0:1] [-11.413535118103027:190.64485168457031] [0:60.223415374755859] [0:72.414131164550781] [0:49.223228454589844] [-11.416239738464355:191.38079833984375] [-194.15585327148438:0] [-118.54830169677734:0] [-158.66993713378906:0] [-132.80621337890625:0] [-194.16043090820312:0] [-187.41470336914062:0] [-111.64816284179688:0] [-156.41024780273438:0] [-130.16769409179688:0] [-187.39202880859375:0] [-205.81387329101562:0] [-137.58628845214844:0.70563399791717529] [-179.10939025878906:0] [-155.76138305664062:0] [-205.75247192382812:0] [1:31] [5:1383] [0:226244464] [0:170] [100:65534] [1:65535] [1:254] [1:254] [0:4344779] [0:2348975] [0:570000000] [-4.5702376365661621:4.7759213447570801] [0:1] [0:676] [1:679]
tree_sizes=3328 3395 3173 3374 2734 1959 3388 2085 4287 2189

Tree=0
num_leaves=30
num_cat=0
split_feature=138 138 138 139 139 136 139 138 136 139 139 137 139 138 138 139 123 138 138 136 130 130 130 137 139 136 137 136 123
split_gain=1.0395e+06 33576.8 32383.1 14477.6 11753.7 3395.29 5418.45 3353.68 3140.14 3089.89 2416.93 1392.75 1355.98 1260.9 1089.04 1001.49 897.232 857.175 408.994 533.894 407.116 402.63 396.367 338.601 210.998 166.896 32.0783 14.0205 7.02317
threshold=26.500000000000004 15.500000000000002 39.500000000000007 171.50000000000003 87.500000000000014 0.2622715830802918 296.50000000000006 20.500000000000004 0.061567658558487899 103.50000000000001 146.50000000000003 0.58714577555656444 69.500000000000014 9.5000000000000018 8.5000000000000018 150.50000000000003 -14.184563636779783 34.500000000000007 55.500000000000007 -0.46266324818134302 37262.500000000007 54589.500000000007 44994.500000000007 0.56919395923614513 142.50000000000003 0.8994065821170808 0.64131346344947826 1.5837529897689822 -15.990818023681639
decision_type=2 2 2 2 2 2 2 2 2 2 2 2 2 2 2 2 2 2 2 2 2 2 2 2 2 2 2 2 2
left_child=1 8 3 9 12 11 21 15 14 23 -9 18 -3 25 -1 -6 26 22 19 -4 -21 -7 -11 28 -15 -10 -13 -27 -2
right_child=2 4 5 -5 7 6 -8 10 13 17 -12 16 -14 24 -16 -17 -18 -19 -20 20 -22 -23 -24 -25 -26 27 -28 -29 -30
leaf_value=1.9960925992775096 -1.7786757464024552 -0.62128638467175268 -1.8371930808048234 0.91913920584972986 1.4040108437574002 -1.8212372492592377 0.41204727325533641 0.51352973391212453 2.133181508587171 -0.50991736206209226 1.3793572536437586 -1.7776708509773975 0.3522708824691001 1.948338869371844 1.6633385699009828 1.834224562105057 -0.7241473673072929 -0.96406219745650468 -1.8605909874445108 -1.7036411333841621 -1.031491386616624 -1.1295383959508074 0.085008138255284749 -1.0072609069989307 2.074677002277129 2.177399329080056 -1.3518752022174203 2.2021454204444302 -1.4083053170188444
leaf_weight=10720.325820617378 949.73769907653332 1207.626875847578 2409.4933438003063 2755.2339610308409 4206.7660465016961 1364.6692121326923 804.93238879740238 2420.1716380491853 28333.410657830536 1079.4903402030468 3137.8629808723927 865.03884195536375 1300.0419948622584 10858.27844747901 6906.5583313331008 5064.0906645879149 876.14777561277151 1036.264444693923 25809.166902415454 860.6618797108531 1136.5382417067885 724.96823548525572 1076.9397143870592 756.30925934016705 13571.175772607327 40791.657131947577 709.61691982299089 67178.361493699253 829.38414034992456
leaf_count=9564 10415 9305 27347 10712 10520 15846 4381 12054 13788 8532 8028 10039 6974 11143 12539 6215 7637 9525 304312 9584 10512 7046 6708 6857 7389 13093 7413 11855 8239
internal_value=1.40129 2.04341 -1.45158 -0.308167 1.18007 -1.72404 -1.03504 1.4006 2.12736 -0.897064 1.00119 -1.7847 -0.120464 2.15598 1.86606 1.6396 -1.28869 -0.463394 -1.82448 -1.60968 -1.32805 -1.5878 -0.217424 -1.43822 2.0188 2.18051 -1.59481 2.19286 -1.61407
internal_weight=0 195696 44044.6 8483.36 17336.6 35561.2 2894.57 14828.9 178360 5728.13 5558.03 32666.7 2507.67 160733 17626.9 9270.86 2450.8 3192.69 30215.9 4406.69 1997.2 2089.64 2156.43 2535.43 24429.5 136303 1574.66 107970 1779.12
internal_count=597572 132467 465105 60988 53096 404117 27273 36817 79371 50276 20082 376844 16279 57268 22103 16735 25089 24765 351755 47443 20096 22892 15240 25511 18532 38736 17452 24948 18654
is_linear=0
shrinkage=1


Tree=1
num_leaves=30
num_cat=0
split_feature=138 138 138 118 130 136 125 139 137 123 137 139 137 137 136 20 126 67 138 129 92 136 65 136 138 138 134 136 136
split_gain=78369.5 7406.26 5499.9 2455.16 1774.1 1711.43 1429.82 1318.65 1151.87 988.913 664.934 650.272 639.6 586.394 466.2 450.987 343.998 284.958 280.271 277.732 238.859 212.804 160.44 169.515 136.977 123.039 68.8533 55.3886 43.2593
threshold=18.500000000000004 54.500000000000007 11.500000000000002 -7.5790874958038321 49493.500000000007 0.36254109442234045 2.5000000000000004 112.50000000000001 0.66496753692626964 -1.4916465282440183 0.64131346344947826 87.500000000000014 0.56439545750617992 0.66157612204551708 -0.02854316774755716 4.5000000000000009 36.500000000000007 0.0038959999801591043 6.5000000000000009 19249.500000000004 24.50084209442139 0.78220868110656749 0.0021785000571981077 0.2622715830802918 22.500000000000004 32.500000000000007 195.50000000000003 1.3463850617408755 -0.0094174528494477255
decision_type=2 2 2 2 2 2 2 2 2 2 2 2 2 2 2 2 2 2 2 2 2 2 2 2 2 2 2 2 2
left_child=2 3 5 4 10 11 -6 14 16 13 15 -1 -5 22 -4 19 -8 -12 27 -2 24 -9 23 26 -17 -18 28 -7 -3
right_child=1 9 7 12 6 18 8 21 -10 -11 17 -13 -14 -15 -16 20 25 -19 -20 -21 -22 -23 -24 -25 -26 -27 -28 -29 -30
leaf_value=0.25723191663200901 -0.47994381854603502 -0.7410087812575169 -0.21291334059024447 -0.069107493676762541 0.24235798245187118 0.65661428342359318 -0.14626778393536993 0.27570940630808027 0.16883320521867709 -0.046084799893792945 -0.35944386606497969 0.53520212633068631 0.37218238684153016 -0.018701759373107005 0.15106579009206156 -0.42854813386586293 -0.44478116221427277 -0.014063024560784976 0.59725271171812044 -0.02776559384004889 -0.3307094890026227 0.45003079140606095 -0.36334094628304492 -0.98692254953863345 -0.71094070303167045 -0.73368002269896015 -0.44780484856183111 0.70549167831644755 -0.59752504521717509
leaf_weight=5835.0287184789777 1288.4991154484451 17066.137142632157 2635.6134441047907 2287.9605701863766 3847.421783298254 19325.505412187427 1056.700076688081 6208.8476538471878 1715.2700035311282 998.66257823631167 2382.6300372928381 9502.5136812850833 3458.1645010747015 515.51322006434202 3399.5065444260836 988.57878348976374 1435.4452904425561 1801.6163375228643 19242.889065161347 1076.2437663339078 1161.1615298837423 6134.6267960034311 550.95805705711246 1232.4871746040881 4848.210226662457 1374.4985350929201 481.66590416803956 41749.453123107553 1417.8431662321091
leaf_count=11541 11548 271858 9733 11717 13327 11763 5934 10185 5740 10684 12560 8573 8158 3573 7748 4263 7568 8124 14164 6035 9206 6587 7946 14122 47737 14949 7199 13697 21333
internal_value=0 -0.402113 0.567251 -0.183742 -0.278859 0.629854 -0.0617371 0.241105 -0.272219 -0.683556 -0.429581 0.42984 0.195695 -0.713256 -0.00712053 -0.526198 -0.469094 -0.212006 0.66797 -0.276495 -0.609725 0.36283 -0.730275 -0.739987 -0.664196 -0.588481 -0.723522 0.69014 -0.730368
internal_weight=0 50985.7 114034 28722.4 22976.3 95655.4 9429.34 18378.6 5581.91 22263.3 13546.9 15337.5 5746.13 21264.6 6035.12 9362.69 3866.64 4184.25 80317.8 2364.74 6997.95 12343.5 20749.1 20198.1 5836.79 2809.94 18965.6 61075 18484
internal_count=597572 503581 93991 166866 146991 59738 47518 34253 34191 336715 99473 20114 19875 326031 17481 78789 28451 20684 39624 17583 61206 16772 322458 314512 52000 22517 300390 25460 293191
is_linear=0
shrinkage=0.65


Tree=2
num_leaves=28
num_cat=0
split_feature=138 137 136 130 138 139 117 138 72 138 54 136 58 138 138 137 53 138 14 127 136 49 10 137 136 72 138
split_gain=30936.4 7011.94 2673.41 1554.79 1660 1092.94 941.53 748.639 631.156 617.999 502.271 818.725 498.449 469.26 439.045 407.456 401.288 313.056 272.981 231.451 82.9055 62.243 39.7331 36.633 49.0525 29.5878 7.55842
threshold=13.500000000000002 0.45369215309619909 0.63608133792877208 62142.500000000007 70.500000000000014 73.500000000000014 -14.121131420135496 43.500000000000007 7.3090009689331064 7.5000000000000009 0.0091774999164044874 0.5716257393360139 0.12771750241518023 36.500000000000007 28.500000000000004 0.77351179718971264 0.21825399994850161 6.5000000000000009 389.50000000000006 28280.500000000004 1.5837529897689822 0.11477600038051607 108.50000000000001 0.42264559864997869 -0.21693070977926251 8.2872428894042987 41.500000000000007
decision_type=2 2 2 2 2 2 2 2 2 2 2 2 2 2 2 2 2 2 2 2 2 2 2 2 2 2 2
left_child=2 13 5 4 6 -1 7 12 -5 20 -8 14 15 18 -12 -3 19 -7 -2 23 -4 25 -6 26 -25 -9 -15
right_child=1 3 9 8 22 17 10 21 -10 -11 11 -13 -14 16 -16 -17 -18 -19 -20 -21 -22 -23 -24 24 -26 -27 -28
leaf_value=0.0050796429312345657 -0.12358085027846026 -0.21279351759033011 0.58877388177346657 0.51827059095469641 -0.41024520172033796 0.49189061790347549 0.26985174718271576 -0.41680207420008991 0.084608208331385798 0.44373787758581629 -0.045693304507181537 0.17767622490731719 0.12827619621174904 -0.51605435327195937 -0.53315003631366131 0.14329702134318253 0.076251999229694001 0.2903440902315142 -0.56108963841592807 -0.076168747393014283 0.65996698637266371 -0.27103223011078909 -0.71040533594979383 -0.67878076182195768 -0.39426047775936918 -0.66283785456466215 -0.70182979599445006
leaf_weight=4330.8493025898933 1365.9968878701329 10011.396865013987 14326.365114687011 2506.0346237905324 322.20277283340693 6089.0821550991386 4145.9382263999432 447.26062615774572 3338.1817080080509 9885.6994158439338 1823.0461918003857 4152.3867941498756 3096.497456997633 340.87491972371936 1395.3060533571988 1551.5743432044983 307.63294282183051 7477.6700642313808 1131.6144120432436 296.40372180193663 20054.657551471144 379.74144378490746 1685.3762379866093 728.5876716338098 609.81691492348909 1095.0338836126029 8799.5291630867869
leaf_count=12304 8370 54690 14033 7930 6191 6910 15109 9483 15041 12419 6001 9668 11432 5298 15462 4095 3905 12795 10064 6317 11111 6807 41151 18973 11295 22156 238562
internal_value=0 -0.185405 0.503113 -0.0349313 -0.0946124 0.290512 -0.0535914 -0.152848 0.27157 0.588935 0.0889012 -0.0123017 -0.102369 -0.583282 -0.258841 -0.164569 -0.641125 0.381252 -0.324194 -0.662069 0.630499 -0.534539 -0.665353 -0.678154 -0.55398 -0.595611 -0.695611
internal_weight=0 49530.4 62164.3 35950 30105.8 17897.6 28098.2 16581.5 5844.22 44266.7 11516.7 7370.74 14659.5 13580.5 3218.35 11563 11082.8 13566.8 2497.61 10775.2 34381 1922.04 2007.58 10478.8 1338.4 1542.29 9140.4
internal_count=597572 528000 69572 225216 202245 32009 154903 108663 22971 37563 46240 31131 70217 302784 21463 58785 284350 19705 18434 280445 25144 38446 47342 274128 30268 31639 243860
is_linear=0
shrinkage=0.65


Tree=3
num_leaves=30
num_cat=0
split_feature=138 138 136 136 136 25 138 137 30 136 127 53 126 130 126 105 60 139 138 138 129 132 139 94 17 119 131 73 127
split_gain=12923.4 3916.56 1987 1495.69 873.374 852.332 888.99 579.432 540.817 531.487 515.83 503.834 425.247 339.13 474.025 313.794 210.613 150.567 150.041 133.368 120.534 113.503 85.8219 82.6062 62.2714 77.917 53.1631 20.3351 18.8708
threshold=9.5000000000000018 70.500000000000014 -0.77096900343894947 0.8994065821170808 1.0838988423347475 1.5000000000000002 23.500000000000004 0.56439545750617992 47.500000000000007 -0.10297535359859465 167269.50000000003 0.24038449674844745 72.500000000000014 21610.500000000004 33.500000000000007 24.255625724792484 0.021741500124335292 169.50000000000003 16.500000000000004 4.5000000000000009 36326.000000000007 13.500000000000002 537.50000000000011 857.82388305664074 19.000590324401859 -12.271279335021971 79.500000000000014 17.767155647277836 6.5000000000000009
decision_type=2 2 2 2 2 2 2 2 2 2 2 2 2 2 2 2 2 2 2 2 2 2 2 2 2 2 2 2 2
left_child=3 2 7 9 5 13 17 18 12 -1 11 22 -8 21 -15 -9 -16 23 -2 -5 24 -4 26 -7 25 -20 27 -3 -11
right_child=1 10 4 19 -6 6 8 15 -10 28 -12 -13 -14 14 16 -17 -18 -19 20 -21 -22 -23 -24 -25 -26 -27 -28 -29 -30
leaf_value=0.065260289943386451 -1.0134503038829543 -0.68047738916761313 0.057391578986122682 0.60665742181528848 0.27960674287013842 -0.047146048909447895 -0.34716212527492851 -0.402247159130043 0.23351387348100064 0.32561637083187589 0.52551505482959837 0.21444978167409812 0.13225150736605121 0.35227937552869631 -0.0068320584041252578 0.053678834512746874 0.26218843346186976 0.16252949349686752 -0.15123232671205017 0.4852621870561688 -0.13123821390380708 -0.20650109601749236 -0.14013000398594821 0.087576845026125089 -0.68700716255049876 -0.61337286410991143 -0.34823638018498088 -0.36037138972157723 0.40154171137907985
leaf_weight=3617.1571943126619 349.63276389613748 4953.975033627823 1394.1276240702718 13326.162631765939 5665.5474846828729 6278.196875359863 6882.618966142647 1196.1243157144636 909.61718744132668 3977.7832526545972 171.61690484918654 297.35890438035131 864.5512072108686 4318.3816569494084 4303.5300625497475 1327.1354020759463 1700.1021086974069 2979.0055489707738 312.24789402261376 6267.3741416633129 305.20736119896173 1318.274255502969 167.22505833767354 2761.791484432295 1260.0492348074913 391.1525794249028 302.32952757366002 163.06691718939692 4295.8629669770598
leaf_count=9072 2081 239339 7550 15139 11087 19264 82168 9423 6692 8038 2675 2982 7631 14139 22184 7387 6954 5891 7759 9809 6914 8528 4105 7512 34285 9875 14608 6663 7818
internal_value=0 -0.0728257 -0.00598602 0.457554 0.0435372 0.00369643 -0.0782169 -0.385978 -0.237063 0.274795 -0.563138 -0.595977 -0.293008 0.133987 0.187848 -0.16078 0.0686472 0.0358256 -0.600706 0.568158 -0.533641 -0.0691858 -0.640072 -0.00543877 -0.593432 -0.416644 -0.65452 -0.671447 0.36576
internal_weight=0 50572.9 44517.3 31484.3 39375.7 33710.2 20675.8 5141.55 8656.79 11890.8 6055.57 5883.96 7747.17 13034.4 10322 2523.26 6003.63 12019 2618.29 19593.5 2268.66 2712.4 5586.6 9039.99 1963.45 703.4 5419.37 5117.04 8273.65
internal_count=597572 547696 277324 49876 199600 188513 129158 77724 96491 24928 270372 267697 89799 59355 43277 16810 29138 32667 60914 24948 58833 16078 264715 26776 51919 17634 260610 246002 15856
is_linear=0
shrinkage=0.65


Tree=4
num_leaves=24
num_cat=0
split_feature=138 137 136 138 139 129 138 137 12 100 115 50 116 139 125 139 127 15 137 136 12 113 12
split_gain=5051.99 2341.52 1051.98 993.533 510.26 643.163 547.648 354.353 287.118 288.106 433.634 369.82 227.429 225.734 240.172 202.007 195.34 142.773 92.5856 91.865 62.139 5.36287 1.43948
threshold=7.5000000000000009 0.3535792231559754 1.0838988423347475 90.500000000000014 226.50000000000003 10700.500000000002 51.500000000000007 0.63806781172752391 2.5000000000000004 0.37963551282882696 -7.989874839782714 0.033905999734997756 -15.960184097290037 168.50000000000003 2.5000000000000004 81.500000000000014 73464.500000000015 20.843522071838382 0.55005082488060009 1.8166227936744692 2.5000000000000004 -2.9957294464111324 12.500000000000002
decision_type=2 2 2 2 2 2 2 2 2 2 2 2 2 2 2 2 2 2 2 2 2 2 2
left_child=2 16 15 4 6 -6 8 -7 12 10 -10 -11 -3 17 -15 -1 21 20 22 -4 -8 -2 -5
right_child=1 3 19 18 5 7 13 -9 9 11 -12 -13 -14 14 -16 -17 -18 -19 -20 -21 -22 -23 -24
leaf_value=0.069494018560289694 -0.66549942659337691 0.29513723037112338 0.45468088156829989 -0.69803433042051022 0.45714806946956937 -0.15598771781457618 -0.13049545867527582 0.23870297780645569 0.30053309722787369 -0.075867413316296636 -0.071612273739537866 0.12275167384827473 0.019203901271300717 0.36373311660329488 -0.44990781575258765 0.28666742914130594 0.15624716737848574 0.086617235137235793 -0.087780322757663939 0.59531616654138919 -0.58507883526326654 -0.50603781420045146 -0.41095882400972727
leaf_weight=2909.9659877019003 2232.4882211978547 2510.9977671168745 4132.7564013265073 856.78849985264242 2411.9238591701724 2044.6601804103702 176.41776068322361 1801.582228760235 2841.4694336466491 21179.420314216986 2440.0789038967341 4854.3319094935432 2615.0736462771893 345.67611230630428 270.07565115019679 5103.5323121594265 125.26306766550988 163.96533350180835 153.69873337168247 5013.7900053514168 1178.0542445681058 458.25439299736172 113.26388160977513
leaf_count=9111 169842 10709 10584 61024 7533 13153 7674 3844 10824 114393 9274 20434 11001 10701 10109 12082 2497 4907 6828 8204 59749 13879 9216
internal_value=0 -0.0284414 0.381516 0.00672757 0.0219812 0.194117 -0.00583366 0.0276809 0.012794 -0.0104105 0.127752 -0.038637 0.155407 -0.325695 0 0.208464 -0.603465 -0.460088 -0.595905 0.532479 -0.52986 -0.640761 -0.670919
internal_weight=0 48773.5 17160 45957.5 44833.7 6258.17 38575.6 3846.24 36441.4 31315.3 5281.55 26033.8 5126.07 2134.19 615.752 8013.5 2816.01 1518.44 1123.75 9146.55 1354.47 2690.74 970.052
internal_count=597572 557591 39981 371373 294305 24530 269775 16997 176635 154925 20098 134827 21710 93140 20810 21193 186218 72330 77068 18788 67423 183721 70240
is_linear=0
shrinkage=0.65


Tree=5
num_leaves=17
num_cat=0
split_feature=136 139 138 138 130 55 138 130 16 73 138 54 64 91 139 12
split_gain=2245.76 1175.68 1085.25 701.11 404.64 376.218 375.585 351.233 577.949 390.424 169.033 161.555 151.951 168.866 52.2399 22.5402
threshold=1.2851352691650393 30.500000000000004 86.500000000000014 12.500000000000002 99.500000000000014 0.13751450181007388 5.5000000000000009 62142.500000000007 8.6063909530639666 8.4595618247985858 4.5000000000000009 0.0042205001227557668 0.079393502324819579 11.444177627563478 121.50000000000001 1.5000000000000002
decision_type=2 2 2 2 2 2 2 2 2 2 2 2 2 2 2 2
left_child=1 -1 3 10 -5 7 -2 8 -6 -9 -3 -12 13 15 -13 -4
right_child=6 2 12 4 5 -7 -8 9 -10 -11 11 14 -14 -15 -16 -17
leaf_value=-0.85411502372636405 0.4981327176723217 0.25008923461525379 -0.20288938615221566 0.4162850569916684 -0.64437806643894624 0.28450022909748013 0.21377318255452554 0.22686209129601206 -0.073769050465677707 -0.16682185769737637 -0.011897988139088503 0.094697688031377861 0 0.28793885798266505 0.21110708837623607 -0.67193255088909531
leaf_weight=685.89890881907195 4084.3860922297463 4028.637440174818 79.421096849255264 816.24210997531191 772.7956054569222 1385.4949580403045 3952.2458254173398 3285.2055210266262 25103.866202582605 1557.3749903803691 3905.4122914378531 3573.7016842332669 208.83070366224274 77.447007250972092 3392.3135922574438 1274.5394780945498
leaf_count=4912 13315 11825 11088 5843 6963 8537 9826 18653 264409 10718 11306 11247 12913 8347 8157 179513
internal_value=0 -0.0109448 0.000705048 0.0186493 -0.0341836 -0.0458266 0.35903 -0.0609096 -0.0910735 0.0992341 0.135686 0.0927882 -0.51855 -0.593958 0.152148 -0.648507
internal_weight=0 50147.2 49461.3 47821 32921 32104.7 8036.63 30719.2 25876.7 4842.58 14900.1 10871.4 1640.24 1431.41 6966.02 1353.96
internal_count=597572 574431 569519 357658 315123 309280 23141 300743 271372 29371 42535 30710 211861 198948 19404 190601
is_linear=0
shrinkage=0.65


Tree=6
num_leaves=30
num_cat=0
split_feature=136 136 138 118 118 135 20 107 137 24 138 87 136 129 19 92 15 105 14 139 137 127 136 10 10 107 117 111 100
split_gain=867.268 689.225 298.846 359.255 484.099 246.689 246.234 253.467 457.632 281.751 367.72 251.388 250.71 270.388 198.671 186.366 259.194 221.65 181.054 175.453 137.287 106.324 83.0294 70.9163 98.7247 54.0946 25.3087 30.9342 6.43206
threshold=1.8166227936744692 -1.1716357469558714 70.500000000000014 -7.5116720199584952 -7.4383361339569083 60.926410675048835 93.500000000000014 15.00238084793091 0.74813100695610057 12.500000000000002 29.500000000000004 9.113716125488283 0.80802541971206676 39488.500000000007 26.092377662658695 8.216856002807619 5.2958741188049325 13.673648357391359 126.50000000000001 77.500000000000014 0.60674220323562633 3.5000000000000004 -1.5630948543548582 85.500000000000014 21.500000000000004 13.834395408630373 -44.962549209594719 -2.4456460475921626 0.7910825014114381
decision_type=2 2 2 2 2 2 2 2 2 2 2 2 2 2 2 2 2 2 2 2 2 2 2 2 2 2 2 2 2
left_child=1 5 6 23 -5 14 7 12 9 11 -11 -9 15 -14 19 16 -3 -17 -6 20 22 -10 28 24 -4 26 -21 -28 -1
right_child=-2 2 3 4 18 -7 -8 8 21 10 -12 -13 13 -15 -16 17 -18 -19 -20 25 -22 -23 -24 -25 -26 -27 27 -29 -30
leaf_value=-0.73658525278900866 0.41465120891944129 -0.20397451498605226 -0.5739353943641895 0.98372397157696057 0.23933463398868607 0.49610538596847131 0.24935157780894754 -0.1483093472732811 0.012385986220008385 -0.097642061536625635 -0.41749958667334092 0.20320170963061643 0.32354979342013596 0.040288990564517409 0.16153649209784315 0.2678305657137362 0.027366241014322504 0.028055492638233741 -0.70007348986401619 -0.27184442631934985 0.0082567199156486776 0.18550417255600382 -0.16394880172820139 -0.63572346943533831 0.32421782442568353 -0.11163679412022766 -0.75474413856545441 -0.21198302429648577 -0.42635010774336773
leaf_weight=240.50934009230696 2290.1568031737115 2491.3950886144303 108.44075737101957 185.7119465470314 137.63189710630104 143.07963731489144 2115.374248359818 1502.2349022156559 2770.4606947468128 7241.6351752269547 1944.4553999514319 1979.4814992882311 2894.8682688847184 2886.728320599068 261.69617407163605 2569.7516417666338 11301.907896024641 4586.9907057564706 202.6671846434474 104.55180152039975 492.76404009945691 3434.1663514857646 341.22980027319863 664.960103956284 86.963887766702101 103.94778837868944 770.50035083200783 77.305689899250865 172.86443575751036
leaf_count=11106 9427 18351 11072 8391 5617 5917 9296 11672 10405 28580 40776 11662 6985 9368 4790 10050 69073 28473 22176 3347 2121 11840 6775 119821 10609 4544 93544 4709 7075
internal_value=0 0.0060566 0.0237621 -0.273016 0.142516 -0.31283 0.0325028 0.0223219 -0.0351841 -0.106206 -0.165993 0.0501602 0.0631001 0.183051 -0.360382 0.0297448 -0.0141083 0.114904 -0.307442 -0.421899 -0.249296 0.109025 -0.423153 -0.532221 -0.151214 -0.619813 -0.669686 -0.711889 -0.62267
internal_weight=0 51814.3 49105.8 1386.38 526.011 2708.45 47719.5 45604.1 18872.4 12667.8 9186.09 3481.72 26731.6 5781.6 2565.37 20950 13793.3 7156.74 340.299 2303.67 1247.37 6204.63 754.604 860.365 195.405 1056.31 952.358 847.806 413.374
internal_count=597572 588145 444217 177686 36184 143928 266531 257235 114935 92690 69356 23334 142300 16353 138011 125947 87424 38523 27793 133221 27077 22245 24956 141502 21681 106144 101600 98253 18181
is_linear=0
shrinkage=0.65


Tree=7
num_leaves=18
num_cat=0
split_feature=114 136 13 138 137 13 139 138 52 127 127 44 69 65 14 138 111
split_gain=359.287 302.058 261.697 319.756 240.716 215.811 191.829 187.338 352.541 165.85 123.875 96.9908 127.345 247.873 68.5923 55.6433 16.9909
threshold=-19.755393028259274 1.9789647459983828 16.500000000000004 86.500000000000014 0.66157612204551708 3.5000000000000004 302.50000000000006 19.500000000000004 0.10128200054168703 18756.000000000004 1.0000000180025095e-35 55.038194656372077 1.5499999790336009e-05 3.849999848171138e-05 27.500000000000004 24.500000000000004 -30.51104640960693
decision_type=2 2 2 2 2 2 2 2 2 2 2 2 2 2 2 2 2
left_child=4 2 3 5 11 -2 7 10 -9 14 -7 12 15 -14 -5 -1 -13
right_child=1 -3 -4 9 -6 6 -8 8 -10 -11 -12 16 13 -15 -16 -17 -18
leaf_value=-0.28708435368504992 0.27223743704582365 0.35569747316910777 0.31224473503610939 0 -0.052597141666647244 -0.039161792026271507 0.19745277395633262 0.017186048841491747 -0.17765108665885554 0.36519136575534245 0.068686657426519554 -0.80948855065090941 0.39156987871248172 -0.39110466868024529 -0.66003951083286327 -0.72130727945195194 -0.43354881966337389
leaf_weight=376.20849677664228 1358.813045962248 1154.4799130233005 1247.7697390021058 93.920695404987782 3508.7270004872698 6221.4341716072522 2159.6410891993437 10840.099665357731 6113.0245986939408 85.854292975389399 15835.929339453345 201.33906743407715 288.51873824780341 404.32955638878047 487.69670816895086 250.84288310748525 202.62752672156785
leaf_count=2736 5648 7049 9592 9610 14375 21870 6968 144243 82502 4831 51819 9864 7566 11039 167673 33360 6827
internal_value=0 0.0276819 0.0190281 0.0104245 -0.152048 0.0175545 0.00901136 -0.00131291 -0.0528057 -0.434618 0.0380479 -0.351209 -0.258585 -0.0579679 -0.562257 -0.471201 -0.637622
internal_weight=0 45598.7 44444.2 43196.4 5232.59 42528.9 41170.1 39010.5 16953.1 667.472 22057.4 1723.87 1319.9 692.848 581.617 627.051 403.967
internal_count=597572 511805 504756 495164 85767 313050 307402 300434 226745 182114 73689 71392 54701 18605 177283 36096 16691
is_linear=0
shrinkage=0.65


Tree=8
num_leaves=38
num_cat=0
split_feature=137 48 120 105 108 125 127 138 126 114 109 57 138 65 59 129 89 125 138 107 127 130 139 129 139 79 65 40 34 138 137 103 112 103 12 75 136
split_gain=205.18 185.758 248.597 227.372 265.657 220.019 269.472 355.523 236.944 276.728 223.036 207.476 182.993 172.012 232.881 161.671 155.507 155.082 154.962 149.387 148.739 137.839 132.683 139.074 130.894 117.883 117.598 173.305 105.333 128.785 98.268 92.5297 79.9586 75.8604 60.2918 43.5647 34.8947
threshold=0.3535792231559754 0.098386999219656004 -3.278774499893188 11.79709577560425 11.458232402801515 2.5000000000000004 8016.0000000000009 24.500000000000004 58.500000000000007 -4.1681950092315665 22.999718666076664 0.27335000038146978 22.500000000000004 0.00013549999857787046 0.0036909999325871472 2994.5000000000005 42.454959869384773 3.5000000000000004 49.500000000000007 21.281301498413089 7.5000000000000009 54900.500000000007 44.500000000000007 64452.500000000007 144.50000000000003 61.322395324707038 8.2499998825369416e-05 0.90277799963951122 7.5000000000000009 10.500000000000002 0.65454161167144786 0.67856401205062877 -2.294075489044189 0.68207401037216198 5.5000000000000009 8.3803539276123065 -0.12019136548042296
decision_type=2 2 2 2 2 2 2 2 2 2 2 2 2 2 2 2 2 2 2 2 2 2 2 2 2 2 2 2 2 2 2 2 2 2 2 2 2
left_child=22 5 3 21 11 8 7 15 9 10 13 16 -11 14 -2 -7 31 19 26 30 -19 24 -1 36 -3 -4 27 -9 -12 -30 -6 -5 -14 -18 -21 -20 -24
right_child=1 2 25 4 17 6 -8 18 -10 12 28 -13 32 -15 -16 -17 33 20 35 34 -22 -23 23 -25 -26 -27 -28 -29 29 -31 -32 -33 -34 -35 -36 -37 -38
leaf_value=0.089466257048099629 -0.043469679637848216 -0.085681117261342588 0.37029897179151305 -0.15032271459805174 -0.081295843019017447 -0.16398874082331338 0.27143362283257549 -0.16714172229329941 0.26207828446156323 -0.059409378750360738 0.06131431513536683 0.36430485959040376 -0.65111565992249953 -0.07871476977948455 0.25192858742356677 0.043874915946493842 0.3354915002297611 -0.046817975831049692 -0.81140836190114152 -0.30150295146756539 0.23779571710006556 0.011076789472935871 -0.59719055830483436 0.34320181458255111 -0.44682873914079141 0.099329170738978498 -0.039269989506849109 -0.63559246129588198 0.033345811637589672 -0.24429201625256389 0.088718194818838747 0.13853990879233255 -0.24297487092511852 0.087994719808430572 -0.080106474815753975 -0.27558474928197291 -0.12872258786686738
leaf_weight=269.56168765906477 1576.0212239071261 979.43142211128725 1364.8637501557241 1243.9009980524424 2835.4168598540709 2958.3702860103222 725.48942159517901 829.60280613962095 1519.7004849275108 1387.9854436384048 1488.7781633721897 1651.5815881587332 425.12385312491097 1583.9272201240528 3738.2505403438117 3334.4498350432841 1059.0823267153464 1290.1362598379492 344.52717824903084 1119.022375507222 1852.0769914308912 1524.4274560480262 554.53402726748027 78.465878126851749 806.86304107197793 1476.4461236943607 720.74715580313932 605.66425902093761 1044.2122816363117 2004.1960879171093 2898.77497950627 735.1530231803772 500.46499272622168 1171.9750860847416 1113.9364910125732 121.73087120777927 109.98621227999683
leaf_count=4421 11429 6868 6649 13580 28358 12265 4211 9151 9433 4883 11119 10928 10554 15068 31638 11323 7168 10994 34971 8832 10940 10362 166620 8408 11329 9583 7838 10585 5266 24619 11951 6973 7786 9058 7584 17750 7077
internal_value=0 0.00926007 0.0512871 0.0257775 0.0563758 -0.0295619 -0.106499 -0.13788 0.0187134 -0.00789115 0.0332388 0.168304 -0.213027 0.107135 0.163446 -0.0531153 0.090055 -0.00228007 -0.339151 -0.0509341 0.11948 -0.129524 -0.2859 -0.428332 -0.252005 0.231455 -0.261315 -0.36914 -0.0780472 -0.147678 0.00381362 -0.0405429 -0.437211 0.207946 -0.193481 -0.684593 -0.527845
internal_weight=0 48032.3 23123.1 20281.8 16971.1 24909.2 9640.58 8915.09 15268.7 13749 11435.4 5861.69 2313.57 6898.2 5314.27 6292.82 4210.11 11109.4 2622.27 7967.15 3142.21 3310.72 1012.55 742.986 1786.29 2841.31 2156.01 1435.27 4537.19 3048.41 5734.19 1979.05 925.589 2231.06 2232.96 466.258 664.52
internal_count=597572 411046 171157 154925 126366 239889 108094 103883 131795 122362 99139 47707 23223 58135 43067 23588 36779 78659 80295 56725 21934 28559 186526 182105 18197 16232 27574 19736 41004 29885 40309 20553 18340 16226 16416 52721 173697
is_linear=0
shrinkage=0.65


Tree=9
num_leaves=19
num_cat=0
split_feature=139 138 139 138 138 32 84 72 100 37 19 136 10 10 92 139 129 129
split_gain=145.746 186.745 108.154 377.488 347.228 120.629 228.326 117.953 171.088 158.548 117.916 166.988 113.097 168.721 79.5295 151.413 73.6422 32.2071
threshold=24.500000000000004 2.5000000000000004 74.500000000000014 15.500000000000002 19.500000000000004 2.5000000000000004 59.351696014404304 19.03380107879639 0.99846950173378002 1.4499999880790713 25.515949249267582 -0.42002692818641657 772.50000000000011 196.50000000000003 4.4750990867614755 69.500000000000014 8212.5000000000018 3249.5000000000005
decision_type=2 2 2 2 2 2 2 2 2 2 2 2 2 2 2 2 2 2
left_child=-1 -2 3 -3 -5 7 -7 9 12 10 11 -4 13 -9 15 17 -8 -6
right_child=1 2 5 4 14 6 16 8 -10 -11 -12 -13 -14 -15 -16 -17 -18 -19
leaf_value=-0.3100392396314432 0.17900922867359606 -0.042065314153048677 -0.13793714646959113 0.65144606400199689 -0.16993760243425413 0.40208511569097222 0.1219757791985852 0.11335357545123234 -0.35020024164770558 0.21344380529515894 0.23703206391681184 -0.0008501269274537749 0.088808375145130833 -0.17736502057712733 -0.094799104707650447 0.63185389104056922 -0.1506589396900381 0.17844133040706203
leaf_weight=618.18051628465764 2515.1872907811776 3642.3586996532977 4510.3805483940523 767.98600251274183 221.26502105372492 824.94427846587496 820.34113914563204 1076.3688166762586 990.91942761503742 1321.7018196630816 747.27565050453995 22749.23697038168 1609.3139456268691 3612.8312933898997 528.05325336370151 253.38659221382113 840.37243934196886 220.57308587658918
leaf_count=3194 14367 12571 243998 3868 9279 5746 8422 8138 13629 12230 7783 176017 12469 32591 11130 4841 9053 8246
internal_value=0 0.0067585 -0.00283025 0.0812111 0.308822 -0.0150667 0.123087 -0.0245859 -0.0986078 -0.00601545 -0.0165671 -0.0237225 -0.0581048 -0.109576 0.0886589 0.234686 -0.0131195 0
internal_weight=0 47252.5 44737.3 5633.62 1991.26 39103.7 2485.66 36618 7289.43 29328.6 28006.9 27259.6 6298.51 4689.2 1223.28 695.225 1660.71 441.838
internal_count=597572 594378 580011 49935 37364 530076 23221 506855 66827 440028 427798 420015 53198 40729 33496 22366 17475 17525
is_linear=0
shrinkage=0.65


end of trees

feature_importances:
Column_138=46
Column_136=29
Column_139=25
Column_137=19
Column_127=9
Column_130=9
Column_129=8
Column_10=5
Column_12=5
Column_65=4
Column_125=4
Column_126=4
Column_14=3
Column_72=3
Column_92=3
Column_100=3
Column_105=3
Column_107=3
Column_118=3
Column_123=3
Column_13=2
Column_15=2
Column_19=2
Column_20=2
Column_53=2
Column_54=2
Column_73=2
Column_103=2
Column_111=2
Column_114=2
Column_117=2
Column_16=1
Column_17=1
Column_24=1
Column_25=1
Column_30=1
Column_32=1
Column_34=1
Column_37=1
Column_40=1
Column_44=1
Column_48=1
Column_49=1
Column_50=1
Column_52=1
Column_55=1
Column_57=1
Column_58=1
Column_59=1
Column_60=1
Column_64=1
Column_67=1
Column_69=1
Column_75=1
Column_79=1
Column_84=1
Column_87=1
Column_89=1
Column_91=1
Column_94=1
Column_108=1
Column_109=1
Column_112=1
Column_113=1
Column_115=1
Column_116=1
Column_119=1
Column_120=1
Column_131=1
Column_132=1
Column_134=1
Column_135=1

parameters:
[boosting: gbdt]
[objective: binary]
[metric: binary_logloss]
[tree_learner: serial]
[device_type: cpu]
[data: ]
[valid: ]
[num_iterations: 10]
[learning_rate: 0.65]
[num_leaves: 64]
[num_threads: 0]
[deterministic: 0]
[force_col_wise: 0]
[force_row_wise: 0]
[histogram_pool_size: -1]
[max_depth: 8]
[min_data_in_leaf: 7580]
[min_sum_hessian_in_leaf: 77.1]
[bagging_fraction: 1]
[pos_bagging_fraction: 1]
[neg_bagging_fraction: 1]
[bagging_freq: 0]
[bagging_seed: 3]
[feature_fraction: 1]
[feature_fraction_bynode: 1]
[feature_fraction_seed: 2]
[extra_trees: 0]
[extra_seed: 6]
[early_stopping_round: 5]
[first_metric_only: 0]
[max_delta_step: 0]
[lambda_l1: 7.4]
[lambda_l2: 3.2]
[linear_lambda: 0]
[min_gain_to_split: 1.4]
[drop_rate: 0.1]
[max_drop: 50]
[skip_drop: 0.5]
[xgboost_dart_mode: 0]
[uniform_drop: 0]
[drop_seed: 4]
[top_rate: 0.2]
[other_rate: 0.1]
[min_data_per_group: 100]
[max_cat_threshold: 32]
[cat_l2: 10]
[cat_smooth: 10]
[max_cat_to_onehot: 4]
[top_k: 20]
[monotone_constraints: ]
[monotone_constraints_method: basic]
[monotone_penalty: 0]
[feature_contri: ]
[forcedsplits_filename: ]
[refit_decay_rate: 0.9]
[cegb_tradeoff: 1]
[cegb_penalty_split: 0]
[cegb_penalty_feature_lazy: ]
[cegb_penalty_feature_coupled: ]
[path_smooth: 0]
[interaction_constraints: ]
[verbosity: -1]
[saved_feature_importance_type: 0]
[linear_tree: 0]
[max_bin: 255]
[max_bin_by_feature: ]
[min_data_in_bin: 3]
[bin_construct_sample_cnt: 200000]
[data_random_seed: 1]
[is_enable_sparse: 1]
[enable_bundle: 1]
[use_missing: 1]
[zero_as_missing: 0]
[feature_pre_filter: 0]
[pre_partition: 0]
[two_round: 0]
[header: 0]
[label_column: ]
[weight_column: ]
[group_column: ]
[ignore_column: ]
[categorical_feature: ]
[forcedbins_filename: ]
[precise_float_parser: 0]
[objective_seed: 5]
[num_class: 1]
[is_unbalance: 0]
[scale_pos_weight: 1]
[sigmoid: 1]
[boost_from_average: 1]
[reg_sqrt: 0]
[alpha: 0.9]
[fair_c: 1]
[poisson_max_delta_step: 0.7]
[tweedie_variance_power: 1.5]
[lambdarank_truncation_level: 30]
[lambdarank_norm: 1]
[label_gain: ]
[eval_at: 10]
[multi_error_top_k: 1]
[auc_mu_weights: ]
[num_machines: 1]
[local_listen_port: 12400]
[time_out: 120]
[machine_list_filename: ]
[machines: ]
[gpu_platform_id: -1]
[gpu_device_id: -1]
[gpu_use_dp: 0]
[num_gpu: 1]

end of parameters

pandas_categorical:null
