tree
version=v3
num_class=1
num_tree_per_iteration=1
label_index=0
max_feature_idx=139
objective=binary sigmoid:1
feature_names=Column_0 Column_1 Column_2 Column_3 Column_4 Column_5 Column_6 Column_7 Column_8 Column_9 Column_10 Column_11 Column_12 Column_13 Column_14 Column_15 Column_16 Column_17 Column_18 Column_19 Column_20 Column_21 Column_22 Column_23 Column_24 Column_25 Column_26 Column_27 Column_28 Column_29 Column_30 Column_31 Column_32 Column_33 Column_34 Column_35 Column_36 Column_37 Column_38 Column_39 Column_40 Column_41 Column_42 Column_43 Column_44 Column_45 Column_46 Column_47 Column_48 Column_49 Column_50 Column_51 Column_52 Column_53 Column_54 Column_55 Column_56 Column_57 Column_58 Column_59 Column_60 Column_61 Column_62 Column_63 Column_64 Column_65 Column_66 Column_67 Column_68 Column_69 Column_70 Column_71 Column_72 Column_73 Column_74 Column_75 Column_76 Column_77 Column_78 Column_79 Column_80 Column_81 Column_82 Column_83 Column_84 Column_85 Column_86 Column_87 Column_88 Column_89 Column_90 Column_91 Column_92 Column_93 Column_94 Column_95 Column_96 Column_97 Column_98 Column_99 Column_100 Column_101 Column_102 Column_103 Column_104 Column_105 Column_106 Column_107 Column_108 Column_109 Column_110 Column_111 Column_112 Column_113 Column_114 Column_115 Column_116 Column_117 Column_118 Column_119 Column_120 Column_121 Column_122 Column_123 Column_124 Column_125 Column_126 Column_127 Column_128 Column_129 Column_130 Column_131 Column_132 Column_133 Column_134 Column_135 Column_136 Column_137 Column_138 Column_139
feature_infos=[0:16] [0:6] [0:8] [0:8] [0:16] [0:1] [0:1] [0:1] [0:1] [0:1] [0:12923] [0:3233] [0:12917] [2:132] [3:25845] [-1.9397770166397095:98.653861999511719] [3.7259809970855713:159.86013793945312] [2.7613649368286133:152.07829284667969] [0.79833799600601196:166.13566589355469] [-1.9448369741439819:98.624855041503906] [0:2726] [0:110] [0:563] [0:10] [0:2730] [0:1083] [0:30] [0:49] [0:5] [0:1083] [0:1627] [0:64] [0:475] [0:6] [0:1629] [0:1083] [0:30] [0:140.75] [0:5] [0:1083] [0:661782.25] [0:638.75] [0:37744.1875] [0:9] [0:663410.25] [0:2] [0:2] [0:2] [0:1] [0:0.80995500087738037] [0:1] [0:1] [0:1] [0:0.57142901420593262] [0:0.60000002384185791] [0:1] [0:1] [0:1] [0:0.57142901420593262] [0:0.60000002384185791] [0:1] [0:1] [0:1] [0:0.57142901420593262] [0:0.60000002384185791] [0:0.25] [0:0.25] [0:0.25] [0:0.0625] [0:0.0625] [-502.57244873046875:16527.740234375] [0:955.788818359375] [0:4664.697265625] [0:77.544601440429688] [-503.66119384765625:16532.033203125] [-567.93853759765625:4774.43798828125] [0:223.21076965332031] [0:538.6591796875] [0:64.091140747070312] [-569.168701171875:4789.7236328125] [0:11113.951171875] [0:615.50018310546875] [0:3829.640380859375] [0:68.338874816894531] [0:11124.8037109375] [-281.26773071289062:5556.9755859375] [0:238.94720458984375] [0:1200.550537109375] [0:64.091140747070312] [-287.8358154296875:5562.40185546875] [0:30879978] [0:56952.48828125] [0:2417518.5] [0:1167.55029296875] [0:30940314] [0:1] [0:1] [0:1] [0:1] [0:1] [0:1] [0:1] [0:1] [0:1] [0:1] [-11.413535118103027:190.64485168457031] [0:60.223415374755859] [0:72.414131164550781] [0:49.223228454589844] [-11.416239738464355:191.38079833984375] [-194.15585327148438:0] [-118.54830169677734:0] [-158.66993713378906:0] [-132.80621337890625:0] [-194.16043090820312:0] [-187.41470336914062:0] [-111.64816284179688:0] [-156.41024780273438:0] [-130.16769409179688:0] [-187.39202880859375:0] [-205.81387329101562:0] [-137.58628845214844:0.70563399791717529] [-179.10939025878906:0] [-155.76138305664062:0] [-205.75247192382812:0] [1:31] [5:1383] [0:226244464] [0:170] [100:65534] [1:65535] [1:254] [1:254] [0:4344779] [0:2348975] [0:570000000] [-5.2530779838562012:5.1177492141723633] [0:1] [0:676] [1:679]
tree_sizes=3852 4652 4885 5008 4152 4140 2745 3479 1960 4549

Tree=0
num_leaves=35
num_cat=0
split_feature=138 138 138 139 139 136 137 139 139 138 138 139 138 136 138 139 137 138 138 130 136 139 139 130 138 139 138 139 136 138 138 139 136 136
split_gain=945200 35959.7 27763.8 14563 11449.8 5645.78 3795.27 3399.87 2950.54 2328.65 2235.03 1935.37 1483.18 1147.26 1132.31 1153.61 882.382 813.701 799.396 723.809 678.138 543.643 397.104 295.238 253.711 243.812 104.152 102.874 94.0049 81.0137 46.3905 27.2982 14.271 13.1932
threshold=32.500000000000007 21.500000000000004 49.500000000000007 123.50000000000001 116.50000000000001 -0.37545259296894068 0.63663238286972057 210.50000000000003 76.500000000000014 15.500000000000002 40.500000000000007 54.500000000000007 26.500000000000004 0.69182226061820995 26.500000000000004 164.50000000000003 0.59261286258697521 13.500000000000002 25.500000000000004 53438.500000000007 0.69182226061820995 118.50000000000001 157.50000000000003 47385.500000000007 56.500000000000007 177.50000000000003 37.500000000000007 79.500000000000014 0.79544910788536083 9.5000000000000018 11.500000000000002 86.500000000000014 -0.75402045249938954 1.2967478036880495
decision_type=2 2 2 2 2 2 2 2 2 2 2 2 2 2 2 2 2 2 2 2 2 2 2 2 2 2 2 2 2 2 2 2 2 2
left_child=1 5 3 16 8 11 13 10 18 20 19 -1 -10 24 25 -16 26 -13 -3 22 27 -11 -5 -12 32 -6 31 -7 -23 33 -29 -2 -4 -22
right_child=2 4 6 7 14 9 -8 -9 12 21 23 17 -14 -15 15 -17 -18 -19 -20 -21 29 28 -24 -25 -26 -27 -28 30 -30 -31 -32 -33 -34 -35
leaf_value=1.1350752096666634 -0.98669466325423172 0.23685086003778322 -1.2136957734500566 -0.062072997898010573 1.4568814433773885 1.8491863866688933 -0.1585887733696012 1.0074296497177606 0.99617672973975824 1.6240892359068995 -0.58846427494637021 1.8108613890968195 0.27719927872260031 -0.28895758704171293 0.86705003916891599 1.4294843419527621 -0.38761245991436732 1.4688611903618163 -0.59562730036407929 0.87788548208404127 1.9973704247762192 1.7884283491475814 0.54451874217684693 -0.05100001389415687 -1.2696651552808953 1.6812858492197276 -1.1372890173502792 1.9527079917977685 1.8916566835897415 1.9732944185328749 1.8904775159514737 -0.5109377551412071 -0.87913850355259515 2.0249728090836263
leaf_weight=2449.2909380719066 603.90158028155565 733.89995564520359 1067.5815141797066 748.06826470792294 3470.8665067702532 6425.8466724678874 1084.5677144378424 1873.093325316906 2054.7534437403083 5119.3238430917263 985.56789480894804 5726.4449171647429 1542.8927945718169 462.28000971674919 1899.3365007117391 2587.4646613448858 988.89333008974791 3397.3023158684373 851.99996880441904 883.27107933163643 24161.851258300245 6741.654641456902 757.01995819061995 801.38134443759918 29053.737371578813 2648.3458740115166 2607.6560503318906 19948.349880285561 6273.8585758805275 21001.281292445958 7935.3965502008796 542.53692220896482 1675.6933147087693 67833.732966065407
leaf_count=8261 5635 4191 11178 5310 7575 7847 8140 6868 7500 8871 8738 6043 9000 3665 7758 5736 7835 7479 6902 3571 11054 7399 3943 5689 319761 3670 25913 11714 4420 10640 6499 4524 15959 18284
internal_value=1.34317 1.86878 -0.952555 -0.182563 1.07378 1.93972 -1.20115 0.386654 0.404559 1.96572 0.11046 1.56757 0.684816 -1.23565 1.40099 1.19183 -0.904403 1.68421 -0.221354 0.467645 1.9887 1.77861 0.233778 -0.357892 -1.24882 1.55502 -1.03499 1.91945 1.83884 2.00964 1.93533 -0.781267 -1.01875 2.01783
internal_weight=0 192804 44135.2 10791.4 15789.6 177014 33343.9 6048.4 5183.55 165441 4175.31 11573 3597.65 32259.3 10606 4486.8 4742.99 9123.75 1585.9 2388.36 147306 18134.8 1505.09 1786.95 31797 6119.21 3754.09 34309.6 13015.5 112997 27883.7 1146.44 2743.27 91995.6
internal_count=597572 160843 436729 78026 52332 108511 358703 34119 27593 86728 27251 21783 16500 350563 24739 13494 43907 13522 11093 12824 66038 20690 9253 14427 346898 11245 36072 26060 11819 39978 18213 10159 27137 29338
is_linear=0
shrinkage=1


Tree=1
num_leaves=42
num_cat=0
split_feature=138 138 138 136 139 136 137 137 137 139 118 139 136 138 122 105 54 136 136 136 45 128 139 139 107 14 129 30 57 138 123 138 130 139 72 138 138 76 138 137 139
split_gain=117523 9443.26 6171.1 2418.34 2270.18 1732.69 1598.26 1484.81 877.232 1579.47 749.892 622.163 603.776 548.774 459.438 406.446 401.284 396.636 271.312 261.806 260.073 245.974 235.94 225.383 225.23 208.603 183.853 166.401 152.409 144.278 141.167 195.28 135.87 106.01 99.9711 91.0712 80.8639 58.1201 38.5406 30.9271 26.1418
threshold=23.500000000000004 44.500000000000007 15.500000000000002 0.14456526190042499 79.500000000000014 0.66794058680534374 0.7095412313938142 0.62707415223121654 0.51911526918411266 293.50000000000006 -17.596608161926266 63.500000000000007 -0.62252506613731373 19.500000000000004 -3.6317075490951534 18.514920234680179 0.0006244999822229148 1.099055349826813 0.28800094127655035 0.62382864952087413 0.016530499793589119 8.5000000000000018 152.50000000000003 133.50000000000003 8.4871239662170428 121.50000000000001 65427.500000000007 35.500000000000007 0.062996000051498427 30.500000000000004 -1.4916545152664182 86.500000000000014 53783.500000000007 124.50000000000001 17.810057640075687 10.500000000000002 12.500000000000002 12.707346916198732 8.5000000000000018 0.39460724592208868 92.500000000000014
decision_type=2 2 2 2 2 2 2 2 2 2 2 2 2 2 2 2 2 2 2 2 2 2 2 2 2 2 2 2 2 2 2 2 2 2 2 2 2 2 2 2 2
left_child=2 5 3 11 12 7 8 10 26 20 21 24 -4 23 22 -7 -12 36 28 33 -10 25 29 -6 -1 -2 30 32 -18 -9 37 -32 -22 -15 -27 -13 40 39 -19 -3 -5
right_child=1 6 4 17 13 15 -8 14 9 -11 16 35 -14 19 -16 -17 18 38 -20 -21 27 -23 -24 -25 -26 34 -28 -29 -30 -31 31 -33 -34 -35 -36 -37 -38 -39 -40 -41 -42
leaf_value=0 -0.26698894639272275 -0.70418950151022019 -0.54142531731133925 0.48115353112896631 0.24894256741396617 0.26888829833124561 0.22793903301469109 -0.11565233799768265 -0.29672732599926394 0.23807471295312527 -0.010203728319332224 0.43139744479002162 -0.018830514477130786 -0.028374983908610645 0.18439476501954868 -0.051630999671571143 -0.20550222449018374 0.6018807551038623 -0.15349564923352182 0.2785516639940957 -0.70956645800735463 -0.23533716534069793 0.032827653495553367 0.41623826505426437 0.26506017700535722 -0.66209634110697879 -0.32214166270008515 -0.3648274647593221 -0.48848750091087012 -0.38232315625645008 -0.18821870909825131 -0.67191435197005178 -0.46271429482722876 0.14380828623226918 -0.45269374212523722 0.32298579082285228 0.44545959220229242 -0.43863235016074953 0.55325757426220501 -0.65047640872513213 0.54021596652547577
leaf_weight=1887.0736851990223 729.84505516290665 19223.738631308079 1283.1638677120209 5360.0568083077669 4309.5273636505008 2561.0809009820223 657.88912646472454 1474.2148177921772 1113.626403644681 867.24780634045601 1830.0125284045935 7278.6608901284635 1422.4133578762412 1981.4385034441948 2038.1023459210992 2201.9995922297239 868.3346189558506 46263.203245602548 2090.9247714728117 2911.4120160117745 3178.7917285710573 946.17650378495455 1572.5837669670582 6379.5428601242602 1926.6431546099484 2919.2843286693096 522.89175238460302 868.53277917206287 2312.1992958262563 1139.5532386675477 494.27602346986532 604.44417318701744 1099.9633269235492 2283.8259137198329 1239.3048702180386 4361.258117120713 5571.9692727290094 444.55214494466782 10125.154699496925 10143.396355770528 19640.364867284894
leaf_count=5353 3610 201747 5682 7212 7772 4367 2024 4968 8529 4287 7050 8115 3965 5403 4915 7036 4254 20673 7319 4525 28521 4663 4271 6784 3958 20046 4694 6703 12803 6018 3990 6670 8532 4628 6915 6676 6284 4052 6585 101458 14515
internal_value=0 -0.448742 0.474274 0.529515 0.198947 -0.17608 -0.614882 -0.249926 -0.629416 -0.452263 -0.356098 0.328073 -0.269152 0.270163 -0.0284258 0.12004 -0.23451 0.565228 -0.311458 0.151236 -0.54874 -0.5028 -0.13318 0.349436 0.133236 -0.55321 -0.669319 -0.601862 -0.413302 -0.234381 -0.674965 -0.461288 -0.64816 0.0629766 -0.601781 0.391408 0.513138 -0.682562 0.593312 -0.685981 0.527894
internal_weight=0 63143 122986 102414 20571.3 23923.6 39219.4 19160.5 38561.5 7128.16 12936.1 15453.6 2705.58 17865.7 6224.45 4763.08 7101.47 86960.7 5271.46 7176.68 6260.91 5834.61 4186.35 10689.1 3813.72 4888.43 31433.3 5147.29 3180.53 2613.77 30910.4 1098.72 4278.76 4265.26 4158.59 11639.9 30572.4 29811.7 56388.4 29367.1 25000.4
internal_count=597572 479442 118130 79371 38759 98235 381207 86832 379183 56572 66660 24102 9647 29112 20172 11403 31426 55269 24376 14556 52285 35234 15257 14556 9311 30571 322611 43756 17057 10986 317917 10660 37053 10031 26961 14791 28011 307257 27258 303205 21727
is_linear=0
shrinkage=0.55


Tree=2
num_leaves=44
num_cat=0
split_feature=138 138 136 137 139 138 136 136 138 9 14 59 138 139 91 136 139 138 113 128 136 126 138 130 83 74 137 139 138 136 70 130 139 136 122 15 13 126 88 138 139 136 17
split_gain=49451.9 10118.7 3522.79 2070.68 1348.33 1284.82 956.464 718.881 685.229 560.235 413.228 400.278 378.601 376.18 321.81 237.113 208.246 206.444 205.615 304.581 203.791 194.92 157.425 145.808 141.407 139.036 137.506 128.593 115.274 110.3 134.833 105.76 94.4739 67.5256 63.4622 52.704 59.2063 39.3428 22.0311 19.2666 18.3024 17.0217 14.0538
threshold=18.500000000000004 60.500000000000007 0.380178913474083 0.45472685992717748 323.50000000000006 34.500000000000007 -0.96915403008460987 -0.72283080220222462 11.500000000000002 0.52272748947143566 8.5000000000000018 0.073775000870227828 38.500000000000007 140.50000000000003 1.5392190217971804 -0.1269511282444 156.50000000000003 12.500000000000002 -2.9956585168838497 2.5000000000000004 1.1869051456451418 29.500000000000004 28.500000000000004 51133.500000000007 7.9643986225128183 48.531049728393562 0.56955787539482128 70.500000000000014 68.500000000000014 -0.37545259296894068 41.690563201904304 48903.500000000007 133.50000000000003 0.031379718333482749 -1.7147915363311765 21.858800888061527 7.5000000000000009 31.500000000000004 1.9423085451126101 6.5000000000000009 101.50000000000001 1.8025985956192019 13.600212097167971
decision_type=2 2 2 2 2 2 2 2 2 2 2 2 2 2 2 2 2 2 2 2 2 2 2 2 2 2 2 2 2 2 2 2 2 2 2 2 2 2 2 2 2 2 2
left_child=2 3 6 7 5 13 -1 37 20 16 -3 14 25 15 -11 26 -7 27 28 34 40 -14 31 -17 -13 -9 -5 -8 29 -12 -31 -15 -10 -19 -20 -30 -37 -2 -39 -29 -4 -22 -23
right_child=1 10 8 4 -6 9 17 12 32 11 18 24 21 22 -16 23 -18 33 19 -21 41 42 -24 -25 -26 -27 -28 39 35 30 -32 -33 -34 -35 -36 36 -38 38 -40 -41 -42 -43 -44
leaf_value=-0.077844765662173396 -0.40507990920849535 0.012358065255708121 0.42190838566722461 -0.26048793612061266 0.42881403307264221 -0.1294809066263089 0.21411535752953328 0.061759215901711823 0.29624053461881222 -0.39468715372826846 -0.57754996091842425 -0.19601277960191482 -0.13753318540079679 0.076611817103546934 -0.048524894864538197 -0.037664786688136505 0.24167220077919108 0.13627359707443884 -0.30952853560210136 0.030630104505516453 0.52862194687024455 -0.42294933697961395 -0.0086001136880900723 0.1318852279683734 0.12609119100577115 -0.19641272367258322 -0.067605541673211811 0.39332373091109724 -0.62240531951935529 -0.030317646421283675 -0.4719830975844167 0.21652076860684294 0.41027330605045526 0.25962699117688881 -0.61847174226006929 -0.24415214284347886 -0.59231581220898388 -0.6438024353268913 -0.44711476610151507 0.32259301032811094 0.48551913130022234 0.56986522981223431 -0.61213062979425048
leaf_weight=2722.1029519811273 595.67331748828292 349.91266057267785 3827.3854043111205 1745.2380549795926 1828.7544609494507 890.45324537530541 2892.8473021425307 1225.3009207993746 3840.5019094310701 5481.0431500598788 1214.5422494374216 816.42526630312204 623.50833046063781 3460.9406078197062 988.89141887053847 4261.0259542539716 908.2922450453043 3525.6644968949258 407.12110205367208 395.80006675049663 12397.95649971813 583.66152505576611 2739.2415860816836 2370.5487724430859 804.26638209074736 1250.2839267477393 3345.0559129007161 3571.773662135005 14911.542315676808 361.95666474848986 569.13962138071656 3342.190299410373 7335.489779047668 2489.4412428811193 758.21735359355807 352.07623736187816 395.55972039327025 1809.3142772242427 478.40334937721491 4365.2524946071208 10348.100388754159 17675.860895656049 629.30446227639914
leaf_count=7998 6090 3975 6816 8570 2797 6285 6622 3946 7309 43651 18616 5273 5338 7912 6345 13324 3190 7855 6052 4261 11741 5870 7879 5848 3916 5657 11896 4678 243531 4184 7635 5771 8296 4511 11610 4957 6288 20383 5097 7099 10656 10410 7434
internal_value=0 -0.24576 0.424427 -0.0872334 -0.0287415 -0.0558472 0.223272 -0.354412 0.49532 -0.219568 -0.56842 -0.28132 -0.210049 0.020164 -0.342547 -0.0455877 0.0559548 0.272189 -0.579124 -0.376339 0.526364 -0.399097 0.101326 0.0224269 -0.033858 -0.0672305 -0.134878 0.318204 -0.596477 -0.463612 -0.306552 0.146138 0.371721 0.188312 -0.517205 -0.614146 -0.438592 -0.567572 -0.606357 0.355344 0.46891 0.553161 -0.528216
internal_weight=0 59893.7 74992.4 40177.8 32982.4 31153.6 19567.1 7195.45 55425.3 9889.37 19715.9 8090.63 4312.06 21264.2 6469.93 11721.9 1798.75 16845 19366 1561.14 44249.3 1836.47 9542.37 6631.57 1620.69 2475.58 5090.29 10829.9 17804.8 2145.64 931.096 6803.13 11176 6015.11 1165.34 15659.2 747.636 2883.39 2287.72 7937.03 14175.5 30073.8 1212.97
internal_count=597572 503581 93991 192472 132657 129860 38763 59815 55228 68660 311109 59185 28245 61200 49996 39638 9475 30765 307134 21923 39623 18642 21562 19172 9189 9603 20466 18399 285211 30435 11819 13683 15605 12366 17662 254776 11245 31570 25480 11777 17472 22151 13304
is_linear=0
shrinkage=0.55


Tree=3
num_leaves=45
num_cat=0
split_feature=138 138 136 137 139 130 125 138 114 138 139 138 78 131 13 138 15 136 138 139 0 105 101 15 126 122 40 136 129 138 17 11 139 105 136 130 138 139 63 128 129 50 139 10
split_gain=21055.5 6485.72 2998.69 901.289 632.707 607.815 714.06 641.961 474.076 462.208 395.102 427.041 394.633 368.192 258.21 257.324 245.019 451.368 254.896 291.464 309.534 244.501 230.812 162.093 151.666 147.836 143.723 131.729 128.128 126.367 118.39 113.229 105.745 90.7089 85.3155 72.786 69.6448 54.9893 52.8861 44.5773 23.4173 23.1983 10.2764 6.81341
threshold=17.500000000000004 60.500000000000007 0.64471247792243969 0.40621437132358557 47.500000000000007 39753.000000000007 2.5000000000000004 36.500000000000007 -1.7320345044136045 9.5000000000000018 243.50000000000003 44.500000000000007 10.327492237091066 28.500000000000004 5.5000000000000009 9.5000000000000018 21.858800888061527 -0.64244353771209706 68.500000000000014 140.50000000000003 1.5000000000000002 19.559783935546879 0.25721499323844915 7.8062078952789316 24.500000000000004 -16.075524330139157 0.26785700023174291 1.5073764324188235 2910.5000000000005 31.500000000000004 15.623461723327638 2.5000000000000004 190.50000000000003 13.247184276580812 1.0000000180025095e-35 61160.500000000007 13.500000000000002 127.50000000000001 0.21825399994850161 4.5000000000000009 65427.500000000007 0.0094655002467334288 111.50000000000001 121.50000000000001
decision_type=2 2 2 2 2 2 2 2 2 2 2 2 2 2 2 2 2 2 2 2 2 2 2 2 2 2 2 2 2 2 2 2 2 2 2 2 2 2 2 2 2 2 2 2
left_child=2 3 4 12 -1 7 21 14 16 27 11 22 29 31 30 34 18 -18 19 -3 -21 24 -8 -16 -7 -17 -23 42 -25 -2 -5 32 -9 -26 -6 -13 -11 41 40 43 -20 -27 -4 -31
right_child=1 8 9 5 15 6 10 13 -10 36 -12 35 -14 -15 23 25 17 -19 38 20 -22 26 -24 28 33 37 -28 -29 -30 39 -32 -33 -34 -35 -36 -37 -38 -39 -40 -41 -42 -43 -44 -45
leaf_value=-0.098571906200596637 -0.24080100941151283 -0.53629834233037488 0.39417165532060305 -0.015555966795834694 0.21771842696459831 0.32958229429371472 -0.089025356619333321 -0.38576272729990863 0.0047175377802352418 0.38416428670820119 0.23116009383177591 -0.46155520617181223 0.019586336659401755 -0.017943592911125537 -0.26233965693118733 0.037428856608731617 -0.51164016653687494 0.41254907788427214 -0.57848558499719205 0.29801483602443835 -0.40646426651791973 0.16594901235440654 0.10665198002620381 -0.13605331572222881 0.052387675210058084 0.10066590519748485 -0.087710751392937172 0.53075172080076627 0.022555625389205712 -0.37909553007823577 0.16997262801132165 -0.15233244867667686 -0.71307630204485239 0.24660518268870682 0.3393889045652016 -0.15315492678943424 0.27206663858059194 0.25322093002996637 -0.21313649055455416 -0.29895283354270874 -0.31625615921683453 0.19318638499886773 0.45881949110339798 -0.58474220560524992
leaf_weight=2210.5408923197538 1044.8928887061775 867.90811391174793 2936.6339988578111 1984.0827049836516 3493.8604940697551 2706.1255219690502 6574.001061655581 1834.1757413633168 537.89196655154228 4665.4255940169096 1416.0184521563351 896.73624452576041 855.04531515389681 1107.2635303735733 1389.8327449932694 2642.4012674540281 438.48137199133635 236.35958155244589 9571.9438131861389 356.86804453283548 376.58013299480081 1262.6902379449457 2499.5065529681742 2923.208877325058 1600.2454917356372 1991.6239558048546 1415.4668519757688 13442.550630284473 3166.3032425194979 263.37832303345203 2094.2229835893959 528.66988450661302 422.62417520210147 1445.129532540217 4390.845946919173 388.32371146604419 3415.3196148611605 2860.8592853955925 175.40027211606503 398.27352053299546 209.72580640390515 1919.7240935247391 6348.9641696661711 1072.040598127991
leaf_count=7381 5689 19471 6875 5675 7141 5807 27029 22338 7800 7925 3170 11295 5716 8688 5482 6914 10150 2859 252336 4469 6643 3802 7159 11960 5573 5070 6407 14508 10662 3645 5392 4688 3697 4068 8375 3799 6340 5061 3336 5632 4045 4761 8774 19965
internal_value=0 -0.152747 0.346106 -0.0419125 0.176923 -0.015165 0.0474893 -0.0973404 -0.493122 0.453027 -0.039717 -0.0773071 -0.302567 -0.290372 -0.0317982 0.212395 -0.515331 -0.180827 -0.534354 -0.321652 -0.0587522 0.169694 -0.0346211 -0.0927154 0.233643 0.149853 0.0305247 0.493721 -0.053004 -0.402905 0.0788823 -0.396803 -0.451443 0.146338 0.2863 -0.37322 0.337645 0.193011 -0.567832 -0.496521 -0.573575 0.147453 0.439214 -0.55002
internal_weight=0 52059.4 50318.7 39288.3 19509.9 35654.6 20204.2 15450.4 12771.2 30808.9 11774.6 10358.6 3633.63 3892.73 11557.7 17299.3 12233.3 674.841 11558.4 1601.36 733.448 8429.66 9073.51 7479.34 5751.5 9414.61 2678.16 22728.1 6089.51 2778.59 4078.31 2785.47 2256.8 3045.38 7884.71 1285.06 8080.75 6772.21 9957.07 1733.69 9781.67 3911.35 9285.6 1335.42
internal_count=597572 508447 89125 197338 44703 156691 78109 78582 311109 44422 52452 49282 40647 39411 39171 37322 303309 13009 290300 30583 11112 25657 34188 28104 15448 21806 10209 30157 22622 34931 11067 30723 26035 9641 15516 15094 14265 14892 259717 29242 256381 9831 15649 23610
is_linear=0
shrinkage=0.55


Tree=4
num_leaves=37
num_cat=0
split_feature=138 138 136 133 137 113 137 13 115 136 139 79 68 138 130 136 138 109 15 135 136 118 123 109 60 8 138 138 123 139 92 12 115 127 10 135
split_gain=8872.12 3986.5 1965.57 606.131 609.947 583.494 551.922 738.447 533.289 388.417 320.131 291.309 288.925 284.375 247.737 216.787 211.77 200.277 158.068 150.904 144.626 114.851 90.2713 83.7277 78.3029 75.3848 69.8207 63.089 54.3576 48.2909 39.6214 42.3316 18.4502 14.8517 6.72519 2.39891
threshold=14.500000000000002 60.500000000000007 0.87946742773056041 1.0000000180025095e-35 0.67181190848350536 -21.921838760375973 0.38886125385761267 4.5000000000000009 -10.608783721923826 1.1419468522071841 44.500000000000007 2.8215080499649052 0.0059965001419186601 24.500000000000004 61452.500000000007 1.8025985956192019 29.500000000000004 11.892197608947756 20.065599441528324 22.7537956237793 -0.13680195063352582 -31.515265464782711 -4.3695454597473136 19.696809768676761 0.0096959997899830359 0.23611100018024447 5.5000000000000009 8.5000000000000018 -35.457201004028313 97.500000000000014 41.005254745483406 1.5000000000000002 -13.288772106170653 28280.500000000004 460.50000000000006 2.4100000858306889
decision_type=2 2 2 2 2 2 2 2 2 2 2 2 2 2 2 2 2 2 2 2 2 2 2 2 2 2 2 2 2 2 2 2 2 2 2 2
left_child=2 3 10 4 5 14 33 8 35 11 -1 17 19 -13 16 27 21 -7 22 30 24 -2 23 -6 -12 -18 -22 32 -25 -28 31 -9 -4 -3 -31 -8
right_child=1 6 15 -5 18 9 7 12 -10 -11 20 13 -14 -15 -16 -17 25 -19 -20 -21 26 -23 -24 28 -26 -27 29 -29 -30 34 -32 -33 -34 -35 -36 -37
leaf_value=-0.065247037973544073 -0.27453772435833684 -0.5679690247706769 0.34992670407616949 0.25950968414367898 -0.090427125681644391 -0.020564058251246194 -0.25539896783952426 -0.17962517978501791 0.4949263012110251 0.23083211329484329 0.012262573978232728 0.0071278118769924816 0.23494436197817631 -0.14394238904961176 0.09194543426132204 0.50404549542969079 -0.43725884413606197 0.18560618953659244 0.21571398159512511 -0.05994564600812545 0.29337974157304714 -0.046611018187900463 0.16737397517963112 -0.033472502244025849 0.15908315923693958 -0.20412238931408233 0.10076928797378069 0.30115423856513418 0.086807620785622042 0.1885352849970002 -0.14382942426695669 -0.51282730618869055 0.43597984065763717 -0.24229571583772699 0.25060522397640406 -0.53272328938739599
leaf_weight=1798.0907061528414 1283.1523778494447 4252.6322028469294 2199.5241415128112 2348.7781679499894 1527.4036511536688 3925.9946940708905 131.62355592101812 174.67869145981967 552.79027255997062 1603.6026290617883 1939.8945616707206 5943.8067706376314 194.08927522227168 10059.730877492577 653.58933875523508 6697.0980671346188 1854.2696313224733 2202.2033396363258 2194.5430732723325 318.76388713158667 2919.1352447587997 1502.8872759994119 1609.486186908558 1505.1336700711399 2738.5570340808481 673.15638887323439 1703.3284696433693 3297.6699249651283 4120.3820720911026 2591.9339112509042 146.39640269242227 2452.9928197786212 3802.8379130829126 106.04848782159388 1870.4106250815094 143.22973538003862
leaf_count=5878 5895 184885 6000 5572 5028 21256 4390 4581 8925 2890 5200 16340 5193 74187 3946 10771 27362 11011 5265 8839 6971 5131 3452 5254 6415 7342 6053 7832 12054 6568 4501 80493 8443 4100 4347 5202
internal_value=0 -0.07951 0.290784 -0.0114468 -0.0272533 -0.0682395 -0.424124 -0.27671 0.182746 -0.0293549 0.151077 -0.0484773 -0.393818 -0.0876074 -0.221954 0.426269 -0.26142 0.0530248 0.0834469 -0.435155 0.179658 -0.153588 0.0496693 0.0224392 0.0992135 -0.377714 0.220499 0.36939 0.0539017 0.184957 -0.476475 -0.49291 0.405694 -0.561493 0.215914 -0.426563
internal_weight=0 51481.4 31558.5 43008.1 40659.3 29702.4 8473.25 4114.56 827.644 23735.3 15561.4 22131.7 3286.92 16003.5 5967.06 15997.1 5313.47 6128.2 10956.9 3092.83 13763.3 2786.04 8762.41 7152.92 4678.45 2527.43 9084.81 9300.03 5625.52 6165.67 2774.07 2627.67 6002.36 4358.68 4462.34 274.853
internal_count=597572 523094 74478 211985 206413 175360 311109 122124 18517 125684 41432 122794 103607 90527 49676 33046 45730 32267 31053 98414 35554 11026 25788 22336 11615 34704 23939 22275 17308 16968 89575 85074 14443 188985 10915 9592
is_linear=0
shrinkage=0.55


Tree=5
num_leaves=37
num_cat=0
split_feature=138 138 136 137 126 138 139 128 60 19 125 13 129 13 125 43 136 130 83 110 12 136 116 109 82 104 118 137 131 138 127 7 112 112 127 128
split_gain=3593.71 2403.37 1254.65 784.544 424.288 363.533 421.417 303.012 271.758 228.439 363.675 425.613 282.355 273.447 220.836 216.76 177.517 171.187 174.473 168.854 154.104 131.156 87.0514 80.2508 75.2617 104.317 51.5396 50.4749 101.707 48.9787 48.2731 45.0526 29.4974 20.8655 12.4247 5.85334
threshold=12.500000000000002 94.500000000000014 1.099055349826813 0.31095136702060705 36.500000000000007 44.500000000000007 254.50000000000003 6.5000000000000009 0.0073625000659376392 17.813152313232425 1.5000000000000002 4.5000000000000009 31161.000000000004 4.5000000000000009 2.5000000000000004 0.61166650056839 0.36465834081172949 65532.500000000007 13.404884338378908 -5.4662780761718741 7.5000000000000009 2.1117364168167119 -7.579399347305297 27.411198616027836 7.2324614524841317 0.83724901080131542 -21.629206657409664 0.50013595819473278 15.500000000000002 5.5000000000000009 474.50000000000006 0.6333335041999818 -10.192202568054197 -3.5043070316314693 5.5000000000000009 1.5000000000000002
decision_type=2 2 2 2 2 2 2 2 2 2 2 2 2 2 2 2 2 2 2 2 2 2 2 2 2 2 2 2 2 2 2 2 2 2 2 2
left_child=2 3 16 23 7 8 15 9 24 10 12 -12 -5 -11 20 19 22 18 -10 -7 -9 26 29 30 25 -6 -4 -3 -29 -1 33 -31 -18 -2 -34 -28
right_child=1 27 21 4 5 6 -8 14 17 13 11 -13 -14 -15 -16 -17 32 -19 -20 -21 -22 -23 -24 -25 -26 -27 35 28 -30 31 -32 -33 34 -35 -36 -37
leaf_value=0.16932047988423077 -0.58159516120078036 -0.55624382407286699 0.24111975378656902 -0.012646646160789043 -0.29212010393075094 -0.38101921849422882 0.29347841228382898 0.11984541171590857 -0.031958935240639752 0.38915804486529121 0.25604913533608059 -0.0078752967456462812 -0.28461064867194297 -0.00071881795091990311 0.0085944574953345006 0.31097289193482403 0.12766364712567707 0.1665707421125803 0.14704919586665252 -0.059194823515778719 0.37081241782604102 0.49172120538653891 -0.035153493486452858 -0.14139926047110823 -0.036832336846833222 -0.067527956948826157 0.32483644032340148 -0.5041034630676221 0.036007204319019361 0.0017509868716853057 -0.10607141872835242 0.12478677556840519 0.17875094909181666 -0.335603109343932 0.26227745072066727 0.40487562071406341
leaf_weight=2001.8894100468606 723.37737544998527 2523.530697317794 1486.4704033276066 2811.6717620193958 1598.8734481371939 2379.5154094751924 429.5101241292432 1383.3011218048632 13362.773180189542 1045.2600132459775 2450.8857752075419 7323.7839129082859 1992.0048392377794 1081.9028016980737 1576.93616183009 165.094626811333 1538.7173888450488 1859.626350261271 1866.2181453481317 665.63874049577862 1784.5255397912115 2930.4827383570373 1909.0298780929297 322.65930820815265 1317.1156284669414 1125.2317929994315 1568.3629093240015 274.88934503402561 144.79730834253132 2014.2753325328231 127.38364811893553 1726.5127530405298 1514.7286007702351 291.02988292742521 2022.2676667971537 2365.8147367667407
leaf_count=5198 30796 172865 6324 18371 8690 73809 3667 5801 53940 2897 7862 48543 14775 6680 8297 2433 5541 5085 6041 13838 5589 6812 5952 7953 5998 5418 4887 9640 3598 6003 3997 5054 5276 6332 6578 7032
internal_value=0 -0.0421692 0.228017 -0.0122649 0.000241949 -0.0486998 -0.209141 0.0569435 -0.0207929 0.0217897 -0.00254642 0.0580594 -0.126593 0.189789 0.179583 -0.278284 0.118727 0.00933815 -0.00968161 -0.312386 0.263153 0.393785 0.064908 -0.407351 -0.148947 -0.201366 0.339362 -0.523768 -0.31142 0.0988819 -0.477276 0.0597852 0.198802 -0.51857 0.228199 0.374814
internal_weight=0 50627.5 21078.6 47684.3 46219.9 24769.6 3639.76 21450.3 21129.8 16705.5 14578.3 9774.67 4803.68 2127.16 4744.76 3210.25 12727.4 17088.6 15229 3045.15 3167.83 8351.13 7651.71 1464.45 4041.22 2724.11 5420.65 2943.22 419.687 5742.68 1141.79 3740.79 5075.71 1014.41 3537 3934.18
internal_count=597572 532915 64657 346812 297734 178919 93747 118815 85172 99128 89551 56405 33146 9577 19687 90080 39602 65066 59981 87647 11390 25055 22207 49078 20106 14108 18243 186103 13238 16255 41125 11057 17395 37128 11854 11919
is_linear=0
shrinkage=0.55


Tree=6
num_leaves=24
num_cat=0
split_feature=136 138 133 137 138 137 100 130 138 139 129 17 138 84 120 137 121 19 137 136 139 136 14
split_gain=1622 1423.72 546.42 402.961 276.96 244.099 289.041 367.035 427.251 334.705 320.639 123.32 113.066 84.2043 126.492 74.8852 96.4512 66.2876 61.601 54.1954 53.1049 41.5106 12.5721
threshold=1.3587905764579775 94.500000000000014 1.0000000180025095e-35 0.29853270947933203 7.5000000000000009 0.69608354568481456 0.45153300464153295 52225.500000000007 45.500000000000007 169.50000000000003 61105.500000000007 14.082058906555178 37.500000000000007 19.883527755737308 -8.690518379211424 0.50013595819473278 -2.813409566879272 7.2615978717803964 0.77856367826461803 -0.50265175104141224 120.50000000000001 2.1117364168167119 8.5000000000000018
decision_type=2 2 2 2 2 2 2 2 2 2 2 2 2 2 2 2 2 2 2 2 2 2 2
left_child=1 2 3 12 21 6 10 8 -8 -9 11 -5 -1 14 -7 22 -17 -4 19 -15 -20 -2 -3
right_child=4 15 17 5 -6 13 7 9 -10 -11 -12 -13 -14 18 -16 16 -18 -19 20 -21 -22 -23 -24
leaf_value=-0.15807751751648697 0.32131389044026593 -0.078908630913636396 0.29160560786022444 -0.12964106417886831 0.14654606188440725 -0.13847596207091814 -0.061151150450202155 -0.035328449152255977 -0.30320344588587744 0.1821874913436102 0.32454011612016948 0.057262756931125418 -0.52425500691044091 0.12473436437194754 0.073192222726879891 -0.49689922160728306 0.069094036033890582 0.13762578412219528 0.069260168246906034 0.011526768636118087 0.17628475267347984 0.45818909741002212 -0.54888148014020754
leaf_weight=612.46019315440208 1931.2918278221041 41.371937266550958 1761.4921770207584 1310.2149156490341 2527.3427279246971 1499.4617530885153 16080.683722633868 6323.9942128951661 2566.945257528685 3208.9261585655622 1240.2837898521684 5468.6897484948859 507.7728284643963 1747.90919059515 1942.1362191946246 170.51036127004772 159.24017570447177 1972.8296618703753 3279.5146625679918 5084.7464306224138 2741.0854655057192 1704.6436186176725 1448.2493218421005
leaf_count=4905 9118 2354 4775 8695 7686 5553 75460 47770 89329 16315 4640 36868 39758 4810 5380 10030 3192 7601 11593 17344 7521 6364 170511
internal_value=0 -0.00647823 0.00868299 -0.00542662 0.289755 0.00148873 -0.0235943 -0.0498936 -0.0948193 0.037567 0.0682702 0.0204147 -0.330516 0.0574438 -0.0179701 -0.484298 -0.216986 0.211872 0.0779515 0.0412081 0.118852 0.387575 -0.539097
internal_weight=0 59168.5 57349.1 53614.8 6163.28 52494.6 36199.7 28180.5 18647.6 9532.92 8019.19 6778.9 1120.23 16294.9 3441.6 1819.37 329.751 3734.32 12853.3 6832.66 6020.6 3635.94 1489.62
internal_count=597572 574404 388317 375941 23168 331278 279077 228874 164789 64085 50203 45563 44663 52201 10933 186087 13222 12376 41268 22154 19114 15482 172865
is_linear=0
shrinkage=0.55


Tree=7
num_leaves=31
num_cat=0
split_feature=138 136 136 138 138 16 49 24 127 60 57 139 138 25 14 137 82 84 138 13 119 112 104 104 132 138 68 136 139 19
split_gain=797.662 656.67 286.886 247.862 230.865 342.426 283.099 257.191 253.115 318.168 217.01 189.026 128.396 106.04 100.31 88.375 88.0682 70.49 70.5997 68.9601 169.587 50.0491 44.1488 99.7471 40.7085 36.9037 24.2847 24.0519 19.0275 11.7485
threshold=94.500000000000014 1.8025985956192019 -1.4175135493278501 37.500000000000007 20.500000000000004 8.2969026565551776 0.018082500435411934 72.500000000000014 7063.0000000000009 0.0047345000784844169 0.26201400160789495 184.50000000000003 21.500000000000004 6.5000000000000009 6.5000000000000009 0.56231161952018749 13.598410129547121 55.021259307861335 8.5000000000000018 11.500000000000002 -5.1996705532073966 -6.5652244091033927 0.35800899565219885 0.22239550203084948 23.500000000000004 7.5000000000000009 0.0099924998357892054 0.79544910788536083 103.50000000000001 23.773177146911625
decision_type=2 2 2 2 2 2 2 2 2 2 2 2 2 2 2 2 2 2 2 2 2 2 2 2 2 2 2 2 2 2
left_child=1 2 3 12 11 -6 8 10 9 -7 -8 13 -1 17 -2 -14 -9 24 -19 26 -21 -3 23 -5 -4 -15 29 -13 -27 -16
right_child=14 21 4 22 5 6 7 16 -10 -11 -12 27 15 25 19 -17 -18 18 -20 20 -22 -23 -24 -25 -26 28 -28 -29 -30 -31
leaf_value=-0.17916320824197945 0.34139248407451095 0.19817907430807594 0.054574177149773091 -0.51081386961078035 -0.3332897291973092 -0.029631918532050581 -0.082464948076845915 0.051509743880543891 0.45765356618807224 0.27656552444740601 0.049922796448025421 0.11363058374639544 -0.081467640402305391 0.18888440577278287 -0.54360058294276425 0.2296107962050607 0.27271151204400179 0.042841671102511344 -0.086851269754152111 -0.47133155002881155 0.81323944966049988 0.38471941988453945 -0.53955637323996264 0.29628723844159677 -0.030786160938586306 0.020346326453583901 0 0.20638186754085905 0.10269659963097545 -0.015698340974429709
leaf_weight=1419.2522001508623 36.173903233371675 874.77874339139089 8894.4297444769181 97.4718110288959 980.61034098872915 3179.1700905670878 15555.961374704959 1462.580003624782 563.55622537573799 1493.1905770266894 4884.9275512699969 1922.4612742657773 532.53642811533064 1209.668826644076 942.67519979272038 532.07920624315739 924.08656577626243 1973.4957390557975 3387.016295820009 89.420148754725233 35.888507897034287 1336.2273047592025 488.0936676717829 67.843314419034868 2014.4787077861838 1425.7779764863662 30.658346767071635 2191.7403122321703 2772.8203701833263 29.652688676957041
leaf_count=5188 1337 5122 28788 7877 7697 28145 142021 10848 2347 12657 38170 4663 7162 6898 160623 2138 5170 8375 11704 16099 1674 6410 39453 3258 6806 5200 3079 6328 9044 3291
internal_value=0 0.0202352 0.00892004 -0.152456 0.0182504 -0.015268 -0.00390725 -0.0305112 0.111158 0.0676967 -0.0506201 0.0561452 -0.0705093 0.0353577 -0.437533 0.0708353 0.139558 0.0128709 -0.0383545 -0.468589 -0.043284 0.313851 -0.452635 -0.158045 0.0384261 0.102119 -0.516845 0.164371 0.0758024 -0.53194
internal_weight=0 60184.3 57973.2 3137.28 54836 29044.1 28063.5 22827.6 5235.92 4672.36 20440.9 25791.9 2483.87 21677.7 1164.47 1064.62 2386.67 16269.4 5360.51 1128.29 125.309 2211.01 653.409 165.315 10908.9 5408.27 1002.99 4114.2 4198.6 972.328
internal_count=597572 411469 399937 65076 334861 247055 239358 196209 43149 40802 180191 87806 14488 76815 186103 9300 16018 55673 20079 184766 17773 11532 50588 11135 35594 21142 166993 10991 14244 163914
is_linear=0
shrinkage=0.55


Tree=8
num_leaves=17
num_cat=0
split_feature=138 136 139 138 13 130 57 86 138 120 108 137 137 7 81 118
split_gain=410.076 292.53 231.947 191.73 134.425 140.303 178.071 158.525 177.953 147.42 122.342 90.2509 73.4994 28.6289 13.1107 10.0009
threshold=96.500000000000014 2.1117364168167119 24.500000000000004 4.5000000000000009 3.5000000000000004 24590.000000000004 0.43967999517917639 7.5871834754943857 36.500000000000007 -3.278774499893188 8.282816410064699 0.50013595819473278 0.55041611194610607 0.77500000596046459 12.040554046630861 -23.036717414855953
decision_type=2 2 2 2 2 2 2 2 2 2 2 2 2 2 2 2
left_child=1 2 -1 13 -5 7 9 8 -6 -7 -8 14 -13 15 -2 -4
right_child=11 -3 3 4 5 6 10 -9 -10 -11 -12 12 -14 -15 -16 -17
leaf_value=-0.29454404394370876 -0.52393849350726229 0.30569276197704881 0.046309813664838127 0.17405717925376388 -0.035198150683876522 -0.008043429852636487 0.00037410933718599323 0.15672327070537864 -0.20230078654049627 0.10665855569953381 0.25059661215414253 0.19687038488240177 -0.43409369236624229 0.19175636367356136 0 0.12477348969260069
leaf_weight=755.27574731432833 534.49948190618306 996.21560566988774 1209.6580092348158 1324.1310816267505 11284.049711536383 30347.997014215915 999.93623146461323 1039.2694048818666 2344.8492415747605 3802.9132522803266 1562.7288585940842 119.00099217682146 86.283095357241109 1447.0896323937923 15.446928300661964 1243.0926761648152
leaf_count=3174 163357 7154 4581 5662 43886 224980 6549 6053 76164 18458 7107 7093 5264 8879 4347 4864
internal_value=0 0.0114729 0.00624492 0.0103763 0.00158144 -0.00281385 0.015269 -0.048333 -0.0643611 0.00463493 0.154887 -0.393961 -0.0564306 0.12792 -0.509735 0.0880405
internal_weight=0 58357.2 57361 56605.7 52705.9 51381.7 36713.6 14668.2 13628.9 34150.9 2562.67 755.23 205.284 3899.84 549.946 2452.75
internal_count=597572 417511 410357 407183 388859 383197 257094 126103 120050 243438 13656 180061 12357 18324 167704 9445
is_linear=0
shrinkage=0.55


Tree=9
num_leaves=41
num_cat=0
split_feature=138 139 54 138 137 133 135 16 13 138 12 132 46 129 83 124 138 55 137 119 138 132 136 12 129 83 136 127 135 16 17 52 137 19 109 19 135 14 62 79
split_gain=204.286 312.667 230.062 331.323 243.348 146.192 171.114 179.629 142.342 252.687 190.649 180.258 142.257 129.836 125.017 122.63 121.267 120.175 117.446 110.567 177.972 127.682 93.7788 92.4425 123.92 86.9316 94.5555 76.2261 64.6007 64.1662 54.0471 41.9283 38.6306 36.1791 33.8539 27.6776 15.7146 13.0615 9.64246 1.84712
threshold=70.500000000000014 167.50000000000003 0.014816499780863525 114.50000000000001 0.54374569654464733 1.0000000180025095e-35 2.4100000858306889 13.313958168029787 4.5000000000000009 33.500000000000007 7.5000000000000009 72.500000000000014 0.50213700532913219 15820.500000000002 7.7717206478118905 -5.6916165351867667 29.500000000000004 0.11586549878120424 0.56955787539482128 -5.4814724922180167 28.500000000000004 5.5000000000000009 0.26032605767250067 3.5000000000000004 44091.500000000007 7.1657030582427987 -0.17465247213840482 28.500000000000004 71.024673461914077 8.9473128318786639 26.186538696289066 0.08054050058126451 0.64340850710868847 25.515949249267582 20.479983329772953 6.0182485580444345 11.873477935791017 60.500000000000007 0.18581300228834155 147.84929656982425
decision_type=2 2 2 2 2 2 2 2 2 2 2 2 2 2 2 2 2 2 2 2 2 2 2 2 2 2 2 2 2 2 2 2 2 2 2 2 2 2 2 2
left_child=5 29 3 4 13 6 8 14 9 27 -11 12 19 -3 -8 16 30 39 -7 21 -21 -10 -14 -18 -25 32 -27 34 38 -2 31 -9 -13 37 -1 -20 -37 -31 -5 -4
right_child=1 2 17 28 -6 18 7 15 11 10 -12 25 22 -15 -16 -17 23 -19 35 20 -22 -23 -24 24 -26 26 -28 -29 -30 33 -32 -33 -34 -35 -36 36 -38 -39 -40 -41
leaf_value=0.027427676314892607 0.23270112369720847 1.1835079457209097 -0.52260932195725884 -0.52051906523981584 0 -0.060402086649508691 -0.39597400759432944 -0.12050959343882049 0.04877347403131984 0.10168879604261917 0.51074879008991247 -0.38101671029849737 0.26270643767042212 0.33250912068876259 -0.06621935771192318 0.094737493708335341 0.038977758830293315 0.2215631506640473 0.2400107255072316 0.0053367224042951984 -0.24161911359210977 -0.02619753070605477 0.051597165046281611 -0.15606430822992484 -0.55810861697560854 0.087725298466201029 -0.17926040311614194 0.11818658842053736 0.2870431739379013 -0.14616032075597304 0.068253603505472146 0.0077152804959282452 -0.13983410561731857 0.0044690439006506944 -0.090571211852467776 0.055148920262770962 0.16265745797094039 -0.54722523812933033 0 -0.051846704191946862
leaf_weight=1611.3575277432101 26.137616206076927 132.97745498595759 261.77675379626453 162.89353656978346 197.42966522392817 900.93519180035219 768.38435802608728 1690.7051674552495 15157.550703730667 783.05691143032163 662.54766924772412 488.81288667418994 1043.0746055518975 131.31512901827227 699.30300457286648 1738.6337392461719 349.5496240259381 77.231958068208769 1025.4966982173501 2320.3273748103529 1385.5015638819896 12485.089176332112 1789.5184216294438 908.55435346392915 333.49139642855152 724.27036348357797 848.93825216474943 1841.9464569807751 26.745540007133968 63.764846237492748 1344.6890660352074 1307.8526563338237 487.51748991408385 26.237179366289638 1291.8988338408526 861.60515317111276 1199.2669134460157 602.20259071013425 15.563226450583896 24.562556391349062
leaf_count=4983 2132 6989 50180 54599 5635 3885 5861 6401 88597 6372 3903 7185 4580 6685 3720 6767 4526 4584 4439 8220 11885 83292 8058 13777 5358 5255 4761 6156 2744 8267 4399 4845 2035 2456 5512 4202 8226 117535 4683 3883
internal_value=0 -0.181172 0.00977062 0.204714 0.464338 0.00919934 0.00133835 -0.066863 0.0159693 0.0930757 0.293967 0.00284287 0.0134881 0.800452 -0.242974 -0.0324036 -0.0704218 -0.333211 0.110588 0.00267349 -0.086259 0.0147673 0.131354 -0.200156 -0.270506 -0.13783 -0.0539739 0.0305784 -0.355425 -0.457414 -0.0216295 -0.063374 -0.267093 -0.49193 -0.0237999 0.161847 0.120112 -0.517315 -0.482582 -0.498818
internal_weight=0 1748.84 1030.5 666.925 461.722 56049.9 52062.6 9141.16 42921.4 6190.81 1445.6 36730.6 34181.1 264.293 1467.69 7673.48 5934.84 363.571 3987.3 31348.5 3705.83 27642.6 2832.59 1591.6 1242.05 2549.54 1573.21 4745.2 205.202 718.342 4343.25 2998.56 976.33 692.205 2903.26 3086.37 2060.87 665.967 178.457 286.339
internal_count=597572 270372 139982 81335 19309 327200 306448 55654 250794 26926 10275 223868 204632 13674 9581 46073 39306 58647 20752 191994 20105 171889 12638 23661 19135 19236 10016 16651 62026 130390 15645 11246 9220 128258 10495 16867 12428 125802 59282 54063
is_linear=0
shrinkage=0.55


end of trees

feature_importances:
Column_138=68
Column_136=40
Column_139=39
Column_137=23
Column_130=11
Column_13=8
Column_129=7
Column_14=5
Column_19=5
Column_127=5
Column_128=5
Column_135=5
Column_12=4
Column_15=4
Column_17=4
Column_83=4
Column_109=4
Column_118=4
Column_126=4
Column_16=3
Column_57=3
Column_60=3
Column_104=3
Column_105=3
Column_112=3
Column_122=3
Column_123=3
Column_125=3
Column_132=3
Column_133=3
Column_7=2
Column_10=2
Column_54=2
Column_68=2
Column_79=2
Column_82=2
Column_84=2
Column_113=2
Column_115=2
Column_119=2
Column_120=2
Column_131=2
Column_0=1
Column_8=1
Column_9=1
Column_11=1
Column_24=1
Column_25=1
Column_30=1
Column_40=1
Column_43=1
Column_45=1
Column_46=1
Column_49=1
Column_50=1
Column_52=1
Column_55=1
Column_59=1
Column_62=1
Column_63=1
Column_70=1
Column_72=1
Column_74=1
Column_76=1
Column_78=1
Column_81=1
Column_86=1
Column_88=1
Column_91=1
Column_92=1
Column_100=1
Column_101=1
Column_107=1
Column_108=1
Column_110=1
Column_114=1
Column_116=1
Column_121=1
Column_124=1

parameters:
[boosting: gbdt]
[objective: binary]
[metric: binary_logloss]
[tree_learner: serial]
[device_type: cpu]
[data: ]
[valid: ]
[num_iterations: 10]
[learning_rate: 0.55]
[num_leaves: 64]
[num_threads: 0]
[deterministic: 0]
[force_col_wise: 0]
[force_row_wise: 0]
[histogram_pool_size: -1]
[max_depth: 8]
[min_data_in_leaf: 4560]
[min_sum_hessian_in_leaf: 15.4]
[bagging_fraction: 1]
[pos_bagging_fraction: 1]
[neg_bagging_fraction: 1]
[bagging_freq: 0]
[bagging_seed: 3]
[feature_fraction: 1]
[feature_fraction_bynode: 1]
[feature_fraction_seed: 2]
[extra_trees: 0]
[extra_seed: 6]
[early_stopping_round: 5]
[first_metric_only: 0]
[max_delta_step: 0]
[lambda_l1: 7.4]
[lambda_l2: 9]
[linear_lambda: 0]
[min_gain_to_split: 1.8]
[drop_rate: 0.1]
[max_drop: 50]
[skip_drop: 0.5]
[xgboost_dart_mode: 0]
[uniform_drop: 0]
[drop_seed: 4]
[top_rate: 0.2]
[other_rate: 0.1]
[min_data_per_group: 100]
[max_cat_threshold: 32]
[cat_l2: 10]
[cat_smooth: 10]
[max_cat_to_onehot: 4]
[top_k: 20]
[monotone_constraints: ]
[monotone_constraints_method: basic]
[monotone_penalty: 0]
[feature_contri: ]
[forcedsplits_filename: ]
[refit_decay_rate: 0.9]
[cegb_tradeoff: 1]
[cegb_penalty_split: 0]
[cegb_penalty_feature_lazy: ]
[cegb_penalty_feature_coupled: ]
[path_smooth: 0]
[interaction_constraints: ]
[verbosity: -1]
[saved_feature_importance_type: 0]
[linear_tree: 0]
[max_bin: 255]
[max_bin_by_feature: ]
[min_data_in_bin: 3]
[bin_construct_sample_cnt: 200000]
[data_random_seed: 1]
[is_enable_sparse: 1]
[enable_bundle: 1]
[use_missing: 1]
[zero_as_missing: 0]
[feature_pre_filter: 0]
[pre_partition: 0]
[two_round: 0]
[header: 0]
[label_column: ]
[weight_column: ]
[group_column: ]
[ignore_column: ]
[categorical_feature: ]
[forcedbins_filename: ]
[precise_float_parser: 0]
[objective_seed: 5]
[num_class: 1]
[is_unbalance: 0]
[scale_pos_weight: 1]
[sigmoid: 1]
[boost_from_average: 1]
[reg_sqrt: 0]
[alpha: 0.9]
[fair_c: 1]
[poisson_max_delta_step: 0.7]
[tweedie_variance_power: 1.5]
[lambdarank_truncation_level: 30]
[lambdarank_norm: 1]
[label_gain: ]
[eval_at: 10]
[multi_error_top_k: 1]
[auc_mu_weights: ]
[num_machines: 1]
[local_listen_port: 12400]
[time_out: 120]
[machine_list_filename: ]
[machines: ]
[gpu_platform_id: -1]
[gpu_device_id: -1]
[gpu_use_dp: 0]
[num_gpu: 1]

end of parameters

pandas_categorical:null
